{"model_data": {"model": "SimpleRNN", "input_size": 1, "skip": 1, "output_size": 1, "unit_type": "LSTM", "num_layers": 1, "hidden_size": 24, "bias_fl": true}, "state_dict": {"rec.weight_ih_l0": [[-0.06530129909515381], [-0.20007403194904327], [0.015587630681693554], [0.04252590239048004], [0.0013185277348384261], [0.1350858360528946], [-0.01552156638354063], [0.007542856968939304], [-0.038216471672058105], [0.028693825006484985], [-0.13553467392921448], [-0.0010620676912367344], [0.04646618291735649], [0.015444595366716385], [-0.03928136080503464], [0.03840361163020134], [0.14132177829742432], [-0.30562564730644226], [0.012102799490094185], [0.16282819211483002], [0.3465724587440491], [0.23980237543582916], [-0.29447850584983826], [0.2900659739971161], [0.05968658626079559], [-0.054351117461919785], [-0.008417431265115738], [-0.044742029160261154], [-0.19020700454711914], [-0.09922350198030472], [-0.13788855075836182], [0.140848770737648], [-0.09134668856859207], [0.23347343504428864], [0.015210621990263462], [-0.11937996745109558], [-0.009801050648093224], [0.04681609943509102], [-0.10393927246332169], [0.007238837890326977], [-0.04982330650091171], [0.3961608111858368], [0.05574250593781471], [0.0593142956495285], [0.3145122528076172], [0.3331207036972046], [-0.2759033441543579], [-0.27991026639938354], [0.4416094422340393], [-0.004962685517966747], [-0.3093995451927185], [-0.013147133402526379], [-1.347625970840454], [0.05778886005282402], [0.1713474541902542], [0.046418070793151855], [0.11721635609865189], [-0.3346234858036041], [0.047278888523578644], [-0.3914053440093994], [0.23395207524299622], [-0.06756702810525894], [0.06423559784889221], [-0.395183265209198], [0.02493888884782791], [3.461897373199463], [-0.12379361689090729], [-0.049419231712818146], [-0.4862193465232849], [1.0821492671966553], [-0.12094593048095703], [0.4471573531627655], [-0.11645489931106567], [-0.04973732680082321], [0.1462422013282776], [0.0381568968296051], [-0.045851390808820724], [0.04976198449730873], [-0.6377682685852051], [-0.019901959225535393], [-0.11471842229366302], [0.02828384004533291], [0.23846806585788727], [-0.0361369289457798], [0.06149860844016075], [-0.018330151215195656], [-0.03620011731982231], [0.05753133445978165], [-0.017317771911621094], [0.12632955610752106], [-0.12895861268043518], [-0.20571155846118927], [0.19406276941299438], [0.020929735153913498], [-0.30697450041770935], [0.21697767078876495]], "rec.weight_hh_l0": [[-0.15919029712677002, 0.04881766811013222, 0.1289627104997635, -0.23407386243343353, -0.0016293982043862343, -0.08016780018806458, 0.06715405732393265, -0.15320326387882233, -0.03971283882856369, -0.060244739055633545, 0.015987170860171318, -0.06769758462905884, 0.17372912168502808, -0.12371852993965149, 0.019870620220899582, -0.10492254048585892, -0.14848092198371887, -0.20628739893436432, 0.2211456596851349, 0.21480470895767212, -0.01907949335873127, -0.05791778489947319, -0.03469059616327286, -0.14204038679599762], [0.20363913476467133, 0.06560026854276657, 0.07642990350723267, -0.0043785362504422665, 0.038574300706386566, -0.003912456799298525, -0.010840688832104206, 0.2374180555343628, -0.10830598324537277, 0.1840830147266388, -0.19996453821659088, -0.03361918404698372, -0.027350235730409622, 0.06785944849252701, 0.06540191173553467, -0.046729814261198044, -0.07921165227890015, -0.13788354396820068, 0.011637898162007332, 0.0031183308456093073, 0.07185570895671844, 0.04855760186910629, -0.05734949931502342, 0.035825036466121674], [-0.06813482195138931, -0.2565329968929291, 0.04146767407655716, 0.34177517890930176, -0.017765725031495094, -0.05948055535554886, -0.25305524468421936, 0.11111307144165039, 0.18169142305850983, 0.0020747999660670757, 0.29831311106681824, -0.05266054347157478, -0.37303438782691956, 0.018522733822464943, -0.13618983328342438, 0.005880347918719053, 0.023847542703151703, 0.15579241514205933, -0.35082191228866577, -0.2519693076610565, -0.2080296277999878, -0.20137889683246613, 0.2130109816789627, 0.2448093742132187], [0.18732620775699615, 0.1757427453994751, -0.1742333024740219, -0.22025710344314575, -0.2624208331108093, -0.013454236090183258, 0.8338408470153809, -0.2492736428976059, -0.21822601556777954, 0.21018296480178833, 0.20191840827465057, 0.13027653098106384, -0.11309503018856049, -0.05642114207148552, 0.21505382657051086, 0.01935006119310856, 0.15367883443832397, 0.10309513658285141, 0.5083701610565186, 0.3569389283657074, 0.12936152517795563, 0.12065070122480392, -0.2935031056404114, 0.3306802809238434], [-0.11809171736240387, -0.21448832750320435, -0.08676273375749588, 0.38440561294555664, 0.0657687857747078, -0.04875069484114647, -0.24816536903381348, 0.11711683124303818, 0.19122090935707092, -0.06286471337080002, 0.35360443592071533, -0.02764570154249668, -0.3599846065044403, -0.03199001029133797, -0.13525593280792236, 0.0001792556286090985, 0.031076233834028244, 0.1616271734237671, -0.3950157165527344, -0.255411833524704, -0.2500346004962921, -0.17800427973270416, 0.2702482342720032, 0.2458599954843521], [0.011767923831939697, 0.06959988921880722, -0.0038780421018600464, -0.1216844841837883, -0.06529460847377777, -0.03414130583405495, 0.23673777282238007, 0.06879028677940369, -0.1767781674861908, 0.03200880065560341, -0.19721636176109314, -0.1436687707901001, 0.052753787487745285, -0.17146219313144684, 0.14976289868354797, 0.09483518451452255, -0.14291898906230927, 0.10676408559083939, 0.38692179322242737, 0.05989280715584755, 0.036351438611745834, -0.09590143710374832, -0.1501321792602539, 0.03157626837491989], [0.03849367797374725, -0.02146015875041485, 0.009285884909331799, 0.1482945829629898, 0.0676984116435051, -0.025418821722269058, 0.025510653853416443, -0.08341319859027863, 0.026145825162529945, 0.09629153460264206, 0.05339112505316734, 0.0849035456776619, -0.1641981303691864, 0.004175777547061443, -0.05118584260344505, 0.02667883038520813, 0.019496070221066475, 0.01899087429046631, -0.117484912276268, -0.12896651029586792, 0.0024184079375118017, 0.039574749767780304, 0.031054792925715446, 0.1275888830423355], [-0.09111402183771133, -0.06958772987127304, 0.02821490168571472, 0.3041265308856964, -0.003736356273293495, -0.029589280486106873, -0.17903389036655426, -0.060945190489292145, 0.13677483797073364, -0.027656322345137596, 0.29213210940361023, 0.0009373011998832226, -0.2700640559196472, -0.006962874438613653, -0.12499749660491943, 0.0021458996925503016, 0.020041311159729958, 0.15532943606376648, -0.3071744740009308, -0.21870476007461548, -0.16275811195373535, -0.08700805902481079, 0.17448489367961884, 0.22951379418373108], [-0.4139227271080017, 0.8850376009941101, 0.11348728835582733, 0.36520305275917053, 0.006486879196017981, 0.22750909626483917, 0.6985296607017517, 0.04457849636673927, -0.2752736508846283, -0.2221570611000061, 0.4545428454875946, -0.33716684579849243, -0.213033989071846, -0.20617100596427917, 0.4928990602493286, -0.009132811799645424, -0.0229928120970726, 0.002750591840595007, 0.655687153339386, 0.16316600143909454, 0.3398268520832062, 1.1165741682052612, 0.015591430477797985, 0.12704041600227356], [-0.0793737843632698, -0.1922752410173416, -0.030872251838445663, 0.330270379781723, 0.042796358466148376, -0.035322900861501694, -0.27802714705467224, 0.0162177924066782, 0.19480007886886597, -0.003903633449226618, 0.3303358256816864, -0.08209145069122314, -0.307049423456192, -0.021899035200476646, -0.13888965547084808, -0.05584459751844406, 0.03246171772480011, 0.14548838138580322, -0.34862086176872253, -0.23711514472961426, -0.1863744556903839, -0.16684019565582275, 0.19770950078964233, 0.2654516100883484], [-0.2363920360803604, 0.521267294883728, 0.019912123680114746, -0.3850509226322174, -0.5856751799583435, 0.13696348667144775, 0.46805575489997864, -0.12306775897741318, -0.16179227828979492, 0.021145565435290337, 0.27591049671173096, 0.1915113925933838, 0.13608120381832123, 0.10337378829717636, 0.33350950479507446, 0.24710500240325928, -0.08012772351503372, -0.24807707965373993, 0.4299651086330414, 0.4100966453552246, 0.3988960087299347, 0.6227719783782959, -0.1695595383644104, -0.18307223916053772], [-0.06563930213451385, -0.16177868843078613, -0.24895799160003662, -0.12537269294261932, -0.24849584698677063, -0.08295436203479767, 0.21250417828559875, 0.03931557759642601, 0.15818998217582703, 0.053148768842220306, -0.08850474655628204, -0.12596020102500916, -0.06782753765583038, -0.0800279974937439, 0.05058236047625542, 0.11586668342351913, 0.09264387935400009, 0.035511404275894165, 0.06839053332805634, 0.06180392578244209, -0.014308755286037922, -0.005637675989419222, 0.0031852026004344225, -0.016996491700410843], [-0.02376960776746273, 0.3029061257839203, 0.021123014390468597, -0.13154110312461853, -0.46467918157577515, 0.09747666120529175, 0.38581255078315735, 0.16781064867973328, -0.36811792850494385, 0.13399744033813477, 0.4178882837295532, -0.043468426913022995, 0.03378608077764511, -0.2721152901649475, 0.39675772190093994, 0.2131238877773285, -0.27448591589927673, 0.14895009994506836, 0.4503019452095032, 0.635816216468811, 0.39724811911582947, 0.6323728561401367, -0.296932190656662, 0.06059133633971214], [-0.019274519756436348, -0.2286825180053711, 0.12022984772920609, 0.29922714829444885, -0.029943345114588737, -0.039285849779844284, -0.25773635506629944, 0.1606357842683792, 0.1155375987291336, -0.05796980485320091, 0.2536332607269287, -0.07575724273920059, -0.3245798945426941, -0.014824221841990948, -0.100426085293293, 0.008641247637569904, 0.028171919286251068, 0.20958402752876282, -0.3022286593914032, -0.22244086861610413, -0.1888168305158615, -0.2121872752904892, 0.1767967939376831, 0.21094049513339996], [-0.04018991068005562, 0.025362540036439896, 0.056287072598934174, -0.42859044671058655, 0.02196786366403103, -0.8089764714241028, 0.23526494204998016, -0.017941107973456383, -0.36154019832611084, -0.029770301654934883, -0.04448134824633598, -0.2859721779823303, 0.3242672085762024, 0.04085521399974823, -0.21394453942775726, 0.011567570269107819, 0.23920972645282745, -0.019055236130952835, 0.5258496999740601, 0.19267074763774872, 0.33483660221099854, -0.029308481141924858, -0.23557007312774658, 0.11640406399965286], [0.003798404010012746, -0.13153058290481567, 0.10721071809530258, 0.25132760405540466, -0.11791199445724487, -0.07238322496414185, -0.12021106481552124, -0.001318230526521802, 0.06500842422246933, -0.062361910939216614, 0.17483189702033997, 0.003236475633457303, -0.2601734399795532, 0.10172025114297867, -0.11507152765989304, -0.02722090296447277, -0.0076216720044612885, 0.19428862631320953, -0.26264744997024536, -0.20257563889026642, -0.14552432298660278, -0.10568009316921234, 0.15186983346939087, 0.15276946127414703], [-0.09957437962293625, -0.076198510825634, 0.008702905848622322, -0.3635220527648926, -0.015229235403239727, -0.11424145847558975, 0.19006934762001038, -0.0263753030449152, -0.011737801134586334, 0.03994173929095268, -0.21510307490825653, -0.19603228569030762, 0.26987195014953613, -0.12972606718540192, 0.3842393755912781, 0.011512759141623974, -0.031193066388368607, 0.015950169414281845, 0.7719361186027527, 0.45640793442726135, -0.4841878116130829, -0.03182520344853401, -0.3620032072067261, -0.003167634829878807], [-0.09231919795274734, -0.45091181993484497, -0.013428538106381893, 0.10108638554811478, 0.004436032380908728, 0.12275401502847672, -0.8435371518135071, 0.9286449551582336, 0.007562392391264439, -0.6498439908027649, -0.7495933771133423, 0.06075655296444893, 0.012708042748272419, 0.16621896624565125, -0.1965714544057846, -0.01472880132496357, 0.1863570660352707, 0.2681072950363159, -0.40347135066986084, -0.2962895929813385, -0.2246733456850052, -0.5660373568534851, 0.40666061639785767, -0.9676446914672852], [0.007258518598973751, 0.00829096045345068, -0.024234607815742493, 0.08836302161216736, -0.002731354208663106, 0.00395947927609086, 0.007881373167037964, -0.04045268893241882, 0.03155601769685745, -0.030314013361930847, 0.07757525146007538, 0.015851205214858055, -0.08160444349050522, -0.04008937254548073, -0.024018337950110435, -0.010767354629933834, 0.031912319362163544, 0.08935922384262085, -0.08522661030292511, -0.05623045936226845, -0.049045439809560776, 0.065118707716465, 0.017714956775307655, 0.0950281172990799], [0.21948418021202087, 0.19205740094184875, 0.05090826749801636, -0.1842910498380661, 0.05030415579676628, 0.014001861214637756, 0.4016995131969452, 0.024903442710638046, -0.27063021063804626, 0.08026067912578583, -0.18485473096370697, -0.055556122213602066, -0.26917627453804016, 0.0679028257727623, 0.22128508985042572, -0.044122688472270966, -0.035417307168245316, 0.08600588142871857, 0.2974262237548828, 0.08641931414604187, 0.19188006222248077, 0.18446014821529388, -0.3070978820323944, -0.04620293155312538], [-0.06182122975587845, 0.336722195148468, -0.02725856751203537, -0.6170506477355957, -0.10737130790948868, -0.3685714304447174, 0.24912770092487335, 0.286082923412323, -0.3786393702030182, 0.02257336489856243, -0.02994537726044655, -0.1731136292219162, 0.10676901042461395, -0.4487093985080719, 0.5977129936218262, 0.5937200784683228, -0.46523329615592957, 0.11717367172241211, 1.0343327522277832, -0.04870808869600296, 0.2920345664024353, -0.11319528520107269, -0.3940078020095825, 0.23136115074157715], [0.1946915090084076, -0.15251374244689941, 0.0888141542673111, -0.045826058834791183, -0.4115927517414093, -0.08711771667003632, -0.1703951507806778, 0.502478837966919, -0.12301430106163025, -0.3390602469444275, -0.31232795119285583, 0.08701425790786743, 0.22017283737659454, 0.09823146462440491, 0.07133646309375763, 0.10651467740535736, -0.17385035753250122, 0.3998138904571533, 0.04218999668955803, 0.057707738131284714, 0.0018052970990538597, -0.054036859422922134, 0.028645100072026253, -0.07092317938804626], [-0.19784031808376312, 0.03913935646414757, -0.08430080860853195, 0.0017071443144232035, 0.07683909684419632, 0.0881066843867302, -0.10931280255317688, 0.1718459576368332, 0.040599972009658813, -0.14544722437858582, -0.14798806607723236, -0.05640805512666702, -0.05960559844970703, 0.04613422974944115, 0.21629786491394043, 0.3936845362186432, -0.09723135828971863, -0.18036898970603943, -0.0085055623203516, 0.11588089168071747, 0.09322506934404373, 0.10259661078453064, 0.06515081971883774, -0.393856018781662], [0.10484430193901062, 0.5522262454032898, 0.15025241672992706, -0.6556472182273865, -0.2497672140598297, -0.046818699687719345, 0.638531506061554, -0.4541609287261963, -0.43733370304107666, -0.10562370717525482, 0.3943713307380676, -0.08850891888141632, -0.23985634744167328, 0.13290047645568848, 0.4581587016582489, 0.27978697419166565, -0.16230416297912598, -0.1746036559343338, 0.707137942314148, 0.5726600289344788, 0.23564277589321136, 0.776237428188324, -0.30063381791114807, 0.49229034781455994], [-0.13289107382297516, -0.11230181902647018, 0.023135649040341377, 0.26873207092285156, 0.019921761006116867, -0.03867746517062187, -0.28367456793785095, -0.15587730705738068, 0.3189329206943512, 0.25783389806747437, -0.040132809430360794, -0.18765519559383392, -0.3028966188430786, -0.10884542018175125, -0.17055660486221313, -0.12960104644298553, -0.007711135316640139, -0.10909261554479599, -0.35655614733695984, -0.23355048894882202, -0.15306520462036133, -0.04436260834336281, 0.13895604014396667, 0.1187991052865982], [0.13142089545726776, 0.05231603980064392, 0.12419227510690689, 0.2282014787197113, 0.041602473706007004, 0.010342336259782314, -0.23725804686546326, 0.24582161009311676, -0.03823106735944748, 0.1333591341972351, -0.049602262675762177, -0.08268742263317108, -0.19348937273025513, 0.011010301299393177, -0.09084614366292953, -0.1805180311203003, -0.08258883655071259, -0.0034762900322675705, -0.22572997212409973, -0.20787633955478668, -0.09318249672651291, -0.036951858550310135, 0.13220281898975372, 0.22491273283958435], [0.060907650738954544, 0.06828505545854568, 0.09259942919015884, -0.2600776255130768, -0.06748200953006744, 0.007554836571216583, 0.2238028198480606, 0.031740702688694, -0.09876693785190582, 0.05615029111504555, -0.27673059701919556, -0.015639564022421837, 0.14084991812705994, 0.02791953645646572, 0.1110558956861496, 0.03578779846429825, -0.013635395094752312, -0.10399066656827927, 0.28021907806396484, 0.18045519292354584, 0.13587096333503723, 0.08217458426952362, -0.17691576480865479, -0.1725868284702301], [0.15316835045814514, -0.3188745677471161, -0.007946062833070755, 0.4400235116481781, 0.1579512655735016, -0.003788846777752042, -0.39263829588890076, 0.07001955807209015, 0.034254658967256546, -0.0012854821979999542, 0.1173916608095169, 0.03584736958146095, -0.3864557445049286, -0.1290348321199417, -0.37974488735198975, -0.04908515140414238, 0.14424213767051697, 0.16489556431770325, -0.7217651009559631, -0.5685960650444031, -0.5781100988388062, -0.3833647072315216, 0.2732868790626526, 0.24359411001205444], [-0.1416185349225998, 0.13096101582050323, -0.33379197120666504, 0.04864371567964554, -0.1364249885082245, -0.006469801999628544, 0.18998977541923523, -0.01232265867292881, -0.06461483240127563, 0.19854681193828583, 0.06145743653178215, 0.04315025731921196, -0.053930409252643585, 0.09022112935781479, 0.03115554340183735, 0.02398805133998394, -0.02765653096139431, 0.03718075156211853, -0.014305893331766129, -0.033898770809173584, -0.13675668835639954, -0.15164229273796082, 0.09059519320726395, -0.0491669662296772], [-0.05082429200410843, -0.011103828437626362, -0.005720005836337805, 0.4947691261768341, 0.03473169356584549, 0.18774734437465668, -0.49847158789634705, -0.14821022748947144, 0.029513422399759293, 0.08169503509998322, 0.2566092908382416, 0.08774435520172119, -0.23067882657051086, 0.027708731591701508, -0.1750701516866684, -0.18219242990016937, 0.15630467236042023, -0.04684024676680565, -0.5986922383308411, -0.4461202025413513, -0.19252802431583405, 0.08970895409584045, 0.29209068417549133, 0.1249476745724678], [0.05184417590498924, 0.052674196660518646, -0.06286600977182388, 0.2557426393032074, 0.25864046812057495, -0.04627758637070656, 0.13688543438911438, -0.1827966570854187, -0.020722154527902603, 0.18145781755447388, -0.07153809815645218, 0.22855617105960846, -0.322929322719574, -0.047940559685230255, -0.09760826826095581, 0.18320590257644653, -0.016092292964458466, -0.11458126455545425, -0.19834397733211517, -0.16629275679588318, 0.14440752565860748, 0.21341797709465027, 0.006471582222729921, 0.2609115242958069], [0.16668185591697693, -0.09730936586856842, 0.06445366889238358, 0.18702329695224762, 0.4827090799808502, -0.024836465716362, -0.11118665337562561, -0.2300383597612381, -0.08747763186693192, 0.05787382647395134, 0.17534054815769196, 0.0500846691429615, -0.19546322524547577, 0.2700229287147522, -0.1955878734588623, 0.04112222418189049, 0.00389923551119864, 0.06444774568080902, -0.21808817982673645, -0.21091997623443604, -0.11021777987480164, -0.07671689242124557, 0.1610231101512909, 0.2261955887079239], [0.16248387098312378, -0.26410430669784546, -0.03996717557311058, 0.4428856670856476, -0.11593268811702728, -0.08641964942216873, -0.5300111174583435, 0.23905932903289795, -0.2230922281742096, -0.5238984227180481, -0.1169840544462204, 0.10888524353504181, -0.5520631074905396, -0.24579603970050812, -0.41201069951057434, -0.13711538910865784, 0.25479552149772644, 0.8545226454734802, -0.8220648765563965, -0.7227162718772888, -0.6226198673248291, 0.082644522190094, 0.2528330087661743, -0.312391072511673], [0.14396773278713226, -0.1944611817598343, -0.1546730250120163, 0.08651477843523026, 0.1408253163099289, -0.06352923065423965, -0.03281278535723686, 0.1692417412996292, 0.23838262259960175, 0.1379360556602478, -0.031053882092237473, -0.12002956867218018, 0.0526895597577095, 0.01805056259036064, -0.12592366337776184, -0.034596819430589676, 0.04314161092042923, 0.14913728833198547, -0.13392849266529083, -0.11928115040063858, -0.047783657908439636, -0.15372802317142487, -0.022809699177742004, 0.24019689857959747], [-0.3469442129135132, -0.31468212604522705, 0.14511951804161072, 0.4224516451358795, -0.1251796931028366, -0.004302764777094126, -0.6882556676864624, 0.14058512449264526, 0.3123358488082886, 0.1446673721075058, 0.24724939465522766, 0.049965765327215195, -0.27343443036079407, -0.13214018940925598, -0.48721861839294434, -0.058149971067905426, 0.07628216594457626, 0.2852969169616699, -0.7096980214118958, -0.5291834473609924, -0.509282648563385, -0.4233282506465912, 0.4378073811531067, 0.017105164006352425], [-0.19495119154453278, -0.10970940440893173, -0.20598208904266357, 0.2262565642595291, 0.010524168610572815, 0.05098157376050949, -0.07655951380729675, -0.14039188623428345, 0.2786186635494232, -0.06320810317993164, 0.24091623723506927, 0.05390741676092148, 0.02310718037188053, -0.06336836516857147, -0.10100365430116653, 0.01601778157055378, 0.14564044773578644, 0.07678815722465515, -0.3142744302749634, -0.2014579325914383, -0.12948855757713318, -0.02475351095199585, 0.14006181061267853, 0.04267394170165062], [-0.03841955587267876, -0.41228315234184265, 0.243109792470932, 0.5653994083404541, -0.21316105127334595, -0.010500120930373669, -0.5153434872627258, 0.10725995153188705, -0.08865472674369812, -0.6248183846473694, 0.016499631106853485, 0.18903766572475433, -0.2801739275455475, -0.3007601201534271, -0.3574809432029724, -0.08903039246797562, 0.0548221655189991, 0.4382866621017456, -0.2757158875465393, -0.35110998153686523, -0.13366103172302246, -0.4754597246646881, 0.18965661525726318, -0.18703623116016388], [-0.03311832994222641, 0.03084135614335537, 0.1809232234954834, 0.14063718914985657, 0.1269291192293167, 0.03958836942911148, -0.11379148811101913, -0.18944385647773743, -0.09534871578216553, 0.3217809796333313, 0.14937932789325714, -0.11927437037229538, 0.014477001503109932, -0.07875364273786545, -0.053580526262521744, -0.05512361600995064, -0.028208641335368156, -0.24658425152301788, -0.08512699604034424, -0.0700295940041542, 0.08183653652667999, -0.4774905741214752, -0.08987857401371002, 9.119798960455228e-06], [-0.1979438066482544, -0.005861015059053898, 0.01097971759736538, 0.1404074877500534, 0.02965688705444336, -0.9180607199668884, -0.2721770107746124, 0.004684773739427328, 0.021588699892163277, 0.0923839882016182, -0.017232993617653847, -0.16602058708667755, 0.05117193982005119, 0.08292225003242493, -0.6077446341514587, -0.014281831681728363, 0.412084698677063, -0.07314257323741913, -0.3848251402378082, -0.34678393602371216, -0.07537807524204254, 0.19629041850566864, 0.21556267142295837, 0.06520234793424606], [0.16548803448677063, 0.0516439825296402, -0.052758801728487015, 0.08213977515697479, -0.05522839352488518, -0.12404897809028625, 0.08478892594575882, -0.010636776685714722, -0.12584738433361053, 0.08745986968278885, -0.12129350006580353, 0.1656273752450943, -0.05350309610366821, 0.2078510969877243, -0.04228272661566734, 0.06771431118249893, 0.03487136587500572, -0.01310101617127657, -0.10872451215982437, -0.07186216861009598, -0.05972389131784439, 0.06131399795413017, 0.024893546476960182, 0.09676213562488556], [-0.19522586464881897, -0.04783844202756882, 0.06182265281677246, 0.6084725260734558, 0.040905069559812546, 0.07594826817512512, -0.4711618423461914, 0.038436539471149445, 0.1296919733285904, 0.11380745470523834, 0.23615634441375732, 0.04849759116768837, -0.25461339950561523, 0.061846017837524414, -0.28497135639190674, -0.06919000297784805, 0.061871543526649475, -0.02929222397506237, -0.769121527671814, -0.4278208315372467, -0.3355649411678314, 0.045525819063186646, 0.392102986574173, 0.20826345682144165], [0.21275398135185242, -0.40594789385795593, -0.05361538007855415, -0.1583143174648285, 0.1811089664697647, -0.04518308490514755, -0.2001713365316391, 0.6284970641136169, -0.08639869093894958, 0.07312417775392532, -0.8059307932853699, 0.23296110332012177, -0.10811298340559006, -0.0912259891629219, -0.2665809094905853, 0.03291325271129608, 0.16057312488555908, 0.219136580824852, -0.23933377861976624, -0.4230973422527313, -0.1818963885307312, -0.3222859799861908, -0.11011993139982224, -0.8323608040809631], [0.04966605827212334, -0.038494937121868134, -0.05198115482926369, 0.19033677875995636, 0.03958391770720482, 0.010520609095692635, -0.07602596282958984, -0.12097091227769852, 0.09305761754512787, -0.10313596576452255, 0.15789741277694702, 0.0007250838680192828, -0.1725693941116333, -0.04016196355223656, -0.057040147483348846, -0.06822666525840759, 0.04584992304444313, 0.19360682368278503, -0.19822461903095245, -0.15704749524593353, -0.08207030594348907, 0.03514093905687332, 0.03549453988671303, 0.20281778275966644], [0.13986508548259735, -0.26522475481033325, -0.08152367174625397, 0.17563563585281372, 0.2308504581451416, -0.02473476715385914, -0.26789143681526184, -0.06396475434303284, 0.05705881863832474, 0.04310040920972824, -0.02737804688513279, 0.0013375005219131708, -0.28500962257385254, -0.004743738099932671, -0.12928250432014465, -0.1259908825159073, -0.044029682874679565, 0.2818540930747986, -0.7808486819267273, -0.2318706065416336, -0.14898419380187988, -0.23390522599220276, 0.07363409548997879, 0.11291039735078812], [0.0918109267950058, -0.47205743193626404, -0.00012828176841139793, -0.05423860624432564, -0.034113846719264984, -0.259722501039505, -1.0652989149093628, -0.13889029622077942, 0.2394174337387085, 0.1058141440153122, 0.13954253494739532, 0.19076311588287354, -0.29472997784614563, -0.8943384885787964, -0.46687206625938416, 0.42507314682006836, -0.5355778336524963, -0.13778488337993622, -0.3514852523803711, -0.7158219814300537, -0.450536847114563, 0.2856554090976715, 0.5788626074790955, -0.14165744185447693], [0.2632758617401123, -0.13427934050559998, -0.07547084242105484, 0.20684778690338135, -0.10254400968551636, 0.010692892596125603, -0.19373291730880737, 0.048846714198589325, 0.35397401452064514, 0.3618418872356415, -0.31085577607154846, -0.03931640461087227, -0.18041661381721497, 0.026709072291851044, -0.09090084582567215, -0.09979186207056046, -0.044693805277347565, 0.2978743016719818, -0.17720459401607513, -0.2161199152469635, -0.016994714736938477, 0.4355858862400055, -0.02051430754363537, 0.47716090083122253], [-0.22285714745521545, 0.02416435070335865, -0.05901611968874931, 0.08692514151334763, 0.23834049701690674, 0.12386927753686905, -0.19525247812271118, 0.03648076206445694, 0.04583503305912018, -0.015851030126214027, -0.04046465456485748, 0.033100444823503494, -0.01090285275131464, 0.0259072445333004, 0.12267410010099411, 0.44884368777275085, -0.2035851776599884, -0.33009377121925354, -0.16045750677585602, 0.0005792961455881596, 0.015245262533426285, -0.1353985071182251, 0.14275917410850525, -0.3985549211502075], [-0.14672723412513733, -0.3236609399318695, 0.1674996316432953, 0.010465769097208977, -0.13629132509231567, -0.062158793210983276, -0.8019207715988159, 0.09564988315105438, 0.28970977663993835, -0.5280755162239075, -0.45135167241096497, 0.1726413071155548, -0.3048870861530304, 0.372524619102478, -0.46245184540748596, -0.31054791808128357, 0.034922558814287186, 0.4503914415836334, -0.6417741775512695, -0.32229116559028625, -0.30964842438697815, -0.04024616256356239, 0.5003342032432556, -0.2803860604763031], [-0.06989981979131699, -0.06360656768083572, -0.13817085325717926, -0.6259704828262329, 0.09377371519804001, 0.2275799959897995, -0.483328640460968, 0.08701587468385696, -0.13294413685798645, 0.18435730040073395, -0.25856009125709534, 0.445467472076416, -0.0374198742210865, -0.08349309116601944, -0.28576651215553284, 0.6471335291862488, 0.6305168271064758, 0.08974654972553253, -0.27682405710220337, -0.3654079735279083, 0.1071021631360054, 0.07076650112867355, -0.05502438172698021, 0.40414491295814514], [-0.043241675943136215, 0.13623839616775513, -0.021464576944708824, -0.10352735221385956, 0.004294729791581631, -0.022131945937871933, 0.0577477291226387, -0.4087565541267395, 0.10277194529771805, -0.045415546745061874, 0.08887404203414917, 0.14101611077785492, 0.14293554425239563, -0.06216811761260033, -0.20680706202983856, 0.15722021460533142, -0.0012531635584309697, -0.2604138255119324, 0.025888556614518166, 0.054481908679008484, 0.011062681674957275, -0.008377956226468086, 0.03583458065986633, -0.05521135404706001], [-0.5625410079956055, -0.031469639390707016, 1.7533583641052246, -0.3168802559375763, -2.6330835819244385, -0.004345760680735111, -0.13929899036884308, 0.31762710213661194, -0.5467996001243591, -1.2035764455795288, 0.19974128901958466, 0.45468100905418396, 0.26637914776802063, -0.10386523604393005, 0.004075593780726194, -0.11371564120054245, -0.14458300173282623, 1.287589192390442, -0.35781073570251465, 0.31499218940734863, -0.21399077773094177, 0.20742207765579224, 0.24806970357894897, -0.6898224949836731], [0.4240174889564514, 0.07619820535182953, 0.21503593027591705, -0.1229500100016594, -0.13665226101875305, -0.041441772133111954, 0.12826181948184967, 0.17045557498931885, -0.3073579967021942, -0.08241965621709824, 0.2775471806526184, 0.18541385233402252, -0.13658471405506134, -0.4050985276699066, 0.06827988475561142, -0.1555677056312561, 0.38854876160621643, 0.1510126143693924, -0.06638860702514648, 0.10616555064916611, 0.009084336459636688, 0.11736923456192017, -0.03818387910723686, 0.1952725201845169], [0.015637656673789024, 0.06498383730649948, 0.1221899688243866, 0.11753958463668823, 0.8625420331954956, 0.175940603017807, -0.3452948033809662, -0.13257455825805664, 1.0521982908248901, 1.7233597040176392, -0.17417271435260773, -0.08814026415348053, -0.022060364484786987, -0.14767932891845703, 0.043724361807107925, 0.04560552537441254, 0.07940397411584854, -2.436147689819336, 0.07920991629362106, -0.3038650155067444, -0.07181079685688019, -0.33836162090301514, 0.07503074407577515, 0.5489699244499207], [0.1424742341041565, 0.028719991445541382, -0.02304043248295784, 0.21237309277057648, -0.08952395617961884, 0.22880850732326508, 0.02803598903119564, -0.10817614197731018, 0.19121171534061432, -0.0826655849814415, -0.0003524861531332135, -0.07522381097078323, -0.033586032688617706, 0.030944814905524254, -1.1408884525299072, 0.1278977245092392, -0.015868037939071655, -0.18648695945739746, -0.05818658694624901, 0.3671707510948181, -0.6417147517204285, 0.009628759697079659, 0.12931199371814728, -0.03859541937708855], [-0.12971490621566772, -0.023707298561930656, 0.1774885356426239, -0.24063533544540405, -0.18085980415344238, -0.11096744984388351, 0.23716650903224945, 0.34463512897491455, 0.14585380256175995, -0.1707749366760254, -0.12735995650291443, -0.1027279943227768, 0.15896038711071014, 0.07995425164699554, 0.024835558608174324, 0.01874997839331627, -0.19118447601795197, 0.14923517405986786, 0.3147287964820862, 0.2345132976770401, -0.08366482704877853, 0.04738038033246994, 0.07767251878976822, -0.18867550790309906], [0.17567060887813568, 0.06667975336313248, 0.0801614373922348, -0.03534369915723801, 0.08863966912031174, -0.18193000555038452, 0.03212083876132965, 0.1389485001564026, 0.2870768904685974, 0.06237360090017319, -0.7981842756271362, 0.5906487703323364, -0.10328784584999084, -0.287618488073349, -0.3467410206794739, -0.4953201413154602, -0.0952625721693039, 0.1691446751356125, -0.10580907016992569, -0.21298713982105255, 0.10821153968572617, -0.14895376563072205, 0.3167168200016022, -0.5527607202529907], [-0.13788479566574097, -0.21014852821826935, 0.036844074726104736, 0.27678999304771423, -0.0725189819931984, 0.0358656570315361, 0.32426682114601135, -0.013109469786286354, -0.01007858756929636, -0.18294012546539307, -0.13494840264320374, -0.26580721139907837, -0.2974068522453308, -0.16651150584220886, 0.08635661005973816, -0.1115090399980545, -0.011303866282105446, 0.7349555492401123, -0.10511645674705505, -0.32279640436172485, -0.0056122587993741035, 0.01042633131146431, -0.2760169804096222, -0.014616741798818111], [0.41817665100097656, -0.16384540498256683, 0.08194903284311295, 0.04776608943939209, -0.4837724566459656, -0.24708661437034607, 0.37961676716804504, -0.018028371036052704, 0.5947231650352478, -0.6623072028160095, -0.29595300555229187, -0.04211775213479996, -0.07021632045507431, 0.006533343344926834, 0.13796859979629517, 0.011268495582044125, -0.040412962436676025, -1.4933643341064453, -0.34649017453193665, -0.03269440308213234, -0.149018794298172, 0.16172650456428528, 0.022251667454838753, 0.9336380362510681], [-0.060123004019260406, 0.21492771804332733, 0.25442877411842346, 0.19685612618923187, -0.5946978330612183, 0.08228933066129684, -0.20992305874824524, 0.24079349637031555, 0.23211298882961273, 0.5054126381874084, 0.12653987109661102, 0.044741854071617126, 0.2147873044013977, -0.07609027624130249, -0.04177318140864372, 0.1997593641281128, 0.016108250245451927, -0.5509998202323914, -0.03723958879709244, 0.15550120174884796, 0.11925860494375229, -0.005668458063155413, 0.1378462165594101, -0.03325594961643219], [-0.3509742319583893, -0.24717609584331512, 0.07209960371255875, -0.1832614541053772, -0.015552605502307415, 0.17578712105751038, 0.22421957552433014, -0.08236924558877945, -0.35664206743240356, -0.01619207113981247, -0.8238294720649719, -0.03738872706890106, 0.3100467324256897, 0.1058414876461029, -0.246869757771492, -0.36795371770858765, -0.28930869698524475, 0.012199793942272663, -0.23919908702373505, -0.35913538932800293, -0.22605012357234955, 0.05925997346639633, -0.08626417070627213, 0.2741006314754486], [-0.20352749526500702, -0.03620440140366554, -0.04033768177032471, -0.3120794892311096, -0.10186689347028732, -0.017475562170147896, 0.2139175534248352, -0.07450400292873383, 0.5447329878807068, 0.22278368473052979, -0.01611173152923584, -0.29885733127593994, 0.411563903093338, 0.11651045083999634, 0.1390850692987442, 0.003640571143478155, -0.06254762411117554, -0.0431412048637867, 0.030602887272834778, 0.25963062047958374, -0.04015836492180824, -0.24078477919101715, -0.13463512063026428, -0.07266349345445633], [-0.640490710735321, -0.1819523423910141, 2.372291326522827, 0.1048337072134018, -1.8350098133087158, 0.1800028383731842, -0.6219049692153931, 0.3494518995285034, 0.21088744699954987, -0.04543222859501839, 0.1874033808708191, -0.2898929715156555, 0.8299890756607056, 0.619022011756897, -0.029724841937422752, -0.2271566241979599, -0.3178582787513733, 0.7173087000846863, 0.20311279594898224, 0.5343161821365356, -0.19779685139656067, 0.19704461097717285, 0.4083353877067566, -0.7033427953720093], [0.004127733409404755, 0.07720022648572922, 0.018703021109104156, -0.08200892060995102, -0.0018390448531135917, 0.511812150478363, -0.03362547606229782, 0.08414288610219955, 0.23194627463817596, 0.015939051285386086, 0.14536021649837494, 0.23022079467773438, -0.04348057508468628, -0.09296640008687973, 0.5649826526641846, 0.06377440690994263, -0.3434400260448456, -0.03669654205441475, -0.030932964757084846, 0.1461842954158783, -0.15590554475784302, 0.05184924229979515, 0.1400178223848343, -0.04467666149139404], [-0.4787425994873047, 0.043879371136426926, 0.13461577892303467, 0.03578769043087959, -0.026326166465878487, -0.06138072907924652, 0.32642412185668945, 0.5356758236885071, 0.21731612086296082, 0.010023066774010658, 0.6932576298713684, 0.7716336250305176, -0.3619690537452698, -0.3357338011264801, -0.4766629636287689, -0.122705839574337, -0.20893093943595886, 0.04845717176795006, 0.617765486240387, 0.028391635045409203, 0.42623379826545715, 0.03513840213418007, -0.3257087171077728, 0.31357505917549133], [-0.18272119760513306, 0.011988933198153973, -0.04124731570482254, 0.1862148940563202, -0.02590777724981308, 0.005479943938553333, 0.1123625859618187, 0.044147416949272156, 0.23200654983520508, 0.11203363537788391, -0.09325999766588211, 0.3750632405281067, -0.19719834625720978, 0.17594940960407257, 0.23780393600463867, -0.07587957382202148, 0.1322050839662552, 0.10864139348268509, -0.29164746403694153, 0.3376259505748749, -0.7436448931694031, -0.012582975439727306, 0.12197977304458618, -0.21597136557102203], [-0.03256012499332428, 0.10329056531190872, 0.004564526025205851, 0.12536191940307617, 0.009497296996414661, 0.005720584187656641, -0.053547851741313934, -0.14304742217063904, -1.1195013523101807, 0.16193176805973053, 0.3308306634426117, 0.057074397802352905, -0.06539016216993332, -0.031694307923316956, -0.06741535663604736, -0.0655268132686615, 0.16752073168754578, 0.27053338289260864, -0.11777179688215256, 0.791117250919342, 0.013834317214787006, -0.0018547195941209793, 0.21471631526947021, -1.0228580236434937], [-0.006562473252415657, -0.02537272311747074, 0.018330512568354607, -0.20686639845371246, -0.034162599593400955, -0.0345160998404026, 0.01240985095500946, 0.0558595210313797, -0.056922394782304764, 0.07166103273630142, -0.1715252846479416, -0.002101235557347536, 0.17975851893424988, 0.05438918620347977, 0.06536729633808136, -0.03896677494049072, -0.05519328638911247, -0.09231223165988922, 0.14169353246688843, 0.12346459925174713, 0.13106516003608704, -0.17995330691337585, -0.047896578907966614, -0.1959507018327713], [0.024769358336925507, 0.04049372673034668, 0.012231404893100262, -0.12903521955013275, 0.018523160368204117, 0.04823187366127968, -0.043099019676446915, -0.029348809272050858, 0.004673611838370562, -0.09777360409498215, 0.015771375969052315, 0.022044653072953224, 0.21267907321453094, -0.01027840655297041, 0.023578137159347534, 0.008422581478953362, 0.11478150635957718, -0.1519869565963745, 0.17208299040794373, 0.04779588058590889, 0.08366014808416367, 0.02972531132400036, -0.005001661367714405, -0.07026080042123795], [0.31638821959495544, -0.12121112644672394, 0.013071786612272263, -0.0010844181524589658, -0.12152861803770065, 0.21881456673145294, -0.2206162065267563, 0.15529967844486237, 0.002439430681988597, 0.058818187564611435, 0.023077473044395447, -0.464651495218277, 0.1549353450536728, 0.6298087239265442, -0.01912926509976387, -0.3957304358482361, 0.5689894556999207, -0.02933887206017971, -0.15954165160655975, 0.13172617554664612, 0.31905290484428406, 0.06357009708881378, -0.18821270763874054, -0.0016555356560274959], [0.04471871629357338, 0.06781449168920517, -0.14998666942119598, 0.06896491348743439, -0.2751665711402893, -0.04618249461054802, 0.26940226554870605, -0.2107168585062027, -0.2214074730873108, -0.25827571749687195, 0.1061316728591919, -0.16345080733299255, -0.1366720348596573, 0.27531957626342773, -0.08149240911006927, -0.013405663892626762, -0.057699549943208694, 0.676768958568573, 0.09015045315027237, 0.004637320525944233, -0.16002331674098969, -0.09958657622337341, 0.010938364081084728, 0.2819042503833771], [-0.11099761724472046, -0.12507489323616028, -0.06375440210103989, 0.20139949023723602, -0.0003871807421091944, 0.014086677692830563, -0.14861778914928436, 0.06650330871343613, 0.05454779416322708, -0.02783355675637722, 0.01777835190296173, -0.032967459410429, -0.26106423139572144, 0.02711857669055462, -0.07607484608888626, 0.15063180029392242, 0.02895861491560936, 0.0038757892325520515, -0.23163926601409912, -0.15568757057189941, -0.06108171492815018, -0.008872621692717075, 0.11933352798223495, -0.044815048575401306], [-0.12300261110067368, -0.1460241824388504, 0.025753309950232506, 0.26548290252685547, -0.29587870836257935, -0.07104059308767319, 0.1628691554069519, 0.08236010372638702, -0.03407416492700577, -0.15119719505310059, 0.20698757469654083, -0.054109733551740646, -0.5107415914535522, 0.2397797703742981, -0.0837705060839653, -0.14766451716423035, -0.07214197516441345, 0.17720934748649597, 0.04882408678531647, -0.6963083148002625, -0.11825435608625412, 0.04525705799460411, 0.11559727787971497, -0.012233467772603035], [-0.25158387422561646, -0.025310730561614037, 0.030840711668133736, 0.14325259625911713, -0.015556644648313522, -0.07494150847196579, -0.26541322469711304, 0.048791348934173584, 0.09334481507539749, 0.037730418145656586, 0.1612861454486847, -0.036411821842193604, -0.0215628482401371, -0.12417897582054138, -0.07674302160739899, -0.1355026364326477, -0.018685873597860336, -0.03029678575694561, -0.1394074410200119, -0.07862882316112518, -0.12213148921728134, -0.08553255349397659, 0.11854995042085648, -0.002467462792992592], [0.04760787636041641, -0.06763647496700287, -0.23923711478710175, 0.13996945321559906, 0.23501378297805786, 0.036925964057445526, -0.3250712752342224, 0.3252383768558502, -0.020132459700107574, 0.0033854085486382246, -0.23006929457187653, -0.016055384650826454, 0.14685215055942535, 0.002369167050346732, 0.018631240352988243, -0.23235106468200684, -0.052399929612874985, -0.15500961244106293, 0.14555318653583527, -0.0960003063082695, -0.05804327875375748, -0.38656482100486755, 0.15512223541736603, -0.010833731852471828], [0.4028303921222687, -0.525383472442627, -0.007420103531330824, -0.004795404616743326, -0.24609583616256714, -0.199763685464859, 0.00013951031723991036, 0.8094550371170044, 0.1714780330657959, 0.4382137656211853, -0.7969385385513306, -0.09327305108308792, -0.43827080726623535, 0.3184342384338379, -0.06966277211904526, 0.15751932561397552, -0.032283637672662735, 0.07095226645469666, -0.13219818472862244, -0.20529383420944214, -0.11703149229288101, -0.3189200162887573, -0.0566897913813591, 0.000991894630715251], [0.0475015789270401, -0.07760646939277649, -0.044309720396995544, 0.4463934004306793, 0.3542620837688446, 0.07990674674510956, -0.20185613632202148, -0.006002421025186777, 0.2115376740694046, -0.004417353309690952, 0.1273127645254135, -0.08033943176269531, -0.33944201469421387, -0.09697999060153961, -0.21901601552963257, -0.2440531998872757, 0.04269125685095787, -0.00018591602565720677, -0.30384349822998047, -0.31107449531555176, -0.2681578993797302, -0.05290936678647995, 0.24314749240875244, 0.013311327435076237], [0.2748737037181854, -0.5660202503204346, 0.22906509041786194, 0.09633050858974457, -0.5625855922698975, -0.02086230181157589, -0.07466363906860352, 1.4129163026809692, 0.06596636772155762, 0.07281340658664703, -1.0428404808044434, -0.13230739533901215, -0.2575930655002594, 0.1285174936056137, -0.2215297967195511, 0.37491559982299805, 0.053430214524269104, 0.5094918608665466, -0.21037322282791138, -0.1852848380804062, -0.23080165684223175, -0.5813935995101929, 0.07140632718801498, -0.06796470284461975], [-0.030986594036221504, -0.13021066784858704, -0.18322141468524933, 0.1926054060459137, -0.014471068978309631, -0.10028686374425888, -0.11778293550014496, 0.05498679727315903, 0.05371241271495819, -0.12259344756603241, 0.030592968687415123, 0.013491393998265266, -0.18783849477767944, -0.054380062967538834, -0.029123840853571892, 0.03492490202188492, -0.07363204658031464, 0.17929954826831818, -0.1612180471420288, -0.1526898592710495, -0.10565716028213501, 0.019234146922826767, 0.08366227149963379, 0.11492494493722916], [-0.47237399220466614, -0.04923000931739807, 0.13200071454048157, 0.05841272324323654, -0.8134136199951172, 0.15563203394412994, -0.7240000367164612, 0.7153818607330322, -0.08036297559738159, -0.42005762457847595, -0.06370615214109421, -0.010064319707453251, 0.4602448046207428, -0.1296205371618271, 0.06782276183366776, 0.30600979924201965, -0.191327303647995, 0.07734132558107376, -0.07435361295938492, 0.10062307864427567, 0.21328476071357727, -0.10869697481393814, 0.440378874540329, -0.6926019191741943], [-0.11874137073755264, -0.12161529809236526, 0.09309499710798264, 0.3204118311405182, -0.12834487855434418, -0.04003391042351723, -0.1868610680103302, -0.11724206060171127, 0.15721413493156433, 0.07733345776796341, 0.3040529191493988, 0.0056753940880298615, -0.28651493787765503, 0.04255867749452591, -0.13586975634098053, -0.01605885475873947, 0.012924049980938435, 0.11071889102458954, -0.3242378532886505, -0.23367828130722046, -0.17586936056613922, -0.11861494183540344, 0.20551955699920654, 0.23807504773139954], [-0.2736872732639313, 0.26243510842323303, -0.013852156698703766, 0.0641472265124321, -0.09121418744325638, 0.051058314740657806, -0.07626785337924957, -0.46666279435157776, 0.3897509276866913, -0.06982298195362091, 0.8717115521430969, -0.10410549491643906, 0.11121444404125214, -0.10341256111860275, -0.015357722528278828, -0.0964055135846138, 0.05291192978620529, -0.07211701571941376, 0.10347490012645721, 0.05163182318210602, -0.1445891261100769, 0.021638954058289528, 0.329559862613678, 0.6261270046234131], [-0.08691858500242233, -0.1875545233488083, -0.058326032012701035, 0.33587127923965454, 0.006649056915193796, -0.03145088255405426, -0.29559579491615295, -0.0005867932923138142, 0.19573460519313812, 0.003045123303309083, 0.3393738269805908, -0.08151861280202866, -0.3034144937992096, -0.019921675324440002, -0.1383482664823532, -0.06584137678146362, 0.0312860906124115, 0.1448204517364502, -0.35755324363708496, -0.23980507254600525, -0.18669608235359192, -0.15218374133110046, 0.20312702655792236, 0.26180925965309143], [0.0631939098238945, -0.22783252596855164, 0.11335406452417374, 0.3471118211746216, 0.21831469237804413, -0.0670664831995964, -0.4610215425491333, -0.05437377095222473, -0.01995435543358326, -0.048599570989608765, 0.30025729537010193, 0.09509419649839401, 0.2011566311120987, -0.325763076543808, -0.2724047005176544, -0.4594370722770691, 0.17741210758686066, 0.0022154131438583136, -0.3561703562736511, -0.198475182056427, -0.4016631841659546, -0.28474539518356323, 0.29320284724235535, -0.08057329058647156], [0.0419732891023159, -0.1316986232995987, 0.3071027100086212, 0.08397505432367325, 0.19640512764453888, -0.05696043744683266, -0.05338890850543976, 0.17781421542167664, 0.09650755673646927, -0.14106719195842743, 0.025789305567741394, -0.23249661922454834, -0.19003085792064667, -0.035661324858665466, -0.029028721153736115, 0.13224826753139496, 0.0918993279337883, 0.11199367046356201, -0.09654127061367035, -0.06237322464585304, -0.055110521614551544, -0.2846982777118683, 0.07532216608524323, 0.02848651446402073], [0.05552487075328827, -0.15261104702949524, 0.052183084189891815, 0.2978544235229492, 0.05377320200204849, -0.033360060304403305, -0.28265491127967834, -0.04874897003173828, 0.12995420396327972, 0.04505172744393349, 0.09932691603899002, 0.0035618534311652184, -0.6150133609771729, -0.02466604672372341, -0.1963764727115631, -0.11831925809383392, 0.04923519492149353, 0.2897173762321472, -0.2900463044643402, -0.2624575197696686, -0.18352432548999786, -0.06288999319076538, 0.09861134737730026, 0.22236014902591705], [-0.07786662876605988, -0.09696747362613678, 0.002489728620275855, 0.031166953966021538, -0.0028333684895187616, 0.11726897209882736, -0.06330859661102295, 0.11511345207691193, -0.029294610023498535, 0.19341661036014557, -0.20404052734375, -0.058649078011512756, 0.15561451017856598, -0.07826758921146393, 0.02352038212120533, 0.15243804454803467, -0.14290745556354523, -0.05308281257748604, 0.42134007811546326, 0.11291336268186569, -0.36247196793556213, 0.006960684433579445, -0.17059680819511414, -0.08695847541093826], [-0.012319905683398247, 0.00583094684407115, -0.015741918236017227, 0.26874542236328125, 0.05248840153217316, 0.023799750953912735, -0.11745160073041916, -0.046952009201049805, 0.06428290903568268, 0.03769830986857414, 0.14852744340896606, 0.03990133851766586, -0.2585497498512268, -0.10733716934919357, -0.16290318965911865, -0.12281148135662079, 0.0005962193827144802, 0.11916065961122513, -0.27060791850090027, -0.24132013320922852, -0.15197952091693878, -0.11757022142410278, 0.15643422305583954, 0.13998234272003174], [-0.023555539548397064, -0.1245516762137413, 0.016783487051725388, 0.28290238976478577, -0.14178235828876495, -0.07814878225326538, -0.06704380363225937, -0.0013334449613466859, 0.09199601411819458, -0.04838968813419342, 0.21089830994606018, 0.006181097589433193, -0.2930986285209656, 0.04981227219104767, -0.1378173530101776, -0.07251555472612381, -0.00167989416513592, 0.20457854866981506, -0.2910979688167572, -0.2167390137910843, -0.1599159985780716, -0.06953468918800354, 0.17527993023395538, 0.16161203384399414], [-0.028228288516402245, -0.12097632884979248, -0.20843835175037384, 0.20885339379310608, 0.027007387951016426, -0.1561177670955658, -0.13392408192157745, -0.008862663991749287, 0.029738878831267357, -0.10099655389785767, 0.1305122971534729, 0.04162624478340149, -0.11613167077302933, 0.06767455488443375, -0.10673177987337112, -0.08394850045442581, 0.06813965737819672, 0.12128370255231857, -0.18628013134002686, -0.16171683371067047, -0.2360437512397766, -0.04755852743983269, 0.07834223657846451, 0.12451950460672379], [-0.06628287583589554, -0.27133017778396606, -0.10853753983974457, 0.3950684368610382, 0.29997748136520386, 0.00913231447339058, -0.4081617295742035, 0.4446766674518585, 0.17918449640274048, -0.17650681734085083, 0.0777861699461937, -0.08174977451562881, -0.2654167413711548, -0.040380798280239105, -0.14817757904529572, -0.026386113837361336, -0.034625813364982605, 0.1833505779504776, -0.4200548231601715, -0.32071971893310547, -0.26198291778564453, -0.2666270136833191, 0.2924257516860962, 0.09303498268127441], [-0.01248682476580143, -0.19895140826702118, -0.058623380959033966, 0.40988433361053467, 0.13814401626586914, 0.02565252035856247, -0.35275352001190186, 0.02336955815553665, 0.08042334020137787, -0.07535906881093979, -0.0025407704524695873, 0.005388731602579355, -0.3481217622756958, 0.15215708315372467, -0.1477004736661911, 0.10795506834983826, 0.0624266043305397, 0.05639510974287987, -0.47794902324676514, -0.35874632000923157, -0.16056780517101288, -0.13779230415821075, 0.22655706107616425, 0.13226619362831116], [0.26116684079170227, 0.27096429467201233, -0.02995423972606659, -0.04076117277145386, -0.14272120594978333, -0.11140912026166916, -0.1586357206106186, -0.21391364932060242, 0.3879935145378113, 0.28497111797332764, 0.060968656092882156, 0.007522068452090025, -0.18920738995075226, 0.13245216012001038, -0.023336665704846382, 0.10533919185400009, -0.0761195719242096, 0.4147242605686188, 0.01896694302558899, -0.8014102578163147, 0.003569402266293764, -0.11298904567956924, 0.15423692762851715, 0.5095444321632385], [0.06027071550488472, -0.21684667468070984, 0.06121814250946045, 0.04670581966638565, 0.24099278450012207, 0.06309829652309418, -0.130275160074234, 0.17576107382774353, 0.0016582949319854379, -0.14534643292427063, -0.21866928040981293, 0.011937666684389114, 0.07847394794225693, -0.05290086567401886, -0.18147268891334534, -0.12823422253131866, 0.17219485342502594, 0.19136016070842743, -0.14259400963783264, -0.05459386855363846, -0.5847505927085876, -0.3059411942958832, 0.2220097929239273, -0.17636030912399292], [0.015311205759644508, -0.14282824099063873, 0.22003339231014252, 0.23276104032993317, -0.2924174964427948, 0.022467244416475296, -0.26266828179359436, -0.07871691882610321, 0.19816768169403076, 0.02721254900097847, -0.048358798027038574, -0.009278996847569942, -0.19847998023033142, 0.06403853744268417, -0.11592306941747665, -0.034463923424482346, 0.02774129807949066, 0.34969308972358704, -0.24517518281936646, -0.21567824482917786, -0.12546028196811676, 0.1310475468635559, 0.07253829389810562, 0.257010281085968], [-0.18549884855747223, 0.08522073924541473, 0.14701193571090698, 0.12960565090179443, 0.01414615847170353, 0.08274532109498978, -0.320891410112381, 0.04880841448903084, 0.0016014960128813982, -0.2121267020702362, 0.19612057507038116, 0.013870052993297577, 0.02474495768547058, -0.03206988051533699, 0.11677339673042297, 0.2195095270872116, -0.15570659935474396, -0.18302704393863678, -0.22086980938911438, -0.037595003843307495, -0.12183777987957001, -0.14592792093753815, 0.32924309372901917, -0.41310057044029236], [0.20421190559864044, -0.10948371142148972, -0.045811038464307785, 0.23471873998641968, 0.3895075023174286, -0.03856940567493439, 0.0001337408320978284, 0.2464921772480011, 0.029809320345520973, 0.12518316507339478, 0.09096784144639969, 0.09532196819782257, 0.03993552178144455, 0.005698095075786114, -0.27545636892318726, -0.11707469075918198, -0.1959877759218216, 0.08699357509613037, -0.25187432765960693, -0.20725218951702118, -0.23698359727859497, -0.45406147837638855, 0.006046381779015064, 0.6506562232971191]], "rec.bias_ih_l0": [-0.16450409591197968, 0.000793040671851486, 0.3687852919101715, -0.4435271620750427, 0.42506900429725647, -0.36671319603919983, 0.2064630687236786, 0.33740100264549255, -1.0008461475372314, 0.33617863059043884, -0.4617690145969391, -0.037241142243146896, -0.4540407359600067, 0.285051167011261, -0.4918266534805298, 0.2955484986305237, -0.6745789647102356, 0.3791128098964691, 0.09443537890911102, -0.4975495934486389, -0.9240794777870178, -0.02519308030605316, 0.03145270794630051, -0.48596733808517456, 0.4271114468574524, 0.2548951506614685, -0.2852073013782501, 0.8214898705482483, 0.04423677176237106, 0.5555470585823059, 0.35477977991104126, 0.21892544627189636, 0.4907570481300354, 0.1132894828915596, 0.9553239941596985, 0.3899553418159485, 0.5851553678512573, 0.08141402900218964, 0.6010302901268005, 0.12633594870567322, 0.7825472354888916, 0.15592892467975616, 0.20483577251434326, 0.551291823387146, 1.0520089864730835, 0.18972450494766235, 0.2443380206823349, 1.0079137086868286, -0.2207169383764267, -0.024144772440195084, 0.004237425979226828, 0.13427734375, -0.012753604911267757, -0.2991544008255005, 0.03211017698049545, 0.12120943516492844, -0.22629809379577637, -0.10719133913516998, 0.15245939791202545, 0.24833223223686218, -0.09170461446046829, 0.07318796962499619, -0.15842340886592865, -0.1640397161245346, -0.38053956627845764, 0.5191249251365662, 0.004873796831816435, -0.15848684310913086, -0.07325595617294312, -0.27403825521469116, 0.26445090770721436, -0.49243244528770447, 0.17443782091140747, 0.18502113223075867, 0.1541370153427124, 0.31830912828445435, 0.19388072192668915, 0.20526638627052307, 0.4668755829334259, 0.35374441742897034, -0.1836525946855545, 0.3448752760887146, 0.3928833305835724, 0.13350409269332886, 0.3033013641834259, -0.32931551337242126, 0.3032033443450928, 0.3419693112373352, 0.21777842938899994, 0.40035346150398254, 0.5212662816047668, -0.18761536478996277, 0.3986480236053467, 0.24971263110637665, 0.2923588156700134, 0.26029109954833984], "rec.bias_hh_l0": [-0.16609950363636017, 0.0007741355220787227, 0.3687852919101715, -0.4355255365371704, 0.42506903409957886, -0.295695036649704, 0.20739592611789703, 0.337304025888443, -1.0508147478103638, 0.33617863059043884, -0.4490289092063904, -0.03342066705226898, -0.5012779831886292, 0.285051167011261, -0.5123124122619629, 0.29554852843284607, -0.7116851806640625, 0.3892349600791931, 0.09443535655736923, -0.5670353770256042, -0.841302752494812, -0.035942912101745605, 0.05125907063484192, -0.5395528078079224, 0.43012383580207825, 0.2568730413913727, -0.2852073013782501, 0.7941741347312927, 0.0322348028421402, 0.5604120492935181, 0.3493921458721161, 0.21589593589305878, 0.553270697593689, 0.11447471380233765, 0.9349488615989685, 0.3847379982471466, 0.7023667097091675, 0.09004704654216766, 0.7272107601165771, 0.12738583981990814, 0.770759105682373, 0.21278899908065796, 0.20481891930103302, 0.5570231676101685, 1.2345857620239258, 0.19490209221839905, 0.23910394310951233, 1.0034031867980957, -0.17424403131008148, -0.032156337052583694, 0.006478491239249706, 0.11064933985471725, -0.26905104517936707, -0.4679293632507324, 0.03668166697025299, 0.28448694944381714, -0.09460941702127457, -0.22142893075942993, 0.12198089808225632, 0.2725273072719574, -0.14333415031433105, 0.04863288998603821, -0.17113032937049866, -0.15225592255592346, -0.2626293897628784, 0.7046224474906921, 0.005209352355450392, -0.1600586175918579, -0.22161954641342163, -0.5044170022010803, 0.2638007402420044, -0.3522438406944275, 0.17491371929645538, 0.18339869379997253, 0.15218515694141388, 0.31665611267089844, 0.19255892932415009, 0.20182466506958008, 0.5834426283836365, 0.3537445068359375, -0.20345813035964966, 0.3448752760887146, 0.4195786714553833, 0.13434851169586182, 0.27152690291404724, -0.31140264868736267, 0.30406245589256287, 0.3419691324234009, 0.21692806482315063, 0.4003266990184784, 0.5102961659431458, -0.05635107681155205, 0.31655141711235046, 0.24928118288516998, 0.29247593879699707, 0.25231707096099854], "lin.weight": [[-0.2577851712703705, 0.06696392595767975, -0.22153230011463165, -0.11299946904182434, 0.07758097350597382, -0.6729703545570374, -0.6790335774421692, -0.2046753615140915, 0.1991931051015854, 0.052521947771310806, -0.12783318758010864, 0.31606170535087585, -0.16561758518218994, -0.74114990234375, -0.0025138608179986477, 1.2725729942321777, -1.1762712001800537, -0.007515376899391413, 0.07666227966547012, -0.10679870843887329, 1.071907639503479, -0.06874729692935944, 0.3718594014644623, -0.2663867473602295]], "lin.bias": [0.1116701066493988]}}