{"model_data": {"model": "SimpleRNN", "input_size": 1, "skip": 1, "output_size": 1, "unit_type": "LSTM", "num_layers": 1, "hidden_size": 16, "bias_fl": true}, "state_dict": {"rec.weight_ih_l0": [[0.1920941174030304], [0.26113006472587585], [-0.19605964422225952], [0.013487124815583229], [-0.20659039914608002], [0.048386432230472565], [-0.22593975067138672], [0.423108845949173], [0.04631171375513077], [-0.2360478639602661], [-0.07995525002479553], [0.05577249452471733], [0.20684228837490082], [0.004501427058130503], [0.6328915953636169], [-0.09755866974592209], [0.1389860361814499], [0.09222016483545303], [0.025807691738009453], [-0.07145942747592926], [0.007740001659840345], [-0.02415437623858452], [-0.25971952080726624], [0.02065126970410347], [0.10405553132295609], [-0.2154368907213211], [0.11537160724401474], [-0.07783813029527664], [-0.001275236252695322], [-0.10520409047603607], [0.12559716403484344], [0.19518998265266418], [0.2422327697277069], [-1.0861667394638062], [-0.4259110689163208], [-0.16064590215682983], [-0.26120346784591675], [0.3762447237968445], [-1.4565188884735107], [3.946622133255005], [-1.1864666938781738], [-0.14246702194213867], [-0.7421913146972656], [-0.3723908066749573], [0.3038704991340637], [-0.11823473870754242], [-0.559541642665863], [-0.3329211473464966], [0.2737092971801758], [-0.1136946901679039], [-0.16675056517124176], [-0.32331931591033936], [-0.011536844074726105], [-0.08974316716194153], [-0.5801181793212891], [-0.14987121522426605], [0.0635867491364479], [0.02433970384299755], [-0.05264120548963547], [-0.15417777001857758], [0.04837888851761818], [-0.24471507966518402], [0.20542877912521362], [0.408769428730011]], "rec.weight_hh_l0": [[0.1973312795162201, -0.2775667905807495, -0.13280558586120605, 0.4992373287677765, 0.9544752240180969, 0.20935115218162537, -0.08939666301012039, 0.29222381114959717, -0.3130002021789551, 0.11274325102567673, 0.44935107231140137, -0.20209337770938873, -0.09486310184001923, 0.447324275970459, 0.21787212789058685, -0.23741167783737183], [-0.19950136542320251, -0.10367119312286377, 0.05307735875248909, 0.025542618706822395, -0.08326411992311478, -0.0051083494909107685, 0.012507952749729156, 0.14958205819129944, 0.46250808238983154, -0.08020026981830597, 0.4255900979042053, -0.23363368213176727, 0.021015996113419533, -0.21917587518692017, -0.34661275148391724, 0.1897246390581131], [0.06344587355852127, -0.4146117568016052, -0.14335419237613678, -0.12413854897022247, 0.2055877149105072, -0.13504168391227722, -0.14706264436244965, 0.04650045558810234, 0.24652576446533203, 0.8774946331977844, -0.20150713622570038, -0.22443534433841705, -0.05801621079444885, 0.192160502076149, 0.13988226652145386, 0.36822372674942017], [0.47420382499694824, 0.45328739285469055, -0.0824047327041626, -0.7904959917068481, 0.6707067489624023, 0.28156113624572754, -0.0692092776298523, -0.4611022174358368, -0.2566370666027069, -0.6305596828460693, 0.05374666675925255, -0.13614176213741302, 0.1757548600435257, -0.488333135843277, -0.3389972746372223, -0.09688004851341248], [0.8333196043968201, -0.08505785465240479, 0.01811092160642147, -0.5747542381286621, 0.10196634382009506, 0.23579718172550201, 0.12659913301467896, -0.19933833181858063, -0.30241820216178894, -0.5705740451812744, -0.09676395356655121, -0.2194819301366806, 0.15424641966819763, 0.003135946812108159, 0.12586741149425507, 0.5041508078575134], [0.08547362685203552, -0.8908401131629944, -0.3723616898059845, -0.10578881204128265, -0.1837015450000763, -0.3368343114852905, 0.33205726742744446, 0.04460732266306877, 0.3634636104106903, 0.8730605244636536, 0.017110126093029976, -0.4113543629646301, -0.023446008563041687, 0.09454549849033356, 0.09418871998786926, 0.2718803882598877], [-0.1708535999059677, 0.28773078322410583, -0.09303165227174759, -0.2130557745695114, -0.021986136212944984, 0.06321771442890167, -0.1492358148097992, -0.3297402858734131, -0.017985591664910316, -0.047539204359054565, -0.21581897139549255, 0.27476611733436584, 0.07945011556148529, 0.04740779846906662, -0.018796497955918312, 0.229680135846138], [-0.05353252589702606, 0.3056046962738037, -0.011145875789225101, -0.6940019726753235, 0.4558797776699066, 0.701238751411438, -0.9749095439910889, 0.45463162660598755, -0.4823044538497925, -0.5671562552452087, 0.019467957317829132, 0.04789552465081215, 0.2191266268491745, 0.35472702980041504, -1.1297354698181152, -0.2625174820423126], [0.23302078247070312, -0.02472255937755108, -0.002426382852718234, -0.1335185021162033, 0.46751126646995544, 0.10008998960256577, 0.07798599451780319, 0.015888532623648643, 0.0822950005531311, -0.19489648938179016, -0.10011802613735199, 0.13561274111270905, -0.08116210252046585, 0.5828591585159302, -0.08261732012033463, 0.0046136085875332355], [0.266143262386322, -0.07374252378940582, -0.15034064650535583, -0.4544927477836609, 0.12617936730384827, -0.3329989016056061, -0.18798892199993134, -0.06493422389030457, -0.12579429149627686, -0.15716303884983063, -0.2631462812423706, 0.2973485291004181, -0.36727282404899597, 0.38939034938812256, 0.23084263503551483, 0.5373126864433289], [0.39074379205703735, -0.19989219307899475, 0.08107344061136246, -0.5389789938926697, 0.34801870584487915, 0.08561082929372787, 0.33948051929473877, -0.19135984778404236, -0.5851588249206543, -0.2678109407424927, 0.168171226978302, 0.09352565556764603, 0.12592126429080963, -0.05258388817310333, -0.24920135736465454, -0.35173875093460083], [0.04469384253025055, -0.028077997267246246, 0.00319656147621572, 0.3135678172111511, 0.40423470735549927, -0.328372061252594, 0.2412632703781128, -0.06204408407211304, 0.27967336773872375, 0.14187535643577576, -0.007679954636842012, 0.11125227808952332, -0.29866304993629456, -0.4179375469684601, -0.4315018653869629, -0.1060122698545456], [0.3558856248855591, -0.60516756772995, 0.15901750326156616, 0.02340308390557766, -0.25091952085494995, -0.2401382327079773, 0.1909898966550827, -0.26848918199539185, 0.34528833627700806, 0.6583409905433655, 0.3019920885562897, -0.18419179320335388, 0.011754647828638554, 0.281918466091156, -0.37761539220809937, 0.5826866030693054], [0.02181018330156803, 0.28398844599723816, -0.07433358579874039, -0.07929353415966034, 0.5524142980575562, 0.2446814626455307, -0.26381736993789673, 0.08408453315496445, -0.3411282002925873, -0.38289201259613037, -0.03934309631586075, 0.209501251578331, 0.14632880687713623, 0.014957978390157223, -0.4262044131755829, -0.28058966994285583], [0.36126652359962463, -1.1730080842971802, 0.12500277161598206, 0.020129753276705742, -0.4414328932762146, -0.32694530487060547, 1.359156847000122, 0.44072505831718445, 0.3629758954048157, 0.9512389302253723, 0.34927141666412354, -0.4571485221385956, 0.024425825104117393, -0.32480335235595703, -0.0073179760947823524, -0.41977620124816895], [0.003506567096337676, -1.026912808418274, -0.062390390783548355, 0.24603992700576782, -1.2465651035308838, -0.5037355422973633, 0.7003065943717957, 0.0002827446151059121, 0.33231160044670105, 0.8734474182128906, 0.11863672733306885, -0.5395974516868591, -0.33898550271987915, 0.6961341500282288, -0.10937591642141342, 0.0910506471991539], [0.4141187071800232, 0.4500220715999603, 0.0953926220536232, 0.6886245608329773, 0.10331501811742783, 0.07060661911964417, 0.1686827689409256, -0.4518362283706665, 0.07239757478237152, -0.40124982595443726, -0.02697712928056717, -0.5298298001289368, -0.08388087153434753, -0.13506507873535156, 0.08310913294553757, -0.18079397082328796], [0.1177331730723381, -0.17396314442157745, -0.025917600840330124, -0.20399422943592072, 0.02489044889807701, -0.1142086610198021, 0.15644443035125732, -0.44931069016456604, 0.27820172905921936, -0.15522296726703644, 0.5420219302177429, -0.27254390716552734, 0.4088764488697052, 0.1279929280281067, -0.18769203126430511, 0.21527603268623352], [0.04292741045355797, 0.717930018901825, -0.15547654032707214, 0.038776323199272156, 0.06094983220100403, 0.1945294290781021, 0.3026672303676605, 0.3172927796840668, -0.46841272711753845, -1.0803567171096802, -0.1211019977927208, 0.5035722255706787, 0.18627896904945374, -0.624447226524353, -0.08105146884918213, -0.7361493706703186], [0.13897423446178436, -0.16572783887386322, 0.005796575453132391, -0.4969888925552368, 0.48940542340278625, -0.2752200961112976, 0.04508510231971741, 0.20705105364322662, -0.048913344740867615, -0.2541145086288452, 0.23977240920066833, -0.11937486380338669, -0.1391620934009552, 0.06916175782680511, 0.35554954409599304, -0.09602847695350647], [0.6223552823066711, -0.04344111680984497, 0.13087378442287445, -0.08922948688268661, 0.3513132929801941, 0.24369287490844727, -0.1632678508758545, 0.19128714501857758, -0.29606685042381287, -0.5004760026931763, -0.1701112687587738, -0.02909068949520588, 0.25195565819740295, 0.21579313278198242, 0.08842483162879944, 0.2043467015028], [-0.5178113579750061, 0.929571807384491, -0.5625608563423157, 0.12159645557403564, -0.21161016821861267, 0.6349984407424927, 0.11834288388490677, 0.32354018092155457, -0.6414153575897217, -0.9850759506225586, 0.20147928595542908, 0.219896599650383, 0.2786349952220917, -0.2515614628791809, 0.10259191691875458, -0.2224532514810562], [-0.2539072334766388, 0.3362071216106415, -0.054947733879089355, 0.015971435233950615, -0.2803536355495453, -0.013724113814532757, 0.3800768256187439, -0.03959578275680542, 0.2051433026790619, 0.13163018226623535, -0.05179973319172859, 0.2615421712398529, 0.005059224087744951, -0.31621891260147095, 0.14971128106117249, 0.0016639032401144505], [-0.39513450860977173, 0.42997950315475464, 0.08166208118200302, -0.11981809884309769, 0.39402133226394653, 0.2023860067129135, -1.0107640027999878, -0.2513544261455536, 0.04168381914496422, -0.12350790947675705, 0.23617686331272125, -0.09015568345785141, -0.07231791317462921, 0.688239336013794, 0.3968123197555542, 0.6610769629478455], [-0.038934268057346344, -0.17132128775119781, -0.06406670808792114, 0.005042663775384426, 0.319736123085022, 0.10021743923425674, -5.126015457790345e-05, -0.1948765516281128, 0.2547493875026703, 0.11561959236860275, -0.039467569440603256, 0.3498888909816742, -0.21484974026679993, 0.7421859502792358, 0.07201650738716125, 0.05065498128533363], [0.6960529685020447, 0.1120423674583435, 0.03632877394556999, -0.5379704236984253, 0.20701777935028076, -0.23088563978672028, -0.2324521690607071, -0.3134254515171051, -0.2922825813293457, -0.46447134017944336, -0.478014200925827, 0.12955768406391144, -0.24002905189990997, -0.11323394626379013, 0.15517617762088776, 0.18728584051132202], [0.1142568290233612, 0.1825888603925705, 0.2665784955024719, 0.4563167989253998, 0.44264474511146545, 0.09876105934381485, 0.18331211805343628, 0.3445620834827423, -0.21791283786296844, -0.12940719723701477, -0.09583748877048492, -0.4639822542667389, 0.19321849942207336, 0.12235203385353088, -0.24983303248882294, -0.5291758179664612], [0.22283220291137695, 0.14290300011634827, -0.019597237929701805, 0.43949922919273376, 0.8267766833305359, -0.11179729551076889, 0.14935675263404846, 0.25623849034309387, -0.04066288843750954, -0.07663112878799438, 0.0033843261189758778, 0.3540956676006317, -0.455118864774704, 0.20389769971370697, 0.024915773421525955, -0.05937495082616806], [0.05288195610046387, 0.6511973738670349, -0.1719718724489212, -0.06191001459956169, 0.48572826385498047, 0.301317036151886, -0.14104768633842468, 0.17679575085639954, -0.47873279452323914, -0.7109342813491821, 0.3801361918449402, 0.40800637006759644, 0.04307191073894501, -0.15660901367664337, -0.11054909974336624, 0.24533779919147491], [0.2579801380634308, 0.20708294212818146, -0.17096711695194244, 0.09485772252082825, 0.20522992312908173, 0.12349271029233932, -0.017848428338766098, -0.2261219322681427, 0.06136869639158249, 0.13771288096904755, -0.23890389502048492, -0.11820073425769806, 0.2726036012172699, 0.25226733088493347, 0.17053541541099548, -0.2594764530658722], [-0.4782308340072632, 1.0479308366775513, -0.04416206106543541, -0.1665986329317093, 0.25534483790397644, 0.5347188711166382, 0.005884826648980379, 0.6220676302909851, -0.6896416544914246, -0.8676815032958984, -0.5172755122184753, 0.6280550360679626, 0.47272393107414246, 0.10205156356096268, 0.03944294527173042, 0.15075604617595673], [0.273930162191391, 0.7775799632072449, -0.10514625161886215, -0.25516849756240845, 0.44637852907180786, -0.11619966477155685, -0.2100328803062439, 0.5869753956794739, -0.5349217057228088, -1.1912366151809692, 0.0862877368927002, 0.6002222299575806, 0.2117992341518402, 0.15626434981822968, 0.4629055857658386, -0.008241670206189156], [0.5028131008148193, -0.5746437907218933, 0.030112238600850105, -0.5995520949363708, -0.16368143260478973, -0.023095378652215004, -0.0921580120921135, 0.7037461400032043, -0.2765484154224396, -0.030665894970297813, 0.21796810626983643, 0.44047844409942627, -0.023278003558516502, 1.064781665802002, 0.5508211255073547, -0.08756396919488907], [-0.14407998323440552, -0.16428235173225403, 0.15867970883846283, -0.03909149765968323, -0.14804765582084656, 0.06932298839092255, 0.01982019655406475, -0.6818065643310547, 0.3350421190261841, -0.3434576690196991, 0.20292265713214874, -0.016269812360405922, 0.03788561001420021, -0.06900287419557571, -0.6295973062515259, -0.03933834284543991], [-0.30089402198791504, -0.16329175233840942, 0.3025505542755127, -0.40192711353302, -0.01284500677138567, 0.5688647031784058, 0.004386574495583773, 0.2081190049648285, -0.0643143430352211, -0.07654527574777603, -0.2586769163608551, -0.11583654582500458, -0.39543598890304565, -0.044308677315711975, 0.04101264476776123, 0.03533078357577324], [-0.2070314735174179, 0.862230658531189, -0.1416611671447754, 1.5298486948013306, 0.31963127851486206, -0.22250592708587646, 0.00433711614459753, -2.5630970001220703, 0.578955888748169, -0.010905338451266289, -0.8534995913505554, -0.8390211462974548, 0.15219064056873322, -2.4408366680145264, -0.8876136541366577, -1.0268514156341553], [-0.41086655855178833, 0.2720092236995697, -0.15472528338432312, 1.2182505130767822, 0.2323683202266693, 0.242621049284935, -0.011079877614974976, 0.360494464635849, 0.5214430689811707, -0.22130484879016876, 0.27982616424560547, -0.1737242192029953, -0.04600605368614197, -0.6252179145812988, 0.010256359353661537, 0.1223302111029625], [-0.07833857089281082, -0.004539719317108393, -0.7108170986175537, -0.21608082950115204, -0.09730905294418335, 0.5102348923683167, -0.12219943106174469, -0.08130335062742233, -0.3089434802532196, 0.19423910975456238, 0.31574854254722595, 0.11288687586784363, -0.23708470165729523, 0.20731651782989502, 0.16750063002109528, 0.07680810242891312], [0.28107139468193054, -0.10457859933376312, 0.13560502231121063, 0.2665897011756897, -0.01236203033477068, -0.15857426822185516, -0.30010664463043213, -0.4418078362941742, -0.0032765341456979513, -0.12385571002960205, -0.12234235554933548, -0.04567180201411247, -0.35883828997612, -0.2010253667831421, -0.046160127967596054, 0.2645973861217499], [0.05697997659444809, 0.13203273713588715, -0.1343032270669937, 0.1442234218120575, 0.08087574690580368, 0.0536414198577404, -0.15603414177894592, 0.4294687807559967, -0.2528282105922699, 0.08242859691381454, -0.24101540446281433, -0.22907210886478424, 0.14315560460090637, -0.22713330388069153, 1.9719301462173462, 0.3004656732082367], [0.09460742026567459, -0.16080833971500397, 0.27377909421920776, 0.2398575395345688, -0.014387997798621655, -0.18120689690113068, -0.3062518239021301, -0.07019054889678955, -0.15493278205394745, 0.39766091108322144, -0.18115168809890747, -0.5125997066497803, 0.09555258601903915, -0.1758522391319275, -0.6640458703041077, 0.19110436737537384], [-0.03534015640616417, -0.19797883927822113, 0.018459200859069824, -0.00999456923455, -0.12965555489063263, 0.09612586349248886, 0.5161421895027161, -0.17813482880592346, 0.32105955481529236, 0.16766774654388428, 0.192152202129364, -0.004805427510291338, -0.017958609387278557, 0.139565572142601, 0.24824336171150208, 0.13947246968746185], [0.036806054413318634, -0.1486661434173584, -0.1642848700284958, 0.1280839592218399, 0.2888512909412384, -0.25536906719207764, -0.15559335052967072, 0.9309279322624207, 0.17273394763469696, -0.26847004890441895, -0.23525074124336243, -0.5523424744606018, 0.3921264708042145, -0.41248226165771484, 0.023776864632964134, 0.8867322206497192], [-0.7672224640846252, -0.2457139492034912, 0.3746466040611267, 0.10424415022134781, -0.02757953479886055, -0.17233774065971375, -0.05450829491019249, 0.6723294258117676, -0.12875504791736603, -0.21243180334568024, 0.48164087533950806, 0.09802182018756866, -0.15439720451831818, -0.012959692627191544, 0.5169143676757812, 0.1312660574913025], [0.004578424151986837, -0.2000201791524887, 0.7375472784042358, -0.03257346898317337, -0.0987582802772522, -0.18788377940654755, -0.10132532566785812, 0.08494914323091507, 0.0011055911891162395, -0.1452629715204239, -0.010871837846934795, 0.6288590431213379, 0.18259145319461823, 0.16246595978736877, 0.16568833589553833, 0.10100812464952469], [0.3578038215637207, -0.181249737739563, 0.09881287068128586, 0.08352389931678772, -0.4474092423915863, 0.11483164131641388, -0.2765493094921112, 1.5452117919921875, -0.2578883469104767, -0.387399822473526, 0.55394047498703, 0.27131304144859314, -0.23142988979816437, -0.06318254768848419, 0.5980409383773804, 0.8419891595840454], [0.09434817731380463, 0.21055755019187927, -0.06396251916885376, 0.09751596301794052, 0.023448901250958443, -0.2080300748348236, 0.5136075615882874, -0.41974201798439026, -0.06523805856704712, 0.0948580950498581, -0.11768674850463867, 0.06233053654432297, -0.22603262960910797, -0.3178204894065857, 0.16521333158016205, 0.5155413150787354], [-0.4575960636138916, 0.09422855824232101, 0.16805775463581085, 0.26564279198646545, 0.17392367124557495, 0.16615809500217438, -0.0323215126991272, -0.33478593826293945, 0.29182302951812744, 0.3129540979862213, -0.35411325097084045, -0.1433337777853012, 0.15604552626609802, -0.11997783184051514, -0.0471096970140934, 0.26223093271255493], [-0.7267739772796631, -0.00956445001065731, -0.26374343037605286, 0.46432602405548096, 0.5017730593681335, 0.025429004803299904, -0.062142450362443924, 0.3677625358104706, -0.05419384315609932, 0.6276639103889465, 0.4801446795463562, 0.2870022654533386, -0.19727326929569244, -0.21788617968559265, 0.3202803134918213, 0.05357193946838379], [0.09770124405622482, 0.4942651689052582, -0.09196756035089493, -0.36339059472084045, 0.3197539150714874, 0.057076193392276764, -0.04732249677181244, 0.17771393060684204, -0.16962352395057678, -0.6123498678207397, 0.4908122718334198, 0.2818523049354553, 0.2360842078924179, 0.5777457356452942, 0.27409130334854126, 0.17029662430286407], [0.21823303401470184, 0.16387692093849182, -0.10456223785877228, -0.19034749269485474, 0.4384158253669739, -0.06347455084323883, -0.2338094413280487, -0.2723696529865265, -0.38582608103752136, -0.013202969916164875, 0.03289971873164177, 0.44981279969215393, 0.010709413327276707, 0.01757636107504368, -0.037785694003105164, 0.4602856934070587], [0.20287400484085083, -0.29910704493522644, -0.2573557198047638, 0.19092056155204773, 1.6475788354873657, 0.20192743837833405, 0.2912245988845825, -0.39419984817504883, -0.12620724737644196, -0.2296895980834961, 0.9434316754341125, 0.08512716740369797, 0.09734046459197998, -0.0839572474360466, -0.31841832399368286, 0.11315058916807175], [0.6331523060798645, 0.21143506467342377, 0.005385976750403643, -0.682590901851654, 0.24356339871883392, 0.4833451807498932, -0.17158256471157074, 0.10636600106954575, -0.3909189701080322, -0.8727543354034424, 0.27588340640068054, -0.2667792737483978, 0.17175279557704926, 0.049881912767887115, -0.33781906962394714, -0.1898769736289978], [0.14302276074886322, 0.2520349323749542, -0.29782333970069885, 0.19935189187526703, -0.14577607810497284, 0.2938989996910095, -0.015724366530776024, 0.2595100402832031, -0.24839578568935394, -0.11549250036478043, -0.149033322930336, -0.14068344235420227, -0.37245112657546997, -0.24858662486076355, -0.023408537730574608, -0.21088293194770813], [-0.49038222432136536, 0.7318891286849976, -0.001721555250696838, 0.07244765013456345, 0.045822031795978546, 0.00559297064319253, -0.20749826729297638, -0.7156378626823425, 0.040864866226911545, -0.00804857350885868, -0.40456128120422363, 0.4690009355545044, -0.10924176126718521, -0.06740901619195938, 0.5083991885185242, 0.6306271553039551], [-0.16528645157814026, 0.0077868616208434105, 0.10042687505483627, 0.3862442970275879, 0.4773869216442108, 0.17161156237125397, -0.1857832819223404, 0.10458634793758392, -0.6653617024421692, -0.6266206502914429, 0.5321313142776489, 0.6595058441162109, -0.0375075489282608, 0.689749538898468, 0.8301013708114624, 0.6292052865028381], [0.2699722945690155, 0.04741295427083969, -0.06277945637702942, -0.136400043964386, 0.24740424752235413, 0.1509249210357666, -0.04673292860388756, 0.002952049719169736, -0.36202389001846313, -0.382192999124527, -0.24198225140571594, 0.3286837935447693, 0.047323036938905716, 0.27353036403656006, 0.09447849541902542, 0.009308887645602226], [0.4288189709186554, 0.2703826129436493, 0.14760291576385498, -0.18611815571784973, 0.3077508211135864, -0.1492360681295395, -0.278984010219574, 0.1466049998998642, -0.34282344579696655, -0.48098841309547424, 0.007695077918469906, 0.15288908779621124, 0.18640318512916565, -0.13771526515483856, -0.22163967788219452, -0.07657729834318161], [0.010123323649168015, 0.0179495457559824, 0.015317993238568306, 0.017585868015885353, -0.03475722298026085, 0.12861639261245728, 0.013426367193460464, 0.05377807840704918, -0.5306772589683533, -0.3633303940296173, 0.0906357616186142, 0.16621840000152588, 0.08625588566064835, 0.013823159970343113, -0.2739590108394623, -0.3376025855541229], [0.5573397278785706, -0.024148978292942047, 0.0016075667226687074, -0.2406979203224182, 0.8494361639022827, -0.1553753912448883, 0.5402295589447021, 0.012225761078298092, -0.027418771758675575, -0.16801631450653076, 0.3639800548553467, 0.33510035276412964, -0.19394388794898987, -0.5884655117988586, -0.045769430696964264, -0.06051315367221832], [0.12400800734758377, 0.06661668419837952, 0.16056077182292938, -0.10567069053649902, 0.07249676436185837, 0.06287404894828796, -0.08389068394899368, -0.08557802438735962, 0.03672860562801361, -0.0645206943154335, 0.20173367857933044, 0.059475015848875046, 0.3001028597354889, -0.2669185996055603, -0.36576107144355774, -0.06826302409172058], [-0.2137937843799591, 0.5742982625961304, -0.2397601455450058, 0.07176746428012848, 1.4237819910049438, 0.1598384529352188, -0.10372097790241241, -0.40558305382728577, 0.09126698970794678, -0.1986461728811264, 0.42038416862487793, 0.13215236365795135, 0.04356378689408302, -0.39848417043685913, -0.014988135546445847, -0.13220708072185516], [-0.10117637366056442, 0.6649426221847534, 0.006148950662463903, 0.22123372554779053, 0.42865893244743347, -0.04294145107269287, 0.19660742580890656, 0.1963939070701599, -0.24057309329509735, -0.19160422682762146, -0.5815672278404236, 0.18151815235614777, 0.1788908839225769, 0.12071986496448517, -0.3886490762233734, -0.34073933959007263], [0.34814453125, 0.13802123069763184, -0.06186547502875328, -0.05179301276803017, 0.5065937042236328, 0.4728195369243622, 0.38309553265571594, 0.25192999839782715, -0.15358024835586548, -0.0028638257645070553, -0.2266630232334137, -0.14674527943134308, 0.5032854676246643, -0.26833459734916687, -0.6614007353782654, -0.4870099425315857]], "rec.bias_ih_l0": [-0.1424083113670349, 0.3176618218421936, -1.4216628074645996, 0.3557170629501343, -0.18204756081104279, -0.7093994617462158, 0.1368969827890396, 0.14115391671657562, -0.022587262094020844, -0.09155943989753723, 0.08662448078393936, -0.2611359655857086, -0.6369656324386597, 0.4240799844264984, -0.8682213425636292, -1.0139379501342773, 0.15433964133262634, 0.33440864086151123, 1.3660310506820679, 0.4535840153694153, 0.11511409282684326, 0.9788152575492859, 0.2749316096305847, -0.09963609278202057, 0.14374783635139465, 0.2151363492012024, -0.08788260817527771, 0.2372504472732544, 1.102968692779541, 0.10876604169607162, 1.0102683305740356, 1.392408013343811, -0.1127893477678299, 0.009151450358331203, -0.09894566237926483, -0.2240835577249527, 0.22480660676956177, 0.05168267711997032, -0.3555733263492584, 0.34259527921676636, -0.16750317811965942, -0.2683056592941284, 0.22868554294109344, 0.19799645245075226, -0.054439280182123184, 0.09838926047086716, -0.11423877626657486, -0.31970375776290894, 0.0340239480137825, 0.6938834190368652, 0.181434765458107, -0.335233211517334, 0.13893960416316986, 0.3789113461971283, 0.37537017464637756, 0.6973711252212524, 0.4532136917114258, 0.6119658350944519, 0.41240939497947693, 0.02356499433517456, 0.10390695184469223, 0.37240517139434814, 0.5664470791816711, -0.010696549899876118], "rec.bias_hh_l0": [-0.12290174514055252, 0.44754359126091003, -1.2961935997009277, 0.3560275137424469, -0.1200050562620163, -0.5417857766151428, 0.190801739692688, 0.26643258333206177, 0.04629818722605705, 0.04230383783578873, 0.14975443482398987, -0.22425156831741333, -0.7202033400535583, 0.36603492498397827, -0.8123400807380676, -0.7099252343177795, 0.18424829840660095, 0.3882828950881958, 1.537023901939392, 0.26630938053131104, 0.35506027936935425, 1.0526411533355713, 0.19324998557567596, -0.10092008858919144, 0.27372270822525024, 0.3494858145713806, -0.10787078738212585, 0.3841507136821747, 1.1193182468414307, 0.1577751487493515, 0.9573937654495239, 1.3358995914459229, 0.1746486872434616, 0.37470340728759766, 0.024338973686099052, -0.07113950699567795, 0.17189456522464752, 0.04456529766321182, -0.02181554026901722, 0.4534026086330414, -0.04288778454065323, -0.3473430871963501, -0.007830888964235783, 0.062440961599349976, 0.12303003668785095, 0.08209637552499771, 0.20033463835716248, 0.12315967679023743, -0.13236857950687408, 0.6476669907569885, -0.04209791123867035, -0.49105796217918396, 0.2314700186252594, 0.2992766797542572, 0.41472795605659485, 0.7765548229217529, 0.3627765476703644, 0.6104174256324768, 0.3755962550640106, 0.0610913448035717, 0.1776214987039566, 0.34287551045417786, 0.7257279753684998, -0.024187317118048668], "lin.weight": [[0.4083593785762787, 0.4893932342529297, 0.8749690651893616, 0.480283260345459, -0.0032997136004269123, -0.8463645577430725, 0.16881735622882843, -0.24668283760547638, 0.43124935030937195, -0.0945558100938797, 0.5393091440200806, 0.19113142788410187, 0.8104545474052429, 0.1642071008682251, 0.06809468567371368, 0.1265915483236313]], "lin.bias": [0.1418505311012268]}}