{"model_data": {"model": "SimpleRNN", "input_size": 1, "skip": 1, "output_size": 1, "unit_type": "LSTM", "num_layers": 1, "hidden_size": 32, "bias_fl": true}, "state_dict": {"rec.weight_ih_l0": [[-2.4612970719317673e-06], [-0.0001462385116610676], [-0.0050992839969694614], [-0.05639854818582535], [-0.08320151269435883], [1.3268358998175245e-05], [-0.004058541730046272], [-0.0005644723423756659], [0.1438818722963333], [0.0071419314481318], [-0.25810298323631287], [0.017922760918736458], [-0.011676711961627007], [0.19022142887115479], [0.00817024800926447], [-0.0003584632067941129], [-0.007207599468529224], [0.04990687593817711], [0.0723181962966919], [0.009978849440813065], [-0.0570312961935997], [0.027619676664471626], [-0.10290851444005966], [-0.06516434997320175], [0.10080615431070328], [0.009356264024972916], [-0.0068651242181658745], [0.008957288227975368], [-0.04647080972790718], [0.05844014510512352], [0.05152798071503639], [-0.050155963748693466], [-6.196680715220282e-06], [-0.00016050021804403514], [-0.028058042749762535], [0.05350204557180405], [-0.0064369747415184975], [-4.3794493649329524e-06], [-0.013891770504415035], [-0.0005392730236053467], [0.22452671825885773], [-0.021909082308411598], [-0.05187259241938591], [0.0890543982386589], [0.02378026768565178], [0.13980774581432343], [0.0353454165160656], [4.333329343353398e-05], [-0.0016736728139221668], [0.12263437360525131], [0.043992020189762115], [0.1048426628112793], [-0.0727371871471405], [-0.026157939806580544], [0.05622879043221474], [-0.1322144716978073], [0.14536139369010925], [0.025872012600302696], [-0.060678042471408844], [0.014152368530631065], [0.003325370606034994], [0.06968961656093597], [0.05791451036930084], [-0.0361049585044384], [-0.0016227440210059285], [0.005957986228168011], [-0.20414088666439056], [0.002008109586313367], [0.13866516947746277], [-0.0039504230953752995], [-0.3563743531703949], [0.032562006264925], [-0.602222740650177], [-0.02109885774552822], [0.3674338459968567], [-0.14245568215847015], [0.09898293018341064], [-0.22630061209201813], [-0.026425626128911972], [0.20603890717029572], [-0.05379652976989746], [-1.024469256401062], [0.032791994512081146], [-0.0430203415453434], [-0.21723783016204834], [-0.030087510123848915], [-0.15643355250358582], [-0.4768562614917755], [0.13867975771427155], [-0.06318765878677368], [0.002689183922484517], [-4.557886600494385], [0.4200141131877899], [0.2315228432416916], [-0.04976843670010567], [-0.3110863268375397], [-3.2641796678944957e-06], [-0.00014078278036322445], [-0.02534305490553379], [-0.05409162864089012], [-0.12169963866472244], [1.3766523807134945e-05], [-0.011582637205719948], [-0.0005466538132168353], [0.08194310963153839], [-0.011084097437560558], [-0.083892323076725], [0.027756493538618088], [-0.019321028143167496], [0.14285561442375183], [0.007347290404140949], [-0.004262825939804316], [-0.0025278497487306595], [0.13308386504650116], [0.05670899152755737], [0.182064950466156], [-0.11037220805883408], [0.0237179733812809], [0.15252576768398285], [-0.056420400738716125], [0.10420549660921097], [0.02212231606245041], [0.0027947346679866314], [0.01657061092555523], [0.021277619525790215], [0.09828893095254898], [0.051976487040519714], [-0.0419684499502182]], "rec.weight_hh_l0": [[-1.9535214335064666e-07, 6.079334724518048e-08, 4.5933375076856464e-05, -1.632446401345078e-05, 0.00020858155039604753, -6.779897603337304e-07, -4.032116339658387e-05, 3.40028577738849e-06, -2.3115630028769374e-05, -1.6794485873106169e-06, 6.787318852730095e-05, -3.2841584470588714e-05, -0.00013665587175637484, 0.0001776494027581066, 8.827936107991263e-05, -8.77111597219482e-06, -4.135678864258807e-06, 1.0436126103741117e-05, -9.093893459066749e-05, 0.0001670424098847434, -4.43567696493119e-05, -4.52979520559893e-06, 1.803606210160069e-05, -6.475584086729214e-05, -0.00016948668053373694, -1.9145398255204782e-05, 6.0749145632144064e-05, -9.432298975298181e-05, 5.705567673430778e-05, -6.100809696363285e-05, -3.4301036066608503e-05, 1.5583585991407745e-05], [6.519254611703218e-07, -1.1643890047707828e-06, 6.073015174479224e-05, -3.754572389880195e-05, 0.00035700498847290874, -2.859939513655263e-06, -8.258192974608392e-05, 5.577487172558904e-06, -6.332273915177211e-05, -2.8989152269787155e-05, 0.00022899251780472696, -0.00011139173875562847, -0.0002771856961771846, 0.0003633928718045354, 0.0004844466457143426, -1.5292866009986028e-05, 9.78607204160653e-06, 4.972030728822574e-05, -0.00012092602264601737, 0.00033279278432019055, -7.794119483151007e-06, -7.391502003883943e-05, 0.00016431619587820023, -3.772524723899551e-05, -0.00030767740099690855, -0.00019310454081278294, 0.00012965571659151465, -0.00041899154894053936, 0.00017861583910416812, -0.00010181160905631259, 2.5224537239409983e-05, -0.00014356522297021002], [0.0011369036510586739, 0.0005373466410674155, -0.4570324122905731, -0.2941416800022125, 0.655762255191803, -0.0004344515909906477, 0.02095889300107956, 0.003935986664146185, 0.11766329407691956, 0.07258340716362, 0.09110274910926819, 0.06370163708925247, -0.6409849524497986, 0.007064697798341513, -0.27403655648231506, 0.11121005564928055, -0.0872851237654686, -0.00688998494297266, 0.02579587511718273, 0.36219969391822815, -0.4611544907093048, -0.06216500699520111, 0.26476773619651794, -0.12449534982442856, -0.763485848903656, -0.49693089723587036, -0.4644145369529724, -0.10767379403114319, 0.003567794105038047, -0.6525560617446899, 0.04126157611608505, 0.011061888188123703], [0.00048762111691758037, -0.0003787718014791608, -0.06861450523138046, -0.03215181455016136, 0.794426441192627, -0.0020170973148196936, 0.1553848385810852, 0.005468751769512892, 0.06207916885614395, -0.06737721711397171, 0.05948382243514061, -0.004070204682648182, -0.563870906829834, -0.03180498629808426, -0.04505863040685654, 0.02583383396267891, -0.16008269786834717, -0.025422411039471626, -0.01460124272853136, 0.4078400433063507, -0.15089693665504456, 0.08632011711597443, -0.08672742545604706, -0.28808367252349854, -0.38894474506378174, -0.25244104862213135, -0.2438793182373047, -0.02124081738293171, -0.025056246668100357, -0.46197956800460815, 0.04055158793926239, -0.12956300377845764], [0.0014196174452081323, 0.002972786547616124, -0.2252187430858612, -0.142241969704628, 0.009285631589591503, -0.0006294850609265268, -0.05708272382616997, 0.0013622109545394778, -0.026161381974816322, -0.0074959020130336285, 0.009108795784413815, -0.019441086798906326, -0.06181878596544266, 0.18619920313358307, -0.18223710358142853, 0.0596349835395813, 0.030256696045398712, -0.12696078419685364, 0.06935225427150726, 0.4761488735675812, 0.3140345513820648, 0.09481912106275558, 0.1370929479598999, -0.15575243532657623, 0.26321685314178467, -0.21234038472175598, -0.05745646357536316, 0.01540601346641779, -0.053237441927194595, -0.08337095379829407, 0.04217350855469704, 0.022253992035984993], [-1.0893387525356957e-06, -2.1956925593258347e-06, 2.4256136384792626e-05, 2.8212469260324724e-05, 0.0002247944357804954, -3.617815309553407e-07, -4.1107385186478496e-05, 2.140494217428568e-07, -1.5737607100163586e-05, -2.571662116679363e-05, 5.550443893298507e-05, -5.9464193327585235e-05, -0.00011645218182820827, 6.543006020365283e-05, -0.0001728204224491492, -9.296130087932397e-08, 3.982867838203674e-06, -7.59559334255755e-05, -8.09601551736705e-05, 0.00013535191828850657, 0.00017784451483748853, 7.718646884313785e-06, 5.245897773420438e-05, 8.593736856710166e-05, -0.00014075580111239105, -0.00017205646145157516, 2.777312147372868e-05, 4.1495739424135536e-05, 3.931897026632214e-06, -2.362015948165208e-05, -7.201333210105076e-05, 9.902758756652474e-05], [0.0009741013636812568, 0.0008029513410292566, -0.005279437638819218, -0.01030285656452179, -0.09405003488063812, 0.00033219114993698895, -0.04678155854344368, -0.0008205350604839623, -0.17531979084014893, 0.016298163682222366, -0.0686858668923378, 0.012649445794522762, 0.08672643452882767, -0.03736391291022301, -0.006964676547795534, -0.03343217074871063, 0.011642178520560265, -0.048870474100112915, 0.03344706818461418, 0.01719864457845688, 0.00154876837041229, -0.140639528632164, -0.028526879847049713, -0.007173460442572832, 0.047162171453237534, 0.07652835547924042, 0.0029694505501538515, -0.06541270762681961, -0.011091956868767738, -0.029929285869002342, -0.03433762118220329, 0.06559862196445465], [1.8431288481224328e-05, 2.0695251805591397e-05, -0.0003528196830302477, 5.305506056174636e-05, -0.0008832302410155535, 1.5040749531181064e-05, 0.00012309617886785418, -5.109905396238901e-05, -0.0002158526622224599, 2.7413027055445127e-05, -0.00033488008193671703, 7.276069663930684e-05, 0.0004925839020870626, -0.0007380688330158591, 0.0006464002071879804, -7.804145570844412e-05, -0.00011332349095027894, 0.00021025053865741938, 0.000312850927002728, -0.0006775018409825861, 8.172858360921964e-05, 0.0002707909152377397, 2.9275939596118405e-05, 9.280363155994564e-05, 0.0005892380140721798, -0.0005386965931393206, -0.00029947678558528423, -0.0001743251777952537, -0.0002497656096238643, 0.0004421013582032174, 0.000484702322864905, -0.0005313989240676165], [0.00014506143634207547, -0.0015854868106544018, 0.010587971657514572, 0.07761619985103607, 0.05427119508385658, -0.0020477932412177324, -0.06140483170747757, -0.002782108960673213, -0.21101753413677216, 0.13785122334957123, -0.027873612940311432, 0.09841296076774597, 0.09229324012994766, -0.1377815455198288, 0.4975210428237915, -0.03702495992183685, -0.04508265480399132, 0.00023502859403379261, -0.12444125860929489, 0.1169201210141182, 0.06113801524043083, -0.39603641629219055, 0.06456143409013748, 0.05629507824778557, -0.11310015618801117, -0.11796969920396805, -0.025794075801968575, -0.6823416948318481, -0.005647552199661732, 0.0043637510389089584, -0.12293115258216858, -0.07979658991098404], [-6.6609586610866245e-06, -0.0007646679296158254, -0.10388068109750748, 0.02029363065958023, -0.15563859045505524, -0.0005212113610468805, 0.004462513141334057, 0.0035290620289742947, 0.012146937660872936, -0.01359881367534399, -0.05958743020892143, 0.007500357925891876, 0.12378982454538345, -0.06449288129806519, -0.07420297712087631, 0.005932794883847237, -0.03986865654587746, -0.00708898575976491, 0.05240066349506378, 0.009638822637498379, 0.08276069164276123, 0.020738253369927406, -0.04595046117901802, -0.03692896291613579, 0.2184980809688568, 0.08637140691280365, -0.07063471525907516, 0.12458201497793198, 0.004141262266784906, 0.05923428758978844, -0.04036857560276985, -0.007716104853898287], [-0.00015577235899399966, -0.004174616653472185, 0.05706457421183586, 0.039167799055576324, 0.40695732831954956, -0.0030399749521166086, -0.041718482971191406, -0.0009171749697998166, 0.3022707998752594, 0.014091781340539455, -0.201964870095253, -0.13660866022109985, -0.39642637968063354, 0.1490669846534729, -0.32857033610343933, -0.015653135254979134, -0.0703122615814209, -0.13521498441696167, 0.12067107856273651, 0.8526755571365356, -0.04459855332970619, -0.6603126525878906, -0.24013087153434753, -0.3647635877132416, -0.8549500703811646, 0.40107911825180054, 0.09444889426231384, 0.1817539632320404, -0.12034106999635696, -0.20087644457817078, -0.054216787219047546, 0.290780633687973], [0.0008622912573628128, 0.005622286815196276, 0.013300728984177113, 0.03424257040023804, 0.13924820721149445, 0.0017515202052891254, -0.04462922364473343, 0.008045319467782974, 0.00677949795499444, 0.08625949174165726, 0.055050235241651535, -0.17604589462280273, -0.07710498571395874, 0.11910189688205719, -0.036546576768159866, -0.019952164962887764, 0.04690326750278473, 0.11234840750694275, 0.014864585362374783, 0.023587185889482498, 0.09736626595258713, -0.02091551385819912, -0.021304266527295113, 0.08193301409482956, -0.09674038738012314, -0.025119733065366745, -0.011846845969557762, 0.11430110037326813, -0.04740535840392113, 0.016265982761979103, -0.03048049844801426, 0.09509839117527008], [0.00019484877702780068, 0.0004601741675287485, 0.07526527345180511, -0.02964213863015175, -0.07000606507062912, 0.0005679784226231277, 0.008329281583428383, -0.00030182130285538733, -0.00244467263109982, 0.03602481260895729, 0.0041783577762544155, 0.07791834324598312, 0.09033872932195663, 0.06683650612831116, -0.009421665221452713, 0.003609252627938986, 0.011525461450219154, 0.04387383535504341, 0.055901605635881424, 0.016326580196619034, -0.08793015033006668, 0.08100052177906036, -0.014715096913278103, -0.05250200256705284, 0.011086980812251568, 0.08231163024902344, -0.061560023576021194, 0.057223305106163025, 0.08865310251712799, 0.024249527603387833, 0.06044240668416023, 0.023658284917473793], [-0.00157479802146554, 0.0010014554718509316, 0.006854329723864794, -0.0026685153134167194, 0.8900945782661438, -0.0005060965777374804, 0.06916544586420059, 0.006888243369758129, 0.8953237533569336, -0.14488595724105835, -0.07273409515619278, 0.33767566084861755, -0.5766541361808777, -0.1019350215792656, 0.30930033326148987, -0.09414830058813095, 0.03720388934016228, 0.09447388350963593, -0.153593048453331, 0.8776430487632751, -0.33033931255340576, -0.5829422473907471, 0.20407991111278534, -0.2691197991371155, -0.7994715571403503, -0.08158640563488007, -0.24343854188919067, -0.29267001152038574, 0.042381804436445236, -0.08985064178705215, 0.1497233659029007, -0.5935084223747253], [0.000987847219221294, 0.0018540432211011648, -0.05269308760762215, -0.008369801566004753, -0.3753744959831238, 0.0016757259145379066, 0.028713835403323174, -0.001766334637068212, 0.02828230895102024, -0.09588509052991867, -0.060869790613651276, -0.026527399197220802, 0.18247410655021667, 0.04991881921887398, 0.17077694833278656, -0.027512138709425926, 0.019643884152173996, -0.01894342340528965, -0.06416542083024979, -0.38287287950515747, 0.11487159132957458, 0.1470446139574051, -0.04194462299346924, 0.2146022468805313, 0.43475601077079773, -0.27272936701774597, -0.03853670507669449, 0.042165275663137436, 0.03473224118351936, 0.02952045574784279, -0.00475797476246953, 0.024326924234628677], [-4.715360046247952e-05, -0.0005865398561581969, -0.016938354820013046, -0.00984320417046547, -0.09152340143918991, -0.0010277987457811832, 0.009088870137929916, -0.0006468295468948781, 0.005654534790664911, 0.028904244303703308, -0.012857581488788128, -0.0011512375203892589, 0.05295729264616966, -0.0511992946267128, 0.012055542320013046, -0.02120339497923851, -0.0024176680017262697, 0.025051236152648926, -0.02277277782559395, -0.04647701233625412, 0.014604885131120682, -0.013752576895058155, -0.0023620002903044224, 0.022232456132769585, 0.03730278089642525, 0.023810213431715965, -0.03073103539645672, 0.0025593445170670748, 0.002740944502875209, 0.02371271140873432, 0.013177390210330486, -0.005658694077283144], [0.00035353441489860415, -0.0008218095754273236, -0.04202546179294586, 0.02486811950802803, -0.11372267454862595, -0.00019909066031686962, 0.03190317377448082, 0.0007137767388485372, 0.021717233583331108, -0.013154072687029839, -0.05769325792789459, 0.03989621251821518, 0.08699337393045425, -0.16030190885066986, 0.04892755672335625, 0.014513449743390083, -0.06305486708879471, 0.014828421175479889, 0.018790874630212784, -0.12800157070159912, 0.017342355102300644, -0.01570407673716545, -0.020078983157873154, 0.048403844237327576, 0.1011960431933403, -0.018039345741271973, -0.041447099298238754, 0.029223816469311714, -0.022145124152302742, 0.04132533445954323, 0.0035604294389486313, -0.057468827813863754], [8.897446969058365e-05, 0.0013763423776254058, -0.04891367256641388, -0.005686754826456308, -0.2256343960762024, 0.0016160645755007863, 0.0021705646067857742, 0.0022646889556199312, 0.1148279458284378, 0.007936791516840458, 0.035023558884859085, -0.011103232391178608, 0.1005631759762764, -0.01790749840438366, -0.09897485375404358, 0.0010206896113231778, 0.02066904865205288, 0.07331819087266922, -0.09393516927957535, -0.06964243203401566, 0.08186895400285721, 0.13486456871032715, -0.03916303813457489, 0.07702364772558212, 0.16075974702835083, -0.1804981678724289, 0.04932078719139099, 0.05693858861923218, -0.027969863265752792, 0.07394300401210785, 0.046067506074905396, -0.21154525876045227], [-0.0006260236259549856, 0.0008166757179424167, 0.0005868047592230141, 0.0827232152223587, 0.07159725576639175, 0.0004336137790232897, -0.04109035059809685, 0.003923399373888969, -0.048975955694913864, 0.057061292231082916, 0.03338735178112984, -0.047711972147226334, -0.047573741525411606, 0.03907443583011627, -0.01011260598897934, -0.015056383796036243, 0.003329291706904769, 0.15295547246932983, -0.12389779835939407, 0.00866625178605318, 0.09624002873897552, -0.022871993482112885, -0.0011658367002382874, 0.12174297869205475, -0.033386435359716415, 0.0039717392064630985, 0.0389048270881176, -0.03043241798877716, -0.025731848552823067, 0.0715765431523323, -0.05729004368185997, 0.07064840942621231], [0.0004047638503834605, 0.0009739722008816898, -0.028475096449255943, 0.0047629703767597675, -0.19342175126075745, 4.961169179296121e-05, -0.05187424644827843, 0.0012525724014267325, 0.019176406785845757, 0.02849658764898777, -0.060064803808927536, -0.007260493002831936, 0.05304421856999397, 0.01268260832875967, -0.492296427488327, -0.028529677540063858, 0.0339493490755558, -0.20474159717559814, 0.013314468786120415, -0.004262994043529034, 0.008211829699575901, -0.04690605029463768, -0.040290094912052155, -0.021117907017469406, 0.15388746559619904, -0.017380859702825546, 0.07572455704212189, 0.029046598821878433, 0.04813908040523529, -0.027964744716882706, 0.005907534621655941, -0.01774296723306179], [-0.0005988791235722601, 0.0002350651047891006, -0.1274954080581665, 0.00027064699679613113, 0.11692996323108673, -0.0004739669384434819, 0.0076153092086315155, 0.0033076286781579256, -0.028559481725096703, -0.16232874989509583, -0.05552902817726135, 0.027814831584692, 0.0473315566778183, -0.018890952691435814, 0.28797245025634766, 0.01676264777779579, 0.012542163021862507, -0.14367583394050598, 0.022008268162608147, -0.29032373428344727, 0.0019123726524412632, 0.05950070917606354, -0.0414382740855217, 0.0926797017455101, 0.27560919523239136, -1.1343530416488647, -0.01944364234805107, -0.18334345519542694, -0.02951439470052719, 0.10370440781116486, -0.020390747115015984, -0.062402237206697464], [0.0005403284449130297, 0.0008557845139876008, -0.011310528963804245, 0.10525071620941162, 0.12157110124826431, -0.0003312163462396711, -0.06526954472064972, 0.00036765943514183164, 0.03604474291205406, 0.030511168763041496, -0.03885740414261818, 0.05793893709778786, 0.06116965785622597, 0.07114145904779434, 0.30106663703918457, 0.00045048067113384604, 0.030807211995124817, 0.03061753138899803, -0.10802154242992401, 0.011359945870935917, -0.17036664485931396, -0.04742993786931038, -0.050106197595596313, -0.048300739377737045, 0.08856084197759628, 0.1831454187631607, 0.09764165431261063, -0.25516051054000854, 0.10020340234041214, -0.023307273164391518, -0.03807273507118225, -0.02318614162504673], [0.0021618385799229145, -0.00280337268486619, -0.12805403769016266, -0.15245936810970306, 0.3894334137439728, -0.0011699411552399397, -0.06312701851129532, -0.011457534506917, -1.1228172779083252, 0.12186599522829056, -0.06727024167776108, -0.1716405749320984, -0.1176861971616745, -0.1238906979560852, -0.4060305953025818, -0.17496199905872345, -0.06583455204963684, 0.28220534324645996, 0.0008605913608334959, 1.2949148416519165, -0.0026596146635711193, -1.2065483331680298, 0.3318418860435486, -0.5277991890907288, -0.8999667763710022, 0.33505433797836304, -0.16858723759651184, 0.2271091789007187, 0.14597488939762115, -0.06308012455701828, -0.43593472242355347, 1.4038119316101074], [-0.00026911604800261557, 0.00019710457127075642, -0.02235925756394863, 0.0072830794379115105, -0.13520823419094086, -0.0001309079525526613, -0.0011342192301526666, 0.0009399025002494454, -0.057630956172943115, 0.05644230917096138, 0.04705675318837166, 0.056297667324543, 0.05455319583415985, -0.019450794905424118, -0.10033238679170609, -0.010967007838189602, 0.011586255393922329, 0.038721777498722076, -0.021793434396386147, -0.15704920887947083, 0.017084090039134026, 0.2068602740764618, 0.0742638111114502, -0.08712443709373474, 0.0967617779970169, 0.054239626973867416, -0.07878272235393524, 0.05321051552891731, 0.03155150264501572, 0.00560941593721509, 0.10716443508863449, 0.14529304206371307], [0.00026799747138284147, 0.0017508771270513535, 0.025843987241387367, 0.2138293981552124, 0.4486618638038635, -0.0002741984208114445, -0.05294931307435036, 0.004135283175855875, 0.0409926138818264, 0.011471263132989407, -0.013275707140564919, 0.014138374477624893, -0.25292059779167175, 0.20778687298297882, -0.09512555599212646, -0.047401104122400284, 0.08779601007699966, 0.019903171807527542, 0.0820864588022232, 0.11948458850383759, -0.06084810197353363, -0.032307494431734085, 0.06789376586675644, 0.091335229575634, -0.059143953025341034, -0.3809378445148468, -0.16472552716732025, 0.04741935059428215, 0.1577371060848236, -0.020892569795250893, 0.028891922906041145, 0.016505783423781395], [0.00010698877304093912, 0.00033540508593432605, -0.08337227255105972, 0.015150885097682476, -0.46594324707984924, -2.7776868591899984e-05, 0.014728948473930359, 0.000843695888761431, -0.003351034829393029, -0.025892414152622223, -0.05889739841222763, 0.03372166305780411, 0.20006218552589417, -0.2577079236507416, -0.08857304602861404, 0.016369756311178207, -0.038914505392313004, -0.04945964366197586, 0.013450727798044682, -0.4435175061225891, 0.07564359158277512, 0.1739121675491333, -0.04319395124912262, 0.12466046959161758, 0.4039497375488281, -0.12807044386863708, -0.08357467502355576, 0.03402285650372505, -0.0037622135132551193, 0.06084267422556877, 0.0117648271843791, -0.07017984986305237], [-0.003217637538909912, -0.0032540985848754644, -0.20379576086997986, -0.053122490644454956, 0.8115935325622559, 0.0031840139999985695, -0.04014987498521805, -0.002756686182692647, 0.03658290207386017, 0.2106175571680069, -0.02015821263194084, 0.027362430468201637, -0.3620782196521759, -0.10386872291564941, 0.035835396498441696, -0.08502528071403503, -0.014720604754984379, 0.12868818640708923, 0.1885288953781128, 0.43350619077682495, -0.3059912323951721, -0.0030530868098139763, 0.1255744993686676, -0.0926927775144577, -0.31933918595314026, -0.26048630475997925, -0.5503969788551331, -0.09563729166984558, 0.2192848026752472, 0.2479248195886612, 0.11576142907142639, 0.15940678119659424], [0.0015641488134860992, 0.004064451903104782, -0.05431729555130005, 0.004641709849238396, -0.041124146431684494, 0.0007962408126331866, -0.031229479238390923, 0.003991097677499056, 0.11355861276388168, -0.1850081980228424, -0.039412710815668106, -0.02142985910177231, 0.16944728791713715, 0.10060974955558777, 0.22680586576461792, 0.029733793810009956, 0.06123964115977287, -0.03129810467362404, 0.09386591613292694, -0.4982067048549652, 0.09863831102848053, 0.19135910272598267, -0.0893249362707138, 0.1841002255678177, 0.5414077043533325, -0.25540417432785034, 0.013352734036743641, -0.1721213161945343, 0.045954640954732895, -0.001098415581509471, 0.016613472253084183, -0.1861262023448944], [0.002150324871763587, 0.004473005421459675, 0.01053797546774149, 0.13772310316562653, 0.8837903738021851, 0.001218976452946663, 0.0007156483479775488, 0.0037732496857643127, 0.1430356651544571, -0.11919661611318588, 0.1493384838104248, -0.1805916279554367, -0.8792163729667664, 0.13875459134578705, -0.06556189060211182, -0.030968258157372475, 0.005169364623725414, 0.016387460753321648, 0.010996351018548012, 0.5153172016143799, -0.2702140510082245, -0.11295503377914429, 0.0860932320356369, -0.18735849857330322, -0.5392032265663147, -0.25901418924331665, -0.27972719073295593, 0.13633638620376587, 0.14492645859718323, -0.2791549563407898, -0.030250294134020805, 0.14717179536819458], [-0.0006138431490398943, -0.001309731393121183, 0.3077757954597473, 0.06740720570087433, 0.1163557767868042, 2.015181235037744e-05, 0.031012296676635742, -0.00027655091253109276, -0.014446482062339783, -0.01112393382936716, 0.016430793330073357, 0.061226096004247665, 0.06732258200645447, -0.03983156010508537, 0.15256443619728088, 0.016607463359832764, -0.029639657586812973, 0.09109781682491302, -0.016028087586164474, -0.1031070277094841, -0.07375843822956085, 0.033834733068943024, 0.07628750056028366, 0.08567855507135391, 0.07628517597913742, 0.003350326791405678, 0.21111056208610535, -0.03578781336545944, -0.13919682800769806, -0.03138434886932373, -0.005517725832760334, -0.05952487885951996], [-0.00038226073957048357, -0.0012023021699860692, -0.05484389513731003, -0.062476664781570435, 0.05410676449537277, -0.0016974726459011436, 0.011729903519153595, 0.0005838253418914974, -0.09345854073762894, -0.006755366455763578, -0.06028313562273979, 0.03546664118766785, 0.08161330223083496, -0.0944100096821785, 0.25006330013275146, 0.029539162293076515, -0.04870093613862991, -0.009308794513344765, 0.11849858611822128, -0.0026195889804512262, 0.11096696555614471, -0.05677703022956848, 0.002750558312982321, -0.02951977401971817, 0.06382941454648972, -0.1913425177335739, -0.1181943267583847, -0.10234800726175308, 0.04052362218499184, 0.013806214556097984, -0.017176544293761253, -0.07510512322187424], [-0.0017437697388231754, -0.0038271350786089897, -0.018263602629303932, 0.010630570352077484, -0.003325096797198057, -0.0005768110859207809, 0.09928026795387268, -0.006288387347012758, 0.04526862874627113, 0.10410767048597336, 0.024945158511400223, -0.1726365089416504, -0.07592027634382248, 0.15606491267681122, -0.276985764503479, -0.14353956282138824, 0.04057680070400238, 0.17183072865009308, -0.17246563732624054, -0.02821390889585018, 0.10898105055093765, 0.02739938721060753, 0.255380243062973, 0.11345382779836655, -0.11460032314062119, -0.03677840158343315, 0.012135711498558521, 0.5936326384544373, 0.07426691800355911, -0.08406311273574829, 0.07523874938488007, 0.3106713593006134], [-2.8980903721276263e-07, 1.5991669499726413e-07, 4.7251760406652465e-05, -1.6470730770379305e-05, 0.0002212224353570491, -7.154661716413102e-07, -2.5307654141215608e-05, 3.916487003152724e-06, -3.163094152114354e-05, 9.396937457495369e-06, 5.382642484619282e-05, -3.052507963730022e-05, -0.00013814611884299666, 0.000181300871190615, 9.389049955643713e-05, -7.88442230259534e-06, -1.621851151867304e-05, 3.391846621525474e-05, -8.702212653588504e-05, 0.00016023214266169816, -4.131047535338439e-05, 1.6115822290885262e-05, 1.5744830307085067e-05, -4.324657129473053e-05, -0.00017769221449270844, -2.796738044708036e-05, 5.4888034355826676e-05, -9.332030458608642e-05, 5.1079128752462566e-05, -5.0744001782732084e-05, -2.4570383175159805e-05, 1.6658368622302078e-05], [1.2579889698827174e-06, -1.4507357093407336e-07, 7.76974848122336e-05, -3.664469477371313e-05, 0.0004146533028688282, -2.8052847937942715e-06, -6.388678593793884e-05, 7.666814781259745e-06, -1.5919398720143363e-05, 2.4081115043372847e-05, 0.0002166168123949319, -0.00020717635925393552, -0.00030805511050857604, 0.0004154849157202989, 0.0003666694974526763, -1.9179995433660224e-05, -2.4791845135041513e-05, 0.00014526712766382843, -0.00012173566210549325, 0.00034969457192346454, 3.097842636634596e-05, 1.0555675544310361e-05, 0.00016260260599665344, 9.682800009613857e-05, -0.00035686689079739153, -0.00018346750584896654, 0.0001075688996934332, -0.00021841382840648293, 0.0001928468409460038, -7.449470285791904e-05, 5.756802420364693e-05, -5.7973884395323694e-05], [0.0013815582497045398, -0.00029434653697535396, -0.05002351477742195, -0.2173575758934021, -0.8321275115013123, 0.0013680170523002744, 0.02045169472694397, -0.010960799641907215, -0.09403377771377563, 0.06231246516108513, -0.1958053708076477, 0.01581503450870514, 0.582938015460968, -0.08714444935321808, 0.1962108165025711, -0.044760316610336304, 0.000985331367701292, 0.025694163516163826, 0.061960235238075256, -0.4938012361526489, 0.14030006527900696, 0.01759181171655655, -0.17931710183620453, 0.12285295128822327, 0.7009791731834412, 0.2642626464366913, 0.33446642756462097, 0.0795636847615242, 0.04422023892402649, -0.21587666869163513, -0.0014736901503056288, -0.00280602159909904], [-0.0013340236619114876, -0.0015165352961048484, 0.05264025926589966, 0.06456874310970306, -1.1408356428146362, 0.00044813373824581504, 0.042570605874061584, -0.005625254008919001, -0.18369990587234497, 0.1082163155078888, -0.09486975520849228, -0.02143849804997444, 0.4324318766593933, -0.20230408012866974, 0.05151567980647087, -0.0393412820994854, -0.0405355766415596, 0.058210521936416626, -0.005244285333901644, -0.6120429635047913, 0.01749284379184246, -0.04833604767918587, -0.20145143568515778, 0.109711192548275, 0.6274872422218323, 0.32265231013298035, 0.1852869689464569, 0.02721923403441906, -0.1919669806957245, -0.115609310567379, 0.02204734832048416, -0.029365504160523415], [0.0016476321034133434, 0.004724735394120216, -0.13345570862293243, -0.14596547186374664, -0.4837862253189087, 0.00013904865772929043, -0.06120812147855759, 0.00474694324657321, -0.04927763342857361, 0.11888963729143143, 0.03051658533513546, -0.19681109488010406, 0.12341161072254181, -0.018086154013872147, -0.15020109713077545, 0.04061983525753021, 0.019654586911201477, 0.02524871937930584, 0.0013540490763261914, 0.26594725251197815, 0.4346361458301544, -0.0032001174986362457, 0.28399035334587097, -0.11213327944278717, 0.3023112714290619, -0.016223415732383728, 0.1213948056101799, 0.11825179308652878, -0.06290489435195923, -0.11787887662649155, 0.04164204001426697, 0.06321372836828232], [-1.1494039426906966e-06, -2.254280843771994e-06, 2.737270733632613e-05, 2.7123678592033684e-05, 0.00021989960805512965, -8.985847443909734e-07, -6.550127000082284e-05, 8.491579706060293e-08, -4.547306525637396e-05, -2.7999292797176167e-05, 6.324103742372245e-05, -6.48541608825326e-05, -0.00012405987945385277, 7.093436579452828e-05, -0.0001643973373575136, -3.8376456359401345e-06, 4.395125506562181e-05, -7.356118294410408e-05, -7.734754035482183e-05, 0.0001271226501557976, 0.00019849567615892738, 1.1872830327774864e-05, 5.391390004660934e-05, 0.00010281308641424403, -0.00012665943359024823, -0.00019902193162124604, 2.636337922012899e-05, 2.345800794500974e-06, 1.612145933904685e-05, -2.1498479327419773e-05, -6.544475763803348e-05, 0.00010493213630979881], [0.001334278378635645, 0.0015001437859609723, 0.006058621220290661, -0.017588317394256592, -0.08830110728740692, 0.0006712072063237429, -0.10452848672866821, -0.0009747043368406594, -0.2510806620121002, 0.02418643794953823, -0.07827829569578171, 0.010003785602748394, 0.0929492712020874, 0.022716104984283447, 0.024185065180063248, -0.03679690137505531, 0.041894182562828064, -0.08118788152933121, 0.04265885055065155, 0.045962102711200714, -0.04306173697113991, -0.1472797989845276, -0.06485059857368469, -0.05266290158033371, 0.051539696753025055, 0.12202216684818268, 0.030763771384954453, -0.15094126760959625, -0.005793942604213953, -0.05737213417887688, -0.04637830704450607, 0.0878651887178421], [1.643756877456326e-05, 1.1469229320937302e-05, -0.0001775018754415214, 6.525564822368324e-05, 0.00018766758148558438, 6.7048085838905536e-06, -8.13423830550164e-05, -5.104223600937985e-05, -0.00013873568968847394, 0.000282703316770494, -0.00019778887508437037, -0.0002596719132270664, 1.9133802197757177e-05, 7.414235005853698e-05, -0.00011616113624768332, -5.9697587857954204e-05, 4.364555570646189e-05, 0.00017835562175605446, -9.914172096614493e-07, -4.186390287941322e-05, -7.189829193521291e-05, 0.0006084901979193091, -1.9213115592719987e-05, 0.0002826827112585306, -0.0001177972590085119, 7.337104761973023e-05, -0.0002731126151047647, 0.0003950278623960912, 6.6484299168223515e-06, 0.00031958846375346184, 0.0005540388519875705, -0.00018581029144115746], [0.0015740059316158295, 0.0012514673871919513, 0.004496013280004263, 0.08269067108631134, -0.18249158561229706, -0.0022654703352600336, -0.02586878277361393, -0.0020858217030763626, -0.5135171413421631, 0.06519981473684311, -0.003615765133872628, 0.14799191057682037, 0.13460983335971832, -0.048078618943691254, 0.18725955486297607, -0.03368472680449486, -0.016872206702828407, -0.009839624166488647, -0.07976070791482925, -0.12701474130153656, 0.03676017001271248, -0.36346298456192017, 0.29260873794555664, 0.038567040115594864, 0.027723852545022964, 0.08441606163978577, -0.07531809061765671, -0.3240082263946533, 0.011696700006723404, 0.0038524342235177755, -0.055566221475601196, -0.06757550686597824], [-0.00014578198897652328, -0.0009294057381339371, -0.09574286639690399, 0.037058211863040924, -0.07122818380594254, -0.00038506166310980916, -0.030792027711868286, 0.0037975467275828123, -0.024893691763281822, -0.06514997780323029, -0.062140487134456635, 0.025174438953399658, 0.07254737615585327, 0.09189746528863907, 0.14923930168151855, 0.023308040574193, -0.02655171975493431, -0.018236858770251274, 0.09964146465063095, 0.045170389115810394, 0.030013523995876312, 0.020332036539912224, -0.09842832386493683, -0.029201311990618706, 0.21351712942123413, -0.007267678156495094, -0.09863967448472977, 0.04438232630491257, 0.07305875420570374, 0.05283820629119873, -0.0820697695016861, -0.012234600260853767], [5.334960951586254e-05, -0.00033155237906612456, 0.0063214777037501335, -0.07211645692586899, -0.8867067694664001, -0.00014560186536982656, 0.05929286777973175, 0.00394505076110363, 0.20452257990837097, -0.02316180244088173, -0.08190695196390152, 0.04916303604841232, 0.3269609212875366, -0.06644414365291595, 0.21894226968288422, 0.03905802592635155, -0.05542252957820892, -0.005950899329036474, 0.06769617646932602, -0.647937536239624, 0.038825470954179764, 0.1471938043832779, -0.1208406612277031, 0.2717149555683136, 0.48222947120666504, -0.02186807245016098, 0.21646857261657715, -0.03096536546945572, -0.05589480325579643, 0.010162154212594032, 0.10535579174757004, -0.12498819828033447], [-0.0018971865065395832, -0.000860647764056921, -0.03911406919360161, -0.012813312001526356, -0.34650030732154846, 0.000735031790100038, -0.046498123556375504, 0.0016245601000264287, -0.04259669408202171, 0.07094650715589523, 0.050681017339229584, -0.2114516794681549, 0.13733740150928497, -0.040761299431324005, 0.1086459830403328, -0.036367885768413544, 0.045763563364744186, 0.04511406272649765, -0.07914837449789047, -0.1429509073495865, 0.05403049290180206, -0.07496733218431473, 0.0034186195116490126, 0.06410025805234909, 0.13644735515117645, 0.05071334168314934, 0.01927264593541622, -0.061754968017339706, 0.01765456050634384, -0.01849088817834854, -0.03931407630443573, 0.0407710075378418], [0.0005110411439090967, 0.001041061826981604, 0.2181772142648697, -0.08697297424077988, -0.278217077255249, 0.0007879726472310722, -0.016193648800253868, -0.000908424612134695, -0.033568136394023895, 0.1679707169532776, -0.028119774535298347, 0.022456401959061623, 0.2675532102584839, 0.052811361849308014, 0.05277496203780174, -0.030657140538096428, 0.024646524339914322, 0.1741623729467392, 0.013521256856620312, -0.15789252519607544, -0.05315462127327919, 0.15374135971069336, -0.08350896090269089, 0.09979124367237091, 0.19721141457557678, 0.18901179730892181, -0.0366966612637043, 0.011833594180643559, 0.1817621886730194, 0.08266516029834747, 0.08697257190942764, 0.015399489551782608], [0.0013869088143110275, 9.642008080845699e-05, -0.0903845727443695, -0.15093597769737244, -1.331586480140686, -0.0026438632048666477, 0.18809820711612701, 0.0007652489002794027, -0.14721156656742096, -0.011887340806424618, -0.06870201230049133, -0.029641522094607353, 0.6439443230628967, -0.48603177070617676, 0.09118784219026566, 0.06339675933122635, -0.1600944548845291, 0.011888526380062103, 0.043500348925590515, -1.0818538665771484, 0.06755220144987106, 0.1471053957939148, -0.08698175847530365, 0.2206423431634903, 0.7332888841629028, 0.14748089015483856, 0.262163907289505, 0.07490585744380951, -0.1546485871076584, 0.08647041022777557, 0.02658962458372116, -0.09490659832954407], [0.0009212350705638528, 0.001461636507883668, -0.10081019252538681, 0.002460248302668333, -0.11980985105037689, 0.000761762319598347, -0.01410810649394989, -0.004412011709064245, 0.31518977880477905, 0.056923385709524155, -0.10953293740749359, -0.0740223228931427, 0.06936466693878174, 0.34477561712265015, 0.21385474503040314, -0.09604800492525101, 0.057840291410684586, -0.0817958414554596, -0.09777247160673141, -0.38171061873435974, -0.03916521742939949, -0.0505288727581501, -0.005866059102118015, 0.1745254248380661, 0.0898871049284935, -0.39458394050598145, -0.0725407674908638, -0.12609019875526428, 0.17775285243988037, 0.02925274521112442, 0.12225131690502167, 0.04951688274741173], [0.00018662071670405567, -0.0005983510054647923, -0.00507183326408267, -0.01196172647178173, -0.028051059693098068, -0.0013265347806736827, 0.004615013487637043, -0.0011327972169965506, -0.011741469614207745, 0.027725502848625183, -0.005722482223063707, -0.0035866848193109035, 0.027786411345005035, -0.018061216920614243, 0.05870048329234123, -0.018635164946317673, -0.003945598378777504, 0.034123409539461136, -0.03149961307644844, 0.000878993421792984, 0.009902731515467167, -0.01988629810512066, -0.0049781715497374535, 0.035307545214891434, -0.0027858177199959755, 0.02520955167710781, -0.025393635034561157, -0.02070782519876957, 0.011493797414004803, 0.019243652001023293, -0.0007805473287589848, 0.007531177252531052], [0.00010993878095177934, -0.0017373691080138087, -0.04974186420440674, 0.035226404666900635, -0.11495421826839447, -0.0007105369004420936, 0.035559751093387604, 0.0008074697107076645, 0.0051045804284513, -0.016233067959547043, -0.06858042627573013, 0.0506025031208992, 0.08801013976335526, -0.16973340511322021, 0.05937798321247101, 0.02607036754488945, -0.08033481985330582, 0.01455181185156107, 0.02254578098654747, -0.15437182784080505, 0.010629776865243912, -0.00047670200001448393, -0.017585409805178642, 0.047749921679496765, 0.10289186984300613, -0.010076102800667286, -0.05229199305176735, 0.011464838869869709, -0.025050126016139984, 0.05111759528517723, 0.01071818545460701, -0.06739943474531174], [0.002066120272502303, 0.0034434155095368624, 0.03189230337738991, -0.15908846259117126, -0.3115515112876892, 0.001523032784461975, -0.012958258390426636, 0.00231503089889884, -0.05544719099998474, 0.08646602183580399, 0.04612835869193077, -0.11672363430261612, 0.01248937752097845, 0.07261957973241806, -0.08260982483625412, -0.0006433136877603829, -0.03325425833463669, -0.019879760220646858, -0.06067189201712608, 0.11265503615140915, 0.13048040866851807, 0.16410419344902039, -0.018283642828464508, 0.07663271576166153, 0.1368553638458252, 0.0027600135654211044, -0.003745210124179721, 0.01344295684248209, -0.1492242068052292, 0.08175010234117508, -0.023917313665151596, -0.03156829625368118], [-0.0012657248880714178, -0.0015977140283212066, -0.05811173841357231, 0.07291984558105469, -0.4266219735145569, -0.0005007815198041499, -0.06229764223098755, -0.0012648053234443069, 0.17791588604450226, 0.09839382767677307, 0.041497454047203064, -0.0772099420428276, 0.15610279142856598, -0.021195659413933754, -0.021792663261294365, -0.09583575278520584, 0.0567261278629303, 0.041711460798978806, -0.16792315244674683, -0.15364764630794525, 0.12305602431297302, 0.01626727730035782, -0.09793104976415634, 0.13718444108963013, 0.19570603966712952, 0.08917563408613205, 0.11607420444488525, -0.00270513235591352, 0.01916317082941532, 0.01800725795328617, -0.03244343400001526, -0.0383596308529377], [0.0005303231300786138, 0.0001873111177701503, -0.09899786114692688, 0.13825097680091858, -0.20320552587509155, -0.0018097426509484649, -0.001909900107420981, 0.0028888580854982138, -0.28090670704841614, -0.03634679690003395, -0.08135196566581726, 0.06614427268505096, 0.00406898045912385, -0.29658663272857666, 0.130090594291687, 0.023436477407813072, -0.0518668070435524, -0.12479549646377563, -0.0015523124020546675, -0.18903450667858124, -0.010378168895840645, -0.27627140283584595, 0.08907284587621689, 0.026987729594111443, 0.03881700709462166, 0.07856661826372147, 0.16891250014305115, -0.16412660479545593, -0.026537779718637466, -0.05426163598895073, -0.1571391522884369, 0.019281812012195587], [-0.0002383897954132408, 0.0004130797169636935, -0.18555916845798492, 0.05859990790486336, 0.21735601127147675, -0.001720705651678145, 0.056358452886343, 0.005944923032075167, 0.10535746812820435, -0.27215611934661865, -0.048746660351753235, -0.041942745447158813, -0.19944950938224792, -0.08096236735582352, -0.33942747116088867, 0.027654172852635384, -0.002197359222918749, -0.11046861112117767, -0.01316728163510561, -0.3270878791809082, -0.0420709028840065, -0.2892369329929352, 0.01357180718332529, -0.033410798758268356, -0.06899063289165497, -0.3013148903846741, 0.27767807245254517, 0.16650716960430145, -0.10697344690561295, -0.04506471008062363, -0.1080477386713028, -0.01680273376405239], [2.9926119168521836e-05, -0.0008089873590506613, -0.06527266651391983, 0.16153912246227264, -0.2665235996246338, -0.0016622110269963741, -0.020227884873747826, 0.0007116977358236909, 0.12203200161457062, -0.05401691049337387, -0.09782156348228455, 0.09460023790597916, 0.16289234161376953, -0.014850758947432041, 0.16959266364574432, -0.02090277522802353, 0.0035354902502149343, -0.03720806911587715, -0.06744980812072754, -0.11307236552238464, -0.015874270349740982, -0.1246882900595665, -0.053867802023887634, -0.0327066108584404, 0.2957771420478821, -0.026130011305212975, 0.05192417651414871, 0.050004176795482635, 0.16021284461021423, -0.005206936504691839, -0.05970597639679909, -0.003106120740994811], [0.0006819300469942391, -0.0024325386621057987, 0.2564278542995453, -0.16169382631778717, -1.1592308282852173, -0.0018834262154996395, 0.3029380738735199, -0.0008892251644283533, 0.6131148934364319, 0.05184491351246834, 0.5073007941246033, -0.013969209976494312, 0.233611062169075, -0.05889751762151718, -0.23592253029346466, -0.1964782476425171, -0.02409227378666401, -0.005080298986285925, -0.04677329957485199, -1.1212542057037354, 0.1967131495475769, 0.48009195923805237, 0.44943368434906006, 0.1712673306465149, 0.5955221056938171, -0.1500941514968872, 0.3851417601108551, 0.863914966583252, 0.08687471598386765, 0.04898563399910927, 0.24880081415176392, -0.1294480860233307], [0.0006953476695343852, 4.1617051465436816e-05, -0.03024340234696865, -0.08124598115682602, -0.2291295975446701, -0.0019557527266442776, -0.002035703742876649, 0.0008162977756001055, 0.09850144386291504, 0.04743330925703049, -0.03708707541227341, 0.18691454827785492, -0.017217110842466354, -0.05141996592283249, -0.22995367646217346, -0.02751924842596054, -0.03647821769118309, -0.2603153884410858, 0.016049198806285858, -0.06212528422474861, 0.1446228325366974, 0.03769225627183914, -0.0872420072555542, -0.1361028552055359, 0.12234616279602051, 0.22107310593128204, -0.1626780480146408, -0.1765642613172531, 0.0328509546816349, -0.12330261617898941, 0.042673323303461075, 0.10484709590673447], [0.0002798195055220276, 0.0011828449787572026, 0.093488410115242, 0.16962210834026337, -0.16680149734020233, -0.0008978420519270003, -0.00032686168560758233, 0.0023996136151254177, 0.00283901859074831, 0.05410432815551758, -0.04908839985728264, -0.10458272695541382, 0.1879098117351532, 0.03650596737861633, 0.10961024463176727, -0.15707626938819885, 0.07731668651103973, 0.14559923112392426, -0.018237225711345673, -0.375471830368042, 0.12165010720491409, -0.08516138792037964, -0.012999863363802433, 0.19616077840328217, 0.4023607075214386, -0.09480838477611542, 0.3672980070114136, 0.007905188016593456, 0.185312420129776, -0.01584549993276596, -0.033157333731651306, 0.05056147649884224], [-0.0011612852104008198, -0.0012040685396641493, 0.11521177738904953, 0.004288380965590477, 0.21532697975635529, -0.002270754426717758, -0.10082650929689407, 0.005451888777315617, -0.10473179072141647, 0.17436052858829498, -0.0649459958076477, 0.029405958950519562, -0.24720244109630585, -0.2908465266227722, -0.5311124920845032, 0.06963764131069183, -0.06363328546285629, -0.06793760508298874, -0.14169453084468842, -0.39075759053230286, -0.14569444954395294, 0.13013997673988342, -0.01864076405763626, -0.1403428018093109, -0.2643449008464813, -0.07478230446577072, -0.022416461259126663, -0.08822710067033768, -0.021729735657572746, -0.17686578631401062, -0.008539148606359959, 0.10204454511404037], [-0.0006296305218711495, -0.0025620413944125175, 0.004638786427676678, 0.10966604948043823, -0.6644190549850464, 0.0032653743401169777, -0.039949193596839905, -0.012025958858430386, -0.14492785930633545, 0.17728036642074585, -0.24174602329730988, 0.005025897175073624, 0.47025981545448303, -0.08738343417644501, 0.1105450913310051, -0.11007779091596603, 0.026691215112805367, -0.017105570062994957, 0.12705589830875397, -0.5291712284088135, 0.021316474303603172, 0.22623693943023682, -0.28011757135391235, 0.1864621490240097, 0.6782853007316589, 0.39223092794418335, 0.2825293242931366, -0.01867346093058586, -0.16489368677139282, -0.09122176468372345, 0.10001293569803238, 0.0710623487830162], [0.0018655352760106325, 0.006366708315908909, 0.07281966507434845, 0.19028240442276, 0.3373502790927887, 0.000354376039467752, -0.15574756264686584, 0.011028192937374115, 0.452825665473938, 0.07548842579126358, -0.01478653959929943, -0.06467114388942719, -0.06553119421005249, 0.3746104836463928, -0.17304028570652008, 0.10380879789590836, 0.05976419523358345, -0.15661148726940155, 0.01377246156334877, -0.7126501202583313, -0.344748318195343, 0.452606737613678, 0.11411645263433456, 0.3245388865470886, 0.15110227465629578, -0.8183700442314148, -0.0728570967912674, 0.06951691955327988, 0.06737320870161057, -0.12668952345848083, 0.4418812692165375, -0.5591252446174622], [0.0001904997043311596, 0.002092815935611725, -0.06840620189905167, 0.2056187242269516, -1.0594772100448608, 0.0021372821647673845, 0.027369331568479538, -0.0018751159077510238, -0.08665109425783157, 0.04085177928209305, -0.1483161747455597, 0.0006744852289557457, 0.5056721568107605, -0.14410793781280518, 0.05473494529724121, -0.06339191645383835, 0.041034359484910965, -0.08243712782859802, -0.11730847507715225, -0.549893856048584, 0.18437032401561737, 0.058258913457393646, -0.07318791002035141, 0.17037948966026306, 0.8838902115821838, 0.05950931832194328, 0.22680990397930145, -0.0033210923429578543, 0.16194729506969452, -0.1696367859840393, -0.017346851527690887, 0.048484329134225845], [-0.0007489906274713576, -0.0016887971432879567, 0.4620454013347626, 0.05539809167385101, -0.07178919017314911, 8.992510993266478e-05, 0.048890747129917145, -0.00035682893940247595, 0.011944204568862915, 0.031235454604029655, 0.004944646265357733, 0.05569971352815628, 0.22140087187290192, -0.06726448237895966, 0.05039285868406296, 0.009522859007120132, -0.03701614588499069, 0.09778018295764923, -0.019578684121370316, -0.30679836869239807, -0.00497803557664156, 0.18797698616981506, 0.04995391145348549, 0.22160014510154724, 0.33616524934768677, -0.06893947720527649, 0.28262409567832947, 0.05113283172249794, -0.14370346069335938, -0.07307187467813492, 0.03556918352842331, -0.05651955306529999], [-0.00048005522694438696, -0.0003259332734160125, -0.07136896252632141, -0.032361049205064774, 0.032025959342718124, -0.0012635980965569615, -0.020361335948109627, 0.0004730108194053173, -0.2832678556442261, -0.021962018683552742, -0.043839383870363235, 0.04851233586668968, 0.06260154396295547, 0.04700427129864693, 0.2694576382637024, 0.04052526503801346, 0.008405894041061401, -0.0021156608127057552, 0.11282221227884293, -0.1488804966211319, 0.03904753923416138, 0.061150260269641876, 0.057719636708498, -0.08539056032896042, 0.08009845018386841, -0.1825733184814453, -0.14599449932575226, -0.08726136386394501, 0.08759256452322006, 0.023293107748031616, 0.04077008366584778, -0.03101481683552265], [-0.0006702041137032211, -0.0018024953315034509, -0.03607826679944992, 0.05565036088228226, -0.13319064676761627, -0.000862486194819212, 0.07397694140672684, -0.0029596383683383465, 0.10451328754425049, 0.08743085712194443, -0.06898703426122665, -0.16346174478530884, -0.06354696303606033, 0.1666104793548584, -0.27814987301826477, -0.09749700129032135, 0.007401854731142521, 0.11471685767173767, -0.07024189084768295, 0.008076812140643597, 0.12497135251760483, 0.05364372581243515, 0.11104410886764526, 0.16621385514736176, -0.14790713787078857, -0.031020790338516235, -0.011893965303897858, 0.3722608983516693, 0.06088711693882942, -0.0982663482427597, 0.010316974483430386, 0.4407339096069336], [-0.0002414280897937715, -0.0002345938846701756, 0.00024286854022648185, -0.0023142246063798666, 0.006933281663805246, 0.00012152818089816719, 0.0006569087272509933, 0.0001391836703987792, 0.0013563142856583, -0.0037976233288645744, 2.7158386728842743e-05, 0.006683216895908117, -0.00438969349488616, 0.0011135718086734414, -0.0019132744055241346, -0.0010775384726002812, 0.0006585277733393013, -0.00013358159048948437, 0.0011640795273706317, -0.00013491690333466977, 0.00131340348161757, -0.0033924703020602465, -0.0020787965040653944, 0.0014633300015702844, -0.0020522766280919313, 0.0007700750138610601, -0.003941879142075777, -0.001954219304025173, 0.0020578575786203146, -0.0028906569350510836, -0.0036679257173091173, -0.0010318307904526591], [-0.00014406931586563587, -0.0003636459296103567, 1.3871599549020175e-05, -0.00416374858468771, 0.023317255079746246, -9.60506295086816e-05, 0.002998875454068184, -0.00013110825966577977, 0.00028598459903150797, -0.0020018629729747772, -0.0023038701619952917, 0.009001222439110279, 0.00023599689302500337, 0.011064684018492699, -0.0029294458217918873, -0.001297845272347331, -0.0013592502800747752, -0.0015520729357376695, 0.0019116493640467525, -0.0008096849778667092, 0.008455176837742329, -0.0023755726870149374, -0.004619090352207422, -0.008332709781825542, 0.0001898198970593512, 0.0015493454411625862, -0.004563840106129646, -0.0010595128405839205, 0.0007348601939156651, -0.004121537320315838, -0.00763949379324913, -0.008381692692637444], [0.001443645916879177, 0.0020974993240088224, 0.4440876841545105, 0.5373623967170715, 0.05617260932922363, -0.0010215232614427805, 0.042137615382671356, 0.0029442624654620886, 0.0044844867661595345, -0.18128620088100433, 0.049718208611011505, -0.11145713925361633, 0.133865624666214, -0.0031064641661942005, -0.011476184241473675, 0.012503769248723984, 0.013592452742159367, -0.1956760138273239, -0.05045919120311737, -0.1005791649222374, -0.12579785287380219, -0.0396239198744297, 0.032420169562101364, -0.16274790465831757, 0.01654629223048687, -0.03309442847967148, 0.31505006551742554, -0.00756469601765275, -0.5253837704658508, -0.055950894951820374, 0.020046627148985863, -0.008739759214222431], [0.0007307264022529125, -0.0002535319945309311, -0.46094462275505066, 0.5019276142120361, 0.09551843255758286, 8.197653187380638e-06, -0.011071535758674145, -0.00595892732962966, -0.06048480421304703, 0.18422748148441315, 0.09133459627628326, 0.06852475553750992, 0.04624997451901436, 0.1315678507089615, 0.0522448867559433, -0.04241732135415077, 0.00847588013857603, -0.020086059346795082, 0.13330845534801483, -0.01791262999176979, -0.002210179576650262, -0.038646452128887177, -0.07667061686515808, -0.0077812704257667065, -0.30562159419059753, -0.15669597685337067, -0.490998774766922, 0.11951694637537003, -0.02251165732741356, 0.006271539255976677, 0.11405955255031586, -0.03282609581947327], [0.00042761824443005025, 0.0026847452390938997, 0.5388290286064148, 0.4234032928943634, 0.3779924511909485, 0.0019963239319622517, -0.0955292284488678, 0.004450224805623293, -0.13123652338981628, -0.1963714212179184, -0.01988932117819786, 0.07521429657936096, -0.0718345120549202, -0.06794652342796326, -0.11800875514745712, -0.07805122435092926, 0.11784692108631134, -0.2997165024280548, 0.03758252412080765, -0.4131740629673004, -0.261863648891449, 0.02314770221710205, -0.019249126315116882, -0.1626269668340683, -0.19661539793014526, -0.2750450372695923, -0.09744057059288025, -0.1918475180864334, 0.6500054001808167, 0.0269080251455307, -0.09017656743526459, 0.06723423302173615], [5.081206472823396e-05, 9.418400441063568e-05, -0.0022027017548680305, 0.000611606054008007, -0.00047269422793760896, -0.0002884633431676775, -0.0007638729875907302, 0.0001606471778359264, -0.003289235522970557, -0.0018509511137381196, 0.00099334423430264, 0.00119596510194242, 0.0008090976043604314, 0.0058685410767793655, 0.0013836428988724947, 0.0020207238849252462, 0.0035778472665697336, -0.001326848636381328, 0.0027915940154343843, 0.0024841290432959795, -0.0007132628816179931, 0.0029841905925422907, 0.0023892479948699474, 0.0010551100131124258, 0.0031201245728880167, 0.001191750168800354, 0.0018456662073731422, 0.0009764490532688797, -0.0006417582626454532, 0.0013879595790058374, 0.004720004741102457, -0.0012476324336603284], [-4.9461967137176543e-05, -0.00301539059728384, -0.18051192164421082, -0.19572898745536804, -0.13935530185699463, 2.9650196665897965e-05, 0.2222108691930771, -0.004697812255471945, -0.11590031534433365, 0.035630978643894196, 0.02399352937936783, -0.013300655409693718, -0.029283085837960243, -0.11233879625797272, 0.11174885928630829, -0.10173875093460083, 0.008697831071913242, 0.1402685046195984, -0.05819465592503548, -0.03444173187017441, -0.06951891630887985, -0.11461678892374039, 0.35199645161628723, 0.13125067949295044, 0.05574759095907211, -0.07232455164194107, 0.10136900842189789, 0.31939318776130676, -0.031117388978600502, -0.11635283380746841, 0.06937488168478012, -0.19379110634326935], [-3.160497271892382e-06, -0.0002644974156282842, 0.011749268509447575, -0.0022462736815214157, 0.04663543775677681, -0.00021633566939271986, 0.013028813526034355, -0.00022164317488204688, 0.009815084747970104, 0.0034758334513753653, -0.010729429312050343, 0.011063314974308014, 0.0070516252890229225, 0.003929326310753822, -0.011731543578207493, -1.4078267668082844e-05, -0.014114970341324806, 0.004113638307899237, -0.0061155566945672035, -0.0017134136287495494, 0.02205323800444603, -0.0026058717630803585, -0.013866047374904156, -0.03806566074490547, 0.004147340077906847, -0.0018472473602741957, -0.006717532407492399, -0.0032017878256738186, -0.0032765804789960384, 0.002536623040214181, -0.01961946114897728, -0.02296292409300804], [0.004462947137653828, 0.0018981908215209842, -0.20292320847511292, 0.1249064952135086, -0.19671781361103058, 0.0016723312437534332, 0.12128887325525284, -0.01822405308485031, -0.14560545980930328, -0.09069129824638367, 0.052038151770830154, -0.15836741030216217, -0.10578307509422302, 0.025578709319233894, 0.1350127011537552, -0.13260644674301147, -0.008584754541516304, 0.5254074335098267, -0.11264021694660187, 0.36847996711730957, 0.05416842922568321, -0.05544249340891838, -0.40701350569725037, 0.30504825711250305, 0.1367437094449997, 0.08803484588861465, 0.10453110933303833, 0.7131304740905762, 0.1599273830652237, -0.16313093900680542, -0.09883373230695724, -0.4140663743019104], [0.0019731128122657537, 0.0020012485329061747, 0.15213587880134583, -0.054740775376558304, 0.13859575986862183, -0.0003104414790868759, -0.040474701672792435, 0.007507213857024908, 0.06961991637945175, -0.027296291664242744, -0.09911518543958664, 0.0030361744575202465, 0.04820869490504265, 0.03610249236226082, -0.273497998714447, 0.11357032507658005, -0.015509999357163906, 0.3512595295906067, -0.24111954867839813, 0.4204337000846863, -0.12979085743427277, 0.09087740629911423, 0.06787735968828201, 0.5200857520103455, -0.37749823927879333, 0.12231756001710892, -0.6398954391479492, -0.25182607769966125, -0.09347148984670639, -0.10124776512384415, 0.011712085455656052, 0.10570841282606125], [0.004698936361819506, 0.009081791155040264, 0.01916545256972313, -0.28260549902915955, -0.04842749238014221, 2.1800091417389922e-05, -0.08161750435829163, 0.0071367840282619, -0.11815427243709564, 0.14995701611042023, 0.22479799389839172, -0.11215376108884811, -0.030687419697642326, 0.18186484277248383, -0.25893914699554443, 0.06601326167583466, -0.008869529701769352, -0.02697802148759365, -0.08424268662929535, -0.09867798537015915, 0.024809440597891808, -0.13331545889377594, 0.6838668584823608, -0.027432335540652275, -0.0592094287276268, 0.11937178671360016, 0.23488779366016388, -0.41464710235595703, 0.07597782462835312, 0.02997705154120922, 0.08184497803449631, -0.23145070672035217], [-0.0004314633260946721, 0.0017440649680793285, 0.2563328444957733, -0.0661950409412384, -0.4087287187576294, -0.0021583002526313066, 0.089430071413517, 0.008117977529764175, 0.01164393313229084, 0.0653340220451355, 0.03737013414502144, 0.4808533489704132, -0.015507319942116737, -0.015814557671546936, 0.006983147002756596, 0.044108036905527115, -0.009309851564466953, -0.22566257417201996, -0.8831831812858582, -0.14053653180599213, -0.16101297736167908, -0.07177240401506424, -0.0356861837208271, -0.24953188002109528, 0.2544189393520355, -0.038814790546894073, -0.23796331882476807, -0.041974540799856186, 0.06339231133460999, 0.006137467455118895, -0.06281734257936478, -0.03901246562600136], [-0.0041421460919082165, -0.0019372458336874843, 0.320384681224823, -0.05196734145283699, -0.04690643027424812, 0.002875720150768757, 0.08875203877687454, 0.006010476034134626, 0.05262674763798714, 0.024960434064269066, -0.05185529962182045, 0.17004667222499847, 0.2050410658121109, -0.004286156035959721, 0.17740631103515625, -0.05114421620965004, 0.025570956990122795, 0.07957607507705688, 0.020806342363357544, 0.10788070410490036, -0.007045320700854063, -0.0298165213316679, 0.0667070522904396, -0.08900397270917892, 0.27360814809799194, 0.18122167885303497, 0.053953543305397034, -0.010385862551629543, 0.684699535369873, 0.03585358336567879, 0.08395766466856003, -0.045861467719078064], [-0.003477094229310751, -0.007525840774178505, 0.06358002126216888, -0.09678036719560623, -0.035878702998161316, -0.006904022302478552, 0.16175320744514465, 0.003926543984562159, 0.19619515538215637, 0.10968989133834839, -0.13865230977535248, 0.1823071837425232, -0.1350078135728836, 0.763541042804718, -0.9615949392318726, -0.02343817614018917, -0.17061904072761536, -0.011484124697744846, 0.32486721873283386, 0.07177615165710449, -0.13941974937915802, 0.1020316481590271, 0.09917999804019928, -0.2139478176832199, 0.04947756603360176, 0.46454301476478577, -0.03280090540647507, 0.9065743088722229, -0.10530480742454529, 0.1546477973461151, 0.16621488332748413, -0.06353176385164261], [0.005283514503389597, 0.0036908274050801992, -0.028393954038619995, 0.1632741540670395, 0.15435512363910675, -0.001806741813197732, -0.2653471529483795, 0.012459107674658298, 0.07348094135522842, 0.1844937801361084, -0.08179391175508499, 0.11498115956783295, 0.054586704820394516, 0.18253737688064575, 0.05499226227402687, 0.020431961864233017, 0.10897308588027954, -0.506582498550415, 0.012562648393213749, 0.025755809620022774, -0.06782162189483643, 0.0167495459318161, -0.16784802079200745, 0.37709102034568787, -0.037846460938453674, 0.2512032985687256, -0.03664742410182953, -2.3194305896759033, -0.08700110018253326, 0.08125424385070801, -0.16483880579471588, 0.12317916005849838], [-0.00010060214117402211, -0.0003277019422966987, -0.009296519681811333, 0.007873733527958393, 0.22086617350578308, -0.00048428645823150873, 0.03252659738063812, 0.0002961892751045525, -0.0021960639860481024, 0.0027125112246721983, -0.09493128955364227, 0.028058461844921112, -0.010912866331636906, -0.1400148868560791, -0.048682864755392075, 0.024289697408676147, -0.07169407606124878, 0.02669101022183895, -0.03670346736907959, -0.20131345093250275, 0.0838928148150444, 0.08837227523326874, -0.09786156564950943, -0.273361474275589, 0.1684696227312088, -0.009273138828575611, 0.10879155993461609, -0.0752931609749794, -0.020486954599618912, 0.0034765370655804873, -0.08637792617082596, -0.13221848011016846], [-0.0016830576350912452, 0.0012818570248782635, 0.06576798856258392, 0.04843183979392052, 0.016903232783079147, 0.0009897334966808558, -0.06443597376346588, 0.0028107997495681047, 0.08283960074186325, 0.03493049368262291, 0.0919765904545784, -0.022651083767414093, 0.09153254330158234, 0.2565095126628876, -0.02774386666715145, -0.054335080087184906, 0.16661754250526428, -0.008107711561024189, -0.033247847110033035, 0.09571638703346252, 0.056865181773900986, 0.06722817569971085, 0.04013122245669365, -0.12037830799818039, 0.1128198429942131, 0.001313073793426156, 0.046991199254989624, -0.10389874875545502, 0.026368489488959312, 0.0733952671289444, 0.07502106577157974, 0.01644180342555046], [0.00039290860877372324, 0.000955646566580981, 0.475225031375885, -0.18055905401706696, 0.6554022431373596, -0.0032782386988401413, 0.07590705156326294, 0.00965037290006876, -0.11769190430641174, 0.12577059864997864, 0.1060582846403122, 0.2460581511259079, -0.0793796181678772, 0.05950987711548805, 0.225185826420784, 0.02814781665802002, -0.12723208963871002, -0.055560242384672165, -0.06358632445335388, -0.21131466329097748, 0.24098826944828033, 0.037022560834884644, 0.33000805974006653, -0.666576623916626, -0.48649168014526367, 0.05923239141702652, -0.19233816862106323, 0.08195788413286209, 0.043256159871816635, 0.2598603665828705, -0.31295841932296753, -0.17323891818523407], [-0.00022683676797896624, 0.00033424768480472267, -0.18346327543258667, -0.12749458849430084, -0.20966818928718567, 0.0004659971164073795, -0.02335139364004135, 0.0014582598814740777, 0.034032631665468216, -0.20897042751312256, 0.10588455200195312, 0.989689290523529, -0.13656963407993317, 0.04374448582530022, -0.1139599084854126, 0.08183149248361588, -0.018300050869584084, 0.2493721842765808, 0.5320996046066284, 0.16306805610656738, 0.06767988204956055, -0.0450688861310482, -0.08270493894815445, 0.034132301807403564, 0.20039252936840057, 0.01396679226309061, 0.1473788022994995, -0.09684519469738007, -0.07419856637716293, -0.028358960524201393, 0.16473892331123352, 0.03148568794131279], [0.0014221640303730965, 0.007269260473549366, 0.15164344012737274, -0.038238245993852615, 0.5744767785072327, -0.0010374058037996292, -0.19160501658916473, 0.014552564360201359, -0.2246808260679245, -0.4929915964603424, 0.10616643726825714, 0.06030724197626114, -0.09493216872215271, -0.09834803640842438, 0.6251835227012634, 0.20372682809829712, -0.14554475247859955, 0.36809611320495605, -0.3148370087146759, -0.302860826253891, 0.25361368060112, 0.19304627180099487, -0.14380532503128052, -0.06408335268497467, 0.10616279393434525, -0.8056038618087769, -0.08829321712255478, -0.3437289297580719, -0.11860868334770203, 0.07217635214328766, -0.44986259937286377, -0.10967698693275452], [-0.0017706281505525112, -0.003930956590920687, 0.2232513576745987, -0.10084496438503265, 0.15335404872894287, -0.0015187390381470323, -0.018100811168551445, 0.0009700361406430602, 0.18664364516735077, -0.08844410628080368, 0.12701921164989471, -0.0024269097484648228, 0.0896599069237709, 0.11343679577112198, 0.14073871076107025, -0.0017512153135612607, 0.06010900437831879, 0.15758149325847626, -0.18298359215259552, 0.09887196123600006, 0.6386831402778625, -0.28220289945602417, -0.04118707776069641, -0.16655085980892181, -0.09754292666912079, -1.7372010946273804, -0.1107981875538826, -0.1280737817287445, -0.22434991598129272, 0.32067322731018066, -0.12790602445602417, -0.10888993740081787], [0.0020642823074012995, -0.002349751302972436, -0.017956703901290894, 0.07445359975099564, 0.34973642230033875, -0.00022964873642195016, 0.11492263525724411, -0.009790228679776192, 0.12893077731132507, -0.1045888289809227, 0.07638821005821228, 0.08085847645998001, 0.037302836775779724, 0.2845791280269623, -0.1249554455280304, -0.03697456046938896, 0.09754166752099991, -0.1502429097890854, 0.016986656934022903, -0.33029794692993164, -0.35184356570243835, 0.24035339057445526, 0.012294911779463291, 0.3066684305667877, -0.04307980090379715, -0.31616756319999695, -0.29875510931015015, 0.47598960995674133, 0.01927858032286167, -0.16952170431613922, 0.1403215229511261, -0.14249372482299805], [0.0006876401603221893, -0.0009397119283676147, -0.05589986965060234, 0.11072276532649994, 0.24172163009643555, -0.00045236985897645354, -0.037742409855127335, 0.0016912948340177536, -0.15297579765319824, 0.06372694671154022, -0.2174779772758484, 0.06079406663775444, -0.0021423345897346735, -0.5284507870674133, 0.5926825404167175, -0.08905471116304398, 0.0029961380641907454, -0.2485661655664444, 0.08722084015607834, 0.037690095603466034, 0.11056125164031982, -0.16129907965660095, -0.018285071477293968, -0.13023653626441956, -0.07374918460845947, -0.2419377714395523, -0.2119044065475464, -0.8700780272483826, -0.011170955374836922, -0.03244151547551155, -0.06200959533452988, -0.14421367645263672], [0.0012713733594864607, 0.011823073029518127, 0.3907419443130493, 0.0833376944065094, 0.48756611347198486, -0.007722589187324047, -0.1873464584350586, 0.04538162797689438, 0.05689728632569313, -0.45254722237586975, 0.06192782148718834, -0.0255897156894207, 0.0006569823017343879, 0.1616039127111435, -0.24213150143623352, 0.2402149885892868, 0.010078800842165947, 0.8888152241706848, -0.1981714963912964, -0.14980298280715942, 0.6297472715377808, -0.14402450621128082, -0.005398447159677744, -0.08980315178632736, -0.2191879153251648, -0.11562788486480713, -0.18275678157806396, -0.32944536209106445, -0.006772136781364679, 0.05547076091170311, 0.1855757087469101, -0.12276948988437653], [0.0008265280048362911, -0.004679317586123943, -0.10354988276958466, 0.27047285437583923, -0.06686802953481674, -0.00144676654599607, 0.10840233415365219, -0.010917742736637592, -0.0072547863237559795, -0.11271289736032486, 0.02921428717672825, 0.4002867043018341, 0.27489060163497925, 0.26843345165252686, 0.08813995122909546, -0.05549438297748566, 0.007724955677986145, -0.29088473320007324, 0.3681701421737671, -0.15385906398296356, 0.010873967781662941, -0.011925224214792252, -0.19490279257297516, -0.04701985791325569, 0.46112900972366333, 0.08861908316612244, 0.25311389565467834, 0.02128445915877819, 0.2208331972360611, -0.0058320024982094765, 0.0781923234462738, -0.06203388422727585], [-0.0034065295476466417, -0.0031086266972124577, 0.16911551356315613, -0.019300829619169235, -0.3031088411808014, -0.003526397282257676, 0.21295438706874847, 0.007376454770565033, 0.2596340477466583, 0.05716082826256752, -0.0870383083820343, 0.09821717441082001, -0.13203108310699463, -0.4358114004135132, -2.4892311096191406, 0.031250566244125366, -0.19644513726234436, 0.21827556192874908, 0.1567782312631607, -0.18936438858509064, -0.04403407871723175, 0.09855767339468002, 0.3337416350841522, -0.25037646293640137, -0.18692943453788757, 1.5716632604599, 0.07063867896795273, 2.1223580837249756, 0.13813315331935883, 0.34482985734939575, 0.1986691802740097, 0.5066658854484558], [-0.0005991492653265595, 0.001123296795412898, -0.032786112278699875, 0.8054317235946655, 0.25196948647499084, 0.0015682753873988986, -0.10791794955730438, 0.0014078749809414148, 0.019553322345018387, 0.23787447810173035, 0.0091393506154418, 0.10657970607280731, 0.17607545852661133, -0.21676968038082123, -0.051037851721048355, 0.06788631528615952, -0.020181728526949883, 0.24493803083896637, -0.11398562788963318, 0.011334751732647419, -0.33714935183525085, 0.1439969837665558, 0.04243461787700653, 0.01280615571886301, 0.25282448530197144, 0.21688954532146454, 0.3521732687950134, -0.058360982686281204, 0.15357919037342072, 0.06521980464458466, -0.13032929599285126, 0.051942888647317886], [0.0008925283327698708, 0.00033587709185667336, -0.016787579283118248, -0.14992040395736694, -0.044669486582279205, -0.0004813061677850783, -0.01360422745347023, -0.0009077431168407202, -0.09748485684394836, -0.020465033128857613, 0.7586226463317871, -0.03158709034323692, -0.016151288524270058, -0.0107007697224617, 0.03366191312670708, -0.020954733714461327, 0.011306160129606724, 0.07549062371253967, -0.0071360464207828045, 0.04719366505742073, -0.015207469463348389, -0.022785786539316177, 1.8435184955596924, 0.06968795508146286, -0.040106166154146194, -0.01950017176568508, 0.028886644169688225, 0.4243975281715393, 0.027692144736647606, -0.03658738732337952, -0.03970678523182869, -0.07426846772432327], [7.567377906525508e-05, -0.0021837784443050623, 0.3030303418636322, -0.10868839919567108, 0.010316113010048866, 0.002771631581708789, -0.13880325853824615, -0.017521388828754425, 0.0302113089710474, 0.3542870879173279, 0.03707698732614517, 0.0029882711824029684, 0.2881418466567993, 0.07373389601707458, -0.01839960366487503, -0.053072307258844376, 0.020319851115345955, 0.24495072662830353, 0.10315239429473877, 0.1785803586244583, 0.2670590281486511, 0.07542795687913895, 0.13776910305023193, 0.3851607143878937, 0.0754256621003151, -0.03505263105034828, -0.2749491035938263, 0.15219852328300476, 0.30165383219718933, -0.2258691042661667, 0.2706781327724457, 0.04893266037106514], [-0.00023716599389445037, -0.0024574934504926205, -0.6314801573753357, -0.11638660728931427, 0.11854444444179535, 0.0008190559456124902, 0.0175044946372509, -0.008329466916620731, -0.030021395534276962, 0.3039461374282837, 0.07300585508346558, 0.04204639047384262, -0.06804841756820679, -0.057125307619571686, 0.17239166796207428, -0.13117407262325287, -0.034031711518764496, 0.11715850234031677, 0.22978812456130981, -0.07323907315731049, -0.06421694904565811, 0.16366440057754517, 0.05927634611725807, -0.19027332961559296, -0.2118222415447235, -0.09015334397554398, -0.5092445015907288, 0.1520100235939026, 0.2206549495458603, 0.6036794781684875, 0.002883295062929392, -0.07494740933179855], [0.004614468663930893, 0.004069753922522068, 0.1981871873140335, -0.14552699029445648, -0.2936403751373291, -0.002390215639024973, 0.1163850724697113, 0.002930514281615615, -0.13683739304542542, 0.10518156737089157, -0.05629298835992813, -0.05279790237545967, 0.019647447392344475, 0.12295477092266083, -0.02913224883377552, 0.007040486205369234, -0.030349550768733025, 0.1539209634065628, 0.012742949649691582, 0.367360919713974, 0.024901967495679855, 0.18046489357948303, 0.18196958303451538, 0.10440104454755783, 0.09244083613157272, 0.26126208901405334, -0.28357431292533875, 0.47436028718948364, 0.07836882025003433, -0.12116633355617523, 0.11434213817119598, 0.05665569379925728], [0.0007671208004467189, 0.00342969736084342, 0.0075523448176681995, -0.01361718587577343, 0.06391377747058868, -0.001140991342253983, 0.22009189426898956, 0.008619085885584354, -0.26341745257377625, -0.23582357168197632, -0.02614246867597103, -0.06653007864952087, -0.2911764979362488, 0.11593619734048843, -0.16323970258235931, 0.05093120038509369, 0.06755401939153671, 0.6579102873802185, -0.11511164903640747, -0.020278265699744225, 0.003581209806725383, 0.3813682198524475, 0.2729167342185974, 0.28690922260284424, 0.09293132275342941, -0.24470308423042297, 0.2249247133731842, 1.0575460195541382, 0.08390149474143982, -0.0892602950334549, 0.20317476987838745, 0.18166279792785645], [-2.8385483119564014e-07, -1.8098523568710334e-08, 4.493838787311688e-05, -1.557999712531455e-05, 0.00020654858963098377, -7.9504303585054e-07, -3.749117240658961e-05, 3.5531165849533863e-06, -1.8322913092561066e-05, 3.6974004160583718e-06, 6.849826604593545e-05, -2.5293262297054753e-05, -0.00013316309195943177, 0.0001779691083356738, 0.0001001960554276593, -1.073653493222082e-05, -8.979134690889623e-06, 4.471821375773288e-05, -9.740161476656795e-05, 0.0001650746416999027, -4.372112744022161e-05, -1.032822001434397e-05, 1.984128903131932e-05, -6.425405445042998e-05, -0.00017067942826543003, -3.479224324109964e-05, 5.987130498397164e-05, -9.557593148201704e-05, 5.723689173464663e-05, -5.6025190133368596e-05, -3.302031836938113e-05, 1.2742624676320702e-05], [9.590808076609392e-07, -2.5757592538866447e-06, 5.608715582638979e-05, -3.24813554470893e-05, 0.0003389204211998731, -3.2438802008982748e-06, -0.00010295741958543658, 4.9537516133568715e-06, -8.331476419698447e-05, 2.4954193577286787e-05, 0.0002326218382222578, -0.0001673545193625614, -0.00025618253857828677, 0.00036988931242376566, 0.0005129919736646116, -3.321656322441413e-06, -1.025922301778337e-05, 0.00021893036318942904, -0.00015359307872131467, 0.0003176976169925183, -2.6673380489228293e-05, -5.9628586313920096e-05, 0.00017240835586562753, -8.414761396124959e-06, -0.00031283946009352803, -0.00020903057884424925, 0.00012108277587685734, -0.00030749148572795093, 0.00018025728059001267, -8.034508937271312e-05, 4.0428323700325564e-05, -0.000108241947600618], [0.0006906068883836269, 0.0018438425613567233, -0.30177611112594604, 0.006583672482520342, -0.14851318299770355, 0.00026973296189680696, 0.031093016266822815, 0.00172681815456599, -0.047162070870399475, 0.05773303657770157, -0.07281039655208588, 0.03424333408474922, 0.19067898392677307, -0.1178344264626503, 0.1140797957777977, -0.0381736233830452, 0.0015690700383856893, 0.07091180235147476, 0.07445589452981949, -0.22287839651107788, 0.07521560043096542, -0.09980501234531403, -0.07018348574638367, -0.20188866555690765, 0.07560056447982788, -0.06094622611999512, -0.07650195807218552, 0.07247738540172577, 0.05632789805531502, -0.35972368717193604, -0.07347632944583893, 0.0326254703104496], [-1.4946674127713777e-05, 0.0002454577188473195, -0.1774664670228958, 0.01638711430132389, -0.14834697544574738, 0.0001780544698704034, -0.05243835225701332, 0.0033491409849375486, -0.033793844282627106, -0.049834784120321274, -0.06716787815093994, 0.13264109194278717, 0.09809095412492752, 0.04285064712166786, -0.12065375596284866, -0.03851992264389992, 0.010577608831226826, -0.06319206953048706, -0.012162912636995316, -0.048736073076725006, 0.1688082069158554, 0.2716682255268097, -0.2776786983013153, 0.08745867758989334, 0.2327747941017151, -0.17710673809051514, 0.13433077931404114, 0.0964951142668724, 0.12205655127763748, 0.1056128442287445, -0.059456925839185715, -0.009679054841399193], [0.0004386022046674043, -7.715733954682946e-05, -0.2121453434228897, -0.10347837954759598, -0.7229490876197815, -8.290014375234023e-05, 0.03805242478847504, -0.004159704782068729, -0.12423954904079437, 0.14378991723060608, -0.023247333243489265, -0.051410067826509476, 0.3908083438873291, -0.1677633821964264, 0.013300720602273941, -0.05145788937807083, -0.008065430447459221, 0.06597043573856354, 0.027874929830431938, 0.17758972942829132, 0.2526991665363312, -0.009118241257965565, 0.003511307295411825, 0.23172222077846527, 0.4514286518096924, 0.19810132682323456, 0.037516675889492035, 0.18266813457012177, -0.09525781124830246, 0.08356921374797821, 0.041718073189258575, 0.09336689859628677], [-1.0771691449917853e-06, -2.317439566468238e-06, 2.5620078304200433e-05, 2.762017902568914e-05, 0.0002251556870760396, -4.242197064741049e-07, -4.228709440212697e-05, -4.2788818177541543e-07, -1.8642951545189135e-05, -1.3395138921623584e-05, 5.6331100495299324e-05, -5.258324381429702e-05, -0.00012202313519082963, 6.64247854729183e-05, -0.0002091248898068443, -4.947090474161087e-06, 3.814203864749288e-06, -0.00010741358710220084, -8.195721602533013e-05, 0.00014493738126475364, 0.00017626353655941784, 2.472777669026982e-05, 5.191916352487169e-05, 0.00010215645306743681, -0.000140648553497158, -0.00014198568533174694, 2.4706270778551698e-05, 5.0074919272447005e-05, 6.372406460286584e-06, -2.8657083021244034e-05, -7.846011430956423e-05, 9.956433495972306e-05], [0.0010931662982329726, 0.0008803681121207774, -0.009696983732283115, -0.009556183591485023, -0.09644875675439835, 0.00046567863319069147, -0.04285231605172157, -0.0017943409038707614, -0.19600482285022736, 0.01764673739671707, -0.06566938757896423, 0.010722314938902855, 0.09225796908140182, -0.04390667378902435, 0.023791320621967316, -0.03819919377565384, 0.0040955813601613045, -0.027099790051579475, 0.03322843834757805, 0.012956066988408566, -0.022310523316264153, -0.13686788082122803, -0.015388116240501404, -0.012443199753761292, 0.05334559455513954, 0.02483208477497101, -0.0027168116066604853, -0.0532485768198967, -0.01367742009460926, -0.027827506884932518, -0.0340011827647686, 0.07511314004659653], [1.939103276527021e-05, 9.863661034614779e-06, -0.00036290637217462063, 6.225802644621581e-05, -0.000903193315025419, 1.4606380318582524e-05, 5.32429403392598e-05, -7.50465042074211e-05, -0.0002202715550083667, 0.0002696025185286999, -0.0003398470289539546, -8.898500527720898e-05, 0.0005161967128515244, -0.0007092701853252947, 0.0008091930067166686, -0.00012336712097749114, -9.691936429589987e-05, 0.0005182381137274206, 0.0001783388142939657, -0.0007294958923012018, 2.4374379790970124e-05, 0.00037783276638947427, 2.0157052858849056e-05, 5.96353602304589e-05, 0.0005629772786051035, -0.000714970170520246, -0.00031050588586367667, -0.00017545209266245365, -0.0002547315089032054, 0.0004911422729492188, 0.0005063123535364866, -0.0004929298884235322], [0.00046888302313163877, -0.0004106248961761594, -0.055016420781612396, 0.05806813761591911, -0.16251929104328156, -0.0016093120211735368, -0.03925177827477455, -0.001175092300400138, -0.24655450880527496, 0.10496976971626282, -0.020013166591525078, 0.10948546975851059, 0.1780700832605362, -0.16897831857204437, 0.45618999004364014, -0.02965380623936653, -0.04503525793552399, 0.052447326481342316, -0.09772216528654099, 0.0730697363615036, 0.082424595952034, -0.31990593671798706, 0.03836626559495926, 0.06423524767160416, 0.09941506385803223, -0.049188289791345596, -0.0534256249666214, -0.41441598534584045, -0.0022217589430510998, 0.04756130278110504, -0.13330106437206268, -0.0852421373128891], [6.275423220358789e-05, -0.0006663206149823964, -0.10567532479763031, 0.018752746284008026, -0.15400050580501556, -0.00031522425706498325, 0.021561233326792717, 0.0034059409517794847, 0.02255481854081154, -0.016412818804383278, -0.06259571015834808, -0.024143686518073082, 0.12706761062145233, -0.056170348078012466, -0.20398686826229095, -0.009100206196308136, -0.04356125742197037, -0.01762925460934639, 0.06947537511587143, 0.1770554631948471, 0.10967513173818588, 0.016218358650803566, -0.03438292816281319, -0.06787367910146713, 0.2127888947725296, 0.07671743631362915, -0.07236111164093018, 0.26185402274131775, 0.004207789432257414, 0.04876260831952095, -0.04238839074969292, 0.03573457524180412], [0.0038390837144106627, 0.003122713416814804, -0.15992562472820282, 0.0542823001742363, -0.13740193843841553, 2.4429004042758606e-05, -0.03025214932858944, -0.005727571435272694, 0.13090547919273376, 0.037181250751018524, -0.2740739583969116, -0.057499274611473083, -0.0004344603803474456, 0.01636635884642601, -0.04218669980764389, -0.04878142103552818, -0.09934252500534058, 0.0027493091765791178, 0.009539427235722542, -0.07727476209402084, 0.040895070880651474, -0.1486099660396576, -0.4314846396446228, 0.12483716756105423, -0.1369280070066452, -0.011624002829194069, 0.07445849478244781, 0.1474582552909851, -0.02139945514500141, 0.0967036634683609, 0.0698399543762207, -0.152845099568367], [-0.0004766082565765828, 0.0019152334425598383, -0.024128790944814682, 0.026128677651286125, -0.10955154895782471, 0.0012676242040470243, -0.025764180347323418, 0.004208201076835394, -0.015077992342412472, 0.0880565494298935, 0.022407516837120056, -0.19538527727127075, 0.058566175401210785, 0.04924335703253746, 0.003941170871257782, -0.027664432302117348, 0.04912157356739044, 0.15950430929660797, -0.13587185740470886, -0.10528755933046341, 0.09250319749116898, 0.006269862875342369, -0.02845732308924198, 0.11730543524026871, 0.05815447121858597, 0.01688307709991932, -0.032380808144807816, 0.055037643760442734, -0.029135096818208694, 0.040254250168800354, -3.535709038260393e-05, 0.08225008100271225], [-3.0273216907517053e-05, -0.0012414880329743028, 0.06861559301614761, 0.16717512905597687, -0.1540435552597046, 0.001033521955832839, -0.04829759523272514, -0.009460157714784145, -0.15087099373340607, 0.28594034910202026, -0.06587649136781693, -0.08193598687648773, 0.08679680526256561, 0.07560539990663528, 0.008176692761480808, -0.06862761080265045, 0.03269275650382042, 0.05136827006936073, -0.014419852755963802, 0.32062482833862305, 0.12456366419792175, -0.04137606546282768, -0.025299658998847008, 0.15450328588485718, -0.19537900388240814, -0.07874327152967453, -0.13227197527885437, -0.22852426767349243, -0.15264207124710083, 0.16388395428657532, 0.0792897492647171, 0.22808285057544708], [0.000978155992925167, -0.006156338378787041, -0.0625213012099266, -0.023793073371052742, -0.030625134706497192, -0.007658091373741627, 0.174051433801651, -0.0025282190181314945, -0.14907492697238922, 0.14759618043899536, 0.006443789694458246, 0.06171458587050438, 0.03593432903289795, -0.3540312647819519, 0.05294479429721832, 0.1011737659573555, -0.3206712007522583, 0.06671010702848434, -0.15584856271743774, -0.46963053941726685, 0.07892642170190811, 0.08150926977396011, -0.019398896023631096, 0.2296077311038971, 0.09841415286064148, -0.29187628626823425, 0.004883389454334974, -0.09283185750246048, 0.021589087322354317, 0.12515559792518616, -0.10030721873044968, 0.03994152322411537], [8.149765199050307e-05, 0.0013767548371106386, -0.07457808405160904, -0.0011383434757590294, -0.32141318917274475, 0.0016833541449159384, -0.00440991809591651, -0.0036135916598141193, -0.08496413379907608, -0.1547866314649582, -0.12636665999889374, -6.978771853027865e-05, 0.17274720966815948, 0.22637704014778137, 0.2573500871658325, -0.029647046700119972, 0.0784955769777298, -0.030046936124563217, -0.06445368379354477, -0.7179380655288696, 0.1140420213341713, 0.2705678939819336, -0.08976156264543533, 0.24244505167007446, 0.5157460570335388, -0.33186277747154236, -0.03728865832090378, 0.05972062796354294, 0.12421901524066925, 0.01901504583656788, 0.027434108778834343, 0.12377667427062988], [2.2810006612417055e-06, -0.0006182428915053606, -0.018575318157672882, -0.009109578095376492, -0.09342091530561447, -0.0010810673702508211, 0.010216288268566132, -0.0008563321898691356, 0.011323085986077785, 0.039929527789354324, -0.013334360904991627, 0.0012422400759533048, 0.058982472866773605, -0.05089842528104782, 0.01229359395802021, -0.02595207840204239, -0.0031225928105413914, 0.02824670821428299, -0.02260546199977398, -0.03461841121315956, 0.0180098544806242, -0.013650420121848583, -0.002406728221103549, 0.016957011073827744, 0.03775419667363167, 0.029346570372581482, -0.032099928706884384, 0.004351095762103796, 0.0036946542095392942, 0.02497384324669838, 0.015657605603337288, -0.007916202768683434], [0.00043090316466987133, -0.0007798309670761228, -0.0424295999109745, 0.025277193635702133, -0.11103862524032593, -0.0002152110100723803, 0.03645821288228035, 0.0005546553293243051, 0.008775551803410053, -0.02876359596848488, -0.05837225168943405, 0.042722154408693314, 0.08716686069965363, -0.1650836318731308, 0.053375426679849625, 0.020761210471391678, -0.07044383883476257, 0.026663068681955338, 0.014916493557393551, -0.12605956196784973, 0.024798117578029633, -0.01300264522433281, -0.02124873176217079, 0.05266802757978439, 0.10591617971658707, -0.049173664301633835, -0.040126651525497437, 0.030596157535910606, -0.02376396954059601, 0.04422425851225853, -0.013625041581690311, -0.0491500049829483], [-0.0006558960303664207, 0.001561370212584734, -0.03213169798254967, -0.004031214397400618, -0.18251995742321014, 0.002284659305587411, -0.044270481914281845, 0.004749470856040716, 0.12567195296287537, 0.05668419972062111, 0.08611507713794708, -0.09186069667339325, 0.14242927730083466, 0.019012851640582085, 0.2079715132713318, -0.015314054675400257, 0.07855440676212311, 0.15445628762245178, -0.13072460889816284, 0.2959122061729431, 0.03466333448886871, 0.025048842653632164, 0.040540408343076706, -0.12569597363471985, 0.08469603210687637, -0.19805356860160828, 0.09872358292341232, -0.15234562754631042, -0.04648739844560623, 0.09808909893035889, 0.10189849883317947, -0.36137300729751587], [-0.0007044741651043296, -5.925651203142479e-05, -0.04356010630726814, 0.08652365207672119, -0.0814962089061737, 0.0004081238294020295, -0.07416672259569168, -0.00045407359721139073, -0.009248523972928524, 0.1785745769739151, 0.0064390720799565315, -0.050902944058179855, 0.058985136449337006, -0.0001411193225067109, 0.07601077854633331, -0.08271633088588715, 0.04472028464078903, 0.10506977140903473, -0.18948084115982056, -0.07700564712285995, 0.08210297673940659, -0.050836604088544846, -0.05311959609389305, 0.17275653779506683, 0.04069075733423233, 0.05496654286980629, -0.0015936619602143764, -0.13413023948669434, 0.008587067015469074, 0.0914217159152031, -0.03265615552663803, 0.010828910395503044], [-0.0004513785243034363, 0.00033204889041371644, -0.12234768271446228, 0.1164238303899765, -0.13217490911483765, 0.0014339886838570237, 0.07355184853076935, -0.0029287622310221195, -0.09473727643489838, -0.03787309676408768, 0.02640589140355587, 0.10839784890413284, 0.1098378598690033, -0.1041143536567688, -0.3839854300022125, 0.002522842027246952, -0.06733816862106323, -0.19297637045383453, -0.05734393000602722, -0.14569821953773499, 0.0015005965251475573, 0.12315745651721954, 0.12503521144390106, -0.15303710103034973, 0.5303517580032349, -1.2690330743789673, -0.03179295361042023, 0.1065559908747673, 0.10823547840118408, 0.039255477488040924, -0.08478419482707977, -0.24513110518455505], [1.0460911653353833e-05, 0.0019455247092992067, 0.005695025902241468, -0.05904611945152283, 0.5861982107162476, -0.0018748475704342127, -0.013874935917556286, 0.011458723805844784, 0.004960513673722744, -0.11266040802001953, -0.053515758365392685, 0.050929680466651917, -0.24324387311935425, 0.06964004784822464, -0.24329330027103424, 0.06365513801574707, -0.020842256024479866, -0.22778385877609253, 0.060702741146087646, -0.48340368270874023, -0.3465612828731537, 0.15095752477645874, 0.0038266123738139868, -0.013150569051504135, -0.027309246361255646, -0.8891454339027405, -0.12012970447540283, 0.003122130408883095, -0.08910364657640457, 0.1228218749165535, 0.04654065892100334, 0.06950757652521133], [0.0009246934205293655, 0.0019390236120671034, 0.013695011846721172, 0.16409502923488617, 0.09100647270679474, -0.00043282139813527465, -0.17398986220359802, 0.0012203253572806716, -0.1285015493631363, -0.034387461841106415, -0.09613707661628723, 0.10281381011009216, 0.07868912816047668, 0.1764543056488037, 0.18990397453308105, -0.009963568300008774, 0.09448205679655075, -0.04551466181874275, -0.15961341559886932, -0.02464877814054489, -0.10544442385435104, -0.06802202761173248, -0.10433094203472137, -0.07999711483716965, 0.13790366053581238, 0.053753264248371124, 0.2222772240638733, -0.19502446055412292, 0.07424356788396835, -0.0931691974401474, -0.10159729421138763, -0.0828896313905716], [0.0009891764493659139, -0.0002403671242063865, -0.021853413432836533, 0.2848348915576935, -0.3441547155380249, -0.00031254091300070286, -0.018640244379639626, -0.005477151833474636, 0.013297926634550095, 0.11249110847711563, -0.435917466878891, -0.07368625700473785, 0.26293203234672546, -0.056764375418424606, 0.04410786181688309, -0.21934130787849426, -0.013210433535277843, 0.17394937574863434, -0.0639360100030899, -0.13362860679626465, -0.0040912688709795475, 0.17378567159175873, -0.28881150484085083, -0.14287813007831573, 0.10780943930149078, -0.14302551746368408, 0.3549944758415222, 0.43015962839126587, 0.112025685608387, -0.24248476326465607, 0.08391941338777542, -0.10566546022891998], [-4.3930507672484964e-05, 0.0013310200301930308, 0.013120349496603012, -0.014280544593930244, -0.1528129279613495, -0.00014121425920166075, -0.05715426802635193, 0.004626906476914883, -0.03867105394601822, 0.13287653028964996, 0.05163837969303131, 0.0839848741889, 0.06981536746025085, 0.04475608468055725, 0.06253807991743088, 0.002149048028513789, 0.044996123760938644, 0.08677306771278381, -0.0034563220106065273, -0.16647739708423615, 0.008502425625920296, 0.31696876883506775, 0.06250704824924469, -0.1268174946308136, 0.07967613637447357, 0.4008116126060486, -0.08909213542938232, -0.08907244354486465, 0.042570892721414566, 0.0033675283193588257, 0.1930660754442215, 0.1538950502872467], [-0.0005101023125462234, -0.0008088518516160548, -0.1351347267627716, 0.21417643129825592, -0.08327534049749374, 0.0009657899499870837, 0.016875009983778, -0.008909597061574459, -0.18427172303199768, 0.0531732439994812, -0.062044739723205566, -0.2181786447763443, 0.12023146450519562, -0.011501342058181763, 0.12846101820468903, -0.11099199950695038, 0.04338093101978302, -0.07365445792675018, -0.052554965019226074, -0.1442730724811554, 0.17243310809135437, 0.25821831822395325, -0.03403308987617493, 0.2271067202091217, 0.42189082503318787, -0.388952374458313, 0.1600819230079651, 0.023651955649256706, 0.27469566464424133, 0.09597570449113846, -0.014605747535824776, 0.05199806019663811], [0.003130646189674735, 0.005229894071817398, 0.29611736536026, -0.1037287563085556, 0.582892656326294, -0.0007799279410392046, -0.10471884906291962, 0.005988418124616146, -0.016114946454763412, 0.22561748325824738, 0.0034991325810551643, 0.0831657126545906, -0.4786284565925598, -0.311662495136261, -1.235263466835022, 0.11403624713420868, -0.16329364478588104, -0.02709457464516163, -0.03698520362377167, -1.07964026927948, -0.5519885420799255, 0.43438011407852173, -0.05264674499630928, 0.07257138192653656, -0.29352647066116333, 0.26660752296447754, -0.2394466996192932, 0.5635924339294434, 0.07718486338853836, 0.02299874648451805, -0.03165629506111145, 0.4267449676990509], [0.00049442402087152, 0.0013925951207056642, -0.06542173773050308, -0.10917284339666367, -0.5024240612983704, 0.0014318752801045775, 0.020595550537109375, 7.664089207537472e-05, -0.0003915365959983319, 0.11913949251174927, -0.08134995400905609, 0.10294690728187561, 0.17364628612995148, -0.026797086000442505, 0.11557965725660324, -0.03558853641152382, -0.023035505786538124, 0.005242029204964638, 0.13679945468902588, -0.10327567905187607, 0.11417481303215027, -0.02836793102324009, -0.09770142287015915, 0.0875731110572815, 0.2654946744441986, -0.021416520699858665, -0.10877741128206253, -0.01888475939631462, 0.03582020103931427, -0.07861310988664627, 0.0615326464176178, -0.06998316943645477], [0.0006397741963155568, 0.0016355267725884914, -0.08089964836835861, 0.01565973274409771, -0.4643012583255768, 0.0003578518226277083, -0.027317503467202187, 0.0010285635944455862, 0.0700010135769844, -0.040670640766620636, -0.07565650343894958, -0.03600850701332092, 0.2570515275001526, -0.013750112615525723, 0.1063016727566719, -0.018072975799441338, 0.028350651264190674, -0.005142319481819868, 0.03702548146247864, -0.4205774962902069, 0.051491621881723404, 0.03868919238448143, -0.06520223617553711, 0.1480253040790558, 0.4294936954975128, -0.005511986557394266, -0.03283756226301193, -0.03778015822172165, 0.020799631252884865, 0.024499990046024323, 0.013213768601417542, -0.0441383458673954], [0.0008973228395916522, 0.0018110007513314486, 0.0007550744921900332, 0.05928428843617439, 0.14553460478782654, 0.0010524948593229055, 0.04876499995589256, 0.0026568309403955936, 0.08534074574708939, -0.09562879800796509, 0.0931282564997673, 0.01882103458046913, -0.08597991615533829, -0.005842515733093023, 0.06820570677518845, 0.017160238698124886, 0.008625203743577003, 0.03797540068626404, -0.07489433139562607, -0.1571197509765625, -0.16083228588104248, -0.026998285204172134, 0.1440902054309845, -0.01473864633589983, 0.11519089341163635, 0.1369013637304306, 0.18070948123931885, -0.12981103360652924, 0.18305018544197083, -0.12516961991786957, -0.044497426599264145, -0.018308531492948532], [-0.000799902540165931, -0.002098986878991127, 0.5516219139099121, 0.11170107871294022, 0.22679978609085083, -0.0004268648917786777, 0.06934723258018494, -0.0002804769901558757, 0.009087077341973782, -0.07182111591100693, 0.026238862425088882, 0.052886947989463806, 0.041919346898794174, -0.03753581643104553, -0.035754282027482986, 0.018212007358670235, -0.05016375705599785, 0.05695725232362747, -0.046658195555210114, 0.022826090455055237, -0.04668768495321274, 0.03635234758257866, 0.09198553115129471, 0.11364671587944031, -0.01839033141732216, -0.04608196020126343, 0.3576905131340027, 0.04292191565036774, -0.27228260040283203, -0.14330649375915527, -0.049478672444820404, -0.012235857546329498], [-0.0002208095247624442, -0.0009020160650834441, -0.062827467918396, -0.06054585427045822, 0.052888207137584686, -0.001733635668642819, 0.007984586991369724, 0.00068723747972399, -0.20540639758110046, -0.08392740041017532, -0.05718251317739487, 0.03600297495722771, 0.07972798496484756, -0.11838528513908386, 0.31491604447364807, 0.04721752181649208, -0.0576496385037899, 0.03474203869700432, 0.09683479368686676, 0.016258494928479195, 0.1862049400806427, -0.11350098252296448, 0.002974318340420723, -0.025158613920211792, 0.09729281812906265, -0.23993253707885742, -0.11763395369052887, -0.10934324562549591, 0.03868350759148598, 0.020332274958491325, -0.08877790719270706, -0.07496762275695801], [-0.0016257275128737092, -0.0035309665836393833, -0.03786587715148926, -0.020893173292279243, -0.15158596634864807, -0.0006096393917687237, 0.08618085086345673, -0.0063413288444280624, 0.07966745644807816, 0.13570749759674072, 0.007016457617282867, -0.18482628464698792, -0.0002548201591707766, 0.10890812426805496, -0.441851407289505, -0.13307052850723267, 0.04126015305519104, 0.09974055737257004, -0.1949339061975479, -0.08549055457115173, 0.1052938923239708, 0.11920412629842758, 0.12082032859325409, 0.08271012455224991, -0.043291203677654266, 0.23392720520496368, 0.04551375284790993, 0.6622302532196045, 0.07510869204998016, -0.051014289259910583, 0.06922426074743271, 0.4066542685031891]], "rec.bias_ih_l0": [-0.00021776773792225868, -0.00019772622908931226, -0.8701352477073669, -1.2183247804641724, -0.14623264968395233, -0.0003098591114394367, 0.09412264078855515, 0.0015356636140495539, -0.13223908841609955, 0.08384276181459427, -0.8924764394760132, -0.10495953261852264, -0.004933650605380535, -1.4668042659759521, 0.5541415810585022, 0.0898435041308403, 0.1300678849220276, 0.3226432204246521, -0.09377960860729218, 0.2409759908914566, 0.22605539858341217, -0.016675757244229317, -1.4731812477111816, 0.24207524955272675, -0.21653302013874054, 0.727108359336853, -0.8451870083808899, 0.8614091277122498, -0.9865217804908752, -0.1255863606929779, -0.09790190309286118, -0.032158322632312775, -0.00023910508025437593, -0.0003689173317980021, 1.466461181640625, 1.404698133468628, 0.626810610294342, -0.00029748320230282843, 0.09934558719396591, -0.00022856341092847288, 0.25283706188201904, 0.10472255200147629, 0.9457359313964844, 0.5819375514984131, 0.5690096020698547, 1.5721697807312012, 0.0028715769294649363, 0.029700228944420815, 0.1357519030570984, 0.2391490489244461, 0.5808137655258179, 0.30930963158607483, -0.06991486996412277, 0.41550111770629883, 1.361147403717041, 0.07089526951313019, 0.7203975915908813, 0.2470068782567978, 1.1857590675354004, 0.16269904375076294, 1.3324962854385376, 0.34824955463409424, 0.034560561180114746, 0.08719874918460846, 0.0056762248277664185, 0.016879916191101074, -0.05664543807506561, 0.15592312812805176, -0.1440449208021164, 0.002298499457538128, -0.024196641519665718, 0.023884078487753868, 0.08111753314733505, 0.19286447763442993, -0.07200654596090317, -0.20177994668483734, 0.05296415090560913, -0.08891098201274872, 0.21331343054771423, -0.082499660551548, -0.017405983060598373, 0.46363288164138794, -0.03758774325251579, -0.11514309048652649, 0.28695809841156006, 0.05975079536437988, -0.02778957597911358, 0.3702871799468994, 0.1498023420572281, -0.31488096714019775, -0.06831501424312592, 0.036262352019548416, 0.10601798444986343, 0.011320921592414379, -0.01310860924422741, -0.16637133061885834, -0.00021870202908758074, -0.00020360274356789887, 0.3365168273448944, -0.09859475493431091, 0.5392727255821228, -0.0003104020725004375, 0.09907599538564682, 0.001527494052425027, 0.22024142742156982, 0.09532340615987778, -0.09046224504709244, 0.15046487748622894, 0.010385421104729176, 0.004685737192630768, 0.4761178493499756, 0.09158843010663986, 0.1346326619386673, 0.21238954365253448, 0.089475117623806, 0.22305889427661896, -0.20594361424446106, 0.0977499708533287, 0.10743828117847443, 0.24309813976287842, 0.20331482589244843, -0.0030716462060809135, 0.2643507719039917, 0.9519703388214111, -0.04472009837627411, -0.2197158932685852, -0.037747155874967575, 0.08256381005048752], "rec.bias_hh_l0": [-0.00021776776702608913, -0.00019772622908931226, -1.0737627744674683, -1.2256240844726562, -0.11429376155138016, -0.00030985966441221535, 0.0917547270655632, 0.0015356638468801975, -0.13899806141853333, 0.08711045235395432, -0.9369468688964844, -0.10496938228607178, 0.06883014738559723, -1.3430119752883911, 0.5561192035675049, 0.0888780727982521, 0.1302020400762558, 0.30537909269332886, -0.09508562833070755, 0.20576514303684235, 0.08659728616476059, -0.00923371221870184, -1.2894412279129028, 0.2576633393764496, -0.21020527184009552, 0.7266887426376343, -0.9822862148284912, 0.8243075609207153, -0.8539875745773315, -0.1659485101699829, -0.10534493625164032, -0.011027841828763485, -0.0002391050657024607, -0.0003689173317980021, 1.3465328216552734, 1.4171966314315796, 0.6151230931282043, -0.0002974837552756071, 0.09821027517318726, -0.0002285632217535749, 0.26198121905326843, 0.10688845068216324, 0.9775290489196777, 0.5797324776649475, 0.7174825072288513, 1.5157173871994019, 0.059263501316308975, 0.029546678066253662, 0.1354963481426239, 0.1927211731672287, 0.5807456970214844, 0.38259419798851013, -0.08244060724973679, 0.45030874013900757, 1.3604645729064941, 0.06786277145147324, 0.9088964462280273, 0.1620113104581833, 1.1242114305496216, 0.1520538032054901, 1.3778400421142578, 0.41416415572166443, 0.03626153618097305, 0.07432835549116135, 0.003079167567193508, 0.004970978945493698, 0.010510633699595928, 0.026890788227319717, -0.19226063787937164, 0.0006917890859767795, -0.14938808977603912, 0.007261474616825581, -0.1469571441411972, 0.26636824011802673, -0.010931480675935745, -0.2566070854663849, 0.13936679065227509, 0.04466291889548302, 0.07085037231445312, -0.017756443470716476, 0.11065318435430527, 0.33642470836639404, -0.15467780828475952, -0.2640315890312195, 0.06521882861852646, 0.15723539888858795, -0.016968699172139168, 0.30204007029533386, 0.016994846984744072, -0.06565838307142258, -0.08198872953653336, 0.11851359158754349, -0.1673355996608734, 0.1866854876279831, 0.01190180703997612, -0.062390878796577454, -0.00021870202908758074, -0.00020360274356789887, 0.1925349235534668, -0.09979715943336487, 0.6190364360809326, -0.00031040178146213293, 0.0978965312242508, 0.001527494052425027, 0.21331492066383362, 0.08501514792442322, -0.08242905884981155, 0.1452232003211975, -0.06470999866724014, -0.08481421321630478, 0.43375810980796814, 0.09104199707508087, 0.1355610191822052, 0.1976003348827362, 0.08928913623094559, 0.2394339144229889, -0.21469265222549438, 0.11363094300031662, 0.24626372754573822, 0.23819085955619812, 0.2323223203420639, -0.08403007686138153, 0.2664320170879364, 0.9356369972229004, -0.004443502519279718, -0.2672519087791443, -0.04813309758901596, 0.09554668515920639], "lin.weight": [[-0.0018126466311514378, -0.007853974588215351, 0.8630999326705933, -0.268464058637619, -0.15185695886611938, 0.005067639518529177, -0.13959304988384247, -0.03187552094459534, 0.03897065669298172, 0.5655252933502197, -0.03397992253303528, 0.1345815360546112, 0.21770375967025757, 0.20174574851989746, 0.034861691296100616, -0.16446925699710846, 0.0861605554819107, 0.5258185863494873, 0.34156760573387146, 0.20576588809490204, 0.5382113456726074, 0.05770861357450485, -0.2024753987789154, 0.7396249175071716, -0.16773293912410736, -0.07291540503501892, -0.15437906980514526, 0.13013462722301483, -0.46832698583602905, -0.21565194427967072, 0.3800746500492096, 0.14461255073547363]], "lin.bias": [0.0884503424167633]}}