{"model_data": {"model": "SimpleRNN", "input_size": 1, "skip": 1, "output_size": 1, "unit_type": "LSTM", "num_layers": 1, "hidden_size": 32, "bias_fl": true}, "state_dict": {"rec.weight_ih_l0": [[0.02933552674949169], [-0.030951282009482384], [-0.0040006861090660095], [0.02297903224825859], [0.05446358397603035], [0.01720190793275833], [0.00037049053935334086], [0.02710343524813652], [-0.012694290839135647], [-0.0024649854749441147], [-0.01922612264752388], [-0.016865182667970657], [0.1189856305718422], [0.0005143990856595337], [-0.050616554915905], [-0.008962411433458328], [0.014705920591950417], [0.039616335183382034], [0.02944139577448368], [-0.0005428368458524346], [-0.009208107367157936], [-0.007241684477776289], [-0.0038596531376242638], [0.004306521732360125], [-0.07192674279212952], [-0.0738508552312851], [-0.11894213408231735], [-0.0009865027386695147], [-0.03966555744409561], [0.02723642624914646], [0.03823592886328697], [0.0002212826511822641], [0.044960565865039825], [-0.1394452005624771], [-0.014892630279064178], [0.04498053342103958], [0.07232952862977982], [0.022494962438941002], [-0.001305886427871883], [0.07095716893672943], [-0.021537072956562042], [-0.0060415118932724], [-0.022687360644340515], [0.06658130884170532], [0.1887093037366867], [-0.001978339161723852], [-0.08870623260736465], [-0.030650634318590164], [0.019056811928749084], [0.09527166187763214], [0.11125389486551285], [0.0005984145682305098], [-0.0017445727717131376], [-0.017315376549959183], [0.011796235106885433], [0.01775951310992241], [-0.10411263257265091], [-0.1291230469942093], [-0.14486730098724365], [-0.0017838692292571068], [-0.06897140294313431], [0.037190992385149], [0.06229614466428757], [0.0006139115430414677], [0.05235062539577484], [0.40449419617652893], [-0.4391145408153534], [0.113429494202137], [0.026477469131350517], [0.5184105038642883], [-0.3265147805213928], [-0.2586959898471832], [0.17475908994674683], [-1.335559606552124], [-0.24225229024887085], [-0.5024299621582031], [-0.14836899936199188], [0.046077661216259], [-0.44268739223480225], [1.9972565174102783], [0.6939029097557068], [0.4700203239917755], [0.9937772154808044], [-0.13910627365112305], [0.5812186002731323], [-1.0300084352493286], [0.05231437087059021], [-2.16414737701416], [0.09107571840286255], [0.15205669403076172], [-0.1373092383146286], [0.08674290776252747], [1.3038439750671387], [0.5861855745315552], [0.08624477684497833], [-0.015490655787289143], [0.04459517449140549], [-0.0861876904964447], [0.06030033156275749], [0.035110123455524445], [0.09961296617984772], [0.03442912548780441], [1.4826532606093679e-05], [0.13996322453022003], [-0.022129761055111885], [0.0004053520387969911], [-0.02291029505431652], [0.0711563304066658], [0.18924133479595184], [0.0003692908212542534], [-0.11632324010133743], [-0.005139222368597984], [0.03839823231101036], [0.0587250255048275], [0.05607662349939346], [-0.0003771828196477145], [-0.009434797801077366], [-0.009197045117616653], [0.034069303423166275], [0.04683684930205345], [-0.12843427062034607], [-0.11222062259912491], [-0.13615678250789642], [-0.001266295905224979], [-0.07579337060451508], [0.03130844235420227], [0.11307570338249207], [0.0002986699983011931]], "rec.weight_hh_l0": [[0.019881587475538254, 0.009866035543382168, -0.07355596125125885, 0.04430229216814041, 0.025784604251384735, -0.0011152953375130892, 0.00011224088666494936, 0.0009290441521443427, 0.0014362826477736235, -0.0046133012510836124, 0.002052903641015291, 0.017233822494745255, -0.03115960769355297, 0.005341239273548126, 0.009133653715252876, 0.0030829161405563354, 0.018626274541020393, -0.02143012173473835, 0.02717374823987484, 0.007018169853836298, 0.0041030696593225, 0.0019305654568597674, 0.035254139453172684, -0.07017504423856735, -0.006325645837932825, -0.02060340903699398, -0.016067948192358017, -0.0014189794892445207, 0.006708692293614149, 0.003115451894700527, 0.039721034467220306, 0.006369099952280521], [-0.07085715234279633, 0.12709446251392365, 0.05988839641213417, -0.09061039239168167, -0.005833740346133709, -0.002133401343598962, 0.022655773907899857, 0.20357774198055267, 0.06480947136878967, 0.056136541068553925, 0.032222308218479156, -0.08200084418058395, 0.014051889069378376, -0.04627929627895355, 0.12386228144168854, -0.022598592564463615, -0.001845142338424921, -0.009446625597774982, 0.08782244473695755, 0.01773296482861042, 0.06097300723195076, 0.02845121920108795, -0.05666906759142876, 0.1262611299753189, -0.07998663932085037, 0.015136249363422394, -0.0722336694598198, 0.008709020912647247, -0.04599970951676369, -0.014775711111724377, -0.027164462953805923, -0.0026240278966724873], [-0.016001634299755096, -0.07102317363023758, -0.5710986852645874, 0.019955329596996307, -0.020584063604474068, -0.04639855772256851, 0.015814146026968956, -0.07953542470932007, 0.08080197870731354, -0.00214657885953784, -0.02224339172244072, 0.00468188663944602, 0.04385976120829582, 0.005439664702862501, -0.02534639649093151, -0.04318307712674141, 0.07271817326545715, -0.009975099004805088, 0.03406280651688576, 0.015115528367459774, -0.026513537392020226, -0.005217761732637882, 0.02068108133971691, -1.020700454711914, 0.053822968155145645, 0.030039126053452492, 0.026583878323435783, -0.005346301011741161, 0.05323503911495209, 0.020451856777071953, -0.00942174345254898, -0.000533927814103663], [0.0210991520434618, -0.0007820688188076019, 0.008694104850292206, -0.01152211707085371, 0.0381501279771328, 0.04962495341897011, -0.02067321538925171, 0.002949849935248494, 0.01960264891386032, 0.07590615749359131, -0.003177125472575426, 0.010280768387019634, -0.059683896601200104, 0.024756602942943573, -0.009503710083663464, 0.03970329090952873, 0.038944315165281296, -0.009130874648690224, -0.023566510528326035, -0.01439068652689457, 0.08926593512296677, 0.00015357538359239697, 0.04753490537405014, -0.02063397504389286, 0.02230534702539444, 0.027537917718291283, -0.021265661343932152, 0.005345112644135952, -0.032111357897520065, -0.05405622348189354, 0.09998667240142822, -0.0005864242557436228], [0.044436562806367874, 0.0038299886509776115, 0.009292680770158768, 0.06945695728063583, 0.06966520845890045, 0.07932143658399582, -0.019924791529774666, -0.1362706869840622, 0.014229773543775082, 0.017939096316695213, -0.007689141668379307, 0.038707271218299866, -0.08035806566476822, 0.00728778587654233, -0.007563700433820486, 0.017049895599484444, 0.10718074440956116, -0.08181671798229218, -0.07664380967617035, -0.011358901858329773, 0.039857860654592514, 0.0055586607195436954, 0.04999708756804466, -0.03604937717318535, -0.0020260827150195837, -0.017991960048675537, -0.019899355247616768, 0.0021971426904201508, 0.016962986439466476, -0.019842125475406647, 0.12352566421031952, -0.0016122102970257401], [0.017124798148870468, 0.015957577154040337, -0.03730646148324013, -0.005077594891190529, 0.058502279222011566, 0.05701760575175285, -0.01882871799170971, -0.058358896523714066, 0.0011616237461566925, 0.01597672887146473, -0.003842300269752741, -0.0004162623663432896, -0.04154619574546814, 0.025423647835850716, -0.005201751831918955, -0.00656554102897644, 0.061991628259420395, -0.03443525359034538, 0.00573318637907505, -0.012216310948133469, 0.04439641162753105, 0.009802145883440971, 0.0614238865673542, 0.03906218707561493, 0.009749582968652248, -0.006089225877076387, -0.008525986224412918, 0.0025123998057097197, 0.005077420733869076, -0.032949354499578476, 0.07090505957603455, -0.0029112924821674824], [0.005985061638057232, 0.0139823779463768, 0.008719122968614101, 0.0024815090000629425, 0.004696831107139587, 0.008915804326534271, -0.005995177198201418, 0.007296277210116386, -0.0038678478449583054, -0.01470649242401123, -0.0043749092146754265, -0.001004009391181171, -0.01071892213076353, 0.0017074552597478032, 0.005786418914794922, 0.014613740146160126, -0.007127349730581045, 0.00035295638372190297, 0.013133478350937366, -0.004941919352859259, 0.003042020834982395, -0.0016091332072392106, -0.000194230888155289, 0.010812068358063698, -0.008103154599666595, -0.007422582246363163, -0.006880814675241709, 0.0022389565128833055, -0.005843151826411486, -0.0003238542703911662, -0.0027032254729419947, -0.0023267543874680996], [-0.018642764538526535, 0.24582797288894653, 0.0952562540769577, 0.006470352411270142, 0.10009345412254333, 0.03619788587093353, 0.010584652423858643, 0.09530013799667358, 0.04359477758407593, -0.03471893444657326, 0.030911516398191452, -0.07926443219184875, -0.04185401648283005, -0.05130987614393234, 0.12797324359416962, 0.04181412234902382, -0.03959844633936882, -0.10644008219242096, -0.13595183193683624, 0.004590535070747137, -0.009886166080832481, -0.0023434057366102934, -0.03892499580979347, 0.01017330028116703, -0.09651560336351395, 0.04256444796919823, -0.03013630025088787, 0.004572198260575533, -0.03837857022881508, -0.021104073151946068, 0.07557046413421631, 0.003777017816901207], [0.03814702481031418, -0.03842489793896675, -0.024032428860664368, -0.0731709823012352, -0.005468715447932482, -0.04606826603412628, -0.009681402705609798, 0.014614949934184551, 0.2151128649711609, 0.04678061231970787, 0.05168277770280838, -0.08041185885667801, -0.017282934859395027, -0.001360305119305849, 0.09989774972200394, 0.03552389517426491, -0.03393403813242912, -0.009208940900862217, -0.03566568344831467, 0.016304444521665573, -0.11129458993673325, -0.0021513821557164192, -0.054594285786151886, 0.07777518033981323, -0.06888813525438309, -0.04360980913043022, 0.026580307632684708, -0.0020442933309823275, -0.14199143648147583, -0.017348475754261017, 0.05283953621983528, -0.0006115720607340336], [-0.0028241199906915426, -0.02168388105928898, -0.03160644322633743, 0.001326454570516944, 0.016167161986231804, 0.012969429604709148, 0.00923505611717701, -0.017269710078835487, -0.048147283494472504, 0.045075926929712296, -0.0364130362868309, -0.004017082508653402, 0.00826110877096653, 0.019529085606336594, -0.01681911014020443, -0.020390337333083153, -0.003962165210396051, 0.015632348135113716, 0.052199847996234894, 0.006364990491420031, 0.002629216993227601, 0.006308741867542267, 0.014731611125171185, -0.012595461681485176, 0.030050715431571007, 0.020502733066678047, 0.025926006957888603, 0.0006991233676671982, 0.0060099102556705475, -0.004484893754124641, 0.002512857783585787, 0.0017914631171151996], [0.00027846344164572656, 0.03397791460156441, 0.005110681522637606, 0.012592418119311333, 0.0011371034197509289, -0.0061185602098703384, -0.0008452380425296724, 0.03347690403461456, 0.002063832012936473, 0.017985742539167404, 0.01406942494213581, 0.0040311384946107864, -0.015454067848622799, -0.006491587031632662, 0.02665836736559868, 0.0017172408988699317, -0.01982625387609005, 0.001289063598960638, 0.023784199729561806, 0.004783909302204847, -0.013051822781562805, 0.011078701354563236, 0.0015652074944227934, 0.009952044114470482, -0.020400715991854668, -0.029065024107694626, -0.027954651042819023, -0.003753971541300416, -0.013635789975523949, -0.0015747511060908437, -0.005942015442997217, 0.0012980694882571697], [0.12450613081455231, -0.019907988607883453, 0.09154925495386124, -0.028933346271514893, -0.19023631513118744, -0.15803837776184082, -0.01602170057594776, 0.18903115391731262, 0.33326080441474915, -0.06731493026018143, 0.025059033185243607, 0.07131423056125641, -0.011408216319978237, -0.06478149443864822, 0.04571129009127617, 0.07057970762252808, -0.05287100374698639, 0.1137869730591774, 0.11049526929855347, 0.03221382200717926, -0.14967890083789825, -0.04156758636236191, -0.06471488624811172, -0.08404674381017685, -0.05951860919594765, -0.06061890348792076, -0.030647652223706245, 0.005486995447427034, -0.1546897441148758, 0.040696386247873306, -0.02092149667441845, -0.0009471231023781002], [0.06169673800468445, 0.03550839051604271, 0.03632128983736038, 0.09098417311906815, 0.07460128515958786, 0.08704942464828491, -0.03241189196705818, -0.05097556114196777, -0.05185476318001747, -0.06026879698038101, -0.028699710965156555, 0.13437677919864655, -0.13785311579704285, 0.03220034018158913, -0.019899966195225716, 0.13146552443504333, 0.0866076797246933, -0.02554425410926342, 0.015425728633999825, -0.027464566752314568, 0.044954221695661545, -0.02430850639939308, 0.05035727098584175, 0.0482344776391983, -0.0025927918031811714, -0.023453691974282265, -0.035771314054727554, 0.01792043447494507, 0.056362587958574295, -0.010539346374571323, 0.05662783980369568, -0.005813354626297951], [0.010226733982563019, 0.03468286618590355, 0.022062230855226517, 0.014673876576125622, 0.025319915264844894, 0.022341977804899216, -0.010653642937541008, -0.001714118872769177, -0.008136261254549026, 0.014101143926382065, 0.003692429745569825, 0.010825736448168755, -0.03825186938047409, 0.0014778951881453395, 0.016574019566178322, 0.02401384897530079, -0.0003100916219409555, -0.017788099125027657, -6.880844011902809e-05, -0.004785206634551287, 0.011740097776055336, 0.006299789994955063, 0.006268335040658712, 0.03464692085981369, -0.023180898278951645, -0.023230770602822304, -0.031193189322948456, 0.000595640973187983, -0.016944225877523422, -0.007421048823744059, 0.02346665784716606, -0.0023014149628579617], [0.005196054466068745, 0.03689069673418999, -0.017125064507126808, -0.012952595949172974, 0.0013461027992889285, 0.002301583532243967, -0.017010603100061417, 0.03040069341659546, 0.112464539706707, 0.054643381386995316, 0.021014252677559853, -0.01789649948477745, -0.021442262455821037, -0.00020782479259651154, 0.048419587314128876, 0.026062604039907455, -0.04019666090607643, -0.023413242772221565, 0.009340155869722366, 0.0022978982888162136, -0.030508438125252724, 0.024826353415846825, 0.02140485867857933, 0.020139601081609726, -0.03849406540393829, -0.07904751598834991, -0.06355449557304382, -0.0032287484500557184, -0.061017267405986786, -0.004263191018253565, 0.007662434596568346, -0.00786692276597023], [0.00759640708565712, 0.02500327117741108, -0.04828772321343422, 0.011705025099217892, 0.012913495302200317, 0.01757514663040638, -0.0026868933346122503, 0.01925184205174446, -0.037709109485149384, -0.02596410922706127, -0.034553807228803635, -0.043898023664951324, 0.007368229329586029, 0.013169855810701847, 0.010554850101470947, 0.011431566439568996, -0.02678533084690571, 0.01470410730689764, 0.07037224620580673, 0.0002465488505549729, -0.0003486826317384839, 0.00028224795823916793, 0.004634519573301077, 0.012388373725116253, -0.005813643801957369, -0.003139571053907275, 0.010675212368369102, 0.001075676642358303, -0.00701011111959815, 0.007271774113178253, -0.007228141650557518, -0.0008015082566998899], [0.05692090094089508, 0.13119494915008545, 0.01249715406447649, 0.09043847769498825, 0.05133005604147911, -0.016969678923487663, -0.00699243787676096, 0.024331049993634224, 0.12158511579036713, -0.04066392779350281, 0.0043943109922111034, -0.03156463801860809, -0.041128408163785934, -0.005585294216871262, 0.03979138657450676, 0.05261995270848274, -0.015293591655790806, -0.05937955155968666, -0.00922977365553379, 0.011464647948741913, -0.045182615518569946, -0.016693977639079094, 0.003021777141839266, 0.020003775134682655, -0.029771124944090843, -0.0413224995136261, -0.022567927837371826, 0.0005181776941753924, -0.053822413086891174, 0.04850580915808678, 0.06784844398498535, 0.006189972627907991], [0.06310693919658661, -0.008422634564340115, 0.053011454641819, 0.04998939484357834, -0.00725063681602478, -0.04629703238606453, -0.027948245406150818, 0.0048832097090780735, 0.13047918677330017, -0.11641865223646164, -0.01764504238963127, -0.0686316192150116, -0.05402909219264984, -0.0003380871785338968, -0.005865110084414482, 0.05099787190556526, -0.09218218177556992, -0.08333432674407959, -0.010656812228262424, -0.01577118970453739, -0.031647153198719025, -0.013533211313188076, -0.021502263844013214, -0.14959967136383057, -0.012577066197991371, -0.024893704801797867, -0.006162413861602545, 0.013588225468993187, -0.01567707397043705, 0.018445244058966637, -0.024035148322582245, -0.01507718674838543], [0.029617972671985626, 0.1662152260541916, -0.062025781720876694, 0.13108442723751068, 0.02631518431007862, 0.06298937648534775, -0.0031296717934310436, 0.033297520130872726, 0.07830233871936798, -0.03260602802038193, 0.006210285238921642, 0.006326013244688511, -0.03282196819782257, 0.01964539662003517, 0.049609582871198654, -0.0384802408516407, 0.006678183097392321, -0.008434247225522995, 0.06139792874455452, 0.0011615788098424673, 0.033007003366947174, 0.02480935864150524, 0.0950680524110794, -0.001620051683858037, 0.006138383876532316, -0.029974495992064476, -0.08988084644079208, -0.0012651961296796799, 0.0012267400743439794, -0.020693615078926086, 0.10585864633321762, 0.004352137912064791], [0.0014947596937417984, 0.009167113341391087, 0.0008028446463868022, 0.0028439080342650414, 0.00515441969037056, 0.0075046606361866, -0.002970428206026554, 0.0013994824839755893, -0.006112464237958193, 0.00479508051648736, -0.0025281733833253384, 0.005762141663581133, -0.007013652473688126, 0.0019735966343432665, 0.003325618337839842, 0.001353028928861022, -0.0007148362346924841, 0.000886168796569109, 0.006799184251576662, -0.0018674908205866814, 0.0032209279015660286, 0.0022821302991360426, 0.0024972993414849043, 0.00437880540266633, -0.003248963039368391, -0.004076537676155567, -0.004443081095814705, 0.0005705655203200877, -0.0015064920298755169, -0.0029823093209415674, 0.003636774141341448, -0.00107226159889251], [0.02675083465874195, 0.012310796417295933, -0.010296941734850407, 0.018913602456450462, 0.015109015628695488, 0.0078724455088377, -0.009178620763123035, 0.01984298788011074, 0.04107065498828888, 0.003798742312937975, 0.014774207957088947, -0.09876303374767303, -0.042145486921072006, 0.004082160536199808, 0.03787214308977127, -0.0070260064676404, -0.02920464053750038, -0.07413048297166824, -0.0044274963438510895, 0.005189341492950916, -0.004333348013460636, 0.007753374055027962, 0.03238478675484657, -0.06900964677333832, -0.026784205809235573, -0.043454449623823166, -0.03402620926499367, -0.0019491460407152772, -0.04989784210920334, -0.006218529772013426, 0.03612910583615303, 0.0032505940180271864], [0.011758505366742611, 0.025600047782063484, -0.020686715841293335, 0.01145926583558321, 0.02927953191101551, 0.02193029224872589, -0.00684163486585021, -0.004510123748332262, -0.013302656821906567, 0.01831233687698841, -0.0072601246647536755, -0.009590369649231434, -0.024127591401338577, 0.0078870365396142, 0.020534759387373924, 0.0010917233303189278, 0.0037498262245208025, -0.015847908332943916, 0.017523111775517464, -0.0004541521775536239, -0.001912906882353127, 0.009558741003274918, 0.009663194417953491, -0.005160125903785229, -0.014963473193347454, -0.027982575818896294, -0.021398497745394707, -0.0009661374497227371, -0.011050167493522167, -0.00351310265250504, 0.013909966684877872, -0.000870037532877177], [0.005228912923485041, 0.03531704843044281, -0.024574706330895424, 0.04534528777003288, -0.004361568950116634, -0.0018523222533985972, 0.0016459382604807615, 0.03984764963388443, -0.05639129877090454, 0.016000494360923767, 0.010629451833665371, -0.003202977357432246, -0.035251665860414505, -0.00672723725438118, 0.02279208041727543, -0.00816457998007536, -0.01849099062383175, -0.02966628037393093, 0.04125470668077469, 0.009374484419822693, 0.015713147819042206, 0.005884020123630762, 0.010595535859465599, -0.012903324328362942, -0.03370240330696106, -0.018286630511283875, -0.058168474584817886, -0.005015033762902021, -0.028660571202635765, 0.0042847092263400555, 0.035146765410900116, 0.008211033418774605], [-0.008079718798398972, -0.07551919668912888, -0.05924263596534729, -0.030128661543130875, -0.002266278024762869, -0.011026623658835888, 0.0284782312810421, -0.03451469913125038, -0.051803503185510635, -0.024534426629543304, -0.05791616067290306, -0.057530298829078674, 0.052557460963726044, 0.030711831524968147, -0.03858208656311035, -0.02621242217719555, -0.003882898250594735, 0.02688083052635193, 0.07751180231571198, 0.018518947064876556, -0.02282690443098545, -0.00802950281649828, 0.009806381538510323, -0.04979162663221359, 0.07899712026119232, 0.04174747318029404, 0.06769567728042603, -0.0014942093985155225, 0.0327131487429142, 0.02084680274128914, -0.04398929700255394, 0.006247879005968571], [-0.025906432420015335, 0.07193338125944138, 0.04456676170229912, -0.030971253290772438, -0.012475262396037579, -0.00735047971829772, -0.0018865903839468956, 0.08330227434635162, -0.014392903074622154, 0.13533295691013336, 0.015298535116016865, 0.023715568706393242, -0.0060205357149243355, -0.01303990837186575, 0.03643083944916725, -0.024078980088233948, -0.0559765063226223, 0.017156759276986122, 0.0070142787881195545, 0.008773507550358772, 0.000995907816104591, 0.028206076472997665, -0.021850710734725, 0.12752696871757507, -0.04105893522500992, -0.030094418674707413, -0.03881808742880821, -0.007665291894227266, -0.060492366552352905, -0.012429694645106792, -0.008074990473687649, -0.0021438447292894125], [0.0036409087479114532, 0.07081582397222519, 0.026922959834337234, -0.01548928301781416, -0.004609262105077505, -0.015806352719664574, -0.0003868914791382849, 0.0458531491458416, 0.06122855097055435, 0.043581802397966385, 0.017351845279335976, -0.07081340998411179, -0.001452650991268456, -0.016214173287153244, 0.0752420648932457, 0.009779687039554119, -0.053268786519765854, -0.007897780276834965, 0.01817435584962368, 0.011251990683376789, -0.049958378076553345, 0.024654820561408997, -0.030621135607361794, -0.002732572378590703, -0.061696723103523254, -0.07537221908569336, -0.050917670130729675, -0.010310106910765171, -0.07296233624219894, 0.00014009600272402167, -0.0203012153506279, -0.0020211143419146538], [-0.05262438580393791, -0.017168987542390823, -0.02101914770901203, 0.0022065499797463417, -0.03642261400818825, -0.01809052564203739, -0.002319536404684186, -0.09183239936828613, -0.09760373085737228, 0.14428254961967468, 0.044482097029685974, 0.05813983455300331, 0.002067377557978034, -0.03843313828110695, 0.04582509770989418, -0.026569638401269913, -0.05723152309656143, 0.029040152207016945, -0.0716070681810379, 0.0066835093311965466, 0.009050769731402397, 0.05216218903660774, 0.0019943772349506617, 0.03945528343319893, -0.09788995236158371, -0.09772466868162155, -0.17981231212615967, -0.005450024735182524, -0.018606361001729965, 0.005806633271276951, -0.03250530734658241, -0.004076503682881594], [0.003704080358147621, 0.006637562531977892, -0.0005106037715449929, 0.0035395764280110598, 0.005676421336829662, 0.004538142122328281, -0.002375975949689746, -0.0014804505044594407, -0.0008248541271314025, -0.0011669022496789694, 0.0004192390479147434, -0.0012314033228904009, -0.007429882418364286, 0.0009598957258276641, 0.005028101149946451, 0.0010820747120305896, 0.0008027718286029994, -0.005987799726426601, 0.0024352241307497025, -0.0008265809156000614, 0.0011315947631374002, 0.0015063087921589613, 0.002587743569165468, -0.00024086044868454337, -0.004859442822635174, -0.007244066800922155, -0.006923395209014416, 5.014018825022504e-05, -0.003457960207015276, -0.0007608945015817881, 0.004547833930701017, -0.000291403237497434], [-0.015337491407990456, -0.029025502502918243, -0.03208227455615997, -0.05123506486415863, -0.028176192194223404, -0.03589688614010811, 0.014984830282628536, 0.007798199076205492, 0.06257887929677963, 0.04283047467470169, -0.002737118862569332, -0.09422027319669724, 0.04977882653474808, -0.0066228448413312435, 0.0179486945271492, -0.004684817977249622, -0.04692061245441437, -0.01548694632947445, -0.010674504563212395, 0.020063992589712143, -0.045806996524333954, -0.0005614773253910244, -0.055428631603717804, 0.07479441165924072, -0.003108668141067028, -0.005669199861586094, 0.019516998901963234, -0.008445333689451218, -0.04826198145747185, 0.023438716307282448, -0.04451139643788338, 0.002389953937381506], [0.006042818538844585, 0.003940619993954897, -0.06313598155975342, 0.02647537738084793, 0.02576919086277485, 0.014727924019098282, -0.004103266634047031, -0.004798727110028267, -0.02996375411748886, 0.03698825463652611, -0.010730596259236336, 0.05910569056868553, -0.02521146461367607, 0.013344887644052505, -0.012642022222280502, 0.0009280193480663002, 0.022573644295334816, 0.010551433078944683, 0.01898745261132717, 0.0009184714290313423, 0.02214185521006584, 0.0050407955422997475, 0.04093928635120392, 0.007472815457731485, 0.0181533582508564, -0.0009031817899085581, -0.00042624727939255536, 0.0013720913557335734, 0.021888308227062225, -0.01087582390755415, 0.03411252051591873, 0.001528934226371348], [0.0528872050344944, 0.08331815153360367, -0.033595580607652664, 0.17246100306510925, 0.021753450855612755, -0.0597277395427227, -0.0032108123414218426, 0.0053123366087675095, 0.007994705811142921, -0.07657600194215775, 0.019517751410603523, 0.01016225665807724, -0.05376923829317093, -0.029044440016150475, 0.025893326848745346, 0.014349431730806828, 0.01715623028576374, -0.09288439154624939, -0.01703028380870819, 0.00882809329777956, -0.034389737993478775, -0.027980979532003403, 0.0008057233062572777, -0.17501108348369598, -0.050535332411527634, -0.020684342831373215, -0.014727544039487839, -0.0006789661711081862, -0.04204963147640228, 0.05734270066022873, 0.06418602168560028, 0.008310312405228615], [0.001339373062364757, 0.004008919466286898, 0.006410907953977585, 0.0038133326452225447, 0.00030216039158403873, 0.001506152329966426, -0.0006650458672083914, 0.0021031054202467203, -0.004009059630334377, -0.005109362304210663, -0.0015738994115963578, 0.000569112366065383, -0.0014672005781903863, -0.00024518772261217237, 0.001301665441133082, 0.0012163957580924034, -0.0011985981836915016, 0.0013536433689296246, 0.005078727845102549, -0.000550775439478457, 0.0007634027278982103, -0.0012789875036105514, -0.001688027405180037, 0.0015047377673909068, -0.001963701331987977, -0.0001157780279754661, -0.0009898196440190077, 0.0002463865093886852, -0.0009158903267234564, 0.0010435179574415088, 0.000240687993937172, -0.00011459343659225851], [0.027589453384280205, 0.005754108540713787, -0.07512453198432922, 0.055900003761053085, 0.03924688696861267, 0.007892201654613018, -0.002680104225873947, -0.01597421057522297, 0.0016649123281240463, -0.01214679330587387, 0.001367397839203477, 0.028545677661895752, -0.05010800063610077, 0.009596978314220905, 0.005566747393459082, 0.014917047694325447, 0.033539023250341415, -0.03557305410504341, 0.024145593866705894, 0.004242126364260912, 0.010189988650381565, 0.0011786185204982758, 0.04305172339081764, -0.10091529041528702, -0.007571015972644091, -0.024012507870793343, -0.021715311333537102, 0.0005581298028118908, 0.011361914686858654, 8.562239236198366e-05, 0.055711422115564346, 0.006029039621353149], [0.020657887682318687, 0.5687079429626465, -0.07063619047403336, 0.1251721829175949, -0.07993284612894058, -0.17583362758159637, 0.009455764666199684, 0.3763350546360016, 0.06575628370046616, -0.08773183822631836, -0.07825567573308945, 0.05469100922346115, -0.03435668721795082, -0.11223025619983673, 0.35234785079956055, 0.06664122641086578, -0.23297788202762604, 0.15788447856903076, 0.3772360682487488, 0.030372152104973793, 0.008496362715959549, 0.02740529552102089, -0.005418592132627964, -0.0785420760512352, -0.018530961126089096, -0.12927734851837158, -0.28463202714920044, 0.015532313846051693, -0.2627119719982147, 0.04265574365854263, -0.24918590486049652, 0.005056109745055437], [0.000541280722245574, -0.0028844387270510197, -0.15499411523342133, 0.009758561849594116, -0.03313495218753815, -0.034615613520145416, -0.008942008949816227, 0.06724497675895691, 0.016430407762527466, -0.09370021522045135, 0.008469360880553722, -0.10630399733781815, 0.016494549810886383, -0.0002260361216031015, 0.02466432750225067, 0.17645670473575592, -0.04552250728011131, -0.025070948526263237, 0.09555599838495255, 0.00291526154614985, -0.07790404558181763, -0.011261580511927605, 0.019375339150428772, -0.23256991803646088, 0.013387367129325867, -0.0001854691799962893, 0.02079506404697895, -0.00299090682528913, 0.021694207563996315, 0.0450163334608078, -0.14366477727890015, -0.009124691598117352], [0.03537746146321297, -0.010921325534582138, -0.221464142203331, 0.08141787350177765, 0.058027151972055435, 0.05675096437335014, -0.029722684994339943, -0.08419499546289444, 0.019079841673374176, 0.06533389538526535, -0.005923476070165634, 0.04808769002556801, -0.08305616676807404, 0.026527920737862587, -0.007153099402785301, 0.02932381071150303, 0.0745161771774292, -0.008079782128334045, 0.020820295438170433, -0.018490681424736977, 0.10677822679281235, -0.00025919300969690084, 0.08433403074741364, -0.10075085610151291, 0.011831320822238922, 0.01990232989192009, -0.028559349477291107, 0.005188436713069677, -0.03363915532827377, -0.05784643068909645, 0.14940643310546875, -0.0007201049011200666], [0.0484376959502697, -0.025019623339176178, -0.040304310619831085, 0.0596010722219944, 0.19000428915023804, 0.17462532222270966, -0.022710314020514488, -0.2187938094139099, -0.030123380944132805, 0.08713477849960327, -0.0317753404378891, 0.06556764245033264, -0.12708958983421326, 0.06036790832877159, -0.018762430176138878, 0.02020801045000553, 0.2716793417930603, -0.15052683651447296, -0.18134406208992004, -0.015511778183281422, 0.05482059717178345, 0.015614929609000683, 0.05795164406299591, 0.041384730488061905, 0.0102596590295434, -0.01407311949878931, -0.012938388623297215, 0.0020335372537374496, 0.04599754512310028, -0.04193896800279617, 0.182962104678154, -0.0016664740396663547], [0.01627895049750805, -0.0018715305486693978, -0.023161135613918304, -0.03445121645927429, 0.08168148994445801, 0.08561599999666214, -0.019608162343502045, -0.09801200777292252, 0.021321222186088562, 0.05851251259446144, -0.003306607250124216, -0.0002724603400565684, -0.05591709539294243, 0.03312339261174202, -0.013114271685481071, 0.0012968693627044559, 0.09462165087461472, -0.04616812616586685, -0.03705722093582153, -0.013509850949048996, 0.05671560764312744, 0.011196527630090714, 0.06495486199855804, 0.08445034921169281, 0.01909434236586094, 0.0026004414539784193, -0.0065746973268687725, 0.002571438904851675, 0.0008556796237826347, -0.04448915645480156, 0.08864402025938034, -0.0036082242149859667], [0.0037064338102936745, 0.0032840934582054615, 0.015200869180262089, -0.006201953627169132, 0.0029207963962107897, 0.006432525813579559, -0.004105481319129467, 0.002625000197440386, 0.004116457886993885, -0.003285657148808241, -0.0016327367629855871, -0.004483123309910297, -0.008510212413966656, 0.0017167553305625916, 0.0030841745901852846, 0.012111988849937916, -0.004894127603620291, -0.0011015417985618114, 0.002384498715400696, -0.0038486237172037363, 0.002275393810123205, -0.0012812474742531776, -0.00012620534107554704, 0.028892165049910545, -0.003705472918227315, -0.00534594152122736, -0.005653900094330311, 0.0018497613491490483, -0.006582595407962799, -0.001965447561815381, -0.0029016640037298203, -0.0019399665761739016], [0.062362056225538254, 0.4240427315235138, -0.2213602066040039, 0.1205950602889061, 0.26066040992736816, 0.19640828669071198, 0.03078554943203926, -0.15145106613636017, -0.018902722746133804, 0.009908633306622505, -0.16369329392910004, 0.025261642411351204, -0.11862785369157791, 0.003488322952762246, 0.2331087291240692, 0.043982889503240585, -0.030081532895565033, -0.1585511714220047, -0.111259825527668, 0.04201687499880791, -0.07118946313858032, 0.04637087881565094, -0.014397276565432549, -0.0026864216197282076, 0.04917681962251663, -0.010355987586081028, -0.08678018301725388, -0.0038883707020431757, -0.12471885234117508, -0.021879710257053375, 0.11850639432668686, 0.020219378173351288], [0.11459267884492874, 0.00012838095426559448, -0.11804887652397156, -0.06306011229753494, 0.026594655588269234, -0.04398354887962341, -0.015815529972314835, -0.035540465265512466, 0.23596592247486115, 0.021553073078393936, 0.03206842020153999, -0.1603444367647171, -0.01268782652914524, 0.029879258945584297, 0.1986367255449295, 0.03262525424361229, -0.025793543085455894, -0.028412768617272377, 0.004338628146797419, 0.05438424274325371, -0.16277575492858887, -0.005099695175886154, 0.01900935173034668, 0.056677158921957016, -0.07251949608325958, -0.09182187169790268, 0.051094043999910355, -0.0053014615550637245, -0.21725597977638245, -0.019717037677764893, 0.12034010887145996, 0.003999191801995039], [-0.017659824341535568, -0.0916891023516655, 0.06337331235408783, -0.05093128979206085, 0.007392027415335178, 0.01927863247692585, 0.00858903769403696, -0.05901625007390976, 0.029863519594073296, 0.11402943730354309, -0.012625469826161861, 0.01763841137290001, -0.006242512725293636, 0.019320184364914894, -0.03889929875731468, -0.02720561996102333, 0.02072492055594921, 0.0080617880448699, -0.060341719537973404, -0.00018839596305042505, 0.013715192675590515, 0.013281770050525665, -0.0012925690971314907, -0.006481186021119356, 0.040723901242017746, 0.03736356645822525, 0.020657828077673912, 0.003306069178506732, -0.009745602495968342, -0.03267110511660576, 0.023451711982488632, -0.0033544604666531086], [-0.0025503505021333694, 0.026603149250149727, -0.0015373047208413482, 0.0066676149144768715, -0.005478079430758953, -0.014908409677445889, 0.0014262396143749356, 0.03592734411358833, 0.006217270158231258, 0.02489437349140644, 0.01662416011095047, -0.0005826918641105294, -0.008255543187260628, -0.008042881265282631, 0.024919500574469566, -0.0057242149487137794, -0.022388217970728874, 0.0032218913547694683, 0.022520827129483223, 0.00681788194924593, -0.013588063418865204, 0.01176413893699646, 0.0024565663188695908, -0.007037221919745207, -0.01900801993906498, -0.026564134284853935, -0.026115767657756805, -0.004517972469329834, -0.015971830114722252, -0.0019867452792823315, -0.005650268867611885, 0.001995950238779187], [0.1643730252981186, 0.07405350357294083, 0.0004702405713032931, 0.12076882272958755, 0.08976593613624573, 0.1388716846704483, -0.05259853973984718, -0.13571439683437347, -0.06234540790319443, 0.1911553591489792, -0.26184433698654175, 0.47271472215652466, -0.13291335105895996, 0.09850058704614639, 0.040644679218530655, 0.15216335654258728, 0.1960032433271408, 0.2024800181388855, 0.14782074093818665, 0.04005686938762665, -0.1254463791847229, -0.03811260312795639, 0.01959335245192051, 0.06954776495695114, -0.023261280730366707, -0.012113639153540134, -0.013051475398242474, 0.003706880146637559, -0.0021525227930396795, 0.03035002015531063, 0.18275542557239532, -0.01335503626614809], [0.10033796727657318, 0.04512399062514305, -0.017178913578391075, 0.1630314737558365, 0.14969556033611298, 0.14341318607330322, -0.04639583081007004, -0.12962882220745087, -0.06686390191316605, -0.0675402507185936, -0.040087051689624786, 0.21637976169586182, -0.234080508351326, 0.05265146121382713, -0.028675733134150505, 0.1615504026412964, 0.18098187446594238, -0.05900263413786888, 0.005216020625084639, -0.036696165800094604, 0.07370401173830032, -0.028069552034139633, 0.09439961612224579, -0.027732662856578827, 0.004227529279887676, -0.043806929141283035, -0.05506770685315132, 0.02421691082417965, 0.08884972333908081, -0.024959009140729904, 0.13193340599536896, -0.005900681018829346], [0.008835498243570328, 0.03394824266433716, 0.01702280342578888, 0.011708115227520466, 0.025151686742901802, 0.023882348090410233, -0.010301952250301838, -0.0104764923453331, -0.005949393846094608, 0.02181866206228733, 0.004627050366252661, 0.011862481944262981, -0.03669975325465202, 0.001812667353078723, 0.016136599704623222, 0.021387407556176186, 0.003454864025115967, -0.015683278441429138, 0.00011688694212352857, -0.004290402866899967, 0.011113275773823261, 0.007957643829286098, 0.008406850509345531, 0.04498317092657089, -0.021449651569128036, -0.02374342270195484, -0.030877158045768738, 5.5952914408408105e-05, -0.0171466413885355, -0.008796023204922676, 0.023985428735613823, -0.0023692860268056393], [0.006690040696412325, 0.13566619157791138, -0.007637352216988802, -0.008109208196401596, -0.00993944052606821, -0.02059023454785347, -0.01661309041082859, 0.1139102578163147, 0.11707356572151184, 0.06676390022039413, 0.02552216872572899, -0.03537559509277344, -0.021249020472168922, -0.013465091586112976, 0.09362254291772842, 0.033901166170835495, -0.10125968605279922, -0.009505976922810078, 0.08297663182020187, 0.007281010504812002, -0.05398363247513771, 0.031569015234708786, 0.006142997648566961, 0.029768003150820732, -0.06909152865409851, -0.10974998772144318, -0.08407590538263321, -0.006172738038003445, -0.10550566017627716, -0.0027238752227276564, -0.010017753578722477, -0.008766709826886654], [0.021552305668592453, -0.009902740828692913, -0.030755598098039627, -0.075221948325634, -0.030167382210493088, -0.036964051425457, 0.003949139732867479, 0.07029309123754501, 0.15518441796302795, -0.03853876143693924, 0.024526504799723625, -0.13750223815441132, 0.01368137076497078, -0.003732068696990609, 0.04569220170378685, 0.024218106642365456, -0.058312058448791504, 0.0030677400063723326, -0.0024591509718447924, 0.012868604622781277, -0.017956793308258057, 0.0014354990562424064, -0.004569127690047026, 0.08102584630250931, -0.03152614086866379, -0.06201864406466484, -0.040471870452165604, -0.003253124188631773, -0.055328670889139175, 0.0050779771991074085, -0.023261675611138344, 0.004757475107908249], [0.07966712862253189, 0.19396620988845825, -0.1045503094792366, 0.10605072230100632, 0.17825983464717865, 0.10732468217611313, -0.007948503829538822, -0.14764361083507538, 0.04837147891521454, 0.09001559019088745, -0.047459062188863754, -0.025835182517766953, -0.06733522564172745, 0.061415158212184906, 0.06189309060573578, 0.04150313884019852, 0.15486709773540497, -0.12313919514417648, -0.03401780128479004, 0.01290946640074253, -0.04157019779086113, 0.011653762310743332, 0.037960994988679886, 0.09497640281915665, -0.01736495830118656, -0.05121423304080963, -0.03425353020429611, -0.0024269132409244776, -0.03727221488952637, 0.014381439425051212, 0.12857367098331451, 0.008200193755328655], [0.06812109053134918, -0.07527600228786469, -0.03097587823867798, 0.03105769492685795, 0.2956445515155792, 0.24624353647232056, -0.032250262796878815, -0.2484007328748703, -0.044232700020074844, 0.1347871869802475, -0.06657278537750244, 0.13673444092273712, -0.2203454226255417, 0.15766780078411102, -0.0229126438498497, 0.08051784336566925, 0.28771018981933594, -0.35284435749053955, -0.26712462306022644, -0.017595360055565834, -0.02105499431490898, 0.022770168259739876, -0.01221251580864191, 0.13195078074932098, -0.014208333566784859, -0.03310553357005119, -0.0028277600649744272, 0.010638329200446606, 0.05733161047101021, -0.009912383742630482, 0.25763651728630066, -0.016442764550447464], [0.0867457464337349, 0.32828497886657715, 0.02774915285408497, 0.00871302466839552, 0.20043891668319702, 0.14900550246238708, -0.008674758486449718, -0.052681814879179, -0.053771067410707474, -0.029617147520184517, -0.06537650525569916, 0.11069631576538086, -0.14982953667640686, 0.0946497693657875, 0.11457179486751556, 0.04708173871040344, 0.027213087305426598, -0.15292677283287048, -0.08883436024188995, 0.0018422105349600315, 0.025604110211133957, 0.05726737901568413, 0.11698131263256073, 0.31446123123168945, 0.007686857599765062, -0.09786317497491837, -0.19147107005119324, -0.006876486819237471, 0.061899520456790924, -0.024723807349801064, 0.16508175432682037, 0.01934138312935829], [0.0009996863082051277, 0.0012434730306267738, 0.015636641532182693, -0.0036334656178951263, 0.00405571423470974, 0.009876057505607605, -0.003443479770794511, -0.003512183204293251, -0.0016088357660919428, 0.0025875086430460215, -0.0018351988401263952, 0.007437366992235184, -0.007839666679501534, 0.0019527908880263567, -0.00028319688863120973, 0.003277245908975601, 0.003241534810513258, 0.0005442093242891133, -0.004168214742094278, -0.0036714773159474134, 0.0038768192753195763, 0.0007765960181131959, -0.0024343575350940228, 0.011361871846020222, -0.0026319173630326986, -0.0026295208372175694, -0.003849651664495468, 0.0015816546510905027, -0.0005006328574381769, -0.0034121223725378513, 0.00198842934332788, -0.001987398136407137], [0.041900329291820526, -0.0030766883864998817, -0.010241719894111156, 0.027039509266614914, 0.028322767466306686, 0.005805134307593107, -0.001740931300446391, 0.018930649384856224, 0.04212174937129021, 0.021851863712072372, 0.010047736577689648, -0.09202177822589874, -0.04334459453821182, 0.011185349896550179, 0.026478499174118042, -0.025736935436725616, -0.017195243388414383, -0.09885550290346146, -0.0012354792561382055, 0.01322902925312519, 0.0018588952952995896, 0.004805673845112324, 0.04024594649672508, -0.08793955296278, -0.014380198903381824, -0.03376176953315735, -0.013969081453979015, -0.002395774470642209, -0.056728534400463104, -0.009985462762415409, 0.061928920447826385, 0.008965262211859226], [0.0040054405108094215, 0.00417448440566659, -0.020954640582203865, -0.005620879121124744, 0.02901754528284073, 0.00786975771188736, -0.001727467868477106, -0.01684085838496685, 0.020512834191322327, 0.06498175114393234, 0.014289172366261482, -0.015588871203362942, -0.028421759605407715, 0.0027395011857151985, 0.024018751457333565, -0.020439891144633293, 0.013614648021757603, -0.03525204956531525, -0.02173892967402935, 0.006199229042977095, -0.005262886174023151, 0.01943838596343994, 0.01146578136831522, 0.006910869386047125, -0.0166216641664505, -0.03666980192065239, -0.034339118748903275, -0.005314619746059179, -0.02075948566198349, -0.011396240442991257, 0.026749996468424797, 0.0018979834858328104], [0.0132051482796669, 0.04241339489817619, -0.07609689980745316, 0.05946376547217369, 0.017590085044503212, 0.032975565642118454, -0.012083793058991432, 0.046502090990543365, -0.10605505108833313, 0.025850916281342506, 0.002963635139167309, 0.024427251890301704, -0.05858049914240837, 0.009068341925740242, 0.004846744239330292, -0.014507726766169071, -0.007603019941598177, -0.04300108179450035, 0.09318187087774277, -2.4726723495405167e-05, 0.06294042617082596, 0.008010344579815865, 0.07178293913602829, -0.008656203746795654, -0.02005915343761444, -0.013402659446001053, -0.06938240677118301, -0.0004048967966809869, -0.033061616122722626, -0.016984617337584496, 0.08359886705875397, 0.00806411076337099], [-0.044996120035648346, -0.17075514793395996, 0.0834541842341423, -0.1309041976928711, -0.06466421484947205, -0.028165247291326523, 0.037711627781391144, -0.07032299786806107, 0.028244873508810997, -0.0783790796995163, -0.011465325951576233, -0.054593149572610855, 0.08509798347949982, 0.026884539052844048, -0.09049229323863983, -0.03514527902007103, 0.0345403254032135, 0.038775425404310226, -0.021008403971791267, 0.011940988712012768, -0.02911515161395073, -0.021334141492843628, 0.010440287180244923, 0.0022943057119846344, 0.14911161363124847, 0.07664588838815689, 0.07361859083175659, 0.00010051229037344456, 0.09419755637645721, 0.00865001417696476, -0.0994245857000351, 0.0037332975771278143], [-0.03135126084089279, 0.1601562350988388, 0.03020286187529564, -0.029278630390763283, -0.01412306446582079, 0.0008497120579704642, -0.007943755015730858, 0.14501690864562988, -0.021130256354808807, 0.1924547553062439, 0.0211675763130188, 0.04010654240846634, -0.010325231589376926, -0.01575653627514839, 0.06073170527815819, -0.031645268201828, -0.09229644387960434, 0.03825383260846138, 0.06141393631696701, 0.007740316446870565, 0.006322737783193588, 0.041690293699502945, -0.007720727939158678, 0.13272365927696228, -0.05714625120162964, -0.05239822715520859, -0.0655473917722702, -0.00979136023670435, -0.08549235761165619, -0.029065141454339027, -0.0048751225695014, -0.0058093867264688015], [0.0007263267179951072, 0.10609812289476395, 0.044463567435741425, -0.03564917668700218, -0.0084659643471241, -0.027507849037647247, 0.0014050945173949003, 0.06975079327821732, 0.11080614477396011, 0.09925798326730728, 0.03757001832127571, -0.12274014949798584, 0.0007980649825185537, -0.02743155136704445, 0.12646713852882385, 0.011862143874168396, -0.08634065836668015, -0.01618536002933979, 0.006431465968489647, 0.01943778060376644, -0.08323235809803009, 0.044568076729774475, -0.04917844384908676, 0.049240097403526306, -0.1060175970196724, -0.1285277009010315, -0.08734503388404846, -0.01765141822397709, -0.125958651304245, -0.0028814084362238646, -0.026975790038704872, -0.0029680526349693537], [-0.042821355164051056, 0.4371534585952759, -0.08741582185029984, 0.08627350628376007, -0.04167051613330841, -0.03770812973380089, -0.012240465730428696, 0.2769741117954254, -0.16501766443252563, 0.14191964268684387, 0.05109603330492973, 0.11736340820789337, -0.032224804162979126, -0.06841647624969482, 0.19388248026371002, 0.07364726811647415, -0.2772045135498047, 0.06987425684928894, 0.21312151849269867, 0.0023167512845247984, 0.006186159327626228, 0.061418164521455765, 0.011620263569056988, 0.053510766476392746, -0.18201974034309387, -0.18321283161640167, -0.34284043312072754, -0.006261663977056742, -0.06133760139346123, 0.0029312092810869217, -0.07628848403692245, -0.007628943305462599], [0.0023882791865617037, 0.004760990850627422, 0.0017172815278172493, 0.001697413856163621, 0.004171997308731079, 0.0025814049877226353, -0.001791081391274929, -5.28951313754078e-05, 0.0005560653517022729, 0.0033549033105373383, 0.001698241918347776, -0.0017422963865101337, -0.006386743392795324, 0.0002446872240398079, 0.0044611063785851, 0.0017025315901264548, -0.0004253796359989792, -0.005808692891150713, 0.0008573546074330807, -0.0002892772317864001, 0.0012662246590480208, 0.0016606847057119012, 0.002582945628091693, 0.007609332911670208, -0.004644688218832016, -0.006108635105192661, -0.006867684423923492, -0.00019656516087707132, -0.004620415158569813, -0.0012069224612787366, 0.004552680999040604, -7.687012839596719e-05], [-0.021355004981160164, -0.030057169497013092, 0.026743527501821518, -0.09925594180822372, -0.02836454100906849, -0.0070199850015342236, 0.0012976676225662231, 0.008946954272687435, 0.13022321462631226, 0.07508879154920578, 0.013922546990215778, -0.14543487131595612, 0.04194781929254532, -0.008371945470571518, 0.04004334658384323, 0.018124239519238472, -0.05320204049348831, -0.021351948380470276, -0.08088120073080063, 0.007917972281575203, -0.050499603152275085, 0.0012237130431458354, -0.0741472840309143, 0.16919155418872833, -0.03293237090110779, -0.023113848641514778, 0.019436398521065712, -0.006844992283731699, -0.08908122032880783, 0.004671973176300526, -0.03837300464510918, -0.00807559210807085], [0.004239927977323532, 0.005171680357307196, -0.052571527659893036, 0.032991837710142136, 0.025381729006767273, 0.013679479248821735, -0.006225996650755405, 0.004081841558218002, -0.026308538392186165, 0.044274356216192245, -0.003783938242122531, 0.0982818454504013, -0.0451490618288517, 0.008751765824854374, -0.017398832365870476, -0.005471311043947935, 0.026256002485752106, 0.018750207498669624, 0.004211937077343464, -0.0021245034877210855, 0.030384520068764687, 0.005793696269392967, 0.03401576727628708, -0.024778934195637703, 0.01512938179075718, -0.0021177020389586687, -0.009271974675357342, 0.0030543613247573376, 0.026302531361579895, -0.01686670444905758, 0.04008279740810394, 0.0004137617361266166], [0.06558465212583542, 0.06067971512675285, -0.034942008554935455, 0.15994316339492798, 0.14413151144981384, 0.07617401331663132, -0.021930314600467682, -0.12992700934410095, -0.06009244546294212, -0.004015697631984949, -0.029738590121269226, 0.015011469833552837, -0.07870925962924957, 0.029254121705889702, -0.005588720086961985, 0.05603870749473572, 0.12853392958641052, -0.09648989140987396, -0.07734522223472595, -0.011783911846578121, 0.015594996511936188, -0.02393331751227379, 0.058337464928627014, 0.008357342332601547, -0.014993459917604923, 0.004928888287395239, 0.007102042902261019, 0.005099484231323004, -0.012491155415773392, 0.01879645697772503, 0.1432885378599167, 0.0015919175930321217], [0.0012502586469054222, 0.0009463889873586595, 0.008760676719248295, 0.0021039678249508142, 0.0005404995172284544, 0.002581146312877536, -0.000994630972854793, -0.0011218790896236897, -0.0020396201871335506, -0.00583048677071929, -0.0012036148691549897, 0.00036339127109386027, -0.0017148531042039394, 0.0001706607872620225, 0.00028503977227956057, 0.0018868750194087625, 0.0008573633967898786, 0.0002556410327088088, 0.0007846335065551102, -0.0011049206368625164, 0.0008526168530806899, -0.0014469717862084508, -0.0019083523657172918, 0.0037337474059313536, -0.001487447996623814, -7.801350875524804e-05, -0.0007841577753424644, 0.0004947688430547714, -0.00018621550407260656, 0.0008712726412340999, 0.0005345757235772908, -0.00041471561416983604], [-0.03939962014555931, 0.05820351094007492, 0.16057537496089935, 0.06281677633523941, 0.027007900178432465, 0.0701293796300888, -0.003901490243151784, -0.013256157748401165, 0.24269676208496094, -0.07437396049499512, -0.01687478832900524, -0.09947855025529861, -0.09785301983356476, 0.03567776829004288, 0.023560112342238426, 0.42279523611068726, 0.12628038227558136, -0.014662672765552998, 0.13741733133792877, -0.0005106801399961114, 0.01040530763566494, -6.398280675057322e-05, 0.16267071664333344, -0.18580472469329834, 0.029713397845625877, -0.017273925244808197, -0.03498976305127144, -0.012485988438129425, 0.02769240364432335, 0.0025466473307460546, 0.11337324976921082, 0.013790279626846313], [0.058032114058732986, 0.13375802338123322, -0.0015086815692484379, -0.0735124871134758, -0.15593622624874115, -0.07838349789381027, 0.017443696036934853, 0.2797482907772064, -0.09976643323898315, 0.11913687735795975, 0.1592893898487091, 0.19986338913440704, 0.023964203894138336, -0.06901909410953522, 0.12983815371990204, -0.11031439155340195, -0.16038882732391357, 0.13543403148651123, 0.0910353735089302, -0.05677485466003418, 0.03390159830451012, 0.034084856510162354, -0.12657684087753296, -0.0124706095084548, -0.114968441426754, 0.15788623690605164, -0.07038450241088867, -0.05766753852367401, -0.2827075123786926, -0.16805554926395416, -0.0021335738711059093, 0.030118143185973167], [-0.2542639970779419, -0.261635959148407, 0.5566923022270203, -0.298613041639328, -0.020333288237452507, -0.07216345518827438, 0.08442366868257523, -0.005284579936414957, -0.33091601729393005, 0.8166255354881287, 0.05333622545003891, -0.09622164815664291, -0.0855717584490776, -0.027948813512921333, 0.03816564753651619, -0.3777463734149933, -0.33617955446243286, -0.011490418575704098, -0.38014861941337585, 0.10165630280971527, -0.06564904004335403, 0.008164707571268082, -0.2703961431980133, 1.326562762260437, 0.05381104722619057, 0.17953523993492126, 0.11538538336753845, -0.003993471618741751, -0.4125482439994812, -0.07840942591428757, 0.006962938234210014, 0.009658528491854668], [-0.04501495137810707, 0.32621046900749207, -0.12292373925447464, 0.06146674230694771, 0.14069510996341705, 0.11011119186878204, -0.06199533864855766, -0.03853572532534599, -0.17265969514846802, -0.23848000168800354, 0.005562118254601955, -0.0015370578039437532, -0.185746967792511, -0.014326064847409725, 0.0016685053706169128, 0.429144948720932, 0.16765594482421875, 0.08096281439065933, 0.25313329696655273, -0.04725139960646629, 0.07000203430652618, -0.04572097584605217, -0.2056296020746231, -0.31393805146217346, -0.13968315720558167, -0.13477781414985657, -0.07899617403745651, 0.015538346022367477, 0.22653183341026306, 0.06872067600488663, -0.08871332556009293, -0.018007993698120117], [-0.04065198823809624, -0.11601924151182175, 0.03027176670730114, 0.01336720958352089, 0.12338298559188843, 0.057894494384527206, -0.03502202033996582, -0.18095116317272186, 0.04510151594877243, -0.030734414234757423, -0.06724268943071365, -0.03614896908402443, -0.1173911914229393, -0.05383516848087311, -0.029865801334381104, 0.14011584222316742, 0.22475562989711761, -0.1992863267660141, -0.08969345688819885, 0.05019233748316765, 0.04299257695674896, -0.02925022505223751, 0.004318167921155691, -0.03625669330358505, -0.06710577011108398, -0.012297382578253746, -0.06837458908557892, -0.023601751774549484, 0.260762482881546, -0.006942096631973982, 0.16557572782039642, 0.00484396331012249], [-0.024315297603607178, 0.046699538826942444, 0.13876810669898987, 0.06580226868391037, 0.10620982944965363, 0.03965716436505318, -0.03692341595888138, -0.190145343542099, -0.07403185218572617, 0.22364822030067444, 0.1307535171508789, -0.011836603283882141, -0.09065786004066467, -0.05120223015546799, -0.02109117992222309, 0.0033754941541701555, 0.11393413692712784, -0.03897858038544655, -0.06161079555749893, -0.013655049726366997, 0.08390261232852936, 0.03113478422164917, 0.0796697661280632, 0.2839723825454712, 0.07184390723705292, 0.004442697390913963, -0.1698477566242218, -0.00958468671888113, 0.06274043023586273, -0.048585500568151474, 0.24044013023376465, 0.027856847271323204], [-0.1381356418132782, -0.08268837630748749, 0.1094028502702713, -0.0591387040913105, 0.018309906125068665, -0.01834581419825554, -0.024881763383746147, -0.09497558325529099, -0.10413310676813126, 0.10556543618440628, 0.054643500596284866, -0.055663641542196274, 0.013692540116608143, -0.019769351929426193, -0.062106601893901825, 0.1336749792098999, -0.03444284573197365, 0.02175961062312126, -0.0004412540583871305, -0.02798369713127613, 0.08112481981515884, -0.010553778149187565, -0.04378799721598625, -0.3130268454551697, 0.02240169607102871, 0.10972889512777328, 0.10340598970651627, -0.0069356877356767654, 0.029833877459168434, -0.011182987131178379, -0.16387861967086792, -0.007845469750463963], [-0.14946813881397247, 0.4545600414276123, 0.047011472284793854, -0.044647663831710815, -0.2686770558357239, -0.024058936163783073, -0.03569398447871208, 0.4367981255054474, -0.021792124956846237, 0.2047645002603531, 0.1395624279975891, 0.02877974696457386, 0.057439662516117096, -0.16235701739788055, 0.08445505052804947, -0.16176122426986694, -0.19413995742797852, 0.06552992761135101, 0.09414318203926086, 0.07268045842647552, -0.05985771492123604, 0.06873416900634766, -0.028974680230021477, 0.0900975838303566, -0.024471798911690712, -0.1407124102115631, 0.04123204946517944, 0.016555050387978554, -0.11556805670261383, 0.01120415236800909, -0.2062876671552658, -0.044446006417274475], [0.06578924506902695, 0.04659244418144226, -0.15233097970485687, -0.5789200663566589, 0.04258156940340996, 0.09578722715377808, -0.05212698504328728, -0.03182024136185646, 0.35860320925712585, 0.049635279923677444, -0.02696259878575802, -0.6098999977111816, 0.031082013621926308, -0.02120940387248993, 0.0922885611653328, 0.23814503848552704, 0.04535910114645958, 0.054957132786512375, 0.025127792730927467, -0.09483266621828079, 0.00654867896810174, -0.019253041595220566, -0.06610138714313507, -0.17221562564373016, 0.06481754779815674, 0.03482946380972862, 0.019211065024137497, -0.023793425410985947, -0.07329674810171127, -0.029456768184900284, -0.078065887093544, -0.007353424560278654], [0.32559481263160706, -0.29804643988609314, 0.09278178960084915, 0.3092748820781708, 0.1238744705915451, -0.1981905996799469, 0.23950517177581787, 0.018383409827947617, -0.025343680754303932, -0.05478723719716072, 0.014751282520592213, 0.7472419142723083, -0.35307803750038147, 0.17509594559669495, -0.03377104178071022, -1.106308937072754, -0.20567375421524048, -0.399279922246933, -0.4526606798171997, 0.024843571707606316, -0.2520301640033722, 0.51470547914505, 0.041488632559776306, 0.24989575147628784, 0.09565284848213196, -0.18636319041252136, 0.16957716643810272, 0.07350455224514008, -0.6177408695220947, -0.28810736536979675, 0.3128622770309448, 0.06541090458631516], [0.03704337775707245, 0.10925626754760742, -0.13639014959335327, 0.02095923013985157, 0.03435032069683075, -0.008725075051188469, -0.05118895694613457, 0.026807060465216637, -0.11956826597452164, 0.005303531885147095, -0.08762537688016891, -0.11997280269861221, -0.00027875707019120455, -0.02341158501803875, 0.09861131757497787, -0.06830351054668427, -0.16378948092460632, -0.09672578424215317, -0.11355290561914444, -0.048670995980501175, -0.01379331387579441, 0.023213984444737434, 0.006969859357923269, -0.1205313578248024, -0.0698239877820015, -0.008035126142203808, -0.04029352590441704, 0.016183096915483475, -0.17723146080970764, -0.053551044315099716, -0.026465315371751785, -0.03280046582221985], [-0.02287631668150425, 0.025253521278500557, -0.05489575117826462, -0.0371011383831501, 0.05662403628230095, 0.0632900595664978, -0.005138635169714689, 0.142021045088768, -0.2539185881614685, -0.13809305429458618, -0.17098993062973022, 0.4455586075782776, -0.08296900987625122, -0.01018983218818903, -0.21644657850265503, 0.28853824734687805, 0.2257276177406311, 0.08689922094345093, 0.06715162843465805, -0.060423050075769424, -0.02205272577702999, -0.07829764485359192, 0.011609689332544804, -0.127401664853096, 0.06029617786407471, 0.07176632434129715, -0.01241322048008442, -0.005732741206884384, 0.22362816333770752, 0.028887420892715454, 0.009976483881473541, -0.004769599996507168], [0.004020589869469404, -0.1821940392255783, -0.15648941695690155, -0.0895913764834404, -0.01660502888262272, -0.018075568601489067, 0.04674253985285759, 0.07107756286859512, -0.17529404163360596, -0.022585643455386162, 0.029019435867667198, -0.090247243642807, 0.28786981105804443, -0.01255954522639513, -0.07608196139335632, -0.008990347385406494, 0.008346394635736942, 0.16985246539115906, -0.10092908889055252, -0.05809016153216362, -0.17638558149337769, 0.015116834081709385, 0.02113681472837925, -0.06176583096385002, 0.025393493473529816, 0.19225385785102844, 0.19385331869125366, 0.014961033128201962, -0.04681699723005295, -0.029070382937788963, -0.16015996038913727, -0.044878944754600525], [-0.07004956156015396, -0.14683538675308228, -0.015256257727742195, -0.015427986159920692, 0.09067541360855103, 0.004236006643623114, 0.021228590980172157, -0.058597974479198456, 0.10064272582530975, 0.02057638391852379, 0.026974815875291824, -0.03944718837738037, -0.12237304449081421, 0.05146967992186546, -0.03316845744848251, 0.08723505586385727, 0.11712582409381866, -0.06478280574083328, 0.03579958155751228, 0.023218117654323578, 0.027090972289443016, -0.03962870314717293, 0.13396593928337097, 0.05859612300992012, 0.15252894163131714, 0.01926244981586933, -0.0712040513753891, -0.006787466816604137, 0.18390382826328278, 0.009159935638308525, 0.12546402215957642, 0.028641244396567345], [-0.004302921239286661, 0.28694379329681396, -0.05168124660849571, -0.08931540697813034, 0.02664824016392231, 0.09508220106363297, -0.07307044416666031, 0.15278483927249908, 0.008457712829113007, 0.037882979959249496, 0.012675536796450615, -0.275698721408844, -0.1924632042646408, -0.03954523801803589, 0.11770167201757431, 0.03376920893788338, -0.0766621008515358, -0.0831615999341011, -0.19448794424533844, -0.07599783688783646, -0.0807856023311615, -0.08829555660486221, -0.12378405034542084, -0.13199405372142792, -0.05358657240867615, -0.0065829092636704445, -0.08502210676670074, 0.029532093554735184, -0.035341374576091766, 0.1010531559586525, 0.007257964462041855, -0.03545957803726196], [0.03928357735276222, 0.18597082793712616, 0.03570503368973732, -0.03971140831708908, -0.1615259200334549, -0.1382189691066742, -0.028491200879216194, -0.003012192202731967, 0.19240595400333405, 0.4745159149169922, 0.18526162207126617, -0.42021122574806213, 0.2099456489086151, -0.17569419741630554, 0.09849005937576294, -0.16130134463310242, 0.010199169628322124, -0.0850553885102272, 0.22623194754123688, 0.16998092830181122, -0.0626659095287323, -0.30977392196655273, -0.1974760740995407, 0.42945924401283264, -0.18357163667678833, -0.29617738723754883, -0.5099015831947327, -0.04841908812522888, 0.33277571201324463, 0.6987504959106445, -0.02860099822282791, 0.056935135275125504], [0.10113080590963364, -0.04882057011127472, 0.0547807440161705, -0.15220247209072113, 0.16649889945983887, 0.18953146040439606, -0.09829524159431458, -0.2359761893749237, -0.03000555746257305, 0.0007869605906307697, 0.008225665427744389, -0.02342853508889675, 0.014411349780857563, 0.11732463538646698, -0.19416962563991547, 0.10940023511648178, 0.1869179904460907, -0.02124580554664135, 0.06407631188631058, -0.07770612835884094, 0.04809817299246788, -0.11751769483089447, -0.07675323635339737, -0.18711397051811218, 0.028524110093712807, 0.05402767285704613, -0.005926989484578371, 0.0717272236943245, 0.2743609845638275, 0.07250025123357773, 0.17202983796596527, -0.07956105470657349], [0.0920032411813736, 0.2370394766330719, 0.055957209318876266, 0.04852338880300522, -0.18476565182209015, -0.1045277938246727, 0.05278868228197098, 0.1398826688528061, 0.033548127859830856, 0.2083030343055725, -0.11032233387231827, 0.20347005128860474, 0.1757829189300537, -0.051928866654634476, -0.04590986296534538, -0.24882321059703827, -0.1515481173992157, 0.09652639925479889, 0.14511367678642273, 0.16900166869163513, -0.04713219031691551, 0.13239571452140808, 0.07911325246095657, 0.2592661380767822, 0.04013052210211754, 0.005755361635237932, -0.12339065223932266, -0.10462849587202072, -0.039305612444877625, -0.09882908314466476, -0.0349479615688324, 0.04852909967303276], [-0.08711045235395432, 0.33319443464279175, -0.030252017080783844, -0.13695372641086578, -0.13134221732616425, -0.08326329290866852, 0.026085013523697853, 0.2292749434709549, 0.0529981330037117, 0.07709064334630966, 0.08363039046525955, -0.11887569725513458, 0.09202319383621216, -0.03649396449327469, 0.039218172430992126, -0.11997444182634354, -0.18801826238632202, 0.24838708341121674, 0.2517116963863373, -0.0561886802315712, 0.1985490918159485, 0.12373396754264832, -0.09793263673782349, -0.0033458052203059196, 0.08005155622959137, -0.09910956770181656, -0.2306763231754303, 0.037286046892404556, 0.13287855684757233, -0.029480908066034317, -0.06217983365058899, 0.012334917671978474], [-0.007479467429220676, -0.0809541642665863, 0.028629165142774582, -0.056882236152887344, -0.05747433006763458, -0.03734839707612991, -0.004845061805099249, 0.04569369927048683, 0.009589027613401413, 0.029435444623231888, 0.004786784294992685, 0.018264813348650932, 0.020699243992567062, -0.05144944041967392, 0.01026066392660141, -0.07039972394704819, -0.04394884780049324, -0.010503658093512058, -0.12805110216140747, -0.01986767165362835, 0.004060481209307909, 0.012544892728328705, -0.03752518817782402, -0.2403479367494583, -0.07602857053279877, -0.009377360343933105, -0.0342734232544899, 0.006417794618755579, -0.032838448882102966, -0.0058468179777264595, -0.061075806617736816, -0.002565110335126519], [0.03487605229020119, 0.03548233583569527, -0.03331402689218521, 0.119449682533741, 0.012752589769661427, 0.05124250426888466, 0.07605716586112976, 0.031104426831007004, -0.009250305593013763, -0.09485627710819244, 0.006498066242784262, 0.0903715044260025, 0.04651118442416191, 0.019160525873303413, 0.003462121356278658, -0.31547510623931885, -0.006465182173997164, 0.06527768075466156, 0.20629875361919403, 0.0606769323348999, 0.12346956133842468, 0.16049693524837494, 0.2188345193862915, 0.2923305332660675, 0.16533799469470978, 0.026346316561102867, -0.24599260091781616, -0.06230875104665756, 0.04085308313369751, -0.17261821031570435, 0.19640204310417175, 0.0545196533203125], [-0.03728612884879112, -0.1529562771320343, -0.1097092404961586, 0.051519352942705154, 0.04436195641756058, 0.12214239686727524, -0.11434698104858398, -0.05459398403763771, -0.16439980268478394, 0.06544549763202667, -0.02331715077161789, 0.06570029258728027, -0.2397216409444809, 0.0470232293009758, -0.007768353447318077, 0.23960444331169128, 0.022334391251206398, -0.06850159913301468, 0.03305961564183235, -0.07932551950216293, 0.022241031751036644, -0.06275764107704163, -0.02596566267311573, -0.17379815876483917, 0.08322259038686752, 0.11420328170061111, 0.06771468371152878, -0.006100544240325689, -0.035932883620262146, -0.04739164933562279, 0.023505428805947304, -0.07768592983484268], [-0.032414600253105164, 0.013856529258191586, -0.2820431590080261, 0.21070915460586548, 0.011113856919109821, -0.10030591487884521, 0.002453750232234597, -0.13552051782608032, 0.17669187486171722, -0.05333755537867546, 0.1428430825471878, 0.0380997397005558, 0.012956619262695312, 0.06227090582251549, 0.010288527235388756, -0.03858542814850807, 0.02878900058567524, 0.05111327022314072, 0.26616808772087097, 0.050146620720624924, 0.11071988195180893, 0.049645084887742996, 0.23860660195350647, 0.04290134459733963, 0.16576792299747467, -0.12864403426647186, -0.15066833794116974, -0.04169017821550369, 0.14200034737586975, 0.04348473995923996, 0.19349172711372375, 0.03956672549247742], [-0.006336653139442205, -0.412923663854599, 0.2821478843688965, -0.0611899308860302, 0.15299174189567566, -0.3630443513393402, 0.22602355480194092, -0.07759532332420349, -0.08252734690904617, 1.7089186906814575, 0.16530047357082367, 0.564177930355072, -0.15515916049480438, -0.06829241663217545, 0.01636684685945511, -1.6102418899536133, -0.2003961205482483, -0.5377708077430725, -0.6201755404472351, 0.12610560655593872, -0.15776140987873077, 0.7012457251548767, 0.01471600029617548, 1.3941740989685059, 0.06604894995689392, -0.0013617329532280564, 0.292143315076828, -0.08195654302835464, -0.6315059065818787, -0.19270925223827362, 0.22629904747009277, 0.04708702862262726], [0.08686824142932892, -0.06948027014732361, -0.01559535227715969, -0.10527846962213516, 0.00896427221596241, -0.039676032960414886, 0.034575510770082474, -0.09447015076875687, 0.28713858127593994, -0.061833783984184265, 0.021256113424897194, 0.06521826237440109, -0.028017589822411537, -0.000578029896132648, -0.20081627368927002, -0.2885470986366272, 0.04944712668657303, 0.0546746626496315, 0.17222802340984344, -0.0034953991416841745, 0.20104484260082245, -0.02171976864337921, -0.05319132283329964, -0.04802239313721657, 0.2118581086397171, 0.018847979605197906, 0.052152104675769806, -0.017185641452670097, 0.18300984799861908, -0.024710921570658684, 0.201215460896492, 0.0423249751329422], [-0.04044158011674881, -0.02622375078499317, 0.051349662244319916, 0.19809392094612122, -0.04874883592128754, -0.09649541974067688, 0.16796009242534637, 0.11553190648555756, -0.0034980550408363342, -0.07917983084917068, 0.08681081235408783, -0.060587748885154724, 0.10862559080123901, -0.03253641724586487, -0.0832631066441536, -0.4007132649421692, 0.0004088365822099149, 0.10941897332668304, 0.012932431884109974, 0.10543893277645111, 0.05119548738002777, -0.06079692766070366, 0.018751725554466248, 0.2696692943572998, 0.1523960828781128, 0.1689261943101883, 0.26405107975006104, -0.03508753329515457, 0.25008127093315125, 0.02877444587647915, 0.11678343266248703, 0.09777337312698364], [-0.026387635618448257, -0.0906778946518898, -0.09151344746351242, -0.18002106249332428, -0.09538931399583817, 0.05374336242675781, 0.018823916092514992, 0.08768382668495178, 0.0068553476594388485, -0.020991520956158638, -0.10452458262443542, -0.22032153606414795, 0.03866737335920334, -0.013930661603808403, -0.1337137669324875, 0.24416357278823853, 0.15661735832691193, 0.01202047523111105, 0.01604926772415638, 0.026875657960772514, -0.02337740547955036, -0.19447356462478638, -0.11484448611736298, -0.03640131279826164, 0.10797926783561707, 0.09901347011327744, 0.3026106655597687, 0.027090255171060562, 0.24747981131076813, 0.20633964240550995, -0.010462944395840168, 0.05111483857035637], [-0.0204234030097723, -0.055533841252326965, 0.047736167907714844, 0.017283298075199127, -0.0012629921548068523, -0.0049936845898628235, 0.002664999570697546, 0.005553558003157377, 0.029116319492459297, -0.0026678363792598248, 0.005818230099976063, 0.0714602917432785, -0.0003880728327203542, 0.015870677307248116, -0.02001921646296978, 0.11511293053627014, -0.01536670420318842, -0.026165522634983063, 0.055824752897024155, 0.005468393675982952, 0.01921587996184826, -0.004323715344071388, 0.09262736886739731, 0.057236362248659134, 0.0368896909058094, -0.002609777031466365, 0.024466250091791153, 0.002866265829652548, 0.05959028750658035, -0.0001524202962173149, 0.010600917041301727, 0.003752712160348892], [-0.09677021205425262, 0.03112267144024372, -0.016647500917315483, 0.11117573082447052, -0.1892707496881485, 0.13670974969863892, -0.11448371410369873, -0.30065006017684937, -0.15003208816051483, 0.09741350263357162, 0.04152609780430794, -0.06251079589128494, 0.03165256604552269, -0.15140412747859955, 0.0017045775894075632, -0.025831421837210655, 0.1219220757484436, 0.22000135481357574, -0.0014812002191320062, -0.10616496950387955, 0.16714565455913544, -0.019535021856427193, -0.07369505614042282, -0.1363690048456192, -0.1663123518228531, -0.10567431896924973, -0.20016740262508392, -0.010687521658837795, -0.018433459103107452, 0.07058253884315491, -0.08774181455373764, -0.026471247896552086], [0.08438868820667267, -0.06281565129756927, 0.03868827223777771, -0.027693238109350204, -0.09235101193189621, -0.040581345558166504, 0.17269715666770935, 0.025279533118009567, 0.019415589049458504, -0.2907920479774475, -0.004795042332261801, 0.15577013790607452, 0.2951270043849945, -0.02104947902262211, -0.018224962055683136, -0.2118179053068161, -0.13561522960662842, -0.06012476980686188, -0.2169952243566513, 0.06413902342319489, -0.1986766904592514, 0.2077174037694931, 0.009285732172429562, 0.05253332108259201, -0.26721248030662537, -0.23199979960918427, -0.09543764591217041, 0.03307683765888214, -0.07979168742895126, -0.04244207590818405, -0.20017994940280914, 0.045284293591976166], [0.006215108558535576, -0.010470889508724213, -0.072032131254673, 0.1221601590514183, -0.01750783994793892, 0.04465567320585251, 0.010389900766313076, -0.20777295529842377, 0.14277777075767517, -0.2115345150232315, 0.15740811824798584, 0.150573268532753, 0.014803706668317318, 0.0171967763453722, 0.017962351441383362, -0.18415269255638123, 0.16581663489341736, 0.005290193483233452, -0.09980790317058563, 0.050635017454624176, 0.20706012845039368, 0.03144076466560364, 0.17766207456588745, -0.05570581555366516, 0.011850659735500813, 0.03436676412820816, -0.02034740149974823, 0.009823509491980076, -0.06338424980640411, -0.27282023429870605, 0.18305689096450806, 0.007490620482712984], [-0.004187752027064562, -0.026715300977230072, 0.03660903126001358, -0.010520318523049355, -0.0003437665291130543, 0.03242672607302666, 0.0026438876520842314, 0.05478278920054436, -0.08646048605442047, 0.009278212673962116, -0.0070533473044633865, -0.073735810816288, -0.0020063382107764482, -5.676088767359033e-05, -0.0022181684616953135, 0.003928651101887226, -0.03298909589648247, -0.007090458180755377, -0.037358298897743225, -0.0024420171976089478, 0.04269716143608093, 0.00648390082642436, 0.02528535947203636, -0.16799624264240265, 0.0019115112954750657, 0.024236857891082764, -0.010946893133223057, -0.0005561495199799538, -0.01138659194111824, -0.01517139095813036, -0.0009162139613181353, 0.007245978340506554], [0.02941504493355751, 0.017517872154712677, -0.07828877866268158, 0.05453301593661308, 0.03853271156549454, 0.009793076664209366, -0.005311848595738411, -0.00521820830181241, -0.0031639833468943834, -0.017609504982829094, -0.00041147341835312545, 0.03008178435266018, -0.04853559657931328, 0.010302548296749592, 0.008222154341638088, 0.019094636663794518, 0.03077172487974167, -0.030166421085596085, 0.030440621078014374, 0.0029886257834732533, 0.012460329569876194, -0.0011096601374447346, 0.04744688421487808, -0.06695098429918289, -0.005754356738179922, -0.02508145570755005, -0.019285984337329865, 0.0010226692538708448, 0.012773451395332813, -8.242382318712771e-05, 0.05106496438384056, 0.005876871757209301], [-0.002930490765720606, 0.42801806330680847, -0.06574700772762299, 0.08694174885749817, -0.022626448422670364, -0.09585024416446686, 0.002243613125756383, 0.29396241903305054, 0.008841276168823242, -0.004402506165206432, 0.021634802222251892, 0.0035566664300858974, -0.03985001891851425, -0.09005722403526306, 0.2491368055343628, 0.06058930605649948, -0.23762251436710358, 0.06900408118963242, 0.29480183124542236, 0.019640875980257988, 0.008890091441571712, 0.046037983149290085, 0.008185858838260174, -0.10900513827800751, -0.09904567897319794, -0.14476057887077332, -0.25238165259361267, 0.0006277449429035187, -0.1451948881149292, 0.013987330719828606, -0.10663213580846786, 0.00041135234641842544], [-0.000920482852961868, 0.04165717214345932, 0.10090286284685135, -0.057124581187963486, -0.04183821380138397, -8.292247366625816e-05, 0.03858638554811478, 0.09354164451360703, -0.0936284065246582, -0.05371112748980522, 0.025473354384303093, 0.023196566849946976, 0.008005164563655853, -0.009844503365457058, -0.006135707721114159, -0.04630662873387337, 0.005410854239016771, 0.005338822957128286, 0.09025358408689499, 0.026385746896266937, -0.005486189853399992, -0.002267292933538556, 0.034880734980106354, 0.18862950801849365, 0.07212003320455551, 0.018493017181754112, -0.03792557120323181, -0.009439327754080296, 0.02845744416117668, 0.004140927456319332, -0.0028657978400588036, 0.018250929191708565], [0.027355898171663284, -0.016306236386299133, -0.03138534724712372, 0.03532395511865616, 0.06844965368509293, 0.08453087508678436, -0.022402964532375336, -0.08374561369419098, 0.006532012484967709, 0.10997626185417175, -0.013217470608651638, 0.028743604198098183, -0.08626546710729599, 0.03356282413005829, -0.007433074060827494, 0.0703040137887001, 0.07387521862983704, -0.02399277687072754, -0.03456339240074158, -0.01623876951634884, 0.08284866809844971, 0.006224711891263723, 0.039873067289590836, -0.062256161123514175, 0.012050659395754337, 0.015872828662395477, -0.021872948855161667, 0.005385910626500845, -0.02901451848447323, -0.055989887565374374, 0.11991430073976517, -0.0008812524029053748], [0.061872441321611404, -0.006633097771555185, -0.0017497539520263672, 0.10667119920253754, 0.15986591577529907, 0.18701599538326263, -0.030826762318611145, -0.2113277167081833, -0.03480231761932373, 0.04876489192247391, -0.028630048036575317, 0.10491780936717987, -0.16829071938991547, 0.07366366684436798, -0.013152343221008778, 0.05599147453904152, 0.2041013538837433, -0.16587425768375397, -0.1372818648815155, -0.01873328909277916, 0.05691416561603546, 0.011248050257563591, 0.06891962140798569, 0.011999309062957764, -0.001946329022757709, -0.02584770880639553, -0.024716291576623917, 0.005703755188733339, 0.045198727399110794, -0.03319566696882248, 0.18343675136566162, -0.0011294558644294739], [0.03088470920920372, 0.006659105885773897, 0.00963052548468113, 0.0011557117104530334, 0.08977161347866058, 0.09596170485019684, -0.02345551922917366, -0.10271520167589188, 0.008912619203329086, -0.011085320264101028, -0.014153491705656052, -0.01390544231981039, -0.07034149020910263, 0.03454076126217842, -0.0059119719080626965, 0.03396085277199745, 0.0831729993224144, -0.06062217429280281, -0.029143396764993668, -0.017876943573355675, 0.04193202033638954, 0.0028524661902338266, 0.043908920139074326, 0.11153669655323029, 0.003588442225009203, -0.008895832113921642, -0.0038025376852601767, 0.00593282887712121, 0.0042448267340660095, -0.0273275263607502, 0.07680246233940125, -0.004967117216438055], [0.007108442019671202, 0.01467848103493452, 0.009488529525697231, 0.0034695747308433056, 0.004889077972620726, 0.008661174215376377, -0.005707188975065947, 0.008014720864593983, -0.0037753942888230085, -0.014607897028326988, -0.004642353858798742, -0.0008605789626017213, -0.011898019351065159, 0.0014365706592798233, 0.006282852962613106, 0.011132952757179737, -0.007157048210501671, -0.00021957961143925786, 0.012881774455308914, -0.00475617591291666, 0.002329908311367035, -0.0019694343209266663, -0.0022145595867186785, 0.021209366619586945, -0.008589839562773705, -0.007701248396188021, -0.006821209564805031, 0.0022871934343129396, -0.006834424566477537, 0.0006960322498343885, -0.003034088294953108, -0.002161835553124547], [0.07343828678131104, 0.25180065631866455, 0.09930259734392166, 0.05082741752266884, 0.08923951536417007, 0.07841998338699341, -0.006136756390333176, -0.009818573482334614, 0.0516032837331295, 0.05129769444465637, -0.01359532494097948, 0.04422755539417267, -0.11325618624687195, 0.05904558673501015, 0.15678775310516357, 0.0615529902279377, 0.024173924699425697, -0.14892464876174927, -0.139341339468956, 0.005021990276873112, 0.028845760971307755, 0.02251308597624302, 0.023088179528713226, 0.058834370225667953, -0.014738982543349266, -0.0077177430503070354, -0.11129710078239441, 0.008669361472129822, -0.06375862658023834, -0.03218110278248787, 0.15269261598587036, -0.0046972897835075855], [0.0765344649553299, -0.045295678079128265, -0.022797467187047005, -0.06414903700351715, 0.023008404299616814, -0.0317680686712265, -0.009104706346988678, -0.027619151398539543, 0.21870818734169006, 0.012320833280682564, 0.03864677995443344, -0.11982570588588715, -0.014674470759928226, 0.020123744383454323, 0.12686513364315033, 0.02725837752223015, -0.01592322625219822, -0.03342846781015396, -0.03637581691145897, 0.029345659539103508, -0.1219886839389801, -0.0029171628411859274, -0.006633068434894085, 0.10138172656297684, -0.04804157838225365, -0.0613999180495739, 0.03701023384928703, -0.0032979261595755816, -0.15769051015377045, -0.01233544573187828, 0.08328407257795334, 0.001837093266658485], [-0.0008914672653190792, -0.023588337004184723, -0.012612883001565933, -0.0006016217521391809, 0.022128086537122726, 0.023023180663585663, 0.005951420869678259, -0.022720955312252045, -0.0467926524579525, 0.054043062031269073, -0.03897631913423538, -0.0037849624641239643, 0.0018041032599285245, 0.022138986736536026, -0.016723763197660446, -0.008440257981419563, -0.00210210750810802, 0.0144504988566041, 0.04394764453172684, 0.0029991744086146355, 0.005960049573332071, 0.005441601853817701, 0.013539492152631283, -5.721106208511628e-05, 0.02705705538392067, 0.021613720804452896, 0.024566566571593285, 0.002363945357501507, 0.003117163432762027, -0.008222286589443684, 0.006999149452894926, 0.00028139317873865366], [0.0002536651154514402, 0.03499644994735718, 0.021362829953432083, 0.011096143163740635, 0.0005962989525869489, -0.0036465039011090994, -0.0017539644613862038, 0.03530549257993698, 0.0032292010728269815, 0.016642890870571136, 0.013605794869363308, -1.1276306395302527e-05, -0.0160065907984972, -0.0060165999457240105, 0.027192499488592148, 0.00980763416737318, -0.02284642867743969, 0.0030888121109455824, 0.02480725385248661, 0.003983274567872286, -0.012769187800586224, 0.010241377167403698, 0.0013305324828252196, 0.03559337183833122, -0.020814919844269753, -0.029063357040286064, -0.02933589741587639, -0.003470498137176037, -0.015940003097057343, -0.0024688823614269495, -0.007735623978078365, 0.0006392417126335204], [0.08803924918174744, 0.03604994714260101, -0.020500991493463516, 0.05108892545104027, 0.09196492284536362, 0.14525270462036133, -0.0629345253109932, -0.007487128023058176, 0.11420870572328568, 0.19151681661605835, -0.07244889438152313, 0.3131483495235443, -0.20481157302856445, 0.053494278341531754, 0.029358161613345146, 0.1407223343849182, 0.12478765100240707, 0.06636310368776321, 0.03902954235672951, -0.02408740483224392, 0.0018353891791775823, -0.00973530299961567, 0.07563656568527222, -0.01607329770922661, -0.023863261565566063, -0.04297814890742302, -0.05718430131673813, 0.01481546089053154, -0.03978753089904785, -0.051897406578063965, 0.1782441884279251, -0.016210034489631653], [0.08909193426370621, 0.01778637059032917, -0.02727944776415825, 0.1582612693309784, 0.14989879727363586, 0.14266341924667358, -0.04398786276578903, -0.1378481090068817, -0.08788389712572098, -0.06573362648487091, -0.041153572499752045, 0.2099914848804474, -0.2108401656150818, 0.05819248780608177, -0.041515227407217026, 0.13497741520404816, 0.17328661680221558, -0.08235744386911392, -0.015958549454808235, -0.036084387451410294, 0.08448496460914612, -0.02312263287603855, 0.09986460953950882, 0.02012733742594719, 0.012898502871394157, -0.025066444650292397, -0.031578999012708664, 0.02412041462957859, 0.09585198760032654, -0.023663096129894257, 0.1399686187505722, -0.0033556288108229637], [0.01191691029816866, 0.036690276116132736, 0.03314051404595375, 0.01728915609419346, 0.028496572747826576, 0.026748497039079666, -0.012518334202468395, -0.002256952226161957, -0.008782073855400085, 0.008379513397812843, 0.003074442036449909, 0.013162833638489246, -0.0436384342610836, 0.0025726084131747484, 0.0174703411757946, 0.032378941774368286, 0.0008408038411289454, -0.019736869260668755, -3.7446774513227865e-05, -0.006205439567565918, 0.01168773602694273, 0.006916771177202463, 0.007063434459269047, 0.03261786699295044, -0.02550649084150791, -0.02569085732102394, -0.03362992778420448, 0.0010493964655324817, -0.017927449196577072, -0.008753949776291847, 0.02471790462732315, -0.0030954978428781033], [0.004922378808259964, 0.1207752376794815, 0.03535768389701843, -0.017862116917967796, -0.009335712529718876, -0.010780822485685349, -0.019289150834083557, 0.09628269821405411, 0.10974565148353577, 0.08930031955242157, 0.03660197928547859, -0.07316108793020248, -0.026613110676407814, -0.02081940695643425, 0.11293265223503113, 0.04168689623475075, -0.11107778549194336, -0.013029729016125202, 0.039655059576034546, 0.006107059773057699, -0.06238432228565216, 0.04003875330090523, -0.01884106919169426, 0.054322749376297, -0.10226261615753174, -0.12855380773544312, -0.10989002138376236, -0.008861253038048744, -0.129330113530159, -0.005883876699954271, -0.02141093835234642, -0.009787472896277905], [0.013813444413244724, 0.040478404611349106, -0.06039542332291603, 0.022818511351943016, 0.012401613406836987, 0.011874569579958916, -0.0033271806314587593, 0.029968982562422752, -0.035023484379053116, -0.031448718160390854, -0.032654859125614166, -0.04305444285273552, 0.002631786745041609, 0.010528028011322021, 0.01901313103735447, 0.018413782119750977, -0.029740767553448677, 0.015420968644320965, 0.08187035471200943, 0.0017548952018842101, -0.0018548539374023676, -0.002521325135603547, 0.006524380762130022, 0.024267833679914474, -0.011861374601721764, -0.012786242179572582, 0.0026352745480835438, 0.0005268753156997263, -0.006531957071274519, 0.010923651978373528, -0.007943816483020782, 0.0002978831180371344], [0.0709802582859993, 0.17882981896400452, -0.015691958367824554, 0.1237688735127449, 0.10562210530042648, 0.0679035633802414, -0.02472749911248684, -0.09006286412477493, 0.12403058260679245, 0.040939297527074814, -0.008005587384104729, 0.021035481244325638, -0.08697611093521118, 0.04036548733711243, 0.04992947354912758, 0.07738737761974335, 0.03126028552651405, -0.09196767210960388, 0.018168142065405846, 0.002289123134687543, -0.0034951576963067055, 0.011682940647006035, 0.059488844126462936, 0.027070438489317894, -0.02642507292330265, -0.08697079122066498, -0.0676715150475502, 0.00010568962170509622, -0.0377274826169014, 0.007447190582752228, 0.11090891063213348, 0.000899330188985914], [0.04618294537067413, -0.043832361698150635, -0.03427835553884506, 0.03464082255959511, 0.13367554545402527, 0.11370072513818741, -0.013700418174266815, -0.17020046710968018, -0.0005811279406771064, 0.07794147729873657, -0.01930386759340763, 0.05404755845665932, -0.11008408665657043, 0.058251116424798965, -0.0036197355948388577, 0.01585754007101059, 0.13030260801315308, -0.2039031982421875, -0.172489196062088, -0.0040561966598033905, -0.013133670203387737, 0.02193206176161766, 0.009546734392642975, -0.04359249770641327, -0.0011995664099231362, -0.0342743843793869, -0.010450904257595539, 0.004542915616184473, 0.038164038211107254, -0.014523264952003956, 0.12794102728366852, -0.004344658460468054], [0.057427696883678436, 0.29493504762649536, -0.14513656497001648, 0.029831841588020325, 0.17870481312274933, 0.13609491288661957, 0.016676517203450203, -0.015317159704864025, 0.052268266677856445, 0.022142598405480385, 0.013931110501289368, 0.01731085404753685, -0.12569138407707214, 0.06883900612592697, 0.08959434926509857, 0.020276054739952087, 0.03427178040146828, -0.16007530689239502, 0.01235184445977211, 0.023778967559337616, -0.013931740075349808, 0.06848513334989548, 0.0929173156619072, 0.11044765263795853, -0.027889618650078773, -0.11828669160604477, -0.17780841886997223, -0.008011353202164173, 0.0111855398863554, -0.022218191996216774, 0.14046689867973328, 0.02272135764360428], [0.002106595318764448, 0.009452145546674728, 0.0010618922533467412, 0.004094811622053385, 0.005114116705954075, 0.006182575132697821, -0.0023532509803771973, 0.001837249961681664, -0.005734190810471773, 0.004036341793835163, -0.0023983637802302837, 0.005590303335338831, -0.007156881038099527, 0.001583322649821639, 0.003827701322734356, -0.0013844972709193826, -0.0007612545159645379, -3.0171706384862773e-05, 0.007035163231194019, -0.0012101898901164532, 0.0022410538513213396, 0.002030228264629841, 0.0012476196279749274, -0.0006461317534558475, -0.003420504741370678, -0.004490245133638382, -0.004431047011166811, 0.0003765712317544967, -0.0014468150911852717, -0.0017518519889563322, 0.0033826923463493586, -0.0006987401866354048], [0.04191328212618828, 0.024647362530231476, -0.010718567296862602, 0.032101307064294815, 0.018336910754442215, 0.0017291853437200189, -0.0073124500922858715, 0.03305056691169739, 0.0459115132689476, -0.023874379694461823, 0.015371694229543209, -0.11202926933765411, -0.052027422934770584, 0.0034781713038682938, 0.046761348843574524, -0.0027235448360443115, -0.043405331671237946, -0.0949963629245758, 0.016705749556422234, 0.008164182305335999, -0.01526019349694252, 0.009678835049271584, 0.019642265513539314, -0.09388894587755203, -0.038092270493507385, -0.05924142897129059, -0.04184291139245033, -0.0022896502632647753, -0.06241327151656151, 0.0009024208993650973, 0.03021109849214554, 0.005191381089389324], [0.01240334752947092, 0.03001057729125023, -0.016373848542571068, 0.008862005546689034, 0.029565192759037018, 0.02425008825957775, -0.008559207431972027, -0.0017446228303015232, -0.013393085449934006, 0.0251172948628664, -0.00683060334995389, -0.011466391384601593, -0.02578258514404297, 0.007754464168101549, 0.022747747600078583, 0.0055609941482543945, 0.003132639452815056, -0.015347801148891449, 0.017790846526622772, -0.0012480539735406637, -0.0017723528435453773, 0.008839442394673824, 0.009389064274728298, 0.00850195437669754, -0.016156205907464027, -0.030164523050189018, -0.024614864960312843, -0.0010867789387702942, -0.013172352686524391, -0.003538138000294566, 0.012200895696878433, -0.0014750281115993857], [0.022026637569069862, 0.047433752566576004, 0.014259960502386093, 0.05906396731734276, 0.03450646623969078, 0.05021226778626442, -0.011018027551472187, 0.021476294845342636, -0.09751376509666443, -0.016625847667455673, -0.0002108051412506029, 0.04970501735806465, -0.08145874738693237, 0.0064731258898973465, 0.01651104725897312, 0.04221557453274727, 0.011624520644545555, -0.04875967279076576, 0.04450254142284393, -0.0028459131717681885, 0.03582609072327614, 0.005432903300970793, 0.0073593370616436005, 0.0005867661093361676, -0.05130379647016525, -0.037805669009685516, -0.07990600913763046, 0.0014729805989190936, -0.021164873614907265, -0.008780041709542274, 0.05966683477163315, 0.006321336142718792], [-0.01209525391459465, -0.2461857795715332, -0.04974065348505974, -0.10393885523080826, -0.014860368333756924, -0.012589612975716591, 0.04999944940209389, -0.151230126619339, -0.014894424937665462, -0.03369878977537155, -0.07011827081441879, -0.0477382056415081, 0.08892515301704407, 0.060145050287246704, -0.11856275796890259, -0.054487597197294235, 0.08315414935350418, 0.015682898461818695, 0.0027583304326981306, 0.02397257089614868, -0.024066714569926262, -0.018864329904317856, 0.03590690344572067, -0.019121583551168442, 0.17273393273353577, 0.08365240693092346, 0.11401348561048508, 0.003529283916577697, 0.0947943776845932, 0.025169657543301582, -0.04442020505666733, 0.008658209815621376], [-0.02710442990064621, 0.13060495257377625, 0.09483650326728821, -0.04190368577837944, -0.02294647879898548, -0.010664491914212704, -0.008350757881999016, 0.1356266587972641, 0.0032394675072282553, 0.16625648736953735, 0.030062654986977577, -0.030105162411928177, -0.010285880416631699, -0.028691507875919342, 0.08838295191526413, 0.00330781820230186, -0.11095595359802246, 0.02839592844247818, 0.032522376626729965, 0.009572461247444153, -0.019808316603302956, 0.04320733994245529, -0.044733352959156036, 0.14601334929466248, -0.09382250905036926, -0.07758910208940506, -0.0901835635304451, -0.013285798020660877, -0.11862561851739883, -0.020612666383385658, -0.026830410584807396, -0.005581957753747702], [0.004668801091611385, 0.11760134249925613, 0.04307223856449127, -0.008558797650039196, -0.00979656632989645, -0.026227664202451706, -0.001356404391117394, 0.08067333698272705, 0.06663250178098679, 0.0649481937289238, 0.02856859378516674, -0.09648162126541138, -0.003799892496317625, -0.02770340070128441, 0.11210958659648895, 0.01633068546652794, -0.08879726380109787, -0.002153093693777919, 0.04108055308461189, 0.015596562996506691, -0.06751789152622223, 0.035481493920087814, -0.042790487408638, -0.007135471794754267, -0.0943170115351677, -0.11110100150108337, -0.08638119697570801, -0.015143952332437038, -0.10474031418561935, 0.0012012810911983252, -0.032055921852588654, -0.0021800785325467587], [-0.011016559787094593, 0.25750836730003357, -0.016315855085849762, 0.05059143528342247, -0.04471440613269806, -0.03897148743271828, -0.01193743571639061, 0.1670847237110138, -0.0752502977848053, 0.08039779961109161, 0.05062486603856087, 0.004868905525654554, -0.023226793855428696, -0.054896287620067596, 0.1530621498823166, 0.0793939083814621, -0.17439524829387665, 0.04921548813581467, 0.13269788026809692, 0.00791154894977808, -0.02719230391085148, 0.046534232795238495, 0.0012930786469951272, 0.0174721609801054, -0.15786634385585785, -0.16613028943538666, -0.2539823651313782, -0.010255013592541218, -0.07312588393688202, 0.0023928789887577295, -0.07708785682916641, -0.003532211296260357], [0.0036965846084058285, 0.0068429140374064445, 0.0016242952551692724, 0.0030688797123730183, 0.005858740769326687, 0.005429789423942566, -0.002676822245121002, -0.0014881374081596732, -0.0010658520041033626, -0.00020757059974130243, 0.00029923810507170856, -0.0013169823214411736, -0.007913715206086636, 0.001085728406906128, 0.005033829715102911, 0.0016527604311704636, 0.0007974072359502316, -0.006113847717642784, 0.0022033394780009985, -0.0010748050408437848, 0.001030860934406519, 0.0014003023970872164, 0.0020725654903799295, 0.004522656090557575, -0.00486329710111022, -0.007326623424887657, -0.007328365463763475, 9.377503010910004e-05, -0.0037205410189926624, -0.0007210064213722944, 0.004202146548777819, -0.0004623453423846513], [-0.018541421741247177, 0.015516112558543682, -0.018978388980031013, -0.060343187302351, -0.04888737201690674, -0.06088374927639961, 0.012262847274541855, 0.06933308392763138, 0.08644718676805496, 0.04010681062936783, 0.012409663759171963, -0.14645233750343323, 0.06126793473958969, -0.022716984152793884, 0.058964792639017105, 0.008445082232356071, -0.10864384472370148, -0.012076335027813911, 0.016295284032821655, 0.024393413215875626, -0.06823724508285522, 0.004675291012972593, -0.0756569430232048, 0.12963275611400604, -0.04149029776453972, -0.0322868637740612, -0.003175437916070223, -0.01345750130712986, -0.09694593399763107, 0.02881738357245922, -0.06887020170688629, 0.0016405587084591389], [0.005497586447745562, 0.002709250897169113, -0.058837223798036575, 0.02325177565217018, 0.02612047642469406, 0.016831642016768456, -0.006774564273655415, -0.0038427419494837523, -0.03388851881027222, 0.038203004747629166, -0.012331336736679077, 0.06151501089334488, -0.025856366381049156, 0.014156797900795937, -0.01578841172158718, 0.009179956279695034, 0.02388867177069187, 0.012529712170362473, 0.0194340031594038, -0.0010701688006520271, 0.027821987867355347, 0.0025873775593936443, 0.04389088600873947, 0.023777391761541367, 0.01954951137304306, 0.0021998784504830837, 4.147467279835837e-06, 0.0022194087505340576, 0.022801313549280167, -0.011965683661401272, 0.03600124269723892, 0.0005694480496458709], [0.07661783695220947, 0.05837342515587807, -0.02220085822045803, 0.20547173917293549, 0.14650984108448029, 0.08344711363315582, -0.029403407126665115, -0.07262586057186127, -0.07715661078691483, -0.0241920854896307, -0.008800669573247433, 0.15174774825572968, -0.15648730099201202, 0.025221120566129684, -0.0013602945255115628, 0.07468082755804062, 0.10308761149644852, -0.14253975450992584, -0.05030106008052826, -0.013352504931390285, 0.03728346526622772, -0.006031143944710493, 0.05668123438954353, -0.18372108042240143, -0.054831262677907944, -0.03821136802434921, -0.041065867990255356, 0.006867294665426016, -0.005982497241348028, 0.006571576930582523, 0.19615353643894196, 0.0026561757549643517], [0.001315891626290977, 0.0040103355422616005, 0.005826229229569435, 0.004316630773246288, 0.0005199715960770845, 0.001266937586478889, -0.0005454632919281721, 0.001976455096155405, -0.004115143790841103, -0.004601038061082363, -0.0014540147967636585, 0.0007685282616876066, -0.001527797314338386, -0.0002910607145167887, 0.0014833500608801842, 0.0010004588402807713, -0.0010683347936719656, 0.0010656638769432902, 0.004694613162428141, -0.00034502646303735673, 0.0005194211844354868, -0.0011295134900137782, -0.0016446459339931607, -0.000700881821103394, -0.0021430172491818666, -0.0003269481530878693, -0.0010499372147023678, 0.00015151915431488305, -0.0008275618311017752, 0.0012667692499235272, 0.0005426710704341531, -2.2628222723142244e-05]], "rec.bias_ih_l0": [0.05325435474514961, -0.0905463770031929, 0.3597055971622467, -0.0353228822350502, -0.18648266792297363, 0.15831513702869415, 0.08602695167064667, -0.025464320555329323, 0.06804128736257553, 0.8064233660697937, -0.04601743444800377, -0.22269225120544434, -0.055191606283187866, -0.007130891550332308, -0.03603915497660637, 0.9077804684638977, 0.03658438101410866, -0.19465315341949463, 0.22400112450122833, 0.04885440319776535, 0.10038724541664124, 0.37629544734954834, 0.030703216791152954, 1.179609775543213, -0.11757108569145203, 0.11081529408693314, -0.35563409328460693, 0.029013333842158318, 0.2999415397644043, 0.23126567900180817, -0.183735653758049, 0.02901398576796055, -0.009483955800533295, 0.20950855314731598, 0.11563017219305038, 0.20247310400009155, -0.0029170983470976353, -0.060968637466430664, -0.011040057055652142, 0.584819495677948, 0.3628827929496765, -0.09519490599632263, -0.06693820655345917, 0.7256795167922974, 0.08776737749576569, -0.06196606159210205, 0.07836326211690903, 0.0018951334059238434, 0.2747076749801636, 0.2746201157569885, 0.2768419682979584, -0.017793068662285805, 0.14947615563869476, -0.022351279854774475, 0.30353274941444397, -0.25715988874435425, 0.23251566290855408, 0.08291880786418915, 0.22530347108840942, 0.003290364984422922, -0.06088286638259888, -0.0024132973048835993, 0.31678760051727295, 0.0073166536167263985, -0.001782000414095819, -0.08309740573167801, 0.049674347043037415, -0.1045307070016861, 0.07775572687387466, 0.07659450173377991, 0.03893272578716278, -0.089896060526371, -0.02053768001496792, -0.032129038125276566, -0.07089833915233612, -0.07576527446508408, 0.03508231043815613, 0.11816225945949554, -0.12101971358060837, 0.10077952593564987, -0.02287750318646431, -0.13551300764083862, 0.012378480285406113, 0.05780010297894478, 0.015991931781172752, 0.04841325059533119, 0.027261074632406235, 0.07449202984571457, 0.05826292932033539, 0.04989296942949295, -0.06565539538860321, 0.0019402287434786558, 0.061448149383068085, 0.0967232957482338, 0.024870889261364937, 0.0415261834859848, 0.06393568217754364, 0.12844990193843842, 0.05222390592098236, 0.14309346675872803, -0.12572680413722992, 0.10543126612901688, 0.08898384869098663, 0.07176074385643005, 0.13576571643352509, 0.8124129772186279, 0.000743048032745719, 0.2284354716539383, 0.07472449541091919, -0.01177986804395914, 0.05506209656596184, 0.9483261704444885, 0.2408439964056015, 0.1485968977212906, 0.3164408206939697, 0.0507916659116745, 0.13702911138534546, 0.3804941475391388, 0.04186171665787697, 0.7862724661827087, -0.0015600075712427497, 0.18776746094226837, 0.1021646186709404, 0.029421277344226837, 0.30915161967277527, 0.2488505095243454, -0.043853968381881714, 0.029213683679699898], "rec.bias_hh_l0": [0.05501231551170349, -0.24030935764312744, 0.2699415981769562, -0.02962527424097061, -0.165322944521904, 0.10809823870658875, 0.09351516515016556, -0.09267428517341614, 0.075153648853302, 0.8063898086547852, -0.027273142710328102, -0.14032423496246338, -0.08260589092969894, -0.042229022830724716, -0.01752791740000248, 0.9209921360015869, -0.03024950623512268, -0.21894800662994385, 0.2294735312461853, 0.049659233540296555, 0.10218388587236404, 0.376589298248291, 0.02221711352467537, 1.1783124208450317, -0.13601189851760864, 0.11120597273111343, -0.27194201946258545, 0.02901589125394821, 0.253286212682724, 0.22695714235305786, -0.17443731427192688, 0.0290139839053154, 0.011521897278726101, 0.3173023462295532, 0.03011602722108364, 0.13679732382297516, 0.1729525476694107, -0.035546932369470596, -0.008031272329390049, 0.44502943754196167, 0.2554658353328705, -0.10344168543815613, -0.018445216119289398, 0.7009180188179016, 0.11837062239646912, -0.021383486688137054, 0.15125000476837158, 0.006352332886308432, 0.432598352432251, 0.338191419839859, 0.315757155418396, -0.016971440985798836, 0.09215372800827026, -0.021537039428949356, 0.2596616744995117, -0.200864776968956, 0.16113217175006866, 0.0818081647157669, 0.2118702232837677, 0.0032903607934713364, -0.031293388456106186, 0.010098543018102646, 0.37048646807670593, 0.007316653151065111, 0.015676289796829224, 0.07752890139818192, -0.05037878453731537, 0.09131596982479095, -0.02954157255589962, -0.03950595110654831, -0.03529173880815506, 0.09587957710027695, -0.055746085941791534, 0.08374150842428207, -0.027857838198542595, 0.03128949552774429, -0.03409785404801369, -0.07546163350343704, 0.12452240288257599, -0.08299647271633148, -0.004087341949343681, 0.16548946499824524, 0.05498868227005005, -0.029299704357981682, -0.03768538311123848, -0.06677861511707306, -0.027499932795763016, 0.014197012409567833, -0.005355339031666517, -0.04761528968811035, 0.10232776403427124, -0.003393132472410798, -0.04407681152224541, -0.057989150285720825, -0.024037161841988564, -0.042223505675792694, 0.055990464985370636, 0.10552840679883957, 0.10457300394773483, 0.14737308025360107, -0.11761445552110672, 0.1777556836605072, 0.09728018194437027, 0.1271083503961563, 0.1540733128786087, 0.8123888373374939, -0.009851009584963322, 0.26672253012657166, 0.11992804706096649, 0.05054047703742981, 0.079159215092659, 0.9466502666473389, 0.15291714668273926, 0.08984161168336868, 0.1393844485282898, 0.05080356448888779, 0.13737840950489044, 0.3798184096813202, 0.04721330478787422, 0.7861097455024719, -0.008967422880232334, 0.18731097877025604, 0.13024193048477173, 0.029423076659440994, 0.3171130120754242, 0.24099116027355194, 0.09035921096801758, 0.029213683679699898], "lin.weight": [[-0.19981470704078674, 0.13543181121349335, 0.3292188346385956, 0.09611084312200546, -0.1660873144865036, -0.368743360042572, 0.1626262217760086, -0.019266391173005104, 0.17134027183055878, -0.07642265409231186, 0.2191821187734604, 0.07707537710666656, 0.4296625256538391, -0.24452561140060425, 0.2352612465620041, -0.32241684198379517, -0.06422852724790573, -0.11479492485523224, -0.2546897232532501, 0.10886947065591812, -0.30586346983909607, 0.4234357476234436, -0.25778838992118835, 0.2747142016887665, -0.15439876914024353, -0.3435300886631012, -0.17945684492588043, -0.1506136953830719, -0.029755569994449615, -0.1556975543498993, -0.297450453042984, 0.041424304246902466]], "lin.bias": [0.07915036380290985]}}