{"model_data": {"model": "SimpleRNN", "input_size": 1, "skip": 1, "output_size": 1, "unit_type": "LSTM", "num_layers": 1, "hidden_size": 32, "bias_fl": true}, "state_dict": {"rec.weight_ih_l0": [[-0.06672177463769913], [-0.0023324538487941027], [-0.01594376005232334], [0.015051043592393398], [-0.026421640068292618], [-0.0002856706269085407], [-0.020345276221632957], [-0.0067958221770823], [-0.010054689832031727], [-0.0236964114010334], [-0.006091768853366375], [0.012124951928853989], [-0.05779307335615158], [0.0141138955950737], [0.010795796290040016], [0.010084250941872597], [0.03287185728549957], [-0.0378926657140255], [-0.018586548045277596], [0.09712546318769455], [0.0023879623040556908], [0.0295820664614439], [0.007005459163337946], [-0.020938225090503693], [-0.010190196335315704], [0.022088386118412018], [0.0006648855633102357], [0.031199604272842407], [0.04846779257059097], [0.0066369217820465565], [0.013272366486489773], [0.00014677229046355933], [-0.11285093426704407], [-0.023542018607258797], [0.0060554202646017075], [0.0436968058347702], [0.010105744004249573], [-0.009374336339533329], [-0.010077746585011482], [-0.00026876642368733883], [-0.03041713498532772], [0.021799180656671524], [0.032243795692920685], [-0.0015870480565354228], [-0.07507339119911194], [-0.004682226572185755], [0.010037614032626152], [0.03309785574674606], [-0.021298496052622795], [-0.030450958758592606], [-0.015541686676442623], [0.14484341442584991], [-0.015880828723311424], [0.048765186220407486], [0.026324529200792313], [-0.033553894609212875], [0.023607073351740837], [-0.005134160630404949], [0.05989484861493111], [0.05520700663328171], [-0.00029765942599624395], [-0.07595475018024445], [-0.007549760397523642], [0.0165484007447958], [0.2780693471431732], [0.37742605805397034], [0.07614660263061523], [-0.5471219420433044], [-0.0707068219780922], [-0.34887322783470154], [0.11456787586212158], [0.15211164951324463], [-0.025597432628273964], [-0.07345440238714218], [-0.08455686271190643], [0.0375201553106308], [-0.050398088991642], [0.2479351907968521], [0.22816945612430573], [-0.23188795149326324], [-0.16365382075309753], [0.09468201547861099], [-0.07676702737808228], [0.05941073223948479], [0.039599210023880005], [-0.007473581004887819], [-0.22508125007152557], [-0.2813667058944702], [1.5082460641860962], [0.07945933192968369], [-0.09791435301303864], [-0.6620646119117737], [0.3859967589378357], [-0.1160433441400528], [0.8426483273506165], [0.6798376441001892], [-0.07412514835596085], [-0.000531300320290029], [-0.007883081212639809], [0.029803061857819557], [-0.0297345332801342], [-0.001997576327994466], [0.015466061420738697], [-0.022994205355644226], [0.005288282874971628], [0.03480790555477142], [0.016612911596894264], [0.012025605887174606], [-0.06337212026119232], [0.004350592847913504], [0.03668456897139549], [-0.018540652468800545], [-0.01444193534553051], [-0.043578460812568665], [-0.0203993059694767], [0.09252401441335678], [-0.011963889002799988], [0.025237999856472015], [0.011910767294466496], [-0.057064566761255264], [-0.054621364921331406], [-0.005474340636283159], [0.056655995547771454], [0.0519103966653347], [0.06434796750545502], [-0.10267264395952225], [0.026935778558254242], [0.03033207356929779]], "rec.weight_hh_l0": [[-0.04963672161102295, 0.03941136226058006, -0.012485930696129799, 0.04819149896502495, 0.0004724652098957449, -0.017575757578015327, 0.02177530527114868, -0.03331548348069191, -0.049342259764671326, 0.013681909069418907, -0.015163314528763294, 0.004048687405884266, 0.019518256187438965, 0.04657193273305893, -0.025820795446634293, 0.018352961167693138, -0.056647371500730515, 0.030511686578392982, -0.042673949152231216, -0.05528751015663147, -0.03094838373363018, 0.021313926205039024, 0.015363802202045918, 0.028384249657392502, -0.0604093037545681, -0.007636744529008865, -0.02843170426785946, 0.028540799394249916, -0.012095227837562561, 0.05548780411481857, 0.021681876853108406, 0.01504101138561964], [0.0050149280577898026, 0.03350268304347992, 0.011599946767091751, 0.01637948676943779, -0.01608121395111084, 0.04034396633505821, 0.023638863116502762, 0.00185008451808244, -0.0188128761947155, -0.032565951347351074, -0.0649312362074852, -0.035036422312259674, 0.010621324181556702, -0.03407943621277809, 0.004194330424070358, 0.030792897567152977, -0.009155189618468285, -0.015285060741007328, -0.0748523697257042, -0.03954640403389931, 0.035452891141176224, 0.025841062888503075, 0.019168663769960403, 0.0077303070574998856, 0.03315045312047005, 0.012788411229848862, -0.026513824239373207, -0.01538771577179432, -0.0013085298705846071, 0.05329965427517891, -6.492469401564449e-05, 0.006129790563136339], [-0.004938455298542976, 0.040115900337696075, 0.011096551083028316, -0.012701238505542278, -0.061534833163022995, 0.017101306468248367, 0.0045769307762384415, -0.0168869998306036, -0.036682628095149994, 0.03703024238348007, -0.015547971241176128, -0.003944572061300278, 0.047154501080513, 0.04274970293045044, -0.05358066037297249, 0.004368479363620281, -0.04699086397886276, 0.06975256651639938, -0.07545534521341324, 0.009199967607855797, 0.11130313575267792, 0.008020925335586071, 0.004937143996357918, 0.013241196982562542, 0.008665517903864384, -0.03653104975819588, 0.02308969758450985, 0.00389087968505919, 0.04646177962422371, 0.08150802552700043, -0.04777776449918747, -0.03454725071787834], [0.04833504930138588, -0.000791443744674325, 0.013440256007015705, -0.007596752140671015, -0.025586597621440887, 0.019951365888118744, -0.007398518268018961, 0.02519666776061058, -0.027044828981161118, 0.03922579810023308, -0.059247035533189774, 0.05187537521123886, -0.042423587292432785, 0.015886837616562843, 0.008172605186700821, 0.048619337379932404, -0.024040574207901955, 0.06843636184930801, 0.04408995807170868, -0.032869089394807816, -0.03849206492304802, -0.014980143867433071, 0.05338281765580177, 0.015703799203038216, -0.03088626265525818, -0.001085152616724372, -0.10003376752138138, -0.002265612594783306, 0.044006846845149994, 0.03934410214424133, 0.04414006322622299, -0.028485413640737534], [0.041229527443647385, -0.022746535018086433, -0.00798672717064619, -0.021157847717404366, 0.02146027982234955, 0.005476054735481739, -0.020533163100481033, -0.02124333567917347, 0.006458940915763378, 0.005238198675215244, -0.0009145468357019126, 0.020739080384373665, 0.01598975621163845, -0.04279539734125137, 0.05580771341919899, 0.03611212968826294, -0.025916675105690956, 0.0028056444134563208, 0.017354462295770645, -0.05517715960741043, -0.15517300367355347, -0.023575251922011375, -0.006926198024302721, -0.027579501271247864, -0.01688956283032894, 0.025027647614479065, 0.03469839692115784, 0.0143963061273098, -0.012246157042682171, 0.00645778002217412, 0.00126095290761441, -0.0394250862300396], [0.024609824642539024, 0.020786529406905174, 0.010788174346089363, -0.02002057619392872, -0.05121640861034393, -0.003782040672376752, -0.034309230744838715, -0.005498832557350397, -0.005689129699021578, 0.024865811690688133, -0.00452448008581996, 0.006846897769719362, 0.00018426818132866174, -0.012013418599963188, 0.015869664028286934, 0.028966840356588364, -0.01550682820379734, 0.0030884232837706804, -0.06626415997743607, -0.031128406524658203, -0.161237895488739, -0.0210918877273798, -0.056796107441186905, -0.013295263051986694, -0.0031976921018213034, 0.010534754022955894, 0.050633106380701065, 0.006841184571385384, 0.014919809065759182, -0.01929628662765026, 0.012691362760961056, -0.03087623417377472], [0.007514729164540768, 0.047095462679862976, -0.016217682510614395, 0.024616999551653862, 0.05122939869761467, -0.011139333248138428, -0.03030353970825672, -0.017645196989178658, -0.01857699640095234, 0.05551838502287865, 0.027633916586637497, -0.04450807347893715, -0.005236194469034672, -0.010688313283026218, -0.001328453654423356, -0.004024951718747616, -0.01801445707678795, -0.014438988640904427, -0.03612801060080528, -0.03379788622260094, 0.1251867264509201, -0.04359998181462288, 0.049850352108478546, -0.01089573185890913, 0.0002978792181238532, -0.03789525479078293, -0.05683853104710579, -0.00720082875341177, -0.04069538041949272, -0.03929802030324936, 0.02561572939157486, -0.024512270465493202], [0.052573565393686295, -0.01518985629081726, 0.05373193696141243, 0.023083597421646118, -0.048887960612773895, -0.004292065743356943, -0.010271747596561909, -0.002837839536368847, -0.0007420878973789513, -0.004005781374871731, 0.00357105303555727, -0.0293840654194355, 0.024273380637168884, 0.05820557102560997, -0.027570635080337524, 0.014012248255312443, -0.02626783959567547, 0.007440670859068632, -0.04950052499771118, -0.0011533128563314676, 0.08903732150793076, -0.003524752799421549, 0.03467075526714325, -0.020432908087968826, 0.025003140792250633, -0.01004764623939991, -0.01397583819925785, -0.0213499516248703, -0.0026433137245476246, -0.010962649248540401, -0.03295446187257767, -0.013353446498513222], [0.04921440780162811, 0.017800496891140938, -0.018617667257785797, 0.05638499930500984, -0.08346716314554214, 0.03006860986351967, -0.011541210114955902, 0.010634592734277248, -0.043082356452941895, 0.10796822607517242, 0.024489495903253555, -0.03850186616182327, 0.04253800958395004, 0.017618877813220024, 0.01412503607571125, 0.03608094900846481, -0.03625522926449776, -0.009043554775416851, -0.10276053100824356, 0.04015619307756424, 0.17880669236183167, 0.026027945801615715, -0.06554704904556274, 0.001279745833016932, 0.030732765793800354, -0.04316325485706329, -0.030036285519599915, 0.0004455582529772073, 0.07826951146125793, -0.03333941474556923, 0.008353753946721554, -0.027951296418905258], [-0.017449188977479935, -0.05713479593396187, -0.014504645951092243, -0.07591572403907776, 0.01916312426328659, -0.03663291409611702, -0.003336122492328286, -0.021477187052369118, -0.04260443523526192, -0.022391481325030327, -0.03110315464437008, 0.00836623553186655, -0.05203932523727417, -0.03460685908794403, -0.0008572879014536738, -0.04570480063557625, 0.005336880683898926, -0.035834453999996185, 0.029591655358672142, 0.0008968445472419262, -0.03673108294606209, 0.010701541788876057, -0.1275206208229065, -0.04542030394077301, -0.005684508942067623, 0.027970310300588608, 0.0474749393761158, 0.056987464427948, 0.02839069813489914, -0.012398547492921352, -0.12397902458906174, -0.07070355862379074], [0.009560005739331245, 0.020116426050662994, -0.0065294490195810795, 0.011405866593122482, -0.017773548141121864, -0.05895285680890083, -0.0006290379096753895, 0.029048772528767586, 0.00023858148779254407, 0.019189894199371338, -0.020514262840151787, -0.02902621030807495, 0.04690994322299957, 0.040530454367399216, -0.03366703540086746, 0.008106795139610767, 0.013903023675084114, 0.009939996525645256, -0.056921496987342834, 0.030679138377308846, 0.09662486612796783, -0.007939642295241356, 0.04625978693366051, -0.015375550836324692, -0.021252699196338654, 0.022573554888367653, 0.014701380394399166, -0.012029252015054226, 0.049729976803064346, -0.0007864163490012288, -0.05187089368700981, -0.004686705302447081], [0.005859113298356533, 0.06685831397771835, -0.01863463595509529, -0.009435529820621014, -0.006249605678021908, -0.009174145758152008, 0.004116935655474663, 0.016660450026392937, -0.020665794610977173, -0.002444849582388997, -0.022970953956246376, 0.020536016672849655, 0.017338860780000687, 0.03775550797581673, -0.04275628924369812, 0.03007527068257332, -0.0023921397514641285, -0.031043611466884613, -0.015354129485785961, 0.03787071257829666, 0.06740830093622208, 0.0158326905220747, 0.13218805193901062, -0.0022973334416747093, 0.011825233697891235, -0.018622087314724922, -0.021108292043209076, -0.04377817362546921, 0.05875536799430847, 0.019477950409054756, -0.04685136675834656, 0.01910308562219143], [-0.050336338579654694, 0.00983771588653326, 0.008397975005209446, 0.014880488626658916, 0.02837388962507248, -0.00038464213139377534, 0.023501558229327202, 0.01660783402621746, 0.00480478024110198, 0.07042035460472107, -0.008189062587916851, 0.02551311068236828, 0.061797723174095154, -0.008792201988399029, -0.0023227129131555557, 0.017448075115680695, -0.003958303015679121, 0.03412400558590889, -0.030629148706793785, -0.04565539211034775, -0.06353001296520233, -0.022585084661841393, 0.015261344611644745, 0.04025828838348389, -0.08129581809043884, 0.02854597568511963, 0.006985880900174379, 0.03658226504921913, -0.005990447476506233, 0.06157078221440315, 0.07770843058824539, -0.02342968061566353], [0.007788712624460459, 0.006003763992339373, -0.002525410847738385, -0.040352415293455124, 0.010814149864017963, 0.004861033521592617, 0.019469309598207474, 0.03753450885415077, -0.04713078960776329, 0.01661428064107895, -0.02668032795190811, 0.02076256275177002, -0.009476548060774803, -0.025597110390663147, 0.013614912517368793, -0.02079739421606064, -0.006262166891247034, 0.029326049610972404, 0.02849159948527813, 0.015621536411345005, -0.09170888364315033, 0.003381771268323064, -0.01575312204658985, -0.01689729653298855, 0.021503714844584465, -0.008968105539679527, 0.02677864208817482, 0.0025928050745278597, 0.05997583642601967, 0.0023181058932095766, -0.01991153322160244, -0.019590109586715698], [0.0005339052295312285, -0.008938336744904518, 0.020601173862814903, -0.051262807101011276, 0.045755382627248764, -0.003976317588239908, -0.013822687789797783, -0.0012035337276756763, 0.0542806014418602, -0.12167777866125107, 0.022376110777258873, -0.05356624722480774, 0.022272920235991478, 0.051183756440877914, -0.12673434615135193, -0.04858284071087837, -0.016097526997327805, -0.021892406046390533, -0.00967497006058693, 0.06148626282811165, 0.05922635644674301, -0.017244841903448105, -0.08767209202051163, -0.029678644612431526, -0.012720197439193726, 0.0073732552118599415, 0.004512989427894354, -0.007399176713079214, 0.045004963874816895, 0.06742807477712631, -0.1212879866361618, 0.007593146990984678], [0.02301231399178505, 0.006855167914181948, 0.027336500585079193, 0.03937656059861183, -0.04941708594560623, 0.006857224740087986, -0.0157639030367136, -0.022311124950647354, -0.07516376674175262, 0.05484660342335701, 0.011379772797226906, -0.07104658335447311, 0.007103437092155218, 0.06581876426935196, -0.034309305250644684, 0.04897422343492508, -0.018553173169493675, -0.017771393060684204, -0.09706837683916092, -0.019657060503959656, 0.15674912929534912, 0.010615172795951366, -0.0006448747008107603, 0.011398961767554283, -0.0040939366444945335, -0.039282239973545074, -0.0015984340570867062, -0.004426869098097086, 0.02368069440126419, -0.009221863001585007, 0.019368188455700874, 0.02061384730041027], [0.0016831617103889585, 0.021078048273921013, -0.01283789798617363, -0.07315897196531296, -0.030871400609612465, -0.06613568216562271, -0.01388575229793787, 0.03519343584775925, 0.014684652909636497, 0.03184911236166954, -0.0004201420524623245, -0.02917264588177204, -0.05072973668575287, 0.04689878597855568, -0.08721557259559631, 0.015981795266270638, -0.06161608174443245, 0.07395476847887039, -0.12549039721488953, 0.01068792212754488, 0.2984235882759094, -0.07730195671319962, 0.06644800305366516, -0.009442560374736786, -0.019986603409051895, -0.006352908909320831, -0.05832101032137871, 0.01365471351891756, 0.0988970622420311, 0.017572520300745964, -0.019931385293602943, -0.026240693405270576], [0.002222255803644657, 0.05808424577116966, 0.0063309259712696075, 0.05275637283921242, -0.02440379373729229, 0.007500240579247475, 0.01602829061448574, 0.006576897110790014, -0.0007006296655163169, -0.013874438591301441, -0.012827369384467602, -0.03527494892477989, 0.07183371484279633, 0.003255573334172368, -0.044084809720516205, 0.0566926971077919, 0.03210851922631264, 0.01667577400803566, -0.03988463431596756, 0.04872492700815201, 0.16237731277942657, 0.011147077195346355, 0.06203902140259743, 0.04906216263771057, -0.028570055961608887, -0.01240100059658289, -0.013347521424293518, 0.030629757791757584, 0.024987677112221718, 0.04495719447731972, 0.04179523140192032, -0.01141067873686552], [-0.040564898401498795, -0.0287484023720026, -0.06008707731962204, -0.008018188178539276, 0.08551713824272156, -0.0008364968234673142, -0.08011471480131149, -0.03517071530222893, -0.08376383781433105, -0.021677710115909576, -0.051487069576978683, 0.020445646718144417, -0.04440288245677948, -0.017586441710591316, 0.038042131811380386, -0.013183742761611938, 0.013616700656712055, -0.02243749424815178, -0.03103134036064148, -0.10693491995334625, -0.27253007888793945, 0.00633807061240077, -0.22635069489479065, 0.0010150076122954488, -0.005830324254930019, -0.014984291978180408, -0.14103133976459503, -0.003796852193772793, -0.012354530394077301, 0.021574949845671654, 0.018788516521453857, 0.0033153884578496218], [0.029064053669571877, -0.008408145979046822, 0.0009932860266417265, -0.07046429812908173, -0.013229385018348694, -0.02543337643146515, -0.005967192351818085, -0.01487646158784628, -0.05901326239109039, -0.04599108546972275, -0.00992659479379654, 0.03874216601252556, -0.07534144073724747, 0.011583207175135612, -0.028582923114299774, 0.03356701880693436, -0.02383412793278694, 0.03744656965136528, -0.003458894556388259, 0.05071791261434555, 0.0076463534496724606, 0.018005702644586563, 0.0002890493778977543, -0.06406167149543762, 0.0841926634311676, 0.007903428748250008, -0.015306184068322182, -0.06235568970441818, 0.0733114704489708, -0.016228388994932175, -0.1188875362277031, 0.0715378150343895], [0.04469410702586174, 0.0002989447384607047, -4.979982622899115e-05, 0.032257456332445145, -0.028862139210104942, -0.01121457014232874, 0.0395197868347168, -0.032140783965587616, -0.05168073996901512, 0.03975730761885643, 0.035334423184394836, 0.06521933525800705, 0.01829518750309944, 0.03210398182272911, 0.04893624410033226, 0.05348382145166397, 0.002380217192694545, 0.009384781122207642, -0.03707807883620262, -0.07938273251056671, 0.03049539402127266, -0.023476414382457733, 0.09823084622621536, -0.036359939724206924, 0.01036450732499361, -0.00890924222767353, 0.09761202335357666, -0.03888295218348503, 0.05066399276256561, -0.05271239951252937, 0.022316988557577133, 0.025616494938731194], [0.0027177645824849606, 0.05707903951406479, -0.04282413795590401, -0.025123465806245804, -0.004306836053729057, -0.021001283079385757, 0.0040087043307721615, 0.002026826608926058, -0.023982549086213112, -0.021264368668198586, -0.019003508612513542, -0.028950849547982216, 0.03659052029252052, 0.027169642969965935, -0.059029918164014816, 0.017991425469517708, -0.06743590533733368, -0.0367756113409996, -0.011349150910973549, 0.0596548430621624, 0.1364351511001587, -0.05916036292910576, 0.042685385793447495, 0.05184178054332733, 0.007601574063301086, 0.03648104891180992, 0.033954448997974396, -0.039751335978507996, 0.05464202165603638, -0.07861831784248352, -0.02041797712445259, -0.03309515491127968], [-0.0014206126797944307, -0.0021456775721162558, 0.006761572323739529, -0.013743891380727291, 0.034317564219236374, -0.013677028939127922, -0.015415973030030727, 0.0368732213973999, 0.01943955384194851, 0.040587760508060455, -0.03395969420671463, 0.07477283477783203, -9.092445543501526e-05, -0.0720260813832283, 0.06797073781490326, 0.005893808789551258, 0.02472025901079178, -0.00568345794454217, -0.07970082759857178, -0.05545474588871002, -0.19090373814105988, -0.03433624282479286, -0.12197165936231613, -0.04068954288959503, -0.025703517720103264, 0.050039537250995636, -0.02229338325560093, -0.0005781312356702983, 0.02640046738088131, 0.011689707636833191, 0.03189389035105705, -0.00870419666171074], [-0.006016952451318502, -0.03675519675016403, 0.031915321946144104, -0.009744416922330856, -0.04138888418674469, -0.053117331117391586, -0.0037586966063827276, -0.026849932968616486, -0.035336241126060486, -0.011320970021188259, 0.0036512233782559633, -0.05474530905485153, 0.005106909200549126, 0.02259954810142517, -0.0269894041121006, 0.03621521592140198, 0.012365566566586494, 0.07089193910360336, -0.0850253775715828, 0.0291177686303854, -0.031041786074638367, -0.02242361195385456, -0.07208117842674255, -0.036330632865428925, -0.0046022734604775906, 0.01911047101020813, -0.03241042420268059, -0.008924491703510284, -0.024622386321425438, -0.016202356666326523, -0.023992100730538368, 0.021986177191138268], [0.025846140459179878, -0.036805007606744766, -0.02401111274957657, -0.01291435956954956, 0.018533967435359955, -0.038924820721149445, -0.03997037187218666, -0.007097300607711077, -0.030977187678217888, 0.06562650948762894, -0.0016134172910824418, 0.031247558072209358, -0.09976722300052643, -0.05766228958964348, 0.07144449651241302, -0.006831340026110411, -0.025306660681962967, -0.043293535709381104, 0.043488286435604095, -0.12144295126199722, -0.13902655243873596, 0.027682507410645485, 0.036614514887332916, 0.012033780105412006, -0.015099908225238323, 0.06341466307640076, -0.07779883593320847, 0.04043794795870781, 0.03368373215198517, -0.05945029854774475, -0.01939425989985466, 0.04541768133640289], [0.06613466888666153, -0.048608556389808655, 0.05790605768561363, 0.0589090958237648, 0.02237865701317787, 0.035156771540641785, 0.05589889734983444, 0.0002811973390635103, 0.1229429617524147, 0.20754113793373108, 0.043421924114227295, -0.034465041011571884, 0.023331569507718086, -0.007214204873889685, -0.07259511947631836, -0.007902972400188446, 0.044032253324985504, 0.004369509872049093, -0.004976645577698946, 0.015676802024245262, 0.11069178581237793, 0.015086589381098747, -0.002803188981488347, -0.1407206505537033, -0.00632035918533802, -0.03243796527385712, 0.08218272030353546, -0.010194819420576096, 0.0083891237154603, -0.00777954887598753, -0.01218037586659193, 0.025517869740724564], [0.004860399290919304, -0.01820681430399418, -0.0067131794057786465, -0.04510335996747017, 0.02266981080174446, -0.00541020417585969, -0.023441720753908157, 0.008342692628502846, 0.02891593985259533, 0.0202658548951149, 0.012232013046741486, -0.03769269213080406, -0.0074860877357423306, 0.001821700599975884, 0.016246087849140167, -0.001238104421645403, -0.004268909338861704, -0.014626984484493732, 0.12299845367670059, -0.053115516901016235, -0.16185273230075836, -0.0277390219271183, -0.014067166484892368, -0.019216250628232956, -0.03333171829581261, 0.04147487133741379, 0.08734257519245148, 0.039496541023254395, 0.04320325329899788, 0.019228778779506683, -0.0066960775293409824, 0.005352460779249668], [0.025486791506409645, 0.00465486291795969, -0.03258073329925537, 0.03367188200354576, -0.02671867609024048, -0.0281155314296484, -0.01844809390604496, -0.038571447134017944, -0.08566906303167343, 0.07497692853212357, -0.04484663903713226, -0.028079310432076454, 0.00023260813031811267, -0.04844916984438896, 0.05290643498301506, -0.004080640152096748, -0.019536418840289116, 0.015368307009339333, 0.02351289801299572, -0.04688013345003128, -0.06056685745716095, 0.02339278534054756, -0.023236935958266258, 0.010287613607943058, 0.024934817105531693, -0.02120332606136799, -0.07299191504716873, 0.002920120023190975, 0.024529626592993736, -0.06435539573431015, 0.05628473311662674, -0.006230292841792107], [-0.033276114612817764, 0.05096160247921944, -0.015931066125631332, 0.016264066100120544, -0.024443481117486954, 0.02400723099708557, -0.012528897263109684, 0.003760339692234993, -0.021647432819008827, 0.01114698126912117, -0.008484418503940105, -0.008809938095510006, 0.035615965723991394, 0.026280272752046585, -0.03294863551855087, -0.012401270680129528, 0.05811168625950813, -0.00019220926333218813, -0.030719244852662086, 0.012035483494400978, 0.053460393100976944, 0.014914129860699177, 0.0206872820854187, 0.037615157663822174, 0.023136358708143234, -0.022070670500397682, -0.060827672481536865, -0.039323657751083374, 0.05911211296916008, -0.02570956200361252, 0.028615059331059456, 0.0313766673207283], [-0.17637436091899872, 0.047849565744400024, -0.010201104916632175, 0.103534035384655, 0.1016290932893753, -0.09877859801054001, 0.06194807216525078, -0.009715547785162926, 0.18710297346115112, 0.3562662899494171, -0.07254575937986374, 0.18569350242614746, 0.18170668184757233, 0.038374241441488266, -0.09408619999885559, 0.055863022804260254, 0.0020311097614467144, 0.014866252429783344, -0.08311789482831955, 0.25497910380363464, 0.3282338082790375, -0.009327315725386143, 0.1026768609881401, -0.0209676343947649, -0.06253355741500854, 0.02970522828400135, -0.07081346958875656, -0.15401634573936462, -0.018313195556402206, -0.03258572146296501, 0.10915417969226837, 0.07954227179288864], [0.009446412324905396, 0.019126085564494133, -0.06641028821468353, -0.006813789252191782, -0.012373040430247784, 0.012107284739613533, -0.055001985281705856, -4.78614165331237e-05, -0.06570138782262802, 0.13221536576747894, 0.005606412887573242, 0.0038068743888288736, -0.014487756416201591, -0.02200528420507908, 0.06472340226173401, 0.033054765313863754, 0.00942244939506054, -0.025382235646247864, 0.0013486082898452878, -0.02176675945520401, -0.15086954832077026, -0.004727351013571024, -0.12094178050756454, -0.0576634481549263, 0.003312978195026517, 0.006889175623655319, 0.04391668364405632, 0.00828014686703682, 0.04460803419351578, -0.047852836549282074, -0.013289032503962517, -0.00014319682668428868], [-0.017176441848278046, 0.009635577909648418, 0.040783580392599106, -0.0069080134853720665, -0.049497317522764206, -0.01644386537373066, 0.0065773651003837585, -0.002743678167462349, 0.018856709823012352, 0.040415551513433456, 0.02801879495382309, 0.039645638316869736, 0.021034566685557365, 0.012836004607379436, -0.036703113466501236, -0.025004617869853973, -0.0041426713578403, 0.029416780918836594, -0.05311223119497299, -0.026107965037226677, 0.0844850018620491, -0.004782200325280428, 0.0016245520673692226, 0.03171994164586067, -0.03759056329727173, 0.0212166178971529, 0.02466430515050888, 0.020285340026021004, 0.02028706669807434, -0.023030783981084824, 0.005404340103268623, -0.0035813713911920786], [-0.09722824394702911, 0.04774865880608559, -0.03569558635354042, 0.07771927118301392, 0.016300316900014877, -0.02427295781672001, 0.02491224929690361, -0.031415220350027084, -0.02051820419728756, 0.018220236524939537, -0.015476532280445099, -0.00955903809517622, 0.04209137335419655, 0.05930652469396591, -0.033503346145153046, 0.011705341748893261, -0.08595156669616699, 0.03315277770161629, -0.06290419399738312, -0.08444011956453323, -0.06812293082475662, 0.03149028122425079, 0.01724390685558319, 0.05240717530250549, -0.11436797678470612, -0.007398156449198723, 0.049360666424036026, 0.057292576879262924, -0.01393846794962883, 0.09376271069049835, 0.057850949466228485, 0.02412400394678116], [-0.023859338834881783, 0.05188804119825363, 0.01682843081653118, 0.015419675037264824, -0.018853729590773582, -0.0023972734343260527, 0.015891792252659798, -0.002404025988653302, -0.027829881757497787, -0.01707223430275917, -0.046135883778333664, -0.05898653343319893, -0.018176214769482613, -0.013772910460829735, 0.07931850850582123, 0.040416985750198364, 0.009251518175005913, -0.041472163051366806, -0.014332462102174759, -0.03869355842471123, -0.07142655551433563, 0.028581814840435982, 0.0269550122320652, -0.014598733745515347, 0.004003666341304779, -0.003479220438748598, -0.012738232500851154, 0.029433419927954674, -0.0012503834441304207, -0.006382401566952467, -0.010595750994980335, -0.0057881358079612255], [0.008101505227386951, 0.010189025662839413, 0.01286332681775093, 0.03150307014584541, -0.00863529834896326, 0.039151813834905624, 0.06262357532978058, 0.01217089407145977, -0.03738045692443848, 0.01962956041097641, -0.03850986063480377, -0.013923526741564274, 0.02327890694141388, -0.021099217236042023, 0.036970824003219604, 0.02794184349477291, -0.008711070753633976, 0.0007148875738494098, -0.029638612642884254, 0.020852012559771538, -0.026108352467417717, 0.03674162179231644, 0.08383417129516602, 0.010766997933387756, 0.022802788764238358, -0.049997176975011826, 0.00022837062715552747, -0.02383042313158512, 0.005190715659409761, -0.022739658132195473, 0.03367724269628525, -0.011928658001124859], [0.07578989118337631, 0.01819501630961895, -0.004079557489603758, -0.023874759674072266, -0.0027310443110764027, 0.006507814396172762, -0.0229501910507679, 0.07088997215032578, 0.030963324010372162, 0.08455891162157059, -0.06667973101139069, 0.08263754844665527, -0.061525002121925354, -0.009969339706003666, 0.04583745822310448, 0.027019573375582695, -0.00827977154403925, -0.005426575429737568, -0.023661095649003983, 0.003945433534681797, -0.12084902822971344, -0.03606926649808884, -0.0031891202088445425, -0.03242787346243858, -0.015437975525856018, 0.001679356093518436, 0.05696617439389229, -0.03684860095381737, 0.09015001356601715, 0.0010091750882565975, 0.03359512984752655, -0.03453008458018303], [0.01820535771548748, -0.043457843363285065, -0.024292880669236183, -0.022132419049739838, 0.04399348422884941, -0.013788746669888496, -0.005064160563051701, -0.04341069236397743, 0.005289353430271149, -0.024983901530504227, -0.009739494882524014, 0.06807582080364227, -0.05452239513397217, -0.03183083236217499, 0.0459669828414917, 0.012016892433166504, 0.003168647876009345, 0.027884729206562042, 0.13449609279632568, -0.021824592724442482, -0.17445684969425201, 0.003994259983301163, -0.021731439977884293, -0.022387325763702393, 0.022949250414967537, 0.00287118973210454, -0.026099329814314842, 0.008143323473632336, -0.006806215737015009, -0.06617473065853119, -0.015989748761057854, -0.011491787619888783], [0.012452878057956696, 0.010695657692849636, -0.010341946966946125, -0.0036645676009356976, -0.02108892984688282, -0.012279815040528774, -0.07815133780241013, 0.01776539534330368, -0.0006745680002495646, 0.06589288264513016, -0.002454761415719986, -0.00560955423861742, -0.036842066794633865, -0.016086911782622337, 0.07263237982988358, -0.02293562889099121, 0.016249235719442368, -0.046647973358631134, 0.035026200115680695, -0.059194717556238174, -0.21295420825481415, -0.01341958250850439, -0.002852297853678465, -0.04808443784713745, 0.005665590055286884, 0.02339610829949379, 0.01114766113460064, 0.006090502254664898, 0.00036163447657600045, -0.0350659117102623, 0.0018475454999133945, -0.00715575972571969], [-0.010464943945407867, 0.01848907209932804, -0.026399677619338036, -0.04735032841563225, -0.0767410546541214, -0.029692547395825386, 0.004756137728691101, 0.004685197491198778, -0.03430051729083061, -0.0332513265311718, 0.0492221973836422, -0.004718237090855837, -0.0305471234023571, 0.04603589326143265, -0.024306554347276688, 0.004473878536373377, -0.0045340657234191895, -0.00806504487991333, -0.036879535764455795, -0.05508194863796234, -0.009080467745661736, -0.03534216061234474, 0.04742804914712906, -0.013838319107890129, 0.01731998473405838, 0.03731665760278702, 0.047568079084157944, -0.003847347339615226, -0.011795024387538433, 0.039088208228349686, -0.05842166021466255, 0.02044585347175598], [0.03464184328913689, 0.025452520698308945, 0.050233401358127594, 0.0183012243360281, -0.027461744844913483, -0.012882228940725327, -0.012656215578317642, -0.00041850603884086013, -0.02728874795138836, 0.003449660027399659, -0.03859304264187813, -0.06173187494277954, 0.058679524809122086, 0.02977960743010044, -0.029599597677588463, 0.03258552402257919, 0.005917042028158903, 0.03460662066936493, -0.03169606253504753, 0.011768576689064503, -0.008600318804383278, -0.008444982580840588, 0.012259419076144695, -0.014713604934513569, -0.03578595072031021, -0.03136511892080307, 0.017839845269918442, -0.018000861629843712, 0.034478288143873215, -0.04977414384484291, 0.022686922922730446, -0.037222299724817276], [-0.007047953549772501, 0.020209958776831627, -0.013942176476120949, 0.0718589648604393, -0.04548263177275658, -0.0035805401857942343, -0.05472433567047119, 0.029255066066980362, -0.05253858119249344, 0.0007836445583961904, -0.006263372488319874, -0.09359843283891678, 0.04264659807085991, -0.03941015899181366, 0.016789468005299568, 0.06340093165636063, -0.03861408308148384, 0.042452726513147354, 0.05893814563751221, -0.015796059742569923, 0.0033496448304504156, 0.08202610164880753, 0.09591642767190933, 0.03539934754371643, 0.008356602862477303, -0.054999105632305145, 0.0331670418381691, 0.04175298660993576, 0.06995853036642075, -0.048387493938207626, 0.023945171386003494, 0.0033064279705286026], [0.12619860470294952, 0.02147669345140457, -0.061643678694963455, -0.0005976616521365941, -0.05617912486195564, 0.1506047546863556, -0.0330112986266613, -0.08709563314914703, -0.03897956386208534, -0.33104193210601807, -0.024990221485495567, -0.042050834745168686, -0.10986634343862534, -0.13970650732517242, 0.03649552911520004, 0.03749118000268936, -0.03455264866352081, -0.11359784007072449, -0.09838699549436569, -0.11189807951450348, -0.20207639038562775, 0.020066644996404648, 0.013049040921032429, 0.2846556603908539, 0.07530999928712845, 0.13532036542892456, -0.003961597103625536, 0.02698027901351452, -0.10090107470750809, -0.09928702563047409, 0.07512284070253372, -0.06568048894405365], [-0.012299795635044575, 0.020956315100193024, 0.022489266470074654, 0.0009645501268096268, -0.05204027518630028, -0.04230840504169464, -0.0073782214894890785, 0.0068126278929412365, -0.05869653448462486, -0.06561354547739029, 0.012330410070717335, -0.028261495754122734, 0.04767013341188431, -0.011161276139318943, -0.04602779075503349, 0.021116912364959717, -0.01793101243674755, 0.06927675008773804, -0.043286100029945374, 0.018973302096128464, -0.014494352042675018, -0.009275401011109352, 0.07266692072153091, 0.05884410813450813, -0.014888964593410492, 0.050858739763498306, 0.028029851615428925, 0.004279164597392082, 0.03307061642408371, -0.028579160571098328, 0.023871883749961853, -0.007389821112155914], [0.02795333042740822, -0.005655765999108553, -0.06516535580158234, 0.03218495473265648, 0.027220042422413826, 0.0065414756536483765, 0.028488509356975555, -0.0162950549274683, -0.011046252213418484, 0.020856784656643867, -0.01180393248796463, 0.04280799254775047, -0.03237941488623619, -0.018832063302397728, 0.051540471613407135, 0.009118986316025257, 0.003779608989134431, -0.05564862862229347, -0.03293251246213913, -0.030022600665688515, -0.08537837862968445, 0.030137380585074425, 0.035697828978300095, 0.008646145462989807, 0.020634062588214874, -1.4028060832060874e-05, 0.10214810073375702, -0.013966514728963375, 0.0214617308229208, -0.048913177102804184, -0.004193729721009731, 0.015980184078216553], [-0.0823165774345398, 0.010003821924328804, 0.00886161532253027, 0.013536404818296432, 0.029646320268511772, -0.005218930542469025, 0.0020130048505961895, 0.003088354831561446, 0.012413927353918552, 0.1722990721464157, -0.03267914801836014, 0.047745924443006516, 0.09955568611621857, -0.0041107055731117725, 0.006824325770139694, 0.010372452437877655, -0.01184630487114191, 0.0360458642244339, -0.019346412271261215, -0.041688334196805954, -0.05156075581908226, -0.02396956831216812, -0.0031188414432108402, 0.0025599177461117506, -0.07219737768173218, 0.022487925365567207, 0.021884720772504807, 0.024377910420298576, 0.010781009681522846, 0.10477843880653381, 0.05560259521007538, -0.03438691794872284], [-0.0033620037138462067, 0.04554574936628342, 0.0629381611943245, -0.010668642818927765, 0.0024513935204595327, 0.033040136098861694, -0.02043246291577816, -0.006011051591485739, -0.06261024624109268, -0.06007341295480728, 0.037381675094366074, -0.03951676934957504, -0.0030563888140022755, 0.01413322426378727, -0.04935288056731224, -0.05052170157432556, 0.020154666155576706, 0.009081073105335236, -0.025704165920615196, 0.03934016823768616, 0.05074107274413109, -0.0019776117987930775, -0.027169151231646538, 0.05861487612128258, -0.015550261363387108, 0.0008190663065761328, 0.005214591510593891, 0.0016077235341072083, 0.012385182082653046, -0.028726238757371902, 0.037107646465301514, -0.02158590592443943], [-0.014750298112630844, 0.006945046130567789, -0.008010395802557468, -0.05553000792860985, 0.03770707920193672, -0.02842883951961994, -0.033624809235334396, 0.029806053265929222, 0.10979605466127396, -0.16709299385547638, 0.01871727593243122, -0.029000630602240562, 0.0495549775660038, 0.041791535913944244, -0.1734340488910675, -0.04744282737374306, 0.007545237895101309, -0.014702972024679184, -0.09021200984716415, 0.035342104732990265, -0.016733525320887566, -0.04708397015929222, -0.07730132341384888, 0.013073919340968132, -0.053110893815755844, 0.05552378296852112, 0.07349914312362671, 0.020002946257591248, 0.055903926491737366, 0.10536465048789978, -0.07674020528793335, 0.008508543483912945], [-0.003938887733966112, 0.07329123467206955, -0.02200412191450596, 0.0010116577614098787, -0.005307779647409916, -0.007625292520970106, -0.036876607686281204, -0.04741133004426956, -0.04110604152083397, 0.007284955587238073, 0.009716653265058994, -0.030200080946087837, -0.07927661389112473, 0.034917693585157394, -0.015313250944018364, 0.035962313413619995, -0.041316766291856766, -0.1103731095790863, 0.021866638213396072, -0.0334029346704483, -0.15566706657409668, -0.0014331224374473095, 0.0927899032831192, -0.001769869588315487, 0.019675657153129578, 0.016042843461036682, -0.09359710663557053, -0.0374317392706871, 0.01757371798157692, -0.07391712814569473, -0.021229663863778114, 0.059962667524814606], [-3.623029260779731e-05, 0.03062780760228634, 0.011692183092236519, -0.04118596017360687, -0.08383764326572418, -0.06183357909321785, 0.058521103113889694, 0.005741307977586985, 0.017472947016358376, -0.011616491712629795, 3.5755292628891766e-05, 0.049760203808546066, -0.02745499648153782, 0.01583549939095974, 0.05452107638120651, 0.047812074422836304, 0.007383494172245264, 0.030239172279834747, -0.14161713421344757, -0.013455614447593689, -0.28509801626205444, -0.024382248520851135, 0.20220576226711273, -0.0327264629304409, -0.015246511436998844, 0.023929554969072342, 0.10744559019804001, 0.00802664551883936, 0.013004561886191368, 0.0013293056981638074, -0.023816483095288277, -0.029232336208224297], [0.04042389988899231, 0.009716618806123734, 0.01584593579173088, 0.043696753680706024, -0.02506900578737259, 0.01045217551290989, 0.000293660705210641, -0.004754538182169199, 0.007766066584736109, 0.07846735417842865, 0.012700692750513554, -0.05617697164416313, 0.08821096271276474, -0.016245387494564056, 0.0158163420855999, 0.054492875933647156, -0.026687026023864746, 0.03011004440486431, -0.0658794417977333, 0.027901053428649902, 0.06242552399635315, -0.013350090943276882, -0.012379772961139679, -0.03852485120296478, -0.005027429200708866, -0.009138097055256367, 0.04460382089018822, 0.0021656746976077557, 0.0028948101680725813, 0.03534835949540138, 0.025687096640467644, -0.020433546975255013], [-0.007262110244482756, -0.050116922706365585, -0.0707864984869957, 0.04333287477493286, -0.01510364655405283, -0.01504192128777504, 0.017028283327817917, -0.033605244010686874, 0.013867318630218506, -0.054436519742012024, -0.032523054629564285, 0.12140579521656036, -0.10418432950973511, -0.040264301002025604, 0.13659057021141052, 0.012341110967099667, 0.01512052770704031, -0.06074818968772888, -0.10432318598031998, -0.12877628207206726, -0.19456680119037628, 0.025626495480537415, -0.024554388597607613, 0.12340521067380905, 0.033847909420728683, 0.04596024006605148, 0.08768445998430252, 0.022790037095546722, -0.052626751363277435, -0.017634892836213112, 0.05867112800478935, 0.02994101122021675], [0.03512135148048401, -0.012683579698204994, -0.01063450425863266, -0.10827759653329849, -0.0304606631398201, -0.06686645746231079, -0.030816644430160522, -0.02634059637784958, -0.037638988345861435, -0.16464301943778992, -0.001822184887714684, 0.03331049159169197, -0.08587344735860825, 0.008245090954005718, -0.10137750953435898, 0.01694752834737301, -0.03355992212891579, 0.04302682355046272, 0.0709707960486412, 0.15376923978328705, 0.07254430651664734, 0.005320197436958551, 0.043711788952350616, -0.03766380250453949, 0.08255589008331299, 0.05704113095998764, -0.03418070822954178, -0.09605874866247177, 0.08121249824762344, -0.08874330669641495, -0.141229510307312, 0.07946034520864487], [0.0077462042681872845, -0.0639335885643959, 0.02940484881401062, -0.07587852329015732, 0.07758158445358276, 0.014481198973953724, 0.009059075266122818, -0.07431862503290176, -0.07568290084600449, -0.1521378606557846, 0.060035474598407745, -0.10083723068237305, 0.0035280839074403048, 0.015315086580812931, -0.004473614506423473, 0.01180773414671421, -0.06206045299768448, -0.0030273478478193283, 0.19997557997703552, -0.06143007054924965, 0.030122065916657448, -0.06768032908439636, 0.06736153364181519, 7.75159933255054e-05, -0.014269144274294376, 0.06701227277517319, 0.17342184484004974, 0.019130297005176544, 0.02928066812455654, -0.06564093381166458, -0.010359113104641438, -0.028973489999771118], [-0.009793737903237343, 0.03763563185930252, -0.030757274478673935, -0.057373639196157455, -0.016566282138228416, -0.026005612686276436, -0.03007676638662815, 0.03697684034705162, -0.05576779320836067, -0.09193342924118042, -0.025100668892264366, -0.03885131701827049, 0.012784318067133427, 0.020134707912802696, -0.0697554498910904, 0.0597648024559021, -0.09151627123355865, -0.021260900422930717, -0.001826237072236836, 0.02613016404211521, 0.004610846750438213, -0.06413987278938293, 0.05122603848576546, 0.06680794805288315, 0.015664350241422653, 0.06829904764890671, -0.014193650335073471, -0.0413750559091568, 0.029595477506518364, -0.059921931475400925, -0.01852019876241684, -0.009437013417482376], [-0.009792419150471687, -0.03457460552453995, 0.00192832516040653, -0.02515379525721073, 0.08518737554550171, -0.03441996872425079, -0.018915938213467598, 0.04757529869675636, 0.053463902324438095, -0.08450289815664291, -0.009827327914536, 0.10973154753446579, -0.04387768730521202, -0.07365823537111282, 0.11672639101743698, -0.01953306794166565, -0.01456664688885212, -0.10882115364074707, 0.06250809878110886, -0.055455904453992844, -0.1950460523366928, -0.04176497831940651, -0.05880751088261604, -0.02657294273376465, -0.006440781522542238, 0.13399380445480347, 0.07380488514900208, 0.004214704968035221, 0.026988226920366287, 0.03387174755334854, -0.0009701937669888139, 0.0489007793366909], [0.007331113796681166, 0.03650953248143196, 0.03437289968132973, 0.01969066634774208, -0.03552376851439476, 0.007144874893128872, -0.027430251240730286, 0.046481773257255554, -0.04639388248324394, 0.06775341182947159, -0.05415935069322586, 0.03864007443189621, -0.03487309068441391, -0.05174452066421509, 0.08569343388080597, 0.0034885748755186796, 0.026622721925377846, -0.00021224109514150769, 0.008992618881165981, 0.018635444343090057, -0.171213299036026, -0.0059380605816841125, 0.13123756647109985, -0.0340392142534256, -0.0123253483325243, 0.010044494643807411, 0.06602867692708969, -0.03202633187174797, 0.03464367985725403, -0.036781445145606995, 0.04994348809123039, -0.02411874756217003], [0.05909288302063942, -0.0551811121404171, 0.0028185956180095673, -0.007414535619318485, 0.03736143186688423, -0.05406671389937401, -0.03077666275203228, 0.017636507749557495, -0.006999906152486801, 0.2538807690143585, 0.00786329060792923, 0.021781452000141144, -0.10635340958833694, -0.09362087398767471, 0.11541371792554855, -0.015606560744345188, -0.04506060853600502, -0.05649229511618614, -0.01693597435951233, -0.15531136095523834, -0.05837307497859001, 0.021446341648697853, 0.0277287308126688, -0.016204621642827988, -0.029787635430693626, 0.06554020196199417, 0.004827091470360756, 0.04903097823262215, 0.1095835343003273, -0.09571906924247742, 0.019338713958859444, 0.060749590396881104], [0.029469354078173637, 0.015373222529888153, 0.11861065030097961, -0.016017140820622444, -0.0027822405099868774, -0.03971784561872482, -0.021441854536533356, 0.027561064809560776, 0.024701863527297974, 0.012928235344588757, 0.022346211597323418, -0.0005053758504800498, 0.05439988523721695, -0.0013103560777381063, -0.11249172687530518, 0.042422372847795486, 0.029465999454259872, 0.03628316521644592, 0.008891906589269638, 0.0008835872868075967, -0.2968168258666992, -0.007793746422976255, 0.056942638009786606, -0.13075394928455353, -0.014331484213471413, -0.0014899653615429997, -0.01993674412369728, -0.0182234775274992, -0.05360628291964531, 0.055924586951732635, -0.03196944668889046, 0.017857996746897697], [0.008614552207291126, -0.05767868831753731, -0.024845320731401443, -0.07537036389112473, 0.038138605654239655, -0.004843404050916433, -0.057418860495090485, -0.050873443484306335, 0.027820024639368057, -0.004582716152071953, 0.008756794966757298, 0.02155441977083683, -0.01610841602087021, 0.011685195378959179, -0.02539733424782753, 0.003017690032720566, 0.07235778868198395, 0.03933774679899216, 0.12507401406764984, -0.012587564066052437, -0.2456454038619995, -0.049146782606840134, 0.02626943029463291, 0.0021174370776861906, 0.04070621356368065, 0.09063023328781128, 0.27375879883766174, 0.013138937763869762, 0.0018035928951576352, -0.028768526390194893, 0.00223374436609447, 0.041652560234069824], [0.08744415640830994, -0.0652293935418129, -0.025285188108682632, -0.0115912314504385, -0.050677087157964706, -0.0025407110806554556, -0.029614847153425217, -0.048906419426202774, -0.08288578689098358, -0.08279915153980255, -0.07199094444513321, 0.11179691553115845, -0.06582887470722198, -0.07011353224515915, 0.05541149899363518, -0.05020885169506073, -0.03565793111920357, 0.005676343105733395, 0.06655512005090714, -0.0007138671353459358, -0.09524804353713989, 0.02785499580204487, 0.05598963424563408, 0.008163836784660816, 0.09087781608104706, 0.02016717568039894, 0.03795800358057022, -0.036760397255420685, 0.04024694859981537, -0.10210131853818893, -0.020712560042738914, -0.022189194336533546], [-0.007986688986420631, -0.015829766169190407, -0.030702920630574226, 0.030559595674276352, -0.02836562506854534, 0.029595382511615753, 0.02713773027062416, 0.01525530032813549, -0.008915967307984829, -0.020135456696152687, 0.01249296497553587, 0.0032417448237538338, 0.021557295694947243, 0.034522317349910736, 0.004768626298755407, 0.005717569496482611, 0.07931885123252869, -0.00846025999635458, -0.06978324055671692, -0.04544772207736969, -0.008049795404076576, 0.01234518364071846, 0.044049061834812164, 0.028522612527012825, 0.012109371833503246, -0.01146228238940239, 0.03859515115618706, -0.012297924607992172, -0.002874161349609494, -0.014004449360072613, 0.011499674990773201, 0.01999909244477749], [-0.08822790533304214, 0.028363309800624847, -0.037507470697164536, 0.025814931839704514, -0.03564649075269699, -0.007359033916145563, 0.004111728630959988, -0.051292818039655685, -0.024277275428175926, -0.23370738327503204, -0.007578814402222633, -0.021169640123844147, 0.09011594951152802, 0.043257951736450195, 0.009273265488445759, 0.09269658476114273, 0.004400847479701042, 0.0651860460639, -0.07350829243659973, 0.04008015990257263, -0.25163817405700684, 0.027732403948903084, 0.12419912964105606, 0.11950422078371048, -0.017161399126052856, 0.00466254074126482, 0.030134573578834534, -0.05148971825838089, 0.014971590600907803, -0.08885855227708817, -0.018039779737591743, -0.012187539599835873], [0.045940399169921875, -2.565165596024599e-05, -0.0549086257815361, -0.002045795088633895, 0.024347400292754173, 0.08568907529115677, -0.06124558299779892, -0.02105134166777134, -0.07665896415710449, 0.028016546741127968, 0.02090192586183548, 0.04716167598962784, -0.08774708211421967, -0.09871716797351837, 0.11405827850103378, -0.08798658847808838, 0.017644692212343216, -0.05009837448596954, -0.03481872379779816, -0.15431345999240875, -0.16782426834106445, -0.015273724682629108, 0.03166239336133003, -0.009538027457892895, 0.015992028638720512, 0.09595336765050888, 0.04819405823945999, 0.04000873491168022, -0.04099545627832413, -0.035116925835609436, -0.01844138093292713, -0.044939495623111725], [-0.02592829428613186, 0.05298164486885071, 0.0220389012247324, -0.02644139900803566, -0.044744156301021576, -0.0007511806907132268, -0.09158690273761749, -0.036983292549848557, 0.02414441853761673, 0.03616982698440552, 0.03449924290180206, 0.04511146619915962, 0.01898762211203575, 0.01365653332322836, -0.034899044781923294, -0.034095074981451035, -0.0180925652384758, 0.01193633396178484, 6.789046437916113e-06, -0.08223367482423782, -0.05463748797774315, -0.015453645959496498, 0.059084706008434296, 0.014190467074513435, -0.018017180263996124, 0.04468019679188728, -0.054274678230285645, 0.0005701851914636791, 0.016918787732720375, -0.016483033075928688, -0.022757938131690025, 0.016681760549545288], [0.4046231806278229, -0.19207845628261566, -0.06372412294149399, 0.0002498285612091422, 0.18029378354549408, 0.30849456787109375, 0.057007405906915665, 0.009661508724093437, 0.09436681121587753, 0.01864936202764511, -0.16407783329486847, 0.1735767126083374, -0.05324934050440788, 0.04602579027414322, 0.06319628655910492, 0.129825621843338, -0.12335366010665894, -0.029097238555550575, -0.15252742171287537, -0.27206534147262573, 0.14842770993709564, -0.18697038292884827, 0.042232658714056015, -0.06100093945860863, 0.02036401815712452, 0.00299080740660429, -0.1501762717962265, -0.10641708970069885, 0.13753484189510345, -0.03630484640598297, 0.09039661288261414, -0.05886939540505409], [-0.10199447721242905, 0.4478507339954376, 0.6131685376167297, 0.06905988603830338, 0.1972578763961792, 0.4417993128299713, 0.03401630371809006, 0.033228274434804916, 0.38757508993148804, 0.031795434653759, -0.03321260213851929, -0.18514645099639893, -0.1536204069852829, -0.0927657037973404, -0.03823867067694664, -0.2771628797054291, -0.3306339979171753, -0.171112522482872, -0.1245691180229187, 0.09621681272983551, -0.07750622183084488, 0.21487069129943848, 0.08440713584423065, 0.07178030908107758, -0.3737456798553467, -0.2034076601266861, -0.30169278383255005, 0.09328693151473999, 0.2586222290992737, -0.0468955896794796, -0.05601533129811287, -0.15740779042243958], [-0.015283096581697464, -0.5899425745010376, 0.5608922243118286, -0.04526733234524727, 0.1958649456501007, -0.2453414350748062, -0.053796298801898956, 0.3969983756542206, -0.2308286428451538, -0.058438148349523544, 0.23241396248340607, 0.27122169733047485, 0.06379584968090057, 0.2384164035320282, 0.05560414493083954, -0.020110035315155983, 0.07779902219772339, 0.005833566188812256, -0.15522116422653198, -0.02318902499973774, 0.05847417190670967, 0.023276884108781815, 0.09149075299501419, 0.05844072252511978, 0.06866113841533661, -0.20490726828575134, -0.0075919064693152905, -0.04196846857666969, -0.10457158833742142, 0.10214202105998993, 0.16303926706314087, 0.023554611951112747], [-0.07494302093982697, -0.0567854642868042, -0.2052246630191803, 0.1467161923646927, -0.10110297054052353, 0.09327033907175064, -0.004985141102224588, -0.12846311926841736, -0.08207092434167862, 0.1363181173801422, -0.05731211602687836, -0.06780647486448288, -0.046185679733753204, -0.12375013530254364, -0.14762571454048157, -0.12741172313690186, 0.007665557321161032, -0.08287077397108078, -0.12783804535865784, 0.07130695879459381, -0.039478521794080734, 0.3331000804901123, -0.010767203755676746, 0.24440163373947144, -0.1657765954732895, 0.056508805602788925, -0.03446092829108238, 0.18237395584583282, -0.1530160903930664, -0.5479305982589722, 0.3078467845916748, 0.13583819568157196], [-0.39988699555397034, -0.5460174679756165, -0.11677785217761993, 0.16053013503551483, -0.07646844536066055, 0.8570268750190735, -0.46290814876556396, -0.03544243797659874, -0.30976587533950806, 0.13044430315494537, -0.38863763213157654, -0.06762107461690903, -0.15553537011146545, -0.08989729732275009, -0.31046321988105774, 0.3932499587535858, 0.10929670184850693, 0.05952958017587662, 0.10848402231931686, 0.07172252237796783, -0.16775627434253693, -0.14418484270572662, 0.16120347380638123, -0.17023175954818726, -0.7292901873588562, -0.0462704561650753, 0.25986361503601074, -0.14635302126407623, -0.07222213596105576, -0.20774787664413452, -0.43344250321388245, 0.08218566328287125], [0.06704051047563553, -0.38947799801826477, 0.2590356469154358, -0.07598792761564255, -0.6829360723495483, 0.2969430387020111, 0.08459693193435669, -0.15976810455322266, 0.12047521770000458, 0.06279974430799484, 0.1313527375459671, -0.10419335961341858, -0.024933187291026115, -0.020055873319506645, -0.15840090811252594, -0.012729625217616558, -0.09060157090425491, -0.09665850549936295, 0.21832019090652466, -0.09282979369163513, -0.028999177739024162, -9.734156628837809e-05, -0.2720240652561188, 0.4432104229927063, 0.3894876539707184, -0.0987723246216774, -0.001024669036269188, -0.21508532762527466, 0.4038543701171875, 0.07966987043619156, 0.371457576751709, 0.0791344940662384], [0.06770775467157364, -0.10717588663101196, 0.002619524486362934, 0.1883014291524887, 0.3165394067764282, -0.013132804073393345, 0.6384015083312988, -0.4108453392982483, -0.04158308729529381, -0.04267929121851921, -0.08529976010322571, -0.021168354898691177, 0.0682150349020958, 0.1670963317155838, 0.10814058780670166, 0.20395061373710632, -0.009392107836902142, -0.10520356148481369, -0.34498801827430725, 0.008654391393065453, -0.2686873972415924, -0.07623321563005447, 0.31077826023101807, 0.02134147472679615, -0.12479463964700699, -0.04543393477797508, -0.01209984626621008, 0.01434662938117981, 0.167030468583107, 0.06357675045728683, -0.20740212500095367, 0.02273366041481495], [0.11930965632200241, -0.18901470303535461, -0.26445698738098145, -0.02259260043501854, 0.032743364572525024, -0.006956160068511963, 0.27324000000953674, 0.5788736343383789, 0.4421587288379669, 0.022577591240406036, -0.470240980386734, -0.30784451961517334, -0.10312376171350479, 0.07854451984167099, 0.014848897233605385, -0.05566968396306038, -0.16577760875225067, -0.15054170787334442, -0.05946091562509537, 0.05019953101873398, 0.02984997071325779, -0.13025325536727905, -0.033113639801740646, 0.09076246619224548, 0.0509626679122448, 0.007647617720067501, -0.19660595059394836, 0.04822351783514023, -0.06522652506828308, 0.2272762656211853, 0.12601220607757568, -0.058135539293289185], [-0.022302478551864624, -0.24644127488136292, -0.009870379231870174, 0.1362788826227188, 0.44181758165359497, -0.3592498004436493, -0.2501356303691864, -0.5255275368690491, 0.321306437253952, 0.024661799892783165, -0.19620703160762787, 0.19935977458953857, 0.05595574527978897, 0.03583797439932823, -0.004777677357196808, 0.17247556149959564, 0.11467783153057098, -0.16210685670375824, -0.2551669478416443, -0.09263937920331955, -0.062469299882650375, -0.06514447182416916, 0.0706169381737709, 0.12296564131975174, 0.003377575660124421, 0.11835899949073792, 0.04791774973273277, -0.0818352922797203, -0.1036779060959816, -0.057765644043684006, -0.16446569561958313, 0.16745319962501526], [-0.00688128313049674, 0.05218323692679405, -0.1078311875462532, 0.42505979537963867, -0.030477195978164673, 0.07745152711868286, -0.1166507825255394, 0.06250178068876266, 0.11784321069717407, 0.9194480776786804, 0.10554567724466324, 0.03631899133324623, 0.2727339565753937, -0.03036852553486824, 0.19692757725715637, -0.14297807216644287, 0.19035954773426056, 0.0047146715223789215, -0.1345619112253189, -0.28195416927337646, 0.08692219108343124, -0.2940308451652527, 0.2226896584033966, -0.0331091433763504, -0.27184897661209106, 0.14614234864711761, 0.008691241964697838, 0.13756845891475677, -0.18010474741458893, -0.4238945543766022, 0.8808205127716064, -0.0026393195148557425], [0.253804475069046, -0.08223281055688858, -0.08068541437387466, 0.0881078764796257, 0.23769551515579224, 0.32997843623161316, 0.010269485414028168, 0.27878230810165405, 0.2959787845611572, -0.06228453665971756, 0.44304946064949036, 0.23794972896575928, -0.02916536293923855, 0.10855741798877716, 0.18375761806964874, -0.06966933608055115, -0.3344096541404724, -0.08574822545051575, 0.024729624390602112, 0.06688680499792099, 0.16951406002044678, 0.02848314680159092, -0.025342721492052078, 0.07947468012571335, -0.2865273952484131, -0.10116953402757645, -0.09362268447875977, 0.08854293823242188, 0.1394307017326355, -0.09638412296772003, -0.1995779573917389, 0.3055116832256317], [-0.022685352712869644, 0.022801756858825684, -0.48009440302848816, -0.14718151092529297, 0.08628515899181366, -0.007992997765541077, -0.0779772475361824, 0.2978948950767517, -0.15882664918899536, 0.18938952684402466, 0.10048148036003113, 0.2709646224975586, -0.0224776528775692, -0.23794791102409363, -0.15040303766727448, -0.30376818776130676, 0.035453278571367264, 0.20819349586963654, -0.27820414304733276, 0.14073877036571503, -0.39474937319755554, 0.08681055903434753, 0.2806539237499237, 0.12148222327232361, 0.16621369123458862, 0.059742361307144165, -0.2029133439064026, -0.09441760927438736, -0.03757220879197121, 0.15206806361675262, 0.021332208067178726, -0.1374734342098236], [-0.04522419348359108, 0.03912852331995964, -0.1470094621181488, 0.15463890135288239, 0.29374536871910095, 0.012307082302868366, -0.12546522915363312, -0.10897871851921082, -0.18240585923194885, 0.19632558524608612, 0.12478630989789963, 0.04712475836277008, 0.30933424830436707, -0.13094598054885864, -0.18065936863422394, 0.10395514219999313, 0.25178712606430054, 0.08392638713121414, -0.012791491113603115, 0.12037800252437592, 0.11988990008831024, -0.12062312662601471, 0.045790787786245346, 0.12715961039066315, -0.16377438604831696, 0.21777507662773132, 0.12614327669143677, 0.006875736638903618, -0.01925458386540413, -0.040375709533691406, 0.18532541394233704, -0.2030085027217865], [-0.10781534016132355, 0.014065203256905079, -0.16753171384334564, 0.3070836067199707, 0.029002008959650993, -0.2285609394311905, 0.16955479979515076, 0.11720691621303558, 0.12123384326696396, -0.11008260399103165, -0.06565158069133759, 0.18078050017356873, 0.3068905770778656, 0.23007060587406158, 0.020226996392011642, -0.2802305817604065, -0.2136506587266922, -0.3795589804649353, -0.057893216609954834, -0.07555301487445831, 0.08363006263971329, -0.17778529226779938, 0.11422945559024811, -0.23963703215122223, -0.3017807602882385, -0.2018442153930664, -0.24535466730594635, -0.07840170711278915, -0.021308675408363342, 0.12330851703882217, -0.3230178952217102, -0.18987280130386353], [0.16344720125198364, -0.12648585438728333, -0.027101043611764908, 0.24667799472808838, 0.15778471529483795, 0.19110894203186035, 0.07321048527956009, 0.017230311408638954, -0.0477483905851841, 0.2798413038253784, -0.14284108579158783, 0.21339643001556396, -0.2129465490579605, -0.2557063698768616, 0.3664131462574005, 0.12428534030914307, -0.015685927122831345, -0.12397684156894684, -0.09473977982997894, -0.17671747505664825, -0.06800804287195206, 0.08102498948574066, 0.13519179821014404, 0.044352930039167404, 0.0017699837917461991, -0.12382335960865021, -0.009155703708529472, 0.20024892687797546, -0.11534838378429413, -0.2060159593820572, 0.1336532086133957, -0.10506148636341095], [0.1005278155207634, 0.3520902395248413, -0.05575070157647133, -0.1379653364419937, 0.03650446981191635, -0.041280075907707214, -0.3393517732620239, 0.02563287876546383, -0.2728034555912018, 0.10180390626192093, 0.05220627784729004, 0.02904043346643448, -0.04445338621735573, 0.1261478066444397, -0.09351737052202225, 0.5248568654060364, 0.23991484940052032, -0.31776347756385803, 0.04003162309527397, 0.09317720681428909, -0.09818670153617859, -0.31751132011413574, 0.06246424838900566, 0.20592565834522247, 0.1952521800994873, -0.32506972551345825, 0.1205243468284607, -0.16314762830734253, -0.017436234280467033, 0.19585217535495758, 0.16761896014213562, 0.024037126451730728], [0.044397156685590744, 0.06237417086958885, -0.03660613298416138, 0.015057790093123913, -0.03989003971219063, 0.05847423896193504, 0.01508465874940157, 0.03412926197052002, -0.0815163254737854, 0.021226512268185616, 0.03092014789581299, 0.026723569259047508, -0.10158419609069824, 0.11104778200387955, -0.059847138822078705, -0.15763334929943085, 0.5035744905471802, -0.07927990704774857, 0.02167549729347229, 0.0461815781891346, 0.054200123995542526, 0.03589221462607384, -0.06376678496599197, -0.08490971475839615, -0.050443436950445175, 0.1300860345363617, -0.18238306045532227, -0.023172417655587196, -0.0954752042889595, -0.017007339745759964, -0.019782571122050285, 0.14407458901405334], [-0.10176362097263336, 0.1945216804742813, -0.030582958832383156, 0.040357377380132675, -0.08586914837360382, -0.1016479879617691, 0.08939959108829498, 0.24170081317424774, -0.18009483814239502, -0.0013027634704485536, 0.42346152663230896, -0.04318811744451523, 0.20745757222175598, -0.11194576323032379, -0.10933534801006317, 0.3527276813983917, 0.04372955486178398, 0.5257275700569153, 0.06913384050130844, -0.07435907423496246, -0.07165784388780594, -0.05949163809418678, -0.1001407578587532, 0.02645428478717804, -0.04168061912059784, 0.10552751272916794, 0.07573724538087845, 0.19834105670452118, 0.18790867924690247, -0.11844418197870255, 0.004493358079344034, 0.25867101550102234], [0.038103289902210236, 0.03093680553138256, 0.07150634378194809, -0.1572260856628418, -0.7075608968734741, -0.31849440932273865, 0.22990068793296814, 0.016727136448025703, 0.33486810326576233, 0.018476935103535652, 0.025406034663319588, 0.2604396939277649, -0.14121292531490326, 0.05874529108405113, 0.33957621455192566, 0.043969761580228806, -0.014889223501086235, -0.09303104132413864, 1.0830947160720825, 0.07304862886667252, 0.3241382837295532, 0.15925218164920807, 0.5298531651496887, -0.22768379747867584, -0.015758207067847252, 0.19501374661922455, 0.1516747623682022, 0.2879939377307892, 0.18190640211105347, 0.013019418343901634, -0.014187355525791645, -0.14204612374305725], [0.11361150443553925, 0.026921993121504784, 0.1097620353102684, -0.011070923879742622, -0.11021009087562561, 0.13514770567417145, 0.13746850192546844, 0.06769225746393204, 0.14854836463928223, -0.08362589031457901, 0.028407394886016846, -0.041648559272289276, 0.16744698584079742, -0.08917251229286194, 0.13189184665679932, 0.12663160264492035, -0.03874807059764862, 0.012325534597039223, -0.04543974995613098, 0.4256671667098999, 0.0004925623652525246, -0.011216806247830391, 0.043309204280376434, -0.16726413369178772, 0.0929989293217659, -0.20012657344341278, -0.008452238515019417, -0.26384568214416504, -0.02012636512517929, 0.024898793548345566, -0.23498359322547913, -0.04021761938929558], [0.07080310583114624, 0.08790513128042221, -0.043380603194236755, 0.06573827564716339, -0.2540948987007141, -0.11998634785413742, 0.19574511051177979, 0.0830213874578476, 0.35876035690307617, 0.009732389822602272, -0.14448867738246918, 0.28220218420028687, 0.1425282508134842, -0.06456677615642548, -0.1823507845401764, 0.1790817230939865, -0.02244139462709427, 0.11718560755252838, 0.01380353793501854, 0.13003398478031158, 0.3702837824821472, 0.012409507296979427, 0.645260751247406, 0.020668141543865204, 0.06935515999794006, 0.28824901580810547, 0.18672879040241241, -0.21070310473442078, 0.01448152493685484, 0.09326351433992386, -0.024843307211995125, 0.06854650378227234], [-0.06089727580547333, -0.014094825834035873, 0.031015286222100258, 0.3459866940975189, -0.10675206035375595, -0.015070067718625069, 0.041878774762153625, 0.07917614281177521, 0.02151446044445038, -0.08893198519945145, -0.033619415014982224, -0.05121863633394241, -0.09864956885576248, -0.14589625597000122, 0.08767406642436981, -0.06419055163860321, 0.024845609441399574, 0.15533657371997833, -0.006387342698872089, -0.030848754569888115, 0.0008047644514590502, 0.29344865679740906, 0.14020687341690063, -0.06797545403242111, 0.10274369269609451, -0.5360720157623291, 0.0398697555065155, 0.18478187918663025, -0.10016945004463196, 0.02849673107266426, -0.1415446698665619, 0.48756685853004456], [-0.023756545037031174, 0.23683656752109528, -0.011923014186322689, 0.13609863817691803, 0.30849549174308777, 0.3661814033985138, -0.03221665322780609, 0.30654361844062805, -0.09594788402318954, -0.08194978535175323, -0.17635278403759003, 0.5066106915473938, -0.05198895186185837, -0.45163848996162415, -0.14752481877803802, -0.02238103188574314, 0.13967673480510712, -0.06372711807489395, -0.12111445516347885, 0.015540474094450474, -0.047366924583911896, -0.07743890583515167, 1.0818678140640259, 0.5389804244041443, 0.01557410228997469, 0.3341768682003021, 0.05823793634772301, -0.5333138704299927, -0.22799722850322723, 0.10854370146989822, 0.45699018239974976, 0.3542226254940033], [0.047398097813129425, -0.0998326987028122, -0.18171609938144684, -0.06076500192284584, 0.036998577415943146, -0.07290715724229813, -0.23177365958690643, -0.0743195116519928, -0.09410173445940018, -0.5803471803665161, 0.023207467049360275, -0.11712304502725601, -0.06733855605125427, 0.2725701332092285, -0.1441977471113205, 0.08522143214941025, 0.0659434050321579, -0.03331884369254112, -0.009794626384973526, 0.10286863148212433, -0.00659919623285532, 0.14866982400417328, -0.1122656837105751, 0.3074949085712433, -0.18372870981693268, -0.23211732506752014, 0.09791687875986099, 0.19864648580551147, 0.13510563969612122, -0.23280635476112366, -0.020207416266202927, -0.20284441113471985], [0.17403282225131989, 0.0973324179649353, -0.09579011052846909, 0.06074924394488335, 0.08744721859693527, -0.09917629510164261, 0.016663994640111923, -0.11960572749376297, -0.14664435386657715, -0.02554456703364849, 0.023912811651825905, -0.11243538558483124, 0.007282947655767202, 0.11849157512187958, 0.20329460501670837, 0.00836491584777832, 0.018853945657610893, 0.1014021784067154, -0.07429947704076767, -0.0362103134393692, -0.025659896433353424, 0.3013288080692291, 0.021468007937073708, -0.028085047379136086, 0.3290964663028717, -0.07525826245546341, 0.06295750290155411, 0.09412507712841034, -0.1171892061829567, 0.7041851282119751, 0.1928200125694275, -0.180244579911232], [0.10504157841205597, 0.04365629330277443, 0.12294991314411163, -0.1391759067773819, -0.02355685643851757, 0.13046611845493317, 0.0100812753662467, -0.07411268353462219, 0.04300549626350403, -0.18180552124977112, 0.2089223712682724, -0.15822529792785645, -0.13869822025299072, 0.05655399709939957, -0.12631557881832123, 0.0035881479270756245, 0.03523781895637512, 0.02437416836619377, -0.13159987330436707, 0.00884946621954441, -0.16953229904174805, -0.3396241366863251, 0.05156032741069794, 0.10293836146593094, -0.03338362276554108, 0.44866448640823364, 0.03408576548099518, 0.11697478592395782, 0.11888860166072845, 0.051604464650154114, -0.08543301373720169, 0.04276056960225105], [0.1448962539434433, 0.2641846239566803, 0.20503900945186615, 0.003802105551585555, -1.181358814239502, -0.6020015478134155, 0.2650811970233917, 0.07315466552972794, 0.4165629744529724, -0.005085804499685764, 0.05150321498513222, 0.7486990690231323, 0.03602923825383186, 0.2643931210041046, 0.20122411847114563, 0.22784724831581116, 0.30959552526474, -0.12691964209079742, -0.8714801073074341, 0.0579703189432621, -0.4876251518726349, -0.1398976892232895, 0.19649480283260345, 0.10648176074028015, 0.13057772815227509, -0.10489385575056076, 1.131140112876892, 0.21241144835948944, 0.00635869475081563, -0.11385304480791092, -0.06775673478841782, -0.01340132299810648], [0.27635088562965393, 0.15006116032600403, -0.016698652878403664, 0.11448661983013153, 0.2510559558868408, -0.26132598519325256, -0.1763729751110077, 0.007830985821783543, -0.16879577934741974, -0.18014618754386902, 0.07884570211172104, 0.052241452038288116, -0.03855196386575699, 0.033250074833631516, 0.15552474558353424, 0.24878302216529846, 0.20346494019031525, -0.04658631607890129, 0.0065366290509700775, -0.11019017547369003, -0.036767907440662384, 0.2957390546798706, 0.07135716080665588, -0.005713499151170254, -0.5238258838653564, -0.01028752513229847, 0.2053675651550293, 0.12331963330507278, 0.01842891052365303, -0.1577925682067871, -0.5854325294494629, -0.08836622536182404], [-0.17018821835517883, -0.018775174394249916, -0.07404245436191559, 0.06998191773891449, 0.19765864312648773, -0.13142608106136322, -0.3086515963077545, 0.081788070499897, -0.1850370466709137, 0.12362246215343475, -0.153720885515213, 0.3013470768928528, 0.12170512229204178, 0.17466077208518982, 0.030444076284766197, 0.018492482602596283, 0.4363826811313629, -0.21358820796012878, -0.004771545995026827, -0.22695724666118622, 0.08833155035972595, -0.02422361634671688, 0.06174220144748688, 0.19046668708324432, 0.13458195328712463, -0.34216490387916565, 0.2412320226430893, -0.11147873848676682, 0.4280519485473633, 0.1739213764667511, 0.1360166072845459, 0.13634060323238373], [-0.025157000869512558, -0.018166732043027878, 0.005504991859197617, 0.1676170527935028, -0.03976994380354881, 0.15907932817935944, -0.08766357600688934, -0.024879394099116325, 0.05837635323405266, 0.06477939337491989, 0.023331446573138237, 0.011684665456414223, 0.19490210711956024, 0.032235290855169296, -0.038392163813114166, -0.0540669783949852, 0.013658286072313786, 0.0244193933904171, -0.07734263688325882, -0.17777997255325317, 0.012125586159527302, -0.22028081119060516, -0.006375940516591072, -0.06547196954488754, -0.16462329030036926, -0.03907717019319534, -0.02344440668821335, 0.2559780776500702, -0.07580865174531937, 0.4849714934825897, 0.30476704239845276, 0.12139283865690231], [-0.07644541561603546, -0.052277009934186935, -0.07537993788719177, 0.4261637330055237, -0.061525169759988785, -0.17147831618785858, 0.10626495629549026, -0.08349591493606567, 0.01697017252445221, 0.06919487565755844, 0.11939634382724762, -0.03309128060936928, -0.14714813232421875, 0.24186497926712036, -0.07818745076656342, -0.09560898691415787, 0.04423141852021217, -0.09983038902282715, 0.1370828002691269, 0.15771260857582092, -0.09397844970226288, 0.04801325500011444, -0.16968891024589539, 0.5915889143943787, -0.4281425178050995, -0.026068054139614105, 0.02517320215702057, 0.6997404098510742, -0.3643287122249603, -0.23871055245399475, 0.33330875635147095, -0.5810619592666626], [-0.21946154534816742, 0.016322679817676544, -0.2132284790277481, 0.127661794424057, 0.03785902261734009, -0.05093788728117943, 0.03575389087200165, 0.12314458191394806, 0.1402502804994583, 0.155300110578537, 0.29603004455566406, -0.24335350096225739, -0.16339656710624695, 0.17680394649505615, -0.054580725729465485, 0.009121076203882694, 0.02097475714981556, -0.16974349319934845, 0.013040062971413136, 0.08775702118873596, -0.08384217321872711, 0.2175178825855255, 0.05046132579445839, 0.15019653737545013, 0.22897273302078247, -0.010097692720592022, -0.03172740712761879, -0.15061557292938232, -0.11361678689718246, 0.5836732387542725, 0.3145564794540405, 0.22823764383792877], [-0.050288815051317215, 0.031115755438804626, -0.007970621809363365, 0.04789765551686287, 0.01963942125439644, -0.018142402172088623, 0.03671318665146828, -0.020689059048891068, -0.031006518751382828, 0.042523548007011414, -0.014657890424132347, 0.006864984519779682, 0.04429323598742485, 0.03527570888400078, -0.015915874391794205, 0.020369261503219604, -0.04979367181658745, 0.04087211564183235, -0.06608984619379044, -0.047043099999427795, -0.05487653240561485, 0.01667739823460579, -0.012486596591770649, 0.019384650513529778, -0.07132139801979065, -0.018875250592827797, 0.02180642820894718, 0.035408865660429, -0.008423009887337685, 0.0746593251824379, 0.03132517635822296, 0.003378174966201186], [0.0026047304272651672, 0.03513920679688454, -0.011424658820033073, 0.00262003717944026, -0.018612900748848915, 0.03622841835021973, 0.026741044595837593, 0.004599810112267733, -0.018171846866607666, -0.05993499606847763, -0.06297438591718674, -0.03587111085653305, 0.002251760335639119, -0.03298987075686455, 0.0016129353316500783, 0.0355277918279171, -0.010965884663164616, -0.002373786410316825, -0.08166909962892532, -0.03403669223189354, 0.030675839632749557, 0.024267803877592087, 0.023658959195017815, 0.0013165908167138696, 0.03344103693962097, 0.00986902043223381, -0.030773507431149483, -0.009571612812578678, 0.00044376557343639433, 0.05247385427355766, -0.021403884515166283, 0.0030500798020511866], [-0.007200305815786123, 0.05420788377523422, 0.009363398887217045, -0.014947207644581795, -0.03201344609260559, 0.024714728817343712, 0.0029564392752945423, -0.011211924254894257, -0.049101557582616806, 0.0242923516780138, -0.012514523230493069, 0.012525673024356365, 0.0390472412109375, 0.038578055799007416, -0.04525788873434067, 0.006875250488519669, -0.049414508044719696, 0.05022035539150238, -0.0405147559940815, 0.014367573894560337, 0.06895679235458374, 0.006208272650837898, 0.021931961178779602, -0.002217544475570321, 0.007835912518203259, -0.030435392633080482, -0.03745950385928154, -0.0037589145358651876, 0.052131760865449905, 0.08127107471227646, -0.03797841817140579, -0.024165421724319458], [0.05746803060173988, 0.024233758449554443, 0.0224912166595459, -0.02820385992527008, 0.013043532148003578, 0.02898762933909893, 0.0008045695722103119, 0.043590594083070755, -0.055096615105867386, 0.04122043773531914, -0.0312936045229435, 0.035051558166742325, -0.034529611468315125, -7.456241291947663e-05, -0.016287878155708313, 0.05113856494426727, -0.030856052413582802, 0.04815571382641792, 0.03986970707774162, 0.020944517105817795, -0.04794849827885628, -0.014335237443447113, 0.09834935516119003, -0.00038388348184525967, 0.00045410735765472054, 0.0047923787496984005, -0.030841438099741936, -0.023870332166552544, 0.07033215463161469, 0.05353932082653046, 0.008415920659899712, -0.005254553630948067], [0.041307851672172546, -0.025403471663594246, -0.008100478909909725, -0.02007085457444191, 0.024204373359680176, 0.003666968084871769, -0.01865779422223568, -0.02309996820986271, 0.01092512533068657, -0.00012119261373300105, -0.001162232831120491, 0.018272440880537033, 0.019374508410692215, -0.04784020408987999, 0.058792389929294586, 0.035113491117954254, -0.02636183239519596, 0.000375767849618569, 0.018153470009565353, -0.055238787084817886, -0.15908142924308777, -0.024990109726786613, -0.005799517966806889, -0.023872248828411102, -0.02087506838142872, 0.02561780996620655, 0.05427231639623642, 0.018553750589489937, -0.01319845113903284, 0.006659998092800379, 0.006030094809830189, -0.04415981099009514], [0.02117222175002098, 0.023059457540512085, 0.003707358380779624, -0.01951505057513714, -0.04215993732213974, -0.0013001811457797885, -0.035483695566654205, -0.008253314532339573, -0.009778082370758057, 0.027014676481485367, -0.010674228891730309, 0.023145494982600212, 0.0003413082449696958, -0.014585224911570549, 0.0132747208699584, 0.03915519639849663, -0.014811960980296135, 0.004608167335391045, -0.047420088201761246, -0.03135254979133606, -0.191933274269104, -0.021420419216156006, -0.03392084315419197, -0.01113789901137352, -0.0020607840269804, 0.012037291191518307, 0.054175179451704025, 0.003999924752861261, 0.01517631858587265, -0.01584150828421116, 0.007366348057985306, -0.028888696804642677], [0.012341472320258617, -0.019581736996769905, 0.00258428230881691, -0.016012560576200485, -0.0166021678596735, 0.012307872995734215, -0.08608848601579666, -0.01975203864276409, -0.024460194632411003, -0.030029311776161194, 0.01404444221407175, -0.04715842381119728, -0.02592051774263382, 0.009673814289271832, -0.005187607370316982, 0.043304190039634705, 0.007877361960709095, 0.0035038760397583246, 0.020718839019536972, -0.07033508270978928, 0.05455575883388519, -0.03473718464374542, 0.023794738575816154, -0.00325663760304451, 0.02407972328364849, -0.00023979879915714264, -0.08490075170993805, -0.018594691529870033, -0.02349088154733181, -0.037393175065517426, 0.00579038355499506, -0.006376688834279776], [0.03297445550560951, 0.013688866049051285, 0.03038799948990345, 0.004263416398316622, -0.008512650616466999, 0.030632976442575455, -0.004233861807733774, -0.00822905357927084, -0.025189319625496864, -0.03962354362010956, 0.0001373414124827832, -0.04670960083603859, 0.02576187439262867, 0.028697893023490906, -0.028720758855342865, 0.02382664382457733, -0.028044549748301506, 0.005276245065033436, -0.041926492005586624, -0.0027499401476234198, 0.011240954510867596, -0.006771888583898544, -0.01402178592979908, 0.0056673684157431126, -0.0020339288748800755, -0.012841446325182915, 0.006547851022332907, -0.005067714024335146, -0.0008776435279287398, 0.007875126786530018, -0.016501449048519135, -0.027121225371956825], [0.03469683602452278, 0.0080356290563941, -0.02080628275871277, -0.005291670095175505, -0.040101513266563416, 0.06552192568778992, -0.042560819536447525, -0.01719195581972599, -0.07060561329126358, 0.028201529756188393, 0.0320536233484745, -0.020964335650205612, 0.0003600706113502383, 0.020620843395590782, -0.012404552660882473, 0.034654561430215836, -0.037810783833265305, 0.02059541828930378, -0.03153517097234726, -0.010792032815515995, 0.0014539452968165278, 0.021909916773438454, -0.044770099222660065, 0.0070648486725986, 0.02066940627992153, -0.026494814082980156, -0.06834021955728531, 0.0023012051824480295, 0.053734179586172104, -0.01513039879500866, -0.0231162216514349, -0.015179022215306759], [0.060772817581892014, -0.036717988550662994, -0.03807346150279045, -0.04492196813225746, -0.05939760431647301, 0.05884517729282379, -0.03423415869474411, 0.027521580457687378, -0.010467048734426498, -0.0018859922420233488, -0.02136765420436859, -0.03392767161130905, -0.07510067522525787, -0.05145689845085144, 0.04813121259212494, -0.048329442739486694, 0.04583192989230156, -0.07895839959383011, 0.06615804880857468, -0.010749480687081814, -0.1773395985364914, -0.015333079732954502, -0.15234380960464478, -0.039517033845186234, 0.03885443136096001, 0.07009269297122955, -0.041730042546987534, -0.029271524399518967, -0.009439501911401749, -0.08259844779968262, -0.003927409648895264, -0.04161055386066437], [0.0001619242539163679, 0.005842674057930708, 0.003071312792599201, 0.00749330036342144, -0.02975097857415676, -0.04332645982503891, -0.003985580988228321, 0.009377981536090374, -0.0025041846092790365, 0.05183248594403267, -0.03864877671003342, -0.006164193153381348, 0.0590466670691967, 0.019770925864577293, -0.03204098343849182, 0.006832428276538849, 0.010515636764466763, 0.03953107073903084, -0.0209877360612154, 0.022204332053661346, -0.010505727492272854, -0.00544107286259532, 0.0019223474664613605, -0.01274073589593172, -0.012862679548561573, 0.01758718118071556, -0.04365004226565361, -0.017121635377407074, 0.045521143823862076, 0.02256878651678562, -0.005691478028893471, -0.004978299606591463], [0.016168847680091858, 0.04920554533600807, -0.009986469522118568, -0.013651058077812195, -0.006994083058089018, -0.03477533906698227, 0.009348459541797638, 0.01720162108540535, -0.005060888361185789, 0.0224324818700552, -0.015536298044025898, 0.019812868908047676, 0.02934323064982891, 0.03181256726384163, -0.016806157305836678, 0.03964899107813835, -0.005606897175312042, -0.030037472024559975, -0.011399512179195881, 0.028941163793206215, 0.015516988933086395, 0.009910210967063904, 0.10747472196817398, -0.01452064048498869, 0.013548588380217552, -0.02001866325736046, 0.021548515185713768, -0.02468619868159294, 0.07231350988149643, 0.020814429968595505, -0.06216934695839882, 0.010789078660309315], [-0.05317702144384384, 0.010729717090725899, 0.010955444537103176, 0.020186901092529297, 0.02819601632654667, -0.0016597507055848837, 0.02595621533691883, 0.017686495557427406, 0.004365571308881044, 0.10592583566904068, -0.013922384940087795, 0.010362877510488033, 0.08449390530586243, 0.00664058281108737, -0.00024892258807085454, 0.021680815145373344, -0.01123028714209795, 0.033314287662506104, -0.05501529201865196, -0.038035064935684204, -0.06033316254615784, -0.023431923240423203, 0.01494015846401453, 0.013867339119315147, -0.07202628999948502, 0.009780623018741608, 0.012623975984752178, 0.0190446637570858, -0.0013828151859343052, 0.07691085338592529, 0.060416329652071, -0.021569153293967247], [0.0008734594448469579, 0.019157955422997475, -0.0055398233234882355, -0.033335380256175995, -0.0026566162705421448, 0.006615908350795507, 0.002713019261136651, 0.014193449169397354, -0.050971101969480515, 0.012296483851969242, -0.035942014306783676, 0.01054953970015049, 0.009589306078851223, -0.05660947784781456, 0.019578641280531883, 0.009075842797756195, -0.007116985507309437, 0.03218000754714012, -0.0026062787510454655, -0.0035911770537495613, -0.13837236166000366, -0.004561020527034998, -0.05608050897717476, -9.238882194040343e-05, 0.022893335670232773, 0.004618776962161064, 0.026790399104356766, 0.013415094465017319, 0.06148338317871094, 0.006632313597947359, 0.007604178972542286, -0.022161738947033882], [-0.004480356350541115, 0.024527840316295624, 0.01408326718956232, -0.06268524378538132, 0.014275014400482178, -0.03038419969379902, -0.012893203645944595, 0.017675021663308144, 0.03822517767548561, -0.1691526174545288, 0.03514811769127846, -0.04539860785007477, 0.004295182414352894, 0.07230750471353531, -0.149667888879776, -0.04226502403616905, -0.022007087245583534, -0.025111204013228416, -0.011035298928618431, 0.06450457125902176, 0.08289062231779099, -0.01549482997506857, -0.04210435971617699, 0.005770427640527487, -0.007634411565959454, 0.022195421159267426, -0.07029300183057785, -0.005625723395496607, 0.0372299887239933, 0.06013987213373184, -0.10947460681200027, 0.018892772495746613], [0.033888157457113266, 0.034303225576877594, 0.007593638263642788, 0.023743996396660805, -0.024818694218993187, 0.004287989344447851, 0.021614404395222664, -0.004221360199153423, -0.047666266560554504, 0.07263553887605667, 0.0015150484396144748, -0.0658726766705513, 0.012546063400804996, 0.02182058058679104, -0.01606593281030655, 0.09178737550973892, -0.009122364223003387, 0.008009236305952072, -0.02994455210864544, -0.014799225144088268, 0.010160875506699085, -0.001736858393996954, -0.0029555466026067734, -0.00570674566552043, -0.02337474934756756, -0.023940546438097954, -0.0023744755890220404, 0.011482466012239456, 0.043536435812711716, 5.8669083955464885e-06, 0.02109096385538578, 0.00922017078846693], [-0.04765672981739044, -0.01608455367386341, 0.024642042815685272, -0.03458310663700104, -0.0041660419665277, -0.03329137712717056, 0.015346418134868145, 0.023898882791399956, -0.010347221978008747, 0.0058165667578577995, -0.00899718888103962, -0.06159115210175514, -0.02124210260808468, 0.03165740147233009, -0.0036312497686594725, -0.022447826340794563, -0.02305687591433525, -0.0029078114312142134, 0.05532115325331688, -0.001254824921488762, -0.061485808342695236, -0.008848034776747227, 0.02619255892932415, -0.05086343362927437, -0.0488780252635479, -0.0016191602917388082, -0.07973594218492508, 0.0038649518974125385, -0.01551775261759758, 0.0312514491379261, -0.01617320254445076, -0.007329024840146303], [0.007646930404007435, 0.053151171654462814, -0.0026786078233271837, 0.037035174667835236, -0.04266910254955292, 0.016037065535783768, 0.007255070377141237, 0.010530966334044933, -0.019584758207201958, -0.04669851064682007, -0.0014430629089474678, -0.06373627483844757, 0.08189129084348679, 0.005260063335299492, -0.04304521530866623, 0.07305499166250229, 0.028040742501616478, 0.031858038157224655, -0.08934776484966278, 0.05251261219382286, 0.19094830751419067, 0.012154254131019115, 0.04017718881368637, 0.04518201947212219, -0.019178174436092377, -0.017472436651587486, -0.0615837462246418, 0.019325952976942062, 0.024132119491696358, 0.06017268821597099, 0.020194564014673233, -0.007224089466035366], [-0.06380677223205566, -0.05702316015958786, -0.061468303203582764, 0.014062389731407166, 0.0701480433344841, 0.0072045219130814075, -0.05966344475746155, -0.02955431304872036, -0.12051572650671005, 0.011371498927474022, -0.06364679336547852, 0.011417265981435776, -0.08412943035364151, 0.0051855603232979774, 0.03473586216568947, -0.034056808799505234, 0.032956261187791824, -0.035004131495952606, -0.0327584370970726, -0.1127154678106308, -0.22947953641414642, 0.02855769731104374, -0.2768993079662323, 0.020970575511455536, 0.00797320157289505, -0.056899022310972214, -0.10465457290410995, -0.010360075160861015, -0.04647836089134216, 0.00737459771335125, 0.06635285168886185, 0.026598945260047913], [0.026271257549524307, -0.020622095093131065, -0.0007465881062671542, -0.07578285783529282, -0.003513298463076353, -0.016764270141720772, -0.02155640348792076, -0.026052046567201614, -0.04235447198152542, -0.10400348901748657, -0.0014406400732696056, 0.019022183492779732, -0.06385937333106995, 0.000821886002086103, -0.05278044939041138, 0.017268085852265358, -0.022953728213906288, 0.02902986668050289, 0.030233686789870262, 0.07432399690151215, 0.015302097424864769, 0.009509338065981865, -0.014817933551967144, -0.023824887350201607, 0.07121627777814865, 0.022121168673038483, -0.013461611233651638, -0.05770810693502426, 0.06232413649559021, -0.03692983090877533, -0.10003025829792023, 0.05362517014145851], [0.03203902021050453, -0.010661263950169086, -0.0023039209190756083, 0.025195598602294922, -0.053271904587745667, -0.039936840534210205, 0.045321643352508545, -0.0621819794178009, -0.05194242298603058, 0.012891299091279507, 0.006848712917417288, 0.06545432657003403, -0.0036068970803171396, 0.02394723705947399, 0.03109288029372692, 0.0688779279589653, 0.020262882113456726, 0.04739592969417572, -0.07317004352807999, -0.10475378483533859, 0.08719181269407272, -0.013831484131515026, 0.09775590151548386, -0.01578359305858612, 0.0020222740713506937, -0.011863174848258495, 0.01774423010647297, -0.00637265108525753, 0.03530573099851608, -0.06636832654476166, -0.0107168173417449, 0.012632371857762337], [0.01690611243247986, 0.013109026476740837, -0.038099877536296844, -0.020091496407985687, -0.0026348347309976816, -0.017697032541036606, -0.02409372478723526, 0.011353639885783195, -0.015541075728833675, -0.001436759252101183, -0.00012678220809902996, -0.024722056463360786, 0.048256564885377884, 0.027708083391189575, -0.048085279762744904, 0.031517840921878815, -0.04435696452856064, 0.005766900721937418, -0.03157423064112663, 0.032402828335762024, 0.0756336897611618, -0.06454198807477951, -0.012218674644827843, 0.02894585020840168, -0.009469042532145977, 0.027697863057255745, -0.005775901023298502, -0.0375407412648201, 0.038131143897771835, -0.077252596616745, 0.003101723501458764, -0.02235141023993492], [-0.036963652819395065, 0.013773164711892605, 0.029261598363518715, -0.0141441710293293, -0.017427483573555946, -0.03159371763467789, 0.015925563871860504, 0.04185383394360542, 0.0004539105575531721, -0.032524172216653824, -0.02436853013932705, 0.03558904305100441, -0.026153920218348503, -0.049025457352399826, 0.08339790999889374, -0.009673151187598705, 0.005328380037099123, -0.04073263332247734, 0.08946530520915985, -0.11096720397472382, -0.06704900413751602, -0.03481648117303848, -0.0018630168633535504, 0.007834293879568577, -0.04325129836797714, 0.10938368737697601, -0.13711543381214142, 0.03088397905230522, 0.022662067785859108, 0.013066863641142845, 0.0940358117222786, 0.01969747617840767], [-0.02279401756823063, -0.024232685565948486, 0.02953602746129036, -0.0027970534283667803, 0.015376134775578976, -0.051866549998521805, -0.013506608083844185, -0.044527869671583176, -0.058221183717250824, 0.053229473531246185, -0.011662113480269909, -0.017306596040725708, 0.01864551194012165, 0.008026285097002983, -0.034678347408771515, 0.05382101982831955, 0.0023127945605665445, 0.06308256834745407, -0.01832197792828083, 0.03462148457765579, -0.07845427095890045, -0.008865075185894966, -0.0398857556283474, -0.0365883968770504, -0.03631960600614548, 0.012850194238126278, -0.04421359673142433, 0.008832854218780994, -0.016183970496058464, 0.011943772435188293, -0.0608397014439106, 0.011174201034009457], [0.03550169989466667, -0.010485142469406128, -0.007424831390380859, 0.02392781525850296, -0.009726417250931263, -0.02359473891556263, -0.010147574357688427, -0.010011298581957817, -0.00986302737146616, 0.19379711151123047, 0.009397689253091812, 0.033386893570423126, -0.0638725757598877, -0.04185939580202103, 0.09272816777229309, -0.005509431008249521, -0.030553657561540604, -0.02002713643014431, 0.02090706303715706, -0.09951212257146835, -0.11725983768701553, 0.027595123276114464, 0.04514579474925995, -0.015493310987949371, -0.06916256994009018, 0.04345041513442993, 0.0027131722308695316, 0.053587328642606735, 0.030680228024721146, -0.03558969870209694, 0.004702461417764425, 0.0205535925924778], [-0.0025678668171167374, 0.07517866045236588, 0.07045100629329681, -0.0018018375849351287, -0.029075954109430313, -0.02132473699748516, 0.024759337306022644, -0.00759937334805727, 0.042182181030511856, -0.0037074715364724398, 0.02130947634577751, -0.021459603682160378, 0.045801009982824326, 0.03483634069561958, -0.10543502122163773, -0.0004797246656380594, 0.021515781059861183, 0.003047457430511713, -0.0016018144087865949, 0.011698995716869831, 0.03267325833439827, 0.004734009969979525, 0.06370974332094193, -0.06155533716082573, -0.025590557605028152, -0.03732201084494591, -0.029196657240390778, -0.00543450191617012, 0.015493917278945446, 0.032588616013526917, -0.01676829159259796, 0.009629447013139725], [-0.037478890269994736, 0.009803659282624722, -0.02512768656015396, -0.038638629019260406, 0.02554432861506939, -0.14015118777751923, -0.03487924858927727, 0.03827604651451111, 0.07668940722942352, 0.01329716295003891, 0.06055394932627678, 0.043441206216812134, 0.02082037553191185, 0.0055376519449055195, -0.03185984119772911, -0.1320871263742447, -0.07770749926567078, -0.014234078116714954, 0.07778170704841614, -0.06972881406545639, -0.10599859803915024, -0.0902542993426323, 0.01876855455338955, -0.0026304745115339756, 0.004077971447259188, 0.14934980869293213, 0.1509447544813156, 0.03354795649647713, 0.06142817810177803, 0.049094121903181076, 0.012776775285601616, 0.08832404762506485], [0.03023337759077549, 0.01013079471886158, -0.013938098214566708, 0.0014356967294588685, -0.04462989792227745, 0.014546132646501064, -0.02634667046368122, -0.029064852744340897, -0.03455817699432373, -0.007750328164547682, -0.023676110431551933, -0.0021455292589962482, -0.02199668064713478, -0.007997498847544193, 0.021041933447122574, 0.0025379618164151907, -0.014994245953857899, -0.03241455554962158, 0.046330664306879044, 0.01653674989938736, -0.034610193222761154, 0.0034274959471076727, 0.025570549070835114, 0.009267720393836498, 0.03210270032286644, -0.0017584001179784536, 0.05806786194443703, -0.023742899298667908, 0.042062416672706604, -0.05979404225945473, 0.027735352516174316, -0.005514059215784073], [-0.010856473818421364, 0.015333132818341255, 0.020015856251120567, -0.017146557569503784, 0.02195722796022892, 0.01696753315627575, -0.014241226017475128, 0.006156884133815765, -0.036663077771663666, -0.01718570850789547, -0.02023034170269966, 0.015996206551790237, 0.02401740476489067, -0.0007128858705982566, -0.029964881017804146, 0.007401693612337112, 0.04052676260471344, 0.0059432643465697765, -0.03933790698647499, 0.006950052455067635, 0.07624701410531998, 0.01580813340842724, 0.040571995079517365, 0.01874881237745285, 0.0470641627907753, -0.014221279881894588, -0.010439407080411911, -0.05362226068973541, 0.09727229923009872, -0.010926108807325363, 0.0019463052740320563, 0.0423402301967144], [-0.17775137722492218, 0.04103521630167961, 0.03384421765804291, 0.018179895356297493, 0.09146533161401749, 0.036521364003419876, 0.011756940744817257, 0.03095427341759205, 0.10420312732458115, -0.06650328636169434, -0.05275166779756546, -0.005271981470286846, 0.11572428047657013, 0.06082608178257942, -0.09517378360033035, -0.006451684515923262, 0.047117020934820175, 0.05688938498497009, -0.0449804849922657, 0.01981857605278492, -0.06753657013177872, -0.053566090762615204, 0.0048675923608243465, 0.06597799807786942, -0.12315291911363602, 0.03182317689061165, -0.06651758402585983, -0.0894896611571312, -0.06685487180948257, 0.022019516676664352, 0.06973114609718323, -0.05408894643187523], [-0.0006174020818434656, 0.027956001460552216, -0.07026179134845734, -0.003371192142367363, 0.025245537981390953, -0.01274270098656416, -0.06512812525033951, -0.01350496243685484, -0.06614254415035248, 0.045661211013793945, 0.0006749566528014839, 0.03418891131877899, -0.0071579525247216225, -0.027064979076385498, 0.04895395785570145, 0.03567977622151375, 0.006296184379607439, -0.036376841366291046, 0.00450269365683198, -0.03326059505343437, -0.1334165781736374, -0.008510635234415531, -0.0287894606590271, -0.021393902599811554, -0.004640035331249237, 0.029720552265644073, -0.008951427415013313, 0.004808084107935429, 0.028680142015218735, -0.04830764979124069, 0.0026054270565509796, 0.004838245455175638], [0.00037338410038501024, 0.036386050283908844, 0.01558319479227066, -0.023877901956439018, -0.03124360181391239, 0.007347180508077145, -0.01466729398816824, -0.025855321437120438, 0.011440289206802845, 0.06337998062372208, 0.008942408487200737, -0.004660069942474365, 0.030607573688030243, 0.016806114464998245, -0.0268112625926733, -0.0074318777769804, 0.0009126056684181094, 0.01860562339425087, -0.04509196802973747, -0.02941782958805561, 0.0150121059268713, -0.018154457211494446, -0.028845787048339844, -0.023465288802981377, -0.010868693701922894, 0.016464337706565857, -0.05597342923283577, -0.01096153724938631, 0.03367558866739273, -0.012818261981010437, -0.01888732984662056, -0.012973801232874393]], "rec.bias_ih_l0": [0.040753670036792755, 0.2976895272731781, 0.10654570162296295, -0.1395995318889618, 0.6252351403236389, 0.44031932950019836, -0.09772845357656479, -0.07565156370401382, -0.03778596594929695, 0.2285386472940445, -0.028454473242163658, 0.2632367014884949, 0.07613515853881836, 0.22610528767108917, 0.0020130639895796776, -0.02967274934053421, -0.6776976585388184, 0.2588861286640167, 0.24348308145999908, 0.060695383697748184, 0.05588361993432045, -0.28998494148254395, 0.4427805542945862, 0.11020897328853607, 0.3735913634300232, -0.3033097982406616, 0.629776656627655, -0.000405862316256389, -0.015898916870355606, -1.0613691806793213, 0.31486812233924866, -0.15884055197238922, 0.36103713512420654, 0.3386598527431488, 0.47684937715530396, 0.3831205666065216, -0.021871646866202354, 0.2010878324508667, 0.6566867828369141, 0.6458636522293091, 0.6159794330596924, 0.5408316850662231, 0.5947968363761902, 0.26583051681518555, 0.25531354546546936, 0.27416008710861206, 0.321581095457077, 0.6808708906173706, 1.2270827293395996, 0.4175439476966858, 0.12039215862751007, 0.3168293833732605, 0.42589181661605835, 0.5660601258277893, 0.08806733787059784, 0.32447367906570435, 0.12310804426670074, 0.7671939134597778, 0.3775519132614136, 0.3668028712272644, 0.6032077670097351, 1.410095453262329, 0.20426513254642487, 0.5721200108528137, 0.019963497295975685, -0.047508060932159424, -0.039258427917957306, -0.017166867852211, -0.07975441217422485, 0.05827447399497032, -0.013889670372009277, -0.0012084005866199732, -0.05454471707344055, -0.0021440116688609123, 0.04738076776266098, 0.012084512040019035, 0.06193023920059204, 0.07795943319797516, -0.015291640534996986, 0.03855080530047417, 0.012523694895207882, 0.008757682517170906, -0.016723254695534706, -0.039279479533433914, -0.05501855909824371, 0.09746277332305908, -0.0070275356993079185, -0.07500342279672623, -0.004714313428848982, 0.09941454976797104, -0.13549432158470154, -0.14674730598926544, -0.0406271256506443, 0.05803310126066208, -0.009882142767310143, -0.09012254327535629, 0.12342744320631027, 0.3449752628803253, 0.18301470577716827, 0.0127249239012599, 0.6483837366104126, 0.4875405728816986, 0.17545780539512634, 0.12221936136484146, 0.28908634185791016, 0.08363241702318192, 0.14169864356517792, 0.3656439483165741, 0.17710717022418976, 0.3530547022819519, 0.1142273023724556, 0.17309831082820892, 0.18533891439437866, 0.309915155172348, 0.052858442068099976, 0.17908942699432373, 0.04837081953883171, -0.011586206965148449, 0.10738692432641983, 0.19003386795520782, 0.34228479862213135, 0.01925724372267723, -0.24603398144245148, 0.33498528599739075, 0.1704017072916031, 0.1872716248035431, 0.42716631293296814, 0.09983012825250626], "rec.bias_hh_l0": [0.04478032514452934, 0.3003802001476288, 0.10632307082414627, -0.13974416255950928, 0.6252658367156982, 0.4403192698955536, -0.09734155237674713, -0.080926813185215, -0.03793777525424957, 0.23156702518463135, -0.0425928570330143, 0.26350706815719604, 0.07167995721101761, 0.22312001883983612, -0.0007715781102888286, -0.029235953465104103, -0.7057597637176514, 0.25888603925704956, 0.2794250249862671, 0.06063760071992874, -0.014071870595216751, -0.2968383729457855, 0.4447369873523712, 0.0915217399597168, 0.34136122465133667, -0.3297850489616394, 0.6146335005760193, 0.002511383732780814, -0.01585915870964527, -1.0389232635498047, 0.31622910499572754, -0.19223906099796295, 0.354633629322052, 0.3417900800704956, 0.4764486849308014, 0.38286349177360535, -0.021851683035492897, 0.20108097791671753, 0.6676821112632751, 0.6442511677742004, 0.6090788841247559, 0.3453664481639862, 0.5376762747764587, 0.27540647983551025, 0.2542265057563782, 0.276944100856781, 0.30682268738746643, 0.6763625741004944, 1.2274810075759888, 0.4175439476966858, 0.15974582731723785, 0.31674695014953613, 0.38336318731307983, 0.5707245469093323, 0.09853214770555496, 0.33424112200737, 0.16608980298042297, 0.7422093152999878, 0.34949174523353577, 0.37001293897628784, 0.6047385334968567, 1.4221396446228027, 0.20457802712917328, 0.5824272632598877, -0.0004858888569287956, 0.08736533671617508, 0.0638418197631836, 0.0006453999667428434, 0.010888073593378067, -0.05024624615907669, -0.058044422417879105, 0.03180732578039169, 0.024054277688264847, 0.040897030383348465, -0.009602906182408333, -0.07069279998540878, -0.02382591925561428, -0.07042775303125381, 0.044840555638074875, -0.046556394547224045, 0.01934659108519554, -0.04324091225862503, 0.07467546314001083, -0.028282860293984413, -0.17291119694709778, -0.08802950382232666, 0.005309491418302059, 0.05636310949921608, -0.03853890672326088, -0.12447145581245422, 0.04937455803155899, 0.11346274614334106, 0.07628031075000763, -0.03876293823122978, 0.061983443796634674, 0.09688326716423035, 0.11708498746156693, 0.3452482223510742, 0.18357452750205994, 0.012337896972894669, 0.6484274864196777, 0.4875451624393463, 0.16923248767852783, 0.11452711373567581, 0.2881685197353363, 0.07460632175207138, 0.14986056089401245, 0.36672621965408325, 0.17612598836421967, 0.3481738865375519, 0.11624976992607117, 0.17951811850070953, 0.2029598206281662, 0.3099152147769928, 0.049048181623220444, 0.17911487817764282, 0.053749337792396545, -0.01828649267554283, 0.10634298622608185, 0.21428120136260986, 0.3457753360271454, 0.01694641076028347, -0.28316447138786316, 0.32928764820098877, 0.1701069474220276, 0.21450665593147278, 0.426963210105896, 0.09768624603748322], "lin.weight": [[-0.021699154749512672, -0.6394550800323486, 0.14379805326461792, -0.11726770550012589, 0.42825454473495483, -0.10787313431501389, 0.45714446902275085, -0.05076697841286659, 0.7022079229354858, -0.00040399093995802104, -0.5012795329093933, -0.5289252400398254, 0.45242446660995483, -0.998617947101593, 0.1982422024011612, 0.5942330956459045, 0.841001033782959, 0.37876230478286743, 0.01592891849577427, 0.00597533630207181, -0.0028054278809577227, -0.08750567585229874, 0.04330115020275116, 0.3700222671031952, 0.05650749430060387, 0.00041046529076993465, 0.4347514808177948, 0.7434120178222656, 0.7950530052185059, 0.022611094638705254, 0.01425265148282051, -0.60597825050354]], "lin.bias": [-0.06686370074748993]}}