{"model_data": {"model": "SimpleRNN", "input_size": 1, "skip": 1, "output_size": 1, "unit_type": "LSTM", "num_layers": 1, "hidden_size": 32, "bias_fl": true}, "state_dict": {"rec.weight_ih_l0": [[0.08956512808799744], [-0.011620327830314636], [-0.005958250258117914], [-0.02306300960481167], [0.000347096414770931], [0.04038697108626366], [-0.03805911913514137], [-0.0945245772600174], [0.0030666098464280367], [0.08533097803592682], [0.042549531906843185], [-0.03731544688344002], [0.010366179049015045], [-0.016214817762374878], [-0.039840079843997955], [-0.12278532236814499], [-0.03099338337779045], [0.003748690476641059], [0.06990744173526764], [0.27292096614837646], [0.028710616752505302], [-0.01462485734373331], [-0.0060374438762664795], [0.007053485605865717], [-0.05925527960062027], [-0.017983680590987206], [0.004579619504511356], [0.008193407207727432], [0.006943553686141968], [-0.02214622311294079], [0.015088573098182678], [0.03555149585008621], [0.10839934647083282], [0.005434081889688969], [0.01844722405076027], [-0.019818304106593132], [-0.05352039262652397], [0.03381438925862312], [-0.03897431865334511], [0.03246128559112549], [-0.047452542930841446], [0.04449979215860367], [0.049842625856399536], [0.00188421830534935], [0.04363904520869255], [-0.05292438343167305], [-0.03743484616279602], [-0.027163414284586906], [0.03863577917218208], [0.024376219138503075], [0.0587114579975605], [0.14061148464679718], [0.05446690693497658], [-0.00574650801718235], [0.04387034475803375], [-0.02052246779203415], [-0.06635208427906036], [-0.015328542329370975], [-0.023511232808232307], [0.022772913798689842], [-0.027658268809318542], [0.08545436710119247], [0.01104538794606924], [0.04743599519133568], [-0.17653605341911316], [-0.19188471138477325], [0.06683323532342911], [0.03334997594356537], [-0.08829819411039352], [-0.32545289397239685], [0.7262420654296875], [-0.34247905015945435], [-0.14403001964092255], [0.08691300451755524], [0.31475093960762024], [-0.016949813812971115], [-0.20070025324821472], [0.014550074003636837], [0.02538498304784298], [-0.1370227038860321], [-0.3196426331996918], [-0.01496062520891428], [-0.02374626137316227], [-0.4176510274410248], [0.12952685356140137], [-0.06533916294574738], [0.5225774049758911], [0.6353548169136047], [2.212785482406616], [0.020880738273262978], [0.17152109742164612], [0.06647678464651108], [-0.025380905717611313], [-0.05835922434926033], [-0.025769278407096863], [0.11212152242660522], [0.10119573026895523], [-0.02199164219200611], [0.02150539681315422], [-0.02715558186173439], [-0.013694717548787594], [0.07560081779956818], [-0.030474886298179626], [-0.04848289489746094], [0.004022542852908373], [0.010163946077227592], [0.03640288859605789], [-0.017250556498765945], [-0.0011066260049119592], [0.0036546674091368914], [-0.04215528815984726], [-0.0833469107747078], [-0.005981444381177425], [0.03952334448695183], [0.04287842661142349], [-0.04860389605164528], [-0.027418721467256546], [-0.0012614314910024405], [-0.01535646803677082], [-0.006911412812769413], [-0.07650472968816757], [-0.028162917122244835], [0.004377991892397404], [0.03715613856911659], [-0.010820065625011921], [0.04607932269573212], [0.053244683891534805], [0.038326796144247055]], "rec.weight_hh_l0": [[-0.06459829211235046, 0.1224094033241272, 0.016012422740459442, -0.01667586900293827, 0.0017090766923502088, 0.14235663414001465, -0.047254111617803574, -0.15456433594226837, 0.040600914508104324, -0.12044273316860199, 0.07534383237361908, -0.02308533899486065, -0.014695639722049236, 0.05992346629500389, 0.1149781197309494, 0.023150231689214706, 0.0019130132859572768, 0.04666440933942795, -0.06510552763938904, 0.04022083804011345, 0.2906785011291504, 0.10031045228242874, 0.0031538824550807476, -0.09433439373970032, 0.18896181881427765, -0.05211269110441208, -0.038858264684677124, -0.12701839208602905, 0.02297845296561718, -0.010360055603086948, 0.08264165371656418, 0.0222703255712986], [0.08061745017766953, 0.02293853834271431, 0.0019244493450969458, -0.017305828630924225, -0.012728983536362648, -0.022651683539152145, 0.07045719772577286, 0.07827294617891312, 0.029606277123093605, -0.004794861190021038, 0.03357129916548729, 0.03868357837200165, -0.26316097378730774, 0.0375676192343235, -0.00517031317576766, -0.12735170125961304, 0.019039379432797432, -0.0955493375658989, 0.016872281208634377, 0.023255614563822746, 0.047217149287462234, -0.06615246832370758, -0.28994300961494446, -0.113538458943367, -0.012556828558444977, 0.03975038230419159, -0.002091402420774102, 0.012458020821213722, -0.00908098928630352, -0.036848101764917374, 0.07038756459951401, -0.025535540655255318], [-0.015013526193797588, 0.015741609036922455, -0.08635310083627701, -0.010898363776504993, 0.006279784720391035, 0.03337405249476433, 0.007140600122511387, -0.04816283658146858, -0.013498199172317982, 0.03239785134792328, 0.00876451376825571, 0.017408348619937897, -0.017365358769893646, -0.0071643744595348835, 0.023239845409989357, -0.05197122320532799, -0.01976209133863449, -0.06165464222431183, 0.01715741492807865, -0.04635777324438095, -0.02761155553162098, 0.023092888295650482, -0.026884136721491814, -0.010529995895922184, -0.035262808203697205, -0.010869770310819149, 0.010780919343233109, 0.14108934998512268, 0.00877545028924942, 0.010026567615568638, 0.03558927774429321, -0.036327868700027466], [0.006875833496451378, -0.028582368046045303, 0.056193891912698746, 0.011275345459580421, 0.00910127256065607, -0.023614732548594475, -0.03119334951043129, 0.036869585514068604, -0.032486625015735626, -0.04564949497580528, -0.0009272254537791014, -0.021331030875444412, 0.01946604810655117, -0.015545954927802086, 0.011731875129044056, 0.06936082988977432, 0.03148965165019035, 0.045329537242650986, 0.04685380309820175, 0.022550197318196297, 0.045548468828201294, -0.005835084710270166, -0.035512007772922516, 0.034039270132780075, -0.022004906088113785, -0.00048149179201573133, 0.01832597516477108, -0.026135968044400215, 0.023651234805583954, 0.00039841432590037584, -0.07994376868009567, -0.004520605783909559], [-0.016854876652359962, -0.07628171145915985, 0.006445882376283407, -0.0030625525396317244, -0.04388915374875069, 0.05647661164402962, -0.010748113505542278, 0.0035766675136983395, 0.012179773300886154, 0.01973905973136425, 0.006338953971862793, 0.031616393476724625, 0.09885984659194946, -0.011583284474909306, 0.02483309619128704, 0.11872497200965881, 0.030612973496317863, -0.035943880677223206, 0.0068791816011071205, -0.032292164862155914, 0.10916110873222351, 0.09693663567304611, -0.0520019493997097, -0.030724970623850822, -0.003617327893152833, 0.006217346992343664, 0.04154649004340172, 0.02364635467529297, -0.06183077394962311, 0.007366697303950787, -0.04633995145559311, -0.02820306457579136], [0.085542693734169, -0.05974337458610535, 0.24595145881175995, 0.003114070277661085, -0.05197933688759804, -0.08566998690366745, -0.0493687242269516, -0.0008541814750060439, -0.004419286735355854, -0.12142418324947357, 0.03802826628088951, -0.1418360471725464, -0.12679950892925262, -0.03149118646979332, -0.0485864020884037, -0.12949730455875397, -0.056534893810749054, 0.31473565101623535, -0.18917901813983917, 0.10518626868724823, 0.012470961548388004, -0.13385766744613647, -0.012684443965554237, 0.08372703939676285, 0.058248307555913925, 0.02643253467977047, 0.04271548241376877, -0.5838345885276794, 0.01202149223536253, -0.1394379734992981, -0.04353282228112221, 0.1712643951177597], [0.040439754724502563, 0.047883886843919754, -0.18354444205760956, -0.014887521974742413, -0.023808998987078667, -0.017821859568357468, -0.0021568783558905125, 0.11475412547588348, -0.010444997809827328, 0.11818680912256241, -0.0029734475538134575, 0.03875157609581947, -0.08115893602371216, 0.002258464228361845, 0.03757041320204735, -0.019895752891898155, -0.0848902091383934, -0.2606193721294403, 0.044409383088350296, -0.14218352735042572, -0.18753305077552795, -0.020302586257457733, -0.024624193087220192, -0.029096443206071854, -0.1092824712395668, 0.016489777714014053, 0.03711245581507683, 0.28878092765808105, -0.01608516462147236, 0.05670773237943649, 0.04315261170268059, -0.08368957042694092], [0.08976330608129501, -0.022715700790286064, 0.0494631789624691, 0.00044778722804039717, 0.08768851310014725, 0.06244305148720741, -0.18559321761131287, 0.07708137482404709, 0.05575275421142578, -0.13053615391254425, 0.0035495164338499308, 0.0007758480496704578, -0.057620514184236526, -0.1334100365638733, 0.05049262195825577, -0.22350721061229706, 0.008691634051501751, -0.02204814739525318, 0.010402815416455269, 0.1345348060131073, -0.04656783863902092, -0.17730386555194855, 0.0866231843829155, -0.0782962366938591, -0.07451371848583221, -0.0123674301430583, 0.14526832103729248, -0.18794165551662445, -0.04644690454006195, 0.041150983422994614, -0.006778598763048649, 0.01602316088974476], [-0.007026046514511108, 0.015529726631939411, 0.009405849501490593, -0.009531835094094276, 0.0327838696539402, 0.013604799285531044, 0.005475913640111685, -0.005117530468851328, -0.03994825854897499, -0.031011110171675682, -0.03141045942902565, 0.008964810520410538, -0.026707984507083893, 0.04876382648944855, -0.06255248188972473, 0.027866851538419724, 0.0561506450176239, -0.03500260412693024, -0.025444600731134415, -0.032357048243284225, 0.07264690846204758, 0.03510343283414841, -0.0552101694047451, -0.0059177144430577755, 0.01923217996954918, 0.03990237042307854, -0.05744429677724838, 0.03506374731659889, 0.02644401602447033, -0.012196929194033146, 0.025206241756677628, 0.012244154699146748], [-0.6231388449668884, -0.3705119788646698, 0.48725369572639465, 0.020622409880161285, 0.009081976488232613, 0.14614778757095337, 0.00036924058804288507, 0.045943036675453186, 0.12220285087823868, 0.08461157977581024, 0.09888618439435959, -0.06797756999731064, 0.44699999690055847, 0.12685410678386688, -0.29406651854515076, 0.3678654134273529, 0.08569476008415222, 0.4558590352535248, -0.3568724989891052, 0.2899172008037567, 0.4784459173679352, 0.003355506807565689, -0.16299553215503693, 0.14920593798160553, 0.08232959359884262, -0.024223268032073975, -0.20710985362529755, -0.5201059579849243, -0.01329340785741806, -0.25854024291038513, -0.06032777205109596, 0.3333490788936615], [-0.03940410912036896, 0.08486569672822952, -0.004023105837404728, -0.015323447063565254, -0.0018537347204983234, 0.007487385533750057, -0.12505821883678436, 0.007613808382302523, 0.030130939558148384, 0.06281279027462006, -0.07102946937084198, -0.014045752584934235, 0.1669238805770874, 0.002391168614849448, 0.0877535343170166, -0.07367734611034393, 0.007079719565808773, -0.019832029938697815, -0.0371159091591835, -0.07112555205821991, -0.051795776933431625, 0.021826349198818207, 0.13555067777633667, 0.01528036780655384, 0.03569268807768822, -0.053315386176109314, 0.05730210989713669, 0.011362635530531406, 0.0015993908746168017, -0.016977043822407722, 0.030101710930466652, 0.021956736221909523], [0.02771540731191635, -0.04749675095081329, 0.08085750043392181, 0.018100986257195473, 0.03337354585528374, -0.012287331745028496, -0.057037368416786194, 0.13670390844345093, -0.07386676967144012, -0.18791282176971436, -0.01720801554620266, 0.025380492210388184, -0.0012977173319086432, 0.11460398882627487, -0.06086280941963196, -0.14368732273578644, 0.035541851073503494, 0.09393200278282166, -0.1172085702419281, 0.10543172806501389, 0.08221547305583954, -0.10353928059339523, 0.17254474759101868, 0.022513482719659805, -0.06801861524581909, 0.06937216222286224, 0.04812575504183769, -0.243885338306427, -0.027201183140277863, -0.06205039843916893, 0.15481485426425934, 0.11972668766975403], [-0.027854222804307938, -0.16614225506782532, 0.00966811366379261, 0.014464229345321655, 0.026837924495339394, -0.02172078751027584, -0.006410851143300533, 0.055593397468328476, -0.1582973450422287, -0.08304736018180847, 0.007405137177556753, -0.021770058199763298, -0.14749613404273987, 0.05282345414161682, -0.11643888801336288, -0.04035337269306183, 0.05956703796982765, -0.09313351660966873, -0.038111668080091476, 0.04132426157593727, -0.04455240070819855, 0.07047910988330841, 0.2898121178150177, 0.02005445584654808, 0.03481990471482277, 0.038527507334947586, -0.026066171005368233, 0.03286105394363403, -0.031889963895082474, -0.05081859230995178, 0.08300752937793732, 0.07911449670791626], [-0.008618699386715889, -0.0002315006568096578, 0.17210665345191956, -0.0006361042615026236, -0.021867549046874046, 0.060529034584760666, -0.005552535876631737, -0.003333301516249776, -0.05219733715057373, -0.16207557916641235, -0.024620965123176575, -0.0187285915017128, 0.0627787858247757, 0.04463842138648033, 0.030260499566793442, -0.0024159178137779236, 0.036032021045684814, 0.151693657040596, -0.0723327174782753, 0.19000577926635742, 0.1430077999830246, -0.04458245635032654, 0.0198628269135952, -0.07542449980974197, 0.07051941752433777, 0.05972837656736374, 0.03188735991716385, -0.2829434275627136, 0.010662289336323738, 0.007955219596624374, 0.0032741797622293234, 0.15405091643333435], [0.019310012459754944, 0.004358806647360325, -0.040031008422374725, 0.0010806592181324959, -0.030552200973033905, 0.001553031732328236, 0.010014734230935574, 0.027838392183184624, -0.01428984571248293, 0.018178556114435196, -0.026235239580273628, 0.00699573615565896, -0.049370478838682175, 0.041285768151283264, 0.008350139483809471, 0.06246184557676315, -0.04987536370754242, -0.0824609324336052, 0.04914505407214165, -0.04329373314976692, -0.047814786434173584, 0.008131461217999458, -0.006443643476814032, -0.07439403980970383, -0.06621354818344116, 0.009708431549370289, 0.040530234575271606, 0.1219940260052681, 0.02518242970108986, 0.03886720538139343, -0.04420364275574684, -0.050345540046691895], [0.06376225501298904, -0.09444820135831833, 0.12254879623651505, 0.03991193696856499, 0.05181474983692169, 0.04600294679403305, 0.07792676240205765, 0.22853706777095795, -0.0779573917388916, 0.050128135830163956, -0.07524098455905914, 0.055198270827531815, -0.09078069776296616, -0.05323830991983414, -0.09624065458774567, 0.054149284958839417, -0.049769386649131775, 0.03884097561240196, 0.03513386473059654, -0.08244362473487854, -0.0770563930273056, -0.11539654433727264, 0.006833542603999376, -0.017608515918254852, -0.29391658306121826, 0.02738708071410656, 0.07015933096408844, -0.14428532123565674, -0.022054770961403847, 0.02039058320224285, 0.052284806966781616, -0.04381375014781952], [0.036527689546346664, 0.28163036704063416, 0.0037568858824670315, -0.0010221954435110092, 0.07592092454433441, -0.07043726742267609, 0.19009645283222198, 0.01741914637386799, -0.013932259753346443, 0.01512057799845934, 0.02261270582675934, 0.014804362319409847, 0.18786583840847015, -0.024259431287646294, 0.03195768594741821, -0.08398213982582092, -0.3623806834220886, -0.05699567869305611, -0.05540243908762932, 0.10916205495595932, 0.017181457951664925, -0.009509495459496975, -0.13150273263454437, 0.02956189401447773, -0.0189799964427948, 0.02101568505167961, -0.1814316362142563, 0.03456420451402664, -0.08221834897994995, -0.11712374538183212, 0.2642827332019806, 0.012411694042384624], [0.0018607694655656815, -0.061740729957818985, -0.06024780124425888, 0.0018209990812465549, -0.0029417674522846937, -0.043312378227710724, -0.015916408970952034, -0.009426864795386791, 0.012022648006677628, 0.04706837609410286, 0.007232592906802893, -0.03037622570991516, 0.010797868482768536, -0.007243993692100048, 0.02737010456621647, -0.013058079406619072, -0.018677694723010063, -0.08626298606395721, 0.029344048351049423, 0.002900585299357772, -0.05781812220811844, 0.029264293611049652, 0.103094182908535, -0.006152939051389694, -0.007792374584823847, -0.0011743436334654689, 0.013234525918960571, 0.1564098298549652, 0.008788714185357094, 0.03482984006404877, -0.04857579246163368, -0.0484369657933712], [-0.0576254166662693, 0.02445407584309578, 0.08132265508174896, 0.005953564308583736, -0.01815933920443058, 0.06924674659967422, -0.047120578587055206, 0.008041993714869022, 0.05568591132760048, 0.04067651927471161, 0.00466745812445879, -0.02178196609020233, 0.09631123393774033, -0.010068093426525593, 0.04049474745988846, 0.07954473793506622, 0.03230997174978256, 0.07126788049936295, -0.005527510307729244, -0.058336153626441956, 0.045899342745542526, 0.06989526748657227, -0.1083725243806839, -0.01845633052289486, 0.053419895470142365, -0.02468874119222164, -0.012902935966849327, -0.03224710002541542, 0.007971185259521008, -0.027561912313103676, -0.023614604026079178, 0.02527330070734024], [-0.5027584433555603, -0.27773645520210266, 0.4375547468662262, 0.01825249381363392, 0.04437527433037758, 0.32388073205947876, -0.07727217674255371, -0.2329869568347931, -0.05337152257561684, -0.5036251544952393, 0.025812072679400444, -0.1153445616364479, 0.5792843103408813, 0.001601670985110104, -0.2803702652454376, 0.6920745372772217, 0.2557638883590698, 0.5869646072387695, -0.4283004403114319, -0.17144383490085602, 0.7489957809448242, -0.18112823367118835, -0.18446998298168182, 0.05881962180137634, 0.026499729603528976, -0.03158790245652199, -0.11010338366031647, -0.5869936347007751, 0.044809140264987946, -0.25006645917892456, -0.004482897464185953, 0.3155035078525543], [-0.0084092291072011, 0.027796873822808266, -0.08450465649366379, -0.022352619096636772, 0.0010707979090511799, -0.023476285859942436, -0.044423025101423264, -0.007507950533181429, 0.029580723494291306, 0.08386747539043427, 0.01335205975919962, 0.005715447012335062, -0.024265533313155174, 0.036971963942050934, 0.05742039903998375, -0.04180203378200531, 0.08555026352405548, -0.1540074646472931, 0.022817935794591904, -0.033165883272886276, -0.06440018117427826, 0.04470733180642128, 0.058547671884298325, -0.03801156207919121, 0.09261336922645569, 0.012268239632248878, -0.029810013249516487, 0.18084342777729034, 0.03614310175180435, -0.014026431366801262, -0.05942707508802414, 0.0020840084180235863], [0.07810095697641373, -0.10954844951629639, -0.03968527913093567, 0.006455509923398495, 0.03812916949391365, -0.016924306750297546, 0.0355406180024147, 0.10728805512189865, -0.08847685158252716, 0.04516024515032768, -0.041858967393636703, 0.0043926481157541275, -0.07789246737957001, -0.015713242813944817, 0.015641869977116585, -0.016138924285769463, 0.001278152340091765, -0.026024676859378815, 0.048042718321084976, -0.0257662795484066, -0.01373821310698986, 0.026810308918356895, -0.1447165310382843, 0.03751679137349129, -0.0691823735833168, 0.0018162693595513701, 0.00016039382899180055, 0.08862867951393127, 0.015294356271624565, 0.00617217319086194, -0.07474072277545929, -0.014388778246939182], [0.02759404480457306, 0.015567861497402191, -0.1932838261127472, -0.024867726489901543, -0.010835540480911732, -0.04555048421025276, 0.02759907767176628, 0.03786740452051163, -0.03503936156630516, 0.15901236236095428, 0.002878474770113826, 0.03616150841116905, -0.07361289113759995, 0.05562852323055267, 0.03936031088232994, -0.07555998116731644, -0.09129779040813446, -0.39069119095802307, 0.021328913047909737, -0.13014468550682068, -0.2725801467895508, 0.024130336940288544, 0.04639637842774391, 0.0028885724022984505, -0.05319457873702049, 0.02992100827395916, -0.008841131813824177, 0.38208577036857605, 0.00885732937604189, 0.06806855648756027, -0.05094793438911438, -0.07306499779224396], [0.01757121831178665, -0.05303984507918358, -0.1438651978969574, -0.01971060037612915, -0.03383609279990196, -0.0914522111415863, -0.00812448374927044, 0.03695408254861832, -0.046991828829050064, 0.1091696098446846, -0.020360108464956284, -0.006860513240098953, -0.07272566854953766, 0.08698593825101852, 0.06737546622753143, 0.021258166059851646, -0.07083512842655182, -0.17802049219608307, 0.06820971518754959, -0.07316578179597855, -0.020634958520531654, 0.04142138734459877, -0.1229671984910965, -0.1284954845905304, 0.005987909156829119, -0.0027370851021260023, 0.03275395184755325, 0.29166296124458313, 0.0017789300763979554, 0.021196451038122177, -0.0034403603058308363, -0.09780632704496384], [0.060294296592473984, 0.02123553305864334, -0.11698160320520401, -0.016900256276130676, 0.057444654405117035, -0.016456380486488342, -0.017590176314115524, 0.14381833374500275, 0.12172752618789673, 0.24934852123260498, -0.005878258962184191, 0.06257077306509018, -0.11943073570728302, -0.04101992025971413, 0.059378426522016525, -0.15423430502414703, -0.02793074958026409, -0.1270248293876648, 0.0678931325674057, -0.1863260716199875, -0.2730083763599396, 0.0029290395323187113, -0.048563841730356216, 0.05950922146439552, -0.08789268136024475, 0.041074901819229126, 0.03000629134476185, 0.18651464581489563, -0.08837255090475082, 0.04300716146826744, 0.0631428211927414, -0.12886570394039154], [0.033755622804164886, 0.028802575543522835, 0.07255902886390686, -0.00040167837869375944, -0.04455263912677765, 0.08147042989730835, -0.02394803985953331, 0.0323677584528923, -0.013394482433795929, -0.11283079534769058, -0.02952384762465954, 0.04314976558089256, 0.0722963809967041, -0.057320449501276016, 0.045143645256757736, -0.013250242918729782, -0.01500024925917387, 0.06741451472043991, -0.0205472894012928, 0.06686876714229584, 0.10524310171604156, -0.007235790137201548, -0.07606653869152069, -0.004620303865522146, 0.011715595610439777, -0.029680375009775162, -0.008707564324140549, -0.08984439820051193, -0.027404818683862686, 0.04072495922446251, -0.07428175210952759, 0.035104453563690186], [0.004263713024556637, 0.05168639123439789, -0.1831192672252655, -0.026265939697623253, -0.00016369958757422864, -0.04888959974050522, 0.034216053783893585, 0.041654083877801895, 0.0028569521382451057, 0.15183144807815552, -0.006902862340211868, 0.013331248424947262, -0.026877280324697495, 0.05388212576508522, 0.02721245214343071, -0.041335899382829666, -0.09651108086109161, -0.23656925559043884, 0.025337452068924904, -0.12358534336090088, -0.1215146854519844, -0.0022220618557184935, 0.0012883259914815426, -0.05652252957224846, -0.06102495267987251, 0.01293415017426014, 0.00044879427878186107, 0.2745007276535034, -0.02034369297325611, 0.01374093908816576, 0.056688252836465836, -0.08361779153347015], [-0.011391034349799156, 0.022012613713741302, -0.029245369136333466, 0.002431692788377404, -0.020751604810357094, -0.04970909282565117, -0.047906845808029175, 0.04239117354154587, 0.009139602072536945, 0.05517294630408287, 0.0023265955969691277, -0.04305792227387428, -0.0027729703579097986, 0.0674484595656395, 0.01268820185214281, 0.03479988873004913, -0.0028299763798713684, -0.08331190794706345, 0.027841461822390556, -0.013242273591458797, -0.050954993814229965, -0.048198480159044266, 0.019549712538719177, 0.00733906589448452, 0.004872048273682594, -0.0317794568836689, -0.0031404250767081976, 0.10598421841859818, -0.0016933929873630404, 0.0032413634471595287, -0.006110362242907286, -0.0058510988019406796], [0.02313925512135029, -0.02949974313378334, -0.015545560978353024, -0.008649736642837524, 0.0014976422535255551, -0.0022059918846935034, -0.06223316490650177, 0.0208053570240736, 0.01691391132771969, -0.025345291942358017, -0.033376775681972504, -0.004421869292855263, 0.05405464395880699, 0.0014924528077244759, 0.05100582540035248, 0.012772300280630589, 0.025738559663295746, -0.014179219491779804, -0.01273957546800375, -0.028416376560926437, 0.07602084428071976, 0.02411104366183281, -0.07321871817111969, -0.04095771908760071, 0.030726537108421326, 0.06355409324169159, 0.03218575939536095, 0.028408678248524666, -0.04352434724569321, -0.008729218505322933, -0.07178965955972672, -0.015419506467878819], [0.034709908068180084, -0.1067521795630455, 0.1494009643793106, 0.010097813792526722, -0.07249720394611359, 0.03466774523258209, -0.010832825675606728, -0.0412786640226841, -0.05286712199449539, -0.14137370884418488, -0.016447551548480988, 0.0004817178414668888, 0.12091730535030365, -0.033351533114910126, -0.05507770925760269, 0.042061805725097656, -0.10588259994983673, 0.04508976265788078, -0.09834939986467361, 0.06430808454751968, 0.23191139101982117, 0.09679824858903885, 0.10718236118555069, -0.06098870933055878, -0.04578734561800957, -0.022072169929742813, 0.08239831775426865, -0.049783919006586075, -0.05201280489563942, 0.2002301663160324, -0.07053548842668533, 0.042829468846321106], [-0.07251220941543579, 0.045104287564754486, -0.019115984439849854, -0.007489481475204229, 0.03430228680372238, -0.15359999239444733, 0.023740066215395927, 0.0013770217774435878, -0.013761884532868862, -0.08128421753644943, -0.04964645579457283, -0.03703432157635689, 0.10224465280771255, 0.02565825916826725, -0.019494719803333282, -0.007976207882165909, -0.048656802624464035, -0.08796947449445724, -0.012935767881572247, 0.012887255288660526, 0.015327920205891132, -0.06595699489116669, 0.09254783391952515, -0.08500605821609497, 0.009455829858779907, -0.04275509715080261, 0.02032252959907055, 0.026322096586227417, 0.06796692311763763, -0.023135321214795113, -0.025099385529756546, 0.00012232331209816039], [0.007305484730750322, -0.07077265530824661, -0.013307612389326096, 0.003131145378574729, -0.013673500157892704, 0.013017346151173115, -0.09195985645055771, -0.04063117504119873, 0.02028372883796692, 0.03462465852499008, 0.019935717806220055, -0.08285368233919144, -0.012154631316661835, 0.003911193460226059, 0.05462167412042618, -0.001237415475770831, 0.11393648386001587, 0.027302999049425125, 0.04668122157454491, -0.0038967879954725504, 0.07006839662790298, 0.016053173691034317, -0.07198280841112137, 0.020160529762506485, 0.059170302003622055, -0.01120296586304903, 0.017297936603426933, 0.011184601113200188, -0.009375621564686298, -0.0515710785984993, -0.08840113133192062, -0.05657428130507469], [-0.14729464054107666, 0.036583416163921356, -0.06900045275688171, -0.019951574504375458, 0.03598349913954735, 0.12199905514717102, 0.02518102526664734, -0.10857424139976501, 0.030877618119120598, 0.141526997089386, 0.06591096520423889, 0.003349713981151581, 0.02479679137468338, 0.09130079299211502, 0.09431800246238708, -0.012305770069360733, -0.1500146985054016, -0.16618433594703674, -0.033386554569005966, -0.20069606602191925, 0.14707525074481964, 0.13062450289726257, 0.1780278980731964, -0.05382769554853439, 0.15664710104465485, -0.0005270052934065461, -0.06917041540145874, 0.19907408952713013, -0.004703347571194172, 0.11588124185800552, 0.01695725880563259, -0.034598127007484436], [0.06318230926990509, 0.04863955080509186, -0.0054853023029863834, -0.024796104058623314, 0.06478419154882431, -0.16782236099243164, -0.09865319728851318, 0.09748002141714096, -0.006146522238850594, -0.03284492716193199, 0.08270077407360077, 0.027683157473802567, -0.30409476161003113, 0.06605619937181473, 0.01784360222518444, -0.10763606429100037, 0.03841480612754822, -0.28861790895462036, 0.016529535874724388, -0.012345063500106335, -0.17040562629699707, -0.07128465175628662, -0.1002560704946518, -0.10979968309402466, 0.061625558882951736, 0.03970609977841377, 0.010902386158704758, 0.12500566244125366, -0.02242988906800747, 0.04283871874213219, 0.1111956238746643, 0.02684907615184784], [-0.06549400091171265, 0.04062891751527786, -0.20328570902347565, -0.027820002287626266, 0.057492852210998535, 0.053370244801044464, 0.04900750145316124, -0.1629464477300644, -0.07371184974908829, 0.10320237278938293, 0.005219125188887119, 0.03132094442844391, 0.0027125459164381027, -0.017984284088015556, -0.0006290929741226137, -0.16622145473957062, -0.07018499076366425, -0.15873156487941742, 0.0023351479321718216, -0.10603201389312744, -0.1119113489985466, 0.10662775486707687, 0.028042839840054512, -0.012150624766945839, -0.027205409482121468, -0.023245513439178467, -0.00036798749351873994, 0.26273012161254883, 0.03050484135746956, 0.03786759451031685, 0.04366236925125122, -0.08975759148597717], [0.009512743912637234, -0.009825765155255795, 0.05702255293726921, 0.014478987082839012, -0.004266674630343914, -0.0004244824522174895, -0.021827906370162964, 0.04551752656698227, -0.019367730244994164, -0.01696001924574375, -0.011497720144689083, -0.022121774032711983, 0.03724927455186844, -0.0017860407242551446, 0.00622645253315568, 0.09262170642614365, -0.027821088209748268, 0.013743117451667786, 0.0460411012172699, 0.0018311608582735062, 0.03111032396554947, -0.01856689527630806, -0.0537928007543087, 0.019259151071310043, -0.02018841914832592, -0.005860673729330301, 0.015833387151360512, 0.005521053913980722, 0.02205950953066349, 0.020139867439866066, -0.04975396767258644, -0.003502029227092862], [-0.10438841581344604, -0.0171606857329607, -0.1146213710308075, -0.011701819486916065, -0.15284231305122375, 0.012598530389368534, 0.04151448234915733, -0.007454516366124153, -0.023413103073835373, -0.009746442548930645, -0.005161763168871403, 0.029955590143799782, 0.06231877952814102, -0.040310103446245193, 0.061647478491067886, 0.08086032420396805, -0.008258064277470112, -0.2615746557712555, 0.043957315385341644, -0.12669041752815247, -0.0021644614171236753, 0.07208497822284698, 0.09363561868667603, -0.13233280181884766, -0.05323261022567749, 0.01425150502473116, 0.020674798637628555, 0.31201332807540894, 0.02134579047560692, -0.005381021648645401, -0.1318701058626175, -0.06314362585544586], [-0.1126120537519455, -0.05802411586046219, -0.27873966097831726, -0.010786816477775574, -0.04145731031894684, -0.04791738837957382, -0.004913813900202513, 0.04943415895104408, -0.03982170671224594, 0.2646943926811218, -0.00045106347533874214, 0.06445474922657013, -0.12407860159873962, -0.015396025031805038, 0.0898451879620552, 0.2533591091632843, -0.05724513530731201, -0.5230916738510132, 0.1777656525373459, -0.29156389832496643, -0.3003956973552704, 0.11942993849515915, 0.0353933721780777, -0.17504402995109558, -0.0032256306149065495, 0.08471804857254028, 0.0718252882361412, 0.8340887427330017, 0.08384057134389877, 0.09352867305278778, -0.047715287655591965, -0.13557489216327667], [0.0855490118265152, 0.016403375193476677, -0.08256882429122925, -0.0015225999522954226, -0.09266313910484314, 0.0820486843585968, -0.03232964128255844, 0.11800218373537064, -0.06553231924772263, -0.026269996538758278, 0.02364390529692173, 0.07675957679748535, -0.2093954235315323, -0.03737185150384903, 0.0970095694065094, -0.024382052943110466, 0.07757499068975449, -0.10931090265512466, 0.05826856195926666, -0.08982394635677338, -0.11646464467048645, 0.014052009209990501, -0.06028313934803009, -0.13121351599693298, -0.051437485963106155, 0.005742719396948814, 0.0969773381948471, 0.1307154893875122, 0.047355249524116516, 0.07289163768291473, 0.1375909149646759, -0.046240247786045074], [0.3200920820236206, 0.04444245621562004, -0.37162673473358154, -0.03375986963510513, 0.0285487100481987, 0.11066022515296936, 0.08541681617498398, 0.2403111606836319, 0.07890734076499939, 0.36506086587905884, -0.01220135297626257, 0.10770347714424133, -0.3141643702983856, -0.24766375124454498, -0.03320614621043205, -0.552189290523529, 0.012440616264939308, -0.2985185384750366, 0.10689935088157654, -0.2288520187139511, -0.3707127571105957, -0.07606089860200882, 0.050080303102731705, -0.0635184720158577, -0.07733797281980515, 0.05724348872900009, 0.1206863522529602, 0.2681356966495514, -0.16732138395309448, 0.10630013048648834, 0.12824894487857819, -0.16248458623886108], [0.010466035455465317, -0.03348364308476448, -0.026931706815958023, -0.010321682319045067, 0.08835145086050034, -0.1593247801065445, -0.08484914153814316, 0.03118766099214554, -0.044058412313461304, -0.018348217010498047, -0.034963250160217285, -0.045191213488578796, -0.056355252861976624, 0.02795982174575329, 0.008823197335004807, 0.0653117448091507, 0.05617913603782654, -0.18276743590831757, 0.05882558971643448, -0.1377343088388443, 0.02317827194929123, 0.06512758135795593, -0.12188748270273209, -0.06386566162109375, -0.05473979935050011, 0.06635227799415588, 0.06832874566316605, 0.283528596162796, 0.12283173203468323, 0.005945507436990738, -0.05411120876669884, -0.048367977142333984], [-0.1720914989709854, -0.003859412157908082, -0.533702552318573, -0.04862987622618675, -0.05525599792599678, -0.1927729845046997, -0.17133347690105438, 0.33340293169021606, -0.057766590267419815, 0.45593690872192383, -0.031262706965208054, 0.04321867600083351, -0.2183886617422104, 0.2399369776248932, 0.19519264996051788, -0.2916559875011444, -0.2479816973209381, -0.6355843544006348, 0.434392511844635, -0.21392174065113068, -0.5234352350234985, -0.08114856481552124, -0.09054245054721832, 0.037592265754938126, 0.09050054848194122, -0.05011120066046715, -0.02429516613483429, 0.7772510647773743, -0.05268403887748718, 0.2889399528503418, -0.0743115097284317, -0.33920106291770935], [-0.01702982932329178, 0.09593423455953598, -0.042024485766887665, -0.017732957378029823, 0.011305545456707478, 0.023777766153216362, -0.008566612377762794, 0.04649920389056206, -0.003017221577465534, 0.18358057737350464, -0.08209601044654846, -0.01783759705722332, 0.11126410961151123, 0.002997077303007245, 0.06716269999742508, -0.08201900869607925, -0.09125938266515732, -0.12343637645244598, -0.04685143753886223, -0.1727144420146942, -0.10746945440769196, 0.018579939380288124, 0.14417146146297455, -0.03396476060152054, -0.039574284106492996, -0.008472784422338009, 0.05719616636633873, 0.13669206202030182, -0.01435603853315115, -0.012124907225370407, 0.09931917488574982, -0.02724079042673111], [-0.06377405673265457, 0.025697341188788414, -0.2565346956253052, -0.0210685096681118, 0.058703191578388214, -0.16434821486473083, -0.005199712701141834, -0.05418796464800835, -0.056004274636507034, 0.07925782352685928, 0.03300485014915466, -0.016313545405864716, -0.05342660844326019, 0.12180818617343903, 0.0532030425965786, -0.02092665433883667, -0.07452496886253357, -0.39033499360084534, -0.014689949341118336, -0.11505076289176941, -0.11589298397302628, 0.02106962539255619, -0.04527236148715019, -0.06855763494968414, -0.0020121692214161158, 0.0951734110713005, 0.02411198616027832, 0.43500816822052, 0.04911816492676735, -0.007391159888356924, 0.10848879814147949, -0.05573948472738266], [0.029949214309453964, -0.1346329152584076, -0.09280582517385483, -0.0019307686015963554, -0.005709822755306959, 0.01034474279731512, 0.07576688379049301, 0.10114581137895584, -0.1241551861166954, -0.008994425646960735, 0.02398679591715336, -0.052059393376111984, -0.361040323972702, 0.07398677617311478, -0.022761894389986992, 0.06359647214412689, 0.07154018431901932, -0.21770617365837097, 0.06602945923805237, -0.10835722833871841, -0.09337443858385086, 0.06737923622131348, -0.2889987528324127, -0.01007058285176754, 0.026803238317370415, 0.05820854753255844, -0.02233378030359745, 0.1710156351327896, 0.014736457727849483, -0.0008785953978076577, 0.1900470107793808, 0.02729550190269947], [-0.0728469118475914, -0.007599621545523405, -0.25040629506111145, -0.015851957723498344, -0.022129226475954056, -0.09078376740217209, -0.06584375351667404, 0.05496310442686081, -0.03434617072343826, 0.2117331624031067, 0.07738186419010162, -0.07048197090625763, -0.05112302303314209, 0.09276198595762253, 0.10278704762458801, 0.04860075190663338, -0.16516120731830597, -0.4138043224811554, 0.12023390829563141, -0.09406251460313797, -0.17505207657814026, -0.023594290018081665, 0.05081671103835106, -0.046674542129039764, 0.005196590907871723, -0.020651202648878098, -0.01598307490348816, 0.49926280975341797, 0.04182083159685135, 0.1397988349199295, -0.06334427744150162, -0.055844422429800034], [-0.015112992376089096, 0.018505297601222992, 0.042220842093229294, 0.017381109297275543, -0.03785426914691925, 0.03914252296090126, 0.007701448630541563, 0.029941964894533157, -0.044139474630355835, -0.01096191443502903, -0.08102016896009445, 0.00256053707562387, 0.021113388240337372, 0.04289569333195686, -0.06424340605735779, 0.12912435829639435, 0.0012167473323643208, -0.005595052149146795, 0.02331973798573017, 0.009583028964698315, -0.009862971492111683, 0.011054014787077904, 0.031004687771201134, -0.10250839591026306, -0.03989136964082718, -0.01129345502704382, 0.04183861240744591, 0.038325391709804535, 0.056367676705121994, -0.003543311497196555, -0.07931280881166458, 0.029349474236369133], [0.05928471311926842, -0.07053104788064957, -0.16112646460533142, 0.00563013507053256, 0.06661723554134369, -0.07988542318344116, -0.007496737875044346, 0.24719718098640442, -0.04206116124987602, 0.20835711061954498, -0.09519942104816437, 0.05435492470860481, -0.1495954394340515, -0.06810891628265381, -0.20883992314338684, -0.14619851112365723, 0.010328317061066628, -0.3753320574760437, 0.033141203224658966, -0.17494623363018036, -0.4673408567905426, -0.04722790792584419, 0.19567246735095978, -0.017089804634451866, -0.15282928943634033, 0.0021830894984304905, 0.038426272571086884, 0.24588118493556976, 0.02250896580517292, 0.08541976660490036, 0.10135569423437119, -0.09811373800039291], [-0.03389895707368851, 0.2782336473464966, -0.10939734429121017, 0.020938782021403313, 0.07466068863868713, -0.21051307022571564, 0.07721547782421112, 0.033517125993967056, 0.1275409609079361, 0.07293590158224106, 0.12210959941148758, -0.036801472306251526, 0.2332102656364441, 0.008592561818659306, 0.03855106979608536, 0.19409580528736115, -0.37510475516319275, -0.26630502939224243, 0.07039541006088257, -0.02757253870368004, -0.09859258681535721, 0.10938248038291931, -0.17795924842357635, 0.04038940742611885, -0.00893892627209425, 0.01193113811314106, -0.1432277262210846, 0.2524993121623993, 0.027764679864048958, 0.016233868896961212, 0.5148661136627197, -0.07100461423397064], [-0.03586678206920624, 0.006882303860038519, -0.11885492503643036, -0.014901447109878063, -0.05408499762415886, -0.039464011788368225, 0.05086700618267059, -0.17630162835121155, 0.02731947973370552, 0.056605253368616104, -0.01605801098048687, -0.03639225661754608, 0.08076838403940201, 0.015271683223545551, 0.03837957978248596, -0.13222865760326385, -0.07527640461921692, -0.16359232366085052, -0.038144856691360474, -0.049908269196748734, -0.13604594767093658, 0.03432749956846237, 0.39291912317276, -0.12199863791465759, 0.010030115954577923, -0.03439304605126381, 0.006564104929566383, 0.3533845543861389, 0.034857623279094696, 0.004804673604667187, -0.08111672848463058, -0.05680086836218834], [0.006628571543842554, -0.05858546122908592, -0.05959495157003403, 0.00515803461894393, 0.014371799305081367, 0.04328693822026253, -0.0658896416425705, 0.07281334698200226, 0.06718596071004868, 0.1849827617406845, 0.03309202566742897, -0.010537133552134037, -0.032576870173215866, -0.021583620458841324, 0.10214100033044815, 0.11613741517066956, 0.034825198352336884, -0.0706053078174591, 0.10592320561408997, -0.17681246995925903, -0.08197537809610367, 0.11015042662620544, -0.26306989789009094, -0.015240044333040714, 0.014414659701287746, -0.04380182921886444, 0.005121425725519657, 0.1780565083026886, 0.02616870403289795, -0.01885286346077919, 0.029502326622605324, -0.0785653218626976], [0.05079156160354614, 0.2219046950340271, -0.6475160121917725, -0.016242729499936104, -0.05607612058520317, 0.04168891906738281, 0.5248886346817017, 0.21619786322116852, -0.06970202177762985, 0.24201005697250366, 0.15044336020946503, -0.0021472349762916565, -0.32384660840034485, -0.08850231766700745, 0.2725389003753662, 0.15553033351898193, -0.3836807906627655, -0.7792128324508667, 0.4862888753414154, -0.7657124400138855, -0.5064585208892822, 0.21685391664505005, 0.2602793276309967, -0.2542113959789276, 0.007395527791231871, -0.015356089919805527, -0.14798274636268616, 0.7532315254211426, 0.021561240777373314, 0.31013691425323486, -0.00771950650960207, -0.5474013686180115], [-0.07615424692630768, 0.019938046112656593, -0.0741976872086525, -0.03418968245387077, 0.016161834821105003, -0.04069811478257179, 0.08041532337665558, 0.08635950833559036, 0.010311281308531761, 0.09822877496480942, -0.04222027584910393, 0.01754518412053585, -0.10974650084972382, 0.11865433305501938, 0.044835448265075684, -0.08849366009235382, 0.06757327169179916, -0.1755346655845642, -0.019606832414865494, -0.06411256641149521, 0.018844813108444214, 0.029055191203951836, 0.18490545451641083, -0.07768700271844864, 0.06955660879611969, 0.015846729278564453, -0.07490628212690353, 0.1743871122598648, 0.0758856013417244, -0.0014269582461565733, -0.14412012696266174, 0.04149381071329117], [0.08465427160263062, -0.08423115313053131, -0.0658334344625473, -0.002166737336665392, 0.08242415636777878, -0.1108860895037651, -0.008379204198718071, 0.06438402086496353, -0.010956230573356152, 0.03086746484041214, -0.01835772767663002, -0.03161095827817917, -0.07266655564308167, -0.04002318158745766, 0.019614800810813904, -0.05469498783349991, 0.11966557055711746, -0.11721821874380112, 0.06589621305465698, 0.03519482910633087, -0.044870875775814056, 0.024022137746214867, 0.04855985939502716, -0.0011090375483036041, -0.038794323801994324, -0.008363270200788975, -0.022144386544823647, 0.19058404862880707, 0.024170050397515297, -0.0651153102517128, -0.16092976927757263, -0.06308496743440628], [-0.018551580607891083, 0.3524089753627777, 0.21158455312252045, -0.032562028616666794, -0.054579347372055054, 0.030580343678593636, 0.2050696164369583, -0.06724105030298233, -0.001221564831212163, -0.19504719972610474, -0.014156218618154526, 0.07904118299484253, -0.38568446040153503, 0.03242333233356476, -0.14071506261825562, -0.07346122711896896, -0.06427769362926483, -0.19391192495822906, -0.22842682898044586, 0.15088558197021484, -0.30608847737312317, 0.004518835339695215, 0.12381679564714432, 0.009108295664191246, 0.04576141759753227, 0.046765781939029694, -0.19370238482952118, 0.2824871242046356, -0.04545590281486511, -0.06829678267240524, -0.030928945168852806, 0.2057393193244934], [0.03713132441043854, -0.06593887507915497, -0.07335960119962692, 0.013333580456674099, -0.03234462812542915, -0.02665155567228794, -0.011975765228271484, 0.0046158661134541035, -0.000947589345742017, 0.07318588346242905, 0.0247468464076519, 0.01593257673084736, -0.07373583316802979, 0.03789607435464859, 0.0466170534491539, 0.045975860208272934, -0.15622298419475555, -0.10557104647159576, 0.0073138754814863205, -0.008281251415610313, -0.057318154722452164, -0.02508869580924511, 0.06197648495435715, -0.09247170388698578, -0.00030285335378721356, -0.007733342703431845, -0.0059116678312420845, 0.16086123883724213, -0.015760263428092003, -0.037880510091781616, 0.02283380553126335, 0.016324246302247047], [0.1973848193883896, 0.024385157972574234, -0.12681417167186737, 0.006016060244292021, -0.001253804424777627, 0.09734416753053665, -0.11948304623365402, 0.18537774682044983, 0.09684958308935165, 0.4131473898887634, -0.11629925668239594, 0.0174169410020113, -0.03857259452342987, -0.19751538336277008, 0.09090017527341843, -0.3387271761894226, -0.04675111174583435, -0.005441492889076471, 0.14825628697872162, -0.19064098596572876, -0.2853585481643677, 0.022080209106206894, -0.12773793935775757, 0.04013156145811081, -0.08481243252754211, 0.05172627046704292, 0.07398039847612381, 0.10102176666259766, -0.04196448624134064, -0.0562448613345623, 0.01292441040277481, -0.12107300758361816], [-0.0700659304857254, 0.020399563014507294, -0.2231535017490387, -0.0017601440194994211, -0.010867862962186337, -0.08330594748258591, 0.01243461575359106, 0.03126143291592598, -0.05487263575196266, 0.14974410831928253, -0.010197103954851627, -0.03472328186035156, 0.01398775540292263, -0.060410842299461365, 0.047962486743927, 0.06601463258266449, -0.1925744116306305, -0.3659977614879608, 0.09478959441184998, -0.13687574863433838, -0.16043202579021454, 0.11836601048707962, 0.016654038801789284, 0.019754668697714806, -0.07220736145973206, -0.05506671965122223, -0.059766657650470734, 0.4001642167568207, 0.10453944653272629, 0.09821482002735138, -0.06502393633127213, -0.11189296096563339], [-0.0020574547816067934, 0.031949274241924286, 0.018946919590234756, 0.004968925379216671, -0.011926628649234772, 0.03384177386760712, 0.06133706867694855, 0.06003500148653984, -0.02018946036696434, -0.011380852200090885, 0.004204454366117716, 0.016931237652897835, -0.013591221533715725, 0.014521225355565548, -0.038494545966386795, 0.05985356867313385, 0.06324142962694168, 0.019483624026179314, -0.0346841923892498, 0.015078271739184856, 0.013970093801617622, -0.046551305800676346, 0.02097630314528942, -0.033362843096256256, -0.06911139190196991, -0.002287833020091057, 0.0037715586367994547, -0.04451349750161171, 0.002267348812893033, -0.07960250973701477, 0.10860317945480347, 0.04132716357707977], [0.002759994473308325, 0.04794153943657875, -0.14459086954593658, -0.003229629248380661, -0.04335269704461098, -0.11423788219690323, -0.10693307220935822, 0.09526156634092331, 0.023527484387159348, 0.17462174594402313, 0.003699416294693947, -0.07314158231019974, -0.060942985117435455, 0.1510753333568573, 0.060884635895490646, 0.02504383586347103, -0.03357504680752754, -0.26034462451934814, 0.09238695353269577, -0.05315886810421944, -0.1745336651802063, -0.09005637466907501, 0.02543952502310276, -0.007272657938301563, 0.01865777187049389, -0.08045361191034317, -0.007872090674936771, 0.30739930272102356, 0.003640237497165799, 0.02058887667953968, -0.003980765584856272, -0.04920903220772743], [0.007121237926185131, 0.10983548313379288, -0.11712728440761566, -0.016492832452058792, 0.0653679147362709, -0.11884121596813202, -0.034272946417331696, 0.025288116186857224, -0.06533098220825195, 0.09626275300979614, -0.05074169486761093, -0.017661741003394127, 0.07878650724887848, -0.0003601248317863792, 0.05264844745397568, -0.02036716789007187, -0.06898125261068344, -0.236892968416214, -0.027242328971624374, -0.17348217964172363, -0.03966570273041725, 0.0067593008279800415, -0.0065460349433124065, -0.014109429903328419, -0.05876712128520012, 0.13066118955612183, 0.01858426444232464, 0.3072168529033661, -0.05554436892271042, -0.02988358400762081, -0.08632909506559372, -0.021213192492723465], [-0.03442290425300598, -0.017018431797623634, -0.06492120772600174, 0.02686428092420101, 0.029189735651016235, -0.22077904641628265, 0.0076375375501811504, 0.08924473077058792, 0.06877756863832474, 0.11547873169183731, -0.060150355100631714, -0.05703555792570114, -0.0007352915126830339, 0.006848603021353483, -0.0032583498395979404, 0.0845072790980339, -0.3929799199104309, -0.22078080475330353, 0.07267570495605469, -0.020776765421032906, -0.05912962555885315, 0.06876743584871292, -0.019050464034080505, -0.1780499368906021, 0.00459646200761199, 0.12382368743419647, -0.006040047388523817, 0.14997979998588562, -0.08679468184709549, 0.07050923258066177, 0.25196585059165955, -0.07740136981010437], [-0.09012989699840546, 0.1195729449391365, -0.11909190565347672, -0.003529037581756711, 0.009119615890085697, -0.1721363067626953, -0.0705886259675026, 0.07993043214082718, -0.017177768051624298, -0.07002121210098267, -0.043496306985616684, -0.02355267107486725, 0.13547220826148987, 0.1074395477771759, 0.00040450962842442095, 0.09240441024303436, -0.3317500650882721, -0.24424061179161072, 0.05151429399847984, -0.06922044605016708, -0.04251199588179588, -0.11143267154693604, 0.13772569596767426, -0.13261686265468597, 0.028138354420661926, -0.09822546690702438, 0.0060176667757332325, 0.23048211634159088, 0.019755031913518906, 0.0468905083835125, 0.11874494701623917, -0.07061256468296051], [0.012642063200473785, -0.07637705653905869, -0.1687021404504776, -0.026791930198669434, 0.05098728835582733, -0.08917637914419174, -0.06178945302963257, -0.08229963481426239, 0.0036937028635293245, 0.2055935114622116, 0.0400518923997879, -0.09672940522432327, -0.07710296660661697, 0.07281621545553207, 0.10787390172481537, -0.06919454038143158, 0.12641334533691406, -0.12591886520385742, 0.08206858485937119, -0.11578360944986343, -0.026380112394690514, 0.05163472145795822, -0.05816775932908058, -0.03797949478030205, 0.019133003428578377, 0.0025216504000127316, 0.0035779913887381554, 0.186873197555542, -0.002070376416668296, -0.11653818935155869, -0.07971048355102539, -0.12908890843391418], [0.1492229402065277, -0.05911337956786156, 0.03406015411019325, 0.0834621861577034, 0.07400311529636383, 0.20863023400306702, 0.0036972793750464916, 0.43948984146118164, 0.034946031868457794, -0.24657072126865387, -0.1850237250328064, -0.09975584596395493, 0.10017718374729156, -0.0836222767829895, -0.13517677783966064, 0.11122450232505798, 0.03679121658205986, 0.05567841976881027, 0.18930064141750336, -0.08050613850355148, -0.19285231828689575, -0.041436828672885895, -0.246123269200325, 0.07484861463308334, -0.11391244828701019, 0.11949644237756729, 0.06817647814750671, -0.03788354992866516, -0.00848951656371355, -0.022892819717526436, 0.011240731924772263, -0.012028701603412628], [0.05248764902353287, 0.38426730036735535, 0.21643708646297455, -0.03200095146894455, 0.06077127158641815, 0.4677838385105133, -0.4931972026824951, -0.1291111707687378, 0.24643152952194214, -0.013401778414845467, 0.03884074464440346, -0.048253100365400314, 0.5044624209403992, -0.0527535155415535, -0.12862341105937958, -0.08765939623117447, 0.4761960208415985, -0.1372465193271637, -0.25811567902565, 0.07439058274030685, -0.3860107660293579, 0.024190858006477356, 0.37053346633911133, 0.038600798696279526, 0.025795897468924522, -0.004574717953801155, 0.19496457278728485, 0.11852704733610153, -0.13044559955596924, -0.05119029060006142, -0.08067202568054199, 0.1602502316236496], [-0.1233275979757309, -0.07844047993421555, 0.1991010308265686, 0.033753152936697006, 0.047096747905015945, -0.10779567062854767, 0.25165852904319763, 0.37290796637535095, 0.0902922973036766, 0.3778300881385803, 0.008364078588783741, -0.02566574141383171, -0.022411266341805458, -0.0010746053885668516, -0.08699090033769608, 0.14881418645381927, -0.09580523520708084, -0.032910894602537155, -0.07979284971952438, -0.33463236689567566, 0.009049653075635433, -0.030505208298563957, 0.08127015829086304, -0.1195308044552803, -0.041346848011016846, 0.14462342858314514, -0.07848307490348816, -0.3354211747646332, -0.003024177858605981, 0.02528442069888115, -0.008742406032979488, 0.13519875705242157], [-0.05506698414683342, -0.13535605370998383, 0.06996531039476395, 0.03548433259129524, 0.010984955355525017, 0.01763809844851494, -0.03632097691297531, 0.1940770447254181, 0.06904973834753036, -0.013943210244178772, 0.05446283519268036, -0.1124638170003891, 0.10847233980894089, 0.010289227589964867, -0.026218567043542862, 0.13230828940868378, -0.11052656918764114, 0.0494992733001709, 0.01007688045501709, 0.08782973885536194, -0.062280621379613876, 0.13440054655075073, -0.03645319119095802, 0.17512033879756927, -0.26717525720596313, 0.0575653575360775, -0.07609632611274719, 0.0387352854013443, 0.03682032972574234, -0.0880144014954567, -0.02880774810910225, 0.003189925104379654], [-0.013838395476341248, 0.09968417882919312, -0.07038399577140808, 0.114231638610363, 0.39594700932502747, -0.1253356635570526, 0.13247303664684296, -0.06049612909555435, 0.5816903710365295, -0.13929206132888794, -0.02316007949411869, -0.11539106070995331, -0.2440388798713684, -0.09034564346075058, 0.07492182403802872, -0.04568902775645256, -0.08024515211582184, -0.1427113115787506, 0.07548141479492188, -0.10201909393072128, 0.11474478244781494, -0.117132268846035, 0.04004150256514549, 0.07483702898025513, 0.023664401844143867, 0.23768074810504913, 0.3114948272705078, -0.1988663226366043, 0.4605526626110077, 0.045998018234968185, -0.03942371532320976, -0.01916150562465191], [-0.10037323832511902, -0.1811067759990692, 0.030437100678682327, -0.021098259836435318, 0.21952620148658752, 0.057944998145103455, -0.04702508822083473, 0.13403192162513733, 0.020513027906417847, 0.2598433792591095, 0.20438946783542633, -0.2444426715373993, -0.012882301583886147, -0.06925550848245621, 0.06314805895090103, 0.009901262819766998, -0.308864951133728, -0.02622043527662754, 0.02501625008881092, 0.15064957737922668, -0.019972089678049088, 0.22782014310359955, 0.13176913559436798, 0.4678339958190918, -0.1080726608633995, -0.044393666088581085, -0.022272305563092232, -0.009437390603125095, 0.030952289700508118, 0.3123794496059418, -0.06521707773208618, 0.02192220650613308], [-0.13742215931415558, 0.14361637830734253, -0.10282270610332489, 0.1191251203417778, -0.25194787979125977, 0.08002497255802155, 0.12749715149402618, -0.19064556062221527, 0.026110069826245308, 0.2685971260070801, 0.2746102809906006, 0.09182213246822357, 0.14744873344898224, -0.06327665597200394, -0.07952837646007538, -0.17248444259166718, -0.025355303660035133, 0.021136200055480003, -0.0750751867890358, 0.44292712211608887, 0.19961895048618317, -0.11514223366975784, -0.1383977085351944, 0.016607120633125305, -0.7627608776092529, -0.006152118556201458, 0.7807113528251648, 0.06889723241329193, -0.0142371142283082, -0.18109922111034393, -0.07932746410369873, -0.03685769438743591], [-0.09090359508991241, 0.04936125501990318, 0.1283552348613739, 0.19382187724113464, 0.19335316121578217, -0.1659591943025589, 0.17334289848804474, 0.24439185857772827, -0.05173773691058159, 0.0696510300040245, -0.2525971829891205, 0.35520032048225403, -0.22127535939216614, -0.06301277875900269, -0.20348627865314484, 0.23714327812194824, -0.027695652097463608, -0.04146130755543709, 0.06045674905180931, -0.26822608709335327, 0.21654222905635834, -0.36899450421333313, 0.17808283865451813, -0.03064701519906521, -0.8303120136260986, -0.07445362955331802, 0.07304440438747406, 0.0037666226271539927, 0.0482960045337677, 0.0640428438782692, -0.027952713891863823, -0.10816296190023422], [-0.0005910517647862434, 0.026377975940704346, 0.028468312695622444, -0.05736463516950607, -0.5438541769981384, -0.07413256913423538, 0.09658206254243851, 0.022494478151202202, 0.36635622382164, 0.08308235555887222, 0.006085709668695927, -0.23300281167030334, -0.05343731492757797, 0.0574902705848217, -0.024223236367106438, 0.06157902628183365, 0.2276650071144104, -0.008369864895939827, 0.007756102364510298, 0.007867799140512943, -0.10503053665161133, 0.02399253472685814, 0.04094928503036499, 0.17052732408046722, 0.25844261050224304, 0.5356308817863464, -0.3427192270755768, -0.1596285104751587, 0.20940761268138885, 0.4124990403652191, 0.3717409670352936, -0.09786485880613327], [-0.13719682395458221, -0.06033923104405403, 0.03606338053941727, 0.01446237787604332, -0.03814312815666199, -0.16008210182189941, 0.08894357085227966, -0.3802469074726105, 0.10268216580152512, 0.1593814641237259, -0.004848894663155079, 0.008114766329526901, -0.10595860332250595, 0.17767569422721863, -0.10622880607843399, -0.3612666428089142, 0.09769026935100555, -0.11532082408666611, -0.1743244081735611, 0.33394762873649597, -0.13328814506530762, -0.04266759753227234, 0.07596907764673233, 0.21637661755084991, 0.3025864362716675, -0.14939375221729279, -0.19916720688343048, 0.18601837754249573, -0.03557036072015762, 0.06401191651821136, -0.044413309544324875, -0.06219129636883736], [0.1966456025838852, 0.11277548223733902, 0.09951549023389816, -0.05671272054314613, 0.117074154317379, -0.09396211802959442, -0.17323613166809082, -0.267354816198349, 0.002307533985003829, 0.22994138300418854, 0.23437555134296417, -0.01367478258907795, -0.22181399166584015, -0.06511081755161285, 0.18542426824569702, 0.06809794902801514, -0.006693094968795776, -0.24930036067962646, 0.13716666400432587, 0.4467713236808777, -0.0591529943048954, -0.02026260644197464, -0.11278063803911209, -0.3241521418094635, 0.04957231134176254, -0.0025870511308312416, -0.019729025661945343, 0.027628768235445023, 0.02610243670642376, 0.28171616792678833, -0.023385439068078995, -0.0769786536693573], [0.0516878180205822, 0.1745677888393402, 0.03156031295657158, 0.04269818589091301, 0.14972396194934845, 0.3691333532333374, 0.017996808513998985, -0.2592223286628723, 0.11150050908327103, -0.04970644414424896, -0.08428910374641418, 0.037104398012161255, -0.25815191864967346, 0.0004941803636029363, 0.024816090241074562, -0.1471002697944641, -0.18421109020709991, 0.10880299657583237, -0.20231296122074127, 0.0266193188726902, 0.09364625066518784, -0.26823890209198, -0.28781020641326904, -0.05917656421661377, -0.06304273009300232, 0.3081280291080475, -0.02505628578364849, -0.032474059611558914, -0.34896355867385864, -0.039501167833805084, -0.18303196132183075, 0.1322268545627594], [-0.321360319852829, 0.2610609233379364, 0.273639976978302, -0.07774180173873901, 0.1337379664182663, 0.036808256059885025, -0.2951146364212036, 0.1531720608472824, -0.08110695332288742, -0.08039570599794388, 0.140608549118042, -0.05381838232278824, 0.2142106145620346, -0.0481913797557354, -0.3101145625114441, 0.25644710659980774, 0.3904077410697937, -0.33189329504966736, -0.08295638114213943, -0.02994772419333458, -0.19040529429912567, 0.08078562468290329, 0.532879114151001, -0.16401909291744232, 0.14084017276763916, 0.006338929757475853, -0.08101408928632736, -0.14569301903247833, -0.03775238245725632, 0.4062539041042328, -0.12361301481723785, 0.09790999442338943], [0.07699180394411087, -0.01814115419983864, -0.03619479760527611, 0.07067273557186127, 0.08778296411037445, 0.0002995380782522261, -0.03312690928578377, -0.14256924390792847, -0.24125823378562927, 0.07102296501398087, -0.16014045476913452, -0.19912239909172058, -0.08932913094758987, 0.3116995692253113, -0.05564320459961891, 0.04668312147259712, 0.021309038624167442, -0.056165002286434174, -0.15455074608325958, 0.008295884355902672, 0.08997385203838348, -0.31788960099220276, -0.033453043550252914, 0.12860891222953796, 0.3335360884666443, 0.08423784375190735, 0.18635667860507965, 0.1095920279622078, 0.22750236093997955, 0.07773368060588837, 0.12152110040187836, 0.09347589313983917], [0.12249188870191574, 0.09854122996330261, 0.05781891196966171, 0.03714325278997421, -0.004263871815055609, 0.12518364191055298, -0.4401339888572693, -0.08864317834377289, 0.14000852406024933, 0.07327553629875183, -0.11176061630249023, -0.07554096728563309, 0.10750848799943924, -0.07157903164625168, 0.05777861922979355, 0.029392752796411514, 0.14062285423278809, 0.032574523240327835, -0.0226840078830719, 0.021019618958234787, -0.06442778557538986, 0.23256103694438934, -0.26322898268699646, -0.01973450928926468, 0.6073726415634155, 0.024158280342817307, 0.1888657808303833, 0.06176353618502617, 0.058790173381567, 0.104580819606781, -0.04590315744280815, 0.10154233872890472], [-0.19514590501785278, -0.29551461338996887, 0.1315254420042038, 0.03714850917458534, 0.07349255681037903, 0.2379062920808792, 0.2633473873138428, 0.7460627555847168, -0.07416246086359024, 0.20635971426963806, 0.04668855667114258, -0.25630250573158264, 0.06705490499734879, -0.07073092460632324, -0.32853761315345764, 0.10625048726797104, -0.037961382418870926, 0.08364516496658325, -0.2573629915714264, -0.347499281167984, -0.06382987648248672, -0.13334980607032776, -0.004500985145568848, 0.09529727697372437, -0.23027804493904114, 0.05105495825409889, -0.3538128435611725, 0.007549419533461332, 0.13928578794002533, -0.24566900730133057, 0.1966434121131897, 0.20924001932144165], [0.03941086307168007, -0.3554384708404541, 0.10184536874294281, -0.0683499351143837, 0.14228776097297668, 0.08212651312351227, -0.11615024507045746, 0.2138730138540268, 0.00827906746417284, -0.07514607906341553, 0.26801279187202454, 0.5493941903114319, -0.36174944043159485, 0.0362841971218586, 0.035662297159433365, 0.020666878670454025, 0.6189695596694946, 0.11725062876939774, 0.06673233211040497, -0.10493946075439453, -0.03754711151123047, 0.1704159528017044, 0.22904695570468903, -0.031401924788951874, 0.25029775500297546, -0.3987886607646942, 0.1318749189376831, 0.14436204731464386, 0.047799404710531235, 0.10946960747241974, -0.11556868255138397, -0.028832657262682915], [0.060906730592250824, 0.20963364839553833, 0.0570249930024147, -0.02362583391368389, 0.02202341891825199, 0.0972425565123558, -0.009667209349572659, 0.02283274196088314, -0.07024617493152618, 0.06202501803636551, -0.004380513913929462, 0.1773592084646225, 0.03241657838225365, -0.02572481893002987, 0.08740303665399551, -0.11448870599269867, 0.1421746462583542, 0.22466592490673065, 0.0791565552353859, -0.36387205123901367, 0.1601686328649521, 0.02325540781021118, -0.3423077166080475, 0.06552178412675858, 0.09124482423067093, 0.0544709712266922, -0.009278316050767899, -0.3857426941394806, -0.06130680441856384, -0.1414373517036438, 0.15545430779457092, 0.06943587958812714], [-0.012193013913929462, -0.07426183670759201, 0.0762038454413414, 0.027764860540628433, -0.10022297501564026, 0.009542197920382023, -0.11039895564317703, 0.34780940413475037, -0.03680256009101868, -0.1320931762456894, -0.04064808413386345, -0.256917804479599, 0.03513966128230095, -0.0079659977927804, -0.12265195697546005, 0.3255462944507599, -0.05040854588150978, 0.017863860353827477, 0.15989311039447784, 0.19283634424209595, -0.2046523243188858, 0.12846942245960236, -0.05131557956337929, 0.0012161468621343374, -0.1552259474992752, -0.1034335196018219, -0.07034635543823242, 0.16957148909568787, 0.07804859429597855, -0.05627109482884407, 0.04110818728804588, -0.08604685217142105], [0.21952316164970398, 0.030627457424998283, 0.17402459681034088, 0.16878341138362885, -0.07906457036733627, -0.1623971164226532, -0.17255748808383942, 0.22817561030387878, 0.14905422925949097, -0.06486760079860687, -0.12463400512933731, -0.28283098340034485, 0.1089002788066864, 0.13911573588848114, 0.09873444586992264, 0.4437127113342285, -0.1008332148194313, -0.01761319488286972, 0.24814355373382568, 0.18850697576999664, 0.05550980567932129, -0.03526074066758156, -0.2781371474266052, -0.03302696719765663, -0.10138233751058578, -0.02394842728972435, -0.006286378018558025, -0.25043779611587524, -0.076984703540802, 0.061675865203142166, -0.146973118185997, -0.009165468625724316], [-0.1107541099190712, 0.09554024040699005, -0.11376088857650757, 0.027310747653245926, -0.14341433346271515, -0.055700164288282394, -0.3491639792919159, -0.6888421177864075, 0.22604653239250183, -0.1413862109184265, 0.1674625426530838, -0.0699247270822525, 0.09728708863258362, 0.0742494985461235, 0.18442387878894806, 0.2982437312602997, -0.25288769602775574, 0.22703410685062408, -0.00010226389713352546, 0.06054428592324257, 0.03746112063527107, 0.23360739648342133, -0.30008968710899353, -0.08052419871091843, 0.07335367798805237, 0.05538168549537659, 0.15586690604686737, -0.17691977322101593, 0.0363081693649292, -0.18401417136192322, -0.03768264874815941, 0.003025179263204336], [0.018646100535988808, -0.2521789073944092, 0.12677054107189178, -0.05321693420410156, 0.2881791293621063, 0.06987690925598145, 0.09428538382053375, -0.07533182203769684, -0.20907065272331238, 0.1342393457889557, -0.01773880049586296, -0.009096011519432068, 0.26640936732292175, -0.4088272154331207, -0.08387155830860138, 0.1090376228094101, 0.089754618704319, 0.05912547931075096, -0.15860027074813843, 0.04032418131828308, -0.08199825137853622, 0.20685085654258728, -0.06737332046031952, -0.1545712798833847, 0.5767937302589417, -0.2061692476272583, -0.26461783051490784, 0.19240078330039978, 0.032172687351703644, 0.03391849249601364, 0.08593069016933441, 0.037094030529260635], [-0.23496593534946442, -0.2694598436355591, -0.21611236035823822, -0.06286028027534485, 0.09820868819952011, -0.1234569177031517, 0.7834439873695374, -0.2729201316833496, -0.20430968701839447, -0.18269774317741394, 0.08408336341381073, 0.3219648003578186, -0.2380209118127823, 0.09299726784229279, -0.31422799825668335, -0.5614144206047058, -0.004728744272142649, -0.05272149667143822, -0.3923589289188385, 0.7446567416191101, 0.2940235733985901, -0.2560507655143738, 0.9794308543205261, 0.13420066237449646, -0.14657577872276306, -0.1658044457435608, -0.5071018934249878, -0.15337422490119934, 0.1897864043712616, -0.008941732347011566, 0.28621378540992737, -0.1936900019645691], [0.04525437206029892, 0.10814569145441055, -0.1038513109087944, -0.008533671498298645, -0.039770230650901794, -0.6085465550422668, 0.13950516283512115, 0.09505749493837357, -0.16209383308887482, -0.06107636168599129, 0.2608221471309662, -0.09475580602884293, 0.20820388197898865, -0.004815306514501572, -0.0909152552485466, 0.018223892897367477, 0.362981379032135, -0.04295117408037186, 0.017605269327759743, -0.09419932961463928, -0.036232348531484604, 0.17981430888175964, -0.07185474038124084, 0.11213141679763794, -0.2648797929286957, 0.06301234662532806, 0.21492154896259308, -0.04971979558467865, -0.19202248752117157, 1.027186632156372, 0.0383652038872242, -0.15846362709999084], [0.019749781116843224, 0.0003343959688208997, 0.03573791682720184, 0.21366803348064423, 0.019742213189601898, 0.031415972858667374, 0.11095602065324783, 0.2869664430618286, -0.038910653442144394, -0.5076932311058044, -0.0551547147333622, -0.005019619595259428, -0.08157793432474136, -0.14435647428035736, -0.14646194875240326, 0.11658986657857895, -0.04324452206492424, -0.0347478948533535, 0.12715381383895874, 0.2524912357330322, -0.04064464941620827, -0.19172784686088562, 0.022001013159751892, 0.04476934298872948, 0.23570559918880463, 0.01028352603316307, 0.056040022522211075, 0.07937443256378174, 0.03840605542063713, -0.060793470591306686, 0.02535788156092167, -0.03849507123231888], [-0.023013798519968987, -0.1546352058649063, -0.13685594499111176, -0.01419845037162304, -0.17157238721847534, 0.09161058813333511, 0.19644206762313843, 0.10215383768081665, -0.36495447158813477, -0.006358209066092968, 0.03303273394703865, -0.4419800043106079, 0.05550529807806015, 0.18740713596343994, -0.06933142989873886, 0.12480074912309647, 0.06131074205040932, -0.039084576070308685, 0.0829106867313385, -0.4481140077114105, -0.01979844644665718, 0.38325372338294983, 0.1399058997631073, -0.027240652590990067, 0.09101419895887375, 0.2781284749507904, 0.10459195822477341, 0.00038099818630144, -0.03035096637904644, -0.16652868688106537, 0.26206329464912415, -0.24023950099945068], [-0.02939058095216751, -0.1655614972114563, -0.07965049147605896, 0.07069040834903717, 0.12375801801681519, 0.16371776163578033, -0.7305905818939209, -0.23304563760757446, 0.1398947685956955, -0.06938303261995316, -0.08719531446695328, -0.12338122725486755, 0.097581647336483, 0.10760173201560974, -0.05967090278863907, -0.06149596720933914, 0.03650081902742386, 0.13700911402702332, -0.1015910729765892, -0.041635386645793915, -0.24265915155410767, 0.23065458238124847, -0.10541775822639465, -0.40866026282310486, -0.8685255646705627, 0.12257201224565506, -0.19861161708831787, -0.05223947763442993, 0.040627606213092804, 0.14617310464382172, -0.016864201053977013, 0.17775560915470123], [-0.020729687064886093, 0.0751427486538887, -0.09014976769685745, 0.0054206340573728085, -0.03257552534341812, -0.1008756011724472, -0.1837136596441269, 0.033746398985385895, 0.042788684368133545, 0.13690732419490814, 0.019751541316509247, -0.11505445837974548, -0.030537748709321022, 0.19030378758907318, 0.0918264091014862, -0.019727371633052826, 0.02990538254380226, -0.1329279989004135, 0.02762897126376629, 0.007661125157028437, -0.07446891069412231, -0.1090330258011818, 0.05861781910061836, 0.043416496366262436, 0.10599109530448914, -0.10206903517246246, -0.010158820077776909, 0.23554560542106628, 0.00048717972822487354, -0.01887812837958336, 0.01640945114195347, 0.021612074226140976], [-0.10275812447071075, -0.026743341237306595, -0.03468469902873039, 0.02875598706305027, -0.41709357500076294, -0.14730197191238403, -0.08302471041679382, -0.08719286322593689, -0.1087648943066597, -0.01380850374698639, -0.07633891701698303, -0.07751159369945526, -0.032112639397382736, -0.2984088659286499, -0.027794599533081055, -0.012035820633172989, -0.00731163565069437, 0.01614268124103546, 0.07625651359558105, -0.01533182431012392, -0.0010421156184747815, 0.17071330547332764, 0.001962548354640603, 0.23767642676830292, -0.12298397719860077, -0.18157678842544556, 0.041967205703258514, -0.055369049310684204, 0.46070536971092224, -0.022308174520730972, 0.12790179252624512, 0.30703383684158325], [-0.05095458775758743, -0.04879453405737877, 0.08127398043870926, 0.02287251502275467, 0.016236402094364166, -0.3095235526561737, 0.08557555824518204, 0.10124146938323975, -0.15337398648262024, 0.2235523909330368, -0.050126995891332626, -0.07889383286237717, -0.31695258617401123, -0.15023791790008545, -0.011827671900391579, -0.03244899958372116, -0.7146993279457092, -0.0004185857542324811, 0.08199495822191238, 0.06366024166345596, 0.08085419982671738, -0.14809869229793549, 0.07172605395317078, -0.5862783193588257, 0.33523446321487427, 0.2031482309103012, 0.12265346199274063, 0.09441419690847397, 0.01515329908579588, 0.3184308409690857, 0.05742749944329262, -0.08718445897102356], [0.013085105456411839, 0.6188462376594543, -0.019325027242302895, -0.020175447687506676, -0.013570264913141727, 0.17492009699344635, -0.055230461061000824, 0.1738564670085907, -0.3918169438838959, 0.3331979811191559, 0.3143751621246338, 0.0975351482629776, -0.21166189014911652, -0.07646702229976654, 0.08833964914083481, -0.14064405858516693, 0.08075997233390808, -0.11269532889127731, -0.03425876051187515, 0.10494457930326462, 0.14517632126808167, -0.047963157296180725, -0.11077087372541428, 0.1285492330789566, -0.08507047593593597, -0.28334492444992065, -0.0019252299098297954, -0.060869742184877396, 0.05705948546528816, -0.14603495597839355, 0.30061519145965576, 0.10429367423057556], [-0.09865488111972809, -0.08517000079154968, 0.15367166697978973, 0.0016615738859400153, 0.023207133635878563, -0.12821148335933685, 0.038960400968790054, 0.033977244049310684, -0.10821713507175446, -0.0052524348720908165, -0.04934706911444664, 0.18387025594711304, -0.16624368727207184, 0.06797865033149719, -0.025941647589206696, 0.034732669591903687, 0.023932915180921555, -0.05570477619767189, -0.22154587507247925, -0.1838451474905014, -0.05934939160943031, -0.05672956258058548, 0.06535909324884415, 0.19835498929023743, 0.21074049174785614, 0.1998111605644226, -0.10601433366537094, -0.18770810961723328, 0.05749644339084625, 0.1109292209148407, -0.158180832862854, 0.35137978196144104], [-0.16812050342559814, 0.07908730208873749, -0.061826787889003754, -0.03334379568696022, 0.011849330738186836, 0.03331752493977547, -0.04739917069673538, -0.18516799807548523, 0.045782264322042465, 0.057786498218774796, 0.06309053301811218, 0.0017439452931284904, 0.03281305357813835, 0.0991230458021164, 0.10377787798643112, -0.05082210898399353, -0.01320786401629448, -0.12747880816459656, -0.08988120406866074, -0.08344785869121552, 0.1809651106595993, 0.12756884098052979, 0.20047684013843536, -0.0850866436958313, 0.18793697655200958, -0.017803052440285683, -0.0502886101603508, 0.06819985806941986, 0.009584898129105568, 0.0353514663875103, 0.0338711254298687, 0.032153598964214325], [0.06368820369243622, 0.032047901302576065, 0.021298134699463844, -0.01639411598443985, -0.007788859307765961, -0.058705419301986694, 0.014740587212145329, 0.04724573716521263, 0.03484503552317619, -0.02496439963579178, 0.0693320631980896, 0.04278086498379707, -0.16836246848106384, 0.04138532280921936, 0.0020413382444530725, -0.0988137349486351, 0.051135629415512085, -0.1003892719745636, 0.006124141160398722, 0.022237541154026985, -0.005492102354764938, -0.07723241299390793, -0.0846366211771965, -0.055773623287677765, 0.0026434671599417925, 0.03051934204995632, 0.014012835919857025, 0.07518116384744644, -0.03549863025546074, 0.027199862524867058, 0.08681648224592209, -0.009803819470107555], [-0.018318993970751762, -0.01660553365945816, -0.16314458847045898, -0.01966131292283535, -0.030271386727690697, 0.023715956136584282, 0.032055050134658813, -0.07587163895368576, -0.014324027113616467, 0.11364969611167908, -0.018679141998291016, 0.024056820198893547, 0.006375542376190424, 0.02595546469092369, 0.07867798209190369, -0.06965034455060959, 0.010906259529292583, -0.06647748500108719, 0.04125277325510979, -0.09810726344585419, -0.019932512193918228, 0.06509415805339813, -0.16339454054832458, -0.06591489166021347, -0.06198514252901077, 0.03357939422130585, 0.06143936514854431, 0.20174328982830048, 0.02169126644730568, -0.09161435067653656, 0.0658620148897171, -0.05823155492544174], [0.004846569616347551, -0.03166749328374863, 0.05236579477787018, 0.00963562447577715, 0.012420660816133022, -0.01985233649611473, -0.02887955866754055, 0.03464394062757492, -0.04126511141657829, -0.05437473952770233, 0.0021886369213461876, -0.022669116035103798, 0.022732149809598923, -0.017497027292847633, 0.018699094653129578, 0.0658397376537323, 0.03686554357409477, 0.051895637065172195, 0.046036262065172195, 0.030207788571715355, 0.058122407644987106, -0.009992080740630627, -0.04389779642224312, 0.034164901822805405, -0.011572553776204586, -0.0006680811056867242, 0.007178378291428089, -0.031049830839037895, 0.02676193043589592, -0.0036117734853178263, -0.0776812806725502, -0.0031119792256504297], [-0.004410389810800552, -0.012843797914683819, -0.0685858204960823, -0.003419951768592, -0.013182026334106922, 0.012183894403278828, 0.038197316229343414, 0.027256464585661888, 0.00013688637409359217, 0.058305587619543076, -0.020285338163375854, 0.006393164861947298, -0.025377722457051277, -0.011502096429467201, 0.0006080290186218917, 0.026406070217490196, -0.03171614930033684, -0.13166698813438416, 0.02918166294693947, -0.07186295092105865, -0.003960177768021822, 0.04871952161192894, 0.02457861788570881, -0.009735229425132275, -0.03824977949261665, 0.021597178652882576, -0.01783544383943081, 0.10047133266925812, -0.00788344256579876, 0.003300910582765937, -0.050287507474422455, -0.05629061907529831], [-0.04042139649391174, -0.10092569887638092, -0.18719029426574707, -0.008974545635282993, -0.00027173335547558963, -0.22860276699066162, -0.07980737090110779, -0.06652719527482986, -0.01108936034142971, 0.09219367057085037, 0.02960503287613392, -0.10154148191213608, 0.06581687927246094, 0.1436648666858673, 0.09606288373470306, 0.09973950684070587, -0.09134751558303833, -0.2825906574726105, 0.03311342000961304, -0.06278952956199646, -0.05707600340247154, -0.07134949415922165, -0.00787060521543026, 0.04488380625844002, 0.06699150800704956, -0.014277573674917221, 0.05772225931286812, 0.19206303358078003, 0.028954852372407913, 0.09867797791957855, -0.05943653732538223, -0.050310537219047546], [0.037748705595731735, 0.06439977139234543, -0.2149295061826706, -0.019182348623871803, -0.014053823426365852, -0.03653550148010254, 0.004269314464181662, 0.11197303980588913, -0.0017174314707517624, 0.143575981259346, 0.003133375896140933, 0.027980301529169083, -0.07937658578157425, 0.01188146322965622, 0.046532440930604935, -0.030787291005253792, -0.08269619941711426, -0.3082733452320099, 0.048812516033649445, -0.15471939742565155, -0.2090163379907608, -0.023168085142970085, 0.028962429612874985, -0.01454928144812584, -0.10910984873771667, 0.01573869027197361, 0.026080045849084854, 0.3384625017642975, -0.0005830928566865623, 0.06118747964501381, 0.03638431057333946, -0.09058049321174622], [0.03780008479952812, 0.03857865557074547, -0.1335352212190628, -0.004678721074014902, 0.05514410138130188, -0.03926697000861168, 0.03134391829371452, 0.12131618708372116, -0.006734855007380247, -0.025174032896757126, 0.008577238768339157, -0.024002356454730034, -0.017062921077013016, -0.0568632036447525, -0.031824275851249695, -0.04655488207936287, -0.004702821373939514, -0.27535778284072876, 0.06408356875181198, -0.009998608380556107, -0.11988614499568939, -0.09682779759168625, 0.09653829783201218, -0.01775684580206871, -0.05840006843209267, -0.016984902322292328, -0.010507377795875072, 0.24721314013004303, 0.0018628091784194112, 0.055539630353450775, -0.07111811637878418, -0.10319548845291138], [0.022437114268541336, -0.00454299570992589, -0.04748900979757309, -0.00784514844417572, 0.04891614988446236, -0.013389562256634235, -0.056106775999069214, 0.002659653080627322, -0.031121667474508286, 0.027806950733065605, -0.002789755817502737, 0.009466047398746014, -0.035773053765296936, 0.050830092281103134, -0.00727866729721427, 0.030921336263418198, 0.02500765025615692, -0.12617293000221252, 0.0098736472427845, -0.05695972591638565, 0.009709533303976059, 0.033864185214042664, -0.009621359407901764, 0.0346512645483017, -0.0017721105832606554, 0.018348166719079018, 0.017772110179066658, 0.16414345800876617, 0.014447486028075218, 0.02981615997850895, -0.00016619307280052453, -0.02393386885523796], [-0.16952137649059296, 0.0144036328420043, -0.127092644572258, -0.00022278288088273257, -0.0044194553047418594, -0.10917937010526657, -0.006072885822504759, 0.1307864934206009, -0.004357131663709879, 0.3900083303451538, -0.08906281739473343, -0.09845579415559769, -0.05227663367986679, 0.15846958756446838, 0.04979381710290909, -0.01975853741168976, -0.04833758622407913, -0.3741864860057831, 0.02431129477918148, -0.3178599774837494, -0.29222723841667175, -0.021254219114780426, -0.02362302877008915, 0.005765949375927448, 0.06414291262626648, -0.05161645635962486, 0.000840965483803302, 0.28853318095207214, 0.10700182616710663, 0.08192536234855652, -0.12531529366970062, -0.007770034950226545], [-0.02024335041642189, 0.0805032029747963, -0.029901787638664246, -0.011622452177107334, -0.014378565363585949, -0.0013780118897557259, -0.055377569049596786, 0.009382672607898712, 0.006370227318257093, 0.07396166771650314, -0.07542404532432556, -0.015980012714862823, 0.11561400443315506, 0.006848583463579416, 0.07370400428771973, -0.053863901644945145, -0.031055839732289314, -0.031900566071271896, -0.02199561893939972, -0.07653829455375671, -0.03684569150209427, 0.029360484331846237, 0.08694528788328171, 0.008045205846428871, -0.008303629234433174, -0.028267374262213707, 0.04048927500844002, 0.023484744131565094, 0.001893203123472631, -0.03270787373185158, 0.07198166847229004, -0.0009601691854186356], [-0.03688780218362808, -0.11840547621250153, -0.11549126356840134, -0.0004955500480718911, 0.01662156730890274, -0.06472014635801315, 0.09154593199491501, -0.0069791520945727825, -0.0013233289355412126, -0.05277412757277489, 0.003203814383596182, 0.02273908630013466, 0.05296206846833229, 0.10895362496376038, -0.021725857630372047, 0.006770108360797167, -0.11377859115600586, -0.06595901399850845, -0.054630815982818604, 0.0037412000820040703, 0.0130402697250247, -0.06943655014038086, -0.10639768838882446, -0.01967628113925457, -0.058812569826841354, 0.030916089192032814, 0.01263388991355896, 0.057710953056812286, -0.038924846798181534, 0.030934683978557587, 0.05462805926799774, -0.004987196996808052], [-0.010388942435383797, 0.1204676404595375, 0.0018114582635462284, -0.002955084666609764, 0.05015860125422478, -0.028787091374397278, 0.09150822460651398, 0.052331071346998215, -0.09504102915525436, -0.002457779599353671, 0.026558153331279755, -0.0521530918776989, -0.051736295223236084, 0.03804641589522362, -0.03064357116818428, -0.15299656987190247, 0.10874079167842865, -0.23587527871131897, -0.0409805066883564, -0.039255812764167786, -0.0889582708477974, 0.010762578807771206, 0.13390783965587616, 0.1858297884464264, -0.044750794768333435, 0.17468257248401642, 0.05995199456810951, 0.06221410632133484, 0.0260008554905653, 0.0523858442902565, -0.012199748307466507, 0.09228850901126862], [-0.09086574614048004, -0.03187597170472145, -0.08014713227748871, -0.014397382736206055, 0.009578628465533257, 0.0036407234147191048, 0.020381305366754532, -0.08944153040647507, 0.04982207342982292, 0.03920966386795044, 0.030793746933341026, 0.024329083040356636, -0.06440374255180359, 0.06000201404094696, 0.06431105732917786, -0.0348869226872921, 0.02504274807870388, -0.10068266838788986, -0.05194590985774994, -0.019931849092245102, 0.030520562082529068, -0.022509906440973282, 0.028344182297587395, 0.03777587413787842, 0.012872946448624134, -0.03339458256959915, -0.026477057486772537, 0.08925729244947433, 0.038901764899492264, -0.0003501047322060913, 0.03232281282544136, 0.051939934492111206], [0.007645449601113796, 0.04505254700779915, -0.025397419929504395, -0.003629645798355341, -0.02861594408750534, -0.005055166780948639, 0.018450796604156494, 0.024716179817914963, -0.03308409824967384, -0.0027787673752754927, -0.022707143798470497, 0.002558422274887562, -0.013801686465740204, 0.044956643134355545, 0.015513559803366661, 0.06737546622753143, -0.024789346382021904, -0.0670752227306366, 0.04414408281445503, -0.03741537407040596, -0.04215626418590546, 0.004600908141583204, 0.027782471850514412, -0.09075950086116791, -0.0678153932094574, 0.022639479488134384, 0.06253236532211304, 0.10546214878559113, 0.03229951113462448, 0.035185638815164566, -0.06344383209943771, -0.03788746893405914], [0.10434430837631226, 0.03579992428421974, 0.17081385850906372, 0.04749329760670662, -0.013224469497799873, 0.003528477856889367, -0.13416174054145813, 0.40869566798210144, -0.028582101687788963, 0.08507680892944336, -0.10950317233800888, -0.011222398839890957, 0.06255479902029037, -0.016229573637247086, -0.04452139511704445, 0.3586443066596985, -0.09974826872348785, -0.1107657253742218, 0.20706206560134888, -0.1568669080734253, -0.22270110249519348, -0.12210886925458908, -0.23660637438297272, 0.060609836131334305, -0.16539961099624634, 0.06603305786848068, 0.05912630259990692, 0.10122721642255783, -0.005331002175807953, 0.09041823446750641, -0.049675315618515015, -0.04642143100500107], [-0.008192400448024273, -0.060591697692871094, 0.04004180058836937, 0.029931558296084404, 0.044229209423065186, -0.11607834696769714, -0.00704824086278677, -0.00024714446044526994, 0.07887793332338333, -0.04476800188422203, -0.02242346480488777, -0.0520816333591938, 0.161965012550354, -0.03635995090007782, -0.0023727072402834892, 0.028131475672125816, -0.41543108224868774, -0.06286429613828659, -0.06428554654121399, 0.0825209990143776, 0.044534794986248016, 0.05503854155540466, 0.1999167948961258, -0.021518273279070854, -0.03456374257802963, 0.06788994371891022, -0.04114494100213051, 0.17798258364200592, -0.11004586517810822, -0.032522592693567276, 0.11998452991247177, -0.004749504383653402], [-0.008810007013380527, 0.002857564017176628, -0.18787270784378052, -0.03165397047996521, 0.0392729789018631, -0.14856010675430298, 0.09414201229810715, 0.032797716557979584, -0.03661731258034706, 0.20620104670524597, 0.024035166949033737, -0.007937650196254253, -0.2170114815235138, 0.04712003841996193, 0.08517810702323914, -0.18244506418704987, -0.0604071319103241, -0.259261816740036, 0.05050711706280708, -0.03018631413578987, -0.08440160751342773, 0.07284217327833176, 0.00330677954480052, -0.09948587417602539, 0.024882258847355843, 0.018549613654613495, 0.020169390365481377, 0.3148632347583771, 0.05188295617699623, 0.058575645089149475, -0.05046549066901207, -0.10473443567752838], [-0.03154618665575981, 0.05653224140405655, 0.051699113100767136, 0.009530545212328434, -0.0010750440414994955, 0.06224815174937248, -0.06532851606607437, 0.03902843967080116, 0.05887014418840408, 0.09225388616323471, 0.003404337679967284, -0.03057125210762024, 0.09955362975597382, 0.002475158544257283, 0.09750548005104065, 0.14515307545661926, 0.10974099487066269, 0.07607799768447876, 0.03969288617372513, -0.10710331797599792, 0.06500204652547836, 0.08513049781322479, -0.19215883314609528, -0.0800093412399292, 0.006043814122676849, 0.02271111123263836, 0.016613028943538666, 0.025382541120052338, 0.03390408679842949, -0.05271492153406143, -0.04762556403875351, -0.0008967673638835549], [-0.06805641949176788, 0.19136019051074982, -0.10980988293886185, -0.008412282913923264, 0.005158539861440659, 0.00909376423805952, 0.014352388679981232, 0.21669577062129974, -0.07901496440172195, 0.333982914686203, -0.15292052924633026, -0.10915487259626389, -0.045798011124134064, 0.03239700198173523, 0.020087460055947304, -0.12589845061302185, -0.06375208497047424, -0.33257704973220825, -0.06876440346240997, -0.5794523358345032, -0.24770352244377136, 0.07717116922140121, -0.00936172716319561, -0.09250841289758682, 0.17598412930965424, -0.010962697677314281, -0.030971089377999306, 0.15303082764148712, 0.046069517731666565, 0.10401973873376846, -0.013031993992626667, -0.03478722274303436], [0.012751075439155102, -0.04609188064932823, -0.1275557279586792, -0.040587715804576874, 0.001187691930681467, -0.03323309123516083, -0.09935173392295837, -0.0195864699780941, 0.04978472739458084, 0.023977063596248627, 0.028985854238271713, 0.0009482258465141058, -0.09671631455421448, -0.003910252824425697, 0.0669274553656578, -0.045461948961019516, 0.08233440667390823, -0.20470240712165833, 0.080230712890625, 0.0064473203383386135, -0.0867527574300766, 0.16465720534324646, -0.014301304705440998, -0.09958494454622269, 0.09326691925525665, 0.04501752182841301, -0.09123221039772034, 0.18509986996650696, 0.0313672237098217, 0.020772095769643784, -0.09240449219942093, -0.04252174124121666], [0.06005407124757767, -0.07025983929634094, -0.09376749396324158, -0.011034563183784485, 0.04488113150000572, -0.03617082163691521, 0.03388996422290802, 0.08086348325014114, -0.10496188700199127, 0.07906834781169891, -0.039786454290151596, 0.007376935798674822, -0.08086127787828445, 0.004579030442982912, 0.013179189525544643, -0.044799789786338806, -0.0032342164777219296, -0.08212829381227493, 0.020158709958195686, -0.05621262267231941, -0.0208213459700346, 0.04026252403855324, -0.059821147471666336, -0.02005257084965706, -0.050729673355817795, -0.013124102726578712, -0.020277272909879684, 0.14743733406066895, 0.021228954195976257, 0.0055882977321743965, -0.04728124663233757, -0.027339564636349678], [0.0024276026524603367, 0.06257730722427368, 0.0550755076110363, -0.010415861383080482, 0.07734072953462601, 0.04508473351597786, 0.04589818790555, -0.08244697004556656, -0.13671371340751648, -0.13628077507019043, 0.12103170901536942, 0.054633814841508865, -0.2080085426568985, -0.006739260163158178, 0.049236565828323364, 0.006699266843497753, -0.1481706202030182, -0.2357410490512848, -0.053124476224184036, 0.02281695045530796, -0.1248687207698822, 0.10921129584312439, 0.023391304537653923, 0.04277311637997627, -0.04166523367166519, 0.06262148171663284, -0.039612941443920135, 0.14364348351955414, 0.034955766052007675, 0.0987418070435524, -0.05793929472565651, -0.041647352278232574], [0.022996501997113228, -0.06998450309038162, -0.1698000431060791, -0.02735770121216774, -0.04016783460974693, -0.08673477172851562, -0.007120371796190739, 0.05061955749988556, -0.05545785650610924, 0.13520313799381256, -0.008340800181031227, 0.003043203614652157, -0.07727085053920746, 0.08418765664100647, 0.061925727874040604, 0.03244816139340401, -0.0507805161178112, -0.220150426030159, 0.07679636031389236, -0.09660860151052475, -0.05179360881447792, 0.041406068950891495, -0.07055127620697021, -0.18723434209823608, -0.0016829260857775807, -0.008608018979430199, 0.038447681814432144, 0.341605007648468, 0.007691028993576765, 0.048303715884685516, 0.0015557935694232583, -0.11269629746675491], [0.00940848421305418, 0.017433026805520058, -0.1360829770565033, -0.0010434907162562013, 0.031570035964250565, -0.035093627870082855, 0.016973691061139107, 0.13507190346717834, 0.020215019583702087, 0.17894624173641205, 0.007159525994211435, 0.007237376179546118, -0.10914749652147293, -0.022402983158826828, 0.034233711659908295, -0.032996851950883865, -0.06436692178249359, -0.21149535477161407, 0.10365529358386993, -0.16074372828006744, -0.2412017285823822, 0.001536554074846208, 0.02727157436311245, 0.004082552623003721, -0.1796986609697342, 0.03339492902159691, 0.054758768528699875, 0.31904488801956177, -0.022958088666200638, 0.039552658796310425, 0.006318354047834873, -0.13051190972328186], [-0.008932722732424736, -0.0879523754119873, -0.021206913515925407, 0.005156513769179583, -0.038825057446956635, 0.0596628412604332, 0.0005181842716410756, 0.025868762284517288, -0.02635216899216175, -0.0544319711625576, -0.008669373579323292, 0.018080733716487885, 0.05989515036344528, -0.005035636480897665, 0.03222905099391937, 0.05759020894765854, -0.007813210599124432, -0.019915204495191574, 0.03860760107636452, -0.004525969736278057, 0.02864963933825493, 0.03230917453765869, -0.14615851640701294, -0.07727638632059097, -0.04665793105959892, -0.03000439517199993, 0.022007683292031288, 0.027449315413832664, 0.052705068141222, 0.016281964257359505, 0.0028056998271495104, -0.022314807400107384], [0.00407404825091362, 0.04991525411605835, -0.18619152903556824, -0.02706664800643921, -0.0024201173800975084, -0.0520513541996479, 0.04137161374092102, 0.048867613077163696, 0.003887008409947157, 0.15489742159843445, -0.007824228145182133, 0.012222327291965485, -0.025789059698581696, 0.05401119217276573, 0.024525152519345284, -0.03823584318161011, -0.10263650119304657, -0.24030537903308868, 0.028108464553952217, -0.1266445815563202, -0.12748907506465912, -0.00610043341293931, 0.004651025403290987, -0.06606828421354294, -0.06467965245246887, 0.014423265121877193, -0.0017858357168734074, 0.2807045876979828, -0.018654363229870796, 0.010887264274060726, 0.06161249428987503, -0.08936119079589844], [0.026878297328948975, -0.021505750715732574, -0.24604026973247528, -0.024707619100809097, -0.019844679161906242, -0.05374955013394356, -0.033700019121170044, 0.09787092357873917, -0.02874274179339409, 0.1847992092370987, 0.0059734247624874115, -0.0156031409278512, -0.16459432244300842, 0.05989899858832359, 0.06512738764286041, -0.04641146957874298, 0.01449583936482668, -0.4914826452732086, 0.06592848896980286, -0.07828725874423981, -0.1457623541355133, 0.07545675337314606, 0.05089303478598595, -0.14049410820007324, -0.018259529024362564, -0.001368813798762858, 0.007957584224641323, 0.2759553790092468, 0.014011758379638195, 0.08104386925697327, -0.05363060534000397, -0.0699944943189621], [0.035896509885787964, -0.022809816524386406, -0.033503457903862, -0.010732093825936317, -0.012187144719064236, -0.015432218089699745, -0.03352676331996918, 0.0185749102383852, -0.02071552723646164, -0.01651117578148842, -0.02262958511710167, 0.027485216036438942, 0.00502000330016017, 0.023358944803476334, 0.06226731836795807, -0.0081936651840806, -0.06113497167825699, -0.030321596190333366, -0.03189375624060631, -0.04075465723872185, 0.0729249119758606, -0.005955683533102274, -0.11585743725299835, -0.00908998865634203, -0.022379083558917046, 0.04202459007501602, 0.016749439761042595, 0.04190129414200783, -0.054619934409856796, 0.013424986973404884, -0.015886014327406883, -0.006958658341318369], [0.06709956377744675, -0.1557006984949112, 0.06945616751909256, -0.026005301624536514, -0.04576103389263153, -0.10930943489074707, 0.06259255856275558, -0.025909800082445145, -0.05227292701601982, -0.06563220918178558, -0.08691811561584473, -0.011995993554592133, -0.19256682693958282, -0.030640076845884323, -0.0350675992667675, -0.000770250684581697, 0.07725534588098526, -0.06202492117881775, -0.03178911656141281, 0.10191142559051514, 0.10444650799036026, 0.08223479241132736, 0.0900731012225151, -0.18983793258666992, 0.09627080708742142, -0.017650842666625977, -0.003396245650947094, 0.04440467432141304, -0.01106336247175932, 0.21886470913887024, -0.15527290105819702, -0.04787558689713478], [-0.055633582174777985, 0.022092493250966072, -0.0680525153875351, -0.007473647128790617, 0.04746623337268829, -0.14673888683319092, 0.005881205666810274, 0.03859793767333031, -0.06599728018045425, -0.027880802750587463, -0.03471896052360535, -0.03147700056433678, 0.03116416186094284, 0.036725834012031555, 0.0010061512002721429, -0.043616972863674164, -0.19051776826381683, -0.15170340240001678, 0.012256193906068802, -0.02464350499212742, -0.05027922987937927, -0.0059258583933115005, 0.12389974296092987, -0.0031292804051190615, 0.0731215626001358, -0.02374282106757164, -0.04000323265790939, 0.10918629169464111, 0.029864881187677383, 0.08161310851573944, -0.06569430977106094, -0.019954320043325424], [-0.01888381876051426, -0.11255868524312973, -0.06800480931997299, -0.01587963104248047, 0.00740043306723237, 0.008744999766349792, 0.03586746007204056, -0.11521294713020325, -0.03074725903570652, 0.07265497744083405, 0.02026388794183731, -0.048707280308008194, 0.033630963414907455, 0.05060756951570511, 0.07128676772117615, -0.04293890669941902, 0.08852354437112808, -0.010622315108776093, 0.011436626315116882, -0.01934073492884636, 0.08055035024881363, 0.0595700666308403, -0.08519069850444794, -0.09765266627073288, 0.03248254954814911, 0.027627477422356606, 0.05575290322303772, 0.02887832745909691, 0.004915774799883366, -0.04308503866195679, -0.06279712170362473, -0.041723012924194336]], "rec.bias_ih_l0": [-0.20729230344295502, -0.03469931706786156, 0.16066354513168335, -0.0187663733959198, 0.03544432297348976, -0.7704535722732544, 0.3376898169517517, -0.17426668107509613, 0.07255232334136963, -0.6030917763710022, -0.002907763933762908, -0.2971667945384979, 0.02411784790456295, -0.3296121060848236, 0.15450656414031982, -0.1444229781627655, -3.309084786451422e-05, 0.1612623929977417, -0.031454332172870636, -0.6009265184402466, 0.17716826498508453, 0.12440706044435501, 0.4098299443721771, 0.3613349199295044, 0.1574414223432541, -0.14236117899417877, 0.3210144340991974, 0.11600024998188019, 0.042843203991651535, 0.08580370992422104, 0.007990319281816483, 0.060899339616298676, 0.1924457550048828, 0.0734836608171463, 0.2755126655101776, 0.015722796320915222, 0.3825107514858246, 0.9999117851257324, 0.16300749778747559, 0.17857372760772705, 0.3860459327697754, 0.8255084753036499, 0.1418246030807495, 0.45400288701057434, 0.19705376029014587, 0.5749987959861755, 0.06810690462589264, 0.23859025537967682, 0.1463276892900467, 0.30572840571403503, 0.16114909946918488, 0.6425986886024475, 0.14164027571678162, 0.2433364987373352, 0.12656119465827942, 0.2160426825284958, 0.035840313881635666, 0.45747703313827515, -0.05276285856962204, 0.43075037002563477, 0.3744167983531952, 0.3203112483024597, 0.26427820324897766, 0.27879297733306885, 0.09511804580688477, 0.09356654435396194, -0.22357694804668427, -0.04730323329567909, 0.0709136500954628, -0.03233978897333145, -0.040960151702165604, -0.09718338400125504, 0.10136280208826065, 0.021964965388178825, -0.1496926099061966, 0.06042170524597168, -0.013479233719408512, 0.11172313988208771, 0.11885912716388702, -0.11227043718099594, -0.07906994223594666, -0.05504578724503517, -0.005039248149842024, -0.10167573392391205, -0.13250385224819183, 0.07133753597736359, 0.1840992271900177, -0.15894053876399994, 0.049384940415620804, -0.13547618687152863, 8.4230414358899e-05, 0.12045332789421082, 0.03764259070158005, -0.10838557779788971, -0.04559886083006859, 0.00950409471988678, 0.023049404844641685, 0.0648186132311821, 0.2187698483467102, -0.02359323762357235, 0.10975228995084763, 0.14560866355895996, 0.39648059010505676, 0.29109862446784973, 0.21468369662761688, 0.2722708582878113, 0.016543658450245857, 0.06079774349927902, 0.04151624068617821, 0.10787508636713028, 0.13449248671531677, 0.1488516628742218, 0.19501687586307526, 0.2837531268596649, 0.08100610971450806, 0.08119591325521469, 0.1694672703742981, 0.18778452277183533, 0.11732572317123413, 0.41567379236221313, 0.3585880398750305, 0.03427804633975029, 0.32812973856925964, 0.42938682436943054, 0.05748004838824272, 0.20214007794857025, 0.1049707904458046, 0.08413345366716385], "rec.bias_hh_l0": [-0.20405273139476776, -0.03453870490193367, 0.16466635465621948, -0.020249418914318085, 0.03501257300376892, -0.7828633785247803, 0.3377380967140198, -0.24096877872943878, 0.07446595281362534, -0.6497284770011902, -0.0028074111323803663, -0.29340487718582153, 0.024948960170149803, -0.3306088447570801, 0.15419429540634155, -0.16199541091918945, -0.03271983191370964, 0.15219363570213318, -0.043886397033929825, -0.6005430221557617, 0.17539073526859283, 0.12403326481580734, 0.40972134470939636, 0.36132901906967163, 0.16212256252765656, -0.14049644768238068, 0.32101449370384216, 0.1147066280245781, 0.042793821543455124, 0.0930420383810997, -0.012443260289728642, 0.06062205135822296, 0.19865725934505463, 0.0736616924405098, 0.26920974254608154, 0.016278686001896858, 0.3868761956691742, 0.9889006614685059, 0.16295573115348816, 0.19296790659427643, 0.3925343155860901, 0.7581258416175842, 0.13649041950702667, 0.4509716331958771, 0.19909262657165527, 0.5749267339706421, 0.0683288648724556, 0.239648699760437, 0.18072134256362915, 0.29114633798599243, 0.15547716617584229, 0.6331353187561035, 0.1485610157251358, 0.24524906277656555, 0.1359485238790512, 0.2166256457567215, 0.03721807897090912, 0.43116167187690735, -0.052762728184461594, 0.4263116121292114, 0.37443608045578003, 0.3203013837337494, 0.27048879861831665, 0.27734413743019104, 0.1461126208305359, 0.09001843631267548, -0.12596236169338226, -0.12165015935897827, -0.05287198722362518, -0.2122669667005539, 0.05337933823466301, -0.027886833995580673, -0.035029541701078415, 0.0549614243209362, -0.0782683715224266, 0.24471914768218994, -0.09642799943685532, -0.06619788706302643, 0.18371300399303436, -0.02907020039856434, -0.0574481338262558, -0.18338420987129211, 0.06942415237426758, 0.038196489214897156, 0.061781011521816254, 0.0928533598780632, 0.23863953351974487, -0.12157462537288666, 0.12910552322864532, -0.1335257738828659, -0.04816184192895889, 0.14266982674598694, 0.09988529235124588, -0.14888489246368408, -0.048753947019577026, -0.06877613812685013, 0.02794826589524746, 0.06470272690057755, 0.21500825881958008, -0.02271096780896187, 0.108567014336586, 0.16340547800064087, 0.3965011537075043, 0.3025919198989868, 0.21869374811649323, 0.23411346971988678, 0.012110733427107334, 0.06237759813666344, 0.04030047729611397, 0.1078854501247406, 0.1346188336610794, 0.1549530029296875, 0.1677272766828537, 0.29061490297317505, 0.07733744382858276, 0.05223395302891731, 0.1719505339860916, 0.1898472011089325, 0.1266840100288391, 0.4155879616737366, 0.3595291078090668, 0.02828393504023552, 0.32812970876693726, 0.4043656885623932, 0.057399116456508636, 0.2105012685060501, 0.08593367040157318, 0.11345647275447845], "lin.weight": [[0.08166913688182831, 0.13275621831417084, -0.14630141854286194, -0.07344922423362732, -0.46727463603019714, 0.7943093180656433, 0.32758209109306335, 0.05218113958835602, -0.2581080198287964, -0.04198179394006729, -0.23589175939559937, 0.3650854825973511, 0.10755627602338791, -0.12386661767959595, -0.03894945979118347, 0.1829785853624344, 0.4065892994403839, 0.15457604825496674, 0.10623548924922943, -0.15128102898597717, -0.03612324222922325, 0.003403043607249856, -0.005430080462247133, -1.2007650136947632, 0.09190350770950317, 0.09357038885354996, 0.24906209111213684, 0.06371614336967468, 0.04879144951701164, -0.23526465892791748, 0.4799892008304596, -0.28068244457244873]], "lin.bias": [0.07489084452390671]}}