{"model_data": {"model": "SimpleRNN", "input_size": 1, "skip": 1, "output_size": 1, "unit_type": "LSTM", "num_layers": 1, "hidden_size": 20, "bias_fl": true}, "state_dict": {"rec.weight_ih_l0": [[-0.027077171951532364], [0.06646780669689178], [-0.06741373986005783], [-0.07697593420743942], [-0.01340509857982397], [0.014915994368493557], [0.05121343582868576], [0.06017628684639931], [-0.025426648557186127], [0.06517399847507477], [0.09019838273525238], [-0.01654300093650818], [-0.04298201948404312], [0.1641782969236374], [-0.009792657569050789], [-0.011898101307451725], [-0.07190709561109543], [0.06664565950632095], [-0.08198146522045135], [0.03921696916222572], [-0.02581620216369629], [-0.020471151918172836], [0.05366899445652962], [-0.008851342834532261], [-0.044501155614852905], [0.00890901405364275], [0.06289076060056686], [0.05885745584964752], [-0.17733314633369446], [-0.029618799686431885], [0.20733796060085297], [0.05019841343164444], [0.02368052490055561], [0.032815296202898026], [-0.01830880716443062], [-0.03246232122182846], [0.00040641665691509843], [0.10838998109102249], [-0.14219646155834198], [0.13638298213481903], [-0.0470893569290638], [0.10636619478464127], [-0.4323085844516754], [0.5784220099449158], [-0.04090774059295654], [0.05599513277411461], [0.16983318328857422], [-0.7291345596313477], [-0.7121760249137878], [-0.4275703728199005], [-0.4307538866996765], [-0.2459772676229477], [0.26922062039375305], [-6.998654842376709], [-0.07549836486577988], [0.04192174971103668], [0.25697481632232666], [4.446954250335693], [-0.09115800261497498], [1.9678525924682617], [-0.010654442943632603], [0.07978373020887375], [-0.015136729925870895], [-0.14732049405574799], [0.02857392467558384], [0.02746862731873989], [-0.07503727078437805], [0.05311073735356331], [-0.048331283032894135], [-0.017911912873387337], [0.1578792929649353], [0.03858249634504318], [0.01645505242049694], [-0.2472553849220276], [0.018121588975191116], [-0.02081725187599659], [0.03297637775540352], [0.10525714606046677], [-0.17397905886173248], [0.0666341707110405]], "rec.weight_hh_l0": [[-0.06302957981824875, 0.1450890749692917, -0.08581110835075378, -0.2605522871017456, -0.031113315373659134, -0.18508650362491608, -0.08125490695238113, -0.126196950674057, -0.27146151661872864, 0.15642423927783966, 0.048455704003572464, -0.03050602227449417, 0.1089901402592659, -0.18212027847766876, -0.022382399067282677, -0.08443727344274521, -0.06751711666584015, -0.06969801336526871, 0.06189478933811188, 0.04902391880750656], [-0.03865860775113106, -0.09448137879371643, -0.005520295351743698, 0.04687147215008736, 0.10811646282672882, -0.1345604807138443, -0.10654513537883759, 0.012271511368453503, 0.1264692097902298, -0.15707732737064362, -0.13578031957149506, 0.00890474021434784, -0.09501363337039948, -0.02701399102807045, -0.013692895881831646, 0.020321333780884743, -0.027324644848704338, -0.062076032161712646, -0.03911661356687546, 0.01401034090667963], [0.21898338198661804, 0.23334243893623352, 0.041646942496299744, -0.24643999338150024, -0.5785221457481384, 0.35106587409973145, -0.27036046981811523, -0.005401944741606712, -0.055016789585351944, 0.3159920573234558, -0.15260882675647736, 0.14388608932495117, -0.005768623203039169, -0.18657560646533966, -0.4714212417602539, -0.13070032000541687, 0.04298396408557892, -0.0320294164121151, -0.03706108778715134, -0.04411010071635246], [0.019970256835222244, -0.25397539138793945, 0.025404073297977448, 0.014541166834533215, 0.22788719832897186, -0.08225363492965698, 0.11736362427473068, -0.008270937949419022, 0.264135479927063, -0.24888770282268524, 0.21460554003715515, -0.11227653175592422, -0.029468471184372902, 0.45564359426498413, 0.3101366460323334, -0.08403988182544708, -0.043132953345775604, 0.186552494764328, -0.028623349964618683, -0.02689923159778118], [-0.04203358665108681, -0.09864941984415054, 0.017672952264547348, 0.08146393299102783, 0.1749853640794754, -0.15948854386806488, 0.23722854256629944, -0.01917029172182083, 0.16503837704658508, -0.05583164840936661, 0.045523956418037415, 0.006134526338428259, -0.051578033715486526, 0.015858907252550125, 0.22279557585716248, 0.03563476353883743, -0.005160594824701548, -0.08928561210632324, -0.024985959753394127, 0.015897225588560104], [-0.026750797405838966, 0.06905266642570496, 0.05750823765993118, -0.3967744708061218, 0.19849984347820282, 0.20287691056728363, -0.16002193093299866, -0.06475173681974411, -0.0059427828527987, -0.004021813161671162, -0.0677855834364891, 0.06552302837371826, 0.037225112318992615, -0.0552852489054203, 0.09990609437227249, 0.000808978860732168, 0.08936864137649536, 0.06839974224567413, -0.17679481208324432, -0.022841110825538635], [-0.03214459866285324, -0.054002545773983, 0.02245909534394741, 0.07241381704807281, 0.07254723459482193, -0.037818439304828644, 0.09556479007005692, -0.0101107032969594, 0.027052365243434906, -0.11982030421495438, -0.007564428728073835, 0.015725990757346153, -0.0008050146861933172, 0.007835243828594685, 0.0664009228348732, 0.007504214067012072, -0.012373989447951317, 0.04448365047574043, 0.02996804751455784, 0.05761110037565231], [-0.04610317945480347, -0.07368318736553192, 0.03272228688001633, 0.12480706721544266, 0.20527249574661255, -0.20070192217826843, 0.23593834042549133, -0.023869045078754425, 0.08528142422437668, -0.030464597046375275, -0.21430690586566925, 0.08823669701814651, -0.06002350151538849, -0.34593749046325684, 0.19628159701824188, -0.019487746059894562, -0.04303204268217087, -0.12363792210817337, 0.01647952012717724, 0.09622493386268616], [0.0003590649284888059, -0.10729953646659851, -0.010181428864598274, 0.06960709393024445, 0.15734408795833588, -0.11923912912607193, 0.14943838119506836, -0.004162948578596115, 0.1208781898021698, -0.10572371631860733, 0.09474609047174454, -0.011104360222816467, 0.014344360679388046, 0.03150324150919914, 0.1689203679561615, 0.001099718501791358, -0.0054066842421889305, 0.008480329066514969, 0.04289310798048973, 0.01677643693983555], [-0.1952272206544876, -0.051549870520830154, -0.11496552079916, -0.1895919144153595, 0.1352551132440567, -0.18406248092651367, 0.15848365426063538, 0.04682671278715134, 0.019144384190440178, 0.03142649680376053, -0.10276283323764801, 0.13520433008670807, -0.0020193683449178934, 0.01946355029940605, 0.1717315912246704, -0.01631387509405613, -0.007710064295679331, -0.002430611290037632, 0.046395398676395416, -0.021624064072966576], [-0.13172602653503418, 0.05913669988512993, 0.03413014113903046, 0.031855516135692596, 0.023064391687512398, -0.26207345724105835, 0.29772883653640747, -0.12468980252742767, -0.07151052355766296, 0.07934798300266266, -0.033250950276851654, -0.11515360325574875, -0.029930248856544495, -0.4328670799732208, 0.1923215538263321, 0.16253329813480377, -0.03386708348989487, -0.28356990218162537, -0.1381639838218689, 0.10086334496736526], [0.06350582093000412, -0.0416242741048336, -0.10913977026939392, -0.010595645755529404, 0.10566488653421402, -0.12181868404150009, 0.07290688157081604, -0.011707201600074768, 0.03937043249607086, 0.0717327669262886, -0.05569848045706749, 0.043244604021310806, -0.08004250377416611, -0.05903969705104828, 0.0703325867652893, -0.05087104067206383, -0.008117428049445152, -0.0070693460293114185, -0.13713255524635315, -0.017743106931447983], [-0.07723653316497803, 0.1933581382036209, -0.05564728379249573, -0.11218760162591934, -0.47731488943099976, 0.40245184302330017, -0.4849216043949127, 0.1905905306339264, -0.4612360894680023, 0.23596403002738953, 0.09142851829528809, -0.14778810739517212, 0.08468806743621826, -0.01707884669303894, -0.3931352198123932, -0.2722243368625641, -0.08948294818401337, 0.20297671854496002, 0.11347664147615433, -0.08936238288879395], [-0.1511090099811554, -0.25053709745407104, -0.04761940985918045, 0.5499904155731201, 0.6483147740364075, -0.4995269477367401, 0.5282939076423645, -0.09050051122903824, 0.34174859523773193, 0.0637592002749443, 0.3735799491405487, 0.016316350549459457, -0.07001326233148575, -0.10688221454620361, 0.5427179932594299, 0.15463127195835114, 0.033225130289793015, 0.023905593901872635, 0.26602447032928467, 0.05693391337990761], [-0.0006128158420324326, -0.047559190541505814, -0.0037448315415531397, 0.04978659376502037, 0.06886212527751923, -0.07469824701547623, 0.07378482073545456, -0.013135882094502449, 0.06634578108787537, -0.03597929701209068, 0.03145461156964302, -0.009957985021173954, -0.02240077778697014, -0.005335850641131401, 0.11020274460315704, 0.005102782975882292, -0.02787437103688717, -0.013047217391431332, -0.01387731358408928, -0.025318043306469917], [0.07484547793865204, -0.021547600626945496, -0.07196661084890366, -0.01270422525703907, 0.002978640142828226, -0.14678631722927094, 0.06731919944286346, 0.009068150073289871, 0.05167284607887268, 0.06186695024371147, -0.030004199594259262, -0.006256620865315199, -0.043968211859464645, -0.01869046688079834, 0.026249930262565613, 0.021495528519153595, -0.005001117940992117, -0.01555676944553852, -0.13015280663967133, 0.03859296813607216], [0.015308685600757599, 0.11866918206214905, -0.08080394566059113, -0.23308898508548737, -0.2977074086666107, 0.32976233959198, -0.49453404545783997, 0.12513938546180725, -0.4593002200126648, -0.11943302303552628, -0.1243857592344284, 0.15349836647510529, 0.009202662855386734, -0.019115639850497246, -0.34361889958381653, -0.14979217946529388, 0.002817935775965452, -0.0834105908870697, 0.06460578739643097, -0.09477335214614868], [0.001943328301422298, -0.32597869634628296, -0.0662204921245575, 0.4652383327484131, 0.5791560411453247, -0.379797101020813, 0.5041862726211548, -0.009371692314743996, 0.4558418393135071, -0.1701030731201172, 0.231498122215271, -0.010192343033850193, -0.0405588299036026, 0.033053070306777954, 0.5904157161712646, 0.04671004042029381, 0.015203550457954407, 0.008320199325680733, 0.04568880796432495, 0.05130951851606369], [0.0539090633392334, -0.14936847984790802, -0.013604703359305859, -0.040546976029872894, 0.0894918143749237, 0.04748348519206047, 0.012594160623848438, 0.12730827927589417, 0.1641276776790619, -0.292242169380188, 0.014332633465528488, -0.009348169900476933, 0.0866604819893837, 0.2282963991165161, 0.10676134377717972, -0.10754834860563278, 0.049751199781894684, 0.036931365728378296, -0.004981746431440115, 0.056244347244501114], [-0.039913974702358246, -0.1718280166387558, -0.03504808247089386, 0.15719693899154663, 0.2627536356449127, -0.22477445006370544, 0.27617746591567993, 0.027466658502817154, 0.21110105514526367, -0.07539889216423035, 0.01967703364789486, -2.6203155357507057e-05, -0.033204738050699234, -0.035639192909002304, 0.32859551906585693, 0.02885896898806095, -0.013437413610517979, -0.011749295517802238, -0.03906083106994629, 0.0301307812333107], [-0.14516368508338928, -0.04318632930517197, 0.09592484682798386, -0.07861415296792984, 0.24019040167331696, -0.13913558423519135, 0.249694362282753, -0.0849580317735672, -0.0036843540146946907, -0.12677955627441406, 0.055531859397888184, 0.018894387409090996, -0.054971322417259216, -0.07878422737121582, 0.20076091587543488, -0.033522386103868484, -0.0924159586429596, -0.07143302261829376, 0.16366228461265564, 0.08768543601036072], [0.014471765607595444, 0.1037709042429924, 0.031735751777887344, 0.0017197440611198545, -0.17409247159957886, 0.23230034112930298, -0.2600381672382355, 0.1008663922548294, 0.4031177759170532, -0.03747989237308502, -0.057418517768383026, 0.005973500665277243, -0.09468714147806168, 0.3235968351364136, 0.12650130689144135, -0.08764954656362534, -0.028983112424612045, -0.013006632216274738, -0.05771257355809212, -0.07626886665821075], [-0.16208608448505402, -0.4885982573032379, 0.04010499641299248, 0.11525468528270721, 0.3533720076084137, -0.5748253464698792, 1.0027096271514893, 0.12635135650634766, 0.5101109743118286, -0.2693622410297394, 0.014511503279209137, 0.2100563943386078, -0.0664033517241478, 0.11180756986141205, 0.4791092574596405, 0.04341097176074982, -0.0025970160495489836, -0.02931300364434719, -0.041716720908880234, 0.03527316078543663], [-0.24781344830989838, -0.08364702016115189, 0.12091872096061707, 0.00745841721072793, 0.2259591817855835, -0.014864598400890827, -0.07685325294733047, -0.029424037784337997, 0.021321170032024384, 0.03009675443172455, 0.014962746761739254, -0.028913797810673714, 0.029090438038110733, 0.15996520221233368, -0.040415048599243164, -0.0670769214630127, -0.024428755044937134, 0.22529633343219757, 0.28692153096199036, 0.04602934047579765], [-0.2276236116886139, 0.024480341002345085, 0.06759398430585861, -0.11896916478872299, 0.08955734968185425, -0.0624898299574852, 0.3065299391746521, -0.06021507456898689, 0.14159037172794342, 0.09772498160600662, 0.01704099029302597, 0.13405989110469818, -0.00460012024268508, 0.38644975423812866, 0.11371893435716629, 0.07477384805679321, 0.019259124994277954, -0.16686438024044037, 0.0658729150891304, -0.06190376356244087], [0.1407206952571869, -0.19105027616024017, -0.026382533833384514, 0.044406503438949585, 0.29462745785713196, -0.19686095416545868, 0.17687973380088806, -0.03863723948597908, 0.1151551827788353, -0.045101482421159744, -0.16330961883068085, 0.044181134551763535, -0.13932424783706665, -0.31453409790992737, 0.12533321976661682, -0.1003270223736763, -0.02294781059026718, 0.08162052929401398, -0.10842616111040115, 0.09583359211683273], [-0.0502636656165123, -0.16572073101997375, 0.0644059032201767, 0.18960657715797424, 0.2039228230714798, -0.08015013486146927, 0.18639163672924042, 0.00555121386423707, 0.045594651252031326, -0.31257104873657227, 0.039873022586107254, -0.0032071294263005257, 0.025947032496333122, 0.06804380565881729, 0.1692158728837967, 0.0049509345553815365, -0.016728654503822327, 0.09937026351690292, 0.06846204400062561, 0.10030775517225266], [-0.13542398810386658, 0.22575315833091736, 0.006481449119746685, -0.11284299939870834, -0.04571752995252609, -0.06054660677909851, -0.004454778973013163, -0.26656219363212585, -0.18781091272830963, 0.3481750786304474, -0.09684492647647858, 0.04369251802563667, 0.0038197729736566544, -0.5444005727767944, -0.027150822803378105, 0.08884955942630768, -0.06337998062372208, -0.22926580905914307, 0.013277645222842693, 0.09388647973537445], [0.11641764640808105, -0.07114861160516739, -0.005771240219473839, -0.11135002970695496, 0.005300914403051138, -0.08151264488697052, 0.08488988876342773, -0.055731646716594696, 0.10531763732433319, -0.17059822380542755, 0.15385234355926514, -0.11714164912700653, 0.052812088280916214, 0.15759119391441345, 0.1310679316520691, 0.02154701203107834, 0.038637325167655945, -0.048240408301353455, -0.0819123238325119, 0.027399729937314987], [-0.07516080141067505, -0.14922574162483215, -0.12484823912382126, 0.016495192423462868, 0.09051252156496048, -0.11212635040283203, 0.14064094424247742, 0.09329904615879059, 0.1685914695262909, 0.022056885063648224, 0.12777864933013916, 0.006699066609144211, -0.0987865999341011, -0.01603400893509388, 0.1940888613462448, -0.05398933216929436, -0.03878584876656532, -0.05124172568321228, 0.012548788450658321, -0.10791574418544769], [-0.17899662256240845, 0.2167014330625534, -0.048017438501119614, 0.09259435534477234, -0.17356285452842712, -0.17910133302211761, 0.11314980685710907, -0.27626416087150574, -0.30585503578186035, 0.145231693983078, 0.46507492661476135, -0.29635873436927795, 0.019639717414975166, -0.6110349893569946, -0.06953897327184677, 0.21579855680465698, 0.11958778649568558, -0.27230679988861084, 0.14120149612426758, 0.05651627853512764], [0.06661460548639297, -0.05160488933324814, -0.17972350120544434, 0.02558097057044506, 0.19850225746631622, -0.10217241942882538, 0.07960404455661774, 0.004055588971823454, 0.06676138192415237, 0.13635064661502838, -0.17360715568065643, 0.18818266689777374, -0.0781991258263588, -0.028363768011331558, 0.0651504322886467, -0.1036701425909996, 0.044938139617443085, 0.01403964776545763, -0.1004558801651001, 0.027154913172125816], [-0.19749954342842102, -0.4826897978782654, -0.06001055985689163, -0.002771822502836585, 0.8605552315711975, -0.7537153363227844, 0.6538892984390259, 0.07010849565267563, 0.4712792634963989, -0.25763896107673645, -0.11502429842948914, 0.04859109967947006, 0.09070180356502533, 0.29621797800064087, 0.6616365909576416, -0.0367952398955822, -0.2629104554653168, -0.08807544410228729, -0.17326486110687256, -0.012606047093868256], [-0.03713526204228401, -0.16325952112674713, 0.041514184325933456, 0.6661361455917358, 0.17800725996494293, -0.1880875825881958, -0.11619458347558975, 0.22893525660037994, -0.12399444729089737, 0.568069338798523, -0.029496842995285988, 0.06784345209598541, -0.3333464562892914, -0.2713768780231476, 0.0068559362553060055, 0.018405230715870857, -0.0512983612716198, 0.4427550137042999, -0.08549127727746964, -0.2337368279695511], [0.006411646958440542, -0.09671907871961594, -0.016178173944354057, 0.09608352929353714, 0.19787989556789398, -0.20063520967960358, 0.1807439923286438, -0.053459346294403076, 0.1484140008687973, -0.01796705834567547, 0.04865390807390213, -0.024263590574264526, -0.06577889621257782, -0.019593829289078712, 0.2245090752840042, 0.025807155296206474, -0.0601612888276577, -0.03312502056360245, -0.061213359236717224, -0.04325829818844795], [0.13868612051010132, -0.05547598749399185, -0.09625155478715897, -0.019687646999955177, 0.05415716767311096, -0.13156409561634064, 0.07955532521009445, -0.010068951174616814, 0.09419944137334824, 0.06069224327802658, 0.07030060887336731, -0.02264833264052868, -0.04481393098831177, -0.006297758314758539, 0.05864865705370903, 0.033164508640766144, 0.008075370453298092, -0.007210285868495703, -0.04747528210282326, 0.036163195967674255], [-0.11891543120145798, -0.4316551983356476, -0.04850753769278526, 0.09570365399122238, 0.5337185263633728, -0.48913633823394775, 0.5371769070625305, 0.13527299463748932, 0.5339892506599426, -0.2822886109352112, -0.10641317069530487, 0.029286177828907967, -0.14795370399951935, -0.024007311090826988, 0.4692032039165497, -0.02033958211541176, -0.0792316272854805, -0.04739445447921753, -0.17639778554439545, 0.033446524292230606], [-0.041039299219846725, 0.2685164511203766, 0.01321698259562254, -0.04828488454222679, -0.277155339717865, 0.023138031363487244, -0.10091271996498108, -0.1704152673482895, -0.24915771186351776, 0.2653864324092865, -0.022394105792045593, -0.060870975255966187, -0.0512252077460289, -0.5893356204032898, -0.2074800729751587, 0.15619376301765442, 0.034966517239809036, -0.13809530436992645, 0.07806553691625595, 0.12762413918972015], [-0.004145656246691942, -0.13881665468215942, 0.1298755258321762, -0.06333545595407486, 0.17693141102790833, -0.0611434131860733, 0.038549281656742096, 0.21667522192001343, 0.14600540697574615, -0.28222787380218506, -0.21598568558692932, 0.10477369278669357, -0.036007754504680634, 0.18931281566619873, 0.12460590153932571, -0.16317559778690338, -0.018299607560038567, -0.012309673242270947, 0.03359828516840935, -0.06552483886480331], [-0.27228477597236633, 0.14918780326843262, -0.05305222049355507, -0.03895559161901474, 0.024712057784199715, -0.1948442906141281, 0.07912085950374603, -0.011412560008466244, -0.17554572224617004, 0.1880357265472412, -0.014674665406346321, 0.043644171208143234, 0.04166681319475174, -0.17624758183956146, -0.04833628982305527, 0.16938400268554688, 0.06264624744653702, 0.011441037990152836, 0.09492435306310654, -0.0241206306964159], [0.08717446029186249, -0.1745460033416748, -0.05638653784990311, -0.16249492764472961, -0.04120129719376564, 0.048899199813604355, -0.20910392701625824, 0.09639712423086166, 0.20300228893756866, -0.2392825037240982, 0.10161490738391876, 0.06411921232938766, 0.1387081891298294, 0.2983224391937256, 0.13845738768577576, -0.06551752984523773, 0.03798990696668625, -0.09200425446033478, -0.11758437752723694, -0.14226795732975006], [0.3996165990829468, -0.2761506140232086, -0.04762851819396019, -0.22400061786174774, -0.2931741774082184, -0.33463573455810547, -0.17475660145282745, -0.4280245900154114, -0.4494699537754059, -0.11934883147478104, -0.25856080651283264, -0.07931946963071823, 0.2569557726383209, -0.6774088144302368, 0.16245560348033905, -0.13303107023239136, -0.14004892110824585, 0.28634265065193176, 0.08163729310035706, 0.19585658609867096], [-0.3006216287612915, 0.30224326252937317, 0.3042486310005188, 0.17405810952186584, -0.2093047946691513, -0.1414414793252945, 0.5053963661193848, -0.06088404729962349, 0.2611944079399109, 0.14649201929569244, -0.18734556436538696, -0.11078616231679916, -0.2105649709701538, 0.4408445954322815, -0.08438065648078918, 0.13373340666294098, 0.20082557201385498, -0.3178740441799164, 0.05788889899849892, -0.0836959183216095], [0.24379883706569672, -0.32635459303855896, -0.1821545958518982, 0.014511882327497005, 0.05144461244344711, -0.1328369677066803, -0.24396969377994537, -0.19967980682849884, -0.24322855472564697, -0.36523565649986267, -0.18420955538749695, -0.36475813388824463, -0.0073693436570465565, -1.090734601020813, 0.40490633249282837, -0.18909640610218048, -0.209493950009346, 1.0112533569335938, 0.025648538023233414, 0.6757618188858032], [-0.2523650825023651, 0.2582244277000427, 0.09293317794799805, 0.40854862332344055, -0.1234278604388237, -0.16781079769134521, 0.4208369255065918, -0.12488261610269547, 0.38170695304870605, 0.4721354842185974, 0.06962025910615921, 0.2861786484718323, -0.018954318016767502, 0.6505802273750305, -0.10616491734981537, 0.1811833530664444, 0.09383679181337357, -0.49523264169692993, 0.09935758262872696, -0.011585828848183155], [-0.34526434540748596, 0.05528765544295311, 0.2831341624259949, 0.04726189747452736, -0.32276102900505066, 0.060730453580617905, 0.33657336235046387, -0.07507430016994476, -0.018825815990567207, -0.2964681088924408, -0.15736113488674164, 0.17588484287261963, -0.08282800018787384, 0.7801740169525146, -0.123796746134758, 0.13625739514827728, 0.01738298311829567, -0.36075812578201294, 0.3225460946559906, -0.22468382120132446], [-0.0014617242850363255, -0.0572873130440712, 0.06365884840488434, 0.155740886926651, 0.08823966234922409, 0.06056515872478485, 0.06362387537956238, -0.11887037009000778, 0.013181768357753754, -0.305221289396286, -0.05678431689739227, 0.004027985036373138, 0.08614842593669891, 0.10391218960285187, -0.009714625775814056, -0.016132092103362083, 0.026059957221150398, 0.20069557428359985, 0.157975435256958, 0.1680372655391693], [-0.6482145190238953, 0.07906272262334824, 0.1443115472793579, 0.26200971007347107, -0.1697852462530136, 0.0787980705499649, 0.8162118792533875, 0.01759457029402256, 0.16179896891117096, 0.21173255145549774, -0.33786046504974365, 0.2573646008968353, -0.01933014951646328, 0.6023671627044678, -0.06996100395917892, 0.05910858139395714, -0.014482306316494942, -0.5953640937805176, -0.18806831538677216, -1.3329580724530388e-05], [0.10932278633117676, 0.042653024196624756, 0.003755819285288453, -0.027195138856768608, 0.022265052422881126, -0.2985231876373291, 0.08540117740631104, -0.13319489359855652, -0.2798684537410736, -0.0453660674393177, -0.09600663185119629, 0.13081862032413483, 0.16810445487499237, 0.621147632598877, 0.01662311889231205, 0.014951893128454685, 0.14361928403377533, -0.35865265130996704, 0.006360838655382395, 0.09172373265028], [-0.06802935898303986, 0.1639074981212616, -0.15591947734355927, 0.4148513376712799, -0.15671737492084503, -0.3536289632320404, -0.2587054371833801, -0.5457221269607544, -0.12336772680282593, 0.1116655096411705, -0.09420011937618256, 0.01528256293386221, 0.147873654961586, -0.19975309073925018, 0.2451012283563614, -0.0843517929315567, 0.02869902178645134, 0.6987796425819397, -0.22490471601486206, 0.5096806883811951], [-0.074628084897995, 0.0716746374964714, -0.03658966347575188, 0.6182393431663513, -0.05746119096875191, -0.08155172318220139, 0.0798754170536995, 0.4033408463001251, 0.49733543395996094, 0.2626236379146576, 0.3152739405632019, -0.04080500826239586, 0.12654758989810944, 0.5756558775901794, -0.10280899703502655, -0.016001565381884575, 0.17950931191444397, -1.2876167297363281, 0.1937711089849472, -0.49358442425727844], [-0.08656057715415955, 0.21624664962291718, -0.18356971442699432, 0.4456634521484375, -0.0005932579515501857, -0.011571562848985195, 0.14501723647117615, -0.26033109426498413, -0.13678203523159027, 0.14737612009048462, -0.6385632753372192, 0.13322888314723969, 0.049504853785037994, 0.4454902112483978, -0.04949209466576576, -0.0767558366060257, 0.033060312271118164, -0.3401755690574646, 0.4353982210159302, 0.2565997540950775], [-0.06654740124940872, 0.07662884145975113, 0.1095496192574501, -0.3683242201805115, 0.4730619490146637, 0.0012572623090818524, 0.001157970866188407, 0.4268106520175934, -0.10059817135334015, -0.1541365683078766, 0.3721767067909241, -0.049291595816612244, 0.15037527680397034, -0.5053980350494385, -0.10140092670917511, 0.10242747515439987, -0.09291674196720123, 0.23856022953987122, -0.10254248231649399, 0.07824055105447769], [-1.7722012996673584, 0.3326131999492645, -0.4547843039035797, 0.26544418931007385, 0.41348952054977417, -0.8206267356872559, 0.42555320262908936, 0.4989365041255951, 0.23666061460971832, 0.8164128065109253, -0.26372382044792175, 0.7233217358589172, 0.6510148048400879, 0.963835597038269, -0.20297014713287354, 0.3928869068622589, 0.39025452733039856, -2.075338125228882, 0.6354196071624756, 0.08715473115444183], [0.05269597843289375, -0.05601130425930023, 0.009032415226101875, 0.08030276745557785, 0.11858292669057846, -0.09262847900390625, 0.08045639097690582, -0.15303435921669006, 0.11131614446640015, -0.054894234985113144, 0.1622089296579361, -0.11443155258893967, -0.10525844246149063, 0.058036018162965775, 0.159279465675354, 0.011966707184910774, -0.10142292082309723, -0.014752689749002457, -0.05941927433013916, -0.1657019555568695], [0.011664463207125664, -0.03245916590094566, 0.17405402660369873, 0.09353818744421005, 0.004918024875223637, 0.048199135810136795, 0.14911732077598572, -0.12215451151132584, 0.0892820730805397, 0.017801230773329735, -0.06521452963352203, -0.15902601182460785, 0.12770624458789825, -0.35178273916244507, -0.20573973655700684, 0.08624535799026489, 0.10408150404691696, -0.2386060208082199, -0.06320152431726456, 0.33023780584335327], [0.3085688650608063, -0.2407928705215454, -0.3519589304924011, 0.046133749186992645, 0.11844825744628906, 0.07783730328083038, -0.03580286353826523, -0.16009491682052612, -0.28964465856552124, -0.05528825521469116, -0.1657913476228714, 0.0313379131257534, -0.43199673295021057, -0.06695675104856491, -0.28451845049858093, -0.03860514983534813, 0.36865153908729553, 0.20947962999343872, 0.20793893933296204, 0.10155849903821945], [0.4119318127632141, -0.18007345497608185, 0.4111403822898865, -0.39632973074913025, -0.057225774973630905, 0.21730926632881165, -0.07612919807434082, 0.645190954208374, 0.35489362478256226, 0.2022656500339508, 0.4075557589530945, -0.2013382762670517, -0.5929207801818848, 1.0929118394851685, 0.07614367455244064, -0.029223792254924774, -0.09406860917806625, -2.137413740158081, -0.49387720227241516, -1.391876220703125], [-0.15938027203083038, -0.042309023439884186, 0.04634324461221695, 0.2860216498374939, -0.008718002587556839, -0.1855572611093521, 0.08119641989469528, 0.46062934398651123, -0.26923441886901855, -0.042917173355817795, 0.24498328566551208, 0.15484634041786194, -0.11384206265211105, -0.23532117903232574, -0.015378588810563087, 0.15587233006954193, -0.2456037402153015, 0.5985010266304016, 0.15936371684074402, 0.10776884853839874], [0.2504383623600006, -0.47010886669158936, 0.20800291001796722, -0.24602536857128143, -0.4970070719718933, 0.21850475668907166, 0.4205094575881958, -0.3301759958267212, 0.23272500932216644, -0.15663067996501923, 0.17077723145484924, -0.16204291582107544, 0.23895706236362457, -0.23830009996891022, -0.30540406703948975, -0.030120236799120903, 0.3027176856994629, 0.6239513754844666, -0.3847929835319519, -0.416836142539978], [-0.08611562103033066, 0.0803108960390091, -0.050307564437389374, -0.09795863181352615, 0.1800435185432434, -0.29006868600845337, 0.26610279083251953, -0.06859174370765686, -0.06256403028964996, 0.02273288555443287, -0.11835290491580963, 0.060987453907728195, 0.04794285446405411, -0.19023892283439636, 0.11438094079494476, 0.052959199994802475, -0.03969815373420715, -0.12157966941595078, -0.05923149734735489, 0.17062830924987793], [0.029187148436903954, -0.12313272058963776, -0.006049812771379948, -0.13886268436908722, 0.12413377314805984, -0.10686825960874557, -0.09375938028097153, 0.13656164705753326, 0.09867444634437561, -0.05223075672984123, -0.15607406198978424, 0.02414179965853691, -0.13892586529254913, 0.13528576493263245, 0.03409320116043091, -0.028804341331124306, -0.05643516778945923, -0.1725265085697174, -0.16405819356441498, -0.001646685996092856], [0.04591524973511696, -0.08468561619520187, -0.023319251835346222, -0.07864971458911896, 0.09649621695280075, -0.14271314442157745, 0.23251594603061676, 0.033759646117687225, 0.17334342002868652, -0.05864351987838745, -0.06374603509902954, 0.02212749980390072, 0.05254769325256348, -0.015695201233029366, 0.10374272614717484, -0.0021474468521773815, -0.009532495401799679, -0.01652781292796135, -0.14671160280704498, 0.03004470467567444], [0.121940478682518, -0.3001626133918762, 0.031336165964603424, 0.036713436245918274, 0.17526905238628387, -0.052011795341968536, 0.1371060609817505, -0.09226196259260178, 0.29760676622390747, -0.45459356904029846, 0.04993515461683273, -0.08646099269390106, -0.04814105108380318, 0.4439588487148285, 0.3344044089317322, -0.21114592254161835, -0.051403388381004333, 0.24744096398353577, 0.005449624732136726, 0.02328266017138958], [-0.13006949424743652, -0.1357984095811844, -0.016709912568330765, 0.025295093655586243, 0.2764261066913605, -0.26601532101631165, 0.38816365599632263, 0.0047688111662864685, 0.2215248942375183, -0.03286387398838997, 0.06145098805427551, 0.054613299667835236, -0.042033739387989044, 0.2103591114282608, 0.2852698862552643, 0.06298741698265076, 0.02545647881925106, -0.07384288311004639, -0.05116470903158188, -0.03157692775130272], [-0.19416992366313934, 0.05567798390984535, -0.06391511857509613, -0.2365012913942337, 0.07017832249403, -0.29083240032196045, 0.11672379076480865, -0.0006130418041720986, -0.23225344717502594, 0.07068248838186264, -0.22684942185878754, 0.13430999219417572, 0.07331565022468567, -0.44820529222488403, 0.030925186350941658, -0.01763969101011753, -0.0594109483063221, 0.25927966833114624, -0.04193291440606117, 0.13755469024181366], [-0.14286990463733673, -0.007790729869157076, -0.12389186769723892, 0.3200245797634125, -0.06295217573642731, -0.21389208734035492, -0.4489086866378784, 0.018147539347410202, -0.6136429905891418, -0.11989124119281769, -0.137510284781456, -0.0627385601401329, 0.04118407890200615, -0.5736978650093079, 0.1980418860912323, 0.0995275005698204, 0.005288705229759216, -0.09610720723867416, 0.11389340460300446, 0.39761704206466675], [-0.08891921490430832, -0.08217339962720871, 0.02477889694273472, 0.12391927093267441, 0.22931982576847076, -0.23631158471107483, 0.2579093873500824, -0.00547042628750205, 0.07799676060676575, -0.016453897580504417, -0.2567903399467468, 0.10910429805517197, -0.05735453963279724, -0.3797071874141693, 0.20744071900844574, -0.0035712155513465405, -0.031762998551130295, -0.1679261475801468, 0.008628811687231064, 0.08177568763494492], [-0.005506535060703754, -0.15222036838531494, -0.008057421073317528, 0.1828961819410324, 0.24407035112380981, -0.215534508228302, 0.21632026135921478, -0.028250040486454964, 0.20634052157402039, -0.09795492887496948, 0.042693283408880234, -0.028391946107149124, 0.018142733722925186, -0.03191596642136574, 0.2561585009098053, -0.032116953283548355, -0.039515089243650436, 0.032500557601451874, 0.054861169308423996, 0.10233880579471588], [-0.07798096537590027, -0.2016114443540573, -0.035055771470069885, 0.005278903059661388, 0.2313489466905594, -0.21037384867668152, 0.2600928544998169, 0.04037448763847351, 0.20102062821388245, -0.14616328477859497, 0.058060918003320694, 0.01325694378465414, -0.05174126476049423, 0.056586869060993195, 0.33390504121780396, -0.03343396261334419, -0.04721255972981453, -0.06505582481622696, 0.00222126510925591, -0.03554193302989006], [-0.07149968296289444, 0.006379695143550634, 0.0055789039470255375, 0.0748622864484787, 0.06858008354902267, -0.3063924014568329, 0.32730650901794434, -0.11915258318185806, -0.020978040993213654, 0.07914038002490997, 0.07299545407295227, -0.11339449882507324, -0.10140641033649445, -0.3269195854663849, 0.30870217084884644, 0.15954318642616272, -0.029634326696395874, -0.11040225625038147, -0.2120818793773651, 0.07898284494876862], [-0.029575621709227562, -0.034849584102630615, -0.08883418887853622, -0.004912341013550758, 0.14790360629558563, -0.21167589724063873, 0.1896229386329651, 0.05306614935398102, 0.03463634103536606, 0.09883147478103638, -0.09600427001714706, 0.08033392578363419, -0.06784425675868988, -0.0707373097538948, 0.10645658522844315, 0.06301617622375488, 0.016744069755077362, 0.00132655818015337, -0.15976582467556, 0.04432850703597069], [-0.12536858022212982, -0.05841487646102905, -0.026368584483861923, -0.05789094790816307, 0.21166634559631348, -0.30578529834747314, 0.1926259547472, 0.09565335512161255, 0.09180216491222382, 0.0050581470131874084, -0.11749979108572006, 0.06007378175854683, 0.03773533180356026, 0.06276261806488037, 0.1639479696750641, 0.08380541205406189, -0.03246491402387619, 0.0012002716539427638, -0.15534500777721405, 0.012800767086446285], [0.3097454309463501, -0.4096684157848358, -0.052485570311546326, 0.46520674228668213, 0.4860781133174896, -0.14002850651741028, 0.37505778670310974, -0.028780845925211906, 0.6864947080612183, -0.46447381377220154, 0.9947676062583923, -0.3138290047645569, 0.06489652395248413, 0.3726699948310852, 0.3635406792163849, -0.035016559064388275, 0.06917020678520203, -0.021006960421800613, 0.12150534987449646, 0.07757952809333801], [-0.01132150087505579, -0.18428348004817963, 0.021381787955760956, -0.018350128084421158, 0.2452351450920105, -0.2540927231311798, 0.20534516870975494, -0.0493164099752903, 0.21168431639671326, -0.15255510807037354, 0.05394851788878441, 0.012432628311216831, -0.08011137694120407, 0.14466877281665802, 0.2606702446937561, 0.006465249229222536, -0.08558563143014908, -0.030060214921832085, -0.07350237667560577, -0.09803186357021332], [0.04784618690609932, -0.023458726704120636, -0.07422089576721191, -0.05564460530877113, 0.03847252205014229, -0.18244293332099915, 0.09800215065479279, -0.04321324825286865, 0.07799431681632996, 0.05949142202734947, -0.024159099906682968, -0.026218809187412262, -0.05100654065608978, -0.031527675688266754, 0.06326762586832047, 0.012981335632503033, -0.012032389640808105, -0.05056273937225342, -0.11849345266819, 0.05163130164146423], [-0.1343187391757965, -0.020497137680649757, 0.01640694960951805, -0.10156450420618057, -0.09400435537099838, -0.07231272011995316, 0.007038840092718601, 0.07209410518407822, -0.08718906342983246, -0.02403196692466736, -0.17083127796649933, 0.056810252368450165, -0.0648188441991806, -0.1092463880777359, -0.008069771341979504, 0.01578449085354805, -0.08444532006978989, -0.03377385437488556, -0.04908734932541847, 0.03646567836403847], [-0.01514094602316618, -0.30988991260528564, -0.07436581701040268, 0.5026716589927673, 0.5999796390533447, -0.38616088032722473, 0.514252245426178, -0.018801536411046982, 0.44420182704925537, -0.15002037584781647, 0.2204952836036682, 0.006276132073253393, -0.029745079576969147, 0.0018490203656256199, 0.5838415622711182, 0.060707785189151764, 0.03077293187379837, 0.014165990054607391, 0.07655928283929825, 0.07959849387407303], [0.06875455379486084, -0.1733422875404358, 0.005759947467595339, 0.011405501514673233, 0.1818949580192566, -0.012737022712826729, 0.1138506680727005, 0.12509410083293915, 0.203251451253891, -0.3211398720741272, 0.059393104165792465, 0.006524388212710619, 0.0030214283615350723, 0.2785596549510956, 0.2006533443927765, -0.08375563472509384, 0.02700507454574108, -0.023634115234017372, 0.019106054678559303, -0.019931035116314888], [-0.0686405748128891, -0.17552034556865692, -0.03137378394603729, 0.14743679761886597, 0.27917277812957764, -0.24542413651943207, 0.2986759841442108, 0.034804247319698334, 0.21527783572673798, -0.09344791620969772, -0.006970019079744816, 0.021683219820261, -0.03750504180788994, -0.016647620126605034, 0.3454732894897461, 0.023198310285806656, -0.01975075528025627, 0.05816040560603142, -0.03786029666662216, 0.03747957944869995]], "rec.bias_ih_l0": [-0.20255039632320404, 0.4577563405036926, -0.6317117214202881, 0.26829737424850464, 0.34494954347610474, 0.0011421976378187537, 0.1992463618516922, 0.3254457712173462, 0.2522619366645813, 0.26806849241256714, 0.32958152890205383, 0.0981488898396492, -0.6302054524421692, 0.6854064464569092, 0.11620521545410156, 0.0701100155711174, -0.47957858443260193, 0.7059054374694824, 0.10839083045721054, 0.4276735782623291, 0.4414218068122864, -0.0875050351023674, 0.8321972489356995, -0.1246815100312233, 0.1336999237537384, 0.5073931813240051, 0.33627650141716003, -0.05262243375182152, 0.11567491292953491, 0.26005321741104126, -0.04795435070991516, 0.08141562342643738, 0.7488143444061279, -0.15070141851902008, 0.3320707678794861, 0.10820040851831436, 0.8179500102996826, -0.23235313594341278, 0.11183750629425049, 0.0011177274864166975, -0.09292326867580414, -0.0971970409154892, -0.1561385840177536, 0.040737319737672806, -0.013239765539765358, -0.12759391963481903, 0.21576941013336182, -0.23460373282432556, 0.30411967635154724, -0.14599597454071045, -0.0700642466545105, 0.15850311517715454, -0.012460188940167427, -0.31425389647483826, 0.18933901190757751, 0.04068160802125931, 0.20249029994010925, 0.09145111590623856, -0.19361786544322968, 0.18497104942798615, 0.36681637167930603, 0.49243494868278503, 0.16937412321567535, 0.31777581572532654, 0.4916183650493622, 0.4636783003807068, 0.673353374004364, 0.35321611166000366, 0.3647303581237793, 0.44346532225608826, 0.40129926800727844, 0.25493738055229187, 0.16402238607406616, 0.5552216172218323, 0.3343634307384491, 0.15107379853725433, 0.14296220242977142, 0.6988978385925293, 0.25941038131713867, 0.46187907457351685], "rec.bias_hh_l0": [-0.20517399907112122, 0.329568475484848, -0.48329785466194153, 0.28932708501815796, 0.348707377910614, -0.0591060034930706, 0.19093962013721466, 0.3221393823623657, 0.2523815929889679, 0.28559610247612, 0.31930723786354065, 0.13578936457633972, -0.5788400173187256, 0.6854064464569092, 0.13119512796401978, 0.07291697710752487, -0.5339005589485168, 0.7059054374694824, 0.11042176187038422, 0.4276735484600067, 0.45684871077537537, -0.09275956451892853, 0.7552500367164612, -0.06892318278551102, 0.02348903939127922, 0.47957050800323486, 0.27587831020355225, -0.039643436670303345, 0.11857470124959946, 0.19310423731803894, -0.11907978355884552, 0.11451855301856995, 0.7242573499679565, -0.16801753640174866, 0.2749921679496765, 0.11260547488927841, 0.8203322887420654, -0.23242470622062683, 0.10469191521406174, 0.0013830972602590919, -0.03545023128390312, -0.26069021224975586, -0.13205869495868683, 0.2760319709777832, 0.13983598351478577, -0.3510783910751343, 0.24525679647922516, -0.14124509692192078, 0.1629311889410019, -0.04042581096291542, -0.17281194031238556, -0.09690883755683899, -0.07938909530639648, -0.2186421900987625, 0.23602648079395294, 0.06208835914731026, 0.025339921936392784, -0.3078707754611969, 0.0020892792381346226, -0.014249510131776333, 0.3659476339817047, 0.2701708972454071, 0.13540878891944885, 0.34635815024375916, 0.5354191660881042, 0.42147842049598694, 0.6520940065383911, 0.35260260105133057, 0.3630025088787079, 0.4416539669036865, 0.41275206208229065, 0.2530408203601837, 0.0724625438451767, 0.555012583732605, 0.3453885614871979, 0.15008489787578583, 0.13404220342636108, 0.6988978385925293, 0.2475045770406723, 0.46187907457351685], "lin.weight": [[-0.14542613923549652, 0.8789420127868652, -0.24737206101417542, 1.138749122619629, -0.939170777797699, -0.5590839385986328, 0.619567334651947, -0.7845547199249268, 0.5258980989456177, 0.6836930513381958, -1.036574363708496, -0.16503693163394928, 0.05677643045783043, 2.9730758666992188, -0.22650772333145142, -0.19611340761184692, -0.1662653386592865, -3.4420130252838135, 0.5168390274047852, -0.6910154223442078]], "lin.bias": [-0.23231571912765503]}}