{"model_data": {"model": "SimpleRNN", "input_size": 1, "skip": 1, "output_size": 1, "unit_type": "LSTM", "num_layers": 1, "hidden_size": 32, "bias_fl": true}, "state_dict": {"rec.weight_ih_l0": [[0.02280654013156891], [-0.18592184782028198], [0.09484853595495224], [-0.10429269075393677], [0.023848051205277443], [0.009946993552148342], [-0.019365031272172928], [0.001675815205089748], [-0.1454068124294281], [0.0027651884593069553], [-0.02486431412398815], [-0.0001572431792737916], [-0.1922788918018341], [-0.012238224036991596], [0.026079585775732994], [-0.003336245659738779], [0.0007218122482299805], [0.007629978936165571], [0.21040800213813782], [0.002396310679614544], [-0.0735320970416069], [-0.0037246569991111755], [0.002095287200063467], [-0.09978342056274414], [0.0019979611970484257], [-0.25578317046165466], [-0.08153442293405533], [-0.2699919641017914], [-0.027911460027098656], [0.09249579906463623], [0.0278171356767416], [0.005234595853835344], [-0.016576046124100685], [0.014341870322823524], [0.10205284506082535], [-0.05196921154856682], [0.05597695708274841], [0.027794843539595604], [0.0007386708166450262], [0.0016613065963611007], [-0.17322909832000732], [0.0015739526133984327], [0.11405310034751892], [0.01923185959458351], [-0.07445067167282104], [-0.09036241471767426], [0.027043042704463005], [-0.007410585414618254], [0.009238104335963726], [0.006668070796877146], [0.16727039217948914], [0.014069899916648865], [0.0860883817076683], [-0.004894251469522715], [0.003723002737388015], [-0.018660258501768112], [0.0030780048109591007], [-0.2694023549556732], [0.21331371366977692], [-0.3238396942615509], [-0.1956062912940979], [0.4337223768234253], [0.03445378318428993], [0.021450651809573174], [0.18564367294311523], [-0.45003241300582886], [0.12854436039924622], [0.33759862184524536], [0.08545250445604324], [0.03548695892095566], [0.1984810084104538], [-0.026421120390295982], [-0.07825791090726852], [0.035949185490608215], [0.818510115146637], [0.02001628279685974], [0.30003082752227783], [0.2946728765964508], [0.009301416575908661], [-0.041412677615880966], [-0.00856445636600256], [0.09446970373392105], [-0.23511774837970734], [0.06511206924915314], [-0.7868626117706299], [-0.03553198650479317], [-0.09543795883655548], [-1.4860351085662842], [0.0673024132847786], [0.5077850222587585], [1.1297352313995361], [-0.32986193895339966], [-0.7442583441734314], [-0.7603431344032288], [-0.16468948125839233], [-0.43522632122039795], [0.008710214868187904], [-0.11790411919355392], [0.07817061990499496], [-0.09489000588655472], [-0.06553508341312408], [-0.10749313235282898], [0.008997784927487373], [0.0019738187547773123], [-0.10985279083251953], [-0.0345163568854332], [0.11637501418590546], [0.036587752401828766], [0.06453604251146317], [0.0025269933976233006], [0.04028598964214325], [-0.002900088205933571], [0.0024498533457517624], [0.010270564816892147], [0.18371739983558655], [0.11470487713813782], [0.07805400341749191], [-0.0036276739556342363], [0.0003709077718667686], [0.10596030950546265], [0.002404231345281005], [-0.2851586639881134], [0.02833326905965805], [0.20422188937664032], [0.01808224245905876], [0.21314698457717896], [0.02577865868806839], [0.009967837482690811]], "rec.weight_hh_l0": [[0.04596409946680069, 0.02770962007343769, 0.01054596621543169, 0.04794389754533768, -0.02961607463657856, 0.07076787948608398, 0.10430427640676498, -0.0055685886181890965, -0.027607837691903114, 0.1059766486287117, -0.025677721947431564, -0.07119207084178925, 0.02442672848701477, 0.04914925619959831, 0.05312664434313774, -0.011172535829246044, -0.029313620179891586, 0.024984287098050117, 0.0053930822759866714, -0.07929320633411407, -0.03563149645924568, 0.018367135897278786, 0.017328063026070595, -0.16186611354351044, 0.010329690761864185, -0.016757432371377945, 0.05327264592051506, -0.12733891606330872, -0.04004630446434021, -0.06388458609580994, 0.00561303598806262, 0.008797950111329556], [-0.09810514748096466, 0.020053500309586525, -0.34200519323349, 0.06475744396448135, 0.3490789234638214, -0.5249095559120178, -0.4671095013618469, -0.03375312313437462, -0.07664548605680466, -0.5476850271224976, -0.05571240559220314, 0.3815060257911682, 0.34228596091270447, -0.13033750653266907, -0.33721309900283813, 0.12317308038473129, 0.08347126841545105, 0.04380558058619499, 0.2710912227630615, 0.3849423825740814, 0.25368374586105347, -0.15119491517543793, -0.3164951205253601, 0.5919474959373474, 0.008190515451133251, 0.14993730187416077, 0.0585491918027401, 0.12592102587223053, -0.3633846044540405, 0.09653038531541824, 0.02329314686357975, -0.09975658357143402], [0.008446647785604, -0.06068012863397598, -0.05083658546209335, 0.0539456307888031, -0.026721308007836342, -0.06650633364915848, -0.05449780449271202, -0.004677420482039452, 0.028534863144159317, 0.016287999227643013, 0.10048327594995499, 0.04327455535531044, -0.38168761134147644, -0.0824735090136528, 0.09479983150959015, 0.022017812356352806, -0.044622886925935745, 0.016782497987151146, -0.09829971939325333, -0.06011858582496643, -0.10941588133573532, 0.001058630645275116, 0.02074352651834488, 0.06228569895029068, 0.011645016260445118, 0.07607503980398178, 0.11714252084493637, 0.3343842923641205, -0.127481609582901, 0.04103098437190056, -0.029541241005063057, -0.009516078978776932], [-0.004455463495105505, -0.017756950110197067, 0.0017823971575126052, -0.06495119631290436, -0.10952866822481155, 0.10703323781490326, 0.048843514174222946, 0.0024844366125762463, 0.0404270738363266, 0.08237696439027786, -0.048390597105026245, -0.12719857692718506, 0.010022279806435108, 0.08208980411291122, 0.05914320424199104, 0.0030536127742379904, 9.724985284265131e-05, -0.019331615418195724, 0.013450168073177338, -0.11433865875005722, 0.03502169996500015, 0.0011161784641444683, 0.003670850768685341, -0.04616671800613403, 0.009221941232681274, -0.060434721410274506, -0.006695152260363102, -0.07910898327827454, 0.20080888271331787, 0.023835834115743637, -0.015060069039463997, 0.025599641725420952], [-0.033276721835136414, -0.049821168184280396, 0.004942542873322964, 0.009245033375918865, -0.11298630386590958, 0.022953424602746964, -0.001603302313014865, -0.0004015240992885083, -0.005050663836300373, 0.01502679567784071, 0.024092523381114006, -0.006745409220457077, -0.10127820819616318, -0.012513750232756138, 0.029643725603818893, 0.011206245049834251, -0.010422952473163605, -0.0028182314708828926, -0.019498882815241814, -0.09537716209888458, -0.04784221947193146, 0.001340215210802853, 0.0013582826359197497, 0.001002793898805976, 0.002089408691972494, 0.07021085917949677, 0.015544665977358818, 0.03268541768193245, 0.021155105903744698, -0.0002109277993440628, 0.009124858304858208, -0.007028282154351473], [-0.04145561158657074, -0.10395035147666931, 0.00469193933531642, 0.03089153952896595, -0.1798720806837082, 0.13828247785568237, 0.07454987615346909, -0.00112500402610749, -0.01761760748922825, 0.09598634392023087, 0.030764812603592873, -0.21766117215156555, 0.054841361939907074, 0.052103687077760696, 0.03552297502756119, -0.002841814886778593, -0.01864386908710003, -0.00405660318210721, -0.006873519159853458, -0.09748617559671402, -0.07533338665962219, 0.0051079378463327885, 0.0016206701984629035, -0.09930102527141571, 0.0017312675481662154, 0.021151641383767128, 0.022307712584733963, -0.09721920639276505, 0.1328517645597458, -0.028770560398697853, 0.003262836253270507, -0.020985931158065796], [-0.0018442259170114994, 0.026292243972420692, -0.00181799556594342, 0.042281556874513626, -0.07550444453954697, 0.14589452743530273, 0.08019665628671646, -0.0015626613749191165, 0.010445472784340382, 0.045858465135097504, -0.0036986940540373325, -0.2144947350025177, 0.08141030371189117, 0.003856543218716979, 0.028010642156004906, -0.00041621652781032026, -0.008261006325483322, 0.004375230520963669, 0.019844871014356613, -0.10120083391666412, -0.041981540620326996, 0.01329171285033226, 0.004724164493381977, -0.09388362616300583, 0.005557393655180931, -0.05494443699717522, -0.10177414119243622, -0.08715546131134033, -0.026271425187587738, -0.06037174537777901, 0.01775876060128212, 0.006161815952509642], [-0.0013383629266172647, 0.0022162289824336767, 0.000924300285987556, 0.0009769171010702848, -0.003805475076660514, 0.0043038069270551205, 0.004629337228834629, -0.00016399601008743048, -0.0015041722217574716, 0.00380509695969522, -0.0006579746841453016, -0.005056347232311964, 0.003808049950748682, 0.0015083493199199438, 0.0019654599018394947, -0.00023861261433921754, -0.0007765911868773401, 0.00044526447891257703, 0.0016056867316365242, -0.003953713458031416, -0.0008966191671788692, 0.0004080947255715728, 0.000554807425942272, -0.006313876248896122, 0.00026599495322443545, -0.00010864022624446079, 0.0012038376880809665, -0.003933629486709833, 0.0022699947003275156, -0.0014526366721838713, -0.0002516817767173052, -0.00022225391876418144], [0.017882471904158592, -0.24757128953933716, -0.08222921192646027, -0.00360494339838624, -0.015326200053095818, 0.034767065197229385, -0.09358362853527069, -0.00451292097568512, 0.22014102339744568, 0.01141637284308672, -0.11403275281190872, 0.09249716252088547, -0.23456278443336487, 0.022375404834747314, 0.05784847214818001, 0.015227735973894596, -0.020309187471866608, 0.0017728660022839904, 0.010570492595434189, 0.006456071510910988, 0.02938253805041313, 0.01965782605111599, 0.01133418083190918, -0.09480747580528259, 0.02165854349732399, 0.17231126129627228, 0.09709710627794266, 0.17453522980213165, 0.02915104292333126, 0.07518427819013596, -0.0007168184965848923, 0.029603809118270874], [0.019864413887262344, -0.03244751691818237, 0.04483409598469734, 0.021164976060390472, -0.020269760861992836, 0.07831078767776489, 0.07827621698379517, 0.00100796390324831, -0.027075326070189476, 0.020534131675958633, -0.03625169023871422, -0.05569157376885414, -0.051789816468954086, 0.01590420864522457, 0.030821271240711212, -0.008177613839507103, -0.010065085254609585, -0.0026227219495922327, 0.02407931163907051, 0.0076828994788229465, -0.011223786510527134, 0.011449534446001053, -0.0003889273793902248, -0.10742813348770142, 0.007342285942286253, 0.03693399205803871, 0.04808592051267624, -0.08547727018594742, -0.08611954748630524, -0.015814298763871193, 0.014029689133167267, 0.00022710023040417582], [-0.20301185548305511, 0.06105177477002144, -0.06314803659915924, -0.03222648426890373, -0.00989910215139389, 0.04374556988477707, -0.09792852401733398, 0.014197379350662231, 0.12018561363220215, -0.07386381179094315, 0.07122734934091568, -0.12082663923501968, 0.16848012804985046, 0.09958525747060776, -0.06812727451324463, 0.043923504650592804, 0.007254424039274454, -0.04712028056383133, -0.01594993844628334, -0.02403813786804676, -0.09036163240671158, -0.04271905869245529, -0.01024901494383812, 0.07060172408819199, -0.012730109505355358, -0.024513840675354004, -0.07131071388721466, 0.00199373671784997, 0.22363585233688354, 0.0470728874206543, 0.011279125697910786, -0.03009287267923355], [0.011803186498582363, -0.06416057795286179, 0.03452003002166748, 0.003856738330796361, -0.07623644918203354, 0.08220992982387543, 0.052388180047273636, 0.0003001948643941432, -0.011554112657904625, 0.04859405755996704, 0.0021361163817346096, -0.10865261405706406, 0.05748264119029045, 0.03000909648835659, 0.016803013160824776, -0.009441508911550045, -0.011310376226902008, -0.0020983798895031214, -0.002834692830219865, -0.07450176775455475, -0.02127653732895851, 0.01124392170459032, 0.005301805213093758, -0.04781710356473923, 0.007161158602684736, 0.0070656039752066135, 0.029353512451052666, -0.09916974604129791, 0.0295912753790617, -0.04173441231250763, 0.013475975953042507, 0.0030538393184542656], [-0.06678469479084015, 0.3697057068347931, -0.22434113919734955, -0.24462495744228363, 0.2811364531517029, -0.17827026546001434, -0.020686959847807884, 0.015841053798794746, 0.04192935675382614, -0.10609697550535202, 0.15414810180664062, 0.31122010946273804, 0.13162966072559357, 0.15244968235492706, -0.1800549477338791, -0.057838622480630875, 0.11075052618980408, -0.08712391555309296, 0.06199526786804199, 0.3150098919868469, 0.06104614958167076, -0.13129019737243652, -0.18134193122386932, 0.048661861568689346, 0.016079291701316833, -0.09560689330101013, 0.073185995221138, 0.22541803121566772, -0.21096599102020264, 0.09572131186723709, -0.04996340349316597, -0.09319205582141876], [0.07562216371297836, 0.039587538689374924, -0.006810725200921297, -0.01721666194498539, 0.07071319967508316, -0.022765707224607468, 0.007240666076540947, 0.00674924161285162, 0.0465247668325901, 0.01351769920438528, -0.129678413271904, -0.020187033340334892, 0.10801496356725693, 0.10581569373607635, -0.060365330427885056, -0.05311470478773117, -0.003320935182273388, -5.7870958698913455e-05, -0.03448539227247238, 0.04803648591041565, 0.04254182055592537, 0.0015735154738649726, 0.0013043810613453388, 0.06506754457950592, -0.017931461334228516, -0.09507295489311218, -0.050582826137542725, -0.2780090570449829, -0.007155799772590399, 0.0012371427146717906, -0.0038032671436667442, -0.007517220452427864], [0.03493458777666092, 0.01121400948613882, 0.02145525999367237, 0.02299235388636589, -0.08138401806354523, 0.062046464532613754, 0.028323527425527573, -0.0013319876743480563, 0.006042416673153639, 0.056067295372486115, 0.03314444050192833, -0.038662414997816086, -0.08301064372062683, 0.016762249171733856, 0.04277931898832321, -0.01769068092107773, -0.02397305704653263, 0.009662152267992496, -0.03187146782875061, -0.09334740787744522, -0.028398817405104637, 0.01661350019276142, 0.020926330238580704, 0.021217040717601776, -0.0005711067351512611, -0.005942571442574263, -0.018772827461361885, 0.04196306690573692, -0.03418181464076042, -0.04754553362727165, -0.0065467264503240585, 0.0018673683516681194], [0.005693657323718071, 0.01926422491669655, 0.0020668392535299063, 0.0048718927428126335, -0.016485614702105522, 0.015310774557292461, 0.020266590639948845, -0.00043358257971704006, -0.0022587901912629604, 0.01842575892806053, -0.009765242226421833, -0.019782869145274162, 0.008661692962050438, 0.011013437993824482, 0.011343855410814285, -0.003625241108238697, -0.00307691702619195, 0.0028264105785638094, 0.004679991398006678, -0.018577227368950844, 0.007096785120666027, 0.0017238394357264042, 0.002405863953754306, -0.02760385535657406, 0.0007781177409924567, -0.0021209088154137135, 0.006714125629514456, -0.022571522742509842, 0.009006330743432045, -0.002752849133685231, -0.0018615865847095847, 0.001374002080410719], [-0.003968632314354181, 0.013485388830304146, -0.002112968359142542, -0.015420997515320778, 0.005055679474025965, -0.009152477607131004, -0.03547798469662666, -6.496226706076413e-05, 0.04109922796487808, -0.002301321132108569, -0.012867148965597153, -0.012327594682574272, 0.0005147369229234755, 0.011612915433943272, 0.005817540921270847, -0.0018596991430968046, 0.00010967745038215071, -0.00016124040121212602, 0.012954707257449627, -0.008365776389837265, -0.01076601818203926, 0.0033848690800368786, 0.0009366762824356556, -0.02180076576769352, 0.0016843202756717801, -0.008856033906340599, 0.007734040264040232, 0.04117966070771217, 0.0009557396988384426, 0.011394749395549297, -0.0013685942394658923, 0.0026713984552770853], [-0.007772128563374281, 0.0028171020094305277, 0.0033868083264678717, 0.004424480255693197, -0.01255103386938572, 0.017420200631022453, 0.01912573166191578, -0.0005798343336209655, -0.002074961783364415, 0.018926464021205902, -0.010751305148005486, -0.017760947346687317, 0.01284418348222971, 0.013767342083156109, 0.010360414162278175, 0.00011712255218299106, -0.004336311481893063, 0.001998064573854208, 0.01376370806246996, -0.015859274193644524, -0.005316570866852999, 0.0019414123380556703, 0.0025527430698275566, -0.033255692571401596, 0.0016540659125894308, 0.0015152832493185997, 0.012764129787683487, -0.02404777705669403, 0.005082135088741779, -0.0027628978714346886, -0.0009268528083339334, -0.00010319690773030743], [0.213857963681221, 0.03398090973496437, 0.061844952404499054, 0.10586261749267578, 0.028324466198682785, -0.05024535581469536, -0.004877279046922922, -0.010801034048199654, -0.015871010720729828, 0.011394874192774296, 0.14141489565372467, 0.04981179162859917, -0.03948788344860077, 0.053856514394283295, 0.02084539085626602, -0.04727858677506447, -0.06714524328708649, 0.04952006787061691, -0.22368183732032776, 0.01128153596073389, -0.12901423871517181, 0.023354964330792427, 0.028744148090481758, 0.07166648656129837, 0.006004501134157181, 0.09455647319555283, 0.24874290823936462, 0.012009682133793831, -0.35149621963500977, -0.10127855092287064, -0.013572617433965206, -0.05034332722425461], [0.04970969259738922, -0.08430595695972443, -0.0016894098371267319, 0.06265708059072495, -0.0859503298997879, 0.046786949038505554, -0.029087582603096962, -0.009477850049734116, -0.004283156245946884, 0.017682701349258423, -0.010921829380095005, -0.047912921756505966, -0.22009417414665222, -0.02826642617583275, 0.0462351031601429, 0.004380799829959869, -0.0016637324588373303, 0.02301744930446148, 0.02503330446779728, -0.08454528450965881, -0.00922548770904541, 0.017242109403014183, -0.003310919739305973, -0.07330786436796188, 0.020573044195771217, 0.09847508370876312, 0.05243224650621414, 0.12369035184383392, -0.022156674414873123, 0.07417679578065872, 0.010818022303283215, 0.014770325273275375], [-0.13220183551311493, 0.3431300222873688, -0.0712699145078659, -0.06755603104829788, 0.006447765976190567, -0.15640057623386383, -0.26226311922073364, 0.005678226705640554, 0.19005997478961945, -0.08288858830928802, 0.03154253959655762, 0.026181044057011604, -0.01103290542960167, 0.028099332004785538, -0.007845881395041943, 0.03849935904145241, 0.05756049230694771, -0.006676337216049433, 0.027026232331991196, -0.010958726517856121, 0.08931984007358551, -0.0446491502225399, -0.01704549416899681, -0.07902228832244873, 0.0005554927047342062, 0.06884641945362091, -0.1490810215473175, 0.2967246174812317, 0.10936437547206879, 0.2230234444141388, 0.012590592727065086, 0.03145051747560501], [0.00941579882055521, -0.0019405923085287213, 0.00293326866813004, 0.005627007223665714, -0.00888693518936634, 0.012709667906165123, 0.012381070293486118, -0.00046380519052036107, -0.00016458882601000369, 0.01094144582748413, -0.0023673970717936754, -0.012603051960468292, 0.013074657879769802, 0.0008001494570635259, 0.004868991672992706, -0.0032750628888607025, -0.0026882137171924114, 0.0013705720193684101, -0.0022543102968484163, -0.008411051705479622, 0.0032731241080909967, 0.002953127957880497, 0.001871977699920535, -0.013045784085988998, 0.0006521506584249437, -0.0053714062087237835, 0.002059265971183777, -0.016692813485860825, 0.002154567511752248, -0.008001609705388546, 0.0007410275284200907, 0.0002863492409233004], [0.008091820403933525, -1.715973121463321e-05, -0.0009341873810626566, -0.009063920006155968, 0.02054486982524395, -0.023223577067255974, -0.01780758798122406, 0.0004196864028926939, 0.016066335141658783, -0.012842200696468353, 0.002575561171397567, 0.026973700150847435, -0.0055249580182135105, -0.0030029239133000374, -0.00722445547580719, -0.003636349691078067, 6.944884080439806e-05, 3.072024628636427e-05, -0.0011493369238451123, 0.017601778730750084, -0.0011394465109333396, 0.0023911776952445507, 0.0003517137374728918, 0.014840184710919857, -0.00032374291913583875, 0.0011682981858029962, -0.0019704781007021666, 0.010676146484911442, -0.015224102884531021, -0.0002457993687130511, 0.001688803662545979, 0.00111513736192137], [-0.19836273789405823, -0.16133557260036469, -0.06746019423007965, -0.061155885457992554, -0.012194838374853134, 0.026560936123132706, -0.15737517178058624, 0.011015101335942745, 0.10646207630634308, 0.039222352206707, -0.19420400261878967, -0.14461840689182281, 0.021281341090798378, 0.01403276901692152, -0.0020998716354370117, 0.05832817777991295, 0.0641142800450325, -0.04439643397927284, 0.2297968715429306, -0.04633762314915657, 0.1082989051938057, -0.024437546730041504, -0.0364210344851017, -0.13371478021144867, 0.0026919131632894278, -0.10500985383987427, -0.14461103081703186, 0.09246405214071274, 0.10700055211782455, 0.1795729249715805, 0.03143803030252457, 0.04978516697883606], [0.0036724009551107883, 0.008947632275521755, 0.0034487091470509768, -0.004914478864520788, 0.0004282901936676353, 0.004559669177979231, 0.007390998769551516, 0.0004077402700204402, -0.0030264004599303007, 0.006588084623217583, 0.003809793619439006, -0.0026431805454194546, 0.012983647175133228, 0.002525963122025132, 0.002763576339930296, -0.0017858796054497361, -0.0013995926128700376, -0.0004705678438767791, -0.005171524826437235, -0.00402684323489666, -6.427536573028192e-05, 0.0005856215720996261, 0.001978477230295539, -0.0027441715355962515, 0.0005211056559346616, -0.007127494551241398, -0.0024250729475170374, -0.011375242844223976, 0.006438403856009245, -0.00805653352290392, -0.000836690072901547, 0.0016019534086808562], [-0.2632630467414856, -0.0647258535027504, 0.020043347030878067, -0.28975042700767517, 0.08157800137996674, -0.05458776280283928, -0.21366474032402039, 0.009666097350418568, 0.17245562374591827, -0.10701525211334229, -0.25955304503440857, 0.04506487771868706, 0.33874306082725525, 0.2742302119731903, -0.03976549580693245, 0.05126576125621796, 0.023604096844792366, -0.058255162090063095, -0.013762803748250008, 0.08569027483463287, 0.05133109539747238, -0.04218818247318268, -0.012731164693832397, 0.03397852182388306, 0.0006703771068714559, -0.2344154715538025, -0.11507266759872437, -0.042948849499225616, 0.32857105135917664, 0.19922368228435516, -0.024878542870283127, 0.015358668752014637], [-0.2097187638282776, -0.08610426634550095, -0.06439702957868576, -0.06393783539533615, -0.0920957699418068, 0.06403370201587677, -0.032718174159526825, 0.0029854055028408766, 0.15311980247497559, 0.049050357192754745, -0.2092498540878296, -0.0877460241317749, -0.05907157063484192, 0.04232463985681534, 0.03857129439711571, 0.04996787756681442, 0.02755807340145111, -0.030862947925925255, 0.12141336500644684, -0.08773055672645569, 0.11181101202964783, -0.016161613166332245, -0.021441791206598282, -0.3073526620864868, 0.01063759345561266, -0.09202232956886292, 0.04513327777385712, -0.031142476946115494, 0.12361709028482437, 0.15403655171394348, 0.008909191004931927, 0.020340226590633392], [0.16365882754325867, -0.12509791553020477, -0.16700005531311035, -0.03428133949637413, 0.33372533321380615, -0.5613374710083008, -0.2521859407424927, -0.05666279047727585, 0.03657858073711395, -0.2995535433292389, -0.13331487774848938, 0.6704987287521362, 0.23263676464557648, -0.3889017701148987, -0.29508331418037415, 0.11679714173078537, 0.1522694081068039, 0.02868783473968506, 0.12101917713880539, 0.4525008797645569, 0.2947752773761749, -0.1732637584209442, -0.2248210608959198, 0.3970869779586792, 0.07032886892557144, 0.09948465973138809, 0.08299829065799713, -0.048563048243522644, -0.3379330337047577, -0.03200573846697807, -0.0006722582038491964, -0.002741873962804675], [0.019901340827345848, -0.04716528207063675, -0.008429205976426601, 0.08809265494346619, -0.12377101927995682, 0.14959578216075897, 0.1454925686120987, -0.005803322419524193, 0.027573859319090843, 0.125730499625206, -0.0461537167429924, -0.17123398184776306, -0.04032302647829056, 0.03613913804292679, 0.055576201528310776, 0.000294467929052189, -0.018221067264676094, 0.010799725539982319, 0.010314016602933407, -0.1297101080417633, 0.06064683943986893, 0.010788878425955772, 0.004558561369776726, -0.15831363201141357, 0.0033370377495884895, -0.04806119203567505, 0.03361881896853447, -0.14835143089294434, 0.10112127661705017, -0.0031249201856553555, 0.003255606861785054, -0.004163699224591255], [-0.11454499512910843, -0.006837825756520033, -0.17296935617923737, 0.0016425796784460545, 0.27488064765930176, -0.39165860414505005, -0.03147610276937485, 0.020300937816500664, 0.17073744535446167, -0.17493924498558044, 0.07245156168937683, 0.3973601460456848, 0.4893583655357361, -0.19502562284469604, -0.1542079746723175, 0.0015127944061532617, -0.019931064918637276, -0.07016007602214813, 0.16910243034362793, 0.32106277346611023, -0.11247464269399643, 0.002065625274553895, -0.047464221715927124, 0.5442183017730713, -0.021042613312602043, 0.1973801851272583, -0.05432586371898651, -0.43314430117607117, -0.10582657158374786, -0.4742022156715393, 0.04117446392774582, -0.030142994597554207], [0.045129500329494476, 0.027963990345597267, 0.0173256304115057, 0.018974564969539642, -0.033128004521131516, 0.03970958665013313, 0.04196007922291756, -0.0020267190411686897, -0.008063730783760548, 0.037984974682331085, 0.020636441186070442, -0.04140430688858032, 0.03435134515166283, 0.053049370646476746, 0.02433157153427601, -0.012187527492642403, -0.021769866347312927, 0.00601273262873292, -0.06642569601535797, -0.03442925587296486, -0.014336399734020233, 0.0025413138791918755, 0.011403974145650864, -0.0148859154433012, 0.0014730205293744802, -0.01722818613052368, 0.04222298413515091, -0.05368385463953018, -0.007727448362857103, -0.029549477621912956, -0.02280977927148342, -0.012968519702553749], [0.0336495041847229, 0.030559981241822243, -0.004738723859190941, -0.004136502742767334, 0.042839765548706055, -0.04477996379137039, -0.07716485857963562, -0.0013910167617723346, 0.029119456186890602, -0.008274226449429989, -0.010300965048372746, 0.02031668834388256, -0.006361494306474924, 0.02638380415737629, -0.005938254296779633, -0.009219640865921974, -0.002382770413532853, 0.006400613114237785, -0.012957434169948101, 0.012042839080095291, 0.014782832935452461, 0.0023920738603919744, 0.0050638155080378056, 0.023457473143935204, 0.006543130613863468, -0.0012472189264371991, 0.024082766845822334, 0.023227350786328316, 0.011284374631941319, 0.01878950744867325, -0.0026945346035063267, 0.005777279380708933], [0.08187774568796158, 0.010483205318450928, -0.002626073779538274, 0.002307075774297118, 0.003593570552766323, 0.05353321507573128, 0.10508349537849426, -0.00583355687558651, -0.03078392893075943, 0.1041119173169136, 0.01319661270827055, -0.035156987607479095, -0.0488414540886879, 0.05884605273604393, 0.05934159830212593, -0.014321275986731052, -0.029050171375274658, 0.019184967502951622, -0.02371641993522644, -0.07285375893115997, -0.056076403707265854, 0.023153433576226234, 0.021196618676185608, -0.07840604335069656, 0.017996441572904587, -0.09375371783971786, 0.010850230231881142, -0.1303441971540451, -0.03611406311392784, -0.08667302876710892, -0.00201843841932714, 0.033187445253133774], [0.2292240709066391, 0.04127843677997589, 0.03301204741001129, 0.18860574066638947, -0.8892190456390381, 0.7534687519073486, 0.6936284303665161, -0.019378559663891792, -0.05423252657055855, 0.6342989206314087, 0.3391244113445282, -0.37106695771217346, -0.5385247468948364, 0.06727326661348343, 0.5244495272636414, -0.11639255285263062, -0.038694992661476135, 0.05824287235736847, -0.14003580808639526, -0.7893737554550171, 0.2457013726234436, 0.15585684776306152, 0.15344132483005524, -0.4654615521430969, 0.05385220795869827, -0.019267616793513298, 0.3259783983230591, -0.6451847553253174, 0.7192583680152893, -0.47527819871902466, 0.036530785262584686, 0.06913092732429504], [-0.015747584402561188, -0.01281947921961546, -0.06398996710777283, 0.03761983662843704, -0.19413937628269196, 0.087055504322052, 0.07281357795000076, -0.0032812021672725677, 0.061279330402612686, 0.14180029928684235, 0.10746336728334427, -0.15546341240406036, -0.4409846365451813, -0.044169846922159195, 0.14220677316188812, 0.01940663531422615, -0.052763961255550385, 0.017109056934714317, -0.09476516395807266, -0.22882531583309174, -0.13685296475887299, 0.0005012540495954454, 0.027217764407396317, -0.12764662504196167, 0.009670025669038296, 0.08404465019702911, 0.12172085791826248, 0.2605440020561218, -0.037652015686035156, -0.0003699240041896701, -0.0316893495619297, -0.007270114962011576], [-0.09078293293714523, -0.07244573533535004, 0.004358428530395031, -0.020072555169463158, -0.11155519634485245, 0.09936364740133286, 0.05656485632061958, 0.006371612660586834, -0.049468785524368286, 0.06770087778568268, 0.0430380217730999, -0.11739269644021988, -0.013413520529866219, -0.06048087403178215, 0.055249206721782684, 0.028880402445793152, 0.007550460286438465, -0.0289024468511343, 0.12062429636716843, -0.11297418177127838, -0.09815195202827454, 0.0014145242748782039, 0.00549828028306365, -0.06209487095475197, 0.005432198289781809, 0.11204423010349274, -0.15524570643901825, 0.007890556007623672, 0.20085832476615906, -0.02348114736378193, 0.007124481722712517, 0.030913526192307472], [-0.007476642727851868, -0.07417811453342438, 0.019049281254410744, 0.017488470301032066, -0.28765687346458435, 0.09440890699625015, 0.0414232574403286, -0.002811599289998412, -0.00402013910934329, 0.07878557592630386, 0.03486201539635658, -0.0739223062992096, -0.20511379837989807, -0.021678732708096504, 0.09311749786138535, 0.0006929811206646264, -0.030955035239458084, 0.008247129619121552, -0.044482916593551636, -0.2911055088043213, -0.05828176066279411, 0.015969594940543175, 0.015557100996375084, -0.08659584075212479, 0.012521901167929173, 0.11476873606443405, 0.04142846539616585, -0.0794777125120163, 0.03670794516801834, -0.040493227541446686, 0.019973520189523697, -0.004052835050970316], [-0.042636506259441376, -0.23235264420509338, 0.004260487388819456, 0.03861067816615105, -0.2222672551870346, 0.2267691195011139, 0.14466209709644318, -0.0026670077349990606, -0.03662586957216263, 0.14572139084339142, 0.04866969212889671, -0.3538486361503601, 0.13752250373363495, 0.05118393152952194, 0.06970079243183136, -0.004685346502810717, -0.03656284138560295, -0.0025903708301484585, -0.014943566173315048, -0.147929385304451, -0.10710232704877853, 0.010620784945786, 0.012503311038017273, -0.218870148062706, 0.007311217952519655, -0.006230483762919903, -0.03169313445687294, -0.19973354041576385, 0.1540667712688446, -0.13142190873622894, 0.009025800041854382, -0.030701017007231712], [0.008831729181110859, 0.022586392238736153, -0.028055649250745773, 0.04552850499749184, -0.1785399168729782, 0.22282172739505768, 0.13657231628894806, -0.004461731296032667, -0.014343597926199436, 0.0032684809993952513, -0.07696881890296936, -0.27813389897346497, 0.1043597087264061, -0.06493145227432251, 0.02504597418010235, 0.003827490611001849, 0.0040707518346607685, 0.014812675304710865, 0.10706435889005661, -0.1630522757768631, -0.09222732484340668, 0.030674265697598457, -0.0017338554607704282, -0.13679340481758118, 0.012034817598760128, -0.10883820801973343, -0.24309499561786652, 0.05489812046289444, -0.1523653119802475, -0.08268134295940399, 0.05244991555809975, 0.022171618416905403], [-0.0012463671155273914, 0.0023459582589566708, 0.0009496836573816836, 0.0005566353211179376, -0.0033055231906473637, 0.0037737523671239614, 0.00410815654322505, -3.124826980638318e-05, -0.0018135050777345896, 0.0032249176874756813, 0.00045239285100251436, -0.004397082142531872, 0.0034489429090172052, 0.0010970690054818988, 0.001635105931200087, -0.0001729778596200049, -0.0006637524929828942, 0.0002264189679408446, 0.0009720412199385464, -0.003454025834798813, -0.0015664020320400596, 0.00021575352002400905, 0.0005230156821198761, -0.004296229686588049, 0.0001311954838456586, 0.0003565010556485504, 0.00018801834085024893, -0.0033112827222794294, 0.002441920805722475, -0.001932932180352509, -0.0002727647952269763, -0.00018134978017769754], [-0.006592923309653997, -0.3933505713939667, -0.12137541174888611, 0.024131782352924347, -0.23684775829315186, 0.2735562026500702, 0.08683177828788757, -0.009308974258601665, 0.29262885451316833, 0.21768565475940704, -0.165742427110672, -0.05818726122379303, -0.43361636996269226, 0.08778353035449982, 0.2086477428674698, 0.03246438503265381, -0.06280524283647537, 0.011413796804845333, 0.055812835693359375, -0.20980919897556305, 0.03613905608654022, 0.027086898684501648, 0.029506351798772812, -0.3340218961238861, 0.028653481975197792, 0.1982453167438507, 0.21520739793777466, 0.13834506273269653, 0.1401469111442566, 0.07257244735956192, -0.008115138858556747, 0.035834815353155136], [0.02048499695956707, -0.029964689165353775, 0.052199993282556534, 0.028018023818731308, -0.03803666681051254, 0.09538210183382034, 0.09945593029260635, 0.0015264898538589478, -0.03509032353758812, 0.029493138194084167, -0.030754754319787025, -0.05405857786536217, -0.0381317064166069, -0.0007786561618559062, 0.02680983394384384, -0.008861775510013103, -0.008828144520521164, -0.003890498075634241, 0.03751933574676514, 0.0137181980535388, -0.00680964021012187, 0.011695527471601963, -0.007309827487915754, -0.10333026200532913, 0.007811230141669512, 0.04645386338233948, 0.050384484231472015, -0.10900022089481354, -0.12133251875638962, -0.04474392905831337, 0.016183314844965935, -0.003159539308398962], [-0.1686124950647354, -0.036368194967508316, 0.00030612939735874534, -0.01740906573832035, -0.1815786212682724, 0.22002771496772766, 0.11040765047073364, -0.0008924531866796315, 0.01342825684696436, 0.04381444305181503, -0.028663422912359238, -0.2877848148345947, 0.08203613758087158, -0.009702888317406178, 0.02452993392944336, 0.024581681936979294, -0.013681534677743912, 0.008198111318051815, 0.03121953271329403, -0.19673322141170502, -0.23116905987262726, 0.0008961450657807291, 0.00937231071293354, -0.3892105221748352, -0.006438732147216797, 0.056987661868333817, -0.07023294270038605, 0.06710455566644669, 0.046905767172575, -0.039371125400066376, 0.0282717477530241, -0.03527870029211044], [0.014675586484372616, -0.08632563054561615, 0.06337867677211761, 0.015427572652697563, -0.1968354433774948, 0.17801135778427124, 0.13365618884563446, 0.000430687447078526, -0.02562420442700386, 0.13473565876483917, 0.035305287688970566, -0.24621355533599854, 0.016794515773653984, 0.045303791761398315, 0.05055028572678566, -0.01468756701797247, -0.019604206085205078, -0.0040728128515183926, -0.0055298455990850925, -0.19846558570861816, -0.05705615133047104, 0.017279766499996185, 0.00907085370272398, -0.23335447907447815, 0.009882329031825066, 0.018251735717058182, 0.04023735225200653, -0.058071669191122055, 0.07370734959840775, -0.06857791543006897, 0.019155248999595642, -0.00045328406849876046], [-0.0870104432106018, 0.3490186333656311, -0.34228312969207764, -0.028018124401569366, -0.5671412944793701, 0.6098602414131165, 0.7039744257926941, -0.014399244450032711, 0.23321175575256348, 0.454184353351593, -0.10071540623903275, -0.38567638397216797, -0.22795628011226654, 0.3232458829879761, 0.32922276854515076, -0.0796673446893692, -0.14836956560611725, 0.025106092914938927, -0.1099800169467926, -0.4432114362716675, -0.1426188051700592, 0.13310818374156952, 0.1571163684129715, -0.6166156530380249, 0.000329014437738806, -0.3214770257472992, 0.023528777062892914, -0.38103094696998596, 0.16682270169258118, -0.6720845699310303, -0.040619052946567535, 0.0440841019153595], [-0.0272242221981287, -0.07824961096048355, 0.007377833127975464, 0.019038405269384384, -0.1667916625738144, 0.211654394865036, 0.18696661293506622, 0.004267606418579817, 0.023558100685477257, 0.2070402204990387, -0.26529958844184875, -0.263818621635437, -0.03252764046192169, 0.15547522902488708, 0.06855638325214386, -0.010547894984483719, -0.014993755146861076, 0.015828728675842285, 0.13068976998329163, -0.16576837003231049, -0.05297781527042389, 0.003670617239549756, 0.008582153357565403, -0.2491839975118637, -0.011913134716451168, 0.08922422677278519, -0.13131430745124817, -0.42790234088897705, 0.1674581617116928, 0.028417110443115234, 0.010134568437933922, 0.008788127452135086], [0.04258769378066063, 0.014052876271307468, 0.01780431903898716, 0.02583209238946438, -0.08707068115472794, 0.05559656769037247, 0.032649166882038116, -0.0016236754599958658, -0.0026470946613699198, 0.05782448872923851, 0.03745725378394127, -0.05024198070168495, -0.06132707744836807, 0.007481949403882027, 0.041390951722860336, -0.020256705582141876, -0.024841660633683205, 0.0112708555534482, -0.036696773022413254, -0.08618009090423584, -0.027679674327373505, 0.018201656639575958, 0.021509790793061256, 0.013974977657198906, -0.0010223612189292908, -0.01596626453101635, -0.0190756656229496, 0.030612211674451828, -0.020899692550301552, -0.04435507208108902, -0.008662653155624866, 0.0010491325519979], [0.000515839783474803, 0.01744636334478855, 0.0002106292813550681, 0.0005407113349065185, -0.015370123088359833, 0.013715636916458607, 0.01697630062699318, -0.0002869092859327793, 0.0007248677429743111, 0.016735563054680824, -0.013233566656708717, -0.018640993162989616, 0.006085891276597977, 0.010597688145935535, 0.01054990291595459, -0.002484313677996397, -0.0016869516111910343, 0.0020325970835983753, 0.007294150069355965, -0.017794286832213402, 0.011161260306835175, 0.0012637174222618341, 0.0016394398408010602, -0.027166711166501045, 0.0009198901243507862, -0.004965564236044884, 0.004669286776334047, -0.019963273778557777, 0.013345140963792801, 0.001619222341105342, -0.0009267372079193592, 0.002521130256354809], [-0.011355132795870304, 0.002421399811282754, -0.0015920334262773395, -0.008079779334366322, 0.0008972006617113948, 0.0029844902455806732, -0.014704589731991291, 0.00035763991763815284, 0.0220872163772583, -0.001211256836540997, 0.007075183093547821, -0.0011754996376112103, -0.0037475747521966696, -0.014767242595553398, -0.00021110751549713314, 0.0014289087848737836, 0.0021567672956734896, -0.0009318595402874053, 0.01978272572159767, -0.007589142769575119, -0.024996317923069, 0.0029247410129755735, 0.00014268583618104458, -0.010132656432688236, 0.0004216936358716339, 0.007985143922269344, -0.012890460900962353, 0.03344908356666565, -0.0055326176807284355, -0.005182853899896145, 0.003184977686032653, 0.0024405301082879305], [-0.008630536496639252, 0.0016997943166643381, 0.0021300408989191055, 0.00048160130972974, -0.0028707687743008137, 0.0073796892538666725, 0.010816985741257668, 3.793768701143563e-05, -0.004862499423325062, 0.009039990603923798, -0.0005881836405023932, -0.005667412653565407, 0.007425292395055294, 0.00509564857929945, 0.00500348350033164, 0.0007214877987280488, -0.0023555736988782883, 8.621595043223351e-05, 0.010997369885444641, -0.0060911946929991245, -0.009124532341957092, 0.0010543911485001445, 0.0019459478789940476, -0.012877977453172207, 0.0009676634217612445, 0.003847140120342374, 0.0005986648029647768, -0.013912657275795937, 0.005394509062170982, -0.006829327903687954, -0.00020322302589192986, 0.0008582488517276943], [0.22609515488147736, 0.03064722567796707, 0.0774037092924118, 0.08579915016889572, -0.10117978602647781, 0.09664390236139297, 0.14099320769309998, -0.007500532083213329, -0.07764194905757904, 0.10715413093566895, 0.24559195339679718, -0.11660091578960419, -0.044075921177864075, 0.012288291938602924, 0.0693928673863411, -0.05215783044695854, -0.06808516383171082, 0.03792862966656685, -0.2285466194152832, -0.12609541416168213, -0.16375871002674103, 0.03501707315444946, 0.03899158909916878, 0.021882029250264168, 0.005810610018670559, 0.07990521937608719, 0.12516646087169647, -0.0207107812166214, -0.1553690880537033, -0.18145708739757538, -0.011036558076739311, -0.029894711449742317], [0.06620050966739655, -0.05638854205608368, 0.009844847023487091, 0.08284367620944977, -0.29549363255500793, 0.17224745452404022, 0.020017890259623528, -0.012475072406232357, -0.012295362539589405, 0.03926672041416168, -0.03489184379577637, -0.12779758870601654, -0.36364462971687317, -0.05197226256132126, 0.09704507142305374, 0.003220809856429696, -0.0076780496165156364, 0.03312215209007263, 0.043279413133859634, -0.2425573766231537, -0.011088738217949867, 0.025226907804608345, -0.0008584917522966862, -0.17453928291797638, 0.026039740070700645, 0.13169771432876587, 0.05191488936543465, 0.14072780311107635, -0.006117903161793947, 0.08311410248279572, 0.013936836272478104, 0.01946081407368183], [-0.14282380044460297, 0.3951733112335205, 0.044052716344594955, -0.03504759818315506, -0.26308467984199524, 0.09684845060110092, 0.05064402520656586, 0.0004941805964335799, -0.05240967124700546, 0.12407946586608887, 0.19565550982952118, -0.13814488053321838, -0.07379494607448578, 0.034833211451768875, 0.12008319050073624, 0.043114300817251205, 0.02990126796066761, 0.014202401973307133, 0.011161241680383682, -0.2958727777004242, -0.0215094443410635, -0.022333461791276932, 0.02109798975288868, -0.20269840955734253, 0.002787718316540122, 0.10966593772172928, -0.2400117963552475, 0.1971655786037445, 0.24443508684635162, 0.05290425568819046, 0.005107839126139879, 0.0370342880487442], [0.0050628636963665485, -0.0029774298891425133, 0.001448633149266243, 0.004894128069281578, -0.0066862753592431545, 0.010513607412576675, 0.010067484341561794, -0.00030747067648917437, 0.001127613359130919, 0.008443324826657772, -0.00385125819593668, -0.010262696072459221, 0.012692874297499657, -0.0028775667306035757, 0.003015657886862755, -0.0024909523781389, -0.001356201944872737, 0.0009111452964134514, 0.001662630820646882, -0.0060093700885772705, 0.0063597760163247585, 0.002774307271465659, 0.0011237512808293104, -0.01508772186934948, 0.0005330229760147631, -0.0072870259173214436, -0.00033010271727107465, -0.014028623700141907, 0.0037975411396473646, -0.006527463439851999, 0.0022687772288918495, 0.000880005769431591], [0.0058159176260232925, -0.0024930883664637804, -0.0002748710394371301, -0.0038693160749971867, 0.014527798630297184, -0.013651101849973202, -0.009343198500573635, 0.0003501393075566739, 0.00846298597753048, -0.008194295689463615, 0.005901826545596123, 0.017589598894119263, -0.0018057336565107107, -0.008064080029726028, -0.0060802330262959, -0.002824414288625121, 0.00010388772352598608, 0.00019905183580704033, 0.0015641830395907164, 0.01293560117483139, -0.002977887401357293, 0.0023463829420506954, 0.0004344097978901118, 0.008762453682720661, -0.000445725629106164, 0.0034350783098489046, -0.005984215531498194, 0.005505305249243975, -0.01077988650649786, -0.006154530216008425, 0.0023634000681340694, 0.0008803068194538355], [-0.1323511004447937, -0.20078019797801971, -0.07500790059566498, 0.056439876556396484, -0.296587198972702, 0.14883486926555634, -0.15772852301597595, 0.018831461668014526, 0.21368953585624695, 0.07125046849250793, -0.22424004971981049, -0.2442183494567871, 0.1929856538772583, 0.036418113857507706, 0.12502630054950714, 0.021889403462409973, 0.13841110467910767, -0.0301966555416584, 0.3079143464565277, -0.2101311981678009, 0.3268303871154785, -0.047975219786167145, -0.1077873557806015, -0.16708062589168549, 0.0011118862312287092, 0.052577268332242966, -0.04335559159517288, 0.28005170822143555, 0.18971151113510132, 0.04834895581007004, 0.0529216043651104, 0.015607925131917], [0.00372509122826159, 0.008109335787594318, 0.00349211972206831, -0.003669783240184188, -0.0006683579995296896, 0.005719547159969807, 0.00883133802562952, 0.00033728862763382494, -0.003934553358703852, 0.007519251201301813, 0.00441885506734252, -0.005013123154640198, 0.012683427892625332, 0.00024252678849734366, 0.0028698863461613655, -0.0018050008220598102, -0.0013969007413834333, -6.315511564025655e-05, -0.0037792229559272528, -0.0052847606129944324, -0.0011586770415306091, 0.0009378479444421828, 0.0020791413262486458, -0.005459017585963011, 0.0005025814170949161, -0.005142189096659422, -0.0031357298139482737, -0.010840059258043766, 0.005103226285427809, -0.008912052027881145, -0.000271521566901356, 0.0016420334577560425], [-0.24414251744747162, -0.07821770012378693, 0.004030088894069195, -0.18596580624580383, -0.07841962575912476, 0.10424558818340302, -0.09690696746110916, 0.004983841907233, 0.2472275346517563, 0.05230794847011566, -0.36892223358154297, -0.13059262931346893, 0.2515980899333954, 0.24518634378910065, 0.012581952847540379, 0.05338510125875473, 0.0059613729827106, -0.03562592342495918, 0.011313281022012234, -0.06969532370567322, 0.11468732357025146, -0.027978243306279182, -0.00844255555421114, -0.3295709192752838, 0.004364662803709507, -0.23824413120746613, 0.06782223284244537, -0.18235988914966583, 0.2577878534793854, 0.1776238977909088, -0.0022437339648604393, 0.007929092273116112], [-0.053564026951789856, -0.038027573376894, -0.0042698318138718605, 0.0035751669201999903, -0.14121928811073303, 0.13125675916671753, 0.16820219159126282, 0.005855748895555735, -0.0014372911537066102, 0.07663440704345703, 0.2603950798511505, -0.08836770057678223, -0.0635407418012619, 0.0030805785208940506, 0.04784553125500679, 0.011725146323442459, -0.048250000923871994, -0.020508328452706337, -0.050689853727817535, -0.1362658590078354, -0.262219101190567, -0.0021830941550433636, 0.023226816207170486, 0.027083691209554672, -0.004470663145184517, 0.23259682953357697, 0.03735833615064621, -0.06458302587270737, -0.09520431607961655, -0.19329412281513214, -0.036583561450242996, -0.035405177623033524], [-0.10411251336336136, -0.12796644866466522, -0.06740123778581619, 0.10083626210689545, -0.14852531254291534, 0.16694238781929016, 0.21155212819576263, -0.009993442334234715, 0.2143562287092209, 0.4237060844898224, -0.46020427346229553, -0.040946364402770996, -0.12056416273117065, 0.3849714696407318, 0.17051883041858673, 0.07127979397773743, -0.0866396352648735, -0.02190079353749752, -0.051936253905296326, -0.10252992063760757, 0.25825342535972595, 0.12244299799203873, 0.11213424056768417, -0.5449767112731934, 0.04542747512459755, -0.09125103801488876, 0.16763368248939514, -0.6537019610404968, 0.15678736567497253, -0.3842770457267761, 0.0346783809363842, 0.13583916425704956], [-0.09382373094558716, 0.033013343811035156, -0.04058321565389633, 0.0968686118721962, -0.10215719789266586, 0.06280969828367233, 0.12677651643753052, -0.0026310288812965155, 0.008270148187875748, 0.051626794040203094, -0.2548958659172058, -0.08493592590093613, -0.014293746091425419, 0.17081515491008759, 0.03687708079814911, 0.03018278256058693, -0.00757548026740551, -0.015296157449483871, 0.19931739568710327, -0.07848931849002838, 0.021560655906796455, -0.01570662297308445, -0.011214573867619038, -0.023196924477815628, -0.0004398315504658967, 0.1728934943675995, -0.26013317704200745, -0.1601264625787735, 0.32180455327033997, 0.12591911852359772, -0.0032299498561769724, 0.008520667441189289], [-0.2577565014362335, 0.0034886456560343504, -0.08466779440641403, -0.029850678518414497, 0.05050094798207283, -0.09653294086456299, -0.19362260401248932, 0.017868975177407265, 0.036885909736156464, -0.14093559980392456, 0.17477181553840637, -0.12174425274133682, 0.614756166934967, -0.27263185381889343, -0.13315245509147644, 0.04959435388445854, 0.06443263590335846, -0.04386443272233009, 0.28327295184135437, 0.1901036500930786, -0.2005700170993805, -0.02449948899447918, -0.05735364556312561, -0.3277676999568939, -0.029927032068371773, 0.26493483781814575, 0.056058939546346664, 0.11593043804168701, -0.3086303770542145, -0.28340083360671997, 0.035033609718084335, -0.05093034356832504], [0.05042613670229912, 0.03750760853290558, 0.024330871179699898, 0.015548980794847012, -0.04613769054412842, 0.052958905696868896, 0.053088415414094925, -0.002327932743355632, -0.008734173141419888, 0.050029415637254715, 0.02459857240319252, -0.0573267936706543, 0.04183979704976082, 0.0720462054014206, 0.03367310017347336, -0.013764270581305027, -0.02781747467815876, 0.0055285790003836155, -0.07888852804899216, -0.04894666746258736, -0.020078904926776886, 0.001229245332069695, 0.015088832937180996, -0.024759748950600624, 0.00263441470451653, -0.015978720039129257, 0.05555199459195137, -0.06731326878070831, 0.0005647584912367165, -0.030680563300848007, -0.03267138823866844, -0.016807271167635918], [0.027804916724562645, 0.02577517367899418, -0.0005014507914893329, -0.00158990069758147, 0.030927661806344986, -0.025727292522788048, -0.04387781769037247, -0.0009720355737954378, 0.011661550030112267, -0.0008190090302377939, 0.008324399590492249, 0.014479956589639187, -0.005816465709358454, 0.007189452648162842, -0.007519342005252838, -0.006979597266763449, -0.003165877191349864, 0.0063123805448412895, -0.0067480881698429585, 0.001173214754089713, -0.01101736817508936, 0.0025875777937471867, 0.005793452728539705, 0.020757023245096207, 0.005512461066246033, 0.021740855649113655, 0.008833002299070358, 0.01701279543340206, -0.012191114947199821, -0.007821433246135712, 0.001562280347570777, 0.005334400571882725], [0.1945330798625946, 0.11515969783067703, 0.11107029765844345, 0.08913058042526245, 0.044264938682317734, -0.06568805873394012, -0.06851451843976974, -0.025115812197327614, -0.12456642836332321, 0.05736587569117546, -0.1799427717924118, 0.09932268410921097, -0.1268676519393921, -0.0999758169054985, -0.06446248292922974, -0.05051558092236519, -0.0037871061358600855, 0.10400427132844925, -0.07654590159654617, 0.10678902268409729, 0.12780289351940155, 0.0969579741358757, -0.011166930198669434, -0.32461440563201904, 0.03835604712367058, -0.08688829094171524, -0.00322083942592144, -0.013969146646559238, -0.44287508726119995, 0.03944743052124977, 0.14185546338558197, 0.08740665763616562], [0.13293907046318054, 0.5851380825042725, -0.060651957988739014, 0.001646743738092482, -0.16852492094039917, -0.29729804396629333, -0.0525403767824173, -0.039054252207279205, 0.1700090616941452, 0.14698317646980286, -0.19055958092212677, 0.011544459499418736, -0.1878821849822998, 0.06971649825572968, 0.13438759744167328, -0.020684609189629555, -0.045063573867082596, 0.09650209546089172, -0.01977623999118805, -0.15972557663917542, 0.15504708886146545, -0.00760517967864871, 0.007220843806862831, -0.2584036588668823, 0.08988767862319946, 0.22208184003829956, 0.2905347943305969, 0.1483599692583084, -0.05292876437306404, -0.05527697503566742, -0.07085758447647095, 0.06169406324625015], [-0.04704562574625015, 0.1508491337299347, 0.3801180422306061, -0.27843496203422546, 0.08402294665575027, 0.09575549513101578, 0.05205967277288437, 0.034171149134635925, -0.2372274100780487, 0.0889912024140358, -0.15231953561306, 0.009786825627088547, 0.5017499923706055, 0.16038981080055237, -0.05283642187714577, -0.07799261808395386, -0.04433293268084526, -0.05529121309518814, 0.00838449876755476, 0.08003153651952744, -0.030814431607723236, -0.024587417021393776, -0.04058442264795303, 0.1617920994758606, -0.038546811789274216, 0.1166679635643959, -0.04467596113681793, -0.15881751477718353, -0.03266939893364906, -0.20489835739135742, 0.019245389848947525, -0.02168569527566433], [-0.09345302730798721, -0.044778719544410706, -0.034473977982997894, 0.2114122211933136, -0.08861891180276871, -0.3231174647808075, 0.143650084733963, -0.019731249660253525, -0.03961220383644104, -0.03375781327486038, 0.334762305021286, 0.1881592571735382, -0.009835326112806797, -0.2902366518974304, 0.10322790592908859, 0.0793808102607727, 0.08350837975740433, 0.030210360884666443, 0.24487541615962982, -0.09974706918001175, -0.007260752841830254, -0.06407718360424042, -0.09708163887262344, -0.5995596051216125, 0.06131065636873245, -0.31813234090805054, 0.4732983708381653, -0.1484130173921585, 0.03054194711148739, 0.04508567973971367, -0.07124479860067368, 0.005577525589615107], [0.36687108874320984, 0.040457986295223236, -0.029243633151054382, -0.027347028255462646, 0.4579830467700958, -0.15624508261680603, -0.037227679044008255, -0.004000851884484291, 0.018242452293634415, 0.043634891510009766, -0.04838215559720993, 0.1311301440000534, 0.010628401301801205, -0.0723349004983902, -0.06093946471810341, -0.08823005855083466, -0.017690230160951614, 0.06503859907388687, -0.035413023084402084, 0.33705100417137146, -0.033166904002428055, 0.08608904480934143, 0.028845831751823425, -0.06022396683692932, 0.050649069249629974, -0.15679343044757843, -0.057873472571372986, 0.0717853307723999, -0.10948500037193298, -0.088845394551754, 0.08993888646364212, 0.09869080781936646], [-0.2609330117702484, -0.10084214806556702, 0.011737188324332237, 0.07787865400314331, -0.2097778171300888, 0.19294188916683197, -0.06833752244710922, 0.0002016555517911911, -0.005135832820087671, 0.17764796316623688, 0.019542107358574867, -0.21149496734142303, 0.19073288142681122, 0.12575183808803558, -0.023909686133265495, 0.06881721317768097, -0.05409234017133713, -0.04643239825963974, 0.010476321913301945, 0.02443702705204487, -0.21724200248718262, -0.054441794753074646, -0.029179804027080536, -0.43878045678138733, -0.027303708717226982, 0.07586017996072769, 0.17537711560726166, -0.007122389506548643, -0.2890990674495697, -0.03903096169233322, -0.05153103172779083, -0.18045899271965027], [-0.006934018339961767, 0.191160649061203, -0.021027501672506332, -0.04561397805809975, -0.20136460661888123, 0.16483621299266815, 0.02885870821774006, -0.020049944519996643, -0.04035522788763046, -0.0070799472741782665, -0.15728549659252167, -0.11468084901571274, -0.2309701144695282, -0.002144954865798354, 0.031411971896886826, 0.03317119926214218, -0.0010708359768614173, 0.054079558700323105, 0.2631675899028778, -0.07823914289474487, -0.210970938205719, 0.036658696830272675, -0.03506850823760033, -0.3909875452518463, 0.030801672488451004, -0.22817029058933258, -0.18272213637828827, -0.182237446308136, -0.26356709003448486, -0.39771437644958496, 0.08516370505094528, 0.0722939595580101], [-0.010531078092753887, 0.006266329437494278, -0.007126189768314362, -0.005907223094254732, 0.02336413599550724, 0.012764080427587032, 0.0361371710896492, 0.006093852687627077, 0.04171786084771156, -0.008915508165955544, -0.010235979221761227, -0.03793259710073471, 0.02337813191115856, 0.005834575276821852, -0.004888478666543961, -0.007715275511145592, -0.003713887883350253, -0.007840671576559544, -0.003229566151276231, -0.0010682513238862157, 0.016820363700389862, 0.0003175018064212054, 0.001271402812562883, 0.1111033707857132, -0.009323240257799625, 0.03549657762050629, -0.015878256410360336, -0.02244315668940544, 0.047457702457904816, -0.037867847830057144, 0.015688056126236916, -0.005676449276506901], [0.049689289182424545, -0.5372940897941589, -0.3783546984195709, -0.2525590658187866, -0.10497447103261948, 0.02251323312520981, -0.2432800680398941, 0.015967927873134613, 0.17742080986499786, -0.09786375612020493, -0.2902837097644806, 0.02226642146706581, -0.34224802255630493, 0.2585044503211975, -0.0010146329877898097, -0.03078962117433548, -0.12475748360157013, -0.01911073550581932, -0.10356944799423218, -0.019504079595208168, 0.1323617398738861, -0.03958788141608238, 0.10007038712501526, 0.021258139982819557, -0.008419257588684559, 0.16384847462177277, -0.03457944840192795, 0.03379006311297417, 0.1943078637123108, 0.2750397026538849, -0.13343051075935364, 0.09913275390863419], [0.04698421061038971, -0.03892390802502632, 0.045086540281772614, 0.02385512739419937, -0.29244258999824524, -0.05112059786915779, 0.157637357711792, 0.00028443863266147673, -0.005271629896014929, 0.07139798998832703, 0.03715776279568672, -0.021049173548817635, -0.06008013337850571, 0.022569119930267334, 0.0819510817527771, -0.013651237823069096, -0.011956959031522274, 0.001824243227019906, 0.0027450229972600937, -0.2595576047897339, 0.005441864021122456, 0.018921557813882828, 0.007253509480506182, -0.4546205997467041, 0.012722425162792206, 0.04943985119462013, 0.14722560346126556, -0.3562244176864624, 0.06740950793027878, -0.0033783065155148506, 0.01937890611588955, 0.009195142425596714], [0.24699082970619202, 0.1008889228105545, -0.042805399745702744, -0.03233448788523674, 0.02023843117058277, 0.10988162457942963, 0.3783354163169861, -0.05388140305876732, 8.460588287562132e-05, -0.003999059088528156, 0.03873789682984352, 0.04118231683969498, -0.16960038244724274, -0.10031868517398834, 0.10360325872898102, -0.08891787379980087, 0.03761666268110275, 0.09072378277778625, -0.025925755500793457, -0.024592697620391846, -0.08849307149648666, 0.11000140756368637, -0.04036399722099304, -0.05813763663172722, 0.0546993650496006, -0.0760727971792221, -0.0007201947155408561, 0.15494868159294128, -0.04054144024848938, -0.5819679498672485, -0.04046310484409332, 0.07636111229658127], [0.14903540909290314, 0.09886597841978073, -0.12410902976989746, -0.013173832558095455, 0.20686127245426178, -0.11958496272563934, 0.15241704881191254, -0.004150124732404947, 0.0407942496240139, -0.12138622999191284, -0.024394161999225616, 0.318828821182251, -0.4542939364910126, -0.14180350303649902, -0.02256406471133232, -0.033685583621263504, 0.055612895637750626, 0.03072560764849186, 0.03903535008430481, 0.2626168131828308, 0.07012204825878143, 0.029377978295087814, -0.01208838727325201, 0.026516111567616463, 0.014038593508303165, -0.08470174670219421, -0.10731856524944305, 0.2313946783542633, 0.041603583842515945, -0.18112440407276154, 0.03143654391169548, 0.12056376039981842], [0.06069968268275261, 0.34776222705841064, -0.0015388786559924483, -0.13237416744232178, 0.14602889120578766, -0.025738174095749855, -0.20031842589378357, 0.020245980471372604, -0.062161367386579514, 0.006731435190886259, -0.15921999514102936, -0.2933219075202942, 0.25828346610069275, 0.08397264778614044, -0.023361248895525932, 0.038124293088912964, -0.02351297438144684, -0.003847097745165229, -0.04053732752799988, -0.2168199121952057, -0.03515074774622917, -0.06797778606414795, 0.09410008043050766, 0.43770819902420044, -0.015000474639236927, 0.018906209617853165, -0.10670012980699539, -0.44376593828201294, 0.2799195647239685, -0.05562160909175873, -0.10218892246484756, 0.06591538339853287], [0.06418287009000778, -0.060911741107702255, -0.01909143105149269, 0.12113286554813385, -0.027463039383292198, -0.031805723905563354, 0.05530070513486862, 0.016662389039993286, 0.05006105825304985, 0.036674901843070984, 0.01772172376513481, 0.022914694622159004, -0.28189554810523987, 0.182552307844162, 0.0660926103591919, -0.06810754537582397, -0.13652120530605316, 0.039342425763607025, -0.2016904652118683, -0.21542814373970032, -0.02395469695329666, 0.04955298453569412, 0.08523902297019958, 0.23320913314819336, -0.0813298374414444, -0.05610170215368271, -0.007698800414800644, -0.658433198928833, 0.262285441160202, 0.42109695076942444, -0.009315596893429756, -0.04118102788925171], [0.04017831012606621, -0.07621492445468903, 0.040178876370191574, 0.04867204278707504, -0.5062342882156372, 0.06950902938842773, 0.059325966984033585, -0.012792671099305153, 0.050372082740068436, 0.07655400782823563, 0.011459852568805218, -0.008815311826765537, -0.4956214427947998, -0.016554219648241997, 0.04962935298681259, 0.01983725093305111, 0.018414316698908806, 0.030310651287436485, 0.010622565634548664, -0.24196352064609528, 0.05022752657532692, 0.011521140113472939, -0.0007230952614918351, -0.09152619540691376, 0.024292880669236183, 0.09065816551446915, 0.09128236025571823, -0.004526324570178986, 0.07650821655988693, 0.17955277860164642, -0.011602670885622501, 0.03248792141675949], [-0.04704579710960388, -0.12923753261566162, 0.02502366527915001, -0.003541377140209079, 0.017456665635108948, -0.007327803410589695, -0.026441771537065506, -0.006881944835186005, -0.05488830804824829, -0.016149774193763733, 0.10067742317914963, -0.0847649797797203, -0.018445348367094994, 0.046282581984996796, 0.034828051924705505, 0.02399851381778717, -0.008161070756614208, -0.004281722940504551, 0.0375540517270565, -0.038369011133909225, -0.12054170668125153, -0.019268818199634552, 0.0036348914727568626, 0.14740292727947235, 0.0033501251600682735, 0.006218144670128822, 0.0176924467086792, 0.10180406272411346, 0.2851833403110504, 0.08345939218997955, -0.05118197947740555, -0.021720197051763535], [0.09436589479446411, -0.04364507272839546, 0.06305420398712158, -0.12283419817686081, -0.01534515991806984, 0.11735957115888596, -0.06595902889966965, 0.0035158535465598106, -0.011657284572720528, -0.16464932262897491, -0.20792947709560394, 0.045579131692647934, -0.039868567138910294, -0.042997460812330246, 0.012717596255242825, -0.030492380261421204, -0.0004483212542254478, 0.00667374674230814, 0.029931722208857536, -0.10762514919042587, 0.2147376835346222, 0.006131147965788841, 0.009909134358167648, 0.2725059390068054, -0.0063437060452997684, 0.08473046123981476, -0.36082661151885986, 0.13913679122924805, 0.13402831554412842, 0.03458784893155098, -0.0014351889258250594, 0.06481731683015823], [0.00994389969855547, 0.11451494693756104, 0.03447457775473595, 0.05931731313467026, 0.009827971458435059, -0.06960337609052658, -0.05158982798457146, -0.007363222539424896, -0.04275105521082878, 0.039059076458215714, 0.027809949591755867, 0.07684364169836044, -0.04757637903094292, -0.08419296890497208, -0.03575050085783005, 0.024839425459504128, 0.02467441000044346, 0.006744829937815666, 0.06423304229974747, 0.10148899257183075, -0.01646791584789753, 0.0136219821870327, -0.016654180362820625, -0.3834053575992584, 0.02365398220717907, -0.047271229326725006, 0.09886103868484497, 0.07720901817083359, -0.18896913528442383, 0.05546335130929947, 0.00689820758998394, 0.02716345153748989], [-0.08405320346355438, -0.15860137343406677, -0.04522622376680374, 0.03081386908888817, -0.03516453132033348, 0.11216364055871964, -0.025301801040768623, 0.0030542213935405016, -0.0999714732170105, -0.15997883677482605, -0.2689162790775299, -0.08748526871204376, -0.0615454837679863, -0.07494783401489258, -0.0339667946100235, 0.0036060779821127653, 0.0895259752869606, -0.01916508376598358, 0.3679560720920563, -0.03473363071680069, 0.1947430521249771, 0.01359137799590826, -0.0030975406989455223, 0.15459094941616058, -0.016901787370443344, 0.015648365020751953, -0.37182584404945374, -0.07389957457780838, 0.23883453011512756, 0.06898131966590881, -0.03431263193488121, 0.12707675993442535], [-0.006441224366426468, 0.0872844010591507, 0.009131945669651031, -0.05883822962641716, 0.49519652128219604, -0.24174754321575165, -0.08894604444503784, 0.01755359396338463, -0.01687898486852646, -0.12590816617012024, 0.007324133068323135, 0.20035602152347565, 0.27173662185668945, 0.04087766259908676, -0.13290375471115112, 0.007522194180637598, -0.004335814155638218, -0.03930804133415222, -0.05506346747279167, 0.30124691128730774, -0.13925525546073914, -0.02403244934976101, 0.0007695257081650198, 0.04037683457136154, -0.031504228711128235, -0.14540089666843414, -0.09269964694976807, 0.0474553145468235, -0.03223041445016861, -0.04100070148706436, -0.023530345410108566, -0.09209515154361725], [-0.14484968781471252, -0.09902551770210266, -0.16628074645996094, -0.25393566489219666, -0.19012539088726044, 0.13607825338840485, -0.21388040482997894, 0.04438379034399986, 0.11747300624847412, -0.247039332985878, -0.3221396505832672, -0.0017027085414156318, -0.17447234690189362, -0.06745492666959763, 0.049731772392988205, 0.10240961611270905, 0.2814136743545532, -0.08686485886573792, 0.15675120055675507, -0.19810305535793304, 0.19768908619880676, -0.05799434334039688, -0.03192022442817688, 0.45860201120376587, -0.0063367863185703754, -0.2861781716346741, -0.5181834697723389, 0.12012901157140732, 0.023137692362070084, 0.2383558750152588, -0.022984283044934273, 0.26610374450683594], [0.0007402939372695982, -0.06153378635644913, -0.0060265641659498215, 0.028718695044517517, -0.014828342013061047, 0.0007729352219030261, -0.03202058747410774, 0.0007640983094461262, 0.05320657044649124, 0.019832409918308258, -0.06516610831022263, 0.023145250976085663, -0.013610937632620335, -0.12495045363903046, -0.01849314570426941, 0.008005103096365929, 0.0024145571514964104, 0.007151045370846987, 0.030238008126616478, 0.020505456253886223, -0.014423409476876259, 0.009385534562170506, -0.008883352391421795, -0.14334730803966522, 0.004709052387624979, -0.005967751611024141, -0.041507165879011154, -0.042214199900627136, -0.21303199231624603, -0.037069257348775864, 0.04495066776871681, 0.015974057838320732], [0.0023804567754268646, 0.06774087250232697, -0.00011966822057729587, 0.05986538901925087, -0.04851701855659485, -0.08486829698085785, 0.011426764540374279, -0.0019127402920275927, -0.03486396372318268, 0.10207805782556534, 0.08990606665611267, 0.024132171645760536, 0.05683942511677742, -0.059847116470336914, -0.02446458488702774, 0.005476220976561308, -0.005448635201901197, 0.00309463101439178, 0.0189605001360178, 0.03114660270512104, -0.14175227284431458, 0.0021691685542464256, -0.016825005412101746, -0.047818027436733246, 0.0024451834615319967, 0.014724033884704113, 0.1559152454137802, -0.043034158647060394, -0.12900978326797485, -0.017829515039920807, -0.003634102875366807, -0.0226992629468441], [-0.05546124652028084, 0.4013582468032837, 0.07033039629459381, 0.28779441118240356, 0.022069012746214867, -0.07595453411340714, 0.37111780047416687, -0.02288307435810566, -0.13678193092346191, 0.1439485400915146, 0.32233524322509766, 0.2957281470298767, -0.1799336075782776, -0.060815922915935516, -0.07785805314779282, -0.04121950641274452, -0.22059692442417145, 0.09018944203853607, -0.19423449039459229, 0.07943368703126907, -0.3825259208679199, 0.11927080899477005, 0.11252682656049728, 0.09387089312076569, -0.03995939716696739, 0.3771184980869293, 0.20271682739257812, -0.10275035351514816, -0.10958772152662277, -0.24356704950332642, 0.009044278413057327, -0.2706342935562134], [0.05288219824433327, -0.12133634835481644, 0.034353677183389664, -0.051524434238672256, -0.01407078467309475, -0.034128230065107346, -0.03060830757021904, -0.005328024737536907, -0.06764451414346695, -0.09256933629512787, -0.026902439072728157, 0.06003841012716293, -0.061609186232089996, 0.031800758093595505, 0.0001613566855667159, -0.010793311521410942, 0.012357492931187153, 0.010045508854091167, -0.030513864010572433, -0.00572960777208209, 0.04833853989839554, -0.0020409009885042906, 0.007849732413887978, -0.012042832560837269, 0.010882122442126274, 0.019975271075963974, -0.03829256817698479, -0.01373302936553955, 0.014217907562851906, 0.08733201026916504, -0.02357705496251583, 0.02385919913649559], [-0.022000081837177277, 0.1700095683336258, -0.03948255255818367, 0.30574968457221985, -0.05450773239135742, -0.22547611594200134, 0.18373896181583405, -0.0009765077265910804, -0.03867020085453987, 0.1694452166557312, 0.15135379135608673, 0.10045137256383896, -0.4657897353172302, 0.11075808852910995, 0.07390713691711426, 0.00226497370749712, -0.15464311838150024, 0.05263790488243103, -0.11710557341575623, 0.048594940453767776, -0.19707410037517548, 0.0185372456908226, 0.08570133149623871, -0.3819000720977783, -0.06241540610790253, 0.41297975182533264, 0.5648192763328552, -0.09839334338903427, 0.032902635633945465, -0.042337194085121155, -0.07982682436704636, -0.16263891756534576], [0.03622453287243843, -0.37663233280181885, 0.11147984117269516, -0.3623923361301422, -0.049218446016311646, -0.26395612955093384, 0.35465192794799805, 0.032599929720163345, 0.23036205768585205, -0.1541987955570221, 0.2992461323738098, 0.2466125339269638, -0.24749933183193207, 0.18492212891578674, 0.18658392131328583, -0.028589647263288498, 0.31554046273231506, -0.09565811604261398, -0.03226601332426071, -0.1039385125041008, 0.38781192898750305, 0.0027830915059894323, -0.18351763486862183, -0.5879774689674377, 0.0483267642557621, -0.1199408546090126, 0.08362554013729095, -0.25928860902786255, 0.28671059012413025, 0.08760897070169449, -0.08678274601697922, 0.16879500448703766], [-0.18749727308750153, -0.13889217376708984, -0.023631976917386055, 0.06181313097476959, -0.0009049235959537327, 0.06489614397287369, -0.17141839861869812, 0.023512108251452446, 0.004384124185889959, -0.2774091064929962, 0.15805554389953613, -0.04522845894098282, -0.08202967792749405, 0.07625994831323624, -0.13336049020290375, 0.12740395963191986, -0.1573651134967804, -0.04231901094317436, -0.2198624610900879, 0.07417217642068863, -0.3003140985965729, -0.08613501489162445, 0.09156280755996704, 0.10010041296482086, -0.07648423314094543, 0.006785506382584572, 0.09962556511163712, 0.6793749928474426, -0.056554488837718964, 0.578792929649353, -0.12360629439353943, -0.239935502409935], [0.05214916914701462, 0.031421542167663574, 0.22540508210659027, -0.26000386476516724, -0.2905069589614868, 0.06055407598614693, 0.2781842350959778, 0.007174828089773655, -0.011897941119968891, -0.08284604549407959, 0.1504083275794983, 0.04987573251128197, -0.4821782112121582, 0.08909029513597488, 0.10764971375465393, -0.02384660765528679, 0.005218856036663055, -0.03175520896911621, -0.1386832594871521, -0.47045502066612244, -0.09441962838172913, 0.03125803917646408, 0.0018286359263584018, 0.532539963722229, -0.045392923057079315, -0.07902374863624573, -0.3724346458911896, -0.4487598240375519, 0.07607131451368332, 0.05427897721529007, -0.022625911980867386, 0.13244543969631195], [-0.22817400097846985, -0.2676704525947571, -0.0002622247557155788, -0.22980138659477234, -0.03505251929163933, -0.17933693528175354, -0.09621422737836838, 0.033734213560819626, 0.15983478724956512, 0.06898903846740723, 0.01757318526506424, 0.026823950931429863, -0.05052296072244644, 0.1895117312669754, 0.14049531519412994, 0.12344135344028473, 0.13904732465744019, -0.13335487246513367, 0.1887330263853073, -0.1571531444787979, 0.1754574328660965, -0.13591307401657104, 0.014021063223481178, 0.6840478777885437, -0.01295843068510294, 0.04626147449016571, -0.044116586446762085, 0.24521490931510925, 0.8495100140571594, 0.3571304678916931, -0.06505648791790009, 0.12841901183128357], [-0.09131798893213272, -0.05588706210255623, 0.0018332289764657617, -0.052852097898721695, 0.06724677979946136, -0.09124191105365753, -0.16944333910942078, 0.02045024186372757, 0.005615832284092903, 0.04491836205124855, -0.058416783809661865, 0.07972228527069092, 0.25269848108291626, -0.16187046468257904, -0.04565628245472908, -0.002614052500575781, -0.0034331083297729492, -0.019522905349731445, 0.0527559369802475, 0.022524703294038773, 0.023421935737133026, -0.012184049934148788, -0.010930507443845272, -0.06375089287757874, -0.006457266863435507, 0.06678513437509537, 0.06259246915578842, 0.1117742508649826, -0.054701097309589386, -0.13942965865135193, 0.07701190561056137, 0.004358926322311163], [0.12000519037246704, 0.0033497470431029797, 0.08170022070407867, -0.08703147619962692, 0.02704773098230362, 0.16258221864700317, -0.12487785518169403, 0.0011783135123550892, 0.011479958891868591, -0.15961042046546936, -0.3358432650566101, 0.05795658752322197, -0.10718736052513123, -0.05727986991405487, -0.016924338415265083, -0.022773470729589462, -0.009852772578597069, 0.014580070972442627, 0.031170008704066277, -0.0818563848733902, 0.035420700907707214, 0.02804785780608654, 0.009700258262455463, 0.3800795078277588, -0.006497908849269152, 0.0967206135392189, -0.3903290331363678, 0.1093883365392685, -0.21844318509101868, 0.05579990893602371, 0.026081036776304245, 0.014753167517483234], [0.08113430440425873, 0.03261391818523407, 0.007664097473025322, 0.05121397227048874, -0.046638622879981995, 0.0845288559794426, 0.12399175018072128, -0.005812825169414282, -0.030661743134260178, 0.11976740509271622, -0.007284421008080244, -0.08688847720623016, -0.003068229416385293, 0.05809994041919708, 0.06694357097148895, -0.016650306060910225, -0.0305885411798954, 0.02451184205710888, -0.02917620912194252, -0.10030055046081543, -0.02507614530622959, 0.02001497894525528, 0.019191840663552284, -0.13663379848003387, 0.011088588275015354, -0.03212970495223999, 0.04458656907081604, -0.1362341046333313, -0.011900410056114197, -0.07220783084630966, -0.004403675906360149, 0.012732242234051228], [-0.014408458024263382, -0.12425092607736588, -0.021810419857501984, -0.11975452303886414, -0.18018613755702972, 0.05277446657419205, 0.09017673134803772, 0.018764818087220192, 0.16802878677845, 0.1338139921426773, -0.0744887962937355, 0.019045110791921616, 0.08282539993524551, 0.28608009219169617, 0.031214887276291847, -0.06945294141769409, -0.07571273297071457, -0.05126837641000748, -0.1373043805360794, -0.1318739652633667, 0.21938994526863098, 0.018449783325195312, 0.04810966178774834, 0.06963812559843063, 0.010744941420853138, 0.00700960960239172, 0.3985259234905243, -0.4722667634487152, 0.18905499577522278, -0.23657025396823883, 0.025149159133434296, -0.026668742299079895], [0.025501035153865814, -0.06982707977294922, -0.05223315209150314, 0.06561371684074402, -0.04881412535905838, -0.04592398181557655, -0.038244277238845825, -0.006703156977891922, 0.03217008709907532, 0.03513992950320244, 0.09236051142215729, 0.017277903854846954, -0.41370099782943726, -0.08376060426235199, 0.10206106305122375, 0.02094358019530773, -0.04276249185204506, 0.022767512127757072, -0.09609846770763397, -0.08456152677536011, -0.08749225735664368, 0.003714061575010419, 0.02033141627907753, 0.03117443434894085, 0.013518604449927807, 0.06969765573740005, 0.11712951958179474, 0.33528199791908264, -0.1092807799577713, 0.05086583271622658, -0.02969237044453621, -0.008027018047869205], [-0.05550438165664673, -0.012730476446449757, 0.0057126241736114025, -0.09431419521570206, -0.12400063127279282, 0.11965654790401459, 0.05111090838909149, 0.004091009497642517, 0.036956969648599625, 0.0914096087217331, -0.0668892040848732, -0.14475075900554657, 0.02055423893034458, 0.09248004108667374, 0.06587161123752594, 0.014318565838038921, 0.0038304056506603956, -0.02634587325155735, 0.056944433599710464, -0.13072502613067627, 0.012341045774519444, -0.0034615928307175636, 0.003078427631407976, -0.0880977213382721, 0.009868167340755463, -0.04063205048441887, -0.02610563300549984, -0.08544865995645523, 0.2095317244529724, 0.045326486229896545, -0.015374919399619102, 0.028055859729647636], [0.041583821177482605, 0.060067687183618546, -0.050988953560590744, 0.026463346555829048, -0.15611062943935394, 0.06872474402189255, 0.13889998197555542, -0.00877456832677126, 0.14090397953987122, 0.15898002684116364, 0.05048186331987381, -0.11867356300354004, -0.3036437928676605, -0.0766005665063858, 0.2090744525194168, -0.031557001173496246, -0.07188967615365982, 0.04008625075221062, -0.0012653832091018558, -0.2918097972869873, -0.09725527465343475, 0.04474862664937973, 0.03160518780350685, 0.03029569983482361, 0.011448036879301071, 0.0355989970266819, -0.08323641866445541, 0.022767309099435806, 0.12438726425170898, -0.0018356095533818007, 0.014851585030555725, 0.021087652072310448], [0.04468853026628494, -0.18877072632312775, 0.004645638633519411, 0.04832841828465462, -0.18122997879981995, 0.16286136209964752, 0.18542546033859253, -0.012132503092288971, -0.17002888023853302, 0.22881726920604706, 0.04893295466899872, -0.24363304674625397, 0.16922658681869507, 0.01784718595445156, 0.06977420300245285, -0.07107741385698318, -0.07520384341478348, 0.033472009003162384, 0.04238523170351982, -0.08461739867925644, -0.1383015364408493, 0.04781422019004822, 0.036263130605220795, -0.046915553510189056, 0.015218188986182213, -0.3201058506965637, -0.14076338708400726, -0.16248197853565216, 0.1867397576570511, -0.21015127003192902, 0.08379317075014114, 0.008280256763100624], [0.153009831905365, 0.07758302241563797, 0.019917799159884453, 0.09503251314163208, -0.15106020867824554, 0.23691847920417786, 0.27056071162223816, -0.006405343767255545, -0.07268594950437546, 0.09197558462619781, 0.07436991482973099, -0.28943634033203125, 0.15054312348365784, -0.005179570987820625, 0.0489879846572876, -0.04118967801332474, -0.034697722643613815, 0.022990668192505836, -0.05697016417980194, -0.17289625108242035, -0.05044493079185486, 0.03759671002626419, 0.025176364928483963, -0.007597184740006924, 0.006128319073468447, -0.1579117625951767, -0.16218672692775726, -0.2402714490890503, -0.020588329061865807, -0.19975468516349792, 0.023082945495843887, -0.0018205565866082907], [-0.0011494852369651198, 0.002174793742597103, 0.0009370285551995039, 0.001375918393023312, -0.0037779745180159807, 0.004291130229830742, 0.004677547607570887, -0.00022730923956260085, -0.0015841148560866714, 0.003870332147926092, -0.00047557696234434843, -0.005041295662522316, 0.003813090268522501, 0.0014433794422075152, 0.00198203232139349, -0.0003087654185947031, -0.000913259107619524, 0.0005756994360126555, 0.0014500718098133802, -0.003941047471016645, -0.0011365783866494894, 0.00045755584142170846, 0.0006124115898273885, -0.006464820820838213, 0.00025250049657188356, -5.1955434173578396e-05, 0.0015794853679835796, -0.0039911167696118355, 0.0016090987483039498, -0.0015505685005337, -0.000252393598202616, -0.0003722200053744018], [-0.016812639310956, -0.28878846764564514, -0.08510791510343552, -0.08194031566381454, -0.03292742744088173, 0.0405353419482708, -0.08907332271337509, -0.0015112105756998062, 0.193905308842659, 0.01794721558690071, -0.06110607087612152, 0.07857636362314224, -0.22632335126399994, 0.0006694087642244995, 0.04459404572844505, 0.031479693949222565, 0.023164771497249603, -0.016634667292237282, 0.013185116462409496, -0.014145882800221443, 0.03184223920106888, 0.010151859372854233, -0.007899430580437183, -0.14720019698143005, 0.018619084730744362, 0.05164054408669472, -0.0003786323359236121, 0.2160298079252243, 0.05576586723327637, 0.10783612728118896, 0.005978772882372141, 0.03311555087566376], [0.02737126126885414, -0.03957797586917877, 0.06603238731622696, 0.05975351855158806, -0.021561218425631523, 0.08349353820085526, 0.08262493461370468, -0.002831836696714163, -0.007644537836313248, 0.017400993034243584, -0.08114426583051682, -0.046217672526836395, -0.10540959984064102, -0.010395311750471592, 0.04971823841333389, -0.011114021763205528, -0.02429518848657608, 0.00705820182338357, 0.042785827070474625, 0.017427196726202965, -0.013598340563476086, 0.013471175916492939, -0.01514928787946701, -0.15433195233345032, 0.01236804947257042, 0.05152194947004318, 0.10074839740991592, -0.018905386328697205, -0.188987135887146, -0.008217619732022285, 0.01742764562368393, -0.01753680780529976], [0.021069340407848358, 0.143341526389122, -0.012625758536159992, 0.060113802552223206, -0.0786491259932518, 0.10506030917167664, 0.02278878353536129, -0.00021882962028030306, 0.010784056968986988, 0.020549023523926735, 0.04118385910987854, -0.1626996248960495, 0.21767492592334747, 0.09110087156295776, -0.021745886653661728, -0.02958020009100437, -0.030818132683634758, 0.025956695899367332, -0.05590498074889183, -0.09896022826433182, -0.030426284298300743, 0.010007909499108791, 0.02583903633058071, 0.0425138846039772, -0.008076288737356663, 0.12994666397571564, 0.03162641078233719, -0.12462297081947327, 0.12012191861867905, -0.09412878006696701, 0.03362094983458519, -0.04260461404919624], [-0.03765681013464928, 0.1870124489068985, 0.07867197692394257, 0.07384950667619705, -0.3582514524459839, 0.18958646059036255, 0.17331001162528992, -0.002785023069009185, -0.08994685113430023, 0.2661406099796295, 0.06865938007831573, -0.21888026595115662, 0.08604385703802109, 0.014854073524475098, 0.19428642094135284, -0.01224268414080143, 0.020434444770216942, -0.0007039848132990301, 0.06711726635694504, -0.4462044835090637, -0.10405179858207703, 0.053005266934633255, -0.022763513028621674, -0.1456456184387207, 0.015164981596171856, -0.13631698489189148, -0.11524595320224762, -0.23243597149848938, 0.2062971442937851, -0.04194564372301102, 0.048130057752132416, 0.013505706563591957], [-0.06777689605951309, 0.38225841522216797, -0.2191302627325058, -0.08007252216339111, -0.21125252544879913, 0.4055056869983673, 0.3334512412548065, 0.023572281002998352, 0.2560374140739441, 0.2403513342142105, 0.260713130235672, 0.016357945278286934, -0.13441766798496246, 0.16035084426403046, 0.09560646116733551, -0.1147405281662941, -0.13197365403175354, -0.027123844251036644, -0.25662529468536377, -0.07836179435253143, -0.14783120155334473, 0.05606095865368843, 0.04459047690033913, -0.35780662298202515, -0.05299472436308861, -0.36901915073394775, 0.01348879560828209, -0.22698259353637695, -0.09544381499290466, -0.3995390832424164, 0.026171017438173294, -0.0396483838558197], [0.12999874353408813, 0.05867767333984375, 0.040598079562187195, -0.034416742622852325, -0.07127487659454346, 0.12348833680152893, 0.14373460412025452, 0.002109132707118988, -0.04977480322122574, 0.1255374252796173, -0.0946752056479454, -0.18172438442707062, 0.1239268109202385, 0.1875639706850052, 0.016144612804055214, -0.05091822147369385, -0.028564613312482834, 0.0038026953116059303, -0.10988710820674896, -0.09603435546159744, 0.009863754734396935, 0.000854875601362437, 0.019873131066560745, -0.059800248593091965, -0.01206256914883852, -0.0643918365240097, -0.07904719561338425, -0.32646235823631287, 0.13752897083759308, -0.024296963587403297, -0.03157266229391098, -0.019622888416051865], [0.04825307056307793, 0.009205504320561886, 0.02104710042476654, 0.014082449488341808, -0.07273976504802704, 0.04005911946296692, 0.024836799129843712, 0.0002599610306788236, 0.01698293909430504, 0.045712921768426895, 0.047949861735105515, -0.009713064879179, -0.07486781477928162, 0.008692910894751549, 0.037035007029771805, -0.02495293691754341, -0.023860909044742584, 0.00590369151905179, -0.04665171727538109, -0.08461866527795792, -0.021879982203245163, 0.018103215843439102, 0.02498546615242958, 0.07371361553668976, -0.003192888805642724, -0.032920774072408676, -0.028045449405908585, 0.03763895854353905, -0.023062849417328835, -0.05515561252832413, -0.009992621839046478, 0.0013038323959335685], [0.009016735479235649, 0.019577372819185257, 0.0023483086843043566, 0.007490554358810186, -0.01683378592133522, 0.015728900209069252, 0.021365171298384666, -0.0006498146685771644, -0.0023845809046179056, 0.01903611421585083, -0.008369163610041142, -0.020181836560368538, 0.008854932151734829, 0.011753533035516739, 0.01158224605023861, -0.004495546687394381, -0.00404153298586607, 0.003691206919029355, 0.00035878445487469435, -0.01874271035194397, 0.007633629254996777, 0.002149661537259817, 0.0028320637065917253, -0.02612185850739479, 0.000657392549328506, -0.003381261369213462, 0.008554012514650822, -0.023534201085567474, 0.006014402024447918, -0.0037531640846282244, -0.002292086137458682, 0.0005246367072686553], [-0.0017723380587995052, 0.01698099635541439, -0.0032338479068130255, -0.014243985526263714, 0.0059779551811516285, -0.011966084130108356, -0.03729132190346718, -0.0010112009476870298, 0.04495549574494362, 0.000991091481409967, -0.013808400370180607, -0.015537772327661514, -0.001324347802437842, 0.009598717093467712, 0.00509392935782671, -0.00461264094337821, -0.0012586666271090508, 0.0041683088056743145, 0.009418372996151447, -0.008722467347979546, -0.007279777433723211, 0.005174046847969294, 0.001541203004308045, -0.04765753075480461, 0.0014560292474925518, -0.012547982856631279, 0.015634313225746155, 0.03400971367955208, -0.01766202040016651, 0.01101413369178772, 0.0002968597400467843, 0.0006874462706036866], [-0.0059707313776016235, 0.0028381652664393187, 0.003905356163159013, 0.006008772645145655, -0.013021359220147133, 0.017958249896764755, 0.02022796869277954, -0.0008528147591277957, -0.0029259752482175827, 0.020143557339906693, -0.009541201405227184, -0.01863887719810009, 0.013252444565296173, 0.014059784822165966, 0.010837754234671593, -0.00046559772454202175, -0.005374625790864229, 0.003098613116890192, 0.011732740327715874, -0.01659916155040264, -0.006219891365617514, 0.002377621829509735, 0.0030664594378322363, -0.03608669340610504, 0.0016416116850450635, 0.0010811585234478116, 0.01603638008236885, -0.02515457570552826, -0.0008637164137326181, -0.0028855681885033846, -0.0011263492051512003, -0.0011486111907288432], [0.18563567101955414, 0.08720514923334122, 0.04933560639619827, 0.11167386174201965, -0.022406937554478645, -0.010315134190022945, 0.05436260253190994, -0.008965956047177315, -0.02647256664931774, 0.04042137414216995, 0.1635240614414215, -0.003121059387922287, -0.0913860946893692, 0.09733527898788452, 0.053862132132053375, -0.04199657216668129, -0.06616374105215073, 0.04145917296409607, -0.19218657910823822, -0.04194978252053261, -0.14272093772888184, 0.017039142549037933, 0.030321070924401283, 0.07618013024330139, 0.003940364811569452, 0.08922252804040909, 0.2045588195323944, -0.013744458556175232, -0.23208361864089966, -0.08060440421104431, -0.04913703724741936, -0.04660310223698616], [0.03311483561992645, 0.16685478389263153, 0.09468071907758713, 0.01847214438021183, -0.2753846347332001, 0.040697131305933, -0.015402518212795258, -0.005802426021546125, 0.007032877299934626, 0.02821461111307144, 0.0547340102493763, -0.11836479604244232, -0.3304254114627838, -0.014844204299151897, 0.2139206975698471, 0.005731832701712847, -0.020661531016230583, 0.014459852129220963, -0.028531406074762344, -0.25551512837409973, -0.03132187947630882, 0.028059085831046104, 0.024157162755727768, 0.09374526888132095, 0.005323288030922413, 0.06427142769098282, -0.03739362955093384, 0.12716829776763916, 0.167039155960083, 0.20765931904315948, -0.010223551653325558, 0.031226955354213715], [-0.12480564415454865, 0.4057416319847107, -0.031124835833907127, -0.2452581524848938, -0.02421482838690281, -0.1073422059416771, -0.19452127814292908, 0.00961998663842678, 0.14104115962982178, -0.027566203847527504, 0.10196791589260101, -0.04550355300307274, -0.01645554229617119, 0.03985929116606712, 0.038886215537786484, 0.02844860777258873, 0.057645998895168304, -0.004535811487585306, 0.020699704065918922, -0.06513972580432892, 0.018798915669322014, -0.03356187418103218, 0.005460997112095356, -0.15657880902290344, 0.00807980913668871, 0.376941978931427, -0.20343610644340515, 0.2245003879070282, 0.07298910617828369, 0.12547820806503296, 0.010435246862471104, 0.06285184621810913], [0.010521587915718555, -0.001989106647670269, 0.0029639839194715023, 0.0066434163600206375, -0.00896264985203743, 0.012757239863276482, 0.012672437354922295, -0.0005541561404243112, -0.00013836317521054298, 0.011276821605861187, -0.002216016873717308, -0.012757775373756886, 0.012889042496681213, 0.001398107036948204, 0.004994846414774656, -0.0035758409649133682, -0.0031846200581640005, 0.0017984382575377822, -0.002851389581337571, -0.008420850150287151, 0.003047618316486478, 0.0031479664612561464, 0.0020981235429644585, -0.014236398972570896, 0.0005864663980901241, -0.005085109733045101, 0.0029521083924919367, -0.017253272235393524, 1.5740972230560146e-05, -0.008004222996532917, 0.0005494313081726432, -8.602641901234165e-05], [0.006833516526967287, 2.5860590540105477e-05, -0.0011480030370876193, -0.011306200176477432, 0.02288486622273922, -0.026049509644508362, -0.020129933953285217, 0.0004467508988454938, 0.017285101115703583, -0.014810217544436455, 0.002968271728605032, 0.03022950328886509, -0.0070564113557338715, -0.004094602540135384, -0.008397629484534264, -0.003927134908735752, 0.00036190662649460137, 0.0001363351766485721, -0.0024565381463617086, 0.02026752196252346, 0.0015503354370594025, 0.0024603246711194515, 0.00020661107555497438, 0.01695859059691429, -0.0004301706503611058, -0.00047359458403661847, -0.0007046026876196265, 0.012890945188701153, -0.01549909170717001, 0.0006039303843863308, 0.0021920595318078995, 0.000922699982766062], [-0.04128439724445343, -0.18617911636829376, -0.020257459953427315, -0.04342085123062134, -0.14070317149162292, 0.11776428669691086, -0.06627021729946136, 0.002647534478455782, 0.17456942796707153, 0.15802834928035736, -0.10310020297765732, -0.24089404940605164, 0.016052715480327606, 0.06565261632204056, 0.07128424942493439, 0.0035740607418119907, 0.004388616885989904, -0.005707584321498871, 0.06251400709152222, -0.15792155265808105, 0.0362769216299057, 0.012706202454864979, 0.0027367251459509134, -0.4102804958820343, 0.012335317209362984, 0.004807948600500822, 0.18770915269851685, -0.07558756321668625, 0.002890033880248666, 0.009388954378664494, 0.021967532113194466, 0.022372055798768997], [0.0035642206203192472, 0.008706184104084969, 0.0034974298905581236, -0.004730609245598316, 0.00044778399751521647, 0.00464889220893383, 0.007123608607798815, 0.00036316714249551296, -0.0024938788264989853, 0.00672092754393816, 0.003752885153517127, -0.0029866511467844248, 0.01314483117312193, 0.00241960771381855, 0.002728925319388509, -0.0016814065165817738, -0.0014158814447000623, -0.00045464004506357014, -0.005305365659296513, -0.004129576496779919, 0.00011098801769549027, 0.0005269608227536082, 0.0019368535140529275, -0.003844002028927207, 0.0005732207209803164, -0.008186432532966137, -0.001006802194751799, -0.011601543985307217, 0.0062522683292627335, -0.008094909600913525, -0.0007125715492293239, 0.001480164472013712], [-0.15315066277980804, -0.04363522678613663, 0.005038843955844641, -0.17428895831108093, -0.01374509185552597, 0.04479602351784706, -0.09977775812149048, 0.0022551489528268576, 0.18327057361602783, 0.012053731828927994, -0.3208414912223816, -0.06575971096754074, 0.23855134844779968, 0.1801118403673172, 0.0013865953078493476, 0.0230480395257473, 0.022394785657525063, -0.023982789367437363, 0.025654368102550507, -0.00482705095782876, 0.14032088220119476, -0.008650990203022957, -0.008181428536772728, -0.25384587049484253, 0.002764699049293995, -0.3256707489490509, -0.08362535387277603, -0.10470837354660034, 0.2598339319229126, 0.14642144739627838, 0.009933598339557648, 0.033479537814855576], [-0.07799247652292252, -0.021843092516064644, -0.015471535734832287, 0.0016206305008381605, -0.1793312132358551, 0.15776412189006805, 0.08940942585468292, -0.00216283299960196, 0.0767427459359169, 0.1382448822259903, -0.08163993805646896, -0.21107321977615356, -0.0039960346184670925, 0.10511256009340286, 0.08008527755737305, 0.017216751351952553, -0.0158547293394804, -0.005293233320116997, -0.0017493880586698651, -0.18235327303409576, 0.03450007736682892, -0.005096793174743652, 0.002818301087245345, -0.29791125655174255, 0.011228933930397034, -0.03534865379333496, 0.14934425055980682, -0.1212548166513443, 0.09415197372436523, 0.040484149008989334, -0.0205604936927557, -0.00991532951593399], [0.0989045649766922, 0.13963046669960022, -0.034054867923259735, 0.15582777559757233, -0.04752472788095474, 0.09530967473983765, 0.07706591486930847, -0.010132601484656334, -0.13549397885799408, 0.18931446969509125, -0.08428650349378586, -0.10214853286743164, 0.47090327739715576, 0.11383706331253052, -0.004378315061330795, -0.07651548087596893, -0.13201729953289032, 0.014974274672567844, -0.07590941339731216, 0.1374044567346573, 0.07593512535095215, 0.024309813976287842, -0.007967597804963589, -0.4240783452987671, -0.016634536907076836, -0.2141585350036621, 0.15430566668510437, -0.2127479463815689, -0.14846085011959076, -0.30149781703948975, 0.002775479108095169, -0.03816910460591316], [-0.0025919212494045496, -0.024211257696151733, 0.0019949120469391346, 0.049599386751651764, -0.17383497953414917, 0.17295733094215393, 0.1900739222764969, -0.0009993042331188917, -0.04976590722799301, 0.15674543380737305, 0.004586243070662022, -0.21836166083812714, -0.04431627690792084, 0.03856824338436127, 0.07980222254991531, 0.010129031725227833, -0.015254958532750607, -0.006273658014833927, 0.04513005539774895, -0.18149293959140778, 0.0049422308802604675, 0.003407275304198265, 0.009526394307613373, -0.17157094180583954, 0.0033832434564828873, 0.08781065046787262, -0.056451793760061264, -0.15468987822532654, 0.11716824024915695, -0.007680384907871485, -0.011561618186533451, 0.0020588033366948366], [-0.014587451703846455, 0.11490467190742493, -0.1452404111623764, -0.07632724195718765, 0.12968401610851288, -0.11758249253034592, -0.12352900207042694, 0.017615865916013718, 0.10894251614809036, -0.13140259683132172, -0.0013554347679018974, -0.04953290894627571, 0.6172074675559998, -0.1928156018257141, -0.11523165553808212, -0.018731944262981415, 0.04480452090501785, -0.029008405283093452, 0.2918146848678589, 0.1823069155216217, -0.00781859178096056, 0.010699635371565819, -0.062031619250774384, -0.14236170053482056, -0.02481817826628685, 0.1030818372964859, -0.15745891630649567, -0.1753896176815033, -0.08019620180130005, -0.20068390667438507, 0.07002299278974533, 0.022214390337467194], [0.046620868146419525, 0.028984952718019485, 0.019958173856139183, 0.00954592227935791, -0.035282641649246216, 0.0420384407043457, 0.040055952966213226, -0.0013217405648902059, -0.009607884101569653, 0.039171524345874786, 0.022921627387404442, -0.04417230188846588, 0.03733338415622711, 0.05557991564273834, 0.025566760450601578, -0.011230187490582466, -0.021250270307064056, 0.00284195551648736, -0.06966769695281982, -0.037039317190647125, -0.015076005831360817, 0.000557454361114651, 0.011894185096025467, -0.010926177725195885, 0.0020579746924340725, -0.015127362683415413, 0.03906663507223129, -0.05389923229813576, -0.0017968866741284728, -0.02985977567732334, -0.02538822591304779, -0.012206251733005047], [0.034356530755758286, 0.032914161682128906, -0.0029568944592028856, -0.008465318940579891, 0.04170101508498192, -0.04582945257425308, -0.07424735277891159, -0.0015784280840307474, 0.027200425043702126, -0.005864616949111223, -0.011461006477475166, 0.01660953275859356, 0.0007237855461426079, 0.023118043318390846, -0.005178401712328196, -0.010838411748409271, -0.0025787008926272392, 0.007647749502211809, -0.011621876619756222, 0.008442625403404236, 0.011562216095626354, 0.0037554893642663956, 0.005936440080404282, 0.00787972379475832, 0.007010235916823149, 0.0009766069706529379, 0.017397519201040268, 0.018824946135282516, -0.0066034747287631035, 0.013870388269424438, -0.0009745140559971333, 0.007170444820076227]], "rec.bias_ih_l0": [0.20450812578201294, -0.6820935606956482, -0.10286760330200195, 0.1620345562696457, -0.029241930693387985, -0.190046027302742, 0.0078109558671712875, 0.006901712156832218, -0.038068994879722595, 0.06594647467136383, -0.16501636803150177, -0.028829500079154968, -0.7436559796333313, -0.2108551263809204, -0.07402202486991882, 0.025221871212124825, -0.04150953143835068, 0.024985244497656822, -0.06668934971094131, 0.07820454239845276, -0.11906160414218903, 0.014048757962882519, -0.07106071710586548, 0.4024479389190674, -0.006638467311859131, -0.1934223473072052, 0.16624997556209564, -0.14452801644802094, 0.2465195208787918, -0.03602594882249832, 0.04675746709108353, -0.06756158173084259, 0.21248824894428253, 0.8243409395217896, 0.18214868009090424, 0.14680126309394836, 0.6745535135269165, 0.20675942301750183, 0.25650498270988464, 0.006004438269883394, 0.09114587306976318, 0.06265441328287125, 0.08221442252397537, 0.4434124827384949, 0.5020586252212524, 0.2647462785243988, 0.03985197842121124, 0.02731991931796074, 0.005311958026140928, 0.00983898900449276, 0.17013852298259735, 0.4612713158130646, 0.32599928975105286, 0.012208880856633186, -0.033951401710510254, 0.21218813955783844, 0.006870172452181578, 0.04645908996462822, 0.1975124031305313, 0.7428155541419983, 0.15909148752689362, 0.36621901392936707, 0.06965529173612595, 0.06887462735176086, 0.10584183782339096, -0.059534501284360886, -0.08480468392372131, 0.05083269625902176, 0.01215644832700491, 0.04562047868967056, 0.01705935411155224, 0.012818419374525547, 0.10192099213600159, 0.16319721937179565, -0.06178177893161774, -0.09345732629299164, -0.061489205807447433, -0.031104249879717827, 0.0240586306899786, -0.021332968026399612, 0.007967370562255383, 0.09963744878768921, 0.05600377544760704, -0.019551953300833702, 0.030048690736293793, 0.12073303759098053, 0.15749423205852509, -0.00024578982265666127, 0.16390590369701385, 0.03943729028105736, -0.22909928858280182, 0.1853579580783844, -0.12716932594776154, -0.06838992238044739, 0.05244928225874901, 0.2748345732688904, 0.23404283821582794, -0.07714029401540756, -0.09842628985643387, 0.18338565528392792, -0.16881519556045532, -0.24250289797782898, -0.03665076941251755, 0.0068933977745473385, -0.019412221387028694, 0.028908977285027504, -0.0759829729795456, -0.22108913958072662, -0.14273467659950256, 0.05194728821516037, -0.10594531148672104, 0.027010081335902214, -0.052299994975328445, 0.026432743296027184, -0.004141179844737053, -0.03248225525021553, -0.1314634084701538, 0.013408396393060684, -0.07512126863002777, 0.6681352257728577, -0.003683073678985238, -0.03441643714904785, 0.33691802620887756, -0.1233978122472763, 0.32427072525024414, 0.2205427587032318, 0.05087732523679733, -0.05995512008666992], "rec.bias_hh_l0": [0.20458707213401794, -0.6965284943580627, -0.11064580082893372, 0.16379988193511963, -0.027427492663264275, -0.16681113839149475, -0.02881351299583912, 0.006901717744767666, -0.09437676519155502, 0.0777510330080986, -0.21223865449428558, -0.016870781779289246, -0.74397873878479, -0.17834043502807617, -0.0740199089050293, 0.02526664361357689, -0.030130833387374878, 0.024669134989380836, -0.06749781221151352, 0.07829935848712921, -0.14381223917007446, 0.013677187263965607, -0.07113119959831238, 0.3225376009941101, -0.006971796043217182, -0.17228850722312927, 0.16371138393878937, -0.14138410985469818, 0.23205770552158356, -0.10083644837141037, 0.04684383049607277, -0.05851313844323158, 0.21251584589481354, 0.8175994157791138, 0.17608605325222015, 0.14538481831550598, 0.660301923751831, 0.2614622116088867, 0.08644307404756546, 0.006004439666867256, 0.19341562688350677, 0.06269270181655884, 0.1744365245103836, 0.4214880168437958, 0.5821719169616699, 0.2664697766304016, 0.03971423953771591, 0.027461398392915726, 0.009672523476183414, 0.00977835338562727, 0.1687610000371933, 0.4474027454853058, 0.3503721356391907, 0.011860605329275131, -0.034690093249082565, 0.3077772855758667, 0.0068176728673279285, 0.048878688365221024, 0.21378642320632935, 0.8264337778091431, 0.11869819462299347, 0.506972074508667, 0.0697171539068222, 0.06597591936588287, 0.08951212465763092, -0.11582913994789124, 0.07854447513818741, -0.21686330437660217, -0.001643905881792307, 0.00747342873364687, -0.10465061664581299, -0.02535889483988285, -0.017167160287499428, 0.28085094690322876, -0.20687682926654816, -0.02777867577970028, -0.1242622435092926, -0.1186303123831749, 0.16735859215259552, -0.018699705600738525, 0.04439162462949753, -0.024715183302760124, -0.007615830283612013, -0.14319105446338654, 0.30669084191322327, -0.03403492271900177, -0.049527741968631744, -0.3094317317008972, -0.008321797475218773, -0.16733889281749725, 0.017178835347294807, -0.01830877922475338, 0.05116146057844162, 0.09350641071796417, 0.08200392872095108, 0.17880389094352722, 0.2340538650751114, -0.14184992015361786, -0.10208851099014282, 0.1829776018857956, -0.17949114739894867, -0.27061888575553894, -0.018336793407797813, 0.006893408019095659, -0.11287344992160797, 0.0033135339617729187, -0.009808051399886608, -0.2397046983242035, -0.021191105246543884, -0.06702037155628204, -0.10594159364700317, 0.026379799470305443, -0.05155721306800842, 0.02648850902915001, -0.008700690232217312, -0.041380975395441055, -0.11830770969390869, 0.012500649318099022, -0.07703735679388046, 0.575251042842865, -0.004426619969308376, -0.04576355218887329, 0.33606112003326416, -0.11961611360311508, 0.3193992078304291, -0.005276304204016924, 0.051096946001052856, -0.06425613909959793], "lin.weight": [[-0.050772227346897125, 0.29945915937423706, -0.025530315935611725, -0.11268492043018341, 0.023474711924791336, -0.019425522536039352, 0.08994424343109131, 0.05693524703383446, -0.20869223773479462, -0.14188183844089508, 0.2560202479362488, -0.09687957167625427, 0.3399825990200043, -0.127180814743042, -0.10829340666532516, -0.015805434435606003, 0.14779287576675415, -0.10430886596441269, 0.129505917429924, 0.005409931298345327, 0.04821975156664848, 0.005242796614766121, -0.030841534957289696, 0.34178924560546875, -0.11374722421169281, -0.29402878880500793, -0.5303606986999512, -0.13809576630592346, 0.1979334056377411, -0.3475613296031952, 0.13519057631492615, 0.1365324854850769]], "lin.bias": [0.02827407233417034]}}