{"model_data": {"model": "SimpleRNN", "input_size": 1, "skip": 1, "output_size": 1, "unit_type": "LSTM", "num_layers": 1, "hidden_size": 20, "bias_fl": true}, "state_dict": {"rec.weight_ih_l0": [[-0.004365227650851011], [0.05745846405625343], [0.04903366416692734], [0.021297721192240715], [0.04958232864737511], [-0.04272837936878204], [-0.06914352625608444], [0.10769404470920563], [0.013982485979795456], [0.08297251909971237], [0.0613304078578949], [-0.057048242539167404], [-0.08214276283979416], [-0.10406539589166641], [0.042161718010902405], [0.07242550700902939], [0.06630612164735794], [0.005755288060754538], [-0.015684835612773895], [0.052425287663936615], [-0.037460967898368835], [-0.0746796503663063], [0.07569839060306549], [-0.05686017870903015], [0.010756313800811768], [0.002998247742652893], [0.0060876887291669846], [-0.03298813849687576], [-0.006279350258409977], [0.06171537563204765], [0.07514651119709015], [-0.11653005331754684], [-0.13526690006256104], [-0.02135433815419674], [0.0736880749464035], [0.151833176612854], [0.05994478985667229], [0.00881354883313179], [0.011385748162865639], [0.2295500934123993], [-0.574135959148407], [-4.883035659790039], [0.14401108026504517], [0.8650239109992981], [3.726999521255493], [0.30410850048065186], [-0.41269710659980774], [0.5716276168823242], [-4.680317401885986], [0.08827661722898483], [0.009596794843673706], [0.09269894659519196], [0.06222614273428917], [-0.6384732723236084], [0.18447498977184296], [0.16981899738311768], [0.3522067964076996], [-0.39887577295303345], [0.1599375456571579], [3.460444211959839], [-0.07213884592056274], [0.11862494796514511], [0.11423148959875107], [0.0066992007195949554], [0.04705970734357834], [0.06914521753787994], [-0.00980708934366703], [0.17490050196647644], [0.5115919709205627], [0.07011517137289047], [0.057137373834848404], [-0.1258491426706314], [-0.3007758855819702], [-0.07193025946617126], [0.039195407181978226], [0.07527397572994232], [0.04013752192258835], [0.034925900399684906], [0.04811106622219086], [0.06736346334218979]], "rec.weight_hh_l0": [[-0.11843838542699814, -0.1262785941362381, 0.040494002401828766, 0.015995459631085396, 0.005691566504538059, 0.06731974333524704, 0.05266081541776657, -0.12471511214971542, -0.09368826448917389, 0.14380457997322083, 0.08341008424758911, 0.0039828261360526085, -0.07713091373443604, -0.06067056208848953, 0.024828968569636345, 0.05288081616163254, -0.08961674571037292, 0.06349994242191315, -0.013112763874232769, 0.013834337703883648], [-0.10609839111566544, 0.03040066733956337, 0.8163653016090393, -0.045682862401008606, -0.010115829296410084, 0.015410811640322208, -0.040886346250772476, -0.44663289189338684, -0.046403273940086365, 0.4055411219596863, 0.1053847074508667, -0.5379031896591187, -0.4214523434638977, -0.008083213120698929, 0.0036318402271717787, -0.00912868045270443, 0.023337842896580696, -0.03495655953884125, -0.010693096555769444, 0.09330953657627106], [-0.020850446075201035, 0.00414617033675313, 0.11871717125177383, 0.0257922001183033, 0.008197884075343609, 0.08664580434560776, 0.012183679267764091, 0.007658874616026878, -0.01576831378042698, 0.05229654535651207, -0.013759608380496502, -0.1019015833735466, -0.040239375084638596, 0.05336921662092209, 0.010297663509845734, 0.008069139905273914, 0.012332114391028881, 0.010477844625711441, 0.024439577013254166, 0.014421368949115276], [0.0049679894000291824, 0.03430340811610222, 0.2977767884731293, -0.002349210437387228, 0.044307563453912735, 0.08023162186145782, 0.030615946277976036, -0.06289836019277573, -0.06344394385814667, 0.07061020284891129, 0.007077829912304878, -0.11076488345861435, -0.16028280556201935, -0.010529443621635437, -0.0042290352284908295, 0.008554146625101566, -0.06331615149974823, 0.013828524388372898, 0.051276642829179764, 0.015293764881789684], [0.026178305968642235, -0.04535374417901039, 0.7762565612792969, -0.03909614682197571, 0.04751657694578171, 0.06902804225683212, -0.04420915246009827, -0.2402729094028473, -0.07891573756933212, 0.33215609192848206, 0.04960939288139343, -0.3695993721485138, -0.45615726709365845, -0.07187363505363464, 0.011932413093745708, 0.006798374466598034, -0.10890792310237885, -0.005904635414481163, 0.010415183380246162, 0.006654605735093355], [0.0939740315079689, -0.16698035597801208, -0.5343497395515442, -0.1233922466635704, 0.023942749947309494, -0.052983202040195465, 0.023803509771823883, 0.35935622453689575, -0.04054219275712967, -0.15981988608837128, 0.053255949169397354, 0.3606727719306946, 0.27775028347969055, -0.07276713103055954, 0.0500003919005394, 0.06615033745765686, -0.042666107416152954, -0.0889967754483223, 0.046705763787031174, -0.06434275209903717], [-0.2475925087928772, -0.23101618885993958, -0.7930517196655273, 0.084730364382267, -0.06839399039745331, -0.2366264909505844, 0.20340389013290405, 0.27228954434394836, -0.047834742814302444, -0.4217708110809326, 0.14835990965366364, 0.6057295799255371, 0.49038243293762207, 0.012251043692231178, -0.017644114792346954, 0.15783341228961945, 0.19454294443130493, 0.19468162953853607, 0.09810027480125427, -0.10460397601127625], [-0.1202521100640297, -0.5065279006958008, 0.02698844112455845, -0.16795530915260315, 0.0562867671251297, -0.03063429519534111, 0.023277264088392258, -0.0849289670586586, -0.14137117564678192, 0.13941675424575806, -0.042125869542360306, -0.1419019252061844, 0.02459310181438923, -0.27698978781700134, 0.03779926151037216, 0.04283369705080986, -0.14339973032474518, -0.0229440126568079, 0.14530068635940552, -0.2936837077140808], [-0.04234025627374649, 0.09518133103847504, 0.7599375247955322, 0.025277553126215935, -0.0949278399348259, 0.07325904816389084, -0.05611996725201607, -0.37466731667518616, 0.04745445027947426, 0.30070823431015015, 0.08538287878036499, -0.44489535689353943, -0.44441768527030945, 0.017131250351667404, 0.016342394053936005, 0.021754641085863113, 0.04539530724287033, -0.032575950026512146, -0.05728272721171379, 0.06417127698659897], [-0.0814632773399353, 0.07615737617015839, -0.057326216250658035, 0.04822702333331108, 0.023895855993032455, 0.06929908692836761, -0.01641133241355419, 0.3003711998462677, -0.08178446441888809, 0.14098064601421356, -0.04435855895280838, 0.24184760451316833, -0.04116636887192726, 0.22112326323986053, -0.06534430384635925, -0.019544314593076706, 0.02280636876821518, -0.02446150965988636, 0.1821211725473404, 0.08939498662948608], [-0.01617131195962429, -0.2005605250597, 0.17462944984436035, -0.03561946004629135, -0.02122184820473194, 0.07626762986183167, -0.05470282956957817, 0.09037625789642334, -0.0761859267950058, 0.09695743769407272, 0.01846075989305973, -0.0009527563233859837, -0.0490846261382103, -0.055318549275398254, 0.033930111676454544, 0.0486907921731472, -0.14448022842407227, -0.00014764053048565984, 0.17730818688869476, -0.08710325509309769], [-0.03349927440285683, 0.22654569149017334, 0.2050311267375946, 0.05722641944885254, 0.035107530653476715, 0.01417509000748396, 0.050784844905138016, -0.044705457985401154, -0.06192588061094284, 0.10490590333938599, 0.05766909942030907, 0.055767692625522614, -0.2048478126525879, 0.016300346702337265, -0.010311059653759003, 0.022286012768745422, -0.08999171108007431, 0.02465571090579033, -0.0009505911730229855, 0.1497163623571396], [0.14557510614395142, 0.24987159669399261, -0.0693252757191658, 0.02303292602300644, 0.0022779940627515316, -0.04883967339992523, 0.03280085325241089, 0.052208948880434036, 0.08103514462709427, -0.0494304820895195, -0.015759633854031563, 0.1232411339879036, -0.07576195895671844, 0.02458522655069828, -0.03951242193579674, -0.012501043267548084, 0.08173537254333496, 0.039001964032649994, -0.07007426023483276, 0.02762032300233841], [0.06454659253358841, -0.07725439220666885, 0.239349827170372, 0.020766424015164375, 0.0017698571318760514, -0.1103130355477333, 0.0008236481808125973, 0.07586250454187393, -0.07820890843868256, 0.15081533789634705, -0.04910033196210861, 0.2739812135696411, -0.15550467371940613, -0.061491020023822784, -0.0019710755441337824, 0.036848798394203186, -0.17256265878677368, -0.04030487686395645, -0.05670936778187752, -0.06619270890951157], [-0.01515217311680317, -0.013423780910670757, -0.02368777059018612, 0.01906566135585308, 0.007357360329478979, 0.0733889788389206, -0.028003400191664696, 0.07025259733200073, -0.020543023943901062, 0.0027582221664488316, -0.043490540236234665, 0.005220565013587475, 0.025518514215946198, 0.07352367043495178, 0.04194609448313713, 0.0652928277850151, 0.05166851356625557, 0.009617415256798267, 0.03223111107945442, -0.0034326016902923584], [-0.06575597077608109, -0.10422263294458389, -0.1317324936389923, 0.019247695803642273, -0.03020954318344593, 0.2323634922504425, 0.0682542696595192, 0.03293367847800255, -0.021758195012807846, -0.020225299522280693, -0.01877729967236519, 0.06352359801530838, 0.10609891265630722, 0.09900721162557602, 0.10193653404712677, 0.1828269213438034, -0.03056701086461544, 0.14908276498317719, 0.02367381751537323, -0.005137128289788961], [0.05792148783802986, 0.12041901797056198, 0.11237978935241699, -0.029326671734452248, 0.07115986198186874, 0.013099918141961098, -0.11011847108602524, 0.07278217375278473, 0.05119877681136131, 0.11665643751621246, -0.016161711886525154, -0.03627200052142143, -0.09302244335412979, 0.033597782254219055, 0.013166975229978561, -0.009752366691827774, 0.002998604904860258, 0.011326111853122711, 0.09544936567544937, 0.05126269534230232], [-0.05946280062198639, -0.3308475613594055, -1.2321641445159912, 0.06318081170320511, 0.21285027265548706, -0.21803408861160278, -0.0028747390024363995, 0.16952598094940186, 0.32706302404403687, -0.2077482044696808, 0.32355430722236633, 0.5810874104499817, 1.0472347736358643, -0.06688287109136581, -0.02348036877810955, 0.25047001242637634, 0.310557097196579, -0.20015834271907806, -0.058282990008592606, 0.0008298783795908093], [-0.0493963398039341, -0.5197150111198425, -0.24058641493320465, -0.16297751665115356, 0.04795577749609947, -0.18725013732910156, -0.13548758625984192, 0.232946515083313, -0.257566899061203, 0.11922918260097504, 0.116251640021801, 0.32268789410591125, -0.021379666402935982, -0.23454558849334717, -0.019833864644169807, -0.06746094673871994, -0.10678251087665558, 0.0571281798183918, 0.2297067940235138, -0.18823833763599396], [0.0758061334490776, -0.03873485326766968, 0.8125045895576477, -0.025061123073101044, 0.07225744426250458, 0.09596381336450577, -0.038316760212183, -0.1973588913679123, -0.06162396818399429, 0.33208441734313965, 0.061394043266773224, -0.3694240152835846, -0.47823566198349, -0.0916382297873497, 0.01578577421605587, 0.00807973463088274, -0.12215547263622284, -0.004562830552458763, 0.029805511236190796, -0.0183644387871027], [-0.1427992731332779, -0.045674439519643784, 0.22229976952075958, 0.040233314037323, 0.011354613117873669, 0.08780699968338013, -0.071067675948143, -0.24757027626037598, -0.04325298219919205, 0.2041214555501938, 0.09981855005025864, -0.011297301389276981, -0.21077892184257507, -0.03341764956712723, 0.06610016524791718, 0.033800363540649414, 0.05958356335759163, 0.0026577727403491735, -0.015285834670066833, 0.03187618777155876], [0.08993019163608551, -0.30244144797325134, -0.18228444457054138, -0.14701563119888306, -0.04515659064054489, -0.062486447393894196, 0.04262455925345421, -0.004130748566240072, -0.10605815798044205, -0.006691957823932171, -0.047623105347156525, -0.04624692350625992, 0.22825144231319427, 0.10141079127788544, -0.01241402979940176, -0.12450119853019714, -0.1597631722688675, -0.027721881866455078, -0.07264221459627151, -0.027910878881812096], [0.013145381584763527, 0.13929621875286102, 0.5393329858779907, 0.05290863290429115, 0.019259925931692123, 0.16649118065834045, -0.005718453321605921, -0.06516047567129135, 0.009931566193699837, 0.1505623608827591, -0.007943855598568916, -0.23827096819877625, -0.26425406336784363, 0.11573293060064316, 0.019502811133861542, 0.008579768240451813, 0.028126277029514313, 0.01839716173708439, 0.0036807083524763584, 0.08442966639995575], [0.047093383967876434, 0.03168052062392235, 0.012398344464600086, 0.0944288969039917, 0.043158773332834244, 0.06447327882051468, 0.08368254452943802, 0.06474956125020981, 0.029209310188889503, -0.11737007647752762, -0.021074343472719193, 0.15222838521003723, -0.02911994233727455, 0.027486400678753853, -0.0018903474556282163, 0.033866994082927704, 0.014336157590150833, -0.0002387708955211565, -0.06227254122495651, -0.010425128974020481], [-0.11579861491918564, -0.06127437204122543, -0.24736398458480835, -0.05482427403330803, -0.07767969369888306, -0.06899397820234299, 0.04029850289225578, -0.03711890056729317, -0.04034363478422165, -0.02223852463066578, 0.011395852081477642, 0.04943033680319786, 0.2009028196334839, 0.04989352822303772, 0.0012402529828250408, 0.020121337845921516, -0.041228700429201126, 0.011679203249514103, -0.010410075075924397, 0.05979035422205925], [0.07202612608671188, 0.10934761166572571, 0.7485091090202332, -0.13025641441345215, -0.03523142263293266, 0.06632234156131744, -0.10892746597528458, -0.11529478430747986, -0.11401275545358658, 0.37367814779281616, 0.0604034848511219, -0.21230047941207886, -0.5749963521957397, -0.034914880990982056, 0.06384313851594925, 0.032303497195243835, -0.14519132673740387, -0.1328561007976532, 0.09543269872665405, 0.10523301362991333], [0.11278825253248215, 0.16504795849323273, 0.9544439911842346, -0.02520396001636982, 0.03627833351492882, 0.10690063238143921, -0.22371980547904968, -0.23198221623897552, -0.2263948619365692, 0.38149160146713257, -0.13650979101657867, -0.4227020740509033, -0.6889131665229797, 0.02228569984436035, -0.033250484615564346, -0.11212887614965439, -0.021529296413064003, 0.004032693803310394, -0.008712551556527615, -0.02817334048449993], [-0.030822331085801125, -0.10808857530355453, -0.04411226138472557, -0.09398156404495239, -0.0774604082107544, -0.102533258497715, -0.022269554436206818, -0.2069457620382309, 0.036188531666994095, 0.09643624722957611, 0.0723685696721077, -0.048446331173181534, 0.06410545110702515, -0.3050501048564911, 0.04624994844198227, 0.04388953372836113, -0.1131075993180275, -0.030720099806785583, 0.02738098055124283, -0.16539549827575684], [-0.09369102120399475, 0.0006954721175134182, -0.462787926197052, 0.05495988950133324, -0.15229029953479767, -0.020631249994039536, 0.015489781275391579, 0.02493255026638508, 0.12225993722677231, -0.239353746175766, -0.03150133788585663, 0.14387108385562897, 0.2674972414970398, 0.14047306776046753, 0.03534555435180664, 0.05467643216252327, 0.18125155568122864, -0.015668759122490883, -0.08021900802850723, 0.08017006516456604], [0.11947858333587646, 0.18818399310112, 0.49897053837776184, 0.2893325388431549, 0.19837938249111176, 0.254999041557312, -0.13482223451137543, -0.263083279132843, 0.000417093513533473, 0.2403317093849182, 0.08572244644165039, -0.26591020822525024, -0.592610776424408, -0.07778171449899673, 0.048727065324783325, 0.12183915078639984, -0.04419543966650963, 0.054224688559770584, -0.22239245474338531, 0.19316937029361725], [-0.0994170680642128, -0.11940500885248184, 0.030091335996985435, 0.06025628000497818, -0.05057171732187271, 0.11964771896600723, -0.07747303694486618, 0.005707241129130125, 0.034219443798065186, -0.020623665302991867, 0.03869382664561272, -0.01946125365793705, 0.07949968427419662, 0.01875809021294117, 0.051270537078380585, 0.10055365413427353, 0.048715926706790924, -0.0019675951916724443, 0.13302744925022125, -0.01611984148621559], [-0.12202681601047516, 0.0438125841319561, 0.008286571130156517, 0.24817782640457153, 0.12431038171052933, 0.04518188536167145, 0.1278558224439621, 0.09124119579792023, -0.039366353303194046, 0.016848094761371613, -0.10748928040266037, 0.16136930882930756, -0.2950945496559143, 0.3559360206127167, -0.026180094107985497, 0.07981937378644943, 0.18954616785049438, -0.011999326758086681, -0.0005583860329352319, 0.13880816102027893], [0.1384517252445221, 0.10344919562339783, 0.45776981115341187, 0.04277375340461731, -0.044045597314834595, 0.10616624355316162, 0.07845479995012283, -0.10739122331142426, 0.09657976031303406, -0.017893649637699127, 0.005770629271864891, -0.06715519726276398, -0.2790255546569824, 0.015790250152349472, -0.02263335883617401, -0.02086012065410614, 0.10200861096382141, 0.04685475677251816, -0.2224397510290146, -0.010815326124429703], [-0.10231788456439972, -0.05423799902200699, 0.15766744315624237, 0.1266361027956009, 0.020747538655996323, -0.039900120347738266, -0.28069740533828735, 0.41108354926109314, -0.17162694036960602, 0.14187763631343842, -0.12492061406373978, 0.5500894784927368, -0.1819787174463272, -0.08989793062210083, -0.0030313560273498297, 0.081048384308815, -0.09259692579507828, -0.0034392692614346743, 0.2317192405462265, -0.2286084145307541], [-0.05199632793664932, -0.0365917943418026, 0.07450582087039948, 0.004293710459023714, 0.011902542784810066, 0.10077673941850662, -0.04292016476392746, 0.09289524704217911, -0.05277084931731224, 0.03695221617817879, -0.0695250853896141, -0.05037098377943039, 0.010238977149128914, 0.11237147450447083, 0.05160451680421829, 0.08742738515138626, 0.06520389765501022, 0.010820096358656883, 0.07924644649028778, -0.010993240401148796], [-0.17403966188430786, -0.15025991201400757, 0.22835379838943481, 0.009128096513450146, -0.02697591856122017, 0.3597899079322815, 0.04938982054591179, 0.005323099438101053, -0.09922890365123749, 0.05242110788822174, -0.06817290186882019, -0.1812952607870102, 0.023670490831136703, 0.18549881875514984, 0.1265093833208084, 0.24906522035598755, -0.002057550009340048, 0.18634983897209167, 0.10696716606616974, -0.0001372655970044434], [0.13177722692489624, 0.09335854649543762, 0.1156400516629219, -0.15424129366874695, 0.1662382036447525, -0.17779693007469177, -0.13987354934215546, 0.17415033280849457, 0.013377410359680653, 0.2552065849304199, -0.08845321089029312, -0.1213122010231018, -0.09522143751382828, -0.014441448263823986, -0.03150377795100212, -0.07901574671268463, 0.02218615449965, -0.06748500466346741, 0.013332812115550041, -0.05363444238901138], [0.10670321434736252, 0.12102480977773666, 1.1221511363983154, -0.06909811496734619, -0.061784032732248306, 0.2269507646560669, -0.2689616084098816, -0.37516599893569946, -0.21689072251319885, 0.35973820090293884, -0.2197781503200531, -0.35886138677597046, -0.6871381998062134, 0.07951632887125015, 0.10048305988311768, 0.2078992873430252, -0.2248408943414688, -0.10484245419502258, -0.14044857025146484, -0.01367212738841772], [-0.25390541553497314, -0.002290905686095357, 0.2577784061431885, -0.09090561419725418, -0.00852720346301794, -0.023506546393036842, -0.08678334206342697, -0.005630631931126118, -0.15207472443580627, 0.2323296219110489, 0.10361076146364212, -0.0009224355453625321, -0.1390761435031891, -0.0005387726705521345, 0.059329431504011154, 0.021358581259846687, -0.010377388447523117, -0.05260475352406502, 0.17384496331214905, 0.015729885548353195], [-0.19963163137435913, -0.47920188307762146, -0.21158508956432343, -0.08867859840393066, 0.18773464858531952, -0.06719955801963806, 0.06860151141881943, -0.009101973846554756, -0.22939415276050568, 0.06634747982025146, 0.09163558483123779, -0.07068353146314621, 0.19374829530715942, -0.32028236985206604, 0.019370611757040024, 0.06817924231290817, -0.0837806686758995, 0.035456545650959015, 0.08487293869256973, -0.13947652280330658], [0.03999048098921776, 0.4346141219139099, -0.1369054615497589, 0.13334619998931885, 0.02394542284309864, 0.22440071403980255, 0.010457922704517841, 0.19322596490383148, 0.6204501986503601, 0.16032353043556213, -0.1861252784729004, -0.045784980058670044, 0.00428360840305686, -0.2041705995798111, -0.07341594249010086, 0.11554204672574997, 0.036100223660469055, 0.007857474498450756, -0.17828790843486786, -0.5647873282432556], [-0.4447746276855469, 0.8127460479736328, 0.27753376960754395, -0.6732667684555054, -2.579848527908325, 0.4516005218029022, -0.33290696144104004, 0.0868004709482193, 1.8231651782989502, 0.42007774114608765, -0.14264026284217834, -0.7614402770996094, 0.3732753396034241, 1.1247535943984985, 0.04855102673172951, 0.0553097277879715, -0.33090975880622864, 0.42221012711524963, 1.0434380769729614, -1.7779631614685059], [0.028841659426689148, 0.11943744868040085, 0.08178044110536575, 0.07005545496940613, 0.11876615136861801, 0.26794081926345825, -0.025167226791381836, 0.16607099771499634, 0.002909955568611622, 0.007596789393573999, -0.11902191489934921, -0.08788421005010605, -0.14074091613292694, 0.18408527970314026, 0.030736872926354408, 0.02619708701968193, 0.09269366413354874, 0.015240556560456753, 0.012912589125335217, 0.04642272740602493], [-0.021018043160438538, 0.10956066846847534, -0.0308873001486063, -0.13769641518592834, -0.5447757244110107, 0.03202221170067787, 0.22898632287979126, -0.3062328100204468, 0.5460060834884644, -0.3973008692264557, 0.06406113505363464, 0.3721752464771271, -0.04542600363492966, 0.06312049925327301, 0.04682738333940506, 0.03211919963359833, 0.09499555826187134, -0.08544214069843292, 0.01901061274111271, -0.07239606231451035], [0.527607262134552, 0.18642109632492065, -0.1796160638332367, 0.5541471242904663, -1.223861813545227, -0.6479164361953735, 0.20822909474372864, -0.09383126348257065, -1.3938347101211548, -0.28108730912208557, 0.3925778269767761, 0.5908179879188538, -0.5060245394706726, -0.5084136724472046, -0.12698940932750702, 0.01814919151365757, 0.24846011400222778, -0.17484310269355774, -0.9469819068908691, 0.23193193972110748], [-0.24532154202461243, -0.3614215552806854, 0.24850447475910187, 0.1529470980167389, 0.3454716205596924, 0.3313276469707489, 0.024755312129855156, -0.09494982659816742, -0.1853581666946411, -0.2464955896139145, 0.1763603240251541, 0.32302361726760864, 0.3185415267944336, 0.07449137419462204, 0.101934514939785, 0.06700579822063446, 0.15322618186473846, -0.29923176765441895, 0.006757093593478203, 0.5267248749732971], [0.10786446183919907, 0.1141471117734909, 0.23912610113620758, -0.06766332685947418, -0.4069780111312866, 0.14489828050136566, 0.38239529728889465, -0.04177383333444595, 0.12160547077655792, 0.1377127319574356, -0.04193778336048126, -0.07161162048578262, 0.12903763353824615, 0.1777358055114746, 0.024799183011054993, -0.08987052738666534, -0.13269151747226715, -0.43792834877967834, 0.0106156375259161, -0.34415632486343384], [-0.21938133239746094, -0.491947740316391, -0.2119988352060318, 0.22764895856380463, 0.778296709060669, -0.07724468410015106, 0.07250578701496124, 0.34464722871780396, -0.5605969429016113, -0.091643787920475, -0.15598954260349274, 0.3026933968067169, 0.06334555894136429, -0.2790074050426483, 0.06809016317129135, 0.08748402446508408, 0.007669111713767052, -0.08042184263467789, 0.461260586977005, 0.03207089751958847], [-0.541447639465332, 0.069029800593853, 0.2007354199886322, 0.128011554479599, -0.288936048746109, 0.6528326869010925, -0.6340238451957703, -0.28614872694015503, -0.8095105886459351, 0.29474762082099915, 0.022274719551205635, -0.025611240416765213, 0.2810365855693817, 0.3850918412208557, 0.2503598928451538, 0.20906205475330353, 0.161161407828331, 0.34698396921157837, 0.28210288286209106, 0.022892827168107033], [-0.007251597475260496, -0.3089538514614105, -0.023642638698220253, 0.2065812200307846, 0.7017375230789185, -0.05252653360366821, -0.2800159752368927, -0.1776161789894104, -0.6740673780441284, 0.18463654816150665, 0.28270605206489563, 0.17974993586540222, -0.22944428026676178, -0.3097178041934967, 0.20954711735248566, 0.024742625653743744, -0.08841303735971451, 0.006196644622832537, 0.01863362453877926, 0.6487108469009399], [0.29404202103614807, 0.029502462595701218, -0.08157824724912643, -0.19083403050899506, -0.8035756945610046, 0.12894313037395477, 0.016640203073620796, -0.3093167841434479, 0.38693034648895264, 0.235429048538208, -0.00393345532938838, -0.032373346388339996, -0.25647372007369995, 0.10156344622373581, -0.0059505547396838665, -0.11736512929201126, -0.24872562289237976, 0.043502405285835266, 0.07849960774183273, -0.142130509018898], [0.16560280323028564, 0.4616489112377167, -0.5089251399040222, -0.2381976842880249, -1.0658700466156006, 0.03627094626426697, 0.21955449879169464, 0.08233395218849182, 0.8252824544906616, -0.18166197836399078, 0.024656472727656364, -0.03165854886174202, -0.35152316093444824, 0.2481626272201538, 0.1965050995349884, 0.033802580088377, 0.026763075962662697, -0.11375356465578079, 0.0477510541677475, -0.5668647289276123], [-0.2782544195652008, -0.2847900390625, -0.06446754932403564, 0.07443919777870178, 0.11766525357961655, -0.20463241636753082, 0.13866442441940308, -0.08451393991708755, -0.23985746502876282, -0.03655766323208809, -0.0037892614491283894, -0.010395507328212261, 0.22058719396591187, 0.030986523255705833, 0.022378508001565933, 0.018965531140565872, 0.04088437184691429, 0.2179698497056961, 0.022757351398468018, 0.0907929316163063], [-0.14230100810527802, 0.6749207973480225, 0.06499708443880081, -0.10540695488452911, -0.09528781473636627, 0.38640329241752625, 0.3063587546348572, 0.1152678057551384, 1.002071738243103, 0.44106820225715637, -0.6345523595809937, -0.5037927031517029, 0.47985756397247314, 0.1069774180650711, -0.13841237127780914, 0.18229979276657104, -0.16441594064235687, -0.1378416270017624, 0.46290841698646545, -0.9477726817131042], [0.17926454544067383, -0.23052604496479034, -0.11848815530538559, -0.1328120231628418, -0.13121512532234192, 0.20915067195892334, -0.16450437903404236, -0.17422738671302795, -0.1719704419374466, -0.1612410992383957, -0.007897915318608284, 0.1550106555223465, -0.31707763671875, 0.30804890394210815, 0.08985142409801483, 0.21615374088287354, -0.004346783272922039, -0.03325823321938515, -0.06180601194500923, 0.16076497733592987], [-0.11171472817659378, -0.08512882888317108, 0.07665016502141953, 0.05466768145561218, 0.1572611927986145, 0.18777623772621155, 0.05233185738325119, -0.09600409120321274, -0.07477068901062012, -0.16418690979480743, -0.07161524891853333, 0.20316074788570404, -0.06222010403871536, 0.16899175941944122, 0.22992604970932007, 0.31116345524787903, 0.11724282801151276, 0.24062493443489075, -0.10634057223796844, 0.008268658071756363], [0.022703828290104866, 0.31244227290153503, -0.03936288505792618, -0.11129291355609894, -0.14642131328582764, 0.029909102246165276, -0.2532678544521332, -0.22687508165836334, -0.19089195132255554, -0.10516470670700073, 0.10408566892147064, -0.33421269059181213, 0.14512673020362854, 0.3918003439903259, 0.033067166805267334, -0.20518648624420166, 0.1701459139585495, -0.004951819311827421, 0.014154596254229546, 0.42743009328842163], [-0.312915176153183, -0.45882755517959595, 0.36845070123672485, 0.2574378550052643, -0.2095162272453308, 0.3412643074989319, 0.2630058825016022, -0.2134254276752472, -0.16419266164302826, 0.08327903598546982, 0.015694841742515564, -0.12910661101341248, -0.004058438818901777, -0.13483494520187378, -0.023384559899568558, 0.07569971680641174, -0.31251060962677, 0.333783894777298, 0.10007213801145554, 0.01645762473344803], [0.059707820415496826, -0.19424962997436523, -0.060033176094293594, -0.023786958307027817, 0.6127804517745972, 0.09888973087072372, -0.37610679864883423, 0.23729611933231354, -0.5209341645240784, 0.34716394543647766, -0.02421848103404045, -0.1775362640619278, -0.013872591778635979, -0.1798962503671646, -0.19064374268054962, -0.21836154162883759, -0.1449546217918396, 0.022021107375621796, 0.14221058785915375, 0.10674755275249481], [0.5881435871124268, 0.7076294422149658, -0.1709786206483841, -0.2810872197151184, -2.2961602210998535, -0.45711690187454224, 0.17329192161560059, -0.29781949520111084, 0.5082993507385254, -0.3343004584312439, 0.3176020085811615, 0.2124965637922287, -0.5875188708305359, 0.5279390811920166, -0.19979698956012726, -0.11915764212608337, -0.4736948609352112, -0.30044499039649963, -0.5937017202377319, -1.4445116519927979], [-0.08074550330638885, -0.025684339925646782, 0.20784622430801392, 0.03391142562031746, 0.09326311945915222, 0.06522975116968155, -0.07478073984384537, -0.33305907249450684, -0.07214240729808807, 0.22489848732948303, 0.14337019622325897, -0.008924666792154312, -0.21866804361343384, -0.128251314163208, 0.026904379948973656, 0.0629945695400238, -0.16159650683403015, 0.09414460510015488, -0.06908392906188965, 0.2122984677553177], [-0.3902731239795685, 0.006278156768530607, 0.4867541790008545, -0.23244492709636688, -0.05534355342388153, -0.1284683793783188, -0.07778003811836243, -0.7239809036254883, -0.14931470155715942, 0.447130024433136, 0.1585916429758072, -0.8331109285354614, -0.10243132710456848, 0.004420304670929909, -0.028002437204122543, -0.08166270703077316, 0.2144564986228943, -0.04171447083353996, -0.07256441563367844, 0.2061154693365097], [-0.13417907059192657, -0.1829766035079956, 0.5796316862106323, -0.01139269769191742, -0.064585380256176, 0.2340894639492035, 0.0024972667451947927, -0.21300044655799866, -0.11694183200597763, 0.04378867521882057, -0.0388166643679142, -0.04983856528997421, -0.47940877079963684, 0.09097892045974731, 0.005784057546406984, 0.0377473458647728, -0.12032506614923477, 0.0075797997415065765, 0.001723965280689299, -0.05345594510436058], [0.024565069004893303, 0.020517569035291672, 0.32300353050231934, 0.013932030647993088, 0.08435153216123581, 0.10231693089008331, 0.029566852375864983, -0.04286811128258705, -0.06055472046136856, 0.07213301211595535, 0.009957258589565754, -0.08820952475070953, -0.1846555918455124, -0.039664193987846375, 0.009701233357191086, 0.018177984282374382, -0.06088772043585777, 0.013935023918747902, 0.037051714956760406, -0.017932122573256493], [0.03155830502510071, -0.03766356781125069, 0.7786334753036499, -0.041407328099012375, 0.049506526440382004, 0.06453770399093628, -0.04278045520186424, -0.24138151109218597, -0.08565977215766907, 0.3343983292579651, 0.049669548869132996, -0.36283475160598755, -0.4593706727027893, -0.06857435405254364, 0.01262580044567585, 0.007411111146211624, -0.1204739362001419, -0.006138764321804047, 0.007755274884402752, 0.017810804769396782], [-0.14187267422676086, -0.0541619211435318, 0.16428492963314056, -0.013013150542974472, 0.021106403321027756, 0.11455253511667252, -0.06131220981478691, 0.0025641084648668766, -0.20111435651779175, -0.0050630415789783, -0.09125760942697525, 0.16582167148590088, -0.014733565039932728, 0.02192566730082035, 0.08621235936880112, 0.18141913414001465, 0.021091828122735023, -0.03739592060446739, 0.08478554338216782, 0.03052552416920662], [0.12805552780628204, 0.10144323855638504, 0.25916415452957153, 0.05869108438491821, 0.019404258579015732, 0.10827882587909698, -0.05305153876543045, 0.015130317769944668, -0.010171136818826199, 0.17083905637264252, 0.07231119275093079, 0.030624886974692345, -0.16355830430984497, -0.027752932161092758, 0.029956551268696785, -0.010192166082561016, 0.03408140316605568, 0.10015341639518738, 0.03488040715456009, -0.005420508794486523], [-0.13567231595516205, -0.5399180054664612, 0.06333346664905548, -0.2178250402212143, -0.023626428097486496, 0.002505525015294552, 0.07220519334077835, -0.06645997613668442, -0.1479547768831253, 0.16264542937278748, -0.027503471821546555, -0.1257437765598297, 0.06139509379863739, -0.22119508683681488, 0.0263216570019722, 0.01783778704702854, -0.23301173746585846, -0.059572476893663406, 0.22874289751052856, -0.23849281668663025], [-0.6115298867225647, -0.2809411883354187, 0.5316663384437561, -0.31803736090660095, 0.05912657082080841, -0.01286077219992876, -0.03874388337135315, -0.4286758303642273, -0.2883986234664917, 0.35563960671424866, -0.11059673130512238, -1.3332315683364868, 0.029352523386478424, 0.3066420257091522, -0.04567693918943405, -0.01486970204859972, 0.3650355339050293, 0.0002123666781699285, 0.238752081990242, 0.10872336477041245], [-0.09098461270332336, -0.15162988007068634, 0.21643519401550293, -0.0826028436422348, 0.23838356137275696, 0.06890702247619629, -0.168929323554039, 0.07273747771978378, -0.33057406544685364, 0.27969303727149963, -0.034350957721471786, -0.045820143073797226, -0.15663163363933563, -0.04550259932875633, -0.0823575034737587, -0.05818464979529381, -0.31364020705223083, 0.017648285254836082, 0.19134387373924255, 0.08217328041791916], [-0.007890501990914345, -0.2140960544347763, 0.1985182762145996, 0.014102989807724953, 0.003357286099344492, 0.05687343329191208, -0.044813983142375946, 0.08233696967363358, -0.06137159839272499, 0.10070127248764038, 0.0452362596988678, 0.0788666307926178, -0.08377061039209366, -0.1117820292711258, 0.012915100902318954, 0.03509991988539696, -0.17955371737480164, -0.00040870002703741193, 0.1478138417005539, -0.09810604900121689], [-0.0120499636977911, 0.008967428468167782, 0.4731888175010681, 0.0519411563873291, 0.046310681849718094, 0.06637869030237198, -0.0033133153337985277, -0.03155921399593353, -0.14421245455741882, 0.1216987892985344, -0.006373477168381214, -0.03364467993378639, -0.32511916756629944, 0.011046113446354866, -0.021175237372517586, -0.004667145665735006, -0.10166562348604202, -0.00806352123618126, 0.01341014914214611, 0.04895684868097305], [0.20281776785850525, 0.2434515804052353, 0.04961201921105385, 0.06327109038829803, -0.13019205629825592, -0.018081899732351303, 0.1464890092611313, -0.037846215069293976, 0.2608221173286438, -0.007163727656006813, 0.02837706357240677, 0.41022223234176636, -0.4443928599357605, -0.1637696474790573, 0.0332643948495388, 0.025561731308698654, -0.10162989050149918, 0.27102136611938477, -0.049390386790037155, -0.2278377115726471], [0.0743267610669136, -0.08830229938030243, 0.3680232763290405, 0.016717582941055298, 0.06578759104013443, -0.11283741146326065, 0.004554146900773048, 0.14321312308311462, -0.13810886442661285, 0.17478451132774353, -0.05347965285181999, 0.19762228429317474, -0.210534930229187, -0.09815845638513565, -0.014484899118542671, 0.014818616211414337, -0.27048879861831665, -0.03464940935373306, -0.02983633428812027, -0.06811435520648956], [-0.008499962277710438, -0.041862815618515015, 0.009541470557451248, 0.02127247303724289, 0.006602390203624964, 0.08396613597869873, -0.03446014225482941, 0.07203397899866104, -0.023541320115327835, -0.00591006176546216, -0.05221235007047653, 0.0018374929204583168, 0.01588972471654415, 0.05932620167732239, 0.045288607478141785, 0.07300344109535217, 0.047332968562841415, 0.011258618906140327, 0.028604498133063316, -0.03245896100997925], [-0.10961063206195831, -0.05962137132883072, 0.030904719606041908, 0.06919923424720764, -0.02242721989750862, 0.26011329889297485, 0.016445942223072052, -0.04918462783098221, 0.0001350674865534529, -0.006842258386313915, -0.02131737768650055, -0.027233708649873734, 0.04424506053328514, 0.10504268854856491, 0.11402398347854614, 0.20916049182415009, 0.05809769406914711, 0.1491539180278778, 0.0022656049113720655, -0.006981289014220238], [0.06765024363994598, 0.18550337851047516, 0.08597313612699509, -0.055113498121500015, 0.0285333264619112, 0.06363195180892944, -0.09826253354549408, 0.10140736401081085, 0.0927521288394928, 0.06627269089221954, -0.049548693001270294, -0.05211072042584419, -0.01970335654914379, 0.1318741738796234, 0.028907595202326775, -0.006245987024158239, 0.014602294191718102, 0.011814267374575138, 0.1189890205860138, 0.04798480495810509], [-0.0733117014169693, 0.002555103274062276, -0.015943404287099838, -0.06948885321617126, -0.003914874047040939, -0.08010882884263992, -0.23467163741588593, -0.05650263652205467, -0.07377664744853973, 0.2191874235868454, -0.04040702059864998, 0.0954623743891716, -0.03414050117135048, -0.0018377339001744986, 0.018604326993227005, 0.07709350436925888, 0.000729740655515343, -0.010823186486959457, 0.07622798532247543, 0.033659350126981735], [-0.046286601573228836, -0.32050105929374695, 0.24052758514881134, -0.08291133493185043, 0.1768305003643036, -0.05310214310884476, -0.0753491222858429, 0.05615108460187912, -0.2526493966579437, 0.2794216275215149, 0.10901828110218048, 0.008780451491475105, -0.18636281788349152, -0.20203107595443726, -0.0021251854486763477, 0.013139561749994755, -0.2605823576450348, 0.03151693195104599, 0.1209397092461586, 0.058138590306043625], [0.05953994393348694, -0.060427360236644745, 0.8350152969360352, -0.03608955070376396, 0.08654237538576126, 0.08418115973472595, -0.03418497368693352, -0.18355625867843628, -0.08166872709989548, 0.3559004068374634, 0.057531554251909256, -0.3970505893230438, -0.4813263714313507, -0.09924294054508209, 0.012324824929237366, 0.002686457009986043, -0.12603339552879333, -0.008031037636101246, 0.04790881276130676, -0.02748052030801773]], "rec.bias_ih_l0": [-0.05815473571419716, 0.9309095740318298, 0.1250695139169693, 0.33392953872680664, 0.8673969507217407, -0.4471716284751892, -0.6448164582252502, 0.06661692261695862, 0.8443434238433838, -0.10392045229673386, 0.19862216711044312, 0.4628460109233856, -0.1347844898700714, 0.35077691078186035, -0.030551820993423462, -0.1862156093120575, 0.11867870390415192, -0.8277486562728882, -0.11118528991937637, 0.9242892861366272, 0.3248366117477417, -0.2933495342731476, 0.5207487344741821, -0.0025294332299381495, -0.29364871978759766, 0.8897802829742432, 1.18317449092865, -0.08699896931648254, -0.544822633266449, 0.49618300795555115, 0.026919493451714516, 0.14471843838691711, 0.4684416651725769, 0.19135715067386627, 0.0825151652097702, 0.22544023394584656, 0.127827450633049, 1.455720067024231, 0.38034990429878235, -0.3660050928592682, 0.06368599086999893, -0.08967835456132889, 0.29834479093551636, 0.133426696062088, -0.07332127541303635, 0.019296793267130852, -0.1265777051448822, -0.29686298966407776, -0.20763640105724335, 0.014965920709073544, -0.1429484784603119, 0.05862394720315933, -0.19475454092025757, -0.03204215317964554, 0.1367175579071045, 0.014941549859941006, -0.17672228813171387, -0.14747218787670135, -0.07543577253818512, 0.09839373081922531, 0.21959975361824036, 0.6291540265083313, 0.6626660227775574, 0.3598769009113312, 0.8707009553909302, 0.17315712571144104, 0.31628724932670593, 0.08587723970413208, 0.5718942880630493, 0.1371992826461792, 0.22725559771060944, 0.6771664023399353, 0.17392094433307648, 0.4841066002845764, 0.009205883368849754, 0.009805833920836449, 0.0785396546125412, 0.14603380858898163, 0.30932721495628357, 0.9502255320549011], "rec.bias_hh_l0": [-0.055151741951704025, 0.9309101700782776, 0.12327037006616592, 0.3339387774467468, 0.8673969507217407, -0.5367010235786438, -0.778972327709198, 0.07905062288045883, 0.8443434238433838, -0.08942186087369919, 0.19463597238063812, 0.4018401801586151, -0.0685100182890892, 0.37494343519210815, -0.031125830486416817, -0.17916133999824524, 0.11479751765727997, -0.8442211747169495, -0.19651362299919128, 0.9242631196975708, 0.203027606010437, -0.3335893750190735, 0.564534068107605, -0.003145338734611869, -0.29364874958992004, 0.8624542951583862, 1.1028934717178345, -0.0649973675608635, -0.5446871519088745, 0.3138398230075836, 0.0201873816549778, 0.27274462580680847, 0.42341479659080505, 0.13090640306472778, 0.08272197097539902, 0.21897755563259125, 0.12738679349422455, 1.2444006204605103, 0.3107142746448517, -0.3246399164199829, 0.04126093164086342, -0.11203369498252869, 0.3427947163581848, 0.04819023609161377, 0.1547311395406723, 0.17200161516666412, -0.11855146288871765, -0.1913621723651886, 0.02260046824812889, -0.0310932919383049, -0.029237382113933563, -0.06129399314522743, -0.3073646128177643, -0.04441794753074646, -0.14157257974147797, -0.017891695722937584, -0.02309940755367279, -0.2294502556324005, -0.07306278496980667, -0.12126517295837402, 0.19381526112556458, 0.6297222971916199, 0.6504173874855042, 0.35987618565559387, 0.8707009553909302, 0.18814235925674438, 0.36701852083206177, 0.07119433581829071, 0.5719123482704163, 0.13080108165740967, 0.22902320325374603, 0.6348314881324768, 0.12201632559299469, 0.4827418625354767, 0.008713997900485992, 0.007040906231850386, 0.08150121569633484, 0.29207438230514526, 0.3001864552497864, 0.9501461386680603], "lin.weight": [[0.34938329458236694, 1.897311806678772, -0.3317743241786957, -0.6433548927307129, -1.334720253944397, 0.12130985409021378, 0.23619145154953003, 0.3559126555919647, 2.097583293914795, 0.439781129360199, -0.6854264140129089, -0.6435064673423767, 0.27606111764907837, -0.49401381611824036, -0.2348136305809021, 0.08855897188186646, -0.07340412586927414, 0.43191269040107727, 0.20469874143600464, -2.7901816368103027]], "lin.bias": [0.09549009799957275]}}