{"model_data": {"model": "SimpleRNN", "input_size": 1, "skip": 1, "output_size": 1, "unit_type": "LSTM", "num_layers": 1, "hidden_size": 32, "bias_fl": true}, "state_dict": {"rec.weight_ih_l0": [[0.056217923760414124], [0.01114441454410553], [-0.054762765765190125], [0.025347944349050522], [0.001275781192816794], [0.007569584995508194], [-0.03090112842619419], [0.016688959673047066], [-0.05034881457686424], [0.0021447117906063795], [0.04224651679396629], [0.01842627115547657], [-0.02538788691163063], [-0.013071799650788307], [-2.95220179395983e-05], [-0.0009686195990070701], [0.004257246386259794], [-0.04684260115027428], [-0.01665864884853363], [0.00033871986670419574], [-0.00030390272149816155], [-0.046388957649469376], [0.003902099095284939], [0.035207558423280716], [0.04212735965847969], [-0.03308657184243202], [0.0029987050220370293], [-0.011901529505848885], [0.01616821065545082], [0.10439415276050568], [0.004845025483518839], [0.031218843534588814], [-0.1279158592224121], [0.007962069474160671], [0.0007005370571278036], [0.018936414271593094], [0.001318439724855125], [-0.048256389796733856], [-0.05605473741889], [-0.02497314102947712], [-0.05825988948345184], [0.03494200110435486], [-0.01925092563033104], [-0.028137171640992165], [-0.02734503336250782], [-0.010901203379034996], [-1.907766636577435e-05], [0.07714767754077911], [0.01518454309552908], [-0.006742614321410656], [-0.019734852015972137], [0.0003273713227827102], [0.06605144590139389], [-0.011218835599720478], [-0.04079752787947655], [0.166395902633667], [0.02676195278763771], [-0.100151926279068], [0.0011512748897075653], [-0.014967650175094604], [0.029497778043150902], [0.08367890119552612], [-0.007510398048907518], [0.08894436061382294], [0.31975799798965454], [0.3570251166820526], [-0.19324065744876862], [0.4047642946243286], [0.005020915064960718], [-2.034282922744751], [-0.19593483209609985], [-6.062193393707275], [0.1384260505437851], [-0.26778197288513184], [0.14011317491531372], [4.490649223327637], [0.045262835919857025], [-0.17994095385074615], [-6.392398790922016e-05], [0.12578262388706207], [0.03527839109301567], [-0.21518725156784058], [0.029622230678796768], [0.021035226061940193], [-0.3061124086380005], [0.09822505712509155], [0.6602796912193298], [-2.8092031478881836], [-0.15948066115379333], [0.4217700660228729], [0.14174461364746094], [0.02795584499835968], [0.023225361481308937], [-0.19239120185375214], [-0.15731856226921082], [0.39580923318862915], [0.01218788605183363], [0.011842724867165089], [-0.04460156336426735], [0.01886315643787384], [0.0005473978817462921], [0.00404482102021575], [-0.047253772616386414], [-0.04775608703494072], [-0.10306420922279358], [-0.044907476752996445], [0.035611990839242935], [0.310689777135849], [0.005102391820400953], [-0.016707347705960274], [-5.072478961665183e-05], [0.03130310773849487], [0.03437001630663872], [0.023306258022785187], [-0.04381795600056648], [0.0004889837000519037], [0.10144776105880737], [-0.04318014532327652], [0.0058484673500061035], [0.044505201280117035], [0.05789714306592941], [-0.06413871049880981], [0.023142997175455093], [-0.012915040366351604], [0.09999953955411911], [0.2438625693321228], [0.027224257588386536], [0.07048449665307999]], "rec.weight_hh_l0": [[-0.13529939949512482, -0.019091013818979263, -0.004145825281739235, -0.05206362158060074, 0.01346783246845007, -0.0004743527970276773, 0.09747473150491714, -0.09147094935178757, 0.004205191042274237, 0.0010256882524117827, 0.006251501385122538, 0.15634936094284058, -0.11406268179416656, -0.17192137241363525, -0.00030861416598781943, 0.21742287278175354, -0.20672591030597687, 0.008987106382846832, 0.05472618341445923, -0.001464092405512929, -0.09899283945560455, -0.024958807975053787, 0.001868961495347321, 0.10100214183330536, 0.059765882790088654, -0.08386345952749252, -0.0007092906744219363, -0.06248823180794716, 0.17805929481983185, -0.04898194968700409, 0.04659838229417801, 0.07909230142831802], [-0.24537858366966248, 0.002523590112105012, 0.01265312172472477, -0.05399581789970398, 0.014661583118140697, -0.0013027131790295243, 0.1748197227716446, 0.015134142711758614, 0.01630968414247036, 0.01679079979658127, 0.004349418915808201, 0.009808268398046494, -0.19813169538974762, -0.16102334856987, -0.000446356920292601, 0.25458648800849915, -0.2671656608581543, 0.00340071227401495, -0.04524197056889534, -0.0007939630886539817, -0.1547052264213562, -0.014913823455572128, -0.00884347502142191, -0.008667022921144962, 0.004284210503101349, -0.03448811173439026, -0.02038544975221157, -0.09095270931720734, 0.20044371485710144, 0.06624959409236908, 0.02166142500936985, 0.035429906100034714], [0.25427088141441345, 0.02012866549193859, -0.0151996910572052, -0.06389599293470383, -0.009887310676276684, 0.07933612167835236, -0.25587698817253113, -0.02939341962337494, 0.090343177318573, -0.09030720591545105, 0.07402472198009491, 0.11068854480981827, 0.4310387670993805, 0.3703621029853821, -0.00046166381798684597, -0.40337955951690674, 0.6308395862579346, 0.01629985310137272, 0.008861199021339417, -0.003838897682726383, 0.08482054620981216, 0.014936688356101513, -0.009978805668652058, -0.008032507263123989, 0.03255743160843849, -0.024456007406115532, -0.07292071729898453, 0.006433838978409767, -0.38408327102661133, 0.0327020101249218, -0.04663628339767456, -0.15464310348033905], [-0.03426682576537132, -0.005317389965057373, 0.05598738044500351, 0.044199138879776, 0.005780450534075499, -0.016511425375938416, 0.03025214560329914, -0.08248712867498398, 0.03966950625181198, -0.0186141487210989, -0.012423458509147167, 0.08596206456422806, -0.040384095162153244, -0.10225285589694977, 0.0013870852999389172, 0.10296177864074707, -0.1070050522685051, 0.050051525235176086, 0.026655178517103195, -0.0038901427760720253, 0.027705207467079163, -0.020887775346636772, 0.009463643655180931, 0.011067633517086506, -0.011049906723201275, -0.06316374987363815, 0.03140495344996452, -0.02389105036854744, 0.08994307368993759, -0.038094326853752136, 0.01342841424047947, 0.027584796771407127], [-0.003394798841327429, -0.0005103194853290915, -0.0013432485284283757, -0.001441036001779139, -0.00030729861464351416, -0.001215094467625022, 0.0040026213973760605, -0.002915948163717985, 0.0018514604307711124, 0.0022930570412427187, -0.0008772239671088755, 0.008149167522788048, -0.0048612006939947605, -0.005627760197967291, -0.0003281972894910723, 0.005028675775974989, -0.006937687285244465, -0.003949325066059828, -0.001155336620286107, 0.00032201941940002143, -0.00528255058452487, -0.0005612551467493176, 0.0041431584395468235, 0.0003322582342661917, 0.0008425753330811858, 0.0011350726708769798, 0.002829733770340681, 0.0011020423844456673, 0.0034223769325762987, -0.002905772067606449, -0.00478338822722435, 0.0023137114476412535], [-0.3034420907497406, 0.0023295218124985695, 0.014827074483036995, -0.06942742317914963, 0.01952953077852726, 0.009879838675260544, 0.23776806890964508, 0.028755895793437958, 0.004996038042008877, 0.022844288498163223, 0.012536665424704552, 0.01212764997035265, -0.2635602653026581, -0.21443207561969757, -0.00048238373710773885, 0.3440590500831604, -0.3642085790634155, 0.012513088062405586, -0.04823087155818939, -0.0009730500169098377, -0.2133753001689911, -0.02524254284799099, -0.013632618822157383, -0.0032391599379479885, 0.00572569016367197, -0.04459546133875847, -0.02581571415066719, -0.12347391992807388, 0.2802883982658386, 0.07304288446903229, 0.03293146565556526, 0.057900574058294296], [-0.0934133231639862, 0.008433631621301174, 0.019009055569767952, -0.02981872856616974, 0.006092189345508814, 0.028948020190000534, 0.08500194549560547, 0.021170563995838165, 0.01505570113658905, 0.011530736461281776, 0.057002585381269455, 0.023076696321368217, -0.07287206500768661, -0.052165426313877106, 1.1818752682302147e-05, 0.09081394225358963, -0.101854108273983, 0.013034324161708355, -0.02444123663008213, -0.0006555583095178008, -0.011465823277831078, -0.003233254887163639, -0.0035230512730777264, -0.0005628528888337314, 0.0005191933014430106, -0.017240284010767937, -0.02143087238073349, -0.037058211863040924, 0.0862698033452034, 0.011417307890951633, -0.025110699236392975, -0.0033488052431493998], [-0.5557897686958313, 0.01337711326777935, 0.007577068172395229, -0.10123871266841888, 0.029929449781775475, 0.0022882979828864336, 0.37475675344467163, 0.025581156834959984, 0.10847139358520508, -0.0013565036933869123, 0.0171202402561903, -0.06164929270744324, -0.3948598802089691, -0.4130474030971527, -0.00024672452127560973, 0.5192952752113342, -0.5140007138252258, 0.012733850628137589, -0.055810943245887756, -0.0008289016550406814, -0.23258431255817413, -0.021068116649985313, -0.04886762797832489, -0.03618663549423218, 0.04295791685581207, -0.12201007455587387, -0.07439921796321869, -0.19183139503002167, 0.3733760416507721, 0.2643694281578064, 0.09859199076890945, 0.0290824007242918], [-0.08211740851402283, -0.00958920642733574, -0.020360669121146202, 0.013761560432612896, 0.007659620605409145, 0.04407510161399841, 0.02802577242255211, 0.060393087565898895, -0.022284626960754395, 0.11582668870687485, 0.012757224030792713, -0.06287205964326859, -0.06588566303253174, 0.134600430727005, 0.0007772068493068218, 0.04325808212161064, -0.05864710360765457, 0.01277997251600027, -0.039507631212472916, -0.0022134080063551664, 0.03995894268155098, 0.02040569856762886, 0.021274356171488762, -0.06207207590341568, 0.00466862041503191, 0.02984614484012127, 0.09130385518074036, -0.02961438149213791, 0.03717458248138428, -0.014547164551913738, -0.054960884153842926, 0.030062343925237656], [0.0161754097789526, -0.002941560000181198, 0.023194853216409683, 0.0031461799517273903, 0.011863372288644314, 0.00613757548853755, -0.041137538850307465, 0.009111200459301472, 0.06841724365949631, -0.1303810477256775, -0.171403169631958, 0.1138649508357048, 0.02868960052728653, 0.07243403047323227, -0.00010264693992212415, 0.0004497608169913292, -0.017299439758062363, -0.026026373729109764, -0.11137422174215317, 0.00186401407700032, 0.005259485449641943, -0.007868755608797073, -0.02954988367855549, -0.01405629888176918, -0.05559604614973068, -0.059295810759067535, 0.019386526197195053, -0.02115332894027233, 0.03362235426902771, -0.0500217080116272, -0.10134652256965637, -0.03408809378743172], [0.3550301790237427, 0.0009933843975886703, -0.001746996073052287, -0.01893845573067665, 0.008818738162517548, -0.0594915933907032, -0.257215291261673, -0.16754065454006195, -0.04030994325876236, 0.00893496349453926, 2.9693332180613652e-05, 0.12059503048658371, 0.36427736282348633, 0.40460342168807983, -0.002936686621978879, -0.6394057273864746, 0.5741222500801086, -0.07355927675962448, 0.08442429453134537, 0.005714274011552334, 0.0820091962814331, -0.02801775559782982, 0.15740074217319489, -0.015355219133198261, -0.07231422513723373, 0.08221075683832169, 0.016676703467965126, -0.007813368923962116, -0.4347790777683258, 0.24763177335262299, 0.019932053983211517, 0.009588862769305706], [-0.5648180246353149, 0.02992234192788601, 0.021587589755654335, -0.1105942577123642, 0.028699029237031937, -0.03064042143523693, 0.38011687994003296, -0.02310730703175068, 0.10150355100631714, -0.04293704777956009, 0.030697382986545563, -0.02938799187541008, -0.36770710349082947, -0.4012494683265686, -0.0005799910868518054, 0.46650558710098267, -0.4491758644580841, 0.0468953475356102, -0.07174385339021683, -0.0007753691170364618, -0.17505498230457306, -0.03171868622303009, -0.0025569447316229343, -0.015190403908491135, 0.05110601335763931, -0.11374329030513763, -0.10867570340633392, -0.16033223271369934, 0.3235529959201813, 0.3583078682422638, 0.09869848936796188, -0.0044883484952151775], [-0.006904609501361847, -0.0025637997314333916, -0.04390191286802292, 0.006632049567997456, -0.0026381965726614, 0.032707978039979935, 0.09411007910966873, 0.08023197203874588, -0.065454863011837, 0.11286279559135437, 0.017808444797992706, -0.19004563987255096, -0.16669026017189026, 0.022592119872570038, 0.0010518411872908473, 0.01800599694252014, 0.13097895681858063, 0.03803743049502373, -0.06017705425620079, -0.0025614574551582336, 0.033858876675367355, 0.010523336008191109, 0.017860397696495056, 0.009012436494231224, -0.009535156190395355, 0.09149563312530518, 0.02096206694841385, -0.008901870809495449, -0.16038565337657928, -0.024799926206469536, 0.002836769912391901, 0.018525276333093643], [-0.18853555619716644, 0.001258050324395299, -0.0017057937802746892, 0.0010196587536484003, 0.00806137453764677, -0.00944445189088583, 0.14100174605846405, 0.016068467870354652, 0.030565494671463966, 0.03427683934569359, 0.022919699549674988, -0.10058951377868652, -0.16124379634857178, -0.06639374792575836, 5.462490662466735e-06, 0.20268592238426208, -0.20221950113773346, 0.02308141253888607, -0.0006708943983539939, -0.0011063864221796393, -0.02852630987763405, -0.002747032092884183, -0.008428854867815971, -0.047518160194158554, 0.002574234502390027, -0.022958902642130852, -0.005153262056410313, -0.05877019092440605, 0.1332709640264511, 0.052939411252737045, 0.037054434418678284, 0.0197460800409317], [-0.00039404924609698355, 1.3319421441337909e-06, -6.107261287979782e-05, -0.00012293180043343455, -5.052195047028363e-05, -3.3060694022424286e-06, 0.0003015811089426279, 9.243976819561794e-05, 5.5030752264428884e-05, 7.815987919457257e-05, -7.824278873158619e-05, -0.00023279200831893831, -0.0003351121849846095, -0.00019453713321126997, 2.123788362951018e-07, 0.0003825813764706254, -0.0003997783933300525, 2.9214001187938266e-05, -0.0001738082355586812, -1.7025164424921968e-06, -0.00014510219625663012, 7.15659698471427e-05, -1.9405033526709303e-05, -0.00010815471614478156, -9.462135494686663e-06, 4.601174805429764e-05, -3.371651109773666e-05, -0.00010866532102227211, 0.00023415310715790838, 0.00010095210745930672, -4.433216236066073e-05, -7.659629773115739e-05], [-0.1193702444434166, 0.007993990555405617, 0.009070992469787598, -0.018641246482729912, 0.004984382074326277, -0.012348086573183537, 0.07433842122554779, 0.02543620392680168, -0.024061841890215874, 0.025495203211903572, -0.014470190741121769, -0.04335617274045944, -0.10892581939697266, -0.06347184628248215, 2.180675437557511e-06, 0.11319325864315033, -0.14272645115852356, 0.025171728804707527, -0.03302130475640297, -0.0009358818642795086, -0.08573513478040695, -0.023668119683861732, -0.003952581901103258, -0.017819387838244438, -0.002878882922232151, 0.009621518664062023, -0.0009868780616670847, -0.037294261157512665, 0.08876554667949677, 0.014918239787220955, 0.019071754068136215, 0.021091504022479057], [-0.08115289360284805, -0.009335879236459732, -0.03170204162597656, 0.004262023605406284, 0.0052017164416611195, 0.013908224180340767, 0.052316006273031235, -0.0008417456992901862, -0.0012726878048852086, 0.03384740650653839, 0.04450114816427231, -0.010465738363564014, -0.061804331839084625, -0.04527149349451065, -7.831928814994171e-05, 0.08581303805112839, -0.09184824675321579, -0.01985168643295765, 0.016948826611042023, 9.105836215894669e-05, -0.04037240892648697, -0.003136409679427743, 0.006463749334216118, -0.005494139157235622, 0.0009450048673897982, -0.01284076739102602, 0.010009451769292355, -0.02110850065946579, 0.061221666634082794, 0.0011516595259308815, -0.014533826150000095, 0.020412277430295944], [0.39450955390930176, -0.012725790962576866, -0.06757692247629166, 0.02739281952381134, -0.00562316132709384, -0.019572358578443527, -0.1702159196138382, -0.035483550280332565, -0.11555372178554535, 0.08666429668664932, -0.025944769382476807, 0.14247916638851166, 0.16238145530223846, 0.2569107413291931, -0.0021821765694767237, -0.44656574726104736, 0.2667032480239868, -0.025829454883933067, -0.008519786410033703, 0.008590860292315483, 0.18037822842597961, -0.09846723824739456, -0.019977549090981483, 0.14920169115066528, -0.08550594747066498, 0.13346953690052032, -0.0720023438334465, -0.00018520663434173912, -0.2025633305311203, -0.19128939509391785, 0.0910860076546669, 0.08506830036640167], [-0.07019578665494919, 0.007193072233349085, -0.03600190952420235, -0.03981699422001839, 0.003317315364256501, 0.014716940931975842, -0.03727838769555092, 0.02790891006588936, -0.01469062827527523, -0.018055368214845657, -0.09170607477426529, 0.1349833756685257, -0.0604185089468956, 0.016366634517908096, 0.0015978312585502863, 0.030046047642827034, -0.09292759001255035, 0.037741947919130325, -0.02882320247590542, -0.002594591351225972, -0.0023330890107899904, -0.016919026151299477, -0.06437741965055466, 0.030968639999628067, 0.028602546080946922, -0.014300868846476078, -0.015672851353883743, -0.02434447780251503, 0.05466849356889725, -0.1059863492846489, 0.02587231807410717, 0.029752250760793686], [-0.003934717271476984, 0.0004501184157561511, 0.0007089048740454018, -0.0013627840671688318, 0.0003218635974917561, 0.00020326975209172815, 0.00373848550952971, -0.0009367007296532393, 0.0005403461982496083, -0.0003136458690278232, 0.0008316668681800365, 0.003149084048345685, -0.003114459104835987, -0.00424432847648859, 1.1520494354044786e-06, 0.005029748659580946, -0.0051547689363360405, 0.001578528550453484, 0.00045711311395280063, -2.5578157874406315e-05, -0.002172190463170409, -0.000459826726000756, 0.0002837914798874408, 0.0008713158313184977, 0.0010743753518909216, -0.0020948576275259256, -0.000708672683686018, -0.001840353012084961, 0.004199926275759935, 0.0011389250867068768, 0.00027584555209614336, 0.0007110502338036895], [0.014733642339706421, 0.0015665650134906173, 0.07130569219589233, -0.031605303287506104, -0.008812174201011658, -0.024183763191103935, -0.0503079928457737, 0.024079961702227592, -0.04521076753735542, 0.01295641902834177, -0.08577031642198563, -0.009367803111672401, 0.003714287653565407, 0.04097038134932518, -0.0010364226764068007, -0.004059098660945892, -0.0045752497389912605, -0.06804515421390533, -0.05973684415221214, 0.006852640770375729, 0.0023473831824958324, 0.058098793029785156, 0.02315906435251236, -0.011577595956623554, -0.019556516781449318, 0.04357524216175079, 0.0025362581945955753, 0.034324001520872116, -0.008179246447980404, -0.0459541492164135, -0.0446375347673893, -0.0364166758954525], [-0.0578480027616024, -0.01657046191394329, -0.016034020110964775, 0.0006155562005005777, -0.001872976659797132, 0.0292240921407938, 0.06354112923145294, 0.08948667347431183, -0.06462255120277405, 0.11433865129947662, -0.05390668660402298, -0.20357701182365417, -0.07104576379060745, 0.17639771103858948, 0.0012310217134654522, 0.05535997822880745, -0.020338350906968117, 0.04381944239139557, -0.09375005215406418, -0.00010112256131833419, 0.040212128311395645, 0.008202270604670048, -0.00032030633883550763, -0.13894033432006836, -0.016415908932685852, 0.09854822605848312, 0.021341979503631592, -0.023725032806396484, -0.055301304906606674, -0.06197832152247429, -0.052926741540431976, -0.002434438792988658], [-0.1809375137090683, -0.006949354894459248, 0.022313812747597694, -0.06930681318044662, 0.011454547755420208, 0.04272143915295601, 0.15166598558425903, 0.002368625719100237, -0.14946313202381134, 0.046228211373090744, 0.05832955986261368, 0.16281042993068695, -0.19058890640735626, -0.14877133071422577, -0.0004758753930218518, 0.25465667247772217, -0.3042169213294983, 0.007418426219373941, -0.022281425073742867, -0.001821286859922111, -0.23268796503543854, -0.060217805206775665, 0.02492327056825161, 0.0424799807369709, -0.004558023530989885, 0.01926017738878727, 0.0031396665144711733, -0.07244225591421127, 0.24582576751708984, -0.10031800717115402, -0.04070407524704933, 0.09852757304906845], [-0.40841954946517944, -0.012723172083497047, 0.006170961074531078, -0.10015250742435455, 0.026718758046627045, 0.00756379310041666, 0.3049200773239136, 0.001445342437364161, 0.01980067975819111, 0.04044574126601219, 0.013375728391110897, 0.043632008135318756, -0.35504454374313354, -0.3310382068157196, -0.00031238069641403854, 0.5010726451873779, -0.512848973274231, -0.023735422641038895, -0.04944613203406334, -0.0009063463076017797, -0.3068141043186188, -0.025125322863459587, -0.002241067821159959, 0.013491213321685791, 0.035122256726026535, -0.07620151340961456, -0.02596672810614109, -0.16246432065963745, 0.37995007634162903, 0.06277310103178024, 0.04965450242161751, 0.0898946151137352], [0.058899279683828354, -0.009699744172394276, 0.009825652465224266, -0.02851199544966221, 0.009413535706698895, -0.017909502610564232, -0.011978043243288994, -0.0973019078373909, -0.04852934926748276, 0.02358206920325756, 0.03650147467851639, 0.24221506714820862, -0.042832162231206894, -0.05378178507089615, 0.0003521784965414554, 0.09118445962667465, -0.11226113140583038, 0.030743414536118507, 0.01959766075015068, -0.0008599601569585502, -0.06279398500919342, -0.02358918823301792, 0.014867778867483139, 0.11616475880146027, 0.024925731122493744, -0.024485407397150993, 0.024485714733600616, -0.029729697853326797, 0.10669054090976715, -0.14608913660049438, 0.030591700226068497, 0.07248605042695999], [-0.13470615446567535, -0.007719129789620638, -0.032349541783332825, -0.006846095900982618, 0.013055018149316311, 0.021923163905739784, 0.11001037061214447, -0.009524643421173096, 0.02256779372692108, 0.00906622689217329, 0.021657293662428856, 0.019104691222310066, -0.10962703824043274, -0.06171476095914841, 0.0010197639930993319, 0.1642899215221405, -0.1667422652244568, -0.014138681814074516, -0.016069870442152023, -0.0016319907736033201, -0.047045644372701645, 0.00030284395324997604, -0.012690276838839054, 0.0032912343740463257, 0.013935676775872707, -0.045711785554885864, -0.012511732056736946, -0.056952688843011856, 0.13097348809242249, 0.025690419599413872, 0.015109678730368614, 0.0207995418459177], [-0.022850774228572845, 0.0009448732598684728, 0.020139725878834724, 0.024454711005091667, 0.006134635768830776, 0.0038018194027245045, 0.023905707523226738, -0.010749077424407005, 0.04880454018712044, 0.008531207218766212, 0.015618450939655304, -0.027145138010382652, -0.04140154644846916, -0.05161682888865471, 0.000443481607362628, 0.06260871142148972, -0.07624129951000214, 0.05047003552317619, 0.011605525389313698, -0.0006395205273292959, -0.033084433525800705, -0.0068312278017401695, -0.011369278654456139, 0.0029911173041909933, -0.02133289910852909, -0.03656872361898422, 0.002946334658190608, -0.02551920711994171, 0.06281808763742447, -0.037948548793792725, 0.014120235107839108, 0.010020855814218521], [-0.03391013666987419, 0.0017781704664230347, -0.01622738316655159, -0.0038073440082371235, 0.0009539031889289618, 0.0022087623365223408, 0.04359230399131775, 0.009185990318655968, 0.02536121755838394, 0.041898272931575775, 0.015991991385817528, -0.025429794564843178, -0.0409848652780056, -0.036985207349061966, -0.00037012217217125, 0.026558255776762962, -0.03181566670536995, 0.012702207081019878, -0.00849614106118679, -8.188840001821518e-05, -0.0018809407483786345, -0.011944588273763657, 0.0029118771199136972, -0.005352983251214027, 0.005240616388618946, -0.009847692213952541, -0.001141685526818037, -0.018494969233870506, 0.022025173529982567, 0.023831471800804138, 0.021269794553518295, 0.015532784163951874], [-0.108004629611969, -0.010092689655721188, -0.030671585351228714, 0.01333841122686863, 0.006143857259303331, 0.004398270510137081, 0.035026680678129196, 0.01186390221118927, -0.019480392336845398, 0.026403771713376045, -0.016088301315903664, 0.005529662128537893, -0.07254774868488312, -0.026050515472888947, -0.0005826330743730068, 0.11400684714317322, -0.12295565754175186, -0.01730843260884285, 0.022793836891651154, 0.0013631137553602457, -0.06580591201782227, -0.006027286406606436, 0.0007142149843275547, -0.002817331114783883, -0.006134662311524153, -0.0067661600187420845, 0.014468297362327576, -0.0204263087362051, 0.08644973486661911, 0.016901424154639244, 0.021873153746128082, 0.05573074147105217], [-0.038312286138534546, 0.010232998058199883, 0.004012605641037226, -0.043512195348739624, 0.009565804153680801, 0.0048005226999521255, 0.040334295481443405, -0.1161441057920456, 0.05048784241080284, -0.07655199617147446, 0.03939119726419449, 0.4093071222305298, 0.004501786082983017, -0.160646453499794, 0.0003537181473802775, 0.1220753937959671, -0.11186977475881577, -0.006108973640948534, 0.11212170869112015, -0.00271498691290617, -0.0645022839307785, -0.018256373703479767, -0.025562135502696037, 0.12466561794281006, 0.09420610964298248, -0.11943311989307404, -0.05499698221683502, -0.048161957412958145, 0.1255761981010437, 0.014022160321474075, 0.0974220559000969, 0.050714343786239624], [0.2216503620147705, 0.01213089283555746, -0.02986069768667221, 0.0469820611178875, -0.009364495985209942, -0.0050821686163544655, -0.09769899398088455, 0.04784458130598068, -0.017226863652467728, -0.06369230151176453, 0.041743434965610504, 0.039591845124959946, 0.19950036704540253, 0.37463608384132385, 0.004801851697266102, -0.055861055850982666, 0.10812532156705856, 0.0849262997508049, 0.03682048246264458, -0.008837604895234108, -0.01760878972709179, 0.04366430267691612, -0.0748971551656723, 0.005851339548826218, 0.025033321231603622, 0.019502589479088783, 0.13467375934123993, 0.011869863606989384, -0.05342143028974533, -0.23338116705417633, -0.048125606030225754, 0.005156868137419224], [-0.014424283988773823, -0.006243609823286533, 0.021426023915410042, -0.05703256279230118, 0.0013242512941360474, 0.014411174692213535, 0.016016891226172447, -0.027432052418589592, -0.06264954805374146, -0.00676918076351285, -0.024882784113287926, 0.12258586287498474, -0.021531857550144196, -0.028945686295628548, 9.396621317137033e-05, 0.05381825566291809, -0.06745002418756485, -0.008979578502476215, -0.016569163650274277, -0.0013736337423324585, -0.070310577750206, -0.01848994940519333, -0.0009617390460334718, 0.029671745374798775, 0.0078769875690341, 0.0007935247267596424, -0.005224764347076416, -0.010912962257862091, 0.05564090609550476, -0.0987812802195549, -0.030847735702991486, 0.021284611895680428], [-0.15231138467788696, 0.01961384527385235, -0.09374966472387314, -0.10908377915620804, 0.0029596725944429636, 0.0468640960752964, 0.11937488615512848, 0.2753349542617798, -0.16327238082885742, 0.20499669015407562, -0.031342633068561554, -0.10469020903110504, -0.16500362753868103, -0.04893357679247856, 0.0018385337898507714, 0.13703598082065582, -0.1155383363366127, -0.039909135550260544, -0.07962125539779663, -0.0010390941752120852, -0.02983061969280243, 0.00023812234576325864, -0.10921511054039001, -0.1484951674938202, 0.04895133897662163, 0.10298866778612137, -0.03748944029211998, -0.031998660415410995, 0.05908331647515297, 0.11225683242082596, 0.09186545014381409, 0.0417814627289772], [0.13979095220565796, -0.0021275831386446953, 0.008629102259874344, 0.04023251682519913, -0.009851607494056225, 0.002383376704528928, -0.11593305319547653, -0.01665397547185421, -0.027837296947836876, -0.04395637661218643, -0.0010953214950859547, 0.0916944146156311, 0.13101749122142792, 0.11695769429206848, 0.00033546480699442327, -0.16525240242481232, 0.15294954180717468, -0.006394845433533192, 0.03885246440768242, -0.0012795759830623865, 0.06588718295097351, -0.0096364077180624, 0.0029202743899077177, 0.007706227712333202, -0.015127182006835938, 0.015431512147188187, 0.019513042643666267, 0.058355994522571564, -0.10494572669267654, -0.0772244855761528, -0.044677022844552994, 0.0005263753701001406], [-0.608039915561676, -0.04262099415063858, 0.009569055400788784, 0.06467378884553909, 0.012820996344089508, 0.0635189637541771, 0.4302826523780823, -0.015416400507092476, 0.05839504301548004, 0.1567055881023407, 0.0513358935713768, 0.008927850984036922, -0.5060119032859802, -0.2981935739517212, -8.976904791779816e-05, 0.7367870807647705, -0.5446966886520386, 0.018837688490748405, -0.07399912923574448, -0.0005138868000358343, -0.027414819225668907, -0.026484757661819458, -0.013270726427435875, 0.04270210489630699, -0.03854473680257797, -0.08078077435493469, 0.09969418495893478, -0.02579767443239689, 0.5859940648078918, -0.11372077465057373, -0.09098056703805923, 0.08316415548324585], [0.008138388395309448, -0.009312438778579235, 0.05917275696992874, 0.06245705485343933, 0.008550683967769146, -0.01637517474591732, -0.028612324967980385, -0.1345270723104477, 0.034875448793172836, 0.02222301810979843, 0.02312743477523327, 0.07486655563116074, -0.013568327762186527, -0.12989181280136108, 0.0018921178998425603, 0.06454931944608688, -0.07856903225183487, 0.1346682906150818, 0.11084212362766266, -0.005883428268134594, 0.07377264648675919, -0.04048725217580795, 0.03502584248781204, 0.05631237104535103, 0.01282296609133482, -0.08759425580501556, 0.02967849373817444, -0.021693013608455658, 0.08836154639720917, -0.047121256589889526, 0.0811675563454628, 0.06260381639003754], [0.001097380998544395, -0.0004547658609226346, -0.0016789890360087156, -8.968871406977996e-05, -0.0005899080424569547, -0.0014825975522398949, 0.0011166239855811, -0.003506833454594016, 0.0031152416486293077, 0.001045789453200996, -0.0011861652601510286, 0.006920292973518372, -0.0008881876710802317, -0.0036546254996210337, -0.00031725544249638915, -0.000198898691451177, -0.0012313812039792538, -0.004313881043344736, -0.00023361521016340703, 0.0003396620450075716, -0.0008026516297832131, -0.00023071948089636862, 0.0035975261125713587, 0.0004188399179838598, 0.0008802294614724815, 0.0009866668842732906, 0.0027108846697956324, 0.0028083152137696743, -0.0009770527249202132, -0.002442354569211602, -0.004610995762050152, 0.0010299194836989045], [0.08615194261074066, 0.013462278060615063, 0.027650579810142517, 0.02093547023832798, -0.00593977514654398, 0.057970769703388214, -0.03448051959276199, 0.07322707027196884, -0.0167271438986063, -0.03959740698337555, 0.01401385385543108, 0.033218927681446075, 0.07270195335149765, 0.11353491246700287, 0.0003623994125518948, -0.10541313886642456, 0.07054068893194199, 0.03044329769909382, 0.0005759135237894952, -0.0018874048255383968, 0.04146857187151909, 0.007515528704971075, -0.037115391343832016, -0.034069765359163284, -0.0193747840821743, 0.008787024766206741, -0.005931473337113857, 0.026883915066719055, -0.04520749673247337, -0.02502460777759552, -0.03888129070401192, -0.03716607019305229], [-0.16508415341377258, 0.02186494693160057, 0.06790969520807266, -0.06707467883825302, 0.01744643785059452, 0.05097897723317146, 0.17492175102233887, 0.03460349515080452, 0.05765878036618233, -0.02035360597074032, 0.12455170601606369, -0.06466531753540039, -0.08250173926353455, -0.1951310932636261, 0.0005149836651980877, 0.18686412274837494, -0.21876053512096405, 0.032431941479444504, -0.024773824959993362, -0.003494289005175233, 0.007600243203341961, -0.012354463338851929, -0.018698489293456078, -0.00778351491317153, 0.020633770152926445, -0.06525159627199173, -0.06746844202280045, -0.07971468567848206, 0.16579386591911316, 0.06068773195147514, -0.022425634786486626, -0.01873166486620903], [-0.15895545482635498, 0.05991600453853607, -0.044913798570632935, 0.04725874587893486, -0.0025778713170439005, 0.023528732359409332, -0.11448678374290466, -0.14160041511058807, 0.2570062577724457, -0.09855006635189056, 0.059047091752290726, 0.012946296483278275, 0.15814556181430817, -0.00741708604618907, 0.0019012775737792253, -0.17322619259357452, 0.2495259791612625, 0.07471009343862534, 0.162666454911232, 0.0006021232693456113, 0.2964267134666443, 0.024547461420297623, -0.10223150998353958, -0.0029544492717832327, 0.0469658337533474, -0.1552051156759262, -0.0932668000459671, 0.014905431307852268, -0.19836489856243134, 0.2604294419288635, 0.1818438619375229, -0.10591959953308105], [-0.12679481506347656, -0.0006235511391423643, -0.08465312421321869, 0.03139292076230049, 0.007238544058054686, 0.03021859936416149, 0.06247173994779587, 0.06792906671762466, 0.04686231538653374, 0.0983700081706047, 0.06060849502682686, -0.10588349401950836, -0.09391842782497406, 0.10202353447675705, 3.340030525578186e-05, 0.07223303616046906, -0.09442882239818573, -0.014015031047165394, -0.017539996653795242, -0.0007963121170178056, -0.0031173734460026026, 3.5883109376300126e-05, 0.039479684084653854, -0.05930929630994797, -0.00681259436532855, -0.011322971433401108, 0.07144759595394135, -0.02429981157183647, 0.06034402549266815, 0.06085444614291191, -0.014177083969116211, 0.023362936452031136], [-0.23449763655662537, -0.025799203664064407, 0.03406639024615288, 0.032004330307245255, 0.010878589004278183, 0.017818422988057137, 0.08516480773687363, -0.041267648339271545, 0.1622748225927353, -0.13676412403583527, -0.12657372653484344, 0.023800037801265717, -0.09156505018472672, -0.11447212100028992, -0.0019094633171334863, 0.2531883418560028, -0.19237522780895233, -0.024096330627799034, 0.021026533097028732, 0.003565058810636401, -0.07716169208288193, 0.007614144589751959, 0.030096102505922318, 0.0042813499458134174, -0.06529301404953003, -0.12878310680389404, 0.09077978879213333, -0.011049027554690838, 0.19636690616607666, 0.055306851863861084, -0.14348481595516205, 0.021841848269104958], [-0.529865562915802, 0.030107533559203148, -0.008119914680719376, 0.06317305564880371, 0.01403827778995037, 0.06865423172712326, 0.5129494071006775, 0.042168524116277695, -0.111628457903862, -0.008159221149981022, 0.04577670991420746, 0.1110021099448204, -0.7835376858711243, -0.374681681394577, 0.0011834821198135614, 0.6313695311546326, -0.6726472973823547, 0.17197374999523163, -0.06886472553014755, -0.011395811103284359, -0.043435387313365936, -0.07695111632347107, -0.0371706560254097, 0.08313886821269989, -0.007118924055248499, -0.059240855276584625, 0.13161484897136688, -0.02189321257174015, 0.6025815010070801, -0.09580842405557632, -0.12193182855844498, 0.10124880820512772], [0.11035021394491196, 0.04545484855771065, 0.19786660373210907, 0.18926164507865906, -0.005885394290089607, 0.03664318472146988, -0.0686432495713234, -0.11360985785722733, 0.09270705282688141, 0.048578016459941864, 0.2651787996292114, 0.27187561988830566, 0.12350507825613022, -0.3374254107475281, 0.0018058018758893013, -0.025517400354146957, 0.06561290472745895, 0.2617194950580597, 0.2778254747390747, -0.014253530651330948, 0.04027184098958969, -0.09942308813333511, 0.021829865872859955, 0.06322284787893295, -0.14646665751934052, -0.17027920484542847, 0.06946924328804016, 0.011530060321092606, 0.05108384042978287, 0.10830629616975784, 0.15707805752754211, 0.09556066244840622], [0.05996144935488701, -0.01050453633069992, -0.05785045400261879, -0.0338483527302742, -0.003309495048597455, 0.00417576776817441, 0.16844210028648376, 0.15785495936870575, -0.08384456485509872, 0.1566830277442932, -0.07774073630571365, -0.516855001449585, -0.2350379228591919, -0.04022197797894478, 7.363694021478295e-05, 0.026033122092485428, -0.10392730683088303, 0.010798314586281776, -0.1874939501285553, 0.0005046145524829626, 0.009443541057407856, 0.018731465563178062, 0.0191609226167202, -0.07550866901874542, -0.033375706523656845, 0.14344659447669983, -0.005486032925546169, -0.020040450617671013, -0.25307849049568176, 0.029090089723467827, 0.019992230460047722, 0.009067592211067677], [-0.1086219921708107, -0.016488749533891678, -0.025016099214553833, 0.07699660211801529, 0.010400946252048016, -0.007299814838916063, 0.09894940257072449, -0.09706661850214005, 0.11534366011619568, 0.03028302639722824, 0.062477584928274155, 0.10826125741004944, -0.05762305110692978, 0.041633810847997665, 0.00019233314378652722, 0.1473805159330368, -0.06993347406387329, -0.02024535834789276, 0.07031987607479095, -0.00047256844118237495, 0.15795345604419708, 0.03301694989204407, 0.055898912250995636, 0.07004381716251373, 0.013460862450301647, -0.05520175024867058, 0.06588096171617508, -0.043628934770822525, 0.1081494614481926, 0.01019477192312479, 0.001813672250136733, 0.05644896626472473], [-0.00044906814582645893, -2.3953246000019135e-06, -7.487094990210608e-05, -6.846452743047848e-05, -4.510215876507573e-05, 2.8324413392510905e-07, 0.0003470093652140349, 0.0001053585801855661, 0.00011549932969501242, 4.2373772885184735e-05, -8.465919381706044e-05, -0.00029522806289605796, -0.00037543749203905463, -0.0002483092830516398, 5.472039674714324e-07, 0.00045346253318712115, -0.0004675269592553377, -8.893871950022003e-07, -0.000156149166286923, 2.3196605525299674e-07, -0.00015447739860974252, 7.70949773141183e-05, -3.9651713450439274e-05, -0.00011962178541580215, -3.0055201932555065e-05, 1.318168142461218e-05, 5.028326086176094e-06, -0.00010320680303266272, 0.0002799571375362575, 8.96062992978841e-05, -8.597736450610682e-05, -9.814975783228874e-05], [-0.13396473228931427, -0.01815757527947426, 0.014910980127751827, 0.0292708370834589, 0.007789876312017441, -0.02015008218586445, 0.05840912461280823, -0.07792860269546509, 0.10642775893211365, -0.0710987001657486, -0.05260568857192993, -0.020821351557970047, -0.08967490494251251, -0.22772100567817688, 0.00024249256239272654, 0.16798152029514313, -0.18926098942756653, 0.023736152797937393, 0.039304714649915695, -0.001913034706376493, -0.1307976245880127, -0.04205945134162903, 0.0002640328020788729, 0.03953457996249199, -0.010327165015041828, -0.09451758116483688, 0.0573991984128952, -0.033555351197719574, 0.11784694343805313, 0.0038095468189567327, -0.007843684405088425, 0.03253970667719841], [-0.1996545046567917, -0.01819530315697193, -0.087708979845047, -0.0059259613044559956, 0.01410977728664875, 0.023858724161982536, 0.12207955867052078, -0.012604882940649986, -0.006792122032493353, 0.10286033898591995, 0.097732312977314, 0.01068098098039627, -0.18008780479431152, -0.14309078454971313, -0.00015956503921188414, 0.2165188491344452, -0.2372789829969406, -0.041468553245067596, 0.019832096993923187, -0.00032520201057195663, -0.08513201028108597, -0.013626265339553356, 0.019670456647872925, -0.0015225381357595325, 0.016309551894664764, -0.02414678782224655, 0.008198091760277748, -0.042999785393476486, 0.18218831717967987, 0.0023753014393150806, -0.019359489902853966, 0.05672819912433624], [-0.4037071764469147, -0.008198223076760769, -0.003381438786163926, 0.13657310605049133, 0.022636355832219124, 0.07597997039556503, 0.22606517374515533, 0.07417166233062744, -0.08489581197500229, 0.057203974574804306, 0.02533981204032898, 0.11230257153511047, -0.35043665766716003, -0.170930877327919, 1.473708834964782e-05, 0.42933520674705505, -0.576139509677887, 0.07192189246416092, 0.06648654490709305, -0.006054564379155636, -0.10831991583108902, -0.12256018072366714, -0.039271317422389984, 0.03390166535973549, -0.029402632266283035, -0.0348103791475296, 0.09831279516220093, -0.0998074933886528, 0.4544287621974945, -0.04913422837853432, 0.041822247207164764, 0.21229887008666992], [-0.176272913813591, 0.02334122359752655, -0.02404334396123886, 0.02664565108716488, -0.0003881254233419895, -0.007445749826729298, 0.010884592309594154, 0.07306813448667526, 0.13215410709381104, -0.15404419600963593, -0.10554412752389908, -0.020604969933629036, -0.1537511944770813, -0.023148922249674797, -0.00043529970571398735, 0.056975752115249634, -0.13820156455039978, 0.03537226840853691, -0.07086622714996338, 0.0004993191105313599, -0.04565887898206711, 0.03509017825126648, -0.0647997036576271, -0.0066796098835766315, 0.02281738445162773, -0.03199930861592293, -0.02418847195804119, -0.025941353291273117, 0.07059846073389053, 0.0413086898624897, 0.01014989335089922, -0.02393961511552334], [-0.0032607533503323793, 0.0003646716650109738, 0.00062747293850407, -0.0009461037116125226, 0.00027124295593239367, 0.00026555947260931134, 0.003295924747362733, -0.0010054403683170676, 0.0009622086072340608, -0.0006112942937761545, 0.0005932729691267014, 0.0027768260333687067, -0.002384610241279006, -0.003862963756546378, 4.2129763642151374e-06, 0.003944313153624535, -0.004046672955155373, 0.0013832926051691175, 0.00040936277946457267, -2.3278601020138012e-06, -0.001092411344870925, -0.0003669280849862844, 0.0001974065526155755, 0.0008699726313352585, 0.0008068456081673503, -0.0021893740631639957, -0.0005192336975596845, -0.0015192747814580798, 0.003244259627535939, 0.0013035186566412449, 2.830267112585716e-05, 0.0002736937312874943], [-0.23693911731243134, -0.016213983297348022, 0.11905724555253983, 0.010847398079931736, 0.020303945988416672, -0.006041269283741713, 0.18839016556739807, -0.011321036145091057, 0.07155576348304749, 0.07093175500631332, -0.05503895506262779, -0.10026463866233826, -0.22545814514160156, -0.17424504458904266, 0.0005132514052093029, 0.3004354238510132, -0.3086962401866913, -0.04634534567594528, -0.04853113368153572, 0.0010423333151265979, 0.005490587092936039, 0.0411832369863987, -0.004107126034796238, 0.01894458569586277, 0.00820472463965416, -0.08274032920598984, 0.022313907742500305, 0.00959300808608532, 0.23917587101459503, 0.056035399436950684, 0.035932380706071854, 0.0366583913564682], [-0.024999331682920456, -0.04080374911427498, -0.03323916718363762, 0.021221548318862915, 0.0010504996171221137, 0.042801741510629654, 0.05887678638100624, 0.023366058245301247, 0.027579374611377716, 0.06809809803962708, -0.10262008756399155, -0.09068583697080612, -0.030873209238052368, 0.11255796253681183, 0.0007026002276688814, 0.07198470085859299, -0.0001461616629967466, -0.0204133503139019, -0.11376792192459106, 0.0018215810414403677, 0.07913604378700256, 0.04269544035196304, 0.028087811544537544, -0.061106905341148376, -0.030512988567352295, 0.045149024575948715, 0.07344434410333633, -0.009307987056672573, -0.04983226954936981, -0.0472826324403286, -0.12572725117206573, -0.019175563007593155], [-0.019597802311182022, 0.018316907808184624, -0.0007168337469920516, 0.08045132458209991, -0.009491675533354282, 0.07373093068599701, -0.003289968939498067, 0.025815041735768318, 0.015513963997364044, -0.04407428577542305, 0.14169007539749146, 0.09056422859430313, 0.02891893871128559, -0.06250646710395813, 0.001801535370759666, -0.023694779723882675, 0.01592806912958622, 0.09172052890062332, 0.07981840521097183, -0.00361252436414361, 0.08280748128890991, -0.027048209682106972, -0.03697725385427475, -0.0493885762989521, -0.034983597695827484, -0.020620165392756462, -0.06171462684869766, -0.0025273736100643873, -0.020954759791493416, 0.03885551914572716, 0.03529798239469528, -0.029757294803857803], [0.24075357615947723, -0.024197576567530632, -0.0561247281730175, 0.045005593448877335, -0.0011387300910428166, -0.029652127996087074, -0.06472273916006088, -0.22178030014038086, 0.28903838992118835, -0.20309212803840637, 0.062322936952114105, 0.26865553855895996, 0.22288744151592255, -0.10954420268535614, 0.0027541646268218756, -0.09709858149290085, 0.13448292016983032, -0.007628136780112982, 0.18177932500839233, -0.0018391215708106756, 0.1715644896030426, 0.034048743546009064, 0.014882482588291168, -0.08755654096603394, 0.17977695167064667, -0.20655043423175812, -0.07778120040893555, -0.0069549717009067535, -0.09120319783687592, 0.060057178139686584, 0.10060416162014008, -0.06936034560203552], [0.11350845545530319, -0.005059217102825642, -0.00679204473271966, -0.060952480882406235, 0.004939873702824116, -0.04644755646586418, -0.149860680103302, -0.134140744805336, -0.056121375411748886, 0.08088921755552292, 0.03861125931143761, 0.20689785480499268, 0.016603544354438782, -0.007045907434076071, 0.0005397506756708026, 0.008477231487631798, -0.029261447489261627, 0.11936483532190323, 0.09012960642576218, -0.001193106290884316, -0.010341024957597256, -0.01962992548942566, -0.0006227664998732507, 0.14319494366645813, 0.11292725056409836, -0.025667283684015274, -0.0004097350756637752, -0.010100004263222218, 0.05130721256136894, -0.14880996942520142, 0.18090854585170746, 0.10161007195711136], [-0.066548191010952, -0.008664439432322979, -0.05027977004647255, 0.00672330753877759, 0.015190407633781433, 0.046950697898864746, 0.06564226001501083, -0.02773098088800907, 0.03364738076925278, -0.01990862749516964, 0.07290332764387131, 0.05626863241195679, -0.05162019655108452, 0.04897027462720871, 0.001935014151968062, 0.079542376101017, -0.07198119908571243, 0.032627806067466736, -0.030071454122662544, -0.0030231992714107037, 0.017314402386546135, 0.01742258109152317, 0.021488286554813385, 0.07777207344770432, 0.026293328031897545, -0.038833409547805786, -0.0056989905424416065, -0.04069330170750618, 0.06577674299478531, 0.015191251412034035, -0.028397297486662865, 0.0045878649689257145], [-0.07628405839204788, 0.01342562772333622, 0.03656672686338425, 0.01006629504263401, 0.011713950894773006, 0.00289697153493762, 0.08109225332736969, -0.0046385955065488815, 0.09930305927991867, -0.012465150095522404, 0.01836872659623623, -0.06468711048364639, -0.0931321457028389, -0.08971431106328964, 0.0006796210655011237, 0.13991035521030426, -0.15008488297462463, 0.07797682285308838, -0.012922008521854877, -0.002267157891765237, -0.08567183464765549, -0.001505888532847166, -0.008278844878077507, 0.0007776725688017905, -0.025178803130984306, -0.06346733868122101, -0.011293873190879822, -0.05107825994491577, 0.11802342534065247, -0.03477614000439644, -0.007406971883028746, -0.005598844960331917], [-0.03357601538300514, 0.0015790325123816729, -0.019850829616189003, -0.003108818316832185, 0.0016643962590023875, 0.0009066880447790027, 0.04648256674408913, 0.007667385973036289, 0.03371347859501839, 0.04809058830142021, 0.021256690844893456, -0.03206425905227661, -0.04220108687877655, -0.04063393175601959, -0.0003671057929750532, 0.026357125490903854, -0.0315425843000412, 0.01568007655441761, -0.008300130255520344, -0.00017888560250867158, -0.00021489481150638312, -0.015076812356710434, 0.003038697876036167, -0.005070156417787075, 0.006343545392155647, -0.012841819785535336, -0.0037417591083794832, -0.02041638270020485, 0.021661603823304176, 0.027238773182034492, 0.026371419429779053, 0.016125842928886414], [-0.15834784507751465, -0.00877445563673973, -0.0743282362818718, 0.0025516122113913298, 0.014876553788781166, -0.02421906776726246, 0.04140482097864151, -0.033096108585596085, -0.08455921709537506, 0.07765039801597595, 0.02419878914952278, 0.04146140441298485, -0.17543946206569672, -0.12732736766338348, -0.001798843266442418, 0.1907522976398468, -0.2772548794746399, 0.010461702011525631, 0.06394635885953903, 0.0027984350454062223, -0.09640127420425415, -0.018392646685242653, 0.012638713233172894, 0.0446338877081871, 0.02243928797543049, -0.010728801600635052, -0.0327848456799984, -0.0217497069388628, 0.2032085508108139, 0.05305023863911629, 0.12938563525676727, 0.11882497370243073], [0.006327494978904724, 0.009217454120516777, -0.033044226467609406, -0.015275141224265099, 4.5326087274588645e-06, -0.033392563462257385, -0.02923785336315632, -0.07294965535402298, 0.012820388190448284, -0.03007333353161812, 0.05550536513328552, 0.09804553538560867, 0.03942597284913063, -0.06697018444538116, 0.00010131019371328875, 0.00495539978146553, -0.014087574556469917, 0.0012741286773234606, 0.1283021718263626, -0.00019739175331778824, -0.010677478276193142, -0.011117742396891117, -0.041245169937610626, 0.025101149454712868, 0.09454908221960068, -0.05361725762486458, -0.09716780483722687, -0.025275910273194313, 0.049158573150634766, 0.05131002888083458, 0.16835136711597443, 0.05807424336671829], [-0.26567548513412476, -0.005623070057481527, -0.069565050303936, -0.11322744190692902, -0.0003028186911251396, -0.005989057943224907, 0.2156212031841278, -0.06468413025140762, -0.07807333767414093, 0.029249370098114014, 0.09745652228593826, -0.004598673898726702, -0.26014086604118347, -0.13353948295116425, 0.002613181946799159, 0.389239639043808, -0.327086865901947, 0.1307860165834427, -0.022069310769438744, -0.0025931047275662422, -0.030749084427952766, -0.0037945397198200226, 0.0069401939399540424, 0.05892111361026764, 0.04345347359776497, 0.012461147271096706, 0.006621065083891153, -0.008697259239852428, 0.24849675595760345, -0.05264095962047577, -0.0029150142800062895, -0.023813316598534584], [-0.013456867076456547, -0.03208457678556442, 0.04449978098273277, -0.02568499557673931, -0.0018205930246040225, 0.02240173891186714, 0.0037744571454823017, -0.05628040432929993, -0.00884183682501316, -0.10024493932723999, -0.08488401770591736, 0.1090458333492279, 0.01208973117172718, -0.08002100884914398, 0.0003953513805754483, 0.09508001804351807, -0.08221567422151566, -0.05856531858444214, 0.031102251261472702, -0.0016483766958117485, -0.11223244667053223, -0.011538894847035408, -0.016130074858665466, 0.025294523686170578, -0.01183269452303648, -0.05923376977443695, 0.02662055753171444, -0.006289168260991573, 0.08501802384853363, -0.1302570253610611, -0.06509824097156525, 0.0321812704205513], [0.10608430951833725, -0.029759284108877182, 0.09070997685194016, -0.17624250054359436, 0.008438237011432648, -0.243149995803833, -0.20479752123355865, -0.7247883677482605, 0.1731458455324173, -0.04533867910504341, 0.025786926969885826, 0.15997058153152466, 0.10254311561584473, 0.07515855133533478, -0.00484448904171586, -0.1663043200969696, 0.09859634935855865, 0.20495684444904327, 0.04851836711168289, 0.008728979155421257, 0.02873864211142063, 0.028999026864767075, 0.26499080657958984, 0.28211551904678345, 0.3554953932762146, -0.07887056469917297, -0.08329328149557114, -0.009669221006333828, -0.12420348078012466, -0.14256253838539124, 0.31786853075027466, -0.037347711622714996], [0.03820456191897392, -0.935259222984314, 0.16986702382564545, -0.0999942496418953, 0.01700330711901188, -0.5123592615127563, 0.055575914680957794, 0.8428560495376587, -0.05793687701225281, -0.09865434467792511, 0.26302364468574524, 0.20482152700424194, -0.18878251314163208, 0.02740390971302986, -0.00398569880053401, -0.11823403090238571, 0.07305940240621567, 0.26804083585739136, -0.10638875514268875, 0.005262903869152069, 0.0661160871386528, 0.006978290155529976, 0.19119304418563843, 0.043016549199819565, 0.08060524612665176, -0.2105177789926529, -0.08149794489145279, 0.00182613474316895, -0.11200392991304398, 0.11582548916339874, 0.037351399660110474, -0.07357385754585266], [0.09457118064165115, 0.09854798763990402, 0.2932519018650055, 0.11964096873998642, -0.03639789670705795, 0.16406121850013733, 0.3054731786251068, -0.21085219085216522, -0.10116466134786606, 0.15434961020946503, 0.2674599885940552, 0.37709030508995056, 0.08757705986499786, -0.04113622009754181, 0.0037822197191417217, -0.07886704057455063, 0.1651798039674759, -0.1570964753627777, 0.09431653469800949, 0.010405345819890499, -0.028045285493135452, 0.11397887766361237, -0.35011380910873413, -0.5511764883995056, -0.08873612433671951, 0.228160560131073, 0.02105458825826645, -0.00826919823884964, 0.13832201063632965, 0.21866676211357117, 0.00810607522726059, -0.06641325354576111], [0.05122079700231552, -0.01996966265141964, -0.1198941171169281, 0.12880361080169678, 0.0013340876903384924, 0.06394564360380173, 0.04152360185980797, 0.04651198163628578, 0.0581558421254158, -0.06145332753658295, 0.11684245616197586, -0.25923383235931396, 0.17133943736553192, -0.14180591702461243, -0.0003526996879372746, 0.00017703323101159185, 0.014713574200868607, -0.14971278607845306, 0.3039816617965698, -0.007917302660644054, 0.20712558925151825, -0.036784712225198746, -0.17448490858078003, 0.0690612718462944, -0.01512053795158863, -0.08575110137462616, 0.026592573150992393, -0.012232983484864235, 0.007072083652019501, -0.02618677355349064, 0.1380186527967453, 0.145279198884964], [0.014967583119869232, 0.010670377872884274, -0.025855954736471176, 0.013779441826045513, 0.0010697428369894624, -0.04400654509663582, 0.033211398869752884, -0.050155267119407654, 0.07320120185613632, 0.04369313642382622, 0.026193037629127502, 0.02245217375457287, -0.03560785949230194, 0.029408875852823257, -0.0010949247516691685, -0.01737816631793976, -0.022586170583963394, 0.007069048006087542, -0.021785583347082138, 0.0012229817220941186, 0.004827781114727259, -0.00812976062297821, 0.07071518898010254, -0.023689555004239082, 0.01094003114849329, 0.0025336069520562887, 0.00785241462290287, -0.0055213915184140205, 0.019973790273070335, 0.023476842790842056, -0.00464149983599782, 0.004417626187205315], [-0.005098325200378895, -0.9034925699234009, -0.019870085641741753, 0.07740168273448944, -0.024459265172481537, -0.4778153598308563, -0.05983596667647362, -0.09216924756765366, 0.012087587267160416, -0.23222912847995758, -0.1472851037979126, 0.10324088484048843, 0.19105744361877441, 0.008856624364852905, 0.00698844762519002, 0.36208805441856384, 0.0188942551612854, -0.07260555028915405, 0.1966666728258133, -0.017179101705551147, -0.09638657420873642, 0.09723120182752609, 0.16132673621177673, 0.11574163287878036, -0.11580819636583328, -0.2602550685405731, 0.052477817982435226, 0.01594424434006214, -0.1012478843331337, -0.0731390193104744, -0.13553501665592194, 0.09875285625457764], [-0.05135495588183403, -0.01245907973498106, 0.27144312858581543, -0.07495169341564178, 0.020941879600286484, 0.13293316960334778, 0.08597065508365631, 0.17369206249713898, 0.07046718895435333, -0.03140246868133545, 0.237931489944458, -0.30497655272483826, 0.1392170637845993, -0.16515859961509705, 0.004717495292425156, 0.1514853835105896, -0.1121319979429245, -0.022949108853936195, -0.09922274202108383, -0.009798061102628708, 0.1777581423521042, -0.02947065979242325, 0.0004930475843138993, 0.13211320340633392, -0.07942125201225281, -0.17224563658237457, -0.06189815327525139, -0.07703792303800583, -0.1743171513080597, -0.16163434088230133, -0.2720235586166382, -0.035353850573301315], [0.10805932432413101, -0.25095033645629883, -0.26417431235313416, 0.3280949890613556, -0.07486539334058762, 0.027904285117983818, -0.23003993928432465, -0.26550352573394775, 0.30854618549346924, -0.649143636226654, -0.7445755004882812, 0.10758840292692184, 0.3733673691749573, -0.0597723014652729, 0.01481031347066164, 0.1955128312110901, -0.13890354335308075, -0.7162813544273376, 0.4292657971382141, -0.01030996348708868, -0.4019508361816406, 0.002073182025924325, 0.01054572593420744, -0.02004171907901764, -0.008049298077821732, -0.24746304750442505, 0.3579290807247162, 0.09918829053640366, 0.26974067091941833, 0.0473325178027153, -0.014353635720908642, 0.18081028759479523], [-0.06869039684534073, -0.07822331041097641, 0.020793989300727844, 0.04355115070939064, 0.012308867648243904, -0.0323343463242054, -0.006567459087818861, -0.24514372646808624, 0.1388797014951706, -0.317783921957016, 0.019948869943618774, -0.2621886134147644, 0.08943995088338852, -0.2298310101032257, -0.0030537149868905544, 0.14176398515701294, 0.04326198995113373, 0.03538443148136139, 0.31080690026283264, 0.0011260174214839935, -0.08340698480606079, -0.028074296191334724, 0.028295734897255898, 0.17540082335472107, -0.11436773091554642, -0.1145709902048111, 0.010154061950743198, -0.05076226592063904, -0.009054863825440407, -0.06730348616838455, -0.006929188966751099, -0.05226421728730202], [-0.022804342210292816, -0.23508231341838837, -0.048119667917490005, 0.058710724115371704, 0.01606544852256775, 0.13019408285617828, -0.10347924381494522, 0.6554161310195923, -0.06187818944454193, 0.020702041685581207, 0.1867055594921112, -0.14567750692367554, -0.16253912448883057, 0.10349380224943161, 0.002259323839098215, 0.2207484245300293, 0.08165084570646286, 0.039109133183956146, -0.21719059348106384, 0.006875429302453995, 0.1287294626235962, -0.03770453855395317, -0.061741895973682404, 0.39011770486831665, -0.06286468356847763, -0.27911534905433655, 0.08048663288354874, -0.08187700062990189, -0.2222110629081726, -0.3680219352245331, 0.18651339411735535, 0.05767238885164261], [0.15070445835590363, 0.052033256739377975, -0.2529540956020355, -0.018853221088647842, 0.025196412578225136, 0.15131428837776184, -0.014664382673799992, 0.40352973341941833, 0.020145973190665245, -0.02248808555305004, 0.19335077702999115, -0.7074213027954102, -0.07237228006124496, -0.08392070978879929, 0.0015696205664426088, -0.1998579502105713, -0.17300446331501007, 0.10242848098278046, -0.20185096561908722, -0.03142813220620155, 0.07147172838449478, -0.19475428760051727, 0.20338556170463562, 0.6798021793365479, 0.22316457331180573, -0.09908301383256912, -0.04944614693522453, -0.0048505086451768875, -0.2719106376171112, -0.2942051291465759, 0.19798025488853455, 0.010688346810638905], [-0.10314241796731949, 0.6814652681350708, 0.14849066734313965, 0.10724082589149475, -0.011102424003183842, -1.4311002492904663, 0.004920574836432934, -3.3542957305908203, -0.1797574758529663, 0.4407674968242645, 0.5222389698028564, 0.38821837306022644, -0.5587918162345886, 0.31168848276138306, 0.005319476593285799, -0.3838449716567993, 0.011930678971111774, 0.6138632893562317, -0.7104097604751587, -0.008730963803827763, -0.0032431320287287235, 0.1533910036087036, 0.5918067693710327, -1.7964869737625122, 0.042674094438552856, 0.9116215705871582, -0.11130737513303757, 0.026230620220303535, 0.054534535855054855, 0.19444382190704346, -0.11478082090616226, 0.11111406236886978], [0.012964743189513683, -0.0036494103260338306, 0.06332282721996307, -0.020215941593050957, 0.0031689461320638657, -0.05918072909116745, -0.19735178351402283, -0.10272011160850525, 0.05030062049627304, -0.11166287213563919, -0.041961122304201126, 0.09256888180971146, 0.22754088044166565, 0.08274714648723602, -0.0014771410496905446, -0.04193147271871567, 0.2612083852291107, -0.05900152400135994, 0.06228755787014961, 0.0029830217827111483, -0.04517533257603645, -0.011961142532527447, -0.020970897749066353, -0.052596140652894974, 0.0164383202791214, -0.04897509887814522, -0.04082325100898743, 0.0009422593284398317, -0.1339302957057953, 0.040741562843322754, 0.027653299272060394, -0.011632200330495834], [0.1113051250576973, -0.06311196088790894, -0.06893116980791092, -0.05597985163331032, -0.012721549719572067, 0.1789170205593109, 0.1666145920753479, 0.6551374197006226, 0.08950381726026535, 0.1494016945362091, 0.12430936843156815, -0.71189945936203, 0.19721870124340057, -0.11673303693532944, 0.006371154449880123, 0.08754000067710876, 0.15191379189491272, -0.018094269558787346, 0.13029678165912628, -0.008190481923520565, 0.13661809265613556, 0.22396224737167358, -0.2020425647497177, -0.20815540850162506, -0.016756093129515648, 0.001445006811991334, -0.060146111994981766, 0.049180734902620316, -0.33970367908477783, -0.20542095601558685, 0.028049323707818985, -0.1224459558725357], [-0.00019741735013667494, -0.0014339409535750747, -0.0018033270025625825, -0.0006473141838796437, -0.0011467768345028162, 0.0059404028579592705, 0.005848180502653122, 0.004071619361639023, -0.01422530971467495, -0.009401088580489159, -0.0026886649429798126, 0.0014451161259785295, -0.00031876363209448755, -0.003793279407545924, 0.0005282788770273328, 0.014778712764382362, -0.0013585078995674849, 0.004633758682757616, 0.0021994037088006735, -0.0014991640346124768, 0.01444629393517971, -0.0015133669367060065, -0.013045253232121468, -0.0036093653179705143, 0.0023136574309319258, -0.003750514704734087, 0.003206455847248435, 0.001315234461799264, 0.002704560523852706, -0.0070106349885463715, -0.00029359941254369915, -0.0005542621365748346], [-0.1161884143948555, 0.01876860111951828, 0.08775968104600906, 0.006376900710165501, -0.004813231527805328, -0.15248863399028778, -0.04526970162987709, -0.2285478413105011, 0.05470956861972809, -0.09974320232868195, -0.09562138468027115, -0.06660298258066177, -0.07889135926961899, -0.3675785958766937, 0.0008853459730744362, 0.07075084000825882, -0.16888639330863953, 0.11723851412534714, 0.05513249710202217, -0.005736850202083588, -0.08805970102548599, -0.14686836302280426, 0.03468778356909752, 0.1373494267463684, -0.0012967726215720177, -0.07853610813617706, -0.011555965058505535, -0.006358914077281952, 0.050778962671756744, 0.01599685102701187, 0.11620825529098511, 0.01728101260960102], [0.050231583416461945, 0.030671078711748123, 0.23201501369476318, -0.06849411875009537, -0.009707173332571983, -0.07328656315803528, -0.01489344798028469, -0.011287152767181396, 0.04462079703807831, -0.28409138321876526, -0.2178918570280075, 0.08208008855581284, 0.1629004180431366, 0.06565926969051361, -0.00038991132169030607, -0.05530374124646187, 0.10789238661527634, 0.03918032348155975, -0.1094447523355484, 0.005538247991353273, -0.013016044162213802, 0.005640454590320587, -0.04721485823392868, 0.030818426981568336, -0.0283161960542202, -0.03421425446867943, -0.07990140467882156, 0.013681204058229923, -0.08923859894275665, 0.1405588984489441, 0.042038269340991974, -0.09954400360584259], [0.11603299528360367, -0.01750975288450718, 0.21292607486248016, 0.008846940472722054, -0.007652299478650093, 0.17903360724449158, -0.14356599748134613, 0.062190745025873184, 0.015514648519456387, 0.11119701713323593, -0.27473288774490356, -0.17060594260692596, -0.15423285961151123, -0.019562935456633568, -0.000957578478846699, -0.07095605134963989, -0.07246895134449005, 0.37623873353004456, -0.08353149145841599, -0.011463853530585766, 0.05728118121623993, -0.11999477446079254, -0.14945243299007416, 0.06607004255056381, 0.05296708270907402, -0.040990255773067474, -0.0064289686270058155, -0.037484098225831985, 0.019384944811463356, -0.05688374862074852, 0.008523041382431984, -0.20311951637268066], [0.1187535971403122, -0.030384967103600502, -0.011827118694782257, 0.08765269815921783, 0.01116194762289524, -0.14475584030151367, -0.16260717809200287, -0.4420452415943146, -0.09041742980480194, 0.16414664685726166, 0.19022247195243835, -0.08406282961368561, 0.3157989978790283, -0.1787545531988144, -0.0005340370698831975, 0.044051334261894226, -0.14822646975517273, 0.01902741938829422, -0.08432880789041519, 0.0006208557169884443, -0.1010475605726242, 0.013790239579975605, -0.009899632073938847, 0.39492496848106384, 0.12922585010528564, -0.11375437676906586, -0.07998756319284439, 0.009665421210229397, 0.09891852736473083, -0.185028076171875, 0.29439911246299744, 0.19695067405700684], [-0.011579868383705616, 0.00025458159507252276, -0.001335443346761167, 0.002643396845087409, 0.0015637073665857315, 0.0013353859540075064, -0.009175756014883518, 0.01644221507012844, 0.021985696628689766, 0.01836457848548889, 0.008613906800746918, -0.0371883399784565, -0.008497145026922226, -0.00317971408367157, -0.0012766353320330381, -0.015441942028701305, -0.000309037568513304, -0.03242897987365723, -0.0008568633929826319, 0.004491281230002642, -0.015132531523704529, 0.006916659418493509, 0.017347408458590508, 0.05794733017683029, -0.02644658461213112, 0.007438455708324909, -0.011351531371474266, 0.0009817180689424276, -0.01164274662733078, -0.00117675110232085, 0.000308980728732422, -0.0009751927573233843], [-0.018933139741420746, -0.019235385581851006, -0.051208969205617905, 0.0867612212896347, 0.06781955063343048, -0.023275533691048622, 0.2914098799228668, -0.04950713366270065, 0.21109291911125183, 0.13000096380710602, -0.017200149595737457, -0.04563277214765549, 0.013229853473603725, -0.21682016551494598, 0.0009596885065548122, -0.04955573007464409, -0.018916379660367966, -0.024125395342707634, -0.05368366092443466, 0.0022679255343973637, 0.24955780804157257, -0.11344792693853378, -0.02133091166615486, -0.09871701151132584, -0.025996677577495575, 0.021511608734726906, -0.023171747103333473, -0.16853740811347961, -0.2532769441604614, 0.1207868754863739, 0.018877878785133362, -0.008157520554959774], [-0.10283762961626053, -0.04212414100766182, 0.19800874590873718, -0.16620223224163055, 0.026069248095154762, -0.013270954601466656, 0.12261443585157394, 0.486287385225296, 0.15384919941425323, -0.09286054968833923, 0.15242911875247955, -0.5892454385757446, 0.24684865772724152, 0.03201897814869881, -0.0005814472096972167, 0.21213427186012268, 0.19369065761566162, -0.09603641927242279, -0.027958210557699203, -0.004529446829110384, -0.015711838379502296, 0.07037847489118576, 0.03089945763349533, 0.4685494303703308, 0.10717727988958359, -0.2991306781768799, 0.05324679985642433, 0.0033068768680095673, -0.46451717615127563, 0.0672006607055664, -0.10226253420114517, -0.08678846061229706], [-0.14277853071689606, -0.016386009752750397, 0.01830931380391121, 0.23172824084758759, -0.11070148646831512, 0.15879330039024353, 0.14678607881069183, -0.9104852676391602, 0.0479806624352932, 0.23676645755767822, 0.009684761054813862, 0.33201006054878235, -0.22524897754192352, 0.13395889103412628, 0.006334348581731319, -0.20112420618534088, 0.10939246416091919, 0.2521180510520935, -0.05199572816491127, 0.026393558830022812, -0.13154441118240356, 0.08262690156698227, -0.13060325384140015, -1.1375120878219604, -0.12228916585445404, 0.4078913629055023, -0.07530664652585983, 0.022882113233208656, 0.20655988156795502, -0.005834582727402449, -0.04398372024297714, -0.13979803025722504], [0.08078248053789139, -0.23406270146369934, -0.08641218394041061, 0.319486141204834, 0.01282285712659359, -1.4511359930038452, -0.04943321645259857, -1.9691768884658813, 0.19483768939971924, -0.420043408870697, -0.33412083983421326, 0.25378116965293884, 0.08998928964138031, 0.1689523607492447, -0.003696456318721175, 0.10288558900356293, -0.0858394131064415, -0.13683336973190308, -0.06316538900136948, 0.05923774465918541, -0.22104622423648834, -0.1261410117149353, 0.6960517764091492, -0.8667792081832886, 0.04182962700724602, -0.03750566393136978, 0.3074986934661865, -0.008078922517597675, 0.08386165648698807, -0.06316500902175903, 0.040011677891016006, 0.2469509392976761], [-0.30740028619766235, -0.05322981998324394, -0.11830748617649078, -0.16649271547794342, -0.02169976383447647, -0.005735061131417751, -0.17946328222751617, -0.5005787014961243, -0.01759009249508381, 0.09805458039045334, -0.002574008656665683, 0.4224293828010559, -0.12011682987213135, 0.12949375808238983, 0.002819023560732603, 0.03624449670314789, 0.13919804990291595, 0.04092349857091904, -0.008999180980026722, 0.0023268740624189377, 0.01464234758168459, 0.09533721953630447, 0.062413133680820465, -0.3991910219192505, 0.06534206122159958, 0.15381044149398804, -0.09575294703245163, 0.022483818233013153, -0.03802696242928505, 0.20807918906211853, 0.04891502484679222, 0.01005505584180355], [-0.10504107177257538, -0.12674446403980255, -0.004881467204540968, 0.013205789029598236, -0.009659919887781143, 0.05000443384051323, 0.11875113844871521, 0.6049332618713379, -0.21500080823898315, 0.16596359014511108, 0.08045553416013718, -0.06598963588476181, -0.12243638187646866, 0.08081217855215073, -0.0075340354815125465, -0.07253509759902954, 0.10292594879865646, -0.013720978051424026, -0.1587938815355301, 0.01802843250334263, -0.0385817289352417, 0.012993582524359226, -0.2072756588459015, -0.02030436135828495, 0.008596480824053288, -0.1114894449710846, -0.11005225032567978, 0.05686674639582634, -0.06303445994853973, -0.006780963856726885, -0.0272908266633749, -0.04422357678413391], [0.07929708808660507, -0.05748419463634491, -0.015820985659956932, 0.17131319642066956, -0.007576551754027605, 0.02441166527569294, -0.13129839301109314, -0.011417228728532791, 0.009072408080101013, 0.021553440019488335, -0.08675512671470642, -0.013613127171993256, 0.058862634003162384, 0.1041356548666954, 0.009873743169009686, 0.037052638828754425, -0.08923123776912689, -0.04382554441690445, 0.07371930032968521, -0.01915949583053589, 0.08060912787914276, 0.027477992698550224, -0.06701711565256119, 0.044077880680561066, -0.0836840271949768, -0.0009756241925060749, 0.21291033923625946, 0.021706057712435722, 0.10649821907281876, -0.14456893503665924, -0.07502945512533188, 0.11398293823003769], [0.06333853304386139, 0.008485115133225918, 0.02905276231467724, 0.015536230988800526, -0.009151511825621128, -0.022252090275287628, -0.08335035294294357, 0.007976897992193699, -0.06024295836687088, -0.07476528733968735, -0.08324054628610611, 0.05502578988671303, 0.07769505679607391, 0.06465444713830948, 0.00036437317612580955, -0.05581759288907051, 0.06405455619096756, -0.04410800710320473, 0.017662787809967995, 0.002016727114096284, 0.036703601479530334, 0.03724692761898041, -0.03293357416987419, -0.014665773138403893, 0.002283721463754773, 0.01692250929772854, 0.025869397446513176, 0.02617022395133972, -0.05212007462978363, -0.04233111813664436, -0.04253110662102699, -0.02032831497490406], [-0.06537041813135147, 0.0209933090955019, -0.05887803062796593, 0.027577577158808708, 0.01076514646410942, -0.08397170901298523, -0.04581136256456375, -0.1638721376657486, -0.2147202342748642, 0.11069345474243164, -0.011861788108944893, 0.14583681523799896, -0.22696757316589355, -0.036057595163583755, -0.0030463875737041235, 0.016318388283252716, -0.1805659681558609, 0.06715446710586548, 0.0947514995932579, 0.00330097577534616, 0.0731620192527771, 0.014594080857932568, 0.021093687042593956, 0.17859533429145813, 0.03986065834760666, 0.04227915778756142, -0.10936565697193146, -0.003103575436398387, 0.10542502999305725, 0.01677066832780838, 0.31769824028015137, 0.13735331594944], [-0.23615719377994537, -0.07763097435235977, -0.06357038021087646, -0.08498209714889526, -0.014425496570765972, 0.23323732614517212, 0.2592008709907532, 0.5719348192214966, 0.021449582651257515, -0.043248336762189865, -0.23575572669506073, -0.5767878293991089, -0.050538092851638794, -0.11981005221605301, 0.0059150527231395245, 0.07487406581640244, -0.013383055105805397, 0.07625557482242584, 0.12813043594360352, -0.00020375837630126625, 0.16778062283992767, -0.07148624956607819, -0.21623793244361877, -0.19540317356586456, 0.004641424864530563, -0.10835850238800049, -0.007341678719967604, -0.01854121871292591, -0.11288129538297653, 0.1419600546360016, 0.09409496933221817, -0.08045347034931183], [0.002497968031093478, 0.08280733972787857, -0.20070002973079681, -0.23490726947784424, 0.0015627238899469376, -0.19383130967617035, -0.008677230216562748, -0.4010351002216339, -0.20291465520858765, 0.23824530839920044, -0.3176478445529938, 0.11547551304101944, -0.12285493314266205, -0.11643034219741821, 0.014928937889635563, -0.1325867921113968, -0.10394097119569778, -0.20835553109645844, -0.07541447877883911, -0.02007240429520607, 0.1871604472398758, -0.12329491227865219, -0.02899296022951603, -0.08672739565372467, 0.07203258574008942, 0.07088020443916321, -0.07858675718307495, -0.016553232446312904, -0.00030190934194251895, 0.24499401450157166, 0.2334606945514679, -0.009058577939867973], [0.06514754146337509, 0.0026221845764666796, -0.21863171458244324, 0.1747744232416153, 0.010704845190048218, -0.0762452483177185, -0.1958421915769577, -0.4228004515171051, -0.12197355180978775, 0.16144292056560516, 0.014626591466367245, 0.3470897078514099, -0.33950820565223694, 0.14718051254749298, 0.00019586054258979857, -0.06977704912424088, -0.12765169143676758, -0.03230312094092369, -0.009751532226800919, 0.005283051170408726, 0.04862532392144203, 0.07275337725877762, -0.08002705127000809, -0.453156441450119, 0.03955940902233124, 0.2587461769580841, 0.011585105210542679, 0.0040588220581412315, 0.26715660095214844, 0.062123022973537445, 0.1251673549413681, 0.10927870124578476], [-0.298746794462204, -0.00041229702765122056, 0.006608649622648954, -0.06003129109740257, 0.01860305666923523, 0.022671496495604515, 0.2113880217075348, 0.026114946231245995, -0.0028398819267749786, 0.03527497127652168, 0.01811026781797409, -0.014190217480063438, -0.2564844787120819, -0.23166720569133759, -0.00043621918302960694, 0.3134114444255829, -0.33256402611732483, 0.04663783684372902, -0.02011154033243656, -0.0014453490730375051, -0.1570897400379181, -0.03468373790383339, -0.01802803948521614, 0.03978333622217178, 0.03588015213608742, -0.06169610843062401, -0.007262490689754486, -0.09246789664030075, 0.2644333243370056, 0.02527664415538311, 0.048973631113767624, 0.062345296144485474], [-0.25211700797080994, 0.002221118425950408, 0.012991583906114101, -0.052817974239587784, 0.014797101728618145, -0.0019094370072707534, 0.17611046135425568, 0.01520951185375452, 0.015520965680480003, 0.017086153849959373, 0.0048660458996891975, 0.016359278932213783, -0.2000463753938675, -0.15809957683086395, -0.0004352340183686465, 0.2567916512489319, -0.2705577313899994, 0.004084322135895491, -0.044945187866687775, -0.0007744079339317977, -0.15673896670341492, -0.014051230624318123, -0.009442244656383991, -0.012841054238379002, 0.0022550623398274183, -0.034890785813331604, -0.019197886809706688, -0.09185339510440826, 0.20320142805576324, 0.060479216277599335, 0.020079106092453003, 0.03638576716184616], [-0.11382080614566803, 0.017322896048426628, 0.013422206044197083, -0.06513554602861404, 0.004012129735201597, 0.009324352256953716, 0.06447023153305054, 0.0428076907992363, -0.048013120889663696, 0.09977642446756363, 0.06086255982518196, 0.00588858500123024, -0.11785787343978882, -0.0174466110765934, -0.0018762469990178943, 0.14832833409309387, -0.08316153287887573, 0.05252128466963768, -0.040069643408060074, 0.001722476095892489, -0.018023965880274773, -0.03314850106835365, 0.05093919113278389, 0.010138333775103092, 0.007772044278681278, 0.032315656542778015, -0.040694039314985275, -0.012694783508777618, 0.10145431011915207, -0.03174695000052452, -0.00038290832890197635, 0.008024781011044979], [-0.023585503920912743, -0.008742264471948147, 0.05954231321811676, 0.03736812621355057, 0.009226338937878609, -0.05825599655508995, 0.04060991853475571, -0.13914558291435242, 0.05895780399441719, -0.036385033279657364, -0.0012210268760100007, 0.10435584932565689, -0.043651655316352844, -0.16092175245285034, 0.0010299417190253735, 0.12738510966300964, -0.13056133687496185, 0.05109943449497223, 0.014057202264666557, -0.004016220103949308, 0.008720564655959606, -0.03315466269850731, 0.03964028134942055, 0.02632017433643341, -0.004005023278295994, -0.07944580912590027, 0.038567110896110535, -0.028633730486035347, 0.11789964884519577, -0.018972599878907204, -0.0034525375813245773, 0.039326053112745285], [-0.0008699840400367975, -0.0006457317504100502, -0.0013646410079672933, -0.0021859672851860523, -0.0002645506465341896, -0.003513363189995289, 0.0037984426598995924, -0.005171678029000759, 0.001289232401177287, 0.0014587315963581204, -0.0010656006634235382, 0.008511146530508995, -0.004068796988576651, -0.007264383137226105, -0.0003449195937719196, 0.004872417543083429, -0.006939574144780636, -0.004168281331658363, -0.0009865844622254372, 0.0003138618194498122, -0.005665459204465151, -0.0011928444728255272, 0.004318069666624069, -0.0015248724957928061, 0.001964011462405324, 0.000695051858201623, 0.002728929976001382, 0.0013755999971181154, 0.004782031290233135, -0.002241480862721801, -0.004528161138296127, 0.0028644814155995846], [-0.305338978767395, 0.0026864511892199516, 0.016935573890805244, -0.06890904903411865, 0.019549911841750145, 0.014536235481500626, 0.24028803408145905, 0.03446111083030701, 0.0008218540460802615, 0.02483166567981243, 0.014234763570129871, 0.015930091962218285, -0.26640063524246216, -0.21143832802772522, -0.00047847849782556295, 0.3443848192691803, -0.3689849376678467, 0.015857186168432236, -0.04990023374557495, -0.001126370974816382, -0.21601781249046326, -0.0269022136926651, -0.013845251873135567, -0.0046731941401958466, 0.0027262151706963778, -0.042627040296792984, -0.024890610948204994, -0.1243370845913887, 0.2842549979686737, 0.06959592550992966, 0.03043176606297493, 0.058777403086423874], [-0.15765102207660675, 0.009552671574056149, 0.000471934414235875, -0.04356522113084793, 0.01794968545436859, 0.05651141330599785, 0.11026281118392944, 0.10053859651088715, 0.007444875780493021, 0.01779964752495289, 0.04537820816040039, -0.08553288877010345, -0.1436791568994522, -0.04873510077595711, -0.0008632619865238667, 0.12555749714374542, -0.1665540486574173, 0.024244097992777824, -0.0633895993232727, -0.0013041634811088443, -0.01377294585108757, -0.0128293726593256, -0.03428543731570244, -0.0016996642807498574, 0.0151377497240901, -0.004279096610844135, 0.006726827472448349, -0.08155765384435654, 0.12676532566547394, 0.004231738857924938, -0.04474781081080437, 0.016251474618911743], [-0.6545271873474121, 0.050667498260736465, -0.0022379106376320124, -0.12366332858800888, 0.027313698083162308, 0.0006445718463510275, 0.3797167241573334, 0.13926048576831818, 0.07591858506202698, 0.03157520294189453, 0.014616299420595169, -0.2061011642217636, -0.41662102937698364, -0.34968701004981995, -0.0002795616746880114, 0.45957931876182556, -0.45699575543403625, 0.016006771475076675, -0.1486566811800003, 0.0010903518414124846, -0.17551390826702118, -0.0007325094775296748, -0.10072972625494003, -0.10348062217235565, 0.04912292957305908, -0.05422263592481613, -0.12421411275863647, -0.18694613873958588, 0.30182620882987976, 0.3900042176246643, 0.13467960059642792, -0.0402844212949276], [-0.20142555236816406, 0.01313451211899519, 0.004319445230066776, -0.027818260714411736, 0.007318473886698484, 0.029982248321175575, 0.08548568189144135, 0.0610416904091835, -0.07878975570201874, 0.0973421260714531, 0.0336916521191597, -0.1172850951552391, -0.14106756448745728, 0.04214203730225563, 0.0005376192857511342, 0.11423934251070023, -0.127580463886261, 0.028875356540083885, -0.12556831538677216, -0.0016197870718315244, -0.0021545186173170805, 0.018517961725592613, 0.033486753702163696, 0.005736563820391893, 0.005195665173232555, 0.07335028797388077, 0.020969893783330917, -0.04261749982833862, 0.08249358087778091, 0.06720253080129623, -0.030066603794693947, 0.010752006433904171], [-0.2077198475599289, -0.03858954831957817, -0.009473276324570179, -0.02221274934709072, 0.01246173307299614, -0.0004061781510245055, 0.10913890600204468, -0.027703573927283287, -0.00707393791526556, -0.06434618681669235, -0.09547613561153412, -0.05783785507082939, -0.13457955420017242, -0.06674402952194214, -0.0005820256774313748, 0.1713329702615738, -0.1886933147907257, -0.0414368100464344, -0.12519749999046326, 0.0022845608182251453, -0.08170737326145172, 0.014340665191411972, 0.006613212171941996, 0.01448642648756504, -0.030006282031536102, -0.005942461080849171, 0.011103308759629726, -0.047713905572891235, 0.1392647624015808, 0.02124394290149212, -0.06924992054700851, -0.003482667962089181], [-0.21634355187416077, 0.018417326733469963, 0.03654858469963074, 0.014682874083518982, 0.0015961643075570464, -0.034182459115982056, 0.13675062358379364, 0.06704579293727875, -0.06667858362197876, -0.1148982048034668, -0.06472423672676086, 0.016389766708016396, -0.148139089345932, -0.07583107799291611, -0.0005894027999602258, 0.19214093685150146, -0.1852305680513382, -0.158881276845932, -0.10755623877048492, -0.0015535691054537892, -0.126015767455101, -0.04784025251865387, 0.01598215475678444, -0.03991193696856499, -0.027926580980420113, 0.03411423787474632, 0.03197852149605751, -0.01774127408862114, 0.17224422097206116, 0.055862102657556534, -0.11718542873859406, 0.018761420622467995], [-0.367769330739975, -0.007932603359222412, -0.050944019109010696, 0.10168486833572388, 0.0166018083691597, -0.11591211706399918, 0.1444547474384308, -0.23913666605949402, 0.5454582571983337, -0.3546365201473236, 0.06365408003330231, 0.17687244713306427, -0.05669601261615753, -0.7822997570037842, -0.0013849628157913685, 0.3322332501411438, -0.29414111375808716, -0.01614684984087944, 0.3720541298389435, 0.0015117290895432234, -0.0018192824209108949, -0.1275118589401245, -0.10076253861188889, -0.05603370442986488, -0.006583460606634617, -0.4692717492580414, -0.07701234519481659, -0.03003433346748352, 0.32125377655029297, 0.3912692368030548, 0.22152122855186462, 0.013305997475981712], [-0.3607593774795532, 0.016714992001652718, -0.006469305604696274, -0.046125926077365875, 0.012791278772056103, 0.0547407828271389, 0.16836659610271454, 0.1887042224407196, -0.10338731110095978, 0.11464916169643402, 0.019730286672711372, -0.4118862450122833, -0.48164787888526917, 0.08837958425283432, -0.0011411042651161551, 0.22290612757205963, 0.08859295397996902, 0.06451869755983353, -0.17944617569446564, 0.00033937004627659917, -0.0016729810740798712, -0.000807807082310319, 0.014582122676074505, 0.05157461017370224, 0.015496081672608852, 0.08330324292182922, -0.017590701580047607, -0.03471754118800163, -0.08036725968122482, 0.01706959865987301, -0.007276149000972509, 0.022062797099351883], [-0.19585488736629486, -0.01639322191476822, 0.0023411784786731005, -0.03126488998532295, 0.016725430265069008, -0.013951431028544903, 0.17164625227451324, -0.04730870574712753, 0.05034535750746727, -0.005058751907199621, 0.04468004032969475, 0.03738606721162796, -0.19282740354537964, -0.14737454056739807, 0.0001527685672044754, 0.29509031772613525, -0.29895535111427307, -0.005033834837377071, 0.019360659644007683, -0.0024188959505409002, -0.09304536134004593, -0.0115086380392313, 0.01405535452067852, 0.0053377035073935986, 0.033403780311346054, -0.08215945959091187, -0.014768542721867561, -0.08210121095180511, 0.2324410080909729, 0.03683309629559517, 0.036597274243831635, 0.05163346230983734], [-0.0003976019797846675, -5.320432592270663e-06, -6.425906758522615e-05, -0.00013532415323425084, -5.018770752940327e-05, -1.4259608178690542e-05, 0.0003073645639233291, 0.000104449616628699, 4.534541585599072e-05, 0.00010511594155104831, -7.588070002384484e-05, -0.0002681165642570704, -0.00034270103788003325, -0.00017949767061509192, 2.1076142786569108e-07, 0.0003860362630803138, -0.00039973840466700494, 3.106981603195891e-05, -0.00019334739772602916, -1.0027883945440408e-06, -0.0001435586455045268, 9.931763634085655e-05, -3.88608495995868e-05, -0.00014522029960062355, -2.260502878925763e-05, 6.481733726104721e-05, -3.98985757783521e-05, -0.00010981171362800524, 0.00023189101193565875, 0.00010843924974324182, -4.8298450565198436e-05, -8.535897359251976e-05], [-0.2655438780784607, 0.006471124943345785, -0.023665431886911392, 0.007664554752409458, 0.019644834101200104, 0.008566134609282017, 0.20643427968025208, 0.0011778319021686912, 0.021020907908678055, 0.017420226708054543, 0.012428678572177887, -0.025653498247265816, -0.22760061919689178, -0.2037450075149536, 0.00035928134457208216, 0.36456456780433655, -0.37775060534477234, -0.018996931612491608, 0.0036340903025120497, -0.002306633396074176, -0.14966103434562683, -0.02444932982325554, -0.02194291353225708, 0.014780363999307156, -0.016907500103116035, -0.06782327592372894, 0.036488935351371765, -0.0850839763879776, 0.26878973841667175, -0.005456927232444286, -0.006905189249664545, 0.0834847241640091], [-0.25944432616233826, -0.013666164129972458, -0.016660867258906364, -0.0009338625823147595, 0.017334723845124245, 0.0032190156634896994, 0.1794343888759613, -0.007986397482454777, -0.03793824836611748, 0.03180783987045288, 0.0012443977175280452, 0.08941282331943512, -0.2439919412136078, -0.19696614146232605, 0.00040574665763415396, 0.31363892555236816, -0.40887826681137085, 0.018206100910902023, -0.025280838832259178, -0.0024414274375885725, -0.1240803673863411, -0.04158651828765869, -0.014846280217170715, -0.012476648204028606, 0.01491039153188467, -0.05574898049235344, 0.019467251375317574, -0.071561798453331, 0.331133097410202, 0.026402344927191734, 0.023236749693751335, 0.07719414681196213], [-0.12647561728954315, -0.001603142824023962, 0.01432157214730978, 0.004774255678057671, 0.006009492091834545, 0.0263800248503685, 0.12096711248159409, -0.016138652339577675, -0.10373792052268982, -0.04747829958796501, -0.03301197662949562, 0.06343916803598404, -0.1212494820356369, -0.004983389750123024, -0.00036028228350915015, 0.11409588903188705, -0.2008182406425476, 0.01639251783490181, -0.06783148646354675, -0.0032594536896795034, -0.14477324485778809, -0.06096772849559784, 0.03320801630616188, 0.006583387032151222, -0.006838807370513678, 0.030997592955827713, 0.02627270109951496, -0.03394194692373276, 0.157096266746521, -0.0011023629922419786, -0.10532890260219574, 0.06107168272137642], [-0.29076501727104187, 0.022675441578030586, -0.009275847114622593, -0.06016898527741432, 0.010399897582828999, 0.0004912415752187371, 0.11962520331144333, 0.11042583733797073, -0.037495698779821396, 0.023490669205784798, -0.02533574029803276, -0.045349184423685074, -0.1948142945766449, -0.061491724103689194, 0.0002808361023198813, 0.14051000773906708, -0.20385199785232544, 0.040407802909612656, -0.10968746244907379, -0.0005400648224167526, -0.07262086123228073, -0.012450328096747398, -0.06361038982868195, -0.0562419667840004, -0.044439081102609634, 0.02960886061191559, -0.005653180181980133, -0.0539034940302372, 0.13665251433849335, 0.02253745310008526, -0.05085034668445587, 0.0026721598114818335], [-0.0033159067388623953, 0.00041990363388322294, 0.000726494996342808, -0.0014449245063588023, 0.00032682064920663834, 0.00013292038056533784, 0.0036761751398444176, -0.0010538579663261771, 0.0006328691961243749, -0.00046772524365223944, 0.0008025113493204117, 0.003409490454941988, -0.0029569503385573626, -0.0041144127026200294, 2.60640035776305e-06, 0.00501603540033102, -0.005138003267347813, 0.0015540398890152574, 0.0005624557379633188, -3.883339013555087e-05, -0.0023046438582241535, -0.00045287146349437535, 0.0003209691494703293, 0.0009557675803080201, 0.00119076541159302, -0.002194523112848401, -0.0007115625194273889, -0.001818138058297336, 0.0042345598340034485, 0.0008471146575175226, 0.00030969679937697947, 0.0007757609710097313], [-0.17689809203147888, -0.006892720237374306, 0.03951479494571686, -0.0025162328965961933, 0.015347916632890701, 0.06111955642700195, 0.033115725964307785, 0.06058832257986069, -0.02306733839213848, 0.05049833655357361, -0.054868184030056, -0.06776916980743408, -0.08330444991588593, -0.08382492512464523, 0.0010911428835242987, 0.1331436187028885, -0.13186334073543549, -0.04993779957294464, 0.015480183064937592, -0.0008997737313620746, -0.093067467212677, 0.00393251096829772, -0.11103969067335129, 0.0018462523585185409, -0.044948089867830276, -0.034891385585069656, 0.04072526469826698, -0.01836196705698967, 0.07174724340438843, -0.02386833354830742, 0.004705819766968489, 0.057737797498703], [-0.05846532806754112, -0.00917590968310833, -0.014718766324222088, -0.018283894285559654, 0.001085457974113524, 0.009362632408738136, 0.07567377388477325, 0.06040729209780693, -0.1024077832698822, 0.14432872831821442, -0.04455697908997536, -0.16191108524799347, -0.1107693463563919, 0.23122864961624146, 0.0011134771630167961, 0.061658136546611786, -0.014666758477687836, 0.04918314516544342, -0.12865638732910156, -0.0003436473198235035, 0.03830420598387718, 0.009535251185297966, 0.04391411691904068, -0.12919174134731293, 0.002545721596106887, 0.13106796145439148, 0.011292151175439358, -0.03282419964671135, -0.05773910507559776, -0.05939694866538048, -0.04729056730866432, 0.003909757826477289], [-0.1996481716632843, -0.0047360630705952644, 0.023823989555239677, -0.07001309841871262, 0.01160722877830267, 0.04242436960339546, 0.15945176780223846, 0.005633935332298279, -0.13672849535942078, 0.05106525868177414, 0.05922507867217064, 0.16770169138908386, -0.19670461118221283, -0.128780335187912, -0.0004495627945289016, 0.2605057954788208, -0.31205224990844727, 0.011813323013484478, -0.024262988939881325, -0.0018990414682775736, -0.2370378077030182, -0.05786491185426712, 0.03148655220866203, 0.02885335125029087, -0.004888536874204874, 0.017906328663229942, 0.0027713372837752104, -0.07598021626472473, 0.2518134117126465, -0.09837409108877182, -0.042567383497953415, 0.09732058644294739], [-0.40594255924224854, -0.014810716733336449, 0.007977651432156563, -0.10369843989610672, 0.027502665296196938, 0.003157645231112838, 0.31057652831077576, -0.020447170361876488, 0.020808178931474686, 0.03610232099890709, 0.01732276938855648, 0.07394731044769287, -0.3579677939414978, -0.34308722615242004, -0.0002565078320913017, 0.5132534503936768, -0.5264865159988403, -0.01843024231493473, -0.04170309007167816, -0.0013326510088518262, -0.31370773911476135, -0.02806364931166172, 0.010215448215603828, 0.022349156439304352, 0.04575245454907417, -0.08377192169427872, -0.028900446370244026, -0.16718344390392303, 0.3930615782737732, 0.05764416977763176, 0.054905835539102554, 0.09808244556188583], [0.15433713793754578, -0.014891973696649075, 0.010578201152384281, -0.01678924262523651, 0.010484181344509125, -0.01749187707901001, -0.01894892193377018, -0.13352903723716736, -0.029178963974118233, 0.014052145183086395, 0.043744686990976334, 0.30379021167755127, -0.025243015959858894, -0.05263524129986763, 0.0002913569041993469, 0.10132716596126556, -0.12067317217588425, 0.03553476929664612, 0.02887284941971302, -0.0009876431431621313, -0.07007675617933273, -0.01622188091278076, 0.01779935695230961, 0.13970597088336945, 0.031200047582387924, -0.046250827610492706, 0.03534325957298279, -0.02885119989514351, 0.12369894236326218, -0.2032129317522049, 0.024035021662712097, 0.08386217802762985], [-0.15515458583831787, -0.02040134184062481, -0.028144055977463722, -0.02441287599503994, 0.01605323702096939, 0.036297980695962906, 0.1452743411064148, -0.03103731945157051, -9.712686005514115e-05, 0.01371932215988636, 0.019403817132115364, 0.06857331842184067, -0.15478576719760895, -0.07473523914813995, 0.0007223124266602099, 0.21728648245334625, -0.2330051213502884, -0.011605748906731606, -0.02963411621749401, -0.0008811186417005956, -0.0938742607831955, 0.0022512597497552633, 0.007124735042452812, 0.06628996878862381, 0.024850444868206978, -0.03601178154349327, -0.00670388899743557, -0.07324957102537155, 0.17734016478061676, 0.00013757792476098984, 0.006037305574864149, 0.03861420601606369], [-0.06640151143074036, -0.02053862065076828, 0.016371598467230797, 0.027912883087992668, 0.00867798924446106, 0.007153778802603483, 0.04209263622760773, -0.022091470658779144, 0.06483679264783859, 0.020273225381970406, -0.0013839879538863897, -0.09307965636253357, -0.06604640930891037, -0.05016697570681572, 0.0004880369233433157, 0.09911774843931198, -0.10831397026777267, 0.02975562773644924, 0.011061827652156353, -0.0012014502426609397, -0.06508561223745346, -0.015541165135800838, -0.0024349293671548367, 0.008628537878394127, -0.03238283097743988, -0.03953847289085388, 0.04199400544166565, -0.03220164775848389, 0.08979931473731995, -0.005255166906863451, -0.026788746938109398, 0.03019680455327034], [-0.032666563987731934, 0.0008596758707426488, -0.019023708999156952, -0.007837394252419472, 0.002091276692226529, -0.003012889064848423, 0.046572599560022354, 0.004407355096191168, 0.03252066671848297, 0.04355752095580101, 0.018980342894792557, -0.024602368474006653, -0.04225657507777214, -0.03930477052927017, -0.0006327502778731287, 0.027836045250296593, -0.032610658556222916, 0.014215720817446709, -0.008147784508764744, 0.000233060447499156, -0.0035946727730333805, -0.01560320146381855, 0.006210165563970804, 0.0002474199282005429, 0.011796672828495502, -0.016125790774822235, -0.004100168123841286, -0.020107559859752655, 0.02730622887611389, 0.028901951387524605, 0.02536456473171711, 0.017047209665179253], [-0.19572104513645172, -0.05889648199081421, 0.01925806887447834, 0.28006553649902344, 0.011183997616171837, 0.10001637041568756, -0.29931360483169556, -0.0951908528804779, -0.08060862123966217, -0.08700862526893616, -0.008147450163960457, 0.76038658618927, 0.022506946697831154, 0.4637254774570465, 0.0016457204474136233, 0.268316388130188, -0.31541708111763, 0.02249966934323311, 0.09122539311647415, -0.0029726792126893997, -0.20432348549365997, -0.0013416397850960493, -0.09476248174905777, -0.10089815407991409, -0.01741410605609417, -0.05009763315320015, 0.015276541002094746, -0.015444047749042511, -0.014989879913628101, 0.04134552553296089, 0.01854090951383114, 0.09143199026584625], [0.056296881288290024, 0.007132649887353182, -0.0265676099807024, -0.09100602567195892, 0.009742102585732937, -0.008986889384686947, -0.08407828956842422, -0.2116006761789322, -0.02816004678606987, -0.04314880445599556, 0.0517117939889431, 0.5938635468482971, 0.07759726792573929, -0.16432128846645355, -0.0012146251974627376, 0.06546812504529953, -0.06794266402721405, -0.044941630214452744, 0.1940675675868988, 0.00027745001716539264, -0.13428077101707458, -0.03942161798477173, -0.006195962894707918, 0.16991683840751648, 0.1888386756181717, -0.1021685004234314, -0.05579366907477379, -0.047879837453365326, 0.11161372810602188, -0.0457930862903595, 0.1864365190267563, 0.1426127701997757], [-0.0037871890235692263, -0.024042025208473206, -0.004311336204409599, -0.011093548499047756, 0.007765024900436401, 0.021719539538025856, 0.03255803510546684, -0.05918816104531288, 0.007695742882788181, 0.009801682084798813, -0.008693806827068329, 0.06231459602713585, -0.06686808168888092, -0.05138695240020752, 0.0008601219742558897, 0.17618858814239502, -0.1605893075466156, 0.03355790302157402, 0.038003623485565186, -0.0030467731412500143, -0.03637394681572914, 0.01825484074652195, -0.0020472058095037937, 0.06785792857408524, 0.03491576761007309, -0.05747772380709648, 0.06903134286403656, -0.01684039644896984, 0.12314397841691971, -0.10003981739282608, -0.04315336421132088, 0.024794023483991623], [-0.03784170374274254, -0.012075746431946754, 0.014948492869734764, -0.02839132770895958, 0.0034108792897313833, 0.00030048686312511563, 0.04160420969128609, -0.049050625413656235, -0.03461405634880066, -0.010987687855958939, -0.025358563289046288, 0.11307501047849655, -0.049914564937353134, -0.053518690168857574, 0.00032818946056067944, 0.10236645489931107, -0.11504306644201279, -0.02040122076869011, 0.00796471443027258, -0.0015209217090159655, -0.09263867139816284, -0.017520034685730934, -0.0238803680986166, -0.008220760151743889, 0.0030830593314021826, -0.022871173918247223, 0.014346937648952007, -0.0245212335139513, 0.08962219953536987, -0.09545902162790298, -0.021710768342018127, 0.03630770370364189]], "rec.bias_ih_l0": [0.23292069137096405, 0.2943759262561798, -0.40229159593582153, 0.1258842647075653, 0.007754209917038679, 0.4018801748752594, 0.12469007074832916, 0.555492103099823, 0.07262313365936279, 0.02982272580265999, -0.4704623222351074, 0.5235134959220886, 0.20280030369758606, 0.2495572865009308, 0.0004579171654768288, 0.1638346016407013, 0.12026866525411606, -0.39929768443107605, 0.1090622991323471, 0.005587784107774496, 0.008186936378479004, 0.02792058326303959, 0.3208269476890564, 0.562062680721283, 0.11110513657331467, 0.18856368958950043, 0.08098959922790527, 0.03170489892363548, 0.14973151683807373, 0.09497084468603134, -0.15204764902591705, 0.07825999706983566, 0.1593737006187439, -0.1681799590587616, 0.5991257429122925, 0.0827501192688942, 0.0013809073716402054, -0.0743926614522934, 0.23324573040008545, -0.3044055998325348, 0.13221433758735657, 0.17906025052070618, 0.8161020278930664, -0.1182604506611824, 0.21792425215244293, 0.08471552282571793, 0.0005263735074549913, 0.22927385568618774, 0.2913840711116791, 0.6670962572097778, 0.1864224672317505, 0.004345085471868515, 0.3317284882068634, 0.005295575130730867, -0.04917231947183609, -0.1989045888185501, 0.017061728984117508, 0.08037329465150833, 0.16422805190086365, 0.0310745257884264, 0.14447791874408722, -0.0036331904120743275, 0.39675599336624146, 0.10307227075099945, -0.15540368854999542, -0.04801732674241066, 0.07780076563358307, 0.012494654394686222, 0.04153267294168472, 0.03716260939836502, 0.09427262097597122, 0.07809004187583923, -0.0959482416510582, -0.04860011860728264, 0.11263388395309448, 0.03178263083100319, -0.23875491321086884, -0.2074577659368515, -0.016681434586644173, 0.13821770250797272, -0.14785407483577728, -0.010978196747601032, -0.029462780803442, -0.0008645016932860017, -0.21450665593147278, 0.023392364382743835, 0.10102413594722748, 0.20824384689331055, -0.01613936759531498, -0.11531993746757507, 0.10692624002695084, -0.064236581325531, 0.1991836279630661, 0.07016811519861221, -0.06491591781377792, -0.03469577431678772, 0.3693508207798004, 0.298381507396698, 0.15440119802951813, 0.15045200288295746, 0.0077277435921132565, 0.40803560614585876, 0.19050802290439606, 0.4876866936683655, 0.15052053332328796, 0.2186381220817566, 0.2484651803970337, 0.36153146624565125, 0.253320574760437, 0.3556831181049347, 0.00045706648961640894, 0.42094525694847107, 0.4462870657444, 0.2350035309791565, 0.2421153336763382, 0.00558390561491251, 0.1518789529800415, 0.02162221074104309, 0.3316417932510376, 0.5754890441894531, 0.12111590802669525, 0.2611832618713379, 0.11744651198387146, 0.032218679785728455, 0.3441469073295593, 0.024247195571660995, 0.16967077553272247, 0.1309434473514557], "rec.bias_hh_l0": [0.23277470469474792, 0.2943759262561798, -0.5093315839767456, 0.12575939297676086, 0.007754209917038679, 0.4018801748752594, 0.13314849138259888, 0.555492103099823, 0.07162899523973465, 0.03673401102423668, -0.5330173373222351, 0.5235134959220886, 0.15449969470500946, 0.24923747777938843, 0.0004579171654768288, 0.1638326346874237, 0.12092765420675278, -0.39950230717658997, 0.10840027779340744, 0.005587784107774496, 0.008238371461629868, 0.024284452199935913, 0.32080918550491333, 0.562062680721283, 0.11110241711139679, 0.18763981759548187, 0.08082526177167892, 0.03170489892363548, 0.17369355261325836, 0.095769003033638, -0.17730166018009186, 0.07812630385160446, 0.15254689753055573, -0.1681799590587616, 0.6769409775733948, 0.08375071734189987, 0.0013809073716402054, -0.0743926465511322, 0.21994134783744812, -0.3043747842311859, 0.13672621548175812, 0.22532714903354645, 0.8368959426879883, -0.1650899350643158, 0.1587509959936142, 0.10310007631778717, 0.0005263735074549913, 0.22312763333320618, 0.2957165837287903, 0.6654760241508484, 0.18640263378620148, 0.004345085471868515, 0.3324742317199707, 0.0033368938602507114, -0.048739898949861526, -0.2053990364074707, 0.017125481739640236, 0.07823838293552399, 0.1640981286764145, 0.0310745257884264, 0.22198012471199036, -0.0057946606539189816, 0.39538493752479553, 0.10339784622192383, -0.19706454873085022, 0.08551177382469177, -0.007943857461214066, -0.07572191208600998, 0.016438612714409828, 0.005127202719449997, 0.1313783824443817, 0.12237419933080673, -0.0025800932198762894, 0.1625199019908905, 0.040280379354953766, -0.1253422349691391, -0.134987935423851, -0.018947791308164597, 0.0010480369674041867, 0.1784772425889969, -0.17883619666099548, 0.04853237047791481, -0.020430155098438263, -0.001404283568263054, -0.14440715312957764, 0.02297532744705677, -0.21135932207107544, -0.03672770783305168, 0.009428717195987701, -0.07369910180568695, 0.05925580486655235, -0.06420138478279114, 0.06357402354478836, 0.1078406348824501, -0.03018651343882084, 0.026869699358940125, 0.3892546594142914, 0.298381507396698, 0.1312754899263382, 0.15047869086265564, 0.0077277435921132565, 0.40803560614585876, 0.17748883366584778, 0.4876866936683655, 0.15059129893779755, 0.21795299649238586, 0.25284913182258606, 0.3617900609970093, 0.3826684355735779, 0.3551691472530365, 0.00045706648961640894, 0.42940250039100647, 0.44667452573776245, 0.23503436148166656, 0.24243484437465668, 0.00558390561491251, 0.15185536444187164, 0.05892825871706009, 0.331682950258255, 0.5754890441894531, 0.12102426588535309, 0.2610483765602112, 0.11709466576576233, 0.032218679785728455, 0.41190776228904724, 0.024944355711340904, 0.17342837154865265, 0.1310010552406311], "lin.weight": [[0.24512799084186554, -0.045762766152620316, -0.10698055475950241, -0.4714798331260681, 0.1179213672876358, 0.6958649158477783, -0.09439771622419357, 2.598543643951416, 0.10389719903469086, -0.237770676612854, -0.2929573655128479, -1.9126394987106323, 0.43608903884887695, -0.38443171977996826, -0.0023479692172259092, -0.11326880007982254, -0.1814642995595932, 0.11789585649967194, -0.15367689728736877, -0.1001472994685173, 0.3063479959964752, -0.6904178261756897, 0.937360405921936, 2.91810941696167, 0.7396673560142517, -0.6237857341766357, -0.08373630046844482, -0.005105115938931704, -0.1658547818660736, -0.5422756671905518, 0.24587197601795197, 0.10056069493293762]], "lin.bias": [0.10166458785533905]}}