{"model_data": {"model": "SimpleRNN", "input_size": 1, "skip": 1, "output_size": 1, "unit_type": "LSTM", "num_layers": 1, "hidden_size": 20, "bias_fl": true}, "state_dict": {"rec.weight_ih_l0": [[0.038275640457868576], [0.06886839866638184], [-0.1502750664949417], [0.2730579674243927], [-0.2715951204299927], [0.039567332714796066], [-0.14087630808353424], [0.021894536912441254], [0.011585276573896408], [-0.2037317007780075], [-0.11327213793992996], [-0.11028123646974564], [0.05000689625740051], [0.11542175710201263], [0.38905417919158936], [-0.14068526029586792], [-0.06519859284162521], [-0.18857966363430023], [-0.03129665181040764], [0.0038629979826509953], [0.04731830209493637], [0.37157994508743286], [-0.002329512732103467], [0.17039941251277924], [-0.03065253049135208], [-0.053858838975429535], [0.07360727339982986], [0.09476064145565033], [0.07233888655900955], [-0.08737693727016449], [0.006310873664915562], [-0.0757015123963356], [0.18484726548194885], [0.11601312458515167], [-0.20094993710517883], [-0.14369246363639832], [0.012167819775640965], [0.11530190706253052], [0.054265107959508896], [0.07129348069429398], [-0.07400576025247574], [-0.12360679358243942], [0.26102888584136963], [0.4372687041759491], [-0.20368874073028564], [-0.1986912339925766], [0.2803972363471985], [-0.9154958128929138], [-0.056337349116802216], [0.16424034535884857], [0.3839210271835327], [-0.17870278656482697], [-3.749399185180664], [-0.21247027814388275], [-0.061799775809049606], [-0.4015566110610962], [2.2631025314331055], [0.3343213200569153], [-0.4379335045814514], [-0.7732956409454346], [0.04232536628842354], [0.2944228947162628], [-0.1601307988166809], [0.12625887989997864], [-0.32021400332450867], [-0.04739309474825859], [-0.00808756984770298], [-0.296330064535141], [0.028168953955173492], [0.044660668820142746], [0.035569414496421814], [0.04191756621003151], [0.44879594445228577], [0.09427997469902039], [0.1663900464773178], [-0.16415752470493317], [-0.03794700279831886], [-0.03482210636138916], [0.10281344503164291], [-0.0042440518736839294]], "rec.weight_hh_l0": [[0.09965022653341293, 0.07999306917190552, 0.7003983855247498, -0.2858133614063263, 0.2717991769313812, 0.022515270859003067, 0.04570654034614563, -0.029427628964185715, 0.08354140818119049, -0.006313570775091648, 0.13451851904392242, -0.6563547849655151, -0.002380170626565814, -0.10671252012252808, -0.3961053490638733, -0.5667250156402588, -0.18909256160259247, 0.20706415176391602, -0.2054150253534317, 0.10737711191177368], [0.013447639532387257, -0.21092112362384796, 0.16436409950256348, 0.06213561072945595, 0.10659196227788925, 0.07793822884559631, 0.09587674587965012, -0.0512620247900486, 0.022161666303873062, -0.05142110958695412, -0.11423033475875854, -0.08086980879306793, 0.09387766569852829, 0.016050972044467926, -0.1858626753091812, 0.047505367547273636, 0.018754975870251656, 0.08231697231531143, 0.12860575318336487, -0.09514304995536804], [-0.002286297734826803, 0.28987619280815125, -0.04701051861047745, -0.6245349645614624, -0.02161269262433052, 0.09139902889728546, 0.12309528887271881, -0.1016395092010498, -0.07834126800298691, 0.1535920649766922, -0.000851979129947722, 0.03119460679590702, 0.2748588025569916, -0.10807126760482788, 0.08919243514537811, -0.08813238143920898, -0.21558967232704163, -0.0012266229605302215, -0.0009623996447771788, 0.18741962313652039], [0.32523080706596375, -0.3673793375492096, 0.789037823677063, 0.11034310609102249, 0.6746624708175659, 0.18220509588718414, -0.03257042169570923, -0.4523238241672516, -0.020147325471043587, -0.015869511291384697, 0.24116918444633484, -0.8707239031791687, -0.5539767742156982, 0.018946079537272453, -0.11994434893131256, -0.9365959763526917, 0.3172655403614044, 0.10716407746076584, -0.10498427599668503, -0.14880020916461945], [0.27659156918525696, 0.022585758939385414, 1.195335030555725, 0.1419990360736847, 0.212821364402771, -0.02174987643957138, -0.24239039421081543, 0.5147957801818848, 0.0862518846988678, -0.09906359016895294, -0.2093590795993805, -0.6975158452987671, -0.24091894924640656, -0.6834990978240967, -0.26599621772766113, -0.7911263108253479, -0.7236875891685486, -0.08203201740980148, -0.28185150027275085, 0.043454162776470184], [-0.022501684725284576, 0.21047845482826233, -0.48695024847984314, 0.30575937032699585, -0.46220678091049194, -0.01989136077463627, -0.07793932408094406, -0.12151705473661423, -0.0262357909232378, 0.0026948382146656513, -0.11552885919809341, 0.501070499420166, -0.3450654149055481, -0.025673693045973778, 0.45624804496765137, 0.3577798902988434, 0.043541133403778076, 0.06994780153036118, 0.14302554726600647, 0.07293211668729782], [-0.11440706998109818, 0.219572976231575, 0.4333951771259308, -0.31272652745246887, 0.013330583460628986, 0.11402782052755356, -0.18925347924232483, -0.08840315043926239, 0.024641605094075203, -0.11131462454795837, 0.2905617654323578, -0.5632139444351196, 0.016839373856782913, -0.07618501037359238, -0.21063730120658875, -0.4264552891254425, -0.16296912729740143, 0.0028956024907529354, -0.2855755388736725, 0.06353477388620377], [-0.0180117879062891, 0.20733825862407684, -0.5497914552688599, 0.3440481722354889, -0.3867732286453247, -0.028140215203166008, -0.12187756597995758, 0.045818839222192764, -0.03204268589615822, -0.0074070212431252, -0.08878785371780396, 0.5571561455726624, -0.26909083127975464, -0.04146499186754227, 0.42344722151756287, 0.42445510625839233, 0.13287930190563202, 0.08479141443967819, 0.16868753731250763, 0.05810369923710823], [-0.16988256573677063, 0.09383730590343475, 0.26487061381340027, -0.26768696308135986, -0.05292579531669617, 0.004751660395413637, 0.05108063295483589, -0.062366485595703125, -0.08298877626657486, 0.008859232999384403, 0.06202598661184311, -0.22795212268829346, -0.00916813500225544, 0.05530723184347153, -0.20584224164485931, -0.24149608612060547, -0.09678538143634796, 0.0060210260562598705, -0.15517641603946686, -0.0984015092253685], [-0.01578243263065815, 0.046386249363422394, 0.3979033827781677, -0.09576131403446198, 0.12201111763715744, 0.1058608815073967, 0.03464139625430107, -0.045625895261764526, 0.12602736055850983, -0.07660830765962601, 0.21364988386631012, -0.5200377702713013, -0.009686681441962719, -0.07577832788228989, -0.19894897937774658, -0.2920059561729431, -0.07294685393571854, -0.0011260808678343892, -0.20574559271335602, -0.05806957557797432], [-0.13333767652511597, -0.034667953848838806, 0.07115308195352554, 0.08775758743286133, 0.08774267882108688, 0.21517834067344666, 0.04801388084888458, -0.21113130450248718, 0.04064667597413063, 0.05314824730157852, -0.12401401251554489, 0.05679122731089592, 0.04183230176568031, -0.23113039135932922, 0.034414142370224, -0.03368465229868889, -0.03171151876449585, -0.0762668251991272, 0.14857691526412964, 0.2515239417552948], [-0.026603708043694496, 0.026883956044912338, -0.07349614799022675, 0.09579195827245712, 0.1025008112192154, -0.12288765609264374, -0.04969031736254692, -0.1256924271583557, -0.020639685913920403, -0.03805714473128319, 0.07835231721401215, 0.15062160789966583, 0.07221152633428574, 0.05727877840399742, -0.12683536112308502, 0.13488979637622833, 0.0705045610666275, -0.018330903723835945, -0.076743483543396, -0.07924583554267883], [-0.2589549124240875, 0.4949992299079895, -0.581375777721405, -1.5286080837249756, -0.8074108362197876, -0.15590792894363403, 0.38561850786209106, -0.19263699650764465, -0.1928998827934265, 0.18232493102550507, 0.3534960448741913, 0.08957245200872421, -0.0867827758193016, -0.31165581941604614, 0.3212830722332001, 0.3946969211101532, 0.2848735451698303, 0.07152339816093445, 0.03231021389365196, -0.04555520787835121], [0.09170161932706833, 0.2329256385564804, 0.11076994240283966, 0.049028728157281876, 0.26463019847869873, 0.16350021958351135, -0.06756829470396042, -0.5166727304458618, 0.02869940549135208, -0.04264184832572937, 0.012542514130473137, -0.08576813340187073, -0.15360122919082642, -0.0509251169860363, -0.07448101043701172, -0.10153298825025558, 0.5053712129592896, 0.14107179641723633, -0.02007080428302288, -0.04297029227018356], [-0.10997077822685242, -0.318663090467453, 0.6639400720596313, -0.07614880800247192, 0.5985143780708313, 0.02622850611805916, -0.3565507233142853, -0.492214560508728, 0.23281323909759521, 0.09129256010055542, -0.0019704075530171394, -0.6328294277191162, -0.3214080333709717, -0.22869578003883362, -0.3337577283382416, -0.6106491684913635, -0.15957315266132355, -0.31020715832710266, -0.027916153892874718, 0.23076482117176056], [0.06916280835866928, 0.1133938878774643, 0.0927061066031456, -0.40107905864715576, -0.00740952929481864, 0.03350842744112015, 0.005464386660605669, -0.15017324686050415, -0.0057145063765347, 0.014822399243712425, 0.17230524122714996, -0.10405422002077103, -0.031101226806640625, -0.32862386107444763, -0.5748598575592041, 0.08305245637893677, -0.06284991651773453, 0.06478091329336166, -0.3195394277572632, -0.3529037833213806], [0.01113236416131258, 0.3740282952785492, -0.6035740971565247, 0.1211269274353981, -0.2872283160686493, -0.08436228334903717, -0.05048858001828194, 0.03850027546286583, -0.029697129502892494, 0.03047521971166134, 0.03412935882806778, 0.5161634087562561, -0.14370499551296234, 0.007687963079661131, 0.2266094982624054, 0.5305436253547668, 0.10857295989990234, 0.05704541504383087, 0.1748693734407425, 0.01919635199010372], [-0.26130571961402893, 0.20021532475948334, 0.49845650792121887, -0.18355433642864227, 0.07512018829584122, 0.05021737515926361, 0.051483720541000366, -0.04690735414624214, 0.10419309139251709, 0.0750109851360321, 0.5040172338485718, -0.5553991198539734, 0.07278256863355637, 0.0892370194196701, -0.24312268197536469, -0.5208319425582886, -0.12116429954767227, -0.06719719618558884, -0.22402383387088776, 0.14577750861644745], [0.07543042302131653, 0.20753011107444763, 0.2132686823606491, -0.1972632110118866, -0.2502855062484741, 0.6911429762840271, 0.008294587023556232, -0.01470464002341032, 0.02475922927260399, -0.07276655733585358, 0.02923441119492054, -0.173500657081604, -0.004755325149744749, -0.04800766706466675, -0.1579524725675583, 0.1272551715373993, -0.3467693328857422, -0.07388049364089966, 0.22502999007701874, 0.09691178053617477], [-0.02465241588652134, 0.052954334765672684, -0.3480522632598877, 0.24179129302501678, -0.005468260031193495, 0.06745558977127075, -0.11169186234474182, -0.05845493823289871, 0.02799542434513569, -0.02950434386730194, -0.18543589115142822, 0.37011340260505676, -0.09533337503671646, -0.1087050512433052, 0.21272124350070953, 0.2572144865989685, 0.09943847358226776, 0.07880954444408417, 0.09564849734306335, 0.059900060296058655], [-0.014653634279966354, -0.14330922067165375, -0.6622025370597839, 0.2668604850769043, 0.008666271343827248, -0.037908442318439484, -0.09785445779561996, 0.08166201412677765, 0.008840619586408138, -0.008064513094723225, -0.3214596211910248, 0.8861989378929138, 0.03827264532446861, -0.16595008969306946, 0.3956567645072937, 0.5203225612640381, 0.20083779096603394, 0.09188541024923325, 0.2958694100379944, -0.12022873759269714], [-0.09335248172283173, -0.5055047273635864, -0.0006620684289373457, 0.4065854549407959, -0.3488960862159729, 0.07881130278110504, -0.05160374566912651, 0.03860284388065338, 0.0736798644065857, -0.23115040361881256, -0.26459425687789917, 0.2931191325187683, -0.33219754695892334, -0.08862084895372391, -0.03298988565802574, 0.0478651337325573, 0.13647879660129547, 0.06673593819141388, 0.17516227066516876, -0.11934243142604828], [-0.03415960073471069, -0.016498342156410217, -0.17908607423305511, -0.2982849180698395, -0.2837280333042145, -0.09943053126335144, -0.0009025396429933608, 0.24787473678588867, -0.005996403284370899, 0.0007083023083396256, -0.16794538497924805, 0.4375986158847809, 0.29370084404945374, 0.20640350878238678, 0.02199634723365307, 0.003449328476563096, -0.2611139416694641, 0.04437103495001793, 0.1396150439977646, 0.26903146505355835], [0.18880914151668549, 0.16691991686820984, -0.8372795581817627, -0.33612343668937683, -0.2711152732372284, 0.1932382881641388, 0.3482496738433838, -0.1400715708732605, -0.26340314745903015, -0.060192499309778214, -0.5329652428627014, 0.8929904103279114, -0.29027003049850464, 0.03910067304968834, 0.74886155128479, 0.6945810914039612, 0.9687894582748413, 0.18922917544841766, 0.19828686118125916, 0.08461292088031769], [0.30235156416893005, -0.1380145251750946, -0.7477767467498779, 0.17406241595745087, 0.24583569169044495, 0.05932844802737236, 0.3200714588165283, -0.35098886489868164, 0.07135052233934402, -0.00496350834146142, -0.0765373557806015, 0.6209038496017456, -0.16189275681972504, 0.14559601247310638, 0.766060471534729, 0.7241830229759216, 0.5655394792556763, 0.1281663477420807, 0.27547359466552734, 0.1437743902206421], [0.10616006702184677, -0.3563740849494934, -0.033726904541254044, 0.10813779383897781, 0.13346107304096222, 0.09856925904750824, 0.040812183171510696, -0.1813037246465683, 0.007184740621596575, -0.07478879392147064, -0.11075761169195175, 0.17644862830638885, -0.03759917989373207, 0.0017361327772960067, 0.22334815561771393, 0.06394894421100616, -0.43129509687423706, 0.019645066931843758, 0.041652046144008636, -0.2773246765136719], [0.06366035342216492, -0.2904479503631592, -0.6330195665359497, 0.14016962051391602, -0.19253607094287872, -0.30963942408561707, -0.03552945703268051, 0.08136545866727829, -0.09086772799491882, -0.007613136433064938, -0.3513672351837158, 0.9391900897026062, -0.17666596174240112, -0.13780519366264343, 0.3526569902896881, 0.5023310780525208, 0.310360312461853, 0.02297501266002655, 0.28181493282318115, -0.22390961647033691], [-0.2552378177642822, -0.03563119098544121, -0.09017036855220795, -0.03330983594059944, -0.19409461319446564, 0.05909059941768646, -0.09606542438268661, 0.002647948218509555, 0.0520959235727787, -0.04868743196129799, -0.006640354171395302, -0.17373570799827576, -0.2071705460548401, -0.15552881360054016, 0.2546263337135315, 0.012977343052625656, -0.17991791665554047, 0.08811947703361511, -0.047020092606544495, 0.1693255752325058], [0.05180281400680542, -0.30162903666496277, -0.3714904487133026, 0.2644219696521759, 0.05284804478287697, -0.07888475805521011, -0.030813120305538177, 0.12883105874061584, 0.02041284367442131, 0.0009369985782541335, -0.46639588475227356, 0.6245133876800537, -0.1217200756072998, -0.13558527827262878, 0.20609407126903534, 0.4189692735671997, 0.15743209421634674, 0.064830482006073, 0.26495370268821716, -0.0828012079000473], [0.08782900124788284, -0.18987081944942474, -0.5323624610900879, 0.19532160460948944, 0.041170939803123474, -0.1266247034072876, -0.041226670145988464, 0.03956862911581993, 0.07412880659103394, -0.06207084655761719, -0.31604301929473877, 0.6311216354370117, 0.03352056071162224, -0.02606060355901718, 0.13645245134830475, 0.5164663195610046, 0.26980146765708923, -0.014962469227612019, 0.21611683070659637, -0.020312869921326637], [-0.22256402671337128, -0.001574007561430335, 0.16225461661815643, 0.09916593879461288, -0.1361936628818512, 0.3125247657299042, 0.08427096903324127, -0.32721662521362305, 0.07756538689136505, 0.03231925144791603, -0.19871553778648376, 0.03977443650364876, -0.0863557681441307, -0.34031426906585693, 0.0704042911529541, -0.1919368952512741, -0.00939241424202919, -0.10660600662231445, 0.09757266938686371, 0.25059953331947327], [-0.026822887361049652, -0.027960948646068573, -0.08380226045846939, 0.1646151840686798, 0.18762990832328796, -0.00971869844943285, -0.13329274952411652, -0.24952375888824463, -0.04785005748271942, -0.11787856370210648, 0.12206192314624786, 0.22947639226913452, 0.03492305800318718, 0.0383383147418499, -0.2322220504283905, 0.19667644798755646, 0.1958068609237671, 0.005638876464217901, -0.1057404950261116, -0.33767053484916687], [-0.18831849098205566, 0.07956342399120331, 0.0656636655330658, -0.7970073223114014, -0.380830854177475, 0.0015620168996974826, 0.3616083860397339, -0.12130061537027359, -0.03561416268348694, 0.09768294543027878, 0.08321364223957062, -0.06456973403692245, -0.23601453006267548, 0.12001094222068787, 0.05432671681046486, -0.07386678457260132, 0.3453949987888336, -0.06724561750888824, 0.06957191228866577, -0.09000840783119202], [0.09456991404294968, 0.09330608695745468, -0.10210464894771576, 0.31415221095085144, 0.2760484516620636, -0.1252029687166214, -0.08893665671348572, 0.05447038263082504, 0.0840763971209526, -0.07644887268543243, -0.02824811078608036, 0.17356590926647186, -0.14989134669303894, -0.14637060463428497, 0.1733052134513855, -0.009233713150024414, 0.4588673412799835, 0.17150196433067322, 0.06628961861133575, 0.04018617421388626], [-0.3236796259880066, 0.3722515404224396, -0.8580232858657837, 0.056626658886671066, -0.46313920617103577, 0.03641467168927193, -0.19012907147407532, -0.42537692189216614, -0.13672886788845062, -0.1833721101284027, -0.000872407341375947, 0.36485034227371216, -0.36746862530708313, -0.12438519299030304, 0.03766097128391266, 0.8359366059303284, 0.5753723382949829, -0.03931529447436333, -0.14595414698123932, -0.3072184920310974], [0.10022016614675522, 0.005377863068133593, -0.3038378953933716, -0.2898877263069153, -0.23090268671512604, 0.030936751514673233, -0.035003554075956345, 0.2606777250766754, 0.01695702038705349, -0.010598345659673214, -0.14208316802978516, 0.3632895052433014, 0.08281183242797852, -0.2229030877351761, -0.2468116134405136, 0.16496022045612335, -0.076625294983387, 0.1266644299030304, -0.1161520704627037, -0.23285189270973206], [-0.15158303081989288, 0.3687618374824524, -0.4302278161048889, -0.5799609422683716, -0.33692657947540283, -0.14492984116077423, 0.09145882725715637, -0.26312315464019775, -0.028439905494451523, 0.12374000996351242, 0.20992106199264526, 0.1428409367799759, -0.11050279438495636, 0.354941725730896, -0.26800036430358887, 0.2778712809085846, -0.20001812279224396, -0.034142736345529556, 0.2246854156255722, -0.16623632609844208], [-0.013841994106769562, -0.2163105309009552, -0.6437629461288452, 0.25209692120552063, -0.06069553643465042, 0.04194890707731247, -0.09018390625715256, -0.05241609737277031, 0.0705542042851448, -0.09601011872291565, -0.3386329412460327, 1.0018706321716309, -0.25944700837135315, -0.009859778918325901, 0.4324607849121094, 0.6122146844863892, 0.030293360352516174, 0.16614075005054474, 0.2440689206123352, -0.05461769551038742], [0.006662349682301283, -0.03254809230566025, -0.19248458743095398, 0.16600055992603302, 0.1636006385087967, 0.6295864582061768, -0.30770838260650635, 0.21292655169963837, -0.10201366990804672, -0.23437730967998505, 0.08197299391031265, 0.39927271008491516, 0.1215563714504242, 0.13871601223945618, 0.05230182409286499, 0.4515977203845978, 0.023977501317858696, -0.13884344696998596, 0.03615359961986542, -0.41627058386802673], [0.12001635879278183, -0.2860836684703827, 0.09165333956480026, 0.26939284801483154, 0.5416367053985596, 0.34171754121780396, -0.19290189445018768, 0.09122566878795624, 0.05524085834622383, -0.2141011357307434, -0.27889490127563477, 0.14348191022872925, 0.13661466538906097, -0.00898905098438263, -0.0014831162989139557, -0.04946102946996689, -0.06609857827425003, 0.07610596716403961, 0.35846269130706787, 0.11428157240152359], [0.4389496445655823, 0.2027691900730133, 0.12841641902923584, 0.07695445418357849, 0.09276673942804337, -0.18916544318199158, 0.027146147564053535, -0.1070452407002449, -0.11522315442562103, -0.1829274445772171, 0.03341307118535042, -0.007250936236232519, 0.008198373019695282, 0.01833188720047474, -0.15390844643115997, -0.055412519723176956, 0.0276176817715168, 0.7837405800819397, -0.3576512336730957, -0.25533971190452576], [-0.06211346760392189, -0.03655371069908142, -0.24353238940238953, -0.6791335344314575, -0.10985857993364334, 0.21182776987552643, -0.06398016214370728, -0.040690574795007706, 0.22677989304065704, -0.050760768353939056, 0.2359151840209961, 0.1523204892873764, -0.11938968300819397, -0.12717567384243011, 0.044058628380298615, 0.28905776143074036, 0.1460939347743988, -0.054161787033081055, -0.22223985195159912, 0.035950180143117905], [0.09834178537130356, -0.12687456607818604, 0.10705193132162094, 0.10901819914579391, -0.09148182719945908, 0.13598211109638214, 0.12113504111766815, -0.08703494817018509, 0.0739952102303505, -0.038763806223869324, -0.026127753779292107, -0.27185261249542236, -0.34562087059020996, 0.06154758483171463, -0.05601220205426216, -0.07090717554092407, 0.5442720055580139, 0.006026639603078365, -0.06164886802434921, -0.04664158076047897], [0.10750357061624527, -0.007512239273637533, 0.11391336470842361, 0.2246459573507309, 0.26157906651496887, 0.06809588521718979, 0.11540835350751877, -0.3865426480770111, -0.005358052905648947, -0.08769979327917099, -0.14654862880706787, 0.05283016711473465, -0.28771355748176575, -0.0868380144238472, 0.414947509765625, -0.192262202501297, 0.6722349524497986, 0.2582680284976959, 0.006005110684782267, 0.21864472329616547], [-0.25811824202537537, -0.15351754426956177, -0.2863064706325531, -0.06821350008249283, 0.08888774365186691, -0.09023472666740417, -0.032012708485126495, 0.19389937818050385, 0.0330086275935173, 0.03311144560575485, -0.03882978856563568, 0.048959266394376755, 0.5043336749076843, 0.6571623682975769, -0.29920604825019836, 0.2651934325695038, -0.5317556858062744, -0.018601994961500168, 0.20791414380073547, 0.010722949169576168], [0.06620202958583832, 0.852540910243988, -0.20486710965633392, -0.476352721452713, 0.2532937228679657, 1.6965069770812988, 0.30306342244148254, -4.510656356811523, -0.1327446550130844, 0.04408777132630348, 0.36427947878837585, -0.1345091462135315, -0.7091329097747803, -0.5542789101600647, -0.5755714178085327, 0.28960826992988586, 1.5588403940200806, 0.20825321972370148, -0.5334261059761047, -0.06681863963603973], [0.12044625729322433, 0.04027293249964714, -0.14024823904037476, -0.1641896367073059, -0.08798076212406158, -0.0004989097942598164, 0.2800237834453583, 0.06195004656910896, 0.4167505204677582, 0.0651562362909317, -0.08387475460767746, -0.19648636877536774, 0.04460363835096359, 0.05529994145035744, -0.059770096093416214, 0.05505933240056038, -0.01898486167192459, 0.6038408279418945, 0.364218145608902, 0.6030166745185852], [0.25919109582901, -0.5216435194015503, 0.16771532595157623, 0.6710269451141357, -0.9714733362197876, -0.09319761395454407, -0.37085333466529846, 0.8207549452781677, 0.19541625678539276, -0.15606048703193665, 0.1875656545162201, -0.13115432858467102, 1.9527112245559692, 0.20612113177776337, 0.28934720158576965, 0.08488252013921738, -2.4841887950897217, 0.026292797178030014, -0.011148368939757347, -0.012790985405445099], [0.20027227699756622, -0.00495218625292182, 0.045774709433317184, 0.04130581393837929, -0.10890139639377594, -0.08752372115850449, -0.7023234963417053, -0.013485821895301342, 0.2906690239906311, 0.9459323883056641, 0.014383542351424694, -0.047776274383068085, 0.013758311979472637, -0.0028885407373309135, -0.020036986097693443, -0.1288880854845047, 0.03685753792524338, -0.0437956340610981, 0.1610405445098877, -0.04748125746846199], [0.1280861496925354, -0.08084537833929062, 0.07593511790037155, 0.05997733399271965, -0.027562448754906654, 0.19036217033863068, -0.008416984230279922, 0.02276584692299366, -0.8035075068473816, 0.31335845589637756, 0.06051620468497276, -0.14874860644340515, 0.1604497879743576, 0.059170499444007874, -0.0893152728676796, 0.15008866786956787, -0.112815260887146, 0.3503735065460205, -0.1446833610534668, 0.46432387828826904], [0.034513697028160095, 0.3249775469303131, -0.10363569855690002, -0.1591334342956543, -0.19448432326316833, -0.17068636417388916, 0.007548416964709759, 0.4378848969936371, -0.186610147356987, 0.17301592230796814, 0.03901475667953491, -0.09256194531917572, 0.19878531992435455, 0.3243032991886139, -0.05402335524559021, 0.09732373803853989, 0.20916931331157684, 0.11454730480909348, 0.11679715663194656, -0.2706504762172699], [-0.0731406882405281, -0.10538901388645172, -0.09650911390781403, 0.36017850041389465, 0.26675111055374146, 0.17234672605991364, -0.09597408771514893, -0.0740194022655487, 0.014858993701636791, -0.008427365683019161, 0.10939165949821472, 0.10319964587688446, 0.09364818781614304, 0.13952653110027313, -0.1116657704114914, 0.23294490575790405, -0.13935524225234985, -0.051272206008434296, 0.15369094908237457, -0.1217772364616394], [-0.28833192586898804, 0.20189806818962097, 0.12823063135147095, 0.39483642578125, -0.05496999993920326, -0.025886159390211105, -0.12506330013275146, 0.036642059683799744, -0.026720236986875534, 0.010911226272583008, -0.04694480821490288, 0.03481149673461914, 0.2642689347267151, 0.08814365416765213, -0.38034507632255554, -0.02815011329948902, -0.0377349853515625, 0.1602364033460617, -0.022878749296069145, -0.025998733937740326], [0.06627866625785828, -0.3424205482006073, 0.008884953334927559, 0.5146681666374207, -0.024077514186501503, 0.07237323373556137, -0.17894567549228668, -0.2048967033624649, 0.26058337092399597, -0.20153655111789703, -0.04942001774907112, -0.17587824165821075, 0.14264841377735138, 0.05714395269751549, -0.35093405842781067, 0.012491131201386452, -0.689526379108429, -0.06209055334329605, -0.1594647318124771, 0.3665159046649933], [-0.32020601630210876, 0.3265535533428192, -0.09559641033411026, -0.02179887890815735, 0.3936309814453125, 0.10761445760726929, 0.1934342235326767, -0.12960752844810486, -0.17053070664405823, 0.053549956530332565, 0.14945951104164124, -0.06387303024530411, -0.4155683219432831, -0.15303528308868408, 0.308646559715271, 0.09491919726133347, 0.8346768021583557, -0.21167220175266266, -0.14659617841243744, -0.382234662771225], [0.262740820646286, 0.07880379259586334, -0.16671700775623322, 0.10523498058319092, -0.12026412039995193, -0.07090099900960922, 0.07360831648111343, 0.07698288559913635, -0.011585519649088383, 0.12543632090091705, -0.0766204297542572, 0.19095909595489502, 0.30286651849746704, 0.2653050422668457, -0.19327472150325775, 0.3353552222251892, -0.4797597825527191, -0.07486996799707413, -0.01058551762253046, 0.09112473577260971], [0.3940150737762451, 0.44076216220855713, -0.4208545982837677, -0.9340000152587891, 1.6052472591400146, -0.14191412925720215, -0.0029821840580552816, 0.29271331429481506, -0.05249861255288124, 0.17793123424053192, -0.26808962225914, 0.17083711922168732, -1.3190144300460815, 0.19213078916072845, -0.11643049120903015, 0.0805652067065239, -0.09092897921800613, -0.018818484619259834, 0.10385173559188843, -0.09354447573423386], [-0.5270746946334839, 0.2463347315788269, -0.022354749962687492, -0.2560000717639923, 0.14897605776786804, -0.29368987679481506, -0.526101291179657, 0.011434648185968399, 0.07037462294101715, -0.2702946066856384, -0.12620581686496735, 0.1742764711380005, 0.06477782875299454, 0.08181632310152054, 0.05082977935671806, -0.17495714128017426, -0.0776420533657074, 0.36434438824653625, -0.1585981249809265, 0.15706823766231537], [0.3272521197795868, -0.07642894238233566, 0.25588783621788025, 0.4335707128047943, 0.08287166804075241, 0.24800091981887817, -0.131155326962471, -0.019327247515320778, 0.2691607177257538, -0.06409463286399841, -0.026381593197584152, 0.07728824019432068, 0.021206794306635857, -0.2770446538925171, 0.1281043142080307, 0.2732875645160675, -0.08393504470586777, 0.10042726993560791, -6.586873496416956e-05, -0.6140754222869873], [0.1503782421350479, -0.07352770119905472, 0.10950987786054611, -0.2519345283508301, -0.35033002495765686, -0.3297843933105469, -0.5822616219520569, -0.012865756638348103, -0.2427660971879959, -0.42411795258522034, 0.21722473204135895, 0.2359137237071991, -0.008328499272465706, -0.23170989751815796, 0.20897485315799713, -0.0022900826297700405, 0.19794318079948425, -0.09691515564918518, 1.4800015687942505, -0.053123559802770615], [0.062309909611940384, -0.05333371087908745, -0.22427357733249664, 0.10284102708101273, 0.05236954241991043, 0.023766128346323967, -0.05108284577727318, -0.17329898476600647, -0.06136076897382736, -0.040209606289863586, -0.013055607676506042, 0.32590872049331665, 0.11021359264850616, -0.015168487094342709, 0.2169903814792633, 0.21120120584964752, 0.12471134215593338, 0.05556268244981766, 0.13212016224861145, -0.18679200112819672], [0.06026438996195793, -0.33411839604377747, -0.14489872753620148, 0.3012365400791168, -0.15863658487796783, 0.19141925871372223, -0.09453974664211273, 0.1909007728099823, 0.03778863325715065, -0.13232409954071045, -0.26465779542922974, 0.34240642189979553, -0.29744699597358704, 0.24891549348831177, 0.18616068363189697, 0.19516871869564056, 0.33712953329086304, 0.05804252624511719, 0.14419470727443695, -0.04986371472477913], [-0.027819309383630753, 0.3731705844402313, -0.5560080409049988, -0.728242814540863, -0.045502956956624985, 0.055837299674749374, 0.0679570659995079, -0.05916488915681839, 0.013873877935111523, 0.08527101576328278, -0.1151663213968277, 0.5110917687416077, 0.15736159682273865, -0.060648780316114426, 0.06477134674787521, 0.516861617565155, 0.0707092434167862, 0.07995736598968506, 0.033738281577825546, 0.047338806092739105], [0.04293515905737877, -0.28659266233444214, -0.1327318400144577, 0.42521318793296814, -0.0673893615603447, 0.037241414189338684, -0.12470594793558121, 0.48971423506736755, 0.051004558801651, -0.020177938044071198, -0.3147043287754059, 0.2815497815608978, -0.29131412506103516, 0.16269652545452118, 0.14467933773994446, 0.19332481920719147, 0.14504116773605347, 0.024072065949440002, 0.074444979429245, 0.08206605166196823], [-0.029170196503400803, 0.282611608505249, -0.30785658955574036, -0.09667480736970901, 0.05335512012243271, -0.2148585021495819, 0.09387701749801636, -0.17116837203502655, -0.1817953735589981, 0.1900949329137802, 0.05351875722408295, 0.23146343231201172, 0.41168734431266785, -0.034388426691293716, -0.2999264895915985, 0.6563878059387207, 0.042704787105321884, 0.1269884705543518, 0.24899347126483917, -0.22247034311294556], [-0.08121386170387268, 0.2834146320819855, 0.09115555882453918, -0.30478528141975403, -0.13816401362419128, 0.012322943657636642, -0.10388056188821793, 0.08293302357196808, -0.09786625951528549, 0.1323878914117813, 0.611508846282959, 0.09771447628736496, -0.3060636818408966, 0.05050503835082054, 0.09547553211450577, 0.01838451623916626, -0.27677932381629944, 0.45537814497947693, 0.169704407453537, -0.11169970035552979], [-0.01755903847515583, 0.1589510440826416, -0.30303242802619934, 0.08854644000530243, -0.09852317720651627, -0.044247325509786606, -0.22093802690505981, 0.1271483153104782, -0.03788556158542633, -0.11999203264713287, 0.03573564812541008, 0.2689027190208435, -0.09892131388187408, -0.03542293235659599, 0.1448533684015274, 0.171953946352005, 0.10974330455064774, 0.0026261773891747, 0.04094509407877922, 0.13155274093151093], [-0.2888292372226715, 0.9537795782089233, -0.949697732925415, -1.0180124044418335, -0.9365826845169067, -0.12523120641708374, 0.1215965673327446, -0.12485121190547943, -0.20563580095767975, 0.3090696632862091, 0.37061047554016113, 0.24678274989128113, -0.23143137991428375, -0.3099321126937866, -0.05371825769543648, 0.8534727096557617, -0.6947808861732483, 0.14130954444408417, -0.04400963708758354, 0.08920370787382126], [-0.030011041089892387, -0.04615401476621628, -0.2190563976764679, 0.18419809639453888, -0.04400976747274399, -0.11648445576429367, -0.05195886641740799, 0.10193280130624771, 0.009706071577966213, -0.02170495316386223, -0.06755202263593674, 0.1883579045534134, 0.00198686053045094, 0.2101525366306305, 0.1324378401041031, 0.16319124400615692, 0.05461588501930237, 0.01410603802651167, 0.0630490630865097, -0.017651431262493134], [0.031192872673273087, -0.029583647847175598, -0.12749828398227692, 0.14377754926681519, -0.09227708727121353, -0.08010903000831604, 0.0018352917395532131, 0.07134632766246796, 0.020962830632925034, -0.05655069276690483, -0.04614837467670441, 0.02909824438393116, 0.02782757207751274, -0.12902294099330902, 0.20522882044315338, 0.12459887564182281, -0.025168024003505707, 0.011124336160719395, 0.09063789248466492, 0.07734117656946182], [-0.1344928741455078, -0.21240396797657013, 0.36091193556785583, 0.33181238174438477, -0.05933443456888199, 0.4117552936077118, -0.08036263287067413, 0.23666761815547943, 0.24524147808551788, -0.12485036998987198, -0.4675847589969635, 0.1601705402135849, -0.12887023389339447, -0.25780531764030457, 0.06785080581903458, -0.42505764961242676, 0.1091151088476181, -0.11878051608800888, -0.05275977402925491, 0.5005713701248169], [-0.10817261785268784, 0.1985582560300827, -0.3397220969200134, -0.16131845116615295, -0.4998690187931061, -0.36590975522994995, -0.17864926159381866, 0.4539506733417511, 0.045970041304826736, -0.10489081591367722, -0.09462358057498932, 0.5975702404975891, -0.22781306505203247, -0.16479164361953735, 0.16688172519207, 0.17750971019268036, 0.026825102046132088, 0.016597123816609383, -0.07185773551464081, -0.01263804268091917], [-0.05030430480837822, 0.2351401448249817, -0.47975751757621765, -0.5055567026138306, -1.547865867614746, -0.09573297202587128, -0.08894477039575577, 0.6379895210266113, -0.0883098617196083, -0.08040609210729599, 0.10938205569982529, 0.37203365564346313, -0.44945165514945984, 0.1332729309797287, 0.06516975909471512, 0.11843819916248322, -0.25347375869750977, 0.17039217054843903, 0.019938454031944275, -0.2701304256916046], [0.1131543517112732, 0.22472836077213287, 0.056468818336725235, 0.13149823248386383, 0.22092436254024506, 0.25003665685653687, -0.06732344627380371, -0.5869888663291931, 0.020104993134737015, -0.024757705628871918, -0.13417860865592957, 0.03572767600417137, -0.22541917860507965, -0.16150493919849396, 0.04648444429039955, -0.10661885142326355, 0.4321904182434082, 0.13366475701332092, 0.019612597301602364, -0.14913409948349], [0.05724453553557396, 0.020691294223070145, -0.02580214850604534, 0.4063434302806854, -0.22261615097522736, -0.07006405293941498, -0.03449847176671028, 0.007426637224853039, 0.002344562904909253, 0.0710453912615776, -0.24297784268856049, 0.22159045934677124, -0.16490834951400757, 0.07533621042966843, 0.5412181615829468, -0.0038412397261708975, 0.04858009144663811, -0.02124038152396679, 0.39326339960098267, -0.011297893710434437], [-0.0826161801815033, 0.2507683038711548, -0.46434488892555237, -0.29934459924697876, -0.0832621306180954, -0.06748964637517929, -0.005608316045254469, -0.003002081997692585, -0.12680986523628235, 0.00048067010357044637, -0.05271678790450096, 0.3951025605201721, 0.14050565659999847, -0.12393151968717575, -0.07166801393032074, 0.36481380462646484, 0.16755211353302002, 0.08321012556552887, 2.2311899101623567e-06, -0.2154952734708786], [0.01942741498351097, 0.34333789348602295, -0.590043842792511, 0.19699032604694366, -0.20978397130966187, -0.10560529679059982, -0.07921525090932846, 0.07499922066926956, -0.023213988170027733, 0.018651848658919334, -0.04528164118528366, 0.573776125907898, -0.16918623447418213, -0.0376708023250103, 0.24134643375873566, 0.510162353515625, 0.13736487925052643, 0.05140222981572151, 0.20812813937664032, -0.0028565500397235155], [0.06441071629524231, 0.1340789943933487, -0.1318976879119873, -0.018061254173517227, -0.15980209410190582, -0.09299058467149734, 0.027435339987277985, -0.004509704653173685, -0.21179284155368805, 0.00639847107231617, 0.07099027931690216, 0.20819933712482452, -0.12140338867902756, 0.009150423109531403, 0.13890738785266876, 0.20962876081466675, 0.011927972547709942, -0.03210415691137314, -0.08498402684926987, -0.08469293266534805], [0.06990660727024078, 0.02852439135313034, -0.15388113260269165, -0.05138462781906128, 0.048279643058776855, -0.7279638648033142, 0.04834284260869026, -0.1894356608390808, 0.09320683777332306, 0.1420462727546692, 0.09863130748271942, 0.03646637871861458, 0.3285245895385742, 0.2942204475402832, 0.183725506067276, 0.00012542828335426748, -0.15952074527740479, 0.04959411546587944, 1.3155537843704224, -1.0919170379638672], [-0.0964503362774849, 0.13790278136730194, -0.220597505569458, 0.11158347874879837, 0.12064877897500992, 0.047208890318870544, -0.09561974555253983, 0.0042581274174153805, 0.035912007093429565, -0.014142602682113647, -0.340956449508667, 0.20233258605003357, -0.11094173043966293, -0.43092548847198486, 0.1450364738702774, 0.1197042390704155, -0.0702458992600441, 0.11189982295036316, -0.09925012290477753, 0.1046249121427536]], "rec.bias_ih_l0": [-0.814735472202301, -0.18925786018371582, 0.014805635437369347, -0.6520772576332092, -0.5521983504295349, 0.5687877535820007, -0.6035512685775757, 0.647888720035553, -0.23862558603286743, -0.598084568977356, 0.12317626923322678, 0.15225127339363098, 0.2894364893436432, -0.1408214569091797, -0.774692714214325, -0.10302641242742538, 0.6371977925300598, -1.2405058145523071, -0.3661341965198517, 0.44782930612564087, 1.1351932287216187, 0.3192897439002991, 0.43635159730911255, 1.1071349382400513, 1.003819465637207, 0.1326240599155426, 0.9563642740249634, -0.05768224224448204, 0.6690769791603088, 0.7990748286247253, 0.15126876533031464, 0.4997076094150543, -0.015517232939600945, 0.21860986948013306, 0.950932502746582, 0.4687631130218506, 0.09453681111335754, 1.315329670906067, 0.5647304654121399, 0.15182697772979736, 0.037834033370018005, 0.09433741122484207, -0.3690248727798462, 0.050926242023706436, -0.10215486586093903, 0.19401469826698303, 0.036951616406440735, 0.15903164446353912, -0.03144259750843048, 0.06767723709344864, -0.21932965517044067, 0.27785712480545044, -0.3321899473667145, 0.16409020125865936, 0.1702350676059723, 0.32776641845703125, 0.3129498362541199, 0.04236922040581703, 0.09437344968318939, -0.4525177776813507, 0.3879605531692505, 0.35870978236198425, 0.5286639332771301, 0.45848938822746277, 0.1614212691783905, -0.29841354489326477, 0.19682735204696655, 0.3125702142715454, 0.19070695340633392, 0.06130550056695938, 0.05929367616772652, 0.5976582765579224, 0.3126245141029358, 0.03453440219163895, 0.2896813452243805, 0.2601965069770813, 0.7005344033241272, -0.024083657190203667, -0.020473167300224304, 0.301883339881897], "rec.bias_hh_l0": [-0.8455203175544739, -0.24764321744441986, 0.10750165581703186, -0.7219928503036499, -0.39956292510032654, 0.5687877535820007, -0.5957738757133484, 0.6491441130638123, -0.2350970208644867, -0.503338634967804, 0.11421266943216324, 0.21654970943927765, 0.3454696238040924, -0.12168814241886139, -0.8489993214607239, 0.07529407739639282, 0.6374711394309998, -1.216927170753479, -0.2823217809200287, 0.44832509756088257, 1.0184886455535889, 0.19762808084487915, 0.47660115361213684, 0.912788450717926, 0.9674317836761475, 0.15123699605464935, 0.8815295696258545, -0.09049216657876968, 0.7606222629547119, 0.8236246705055237, 0.1438082903623581, 0.4701535999774933, 0.09588707238435745, 0.21157671511173248, 1.0579050779342651, 0.4737044870853424, 0.15218107402324677, 1.2844260931015015, 0.4580538272857666, 0.12686237692832947, 0.18661831319332123, 0.050099555402994156, -0.34550073742866516, -0.016220690682530403, -0.20663057267665863, 0.07209070026874542, -0.1292542964220047, 0.07586999982595444, -0.054432764649391174, 0.08608756214380264, -0.2114086151123047, 0.22431258857250214, 0.02323293685913086, 0.12621502578258514, 0.14715352654457092, 0.14781688153743744, 0.0929480493068695, 0.0286497101187706, -0.11403355002403259, -0.3491535484790802, 0.38925084471702576, 0.35900017619132996, 0.6702309250831604, 0.39824604988098145, 0.27365967631340027, -0.3729766011238098, 0.31778737902641296, 0.32558155059814453, 0.16444657742977142, 0.016482356935739517, 0.054836299270391464, 0.5581439733505249, 0.3823668360710144, 0.03620006889104843, 0.35171768069267273, 0.45842230319976807, 0.7007501721382141, 0.0373782217502594, 0.005690976977348328, 0.31342655420303345], "lin.weight": [[-0.991931676864624, 0.5751493573188782, -0.23430919647216797, -0.5398158431053162, 0.39942073822021484, -0.4279860258102417, -0.9778081774711609, 0.1045706495642662, 0.42371875047683716, -0.49608364701271057, -0.5223323106765747, 0.12876558303833008, -0.010193205438554287, 0.3039989769458771, -0.05870320275425911, -0.008231089450418949, -0.1091807559132576, -0.45943424105644226, -0.43838971853256226, 0.6802424788475037]], "lin.bias": [0.0419851690530777]}}