{"model_data": {"model": "SimpleRNN", "input_size": 1, "skip": 1, "output_size": 1, "unit_type": "LSTM", "num_layers": 1, "hidden_size": 32, "bias_fl": true}, "state_dict": {"rec.weight_ih_l0": [[0.0027580501046031713], [-0.029451444745063782], [0.12632204592227936], [0.0009558324236422777], [0.021092774346470833], [-0.05392618849873543], [-0.019151892513036728], [0.000792011443991214], [0.08431218564510345], [-0.03156742453575134], [-0.01779639534652233], [0.010312681086361408], [0.005429390352219343], [-0.0037786769680678844], [-0.015916423872113228], [0.0003875295224133879], [0.008604894392192364], [-0.013139329850673676], [0.011085614562034607], [0.0034541948698461056], [0.02227655239403248], [-0.024576496332883835], [0.007301414385437965], [-0.11252185702323914], [-0.021461423486471176], [0.03781001642346382], [0.02853502705693245], [-0.24451029300689697], [-0.02451488748192787], [-0.03446486219763756], [-0.027562236413359642], [-0.011500922031700611], [-0.0018108984222635627], [-0.03596998006105423], [0.13712932169437408], [-0.04686812311410904], [0.028837798163294792], [-0.0786738395690918], [-0.04134438559412956], [0.0009957762667909265], [0.09969086199998856], [-0.07327282428741455], [-0.012297515757381916], [-0.0007960152579471469], [-0.06598874926567078], [0.07330629974603653], [-0.007910201326012611], [-0.037826865911483765], [-0.02870997227728367], [-0.03427092730998993], [-0.03452666848897934], [-0.08604079484939575], [-0.10440628230571747], [-0.006718718912452459], [0.08769706636667252], [-0.02551151253283024], [0.004368124064058065], [0.045932337641716], [0.11035539954900742], [-0.06949728727340698], [-0.06178298965096474], [-0.06470516324043274], [-0.06327254325151443], [-0.02122972533106804], [-0.5297002196311951], [0.25747227668762207], [-0.07149036973714828], [-0.14465804398059845], [-0.169514000415802], [-0.17027559876441956], [-0.2825905978679657], [0.003964847419410944], [0.27367550134658813], [-0.34647831320762634], [0.014191564172506332], [-0.13623282313346863], [-0.09792374819517136], [0.4240208566188812], [0.07639960199594498], [-0.2588673233985901], [-0.038736555725336075], [0.45058971643447876], [0.16546717286109924], [-2.691150188446045], [-0.02373918518424034], [-0.2117728441953659], [0.5566464066505432], [-0.6793791055679321], [0.068388432264328], [-0.01916031911969185], [-3.9026782512664795], [-0.03626718372106552], [-0.34452226758003235], [0.8441299796104431], [0.22208958864212036], [-0.29174408316612244], [-0.016379667446017265], [-0.04860350117087364], [0.19610081613063812], [-0.027187304571270943], [0.04102278873324394], [-0.18488255143165588], [-0.019256779924035072], [0.0007754249381832778], [0.09988415241241455], [0.1365399807691574], [-0.018272457644343376], [0.012849032878875732], [0.3570984899997711], [-0.03218691423535347], [-0.008370942436158657], [-0.011237855069339275], [0.029583755880594254], [-0.015409312210977077], [0.020509658381342888], [-0.08195659518241882], [-0.07223217189311981], [-0.06387364864349365], [0.12675926089286804], [-0.14464153349399567], [0.031890664249658585], [0.13878799974918365], [-0.01555263064801693], [0.025836963206529617], [-0.07196420431137085], [-0.06542838364839554], [-0.03574363514780998], [-0.015540402382612228]], "rec.weight_hh_l0": [[0.023275021463632584, -0.03884734958410263, -0.11349347233772278, -0.09397665411233902, -0.03530364856123924, -0.0031994320452213287, -0.07329767942428589, -0.009177600964903831, -0.04095039889216423, -0.05475862696766853, 0.0007069686544127762, -0.009251995012164116, 0.030605195090174675, -0.047745220363140106, 0.03966633230447769, 0.087320975959301, 0.0162147618830204, 0.0012713057221844792, -0.06843442469835281, 0.005334952846169472, 0.023411264643073082, -0.03329150006175041, -0.10625115036964417, 0.017495783045887947, 0.005639681126922369, -0.028817124664783478, -0.02033037506043911, 0.049011845141649246, 0.012034151703119278, 0.10842826217412949, -0.02287587895989418, -0.06393410265445709], [-0.02480015717446804, -0.051293835043907166, 0.026342252269387245, 0.06553814560174942, -0.019460251554846764, 0.23825344443321228, -0.08840510249137878, 0.001492364564910531, -0.04067624732851982, -0.008009359240531921, 0.0194975808262825, -0.019415168091654778, -0.014290617778897285, -0.09790199249982834, 0.013191244564950466, 0.0040753427892923355, 0.05989198386669159, -0.03200751915574074, 0.022238366305828094, -0.023547979071736336, 0.043337639421224594, 0.0060699377208948135, -0.033913176506757736, 0.06501412391662598, -0.17567631602287292, -0.00433976948261261, -0.024658838286995888, -0.06639479100704193, -0.05863985791802406, 0.014074795879423618, -0.07486619055271149, -0.02015499211847782], [0.1359318196773529, 0.24205254018306732, 0.056909266859292984, -0.5891676545143127, -0.024303527548909187, -0.672099769115448, 0.007731002289801836, 0.015695344656705856, 0.16940438747406006, 0.10739274322986603, -0.023989344015717506, 0.1976615935564041, -0.3564665913581848, 0.356006383895874, 0.05638754740357399, -0.11128752678632736, -0.021562574431300163, 0.05980704352259636, 0.26139336824417114, -0.462180495262146, -0.06141204014420509, 0.10268595069646835, -0.33190882205963135, 0.09555593132972717, 0.7422109246253967, 0.3292500674724579, -0.09999503195285797, 0.02016114443540573, -0.07153596729040146, -0.05355198308825493, 0.23569956421852112, -0.033344194293022156], [-0.030443914234638214, -0.10999173671007156, -0.00562974764034152, 0.006020987872034311, 0.021158963441848755, 0.16196681559085846, -0.03738027065992355, -0.002925946842879057, 0.09712604433298111, 0.048898886889219284, 1.3164475603844039e-05, -0.04786870256066322, 0.0686255618929863, 0.013695118948817253, 0.013457849621772766, 0.0812278613448143, 0.036204058676958084, -0.03440557047724724, -0.010035798884928226, -0.039852507412433624, -0.05267352610826492, -0.03259574994444847, -0.055829811841249466, -0.06213865056633949, -0.205518901348114, -0.06431851536035538, -0.09379783272743225, -0.03888290748000145, 0.07905402034521103, 0.08955170959234238, -0.13810791075229645, -0.019441431388258934], [0.02149057202041149, 0.06646136939525604, -0.01498853787779808, -0.0431654155254364, -0.06571650505065918, -0.139863058924675, -0.020269814878702164, -0.005408264230936766, 0.04752669110894203, 0.03492750599980354, -0.0058006648905575275, 0.01162627711892128, -0.02042137272655964, 0.25936388969421387, -0.09614358097314835, 0.03635919466614723, -0.00048587704077363014, -0.0734797939658165, 0.007983019575476646, 0.14119678735733032, -0.08077267557382584, 0.09601067751646042, 0.006442525424063206, 0.01939464919269085, 0.21374481916427612, 0.09664493054151535, -0.013073298148810863, -0.039387285709381104, -0.26570484042167664, -0.05000552535057068, -0.008219772949814796, -0.004864620044827461], [-0.05806649103760719, -0.05412456393241882, 0.014976203441619873, 0.02229076810181141, -0.036532722413539886, 0.15791010856628418, 0.06838946789503098, 0.005109747406095266, 0.03667167201638222, 0.08392135798931122, 0.0125668840482831, -0.01736382208764553, 0.05216752365231514, -0.13846996426582336, -0.022943509742617607, -0.03595992177724838, -0.04820283129811287, 0.021105457097291946, -0.016386348754167557, -0.08962899446487427, -0.01825118437409401, 0.03219243511557579, -0.0032694032415747643, -0.026828616857528687, -0.17448090016841888, -0.030730759724974632, -0.026689743623137474, -0.041221048682928085, 0.06700628250837326, -0.012272095307707787, -0.0032773916609585285, 0.012860155664384365], [-0.020212020725011826, -0.14201578497886658, -0.03194760903716087, 0.17062057554721832, 0.08698402345180511, 0.3536825180053711, 0.11240781843662262, -0.002695452654734254, -0.01854570209980011, 0.0503438375890255, -0.0004397382726892829, -0.0460004061460495, 0.02148122899234295, -0.0720335841178894, 0.009049622341990471, 0.05341881513595581, 0.1678200215101242, -0.00028614874463528395, -0.050655070692300797, -0.024342987686395645, -0.015590552240610123, -0.016998954117298126, -0.00023432121088262647, 0.06396200507879257, -0.4131481349468231, -0.11647213995456696, -0.04518577829003334, -0.03488534316420555, 0.010868575423955917, 0.06951282918453217, -0.03226125240325928, 0.028838245198130608], [0.0019637574441730976, -0.010674187913537025, -9.059986950887833e-06, 0.012900516390800476, 0.0013492173748090863, 0.01960880495607853, 0.012942020781338215, -0.0003100623143836856, -0.0002873167977668345, -0.00013491872232407331, 0.0009768509771674871, -0.007223337423056364, 0.0018007188336923718, -0.0037688547745347023, 0.003270550863817334, 0.0027935970574617386, 0.007218486163765192, 0.0025853055994957685, -0.0007581159588880837, 0.00134445377625525, 0.0006283887778408825, 0.00048350190627388656, 0.00774646271020174, 0.006450667977333069, -0.019810786470770836, -0.009510761126875877, -0.006583238020539284, 0.00035208507324568927, -0.0006761951954104006, 0.0003956049040425569, -0.0022861133329570293, 0.0009657001355662942], [-0.07437358051538467, -0.11698312312364578, -0.10876481235027313, 0.09993669390678406, 0.06899125128984451, 0.17619751393795013, -0.15950040519237518, -0.00909178052097559, 0.002104775048792362, -0.024287525564432144, -0.0007262307917699218, -0.046574220061302185, 0.09917689859867096, 0.04823749512434006, -0.05868929624557495, 0.15189425647258759, 0.18444868922233582, -0.03946945071220398, -0.03797786310315132, 0.11006391793489456, 0.025945577770471573, 0.006609372328966856, -0.19026759266853333, 0.05205630511045456, -0.1846466362476349, -0.016358381137251854, -0.18979263305664062, 0.02334180846810341, 0.017777569591999054, 0.1149960532784462, -0.13053329288959503, -0.018857579678297043], [-0.1156153529882431, 0.46542128920555115, 0.10297507047653198, -0.2799787223339081, -0.03446495160460472, -0.5679425597190857, -0.4118805229663849, 0.008369192481040955, -0.13532564043998718, 0.22914741933345795, -5.089711339678615e-05, -0.026476234197616577, -0.26301971077919006, 0.2995662987232208, -0.131943941116333, -0.1805458515882492, -0.48064568638801575, -0.2067001312971115, -0.04523612558841705, -0.10941467434167862, 0.020437609404325485, 0.09047892689704895, -0.347569078207016, -0.19943630695343018, 0.7422123551368713, 0.18900460004806519, 0.22005049884319305, 0.022675015032291412, 0.1467120349407196, 0.03184891492128372, 0.06598910689353943, 0.029305528849363327], [0.018061649054288864, 0.056643903255462646, 0.0007781178574077785, -0.04902828112244606, 0.0034138711635023355, -0.19058427214622498, -0.04221167042851448, 0.001872074557468295, 0.001545485109090805, 0.033446431159973145, 0.007002920377999544, -0.004869078751653433, -0.004477995447814465, 0.002786229830235243, -0.009541205130517483, -0.027074221521615982, -0.008899630047380924, -0.02196197398006916, -0.014997386373579502, -0.03250764682888985, -0.007142079062759876, 0.00973670557141304, -0.04085969552397728, -0.017775027081370354, 0.22077643871307373, 0.012763172388076782, 0.04310484975576401, 0.021359851583838463, -0.01958857849240303, -0.006925389636307955, -0.013216578401625156, -0.0035339046735316515], [-0.03637991100549698, 0.06982236355543137, -0.023018019273877144, -0.02991797961294651, 0.016890190541744232, -0.2711816430091858, -0.0867977887392044, 0.004238820634782314, 0.1596757173538208, -0.01935633085668087, 0.004899835214018822, -0.09241387248039246, 0.1567285656929016, 0.03141525760293007, -0.058361366391181946, 0.05303654074668884, 0.1441650688648224, -0.03727022185921669, -0.03936559706926346, -0.13409321010112762, -0.011738786473870277, -0.046350907534360886, -0.09443701058626175, -0.1127675399184227, -0.0729818195104599, -0.06554697453975677, 0.10208241641521454, 0.25839370489120483, 0.1288953721523285, -0.012362624518573284, -0.04839320480823517, 0.047689348459243774], [0.08507320284843445, 0.3398869037628174, 0.8194722533226013, -0.6566359996795654, -0.05559710040688515, -0.6758129000663757, -0.6138982772827148, -0.038619514554739, 0.07133686542510986, -0.07372157275676727, 0.04290202260017395, 0.11300137639045715, -0.2527541518211365, 0.23113836348056793, 0.018407121300697327, -0.9159194827079773, -0.695916473865509, -0.2797054350376129, 0.2593742609024048, -0.06960554420948029, -0.023081986233592033, -0.058435335755348206, -0.5867030620574951, 0.23369020223617554, 0.9817436933517456, 0.6285919547080994, 0.26373380422592163, 0.1036965623497963, 0.11578978598117828, -0.16217941045761108, 0.23859702050685883, -0.004957547876983881], [0.08305642008781433, 0.43150094151496887, 0.025410685688257217, -0.36309999227523804, 0.000436860864283517, -0.5697317123413086, -0.40412232279777527, 0.011212253011763096, -0.06870897859334946, 0.1434302031993866, -0.03177328035235405, 0.18430070579051971, -0.06443309783935547, 0.3203427791595459, 0.022426530718803406, 0.002674827817827463, -0.011908510699868202, -0.040782034397125244, 0.0764714926481247, -0.23056407272815704, -0.21931225061416626, 0.023200146853923798, -0.19526876509189606, 0.26753875613212585, 0.5425715446472168, 0.22703194618225098, -0.00014181886217556894, -0.1553652137517929, 0.15003788471221924, 0.09018456190824509, 0.17244203388690948, 0.1129726842045784], [0.07512771338224411, 0.013474677689373493, 0.005000693257898092, -0.07262324541807175, -0.014590139500796795, -0.03283408284187317, -0.037174042314291, -0.0033695511519908905, -0.06370054185390472, 0.0007178365485742688, -0.0025166852865368128, 0.019213903695344925, -0.022879572585225105, 0.03310283273458481, 0.04757438972592354, -0.036572348326444626, -0.09858313947916031, -0.0032222329173237085, -0.029897527769207954, 0.0048909736797213554, -0.04396188631653786, -0.009026373736560345, -0.04802251234650612, -0.019838683307170868, 0.030226534232497215, -0.052615098655223846, 0.04633209854364395, -0.017235497012734413, 0.09731142967939377, 0.015780234709382057, -0.009193846955895424, -0.0189061276614666], [0.0053067514672875404, 0.00013307378685567528, -0.0002607628412079066, 0.0023735552094876766, -0.009363390505313873, -0.05750324949622154, -0.06515888124704361, -0.001909028273075819, 0.039189983159303665, -0.021682340651750565, -0.013973998837172985, -0.02711500972509384, -0.010466299019753933, 0.021851027384400368, 0.038307592272758484, 0.035275861620903015, 0.11881344020366669, -0.039229899644851685, -0.03189840167760849, -0.08197028189897537, 0.01771518774330616, -0.03705046698451042, -0.24840094149112701, -0.0004861050401814282, -0.19366030395030975, -0.009172572754323483, -0.23077324032783508, 0.031369857490062714, 0.07151787728071213, -0.05889246240258217, -0.16483043134212494, 0.025885768234729767], [-0.12842676043510437, -0.03501935675740242, 0.025655686855316162, 0.10496543347835541, -0.08207355439662933, 0.12472565472126007, -0.2128610610961914, 0.013806669041514397, 0.10993237048387527, 0.1207277849316597, 0.012199657037854195, -0.08613359183073044, 0.3106611371040344, 0.08529884368181229, -0.09870059043169022, 0.08738961070775986, 0.07261724770069122, -0.03305255249142647, -0.1091141626238823, 0.16440600156784058, -0.018997253850102425, 0.015866635367274284, 0.03869831562042236, 0.08624540269374847, -0.06779521703720093, -0.0053774574771523476, 0.03917549550533295, 0.03215876594185829, -0.1124359518289566, -0.07908603549003601, -0.1373530477285385, 0.06924163550138474], [-0.024600686505436897, -0.09983299672603607, -0.06321726739406586, 0.14774863421916962, 0.023655284196138382, 0.2676003873348236, -0.02870449796319008, -0.0009696369525045156, -0.037362534552812576, -0.006235343404114246, 0.01200286578387022, -0.06654239445924759, 0.1328759491443634, 0.029558489099144936, -0.025999300181865692, 0.1208571195602417, 0.10184598714113235, -0.022118138149380684, -0.015958812087774277, 0.1731324940919876, 0.02919437550008297, 0.03261827304959297, 0.04102364927530289, 0.06428027153015137, -0.32002124190330505, -0.0700143501162529, 0.01795291341841221, -0.026382707059383392, -0.009931270033121109, 0.027374081313610077, -0.03822506219148636, 0.030325643718242645], [-0.048695147037506104, -0.06094866991043091, -0.03046279028058052, 0.11426804959774017, 0.005757632665336132, 0.03564225137233734, -0.07439140975475311, 0.0033631236292421818, -0.011779124848544598, 0.025231175124645233, 0.004245288670063019, -0.037783730775117874, 0.13554498553276062, -0.06005476415157318, -0.09166485071182251, 0.051673173904418945, 0.057400502264499664, -0.03446502611041069, -0.04698743298649788, 0.036924608051776886, -0.02377232536673546, 0.12691697478294373, 0.07220638543367386, 0.05659215524792671, -0.017584143206477165, 0.012954270467162132, -0.05534632131457329, 0.022518077865242958, 0.05985817313194275, -0.01135428436100483, -0.09570016711950302, -0.0013676099479198456], [0.08800875395536423, -0.019276266917586327, -0.23039644956588745, 0.26417824625968933, 0.16839998960494995, 0.3528255820274353, -0.4064352810382843, -0.0014189600478857756, 0.022086139768362045, 0.07611382007598877, 0.01446215808391571, -0.1255521923303604, 0.13470380008220673, -0.05552266165614128, 0.03594648838043213, 0.3228245675563812, 0.271197110414505, 0.10352791100740433, -0.0033859512768685818, 0.5159012675285339, -0.04735042527318001, 0.007994290441274643, 0.0659676045179367, 0.036802299320697784, -0.43589627742767334, 0.09586352109909058, -0.20595870912075043, 0.02246110327541828, -0.5649397969245911, 0.2838442921638489, -0.16633111238479614, -0.06521196663379669], [0.059193745255470276, 0.5118857026100159, -0.09837154299020767, -0.2667634189128876, 0.3449289798736572, -0.8051086068153381, -0.4774366319179535, 0.004346431232988834, 0.09742087870836258, 0.13181331753730774, 0.045239683240652084, -0.033971451222896576, 0.13415642082691193, 0.05504053831100464, 0.045245461165905, -0.2719095051288605, 0.03941955789923668, -0.09774275124073029, 0.04259724169969559, -0.23251743614673615, -0.11604737490415573, 0.14338141679763794, -0.20027461647987366, -0.05241880193352699, 0.8891928791999817, 0.23443248867988586, -0.08526551723480225, -0.1482653170824051, 0.0655592828989029, -0.07655355334281921, -0.1887294501066208, -0.04730404540896416], [0.018440892919898033, 0.07695931196212769, -0.04778720438480377, -0.14646637439727783, 0.03013155609369278, -0.3138192296028137, -0.19394156336784363, 0.0031132143922150135, 0.1149371936917305, 0.0701136440038681, -0.004663242492824793, 0.007576064206659794, -0.0631205141544342, 0.027404412627220154, -0.07591158896684647, -0.007347237318754196, -0.070992611348629, 0.006006688345223665, -0.029754292219877243, -0.17483621835708618, -0.08932411670684814, 0.11164464056491852, -0.1420040726661682, -0.04546235874295235, 0.3309214413166046, 0.01360982097685337, -0.0055995178408920765, 0.036451805382966995, 0.10254018008708954, -0.053364094346761703, -0.07302655279636383, -0.009812668897211552], [-0.01709102839231491, -0.18195359408855438, -0.03650827333331108, 0.29972130060195923, 0.09451727569103241, 0.3257644772529602, -0.012672781012952328, -0.010272075422108173, -0.010167988017201424, 0.06845009326934814, 0.016323279589414597, -0.14459912478923798, -0.030974294990301132, -0.18156960606575012, 0.0601033940911293, 0.10975606739521027, 0.08546173572540283, -0.05234513431787491, -0.11778171360492706, 0.12193839251995087, 0.01704137586057186, -0.024340281262993813, -0.008380359038710594, 0.05822116136550903, -0.26079899072647095, -0.15950563549995422, -0.07489146292209625, 0.04857829958200455, 0.019278211519122124, 0.12556754052639008, -0.10849565267562866, -0.024431070312857628], [0.0056730653159320354, 0.5382580757141113, -0.441320538520813, -0.3416482210159302, -0.16128775477409363, -0.9293163418769836, -0.29842162132263184, 0.0001442568755010143, -0.02909153327345848, 0.10260024666786194, -0.01676441729068756, 0.14982877671718597, 0.012964260764420033, 0.049066852778196335, 0.01988658867776394, -0.15272901952266693, 0.13390284776687622, -0.12290530651807785, 0.09089109301567078, -0.13367612659931183, -0.3291623294353485, 0.19005371630191803, -0.1287914365530014, -0.29272884130477905, 0.8198360800743103, 0.5180724859237671, -0.07639002799987793, 0.18784241378307343, 0.14771798253059387, 0.2898769974708557, -0.021658966317772865, -0.035376254469156265], [0.006355403922498226, 0.06881039589643478, -0.3738315999507904, -0.017253685742616653, 0.13611261546611786, -0.07203338295221329, -0.16217298805713654, -0.004669629968702793, -0.05967775359749794, -0.11134305596351624, 0.01758706197142601, -0.04106931760907173, 0.250080943107605, 0.05277028679847717, 0.0806511715054512, 0.08505573868751526, -0.061043620109558105, -0.013310476206243038, 0.0896020382642746, 0.19688597321510315, 0.04616162180900574, -0.06981701403856277, 0.046115901321172714, -0.022698694840073586, -0.06313444674015045, 0.0883585512638092, 0.23676879703998566, 0.005298669449985027, -0.1732645183801651, 0.1202194094657898, 0.07928385585546494, -0.14708921313285828], [-0.021350007504224777, 0.011723821051418781, -0.031118178740143776, -0.09584984928369522, 0.01606656238436699, -0.13758735358715057, 0.007779216859489679, -0.002980153076350689, 0.0704621896147728, -0.05887241289019585, -0.003187312977388501, 0.006377060431987047, -0.11819306015968323, 0.17316100001335144, 0.04688036069273949, -0.01819508522748947, -0.0025979820638895035, -0.04133445769548416, 0.007481249049305916, -0.33993950486183167, -0.07165763527154922, -0.047869518399238586, -0.12781596183776855, -0.03709529712796211, 0.0146324522793293, -0.08629785478115082, -0.0002196785935666412, 0.14016884565353394, 0.42670682072639465, -0.04031875357031822, 0.03386366367340088, 0.026788312941789627], [-0.00474141351878643, -0.2586706280708313, -0.15384618937969208, 0.36767351627349854, 0.06231981888413429, 0.3902866840362549, 0.22239477932453156, -0.011138266883790493, -0.0672810897231102, 0.10579156875610352, -0.0024813611526042223, -0.0962977334856987, 0.10726315528154373, -0.12497435510158539, -0.01765272207558155, 0.19452795386314392, 0.42131513357162476, -0.03990348055958748, 0.0384523943066597, -0.11377664655447006, -0.015582563355565071, 0.021356727927923203, -0.03494684398174286, -0.011176223866641521, -0.6013798713684082, -0.12120060622692108, -0.1427856832742691, 0.05445709079504013, 0.0802488625049591, 0.17717890441417694, -0.10965673625469208, 0.0025489646941423416], [-0.016318466514348984, 0.5074307322502136, -0.21098829805850983, -0.4366775453090668, 0.24656926095485687, -0.6344865560531616, -0.5610261559486389, 0.003395180683583021, 0.04430747404694557, 0.13104040920734406, -0.0430314727127552, 0.044339269399642944, -0.06861197203397751, 0.2844673991203308, 0.004306101705878973, -0.2226189821958542, 0.04792892932891846, 0.1513046771287918, 0.23961234092712402, -0.31040632724761963, -0.11773724853992462, -0.07315023243427277, -0.1533711701631546, 0.04349778965115547, 0.7515788078308105, 0.6147341132164001, -0.10254696756601334, 0.20992930233478546, 0.23016174137592316, 0.15781176090240479, 0.03020474500954151, -0.005481112748384476], [0.0014443030813708901, -0.1605672389268875, -0.0935421958565712, 0.37506893277168274, 0.08396272361278534, 0.48357054591178894, -0.034216053783893585, -0.007655086927115917, -0.07501943409442902, 0.02232927829027176, 0.028063524514436722, -0.16475224494934082, 0.125007763504982, -0.0401468388736248, 0.028575874865055084, 0.2022721916437149, 0.12254444509744644, -0.028507832437753677, -0.09261667728424072, 0.3259141445159912, 0.03560002148151398, 0.0029612493235617876, 0.2490539252758026, 0.15125015377998352, -0.48629680275917053, -0.17209620773792267, 0.016018496826291084, 0.01684926450252533, -0.02197437733411789, 0.09077286720275879, -0.14262855052947998, -0.024354184046387672], [-0.014968437142670155, -0.17257513105869293, -0.005509454291313887, 0.13250671327114105, 0.025164376944303513, 0.22027352452278137, 0.07546863704919815, 0.0002287546085426584, -0.010286388918757439, -0.044900353997945786, 0.008073014207184315, -0.08971252292394638, 0.14464865624904633, -0.11086562275886536, 0.06805645674467087, 0.017064880579710007, 0.08228524774312973, 0.02214529924094677, -0.028148196637630463, 0.13533303141593933, -0.042529650032520294, -0.01469286996871233, 0.1093808114528656, 0.021079545840620995, -0.20331065356731415, -0.1689475178718567, -0.036567721515893936, -0.018553035333752632, -0.05394686385989189, -0.0812239870429039, -0.06804860383272171, 0.022331366315484047], [-0.03667484223842621, -0.016903681680560112, 0.04694847762584686, -0.03068879246711731, -0.07493846863508224, -0.06848572194576263, 0.14716000854969025, 0.011157008819282055, 0.06039222702383995, -0.014952392317354679, -0.00915083009749651, 0.03889302909374237, 0.21307171881198883, 0.05267703905701637, 0.004946167580783367, 0.05436807870864868, 0.13522490859031677, 0.04640820249915123, -0.004111973103135824, -0.11527637392282486, 0.1042962372303009, 0.022626997902989388, -0.045347996056079865, -0.027858827263116837, 0.017983850091695786, 0.031195450574159622, 0.05278860405087471, -0.11175275593996048, 0.24630603194236755, -0.1274692267179489, -0.04094279557466507, 0.03808246925473213], [-0.004034220241010189, -0.09403233230113983, 0.02113625407218933, 0.1397469937801361, -0.003382372669875622, 0.22225011885166168, 0.13665318489074707, -6.115690484875813e-05, 0.014637615531682968, -0.010037213563919067, 0.010127656161785126, -0.06975364685058594, 0.017551563680171967, -0.01880817860364914, 0.02140306681394577, 0.02413181960582733, 0.09713464230298996, 0.016000637784600258, -0.027888253331184387, 5.860785677214153e-05, 0.026624061167240143, -0.014048325829207897, 0.06485160440206528, 0.07688285410404205, -0.24344129860401154, -0.10774464160203934, -0.03302505612373352, 0.0027970874216407537, -0.0034412366803735495, -0.03216526657342911, -0.004560369998216629, 0.04847817122936249], [-0.018286138772964478, -0.17413903772830963, -0.04392007365822792, 0.1098845824599266, -0.06458938866853714, 0.359099805355072, 0.1147785484790802, -0.007272456306964159, 0.032796718180179596, -0.09610892832279205, 0.0023320030886679888, -0.03244110196828842, 0.12456100434064865, -0.06793873757123947, 0.003600940341129899, 0.04963643103837967, -0.03022950142621994, -0.07395901530981064, -0.058768827468156815, 0.1191243827342987, 0.09180845320224762, -0.037859100848436356, -0.07945535331964493, 0.05166387930512428, -0.37925800681114197, -0.12784746289253235, -0.07819191366434097, 0.018362248316407204, -0.016394024714827538, -0.006242992356419563, -0.07174182683229446, -0.029514411464333534], [-0.03286730870604515, -0.03120134398341179, 0.00974928680807352, 0.0013832576805725694, 0.003997838124632835, 0.17188669741153717, -0.10719028860330582, -0.0008727232343517244, -0.06628395617008209, -0.027779309079051018, 0.018241481855511665, -0.0031088038813322783, -0.034866850823163986, -0.10348610579967499, 0.03127973899245262, -0.03068935126066208, 0.10406368970870972, -0.04731354862451553, 0.05881009250879288, -0.11856092512607574, 0.06846902519464493, -0.028573893010616302, -0.12311800569295883, 0.09739285707473755, -0.1111493706703186, 0.046149034053087234, -0.08256068080663681, -0.10146798938512802, -0.04982790723443031, 0.024585764855146408, -0.08838684856891632, -0.0542164146900177], [0.1161249503493309, -0.41968223452568054, -0.035640470683574677, 0.3547309339046478, -0.03508254885673523, 0.646492063999176, 0.4074968993663788, 0.003598566399887204, 0.10187060385942459, 0.02185274288058281, 0.0009204398957081139, -0.21202735602855682, -0.17287567257881165, -0.017916744574904442, -0.1148819848895073, 0.07151299715042114, 0.15401114523410797, -0.1785595864057541, 0.04115156829357147, 0.25398796796798706, 0.10905560851097107, 0.08477500826120377, 0.12423333525657654, 0.01935279555618763, -0.643234133720398, -0.28439077734947205, -0.019979558885097504, 0.024927200749516487, -0.3337722718715668, 0.03326045349240303, -0.19121912121772766, -0.034274764358997345], [-0.06389772891998291, -0.13812461495399475, -0.024589767679572105, -0.18118725717067719, 0.02499198727309704, 0.12585678696632385, -0.08051688224077225, -0.007030304986983538, 0.09869933873414993, 0.1338491141796112, -0.008632311597466469, -0.023359928280115128, 0.01031459216028452, 0.09106573462486267, 0.04973343014717102, 0.10893400758504868, 0.13743813335895538, -0.23958151042461395, 0.024748122319579124, -0.11780574917793274, -0.09691298753023148, -0.03520708531141281, -0.258574903011322, -0.15248697996139526, -0.1550150066614151, 0.010819688439369202, -0.09933120757341385, -0.03516623005270958, 0.09896156191825867, 0.20924489200115204, -0.2463943511247635, -0.029389191418886185], [0.05039137229323387, -0.07104597240686417, 0.05472591891884804, 0.08168980479240417, -0.16823607683181763, 0.21836905181407928, 0.21931560337543488, -0.007757104001939297, 0.024781251326203346, -0.01839456520974636, -0.01123206876218319, -0.01446476113051176, 0.07308860868215561, 0.28735828399658203, -0.08544444292783737, 0.039256513118743896, -0.016187572851777077, -0.07990647852420807, 0.009631706401705742, 0.31548672914505005, -0.03906220197677612, 0.12866583466529846, 0.18028013408184052, 0.07233824580907822, -0.17303945124149323, -0.016297368332743645, -0.04366770014166832, -0.14620375633239746, -0.3755757510662079, -0.16211706399917603, -0.0025988942943513393, 0.023590559139847755], [-0.07954106479883194, -0.24796640872955322, 0.050936803221702576, 0.1633765548467636, -0.035933420062065125, 0.427440881729126, 0.13547685742378235, 0.007762668188661337, 0.040113627910614014, 0.23021300137043, 0.01871250942349434, -0.07846975326538086, 0.17366868257522583, -0.32180407643318176, -0.018020251765847206, -0.024660658091306686, -0.049626823514699936, -0.01055220142006874, -0.07276149094104767, 0.06662687659263611, -0.05184846371412277, 0.04186070337891579, 0.13308924436569214, -0.060152046382427216, -0.403385192155838, -0.12467788904905319, 0.01924498751759529, -0.2407497614622116, -0.01514060702174902, -0.00508637772873044, -0.019754044711589813, 0.006037961225956678], [-0.02618843875825405, -0.10284878313541412, -0.04058047756552696, -0.045773014426231384, 0.023454129695892334, 0.1383066028356552, 0.3104322850704193, 0.021953515708446503, 0.0749540627002716, 0.05627106502652168, -0.013165812939405441, 0.019013315439224243, 0.0946168303489685, 0.005515802651643753, -0.1041286513209343, -0.0098967794328928, 0.19153358042240143, 0.07636494934558868, 0.05543570965528488, -0.37788498401641846, -0.05199439078569412, 0.10372886061668396, -0.1312389075756073, 0.019809164106845856, -0.12304024398326874, -0.00042900399421341717, -0.034908320754766464, -0.14670003950595856, -0.08199985325336456, -0.037718694657087326, 0.07774091511964798, 0.06120213866233826], [0.0019747084006667137, -0.011890639550983906, 0.00020483965636231005, 0.014425049535930157, 0.0013203442795202136, 0.02140052802860737, 0.013371746055781841, -0.0003415919200051576, -0.0005019506788812578, 0.00026230470393784344, 0.0010694916127249599, -0.008179177530109882, 0.002031876239925623, -0.00445559062063694, 0.0033403204288333654, 0.00291138025932014, 0.008167974650859833, 0.002261038636788726, -0.0014976552920415998, 0.0016148698050528765, 0.0006587914540432394, 0.0005230249953456223, 0.008295584470033646, 0.006884293630719185, -0.021590985357761383, -0.010792172513902187, -0.006927946582436562, 0.00034553708974272013, 0.0005349512211978436, 0.00048105145106092095, -0.0028546529356390238, 0.0012371394550427794], [-0.02560351975262165, -0.07758235186338425, 0.09406403452157974, 0.18878106772899628, -0.006331348326057196, 0.06770219653844833, 0.04517844319343567, -0.006453779060393572, -0.016653096303343773, -0.017303409054875374, -3.190333882230334e-05, -0.013094264082610607, 0.05471472442150116, 0.13334344327449799, -0.06125284731388092, -0.1156708225607872, -0.10162357240915298, -0.1586901694536209, -0.05442218482494354, 0.008800284005701542, 0.0019210121827200055, 0.08471626043319702, -0.13933168351650238, 0.024337302893400192, -0.01958654634654522, 0.06134331226348877, 0.04776415228843689, -0.06675175577402115, 0.05107635632157326, -0.022117003798484802, -0.12335286289453506, -0.008656373247504234], [0.10266824811697006, -0.5027672052383423, 0.14020217955112457, 0.8873880505561829, 0.0067434366792440414, 0.799119770526886, 0.45836588740348816, -0.004469116218388081, -0.22020769119262695, -0.22554966807365417, 0.015733184292912483, -0.34319397807121277, 0.20374475419521332, -0.5482110381126404, -0.008017284795641899, 0.22167405486106873, 0.12633617222309113, -0.07958337664604187, -0.2846679389476776, 0.4432699680328369, -0.02848944440484047, 0.0015952253015711904, 0.3973664343357086, -0.06617911905050278, -0.7378054261207581, -0.7373921871185303, 0.2282605767250061, -0.024306589737534523, -0.16584624350070953, 0.16265147924423218, -0.1658036857843399, 0.06789717078208923], [0.009736578911542892, 0.025249775499105453, 0.001888224040158093, -0.015349688939750195, 0.0004045651585329324, -0.05961287021636963, -0.01436846237629652, 0.0016476857708767056, -0.0026222262531518936, 0.01964445412158966, 0.006976061034947634, -0.009974179789423943, 0.004786955192685127, 0.001335028326138854, -0.004124233964830637, -0.017522381618618965, -0.012825015932321548, -0.014009307138621807, -0.012766656465828419, -0.002517921384423971, -4.9783269787440076e-05, 0.008934615179896355, -0.006043237634003162, -0.001064301235601306, 0.07947704941034317, -0.004739954601973295, 0.028442246839404106, 0.005686923861503601, -0.009810123592615128, -0.014102243818342686, -0.006270487327128649, -0.0017299969913437963], [-0.015968509018421173, 0.058690145611763, -0.030823584645986557, 0.04950597137212753, 0.003918761853128672, -0.1287805587053299, -0.04705996438860893, 0.0025494922883808613, 0.10566636919975281, -0.0356067530810833, 0.012346282601356506, -0.09893444925546646, 0.12498804181814194, -0.0021937566343694925, -0.01920071616768837, 0.05104755237698555, 0.11309558153152466, -0.0354798324406147, -0.04510034620761871, -0.011188947595655918, 0.006061185151338577, -0.05389345809817314, 0.0006187243270687759, -0.0627511739730835, -0.1204804927110672, -0.07226677983999252, 0.10839278995990753, 0.20277072489261627, 0.05503426864743233, 0.0021131967660039663, -0.05863296985626221, 0.03724496066570282], [-0.1788182407617569, -0.5357239246368408, 0.3039609491825104, 0.7977851033210754, -0.09023929387331009, 0.8067197203636169, 0.4274894595146179, -0.02008093148469925, 0.130827859044075, -0.17565001547336578, -0.018637878820300102, -0.5871966481208801, 0.33163508772850037, -0.43469566106796265, 0.009732364676892757, 0.2748048007488251, 0.05794070288538933, -0.04349604994058609, -0.38447490334510803, 0.7732197642326355, 0.11624231189489365, 0.023651322349905968, 0.503913402557373, -0.43500128388404846, -0.6991151571273804, -0.7287343144416809, 0.08626672625541687, -0.36606577038764954, -0.27750012278556824, 0.027290022000670433, -0.6033452749252319, 0.04410654306411743], [-0.11005476862192154, -0.25568509101867676, 0.0987214744091034, 0.2754475474357605, 0.05190239101648331, 0.5920920372009277, 0.26935774087905884, -0.0019268228206783533, 0.24805738031864166, -0.08201322704553604, 0.021681977435946465, -0.22576527297496796, 0.21358154714107513, 0.07304280251264572, 0.01641627587378025, -0.008698694407939911, -0.06547610461711884, -0.22680383920669556, 0.033901140093803406, 0.22716912627220154, -0.24849069118499756, -0.23769676685333252, 0.15822070837020874, 0.0034610747825354338, -0.8128077387809753, -0.5803638696670532, 0.16510109603405, -0.20252776145935059, 0.16359490156173706, 0.3072645366191864, -0.2001672387123108, -0.19569730758666992], [0.020973006263375282, -0.08785641938447952, -0.004549670033156872, 0.03713545575737953, 0.04092198982834816, 0.27813640236854553, 0.11854074150323868, -0.00013581343227997422, 0.027292093262076378, -0.04722629860043526, -0.001151170232333243, -0.021523211151361465, 0.08923089504241943, 0.00020341732306405902, 0.04738311097025871, -0.04966248199343681, 0.010932328179478645, 0.073410265147686, 0.020462073385715485, 0.006926962174475193, -0.05289972946047783, -0.010782222263514996, 0.05417301878333092, -0.01986921764910221, -0.3163635730743408, -0.10687196999788284, -0.04378613084554672, 0.01116111595183611, -0.05809319391846657, -0.03359632194042206, -0.03768065944314003, 0.006792525760829449], [-0.018182212486863136, -0.018758384510874748, -0.07967764139175415, 0.06509526073932648, -0.01519032847136259, 0.01909543387591839, -0.0763128399848938, -0.007673355285078287, 0.07350116223096848, -0.013722963631153107, 0.0002500340633559972, -0.08695124834775925, -0.011926932260394096, -0.00605953810736537, 0.06981801241636276, 0.0825309306383133, 0.16153950989246368, -0.03279571607708931, -0.0800946056842804, -0.013658572919666767, 0.039477843791246414, -0.07575960457324982, -0.2723750174045563, -0.007992377504706383, -0.32040324807167053, -0.00028825984918512404, -0.2766565978527069, 0.13226933777332306, 0.01865030638873577, -0.003806139575317502, -0.22950758039951324, 0.03313898667693138], [-0.15540678799152374, 0.004564917180687189, -0.025900309905409813, 0.05888202413916588, -0.022951913997530937, 0.008670561015605927, -0.3284448981285095, 0.014947559684515, 0.10152563452720642, 0.09171752631664276, 0.012680361978709698, -0.08076060563325882, 0.36161717772483826, 0.09962175786495209, -0.11037252098321915, 0.1244523823261261, 0.07785927504301071, -0.03393225371837616, -0.18712006509304047, 0.20038717985153198, 0.0009611712885089219, -0.057322029024362564, -0.05009201169013977, 0.12276062369346619, 0.05445239320397377, 0.016805607825517654, 0.1701810359954834, -0.005931310821324587, -0.06525734812021255, -0.10505110025405884, -0.15239161252975464, 0.050502751022577286], [0.08381455391645432, -0.031221656128764153, -0.12130311131477356, 0.06689134985208511, 0.11558640748262405, 0.010813380591571331, -0.1354825347661972, -0.014507417567074299, -0.1454407125711441, -0.0430484265089035, 0.00319001660682261, 0.003382602008059621, 0.03833453357219696, 0.012555647641420364, 0.08703569322824478, 0.07050682604312897, -0.028546029701828957, -0.06886566430330276, 0.07642296701669693, 0.21102634072303772, -0.0005852283211424947, 0.03152979165315628, -0.10289964079856873, 4.5981796574778855e-05, -0.053394343703985214, 0.045225825160741806, 0.11745011806488037, -0.03893611952662468, -0.12508538365364075, 0.13195118308067322, -0.010314403101801872, -0.03477799519896507], [-0.05313422530889511, -0.1129223182797432, -0.08584645390510559, 0.14918938279151917, 0.08632269501686096, 0.15181201696395874, -0.15708421170711517, 0.003946032840758562, 0.0654558315873146, 0.012594858184456825, 0.005227585323154926, -0.06939861923456192, 0.2163408249616623, -0.1404528170824051, -0.12460066378116608, 0.041859883815050125, -0.09499730169773102, -0.032398756593465805, -0.12112867832183838, 0.11415110528469086, -0.02156011015176773, 0.10956332832574844, 0.04170471429824829, 0.06273443251848221, -0.13637679815292358, -0.031971275806427, 0.006981650833040476, -0.0044501665979623795, 0.05434867739677429, -0.015736235305666924, -0.13258488476276398, 0.02701745554804802], [-0.039198946207761765, 0.016813674941658974, -0.05110999569296837, -0.05804247409105301, 0.21615280210971832, 0.190117746591568, 0.011549723334610462, 0.015842607244849205, -0.1762998402118683, 0.28790760040283203, -0.03467242792248726, 0.03788270056247711, -0.2740977108478546, 0.15541420876979828, -0.01592853292822838, -0.010441217571496964, 0.3187256157398224, -0.002153708366677165, 0.02708747424185276, 0.029238399118185043, -0.2487451285123825, -0.048196181654930115, 0.005369335412979126, -0.17695999145507812, -0.46531563997268677, -0.12234380841255188, 0.016651907935738564, 0.01621791161596775, 0.007607083301991224, 0.16997350752353668, -0.22814981639385223, -0.021054264158010483], [0.10913266986608505, -0.1654137820005417, 0.12341873347759247, 0.3834173083305359, -0.02981937676668167, 0.9051785469055176, 0.514915406703949, -0.006085808388888836, 0.08005174249410629, -0.20375829935073853, 0.03609255701303482, -0.23496277630329132, 0.22590182721614838, -0.42410171031951904, -0.012325535528361797, -0.10821468383073807, -0.04070260748267174, -0.068628691136837, 0.020543960854411125, 0.2091064155101776, 0.06331174075603485, 0.16790664196014404, 0.09995368123054504, -0.07200686633586884, -0.9185279011726379, -0.4368998110294342, 0.13111534714698792, -0.0032494678162038326, -0.15335017442703247, -0.2042330950498581, -0.05865773931145668, 0.025168200954794884], [0.07045256346464157, -0.17490631341934204, 0.07836973667144775, 0.08943140506744385, 0.017377067357301712, 0.4208720624446869, 0.24183428287506104, 0.006276278290897608, 0.08328482508659363, -0.02600538544356823, 0.0033703420776873827, -0.035940106958150864, 0.042045604437589645, -0.1498441845178604, 0.07000066339969635, -0.12657329440116882, -0.17312240600585938, 0.033042557537555695, -0.02379130758345127, 0.07426062226295471, -0.08656838536262512, 0.07993631064891815, 0.07133955508470535, 0.19671842455863953, -0.457807719707489, -0.20837774872779846, 0.02565201371908188, -0.07060114294290543, -0.05268010124564171, -0.10824955254793167, -0.059187207370996475, -0.040226444602012634], [0.06746397167444229, -0.06099158897995949, 0.061538323760032654, 0.03987136110663414, 0.07557971030473709, 0.08948028087615967, 4.3737931264331564e-05, -0.013283987529575825, 0.07191163301467896, 0.0029604786541312933, 0.020833276212215424, -0.06509922444820404, -0.23744139075279236, -0.3005179166793823, 0.058500539511442184, -0.026992395520210266, -0.07466479390859604, 0.1650191694498062, -0.22670462727546692, 0.1570574939250946, 0.04897784814238548, -0.06983671337366104, 0.0041547780856490135, 0.024343449622392654, -0.01798420585691929, -0.1452915519475937, -0.3364676237106323, 0.009823823347687721, 0.06093962490558624, 0.08181644976139069, 0.12047380954027176, -0.0898481160402298], [0.01609477400779724, -0.4982704222202301, 0.27944642305374146, 0.5565451383590698, 0.09122507274150848, 0.9721212387084961, 0.31139296293258667, -0.007823512889444828, 0.3153325319290161, -0.36829811334609985, 0.01988866738975048, -0.2927529513835907, -0.03586865961551666, -0.32300758361816406, -0.02064056321978569, -0.09863973408937454, 0.21577952802181244, -0.15136723220348358, -0.09599179029464722, 0.4070793390274048, 0.08344796299934387, -0.02317660115659237, 0.13626053929328918, -0.12247159332036972, -1.1513919830322266, -0.5868651270866394, -0.07384664565324783, -0.03090479038655758, -0.2592208683490753, -0.14763903617858887, -0.2081473171710968, 0.07000365108251572], [0.017024798318743706, -0.07484474033117294, -0.35263320803642273, 0.1710391342639923, 0.17749013006687164, 0.4311799108982086, 0.08687540143728256, -0.008838683366775513, -0.078719861805439, -0.10669688135385513, 0.0266681220382452, -0.10409518331289291, 0.2885439693927765, -0.024533474817872047, 0.13158687949180603, 0.09311885386705399, -0.02452288195490837, -0.034986093640327454, 0.08337152004241943, 0.17040178179740906, 0.0849616751074791, -0.12100698798894882, 0.13997355103492737, 0.03224574401974678, -0.60797119140625, -0.05070037022233009, 0.2774096131324768, -0.030382398515939713, -0.10772398859262466, 0.1521351933479309, 0.08285635709762573, -0.15428009629249573], [-0.02554054744541645, -0.04748037829995155, 0.01740647852420807, -0.0035114819183945656, 0.026100579649209976, 0.09944412112236023, 0.04209502413868904, -0.0031374043319374323, 0.06801393628120422, -0.08846239745616913, -0.002361660823225975, -0.025782179087400436, -0.19813162088394165, 0.053005896508693695, 0.04392528161406517, -0.061418190598487854, 0.00522097572684288, -0.05226561427116394, -0.0421658456325531, -0.19953489303588867, -0.06570783257484436, -0.05052006617188454, -0.03202090784907341, 0.017319822683930397, -0.09024649113416672, -0.12103819847106934, 0.019944772124290466, 0.1358831375837326, 0.3419589698314667, -0.06615744531154633, 0.008457314223051071, 0.01606372557580471], [0.03449859470129013, -0.11351799964904785, -0.38275280594825745, 0.06708618253469467, 0.05148174986243248, -0.0006484669866040349, -0.16125339269638062, -0.012393517419695854, -0.21074198186397552, 0.4300648868083954, -0.025363260880112648, -0.04040906950831413, -0.022662794217467308, -0.11178676784038544, 0.08936655521392822, 0.18478015065193176, 0.4417538344860077, -0.0331193283200264, -0.016517462208867073, 0.1266970932483673, -0.017178578302264214, -0.1991952806711197, -0.05903131514787674, -0.15559540688991547, -0.3208259046077728, -0.05814463272690773, -0.2589268088340759, 0.1800396889448166, -0.050821445882320404, 0.5019997954368591, -0.08758945018053055, -0.1529509723186493], [-0.07526474446058273, -0.6734815239906311, 0.1320258229970932, 0.35621365904808044, -0.017551705241203308, 1.0549547672271729, 0.6180650591850281, -0.002726298291236162, 0.1111045554280281, -0.23237477242946625, 0.02490217611193657, -0.38499119877815247, 0.17263928055763245, -0.21288731694221497, -0.10346017777919769, 0.1268186718225479, 0.00568045862019062, -0.19474628567695618, -0.08960616588592529, 0.3521583378314972, 0.26690924167633057, 0.0373065359890461, 0.18255242705345154, 0.0782373696565628, -0.8249064683914185, -0.3433127999305725, 0.038222432136535645, -0.006225015502423048, -0.35743072628974915, -0.058254580944776535, -0.22236323356628418, 0.09312677383422852], [-0.04699588939547539, -0.004805694799870253, -0.11789283156394958, 0.02973572537302971, 0.05348857492208481, 0.28073015809059143, -0.24557483196258545, -0.0066526830196380615, 0.08297865092754364, -0.2841879725456238, 0.010034569539129734, -0.08688300848007202, -0.1750812977552414, -0.22355641424655914, 0.041671525686979294, -0.026134328916668892, -0.1409599930047989, 0.11522193253040314, -0.20446763932704926, 0.17773300409317017, 0.004784111864864826, -0.14919893443584442, 0.015648245811462402, -0.05119812861084938, -0.23368163406848907, 0.06953190267086029, -0.3883919417858124, 0.017822284251451492, -0.48429641127586365, -0.290914922952652, -0.18448586761951447, -0.09885211288928986], [-0.05210914462804794, -0.11639688163995743, -0.030763281509280205, -0.021806737408041954, -0.05078085511922836, 0.04656293988227844, 0.1315494179725647, 0.006951452698558569, 0.09461220353841782, -0.13215325772762299, -0.028911111876368523, -0.03813105449080467, 0.32198676466941833, -0.05526009202003479, 0.061752062290906906, 0.01995907351374626, 0.1738971620798111, 0.04725182056427002, 0.10083609819412231, 0.05700984597206116, -0.13590750098228455, 0.025501657277345657, -0.0013013870920985937, -0.11768314987421036, -0.06242933124303818, -0.07142762839794159, -0.08514457195997238, 0.01576552726328373, -0.0860380083322525, -0.21954695880413055, -0.10607404261827469, 0.04030845686793327], [-0.10041894018650055, -0.06603540480136871, -0.03175392746925354, 0.0968218594789505, -0.034618448466062546, 0.0938299223780632, 0.052221182733774185, 0.008937113918364048, -0.021632932126522064, 0.03525640442967415, -0.011927887797355652, 0.008396673947572708, 0.31487783789634705, -0.03799884766340256, 0.009344296529889107, 0.13162069022655487, 0.2442755550146103, -0.016335424035787582, -0.09991008788347244, -0.06506503373384476, 0.17930248379707336, -0.05658871680498123, -0.06669219583272934, -0.03027581050992012, -0.1416769027709961, -0.02854042686522007, 0.18640530109405518, -0.12583264708518982, 0.4397512972354889, -0.06005174666643143, -0.1723196804523468, 0.05083094537258148], [-0.0033116873819381, -0.007935665547847748, -0.0038496635388582945, 0.004754920490086079, -0.039354659616947174, 0.04303174465894699, 0.1261502206325531, 0.0016529830172657967, 0.03883516415953636, -0.03712821006774902, 0.0013925511157140136, -0.013064526952803135, 0.012042921967804432, 0.039868760854005814, 0.003248685970902443, 0.039661575108766556, 0.07227984070777893, 0.04600447043776512, 0.008216328918933868, -0.05004512146115303, 0.025965163484215736, -0.0219010878354311, 0.0073378318920731544, 0.016029370948672295, -0.05831730365753174, -0.0034752313513308764, -0.05952858179807663, 0.022589445114135742, -0.08646686375141144, -0.06901269406080246, 0.010933374054729939, 0.05185966566205025], [0.38042762875556946, -0.016237664967775345, -0.1361202597618103, 0.019535239785909653, -0.1658562421798706, 0.03535640612244606, 0.08540952205657959, 0.018354613333940506, 0.4098416566848755, -0.2713980972766876, 0.05198915675282478, -0.25075408816337585, -0.3696257770061493, -0.09840580075979233, -0.614718496799469, -0.15441761910915375, 0.08243197202682495, -0.1905345320701599, 0.12483742833137512, 0.06688342988491058, -0.059289559721946716, -0.2672244608402252, 0.13217248022556305, 0.07002577930688858, 0.05487724393606186, 0.1945585012435913, -0.11122050136327744, -0.5969514846801758, 0.09549108147621155, 0.40223008394241333, 0.00922401063144207, -0.1239619106054306], [-0.11969263851642609, 0.22632290422916412, -0.1048695296049118, 0.187204048037529, 0.0043901000171899796, -0.3594120442867279, 0.23713770508766174, -0.001829436863772571, -0.033997394144535065, -0.13342612981796265, -0.01931488886475563, 0.03645128011703491, -0.23079684376716614, 0.010863089002668858, -0.06939605623483658, 0.021298304200172424, -0.0019340335857123137, 0.06657599657773972, -0.2539157569408417, 0.18222609162330627, 0.37702032923698425, -0.22633925080299377, 0.25917941331863403, 0.5696467161178589, -0.010879608802497387, -0.2797219753265381, 0.30718177556991577, 0.7920632362365723, -0.08909071981906891, -0.21296852827072144, -0.13892577588558197, 0.05266926437616348], [-0.10762829333543777, -0.04054183512926102, 0.06785855442285538, -0.3900025486946106, -0.0058029466308653355, 0.06970478594303131, 0.04974156618118286, -0.009841473773121834, 0.2272075116634369, -0.0350736603140831, 0.002894499571993947, 0.0725400373339653, -0.1851644366979599, 0.2708592116832733, -0.10181640088558197, -0.14278653264045715, -0.41994261741638184, -0.024680063128471375, -0.13335704803466797, -0.09264536201953888, -0.18012917041778564, -0.00659500015899539, -0.20618446171283722, 0.08174198120832443, 0.19869455695152283, -0.08574381470680237, -0.5785359740257263, -0.3138847053050995, 0.12484799325466156, 0.04679406061768532, 0.08508782833814621, 0.03540178760886192], [0.17538964748382568, -0.05432523414492607, 0.23432035744190216, 0.1319660097360611, 0.1263139545917511, 0.08872151374816895, -0.24649597704410553, -0.02380186878144741, -0.3469288945198059, 0.016794776543974876, -0.016235429793596268, -0.10430310666561127, -0.6666800379753113, 0.17490291595458984, 0.17911343276500702, -0.11628322303295135, 0.2110113799571991, -0.3774881362915039, 0.036963626742362976, 0.2841201722621918, 0.010111693292856216, -0.05410159379243851, 0.06226435676217079, 0.11094285547733307, -0.17140783369541168, -0.006494303699582815, 0.3391507863998413, 0.008517279289662838, -0.04561107978224754, 0.1533847451210022, -0.026073258370161057, -0.039175067096948624], [0.01906619407236576, -0.12824082374572754, -0.5238990783691406, 0.281166672706604, 0.4175148904323578, -0.016588712111115456, 0.10602197796106339, -0.02240440435707569, -0.13593102991580963, 0.009458445012569427, 0.004387654364109039, -0.017921673133969307, -0.1690717190504074, 0.11693860590457916, 0.3193971514701843, 0.07945708185434341, 0.20023484528064728, 0.05749537795782089, 0.1928880363702774, 0.043950486928224564, -0.11240685731172562, -0.001665277872234583, 0.06872877478599548, 0.12981243431568146, 0.04002892225980759, 0.1430540233850479, 0.2625449299812317, -0.3758755922317505, 0.153596431016922, 0.1417447179555893, -0.05610929802060127, -0.030476348474621773], [-0.09355266392230988, -0.02432963252067566, 0.057196248322725296, 0.06060327589511871, -0.10667536407709122, 0.13411521911621094, 0.1327638328075409, 0.0020968099124729633, 0.06061204895377159, 0.10445135831832886, 0.01614641398191452, -0.02708994224667549, 0.09431084990501404, -0.31406062841415405, -0.058974739164114, -0.09486233443021774, -0.025666989386081696, 0.04518486186861992, 0.016361182555556297, -0.14994192123413086, -0.07212172448635101, 0.13533474504947662, 0.005567311309278011, -0.10170581191778183, -0.3241910934448242, -0.02800300531089306, -0.04765906557440758, -0.07067850977182388, 0.10154161602258682, -0.0606236532330513, 0.02895781211555004, 0.051124073565006256], [0.055277518928050995, 0.06824123114347458, 0.18250958621501923, -0.24892102181911469, -0.5055456757545471, 0.12020427733659744, -0.12091678380966187, 0.02038440853357315, 0.5546965599060059, -0.3608866333961487, 0.049787119030952454, -0.006063766311854124, -0.08079405128955841, 0.16371215879917145, 0.08019023388624191, -0.09104769676923752, -0.4099709391593933, 0.44935357570648193, 0.3160437345504761, -0.44728508591651917, 0.09739131480455399, 0.03826357424259186, -0.8042593002319336, 0.2693549394607544, 0.022960225120186806, 0.14990445971488953, -0.6802487373352051, -0.31098073720932007, 0.186355859041214, -0.2510804831981659, 0.243448406457901, -0.07555190473794937], [-0.03532269597053528, 0.009113877080380917, 0.014702798798680305, -0.024383099749684334, -0.008779698051512241, -0.0005926840822212398, 0.0038361819460988045, 0.027411071583628654, 0.04389354959130287, 0.05490369349718094, 0.0005778781487606466, 0.0026306959334760904, 0.03859150782227516, 0.020854175090789795, -0.012674437835812569, -0.023728668689727783, 0.00563794793561101, -0.006844817660748959, -0.009189917705953121, -0.0024109582882374525, 0.014037017710506916, 0.017877548933029175, 0.06030460447072983, 0.00393259571865201, 0.009218784049153328, 0.004831006750464439, -0.007368437014520168, -0.02652790956199169, -0.0027142022736370564, -0.004973233677446842, 0.025378506630659103, -0.0064596799202263355], [-0.42891862988471985, 0.2312336415052414, -0.02809753082692623, 0.023179760202765465, -0.24417132139205933, 0.2776457667350769, -0.5405105948448181, -0.0089541245251894, 0.022004928439855576, -0.46151411533355713, 0.06398998200893402, -0.12731890380382538, 0.13578172028064728, 0.22268670797348022, -0.283234179019928, -0.3221990764141083, -0.14884322881698608, 0.8253074288368225, -0.309998482465744, -0.7264230847358704, -0.39270931482315063, -0.26270419359207153, -0.1949850618839264, -0.16143688559532166, 0.01166210975497961, -0.218816339969635, 0.032392702996730804, -0.0922379344701767, -0.4459918439388275, -0.017822377383708954, -0.20260559022426605, 0.2290700078010559], [-0.31876352429389954, -0.07559099793434143, 0.3075225055217743, -0.21731211245059967, -0.21689912676811218, 0.05792927369475365, 0.09367109835147858, 0.0076902336440980434, 0.1935085654258728, -0.011758770793676376, -0.2163989096879959, 0.09388730674982071, -0.25150275230407715, 0.002408119384199381, -0.34451159834861755, -0.09513270854949951, 0.5141358375549316, 0.12154291570186615, -0.022103359922766685, -0.05231423303484917, -0.21951593458652496, 0.03332747146487236, -0.07380736619234085, 0.356038361787796, 0.08055633306503296, 0.2513647973537445, -0.505911111831665, -0.5147342085838318, 0.05654977634549141, -0.0007627274608239532, -0.12181010842323303, 0.10147496312856674], [0.040643319487571716, 0.05589759722352028, 0.039849597960710526, 0.07301285862922668, 0.039266761392354965, 0.10382690280675888, -0.02949690632522106, 0.010174429975450039, -0.042314235121011734, -0.003591646207496524, 0.016104549169540405, -0.059832263737916946, -0.012184071354568005, -0.06475483626127243, -0.024957066401839256, 0.01437500398606062, -0.05567114055156708, 0.013189338147640228, -0.04073629528284073, 0.1901383101940155, 0.049587082117795944, -0.023546231910586357, 0.06405024975538254, -0.005075585562735796, -0.13292282819747925, -0.08720003068447113, 0.21578499674797058, 0.1757870316505432, -0.12957103550434113, -0.07314563542604446, 0.025089535862207413, 0.003507679095491767], [-0.08519948273897171, -0.03269216790795326, -0.1387128233909607, -0.20264585316181183, -0.11811718344688416, -0.09966231882572174, 0.1949477642774582, -0.0012108439113944769, -0.022581133991479874, 0.053870536386966705, -0.012700669467449188, 0.13658589124679565, 0.1467752605676651, 0.08433379977941513, 0.013817301951348782, 0.05078383907675743, -0.10307393223047256, 0.0008938868413679302, 0.10916846990585327, -0.29150518774986267, -0.0048138899728655815, 0.09252487123012543, -0.24068942666053772, 0.15978772938251495, 0.07678940892219543, 0.20290760695934296, -0.1696261316537857, -0.35235875844955444, 0.0028503481298685074, -0.05239139124751091, 0.07749374210834503, -0.000483326701214537], [-0.08324933797121048, 0.17213107645511627, -0.17913061380386353, 0.07060090452432632, -0.04569423943758011, 0.21493659913539886, -0.2905474007129669, 0.01053339708596468, -0.28429538011550903, 0.3878612816333771, 0.06579273194074631, 0.04394086077809334, 0.1795150190591812, 0.1253018081188202, -0.1184120774269104, 0.10631238669157028, -0.2203478068113327, 0.010808471590280533, -0.18171650171279907, 0.2953009307384491, -0.16776445508003235, -0.10752543807029724, 0.3176106810569763, 0.06232200190424919, -0.04479514807462692, -0.10018737614154816, 0.39909374713897705, -0.15320880711078644, -0.25843101739883423, 0.1859675943851471, -0.29005616903305054, -0.025856565684080124], [0.15176594257354736, -0.03563547506928444, -0.038805585354566574, 0.03121091239154339, -0.07050780206918716, -0.04488378390669823, 0.011884366162121296, -0.006508450023829937, -0.22461937367916107, -0.11976590007543564, 0.10972143709659576, 0.05501558259129524, -0.1784317046403885, 0.2345026284456253, -0.08821024745702744, 0.1611863225698471, -0.08492742478847504, 0.10798929631710052, -0.0871972069144249, -0.12448174506425858, 0.6315840482711792, 0.4018988311290741, -0.13800983130931854, -0.49740907549858093, -0.21179413795471191, 0.22917212545871735, -0.09250625967979431, 0.4736385643482208, -0.31235289573669434, -0.183955579996109, -0.2069188803434372, 0.12351062893867493], [0.7137858867645264, -0.007367601152509451, 0.1388891339302063, -0.06477158516645432, -0.17195665836334229, 0.06198510900139809, -0.02980218641459942, -0.0026630691718310118, 0.059472065418958664, 0.3004361391067505, 0.0052181147038936615, 0.026917755603790283, 0.3337632417678833, 0.07349756360054016, 0.4263218939304352, 0.0017079041572287679, 0.02512449026107788, 0.281544953584671, -0.07258588820695877, -0.037170812487602234, 0.11569952219724655, -0.3673965632915497, -0.08100205659866333, 0.09197893738746643, 0.031216071918606758, 0.1756853610277176, 0.14844921231269836, 0.1522529125213623, 0.04027730971574783, 0.08928623050451279, -0.03175310045480728, 0.08561263233423233], [-0.07945604622364044, -0.10432177037000656, -0.4923788607120514, 0.007247120141983032, 0.07428259402513504, 0.1313859224319458, -0.28942814469337463, -0.013614279218018055, -0.006270078010857105, 0.1685900092124939, 0.03731793537735939, 0.04009722173213959, 0.18716689944267273, 0.2902816832065582, 0.11771643906831741, 0.35420072078704834, 0.14718806743621826, -0.06174921244382858, 0.13459572196006775, 0.13273480534553528, -0.19791099429130554, -0.08699943125247955, 0.13506507873535156, 0.03490521013736725, -0.1508869081735611, 0.42990532517433167, 0.06338460743427277, -0.06819695979356766, -0.0335141085088253, 0.1312221884727478, 0.03852945566177368, -0.12474634498357773], [-0.06417488306760788, -0.06479255855083466, -0.11391490697860718, 0.0384489968419075, 0.017997832968831062, -0.1157354786992073, 0.5948795080184937, -0.0026202131994068623, 0.22533844411373138, 0.17896859347820282, -0.024370543658733368, 0.044668059796094894, 0.36090824007987976, 0.3581356108188629, -0.14074847102165222, 0.24217742681503296, 0.14543841779232025, 0.30396050214767456, 0.11828626692295074, -0.48916324973106384, 0.17875410616397858, -0.04629141464829445, -0.5573187470436096, 0.231862410902977, -0.07154139131307602, -0.10410212725400925, 0.03888045996427536, -0.05778791010379791, 0.30128365755081177, 0.017513927072286606, -0.19475671648979187, -0.03567300736904144], [0.045775946229696274, 0.052026860415935516, 0.0743444487452507, 0.17350326478481293, 0.11123564094305038, -0.03584098443388939, -0.007311660796403885, 0.029824497178196907, -0.6507861018180847, -0.3027690649032593, -0.06156273931264877, 0.12845183908939362, 0.443608820438385, 0.014229797758162022, -0.014895371161401272, -0.03670775517821312, -0.18095645308494568, -0.05205819755792618, -0.43057915568351746, -0.34887343645095825, -0.09741593152284622, -0.09026926010847092, 0.33828121423721313, -0.06442970782518387, -0.05040625482797623, -0.2899138629436493, -0.3314923942089081, 0.16474580764770508, -0.4016557037830353, -0.24203485250473022, -0.035833992063999176, -0.20264554023742676], [-0.1408465951681137, -0.16315463185310364, -0.13537614047527313, 0.11742257326841354, -0.15778881311416626, -0.05484100803732872, 0.2245461493730545, 0.012356950901448727, 0.27611902356147766, -0.20804078876972198, 0.04001573473215103, 0.034074701368808746, 0.04849651828408241, 0.08153411000967026, 0.15737469494342804, 0.07213254272937775, -0.2870870530605316, 0.18171516060829163, 0.20284472405910492, -0.17691069841384888, -0.06445414572954178, -0.06912452727556229, -0.10072652250528336, -0.22237825393676758, -0.06373780965805054, -0.0048118531703948975, -0.011971650645136833, -0.06446745991706848, -0.2783759534358978, 0.03581145405769348, 0.1451500505208969, 0.00808771699666977], [-0.01384115032851696, 0.07167929410934448, 0.2719603478908539, 0.250139445066452, 0.0077905054204165936, 0.10663240402936935, -0.15112049877643585, -0.002827314892783761, -0.1342279314994812, 0.20701630413532257, 0.15787239372730255, -0.2759562134742737, -0.4510275423526764, -0.008684780448675156, -0.03424406424164772, -0.07769212126731873, -0.10877972096204758, -0.24511948227882385, 0.029766865074634552, 0.3660087585449219, -0.05315689370036125, -0.027587635442614555, 0.31284376978874207, -0.08196063339710236, 0.1677255779504776, -0.01080062985420227, 1.0008624792099, 0.04203261435031891, -0.07393568009138107, 0.12087361514568329, -0.16565558314323425, 0.013071557506918907], [-0.1037372499704361, 0.049103882163763046, -0.2201329618692398, 0.033263444900512695, -0.2265608310699463, 0.028959425166249275, -0.045168183743953705, 0.007366588804870844, -0.0017097863601520658, 0.04126431420445442, 0.12131969630718231, -0.2626924216747284, -0.31170180439949036, -0.7069451212882996, -0.152706578373909, -0.22346171736717224, -0.21160145103931427, -0.06188591569662094, -0.08344728499650955, -0.09406603127717972, 0.5473008155822754, 0.14776907861232758, 0.055139876902103424, 0.05389542877674103, -0.03232903406023979, 0.25970444083213806, 0.05117054656147957, 0.5448213219642639, -0.2351885586977005, 0.11371885985136032, -0.2633482813835144, 0.03661177679896355], [-0.3032491207122803, 0.03358541801571846, 0.12499520182609558, 0.010687197558581829, -0.21438592672348022, 0.09322638809680939, 0.1750699281692505, 0.005297496914863586, 0.2538391947746277, 0.10843684524297714, 0.06433586031198502, -0.045478109270334244, 0.118192158639431, -0.6039905548095703, 0.2661917805671692, 0.06277100741863251, 0.09084335714578629, -0.04390569403767586, 0.01357876043766737, 0.032938402146101, -0.12707024812698364, 0.1287526786327362, 0.07655254751443863, 0.08539284020662308, 0.1920325607061386, 0.19780953228473663, 0.04952409863471985, -0.5019127130508423, -0.267076700925827, -0.017112141475081444, -0.08606113493442535, -0.08796436339616776], [-0.03666361793875694, -0.08351894468069077, 0.34009066224098206, -0.1090356782078743, 0.04633339121937752, 0.056683965027332306, 0.13916735351085663, -0.005982114002108574, 0.2894791066646576, -0.14172393083572388, -0.0013641632394865155, 0.1245611384510994, -0.28633013367652893, -0.0860004797577858, -0.005313183646649122, -0.018278349190950394, -0.09561966359615326, -0.2178538590669632, -0.0781458169221878, 0.6510785222053528, -0.1549048274755478, 0.07388125360012054, 0.0056498791091144085, -0.04802298918366432, 0.16023188829421997, -0.29901155829429626, 1.4241834878921509, 0.20874781906604767, 0.09776109457015991, 0.02160513773560524, 0.04259352758526802, 0.2715910077095032], [-0.2888321578502655, 0.2329830825328827, 0.04341040924191475, 0.012150559574365616, -0.24311834573745728, 0.020747561007738113, -0.07481200248003006, 0.011425822973251343, 0.3650709092617035, -0.4375256299972534, 0.18192970752716064, -0.4145076274871826, -0.12340101599693298, 0.37740838527679443, -0.10602232813835144, -0.08690417557954788, 0.1658264398574829, -0.013032765127718449, 0.20216961205005646, -0.08512202650308609, -0.12432857602834702, -0.38742944598197937, 0.13616575300693512, 0.31810009479522705, 0.15481142699718475, -0.009612507186830044, -0.25458428263664246, 0.4115202724933624, -0.23092423379421234, 0.2999110519886017, 0.10914091765880585, -0.1273927241563797], [-0.14767533540725708, -0.05781899765133858, -0.0159378033131361, 0.06669636070728302, 0.11571194976568222, -0.35567912459373474, -0.2194153517484665, 0.005003022495657206, -0.13310593366622925, 0.016344858333468437, -0.013985092751681805, -0.07340384274721146, -0.07585956156253815, 0.04832788184285164, -0.14446277916431427, 0.05866832658648491, 0.07967552542686462, -0.15542687475681305, -0.16291747987270355, 0.02733023837208748, -0.057565078139305115, -0.002962694503366947, 0.03558136150240898, -0.06337229907512665, 0.5947939157485962, -0.030786793678998947, 0.1799003779888153, 0.0678800567984581, 0.18118949234485626, 0.1035449206829071, -0.2335263341665268, -0.004371987655758858], [0.04118278622627258, 0.061949994415044785, 0.0449930764734745, -0.1925027221441269, -0.056404389441013336, -0.18096217513084412, -0.139605313539505, 0.0013101070653647184, 0.038213811814785004, -0.011774574406445026, 0.006197190843522549, 0.02038593962788582, -0.00647551566362381, -0.029359225183725357, 0.0034451475366950035, -0.02488965168595314, -0.05482329800724983, 0.032643988728523254, 0.06398902088403702, 0.019209489226341248, -0.007866831496357918, 0.07439848780632019, -0.10936389863491058, -0.022951889783143997, 0.3560636043548584, 0.13982485234737396, -0.10921657830476761, -0.03671299293637276, -0.20950783789157867, 0.0014932650374248624, 0.013832720927894115, -0.03973895311355591], [0.03764137625694275, -0.0636916235089302, 0.35319820046424866, -0.045614782720804214, 0.04069584235548973, -0.09847955405712128, 0.1526404321193695, -0.0014065094292163849, 0.13046599924564362, 0.2569105327129364, -0.161357119679451, 0.2007031887769699, -0.608095645904541, 0.007285657804459333, 0.023322178050875664, 0.15800808370113373, 0.08218720555305481, 0.08407251536846161, -0.0314737968146801, 0.12385240197181702, -0.10488738119602203, 0.015338216908276081, -0.19001299142837524, 0.046918585896492004, 0.11205518990755081, -0.05841957777738571, 0.1619366556406021, 0.11106880009174347, 0.05337534844875336, -0.1289999783039093, 0.11086902022361755, -0.00017722397751640528], [0.08096152544021606, -0.18001101911067963, 0.19382451474666595, 0.02155996859073639, 0.013609146699309349, -0.1648508757352829, 0.048996008932590485, -0.006756529677659273, 0.0190275926142931, 0.057282619178295135, 0.01199343428015709, -0.10245832800865173, 0.09273796528577805, -0.37544113397598267, -0.14189879596233368, 0.007803823333233595, 0.08643452078104019, 0.02944512851536274, -0.019177405163645744, 0.0694958046078682, -0.3871414363384247, 0.21841168403625488, 0.07381878048181534, -0.5910316109657288, -0.09847623854875565, 0.05248026177287102, 0.00010872260463656858, 0.43883082270622253, 0.15086126327514648, 0.017049182206392288, 0.03237643465399742, 0.023905692622065544], [-0.07324511557817459, -0.16488082706928253, 0.010740772821009159, -0.2328670471906662, -0.03471517562866211, -0.1549314260482788, 0.8454058766365051, -0.009655402041971684, 0.6930254101753235, 0.004340897314250469, -0.11914830654859543, 0.006424099672585726, 0.37645959854125977, 0.3984870910644531, -0.2014758437871933, -0.1539350152015686, 1.1517935991287231, -0.07232283055782318, 0.5224280953407288, -1.261441946029663, -0.16635984182357788, 0.2170107513666153, -0.8128175735473633, 0.16852036118507385, -0.09978245943784714, 0.21536603569984436, 0.6485747694969177, -0.44930821657180786, 1.2795274257659912, -0.3981657028198242, 0.008554252795875072, 0.33778107166290283], [0.008390771225094795, 0.0057318382896482944, -0.3916585445404053, -0.1256793737411499, 0.11905376613140106, -0.005915879271924496, 0.1394222527742386, -0.05750175938010216, -0.06175993010401726, 0.3520243465900421, -0.04468024894595146, 0.25010401010513306, -0.3989093601703644, -0.1916588842868805, -0.11741060763597488, 0.23751011490821838, 0.10007213801145554, 0.26717960834503174, -0.10330133140087128, 0.2161855548620224, -0.16463781893253326, -0.21681886911392212, -0.16069303452968597, -0.21212638914585114, -0.2004733383655548, -0.08722533285617828, 0.42842841148376465, 0.2670940160751343, -0.07695431262254715, 0.08088014274835587, 0.05757462978363037, 0.2656838893890381], [-0.07352174073457718, -0.08857055753469467, -0.2265641987323761, 0.1858942210674286, -0.04620720446109772, -0.10095421224832535, 0.23975302278995514, 0.006456636358052492, 0.018512872979044914, -0.6709834933280945, 0.024650579318404198, -0.013232234865427017, -0.054158639162778854, 0.18319456279277802, 0.029384063556790352, -0.04061891511082649, -0.26961594820022583, -0.04379139468073845, 0.0802399218082428, -0.14866504073143005, -0.1231604740023613, 0.07865393906831741, 0.35149142146110535, 0.13070456683635712, -0.010211233980953693, -0.0048715462908148766, -0.08100893348455429, -0.3322618007659912, 0.13432389497756958, -0.07679881900548935, 0.23081253468990326, 0.11052724719047546], [0.01791182905435562, -0.006088537629693747, 0.10086013376712799, 0.006686253938823938, -0.13793551921844482, 0.016684886068105698, 0.023810407146811485, 0.05421658977866173, -0.1916055977344513, 0.16368675231933594, 0.010136120021343231, -0.045493919402360916, 0.02310527116060257, -0.07352947443723679, -0.08255104720592499, 0.1538611799478531, 0.10968136787414551, 0.14133533835411072, -0.1373792439699173, -0.12598323822021484, -0.061398182064294815, -0.13821369409561157, -0.1569703221321106, -0.034504882991313934, -0.06289462745189667, -0.041396576911211014, 0.11626897007226944, 0.1539037525653839, -0.17613282799720764, -0.4846947491168976, 0.09937167912721634, 0.06012938916683197], [0.018742717802524567, -0.08439110219478607, -0.00975220836699009, -0.06677702069282532, -0.021772699430584908, 0.09465628117322922, 0.0890873372554779, -0.0063523524440824986, -0.029344454407691956, -0.04912150278687477, 0.004434401635080576, -0.007893731817603111, 0.055547717958688736, -0.07084972411394119, 0.013158717192709446, 0.007317050825804472, -0.004009619355201721, 0.022157784551382065, -0.059947602450847626, 0.07519853115081787, 0.019317930564284325, -0.024849817156791687, 0.11770495027303696, 0.03722308576107025, -0.09144745767116547, -0.08723152428865433, -0.0431012324988842, 0.016858963295817375, -0.0233931727707386, 0.04804360494017601, -0.057671137154102325, -0.04073113948106766], [-0.048529449850320816, 0.0051544709131121635, 0.09499459713697433, 0.008446904830634594, -0.05450500175356865, 0.1632079780101776, -0.09831786900758743, -0.006387514062225819, -0.04141518846154213, -0.036655183881521225, 0.017657317221164703, -0.02144860289990902, -0.1041545495390892, -0.06170320138335228, 0.014359213411808014, -0.03551466390490532, 0.1799481362104416, -0.03919936716556549, 0.054858844727277756, -0.15642915666103363, 0.059040617197752, 0.004295913502573967, -0.21124356985092163, 0.2153559774160385, -0.02679634653031826, 0.031244715675711632, -0.0983927920460701, -0.0774926245212555, 0.0026238143909722567, -0.07051803916692734, -0.1318262368440628, 0.02266586385667324], [-0.1353905200958252, -0.2676052451133728, 0.7074733376502991, 0.10113555192947388, 0.029347535222768784, 0.05957360565662384, 0.1553378850221634, 0.00967854168266058, -0.02206016331911087, 0.2624393701553345, -0.006293158046901226, 0.0426749549806118, -0.6016019582748413, 0.021986378356814384, 0.20340484380722046, -0.13272777199745178, 0.08026187866926193, 0.014369496144354343, -0.07324333488941193, -0.007798571605235338, -0.09039145708084106, -0.08703502267599106, 0.05744510143995285, 0.09123434126377106, 0.32665520906448364, -0.19237002730369568, -0.2390022873878479, -0.2624274492263794, -0.08170772343873978, -0.05799432098865509, -0.11111629009246826, 0.05411762744188309], [-0.03090846724808216, -0.1316482573747635, -0.011079568415880203, -0.035451602190732956, 0.047474879771471024, 0.15208865702152252, 0.06908602267503738, 0.0005637603462673724, 0.10152143239974976, -0.005370557773858309, 0.009014197625219822, -0.10242421180009842, 0.09642216563224792, 0.02056196890771389, 0.06257621943950653, 0.07382310926914215, 0.16388747096061707, -0.16331042349338531, 0.027612876147031784, -0.2096129059791565, -0.033272355794906616, -0.08385789394378662, -0.029171478003263474, -0.08252529799938202, -0.23882713913917542, -0.13756515085697174, -0.07315684109926224, 0.01233975775539875, 0.25152644515037537, 0.07849279791116714, -0.1375012993812561, -0.01602276600897312], [0.013370975852012634, 0.01223623938858509, -0.022281678393483162, 0.07994743436574936, -0.07561130076646805, -0.029356813058257103, 0.11694859713315964, -0.0009418748086318374, 0.03901396319270134, 0.009555757977068424, 0.007687905337661505, -0.04008730873465538, 0.045239925384521484, 0.20409603416919708, -0.06612075120210648, 0.0446631945669651, 0.03095034323632717, 0.04569642245769501, -0.050436798483133316, 0.20627421140670776, -0.04147626832127571, 0.05884939804673195, 0.21435314416885376, 0.05668225139379501, 0.07469463348388672, 0.004715950693935156, -0.07545878738164902, -0.036282092332839966, -0.17145609855651855, -0.05401730537414551, -0.005107928533107042, 0.005459573119878769], [-0.006942201405763626, -0.07214704900979996, 0.11850536614656448, 0.21071767807006836, 0.05551304668188095, 0.41867348551750183, -0.144778311252594, 0.00025859588640742004, -0.1890658140182495, 0.08941704779863358, 0.018022406846284866, -0.2823309600353241, -0.016970319673419, -0.07961933314800262, -0.04026021063327789, 0.14103588461875916, 0.21335913240909576, -0.041862037032842636, -0.0846586748957634, 0.15469317138195038, 0.18860004842281342, -0.09615253657102585, 0.16309720277786255, 0.4148310422897339, -0.34775128960609436, -0.24901176989078522, 0.0142193753272295, -0.20958320796489716, -0.12936291098594666, 0.08489489555358887, -0.19465723633766174, 0.001493874122388661], [-0.018354207277297974, -0.15462350845336914, -0.02172630839049816, 0.19722537696361542, 0.017883935943245888, 0.41566288471221924, 0.14105986058712006, 0.0026381919160485268, -0.008079220540821552, 0.011790688149631023, 0.013628825545310974, -0.06513063609600067, 0.07190869003534317, -0.07860537618398666, -0.02300122007727623, 0.10899797827005386, 0.14790251851081848, 0.045726459473371506, -0.06328199058771133, 0.04742392152547836, 0.0061886245384812355, 0.056794650852680206, 0.02675679326057434, 0.0597710907459259, -0.4262891411781311, -0.10574629157781601, -0.01358458586037159, -0.09852782636880875, -0.022156625986099243, -0.016547812148928642, 0.004564765375107527, 0.036739517003297806], [0.0018267183331772685, -0.010774875991046429, 2.8347174520604312e-05, 0.012867969460785389, 0.0013254531659185886, 0.019871650263667107, 0.012058818712830544, -0.00031760544516146183, -0.00046225570258684456, -2.4697553726582555e-06, 0.0009505102061666548, -0.007258128374814987, 0.001702856388874352, -0.003749932860955596, 0.0033802096731960773, 0.002718085190281272, 0.007752589415758848, 0.0025239542592316866, -0.0008845887496136129, 0.00150978728197515, 0.0006023046444170177, 0.00043675870983861387, 0.007841161452233791, 0.006455917842686176, -0.020435817539691925, -0.009763110429048538, -0.006385447923094034, 0.00038512147148139775, 0.00011434689076850191, 0.0006240866496227682, -0.002208190504461527, 0.0012682460946962237], [-0.07527416944503784, -0.15391090512275696, -0.0374426431953907, 0.13493424654006958, -0.024709338322281837, 0.19600674510002136, 0.18654584884643555, -0.006446662824600935, 0.017520150169730186, -0.016470808535814285, 0.0017192251980304718, -0.04578367620706558, 0.08703096956014633, 0.014093413949012756, -0.06378821283578873, 0.10688883811235428, 0.192227303981781, 0.021032175049185753, -0.0018239897908642888, -0.043990179896354675, 0.008273188956081867, 0.046171899884939194, -0.09677881747484207, 0.05746728181838989, -0.22463691234588623, -0.025161271914839745, -0.2754440903663635, 0.026911018416285515, 0.11471788585186005, 0.019381185993552208, -0.10443604737520218, -0.020508937537670135], [0.11811891943216324, 0.0832337886095047, 0.23921968042850494, -0.032378681004047394, 0.11250961571931839, -0.17518125474452972, 0.16586804389953613, 0.009039954282343388, 0.3589726984500885, -0.5787726640701294, -0.010399862192571163, -0.09242217242717743, 0.5122919082641602, -0.16683539748191833, -0.01782907545566559, -0.03229890018701553, 0.15260295569896698, 0.2583796977996826, -0.062225546687841415, 0.14694257080554962, 0.18147745728492737, 0.20477339625358582, -0.02976224571466446, -0.22429613769054413, 0.26259589195251465, 0.02337021194398403, 0.1694924533367157, 0.04081159830093384, 0.16555571556091309, -0.41618597507476807, 0.09329856187105179, 0.06842519342899323], [0.01622834801673889, 0.05617506429553032, 0.0016727913171052933, -0.04633679240942001, 0.0009190202108584344, -0.17045773565769196, -0.05193176865577698, 0.0012323514092713594, -0.001160394516773522, 0.030176039785146713, 0.007036637514829636, -0.005678369663655758, -0.0006352118216454983, 0.0003359246184118092, -0.005945495795458555, -0.02339979261159897, -0.005770780611783266, -0.01941416785120964, -0.017389679327607155, -0.009166456758975983, -0.00716667203232646, 0.010806268081068993, -0.03130892291665077, -0.01772906444966793, 0.20780281722545624, 0.011783333495259285, 0.04413823038339615, 0.02055106684565544, -0.03249245509505272, -0.005131872836500406, -0.013020031154155731, 0.0034444713965058327], [-0.04863174259662628, 0.09107373654842377, -0.02775144949555397, -0.02503610961139202, 0.009905205108225346, -0.2786934971809387, -0.1398548185825348, 0.0038281844463199377, 0.14475437998771667, -0.029539642855525017, 0.010501043871045113, -0.1122218668460846, 0.17586183547973633, 0.025123082101345062, -0.0323525033891201, 0.06880473345518112, 0.16486316919326782, -0.08980827033519745, -0.029787577688694, -0.06487976759672165, -0.0023305199574679136, -0.054389409720897675, -0.07119684666395187, -0.12842941284179688, -0.09533299505710602, -0.06617259979248047, 0.15793269872665405, 0.31385350227355957, 0.15226244926452637, 0.030817626044154167, -0.055779606103897095, 0.051811788231134415], [0.09510975331068039, -0.16488124430179596, 0.5799446105957031, 0.2175445407629013, 0.05442212149500847, 0.1334579885005951, 0.31194502115249634, -0.019201453775167465, 0.07461444288492203, -0.5546867251396179, 0.04204382002353668, 0.08622678369283676, 0.4857931137084961, -0.150560200214386, 0.07714889943599701, 0.2598852515220642, 0.3426544666290283, 0.06276220083236694, -0.06852798908948898, 0.3104369342327118, -0.0367693230509758, -0.044759586453437805, 0.22249983251094818, 0.0694526955485344, 0.20603159070014954, -0.19307410717010498, 0.07307279109954834, -0.17051172256469727, 0.049837272614240646, -0.35032254457473755, -0.1470034420490265, -0.08476559072732925], [0.005754525773227215, -0.1263207495212555, 0.011953514069318771, 0.21236585080623627, 0.0074639692902565, 0.32450589537620544, 0.22646518051624298, 0.00446562934666872, 0.05763611942529678, -0.014854044653475285, 0.016324879601597786, -0.058962129056453705, 0.13867945969104767, -0.29133903980255127, 0.0048888251185417175, 0.0037179780192673206, 0.008283596485853195, 0.07924006879329681, -0.018633706495165825, -0.02056127041578293, 0.04643942788243294, 0.009900758042931557, 0.10388633608818054, 0.149873286485672, -0.3119262158870697, -0.12210206687450409, -0.037034887820482254, -0.1542588174343109, -0.17417629063129425, -0.1003880724310875, -0.037846639752388, 0.01553434506058693], [-0.0033611629623919725, -0.030284028500318527, 0.01916434057056904, 0.03939138352870941, -0.009413438849151134, 0.08035159111022949, 0.10905507206916809, -0.005227674264460802, 0.07024738192558289, -0.0027988720685243607, 0.009077738970518112, -0.025234276428818703, -0.00626650545746088, -0.00020244839834049344, 0.06360995769500732, 0.0015206951647996902, -0.06188902631402016, 0.04325534775853157, -0.0876663327217102, -0.08498035371303558, -0.03046111762523651, -0.0221000574529171, 0.05109349265694618, 0.008243479765951633, -0.07244423776865005, -0.061941757798194885, 0.02769601345062256, -0.017817653715610504, -0.029595253989100456, 0.016391603276133537, -0.03605029731988907, -0.016220025718212128], [-0.01152710523456335, 0.03508850559592247, -0.03539571538567543, -0.0814574807882309, 0.00617594551295042, -0.1846609264612198, -0.024650942534208298, 1.3575147022493184e-05, 0.09433937072753906, -0.008048037067055702, -0.012634566985070705, -0.009605429135262966, -0.08703870326280594, 0.08336362987756729, 0.08664913475513458, -0.014063994400203228, 0.12801943719387054, -0.07446026802062988, -0.010380865074694157, -0.22756528854370117, 0.04904017597436905, -0.08132049441337585, -0.4349765479564667, 0.04446164146065712, -0.17526043951511383, -0.003021400421857834, -0.23175491392612457, 0.06871062517166138, 0.19798853993415833, -0.1006738543510437, -0.15849602222442627, 0.05951715633273125], [-0.14050951600074768, 0.002750303130596876, -0.010485179722309113, 0.13428238034248352, -0.07251852750778198, 0.10046160966157913, -0.42688098549842834, 0.01149722095578909, 0.20698341727256775, 0.10124335438013077, 0.02712661400437355, -0.1363513469696045, 0.4009188115596771, 0.08491237461566925, -0.04417342692613602, 0.1475846767425537, -0.015790844336152077, 0.05448508262634277, -0.17751456797122955, 0.34591159224510193, -0.006383872125297785, -0.03047381527721882, 0.0702473595738411, 0.10354981571435928, -0.010789066553115845, 0.07188638299703598, 0.045609042048454285, 0.06751391291618347, -0.3363959491252899, -0.06590508669614792, -0.1632256805896759, 0.08183316141366959], [-0.021700799465179443, -0.0972551554441452, -0.07454477250576019, 0.1649748533964157, 0.03435814008116722, 0.2616957128047943, -0.10149239003658295, -0.0017367576947435737, -0.0619792714715004, -0.008892882615327835, 0.012761518359184265, -0.06933075934648514, 0.13959865272045135, 0.04184304177761078, -0.033722054213285446, 0.12524956464767456, 0.07371505349874496, -0.04363312944769859, -0.028273509815335274, 0.22366440296173096, 0.030737945809960365, 0.03235812857747078, 0.04604838415980339, 0.05883549526333809, -0.3109968900680542, -0.07028139382600784, 0.039623744785785675, -0.02925192378461361, -0.0041243815794587135, 0.03059430606663227, -0.04069886729121208, 0.020006980746984482], [-0.08858603239059448, -0.05855391547083855, -0.011368242092430592, 0.14313752949237823, -0.006230429280549288, 0.01150559913367033, -0.041915297508239746, 0.005390027537941933, 0.027653725817799568, 0.049929600208997726, 0.01200349722057581, -0.0601225420832634, 0.15702606737613678, -0.07704045623540878, -0.13666373491287231, 0.04688546061515808, -0.13787774741649628, -0.0010115854674950242, -0.09428443759679794, 0.04182420298457146, -0.022033194079995155, 0.13867682218551636, 0.11142713576555252, 0.04998117312788963, 0.029290305450558662, 0.04517195001244545, -0.17112736403942108, 0.036232754588127136, 0.031439632177352905, -0.04571496695280075, -0.1667259931564331, -0.027310829609632492], [0.02453468181192875, -0.06003275141119957, -0.3925030827522278, 0.49067422747612, 0.46102967858314514, 0.1492045372724533, -0.7355265021324158, -0.03396603837609291, -0.20632785558700562, 0.6002383232116699, 0.008352654054760933, -0.1825655847787857, -0.25844553112983704, -0.2593403458595276, 0.13251091539859772, 0.33357784152030945, 0.34558364748954773, -0.4175865948200226, -0.16786794364452362, 0.34019210934638977, -0.08662143349647522, -0.21411505341529846, 0.026857761666178703, -0.11732148379087448, -0.28926020860671997, -0.045265860855579376, 0.30455437302589417, 0.061856482177972794, -0.1724839210510254, 0.7930940985679626, -0.7043747901916504, -0.0013917542528361082], [0.0228124912828207, -0.038652900606393814, 0.07525473833084106, 0.13293300569057465, 0.06500108540058136, 0.050345998257398605, 0.09185371547937393, 0.007518709171563387, 0.10507023334503174, -0.10164602100849152, 0.009176238439977169, -0.12329196184873581, 0.07591194659471512, -0.17325784265995026, 0.047065529972314835, -0.12254894524812698, 0.05715855956077576, -0.00012854889791924506, -0.10820604115724564, 0.10429974645376205, 0.14404171705245972, 0.0952567607164383, 0.01680060103535652, -0.031738460063934326, 0.09244853258132935, -0.17100702226161957, -0.07795623689889908, -0.15889236330986023, -0.13313108682632446, -0.23581382632255554, -0.14878101646900177, 0.05951293930411339], [-0.0991746261715889, -0.023416997864842415, -0.010926999151706696, -0.06844111531972885, -0.09609311074018478, 0.004617523401975632, -0.040459539741277695, 0.006064996123313904, -0.13796362280845642, 0.05592062696814537, 0.0018099072622135282, -0.009235460311174393, 0.03741370514035225, -0.05906474590301514, -0.01293699350208044, 0.06395857781171799, 0.12498988956212997, -0.044486578553915024, 0.05868496000766754, 0.15195955336093903, 0.011017818003892899, 0.07633641362190247, -0.015870485454797745, -0.013018017634749413, -0.024409420788288116, -0.027480144053697586, -0.04864896461367607, 0.014158407226204872, -0.07297910004854202, -0.03934914618730545, -0.06551163643598557, 0.013709633611142635], [0.03064650669693947, -0.19916416704654694, -0.005677500274032354, 0.16844552755355835, 0.07021240890026093, 0.15500034391880035, 0.5309409499168396, -0.0007336038979701698, 0.18474264442920685, 0.10599660873413086, -0.022797798737883568, -0.1158570870757103, -0.03498975932598114, -0.09761762619018555, 0.005681129638105631, 0.03198317065834999, 0.517313539981842, -0.11151735484600067, -0.07329723984003067, -0.2640281915664673, -0.0038903814274817705, -0.03419985994696617, -0.20560280978679657, 0.016319572925567627, -0.13759104907512665, -0.23346665501594543, -0.2860866189002991, 0.05218660086393356, 0.2585518956184387, 0.09919201582670212, -0.11248534917831421, 0.03559580817818642], [0.05705655738711357, -0.2483890801668167, -0.0021815598011016846, 0.35348519682884216, 0.17854873836040497, 0.14191603660583496, 0.24077923595905304, 0.0035596115048974752, 0.0006187966791912913, -0.13659869134426117, 0.005453979130834341, -0.2175619900226593, 0.06719636917114258, -0.19311589002609253, 0.0634353756904602, 0.1374359130859375, 0.23247358202934265, 0.002715165028348565, -0.1080843135714531, 0.19273602962493896, -0.09188519418239594, 0.031140316277742386, 0.2731987237930298, -0.23661018908023834, -0.026751995086669922, -0.1253843605518341, -0.08639606833457947, -0.07307426631450653, -0.14097370207309723, 0.09393224120140076, -0.15682578086853027, -0.04613921046257019], [-0.07347406446933746, -0.25782665610313416, -0.12055208534002304, 0.30522915720939636, 0.018234139308333397, 0.21223875880241394, 0.2574859857559204, 0.00401117792353034, 0.05830204859375954, 0.17620855569839478, 0.023234954103827477, -0.26792025566101074, 0.351806640625, -0.11308480054140091, -0.12017396837472916, 0.2916668653488159, 0.3965757191181183, -0.033090945333242416, -0.09422619640827179, -0.0318460687994957, 0.08041761815547943, -0.010518943890929222, 0.14852434396743774, 0.00443381117656827, -0.5467383861541748, -0.21397149562835693, 0.022960377857089043, 0.15777342021465302, 0.14944413304328918, -0.06523735076189041, -0.24485483765602112, 0.079355388879776], [0.09244010597467422, 0.024576595053076744, 0.210948646068573, -0.12720751762390137, -0.014248194172978401, -0.13211818039417267, -0.07929893583059311, -0.0012031826190650463, -0.05492235720157623, -0.02896830253303051, -0.004316655453294516, 0.03986151143908501, -0.392967164516449, 0.3118599057197571, 0.012459692545235157, -0.07059025764465332, -0.006880289409309626, -0.172661691904068, -0.04773830622434616, -0.18378227949142456, -0.07417384535074234, -0.0038719105068594217, 0.03217153251171112, 0.028312616050243378, 0.023682579398155212, -0.1718265861272812, 0.24728845059871674, 0.18883506953716278, 0.4076579213142395, -0.12137027829885483, 0.02514280565083027, 0.01742217317223549], [0.02526654675602913, -0.21627767384052277, -0.17728200554847717, 0.4077836573123932, 0.11455544829368591, 0.4422646760940552, -0.009306245483458042, -0.012832781299948692, -0.08287524431943893, 0.06644392013549805, -0.0037069893442094326, -0.12047995626926422, 0.08983603119850159, -0.17160505056381226, 0.018315771594643593, 0.24642165005207062, 0.35041186213493347, 0.03540355712175369, -0.01762409135699272, 0.10294057428836823, -0.03592367470264435, -0.01061957236379385, 0.07311446964740753, -0.007195380516350269, -0.5796290040016174, -0.10876618325710297, -0.14700758457183838, 0.041394345462322235, -0.024104323238134384, 0.166178897023201, -0.05929329991340637, 0.00043314549839124084], [-0.0018101752502843738, -0.2468862384557724, 0.023127039894461632, 0.14659728109836578, -0.004071955103427172, 0.41599413752555847, 0.3043797016143799, -0.0010175829520449042, 0.08056369423866272, -0.1356867402791977, -0.0015916175907477736, -0.14235952496528625, 0.14179089665412903, -0.11356694996356964, 0.022744331508874893, 0.007566456682980061, 0.18982061743736267, -0.05216299742460251, 0.05416944622993469, 0.03687254339456558, -0.045749299228191376, -0.05222008749842644, -0.05298956111073494, 0.102535679936409, -0.3291316330432892, -0.22089773416519165, -0.14190082252025604, 0.016301294788718224, -0.14361925423145294, -0.0036842699628323317, -0.0838913843035698, 0.026939788833260536], [-0.009495613165199757, 0.30081015825271606, -0.16619440913200378, 0.004544428549706936, 0.27546465396881104, -0.07491299510002136, -0.16400650143623352, -0.013631027191877365, -0.11213170737028122, -0.10489217936992645, 0.009285791777074337, -0.061283063143491745, -0.33924150466918945, 0.01633550226688385, 0.02464374341070652, -0.043741337954998016, -0.2754230797290802, 0.07139018177986145, -0.216428741812706, 0.21306942403316498, -0.044877804815769196, 0.11669494211673737, 0.3057546615600586, -0.11307881772518158, 0.26387953758239746, 0.22964604198932648, -0.1379561424255371, 0.0801805704832077, -0.2830149531364441, -0.18277551233768463, -0.0745791643857956, -0.08342953026294708], [-0.02356727421283722, -0.19155676662921906, 0.011983469128608704, 0.09476691484451294, 0.0032127369195222855, 0.2641606330871582, 0.09754494577646255, 0.0005573604139499366, -0.014752447605133057, -0.06514710187911987, 0.0078069064766168594, -0.08146895468235016, 0.1673530638217926, -0.11249756067991257, 0.055403076112270355, 0.021707598119974136, 0.0806344673037529, -0.016922296956181526, -0.02853664942085743, 0.17912952601909637, -0.037433721125125885, 0.009014529176056385, 0.14873436093330383, 0.027979182079434395, -0.25751444697380066, -0.18289814889431, 0.00013358805153984576, -0.02611890248954296, -0.11309517174959183, -0.10145105421543121, -0.043770864605903625, 0.05570638179779053], [-0.1338011771440506, -0.044428110122680664, 0.004366948734968901, 0.0565410777926445, -0.06027676910161972, -0.041763339191675186, 0.187330961227417, 0.011142854578793049, -0.023054437711834908, 0.0029957436490803957, -0.004398797173053026, -0.020419644191861153, 0.2683093547821045, 0.014060432091355324, -0.015713540837168694, 0.11377397179603577, 0.26746389269828796, -0.03838746249675751, -0.07636357098817825, -0.15327982604503632, 0.2066039890050888, -0.03023119457066059, -0.012688113376498222, -0.0005210624658502638, -0.017311539500951767, -0.05165423825383186, 0.11887969076633453, -0.061493828892707825, 0.5245066285133362, -0.08036798238754272, -0.15302743017673492, 0.05696449428796768], [-0.005699727218598127, -0.09862052649259567, 0.02223173715174198, 0.1299125701189041, -0.0028738388791680336, 0.22114917635917664, 0.16939955949783325, -0.0013976598856970668, 0.024710800498723984, -0.011540576815605164, 0.008250031620264053, -0.0647171214222908, 0.01912875473499298, -0.019010627642273903, 0.02234060876071453, 0.016877373680472374, 0.10215365886688232, 0.009908616542816162, -0.02230040356516838, -0.018903465941548347, 0.026445774361491203, -0.01284418348222971, 0.05410232022404671, 0.07711594551801682, -0.24346938729286194, -0.10942289978265762, -0.01775594800710678, 0.0014835516922175884, -0.02361162006855011, -0.028972415253520012, -0.0027210444677621126, 0.06802989542484283]], "rec.bias_ih_l0": [0.008520561270415783, 0.13989441096782684, -0.6693457365036011, 0.2475629299879074, -0.19540920853614807, -0.006228059995919466, 0.3857647180557251, 0.023819047957658768, 0.21001765131950378, -0.6039230823516846, -0.16843855381011963, -0.04510441794991493, -0.8890694379806519, -0.7720852494239807, -0.039292845875024796, -0.013430320657789707, 0.1474285125732422, 0.2809534966945648, 0.006708716508001089, 0.3925890326499939, -0.7825576066970825, -0.37044402956962585, 0.4174679219722748, -0.9292253255844116, -0.030522843822836876, -0.061556603759527206, 0.46979451179504395, -0.8112593293190002, 0.567915678024292, 0.27510759234428406, -0.05537232756614685, 0.24291273951530457, 0.4402289092540741, 0.029710546135902405, 0.8113483786582947, 0.15536491572856903, 0.27661585807800293, 0.3270936608314514, 0.2235129028558731, 0.025836793705821037, 0.015524141490459442, 0.7618296146392822, -0.04076239839196205, 0.1272803544998169, 1.0183908939361572, 0.9329686164855957, 0.4116511344909668, 0.16286374628543854, -0.013540656305849552, -0.010242830961942673, 0.184701070189476, 0.2480992078781128, 1.140884518623352, 0.6409063935279846, 0.20319297909736633, 1.1373050212860107, 0.6116354465484619, 0.2591572403907776, 0.1532745063304901, 1.2279558181762695, 0.44095486402511597, 0.12497036159038544, 0.09528590738773346, 0.03836491331458092, -0.040538202971220016, -0.31062719225883484, 0.06339207291603088, 0.2771613299846649, -0.02562582679092884, 0.2333144098520279, 0.3207743763923645, 0.0015928123611956835, 0.03216031938791275, 0.026886489242315292, -0.03951115161180496, -0.22699785232543945, 0.04030926153063774, 0.04181930795311928, -0.020054245367646217, -0.0026879298966377974, 0.15135619044303894, -0.010390236973762512, -0.01027450617402792, 0.06896648555994034, -0.03047594055533409, -0.09056892991065979, 0.1661652773618698, 0.09181895852088928, 0.0491323359310627, -0.23360209167003632, 0.11938660591840744, -0.07908577471971512, -0.07297831773757935, -0.0794302448630333, -0.13772781193256378, 0.012077701278030872, 0.12286892533302307, 0.1289355307817459, -0.011003797873854637, 0.19631022214889526, -0.08035975694656372, 0.33968642354011536, 0.45614874362945557, 0.023798828944563866, 0.27583518624305725, -0.13278310000896454, -0.17951804399490356, 0.0454716682434082, 0.019953086972236633, 0.344865083694458, 0.08903826028108597, -0.004090667236596346, 0.0537445954978466, 0.27296939492225647, -0.009317668154835701, 0.17565879225730896, 0.050564151257276535, -0.06287596374750137, 0.24333959817886353, -0.10791093856096268, 0.5034289360046387, 0.0731046199798584, 0.491144597530365, 0.3562661409378052, 0.055856604129076004, 0.32141730189323425, -0.05347070470452309, 0.24528983235359192], "rec.bias_hh_l0": [-0.002634919947013259, 0.17305725812911987, -0.7180920243263245, 0.24980129301548004, -0.1866283416748047, 0.04737238213419914, 0.3752984404563904, 0.023819047957658768, 0.21069826185703278, -0.5292948484420776, -0.1856992095708847, -0.029874490574002266, -0.7900670170783997, -0.7496817708015442, -0.039404887706041336, 0.0003535933210514486, 0.14793476462364197, 0.28094640374183655, 0.028594644740223885, 0.40228116512298584, -0.8814586997032166, -0.4171246886253357, 0.41465216875076294, -0.8509087562561035, 0.012003674171864986, -0.019304603338241577, 0.48403316736221313, -0.788292646408081, 0.579075276851654, 0.28428182005882263, -0.07943972200155258, 0.24291273951530457, 0.4429040253162384, 0.03910619765520096, 0.8383102416992188, 0.1705796867609024, 0.23656801879405975, 0.25893864035606384, 0.1164827048778534, 0.025836793705821037, 0.046005960553884506, 0.7548001408576965, -0.012340818531811237, 0.1103755459189415, 1.0610322952270508, 0.870017945766449, 0.4116511642932892, 0.23020786046981812, 0.0012924699112772942, -0.011260269209742546, 0.1747559756040573, 0.2229018360376358, 1.1738134622573853, 0.6205715537071228, 0.20257796347141266, 1.2745988368988037, 0.6466450095176697, 0.2307525873184204, 0.13142310082912445, 1.189239263534546, 0.29044681787490845, 0.11839219927787781, 0.11820180714130402, 0.03836490958929062, 0.02951997146010399, -0.2836747169494629, 0.3232767879962921, 0.08924250304698944, -0.07026278972625732, 0.10147595405578613, 0.29804614186286926, -0.0016559454379603267, 0.13649414479732513, 0.023335682228207588, -0.032017678022384644, -0.20170670747756958, -0.18333026766777039, -0.09325642883777618, 0.09089154750108719, 0.04441314563155174, 0.14163808524608612, -0.19954338669776917, -0.09654095768928528, 0.019190672785043716, -0.006414038594812155, 0.020483283326029778, 0.1804056465625763, 0.10051816701889038, 0.06044413521885872, -0.21557925641536713, 0.06689700484275818, 0.11749635636806488, 0.17014414072036743, 0.059327270835638046, -0.13006526231765747, -0.035688817501068115, 0.0989905595779419, 0.1387471705675125, 0.006964729633182287, 0.272524356842041, -0.06450440734624863, 0.2875325679779053, 0.47300076484680176, 0.023798828944563866, 0.27858880162239075, -0.0725240632891655, -0.13781172037124634, -0.01064569503068924, -0.007122906390577555, 0.3378078043460846, 0.08905187249183655, -0.1045483648777008, 0.07959883660078049, 0.2729949355125427, 0.0005779169732704759, 0.16256819665431976, 0.01896883174777031, -0.0387033112347126, 0.2847253978252411, -0.13756205141544342, 0.3194119334220886, -0.002696248237043619, 0.4407688081264496, 0.4197956323623657, -0.14013336598873138, 0.34070438146591187, -0.05680288374423981, 0.2452898472547531], "lin.weight": [[0.3733104169368744, -0.23507241904735565, 0.04397142305970192, -0.02181997336447239, 0.21806062757968903, 0.17259562015533447, 0.06421668827533722, -0.017238551750779152, -0.4698309004306793, 0.4139985740184784, -0.014108585193753242, 0.3543378412723541, 0.25888845324516296, -0.7111507058143616, 0.04555848240852356, 0.12844842672348022, -0.25437450408935547, 0.10641471296548843, -0.32929274439811707, -0.04683401808142662, 0.05077587813138962, 0.6085496544837952, -0.11726997047662735, 0.6173604130744934, 0.0337136909365654, 0.21428194642066956, 0.21435920894145966, -0.5649118423461914, 0.2728269696235657, -0.4013655483722687, -0.14794494211673737, 0.25920090079307556]], "lin.bias": [-0.2775766849517822]}}