{"model_data": {"model": "SimpleRNN", "input_size": 1, "skip": 1, "output_size": 1, "unit_type": "LSTM", "num_layers": 1, "hidden_size": 32, "bias_fl": true}, "state_dict": {"rec.weight_ih_l0": [[0.19413140416145325], [-0.0738590732216835], [-0.12661077082157135], [0.07487349212169647], [-0.025044666603207588], [0.1557345688343048], [-0.005812876392155886], [0.013025299645960331], [0.019930236041545868], [-0.06559254229068756], [0.058344028890132904], [-0.09755932539701462], [-0.06773858517408371], [0.020473811775445938], [0.02419954538345337], [0.034436579793691635], [0.2722790539264679], [-0.05748768150806427], [-0.09970815479755402], [-0.042745135724544525], [-0.02777836285531521], [-0.08133098483085632], [-0.06230957433581352], [0.009200936183333397], [-0.09396133571863174], [-0.05190175771713257], [0.023214202374219894], [-0.313839316368103], [0.014800552278757095], [0.058571044355630875], [0.005381778813898563], [0.3259636163711548], [0.3714039921760559], [0.043810684233903885], [-0.2906234860420227], [0.161600261926651], [-0.030166130512952805], [-0.16561070084571838], [0.09869104623794556], [0.02889838255941868], [0.0835588127374649], [0.053530775010585785], [-0.010154263116419315], [-0.12766945362091064], [-0.06698283553123474], [0.038508132100105286], [0.1788589209318161], [-0.023554928600788116], [0.3093481957912445], [-0.031672634184360504], [0.06034175306558609], [-0.024150174111127853], [-0.11481234431266785], [0.07687563449144363], [0.023242156952619553], [0.018277984112501144], [0.04480590671300888], [0.10205937176942825], [0.09097979962825775], [0.07971079647541046], [-0.011725869961082935], [0.14453409612178802], [-0.04379069432616234], [0.07286221534013748], [-3.9642374515533447], [0.1719980239868164], [-0.6266723275184631], [-0.6243119835853577], [-0.049123186618089676], [0.32677608728408813], [-0.8329166769981384], [-0.0622006356716156], [-0.09194981306791306], [0.2718111276626587], [-0.01868017390370369], [-0.8750931024551392], [-0.3729512393474579], [-0.009290874935686588], [0.25697407126426697], [-0.03159817308187485], [-0.3002333343029022], [-0.18563221395015717], [-0.22410894930362701], [0.10132952779531479], [0.17414461076259613], [0.21352533996105194], [0.00588806439191103], [-0.039977677166461945], [-0.043860599398612976], [-0.0886213555932045], [0.07385170459747314], [0.2522778809070587], [0.07248706370592117], [-0.025024885311722755], [0.4399774670600891], [-0.414061039686203], [-0.023352565243840218], [-0.011910389177501202], [-0.1729925125837326], [0.07114080339670181], [-0.10181399434804916], [0.03914511948823929], [-0.012965911068022251], [0.06838762015104294], [0.03665735945105553], [0.017114942893385887], [0.034719016402959824], [-0.14782972633838654], [-0.0698000118136406], [0.037367161363363266], [0.03722216933965683], [-0.08439254015684128], [0.2664894163608551], [-0.03221529349684715], [-0.024816518649458885], [-0.049969203770160675], [-0.1000373363494873], [-0.007790151983499527], [0.008020972833037376], [0.14619506895542145], [0.049900442361831665], [0.04488930106163025], [0.039579346776008606], [-0.09693790972232819], [0.019979026168584824], [-0.10558835417032242], [-0.023055043071508408], [0.27670571208000183]], "rec.weight_hh_l0": [[-0.14328956604003906, -0.05276934430003166, 0.1869838833808899, 0.9918248057365417, 0.019844768568873405, 0.042089201509952545, 0.03702915459871292, -0.0765136182308197, -0.061204854398965836, 0.11472483724355698, -1.0659066438674927, 0.4840885102748871, 0.11225072294473648, -0.22075329720973969, -0.24304428696632385, 0.16978071630001068, 0.3988027572631836, -0.06381834298372269, 0.08817389607429504, -0.3267897069454193, 0.2453635036945343, -0.10349759459495544, 0.001708506722934544, 0.04350706934928894, 0.46936097741127014, 0.2244219034910202, 0.3779265284538269, 0.8679317235946655, -0.25212323665618896, -0.6560858488082886, -0.3887847065925598, -0.04487863555550575], [-0.00947702769190073, -0.11298654973506927, -0.22822053730487823, 0.14418140053749084, -0.10306018590927124, -0.14180177450180054, -0.004693405237048864, -0.14654113352298737, -0.0465579517185688, 0.08153080940246582, -0.12306872755289078, 0.04057982191443443, 0.03831123188138008, -0.09527519345283508, -0.017761239781975746, -0.01382360514253378, 0.13790090382099152, 0.04670120030641556, -0.0451379269361496, 0.5232587456703186, 0.12162823975086212, 0.014547058381140232, -0.05540359020233154, 0.33469104766845703, -0.35673126578330994, 0.08675438165664673, -0.5959014296531677, -0.009070361033082008, 0.028676113113760948, -0.04114606976509094, -0.07458177208900452, 0.1449347734451294], [-0.013437686488032341, 0.054576583206653595, 0.06131729856133461, 0.09099315106868744, -0.010351439006626606, -0.14383552968502045, 0.028881827369332314, 0.11058792471885681, 0.07093434035778046, 0.016290785744786263, -0.03940705209970474, 0.09397228062152863, -0.005823615938425064, 0.0040320525877177715, 0.09128386527299881, -0.11955447494983673, 0.028652071952819824, -0.04171576723456383, -0.0020533204078674316, -0.1634819507598877, -0.028517210856080055, -0.035902172327041626, -0.00599796324968338, -0.0995936393737793, 0.10507865250110626, 0.02497795782983303, 0.17208580672740936, 0.07697880268096924, 0.11789509654045105, -0.03470925614237785, 0.13250751793384552, -0.011748810298740864], [-0.04874926805496216, 0.19137708842754364, -0.27202990651130676, -0.11790844053030014, 0.019498564302921295, -0.03728460520505905, 0.31043070554733276, -0.15039677917957306, 0.06622853130102158, -0.0048203119076788425, 0.1535283625125885, 0.14513975381851196, 0.13805066049098969, 0.020008865743875504, 0.012690836563706398, 0.027134673669934273, -0.0610477514564991, -0.20036105811595917, 0.06245846673846245, 0.2082512378692627, -0.18701855838298798, -0.11138743907213211, 0.039785612374544144, 0.18470197916030884, -0.17962077260017395, 0.34142935276031494, -0.2005903571844101, 0.04218883067369461, -0.0708387941122055, 0.1743953824043274, -0.05759476497769356, -0.10590587556362152], [-0.020316991955041885, -0.006729743909090757, 0.11756836622953415, 0.0008734616567380726, -0.028301233425736427, 0.07475335150957108, 0.018650691956281662, 0.051142867654561996, 0.022878948599100113, -0.022400988265872, -0.06771714985370636, -0.04619358852505684, 0.029862767085433006, -0.009867075830698013, -0.01624187082052231, -0.012765094637870789, -0.02338927611708641, -0.01314087025821209, 0.03059236705303192, -0.10941071063280106, -0.0011363241355866194, 0.028190478682518005, 0.007902625016868114, -0.09111867100000381, 0.09113164246082306, -0.08748850226402283, 0.10433527082204819, -0.028123054653406143, 0.020442042499780655, -0.06324093788862228, -0.04667379707098007, -0.05525464192032814], [-0.3369365930557251, 0.06066364049911499, -0.9113764762878418, -0.5413984060287476, -0.058260735124349594, -0.17891839146614075, 0.009544266387820244, 0.14147183299064636, -0.04363108053803444, -0.017233815044164658, 0.4647318422794342, 0.27780529856681824, 0.1566992700099945, 0.17819923162460327, 0.48587048053741455, -0.017916681244969368, -0.31988611817359924, 0.01319973450154066, 0.01422860100865364, 0.7216476202011108, -0.19476816058158875, -0.10921415686607361, -0.012027118355035782, -0.1685740053653717, -0.8055827021598816, -0.4733524024486542, -0.5990468859672546, -0.8951697945594788, 0.016341326758265495, 0.16557081043720245, 0.22107838094234467, -0.47140225768089294], [-0.07956627756357193, -0.0048415884375572205, -0.04626227915287018, 0.13535401225090027, -0.09954869747161865, -0.02688658982515335, -0.14660218358039856, 0.14092756807804108, -0.08009763807058334, 0.0620037205517292, 0.050501901656389236, 0.16743537783622742, 0.06793882697820663, -0.026128940284252167, -0.09379858523607254, 0.11041487008333206, 0.0012707612477242947, 0.08518830686807632, 0.020236600190401077, -0.1237516850233078, 0.0214970875531435, -0.0025547228287905455, 0.032490383833646774, -0.09444933384656906, 0.1493978202342987, -0.0352415107190609, 0.10371379554271698, -0.044447239488363266, 0.04993026331067085, -0.11253546923398972, 0.1741679161787033, -0.1610804796218872], [0.03206529840826988, -0.11169946938753128, -0.4143810570240021, -0.20988070964813232, 0.11020076274871826, -0.2886506915092468, 0.00880975928157568, -0.05910005047917366, -0.13744834065437317, -0.005567136686295271, 0.4310004413127899, 0.2877693176269531, -0.08435516804456711, 0.16382592916488647, 0.2448297142982483, 0.033124975860118866, 0.2895409166812897, 0.07344082742929459, 0.002237554406747222, 0.5306088328361511, -0.18551227450370789, 0.04348837956786156, -0.04520638287067413, 0.2944793105125427, -0.4380427896976471, 0.061573974788188934, -0.5283586978912354, 0.1961710900068283, -0.007605763152241707, 0.20238858461380005, 0.299911767244339, 0.21735814213752747], [-0.06876282393932343, -0.04457683488726616, 0.2020372450351715, -0.11743433028459549, -0.0084430743008852, 0.2643691897392273, -0.03838954120874405, 0.13943029940128326, -0.0026089868042618036, 0.021754063665866852, -0.07611101865768433, -0.1581060290336609, 0.028762465342879295, -0.0038735996931791306, -0.015262046828866005, -0.007891805842518806, -0.09789733588695526, 0.002977656200528145, 0.08219081163406372, -0.29236578941345215, 0.03869219496846199, 0.052035100758075714, 0.0462612546980381, -0.25822412967681885, 0.18098391592502594, -0.272087037563324, 0.29022011160850525, -0.04972073435783386, -0.009716779924929142, -0.040164388716220856, -0.04331902414560318, -0.15831561386585236], [0.03074268251657486, 0.07556438446044922, -0.33785480260849, 0.08685341477394104, -0.04389692842960358, -0.14912377297878265, 0.11855176091194153, -0.2275078445672989, -0.005314083304256201, -0.0351567417383194, -0.09593313187360764, -0.02669205330312252, 0.06710074096918106, -0.13506759703159332, 0.0485948845744133, -0.09803398698568344, 0.2669115662574768, 0.0172137264162302, -0.02217840403318405, 0.6068423986434937, 0.11859728395938873, -0.056069985032081604, -0.001474419143050909, 0.3465579152107239, -0.4348582327365875, 0.24441362917423248, -0.6705605387687683, 0.1445746123790741, 0.08919621258974075, -0.07558385282754898, -0.04525494948029518, 0.25528958439826965], [0.0699920579791069, -0.07505210489034653, 0.13807465136051178, 0.1038985550403595, -0.005518305115401745, 0.15189878642559052, -0.018151963129639626, 0.019625039771199226, -0.013985703699290752, 0.027858929708600044, -0.10947394371032715, 0.14879165589809418, 0.059668321162462234, 0.05828942731022835, -0.20483921468257904, -0.007952080108225346, -0.020358068868517876, -0.058825504034757614, 0.04499051347374916, -0.13593649864196777, 0.03522935509681702, 0.030802777037024498, 0.022635450586676598, -0.0986749678850174, 0.13877931237220764, 0.04902846738696098, 0.13865293562412262, 0.10069950670003891, -0.031330619007349014, 0.04586104676127434, -0.1944980025291443, -0.09513010084629059], [-0.053637903183698654, 0.04472636431455612, 0.2686923146247864, 0.21151012182235718, 0.01283317431807518, -0.09518014639616013, -0.005546302534639835, 0.15527302026748657, 0.02939910627901554, 0.04811004549264908, -0.2764902710914612, -0.05537935346364975, 0.03539547324180603, -0.053835827857255936, 0.2439883053302765, 0.015614708885550499, 0.21570344269275665, -0.0255545973777771, 0.024417884647846222, -0.17856745421886444, -0.032327547669410706, -0.05586974322795868, -0.016939379274845123, -0.14217081665992737, 0.1357777714729309, -0.12603659927845, 0.16626958549022675, -0.013003561645746231, 0.05799156799912453, -0.010030444711446762, -0.07151304185390472, 0.01933673582971096], [0.03683711960911751, -0.026108333840966225, 0.052051447331905365, 0.04620223492383957, 0.07827813178300858, -0.055311769247055054, 0.01032252050936222, 0.014219770208001137, -0.004994895774871111, 0.010318426415324211, -0.051233258098363876, 0.018751967698335648, 0.016545873135328293, 0.020884744822978973, -0.03148047998547554, 0.05423105135560036, 0.034462008625268936, 0.08183339238166809, 0.028127485886216164, -0.022213226184248924, 0.0011680721072480083, -0.028637129813432693, 0.005181847605854273, -0.018295003101229668, 0.05190085992217064, 0.0055348752066493034, 0.01593773253262043, -0.05387038365006447, -0.0050606494769454, -0.07026753574609756, -0.1556132733821869, 0.015280846506357193], [0.026584677398204803, 0.006797445937991142, 0.11818613111972809, -0.057109858840703964, 0.043755970895290375, 0.21384882926940918, -0.06847622245550156, -0.07412956655025482, -0.028176233172416687, 0.006741401273757219, -0.05840522423386574, -0.015079246833920479, -0.009053780697286129, 0.19186969101428986, -0.1272803544998169, 0.026797184720635414, -0.08912819623947144, 0.03980628028512001, 0.009464911185204983, -0.14918287098407745, 0.029083292931318283, -0.03685231879353523, 0.05447844788432121, -0.13053204119205475, 0.12619131803512573, -0.1174294650554657, 0.14390172064304352, -0.07295353710651398, 0.008272785693407059, -0.0017918357625603676, -0.29572388529777527, -0.09718646854162216], [-0.1016223356127739, -0.03946017473936081, 0.26264944672584534, -0.11070907860994339, 0.0016954595921561122, 0.3208254873752594, -0.04290948808193207, 0.21714384853839874, -0.01551913470029831, 0.03981917351484299, -0.11673904955387115, -0.19143953919410706, 0.04220084100961685, -0.035747844725847244, -0.006178624927997589, 0.01945391856133938, -0.08879101276397705, 0.0033546979539096355, 0.11083843559026718, -0.3643249571323395, 0.05512681230902672, 0.023844849318265915, 0.040936026722192764, -0.3154585361480713, 0.24485914409160614, -0.3248920738697052, 0.3639593720436096, -0.05479387938976288, 0.005750664975494146, -0.07583309710025787, -0.0778488740324974, -0.2056378722190857], [-0.25201088190078735, -0.03525839000940323, 0.19476990401744843, 0.21118494868278503, -0.11007625609636307, 0.24001869559288025, -0.06916405260562897, 0.22547972202301025, -0.1693149209022522, 0.007697532419115305, -0.4139672815799713, 0.034801386296749115, 0.11391503363847733, -0.3393575847148895, 0.06840723752975464, 0.18606290221214294, 0.08991384506225586, 0.10256799310445786, 0.02278784103691578, -0.22150929272174835, 0.13712695240974426, 0.09256743639707565, -0.011045253835618496, -0.19181102514266968, 0.21762830018997192, -0.19212017953395844, 0.2164236307144165, 0.18568338453769684, -0.00078557338565588, -0.3713420033454895, 0.23329897224903107, -0.26475220918655396], [-0.20060038566589355, 0.09442056715488434, -0.39919331669807434, 0.09390132129192352, 0.006275959778577089, 0.01291023287922144, -0.05034010112285614, -0.13405907154083252, 0.09633338451385498, 0.008443745784461498, -0.08134734630584717, 0.15318214893341064, -0.04049292579293251, 0.01291019655764103, 0.09597364813089371, 0.03903908655047417, -0.07365711033344269, -0.09697834402322769, 0.0019930298440158367, 0.26390060782432556, -0.02513936534523964, -0.047803618013858795, -0.03737260401248932, 0.1753392368555069, -0.2077048271894455, 0.27195560932159424, -0.221379816532135, 0.2535715401172638, -0.05224557965993881, -0.028894992545247078, 0.05583474785089493, 0.01842077262699604], [-0.02549409307539463, -0.012625562027096748, 0.04455726221203804, -0.012090395204722881, -0.04910116270184517, 0.051413677632808685, -0.08107446134090424, 0.08433981984853745, 0.008234587498009205, -0.014197678305208683, -0.13457266986370087, 0.028043441474437714, 0.023415150120854378, 0.032290924340486526, 0.026818236336112022, -0.03961683437228203, -0.03277192637324333, 0.03785877674818039, 0.024454481899738312, -0.049141764640808105, -0.0010457799071446061, 0.03903370723128319, 0.0012746371794492006, -0.04637608677148819, 0.0771421492099762, -0.04608726128935814, 0.06268857419490814, -0.027428580448031425, -0.015048806555569172, -0.04225507006049156, 0.05692107602953911, -0.08278536051511765], [0.08136197179555893, -0.11358386278152466, -0.10865995287895203, 0.05010296404361725, -0.07210168987512589, -0.09956463426351547, 0.05364440008997917, -0.17291821539402008, 0.017691148445010185, 0.0022745223250240088, -0.033833377063274384, -0.014567681588232517, 0.03453577682375908, -0.0824277251958847, 0.02710120566189289, 0.009816340170800686, 0.14935560524463654, 0.019158223643898964, 0.056962113827466965, 0.3320356607437134, 0.09276857227087021, -0.025721866637468338, -0.010111730545759201, 0.2746618986129761, -0.2062448263168335, 0.23228098452091217, -0.30043572187423706, 0.033746231347322464, 0.0021154058631509542, -0.006072508171200752, -0.03767954558134079, 0.0104462755843997], [0.011738266795873642, -0.04265350475907326, 0.09763248264789581, 0.0272419061511755, 0.06409043818712234, -0.047050826251506805, -0.07204236835241318, -0.006866136100143194, -0.003979846835136414, -0.011028408072888851, -0.024318372830748558, -0.02985861897468567, -0.031079810112714767, 0.029736295342445374, 0.047591399401426315, -0.05248069018125534, 0.03829481452703476, 0.029167938977479935, -0.01753881759941578, -0.06885263323783875, 0.01720254495739937, 0.05781533569097519, -0.0071386308409273624, -0.05815970525145531, 0.039941247552633286, -0.07220342010259628, 0.0672215148806572, -0.023238034918904305, -0.003761845640838146, -0.057302698493003845, -0.005432411562651396, 0.00024763535475358367], [0.025673098862171173, 0.06153007969260216, -0.4761725962162018, -0.053309861570596695, -0.029387999325990677, -0.1413085162639618, 0.021518800407648087, -0.20753438770771027, 0.027659887447953224, -0.07812102884054184, 0.26622474193573, 0.24655941128730774, 0.052528347820043564, 0.04049285501241684, 0.15527679026126862, -0.01971028745174408, -0.06899885833263397, -0.05988078936934471, 0.03813684359192848, 0.5428964495658875, 0.02430499717593193, -0.012550338171422482, 0.03776826336979866, 0.14463452994823456, -0.4148256480693817, 0.2854357659816742, -0.5407320857048035, -0.3222609758377075, 0.07766127586364746, 0.023351551964879036, 0.06519313156604767, 0.015417814254760742], [0.12047724425792694, 0.03282363712787628, -0.290567010641098, -0.006435746792703867, -0.03703378513455391, -0.09127308428287506, 0.006752552930265665, -0.20522885024547577, -0.07161267846822739, -0.1085912212729454, -0.09500085562467575, -0.022378500550985336, 0.02128240279853344, -0.11274741590023041, -0.007176023907959461, -0.16768449544906616, 0.21581611037254333, -0.03697529062628746, -0.03442075103521347, 0.5920050740242004, -0.07040754705667496, 0.14306774735450745, -0.031101521104574203, 0.1300428956747055, -0.3630274534225464, 0.07962249964475632, -0.5380555391311646, 0.004372980911284685, 0.08189287036657333, -0.0786658301949501, -0.03916912153363228, 0.11708690971136093], [-0.017760466784238815, 0.0633661225438118, -0.13522088527679443, 0.02151786908507347, 0.030805010348558426, -0.06982880085706711, -0.020834237337112427, -0.1334105283021927, 0.0036027501337230206, 0.08423702418804169, -0.08210877329111099, 0.023591715842485428, 0.006483407225459814, -0.013713314197957516, -0.03635656088590622, -0.04461997002363205, 0.12165120244026184, 0.03629555180668831, 0.04196441173553467, 0.42776912450790405, 0.023776663467288017, -0.003956152591854334, 0.10077907145023346, 0.10680468380451202, -0.19210287928581238, -0.01884678564965725, -0.35684165358543396, -0.024584097787737846, 0.10699403285980225, 0.02304849959909916, -0.05197925120592117, 0.005649124272167683], [-0.0004962162929587066, -0.005100633483380079, 0.05526360496878624, -0.039035387337207794, -0.004504393320530653, 0.06991934031248093, 0.0059465463273227215, 0.035764824599027634, -0.009773541241884232, 0.011156244203448296, -0.0058654677122831345, -0.046709463000297546, 0.005508646368980408, -0.006996833719313145, -0.006410839501768351, -0.0035418944898992777, -0.015337765216827393, -0.017177721485495567, 0.01940448023378849, -0.07690690457820892, -0.000625021755695343, -0.0003449329815339297, 0.0009831271599978209, -0.06644212454557419, 0.02519754320383072, -0.07511406391859055, 0.07065045833587646, -0.0011314813746139407, -0.009808938950300217, 0.02524387091398239, 0.007641172502189875, -0.03206717595458031], [0.22679220139980316, 0.23397423326969147, -0.12039858102798462, 0.29370978474617004, -0.01624114066362381, -0.19921010732650757, 0.22984248399734497, -0.3826605975627899, -0.002742225071415305, -0.08614856004714966, -0.15763519704341888, 0.41157257556915283, 0.03716210648417473, -0.0672018975019455, 0.1770964413881302, 0.07494907826185226, 0.05379589647054672, -0.05733135715126991, -0.11933846771717072, 0.3096582293510437, 0.08581452071666718, 0.0009365734294988215, 0.09206760674715042, 0.3479895293712616, -0.017601342871785164, 0.22553105652332306, -0.14823991060256958, -0.2238336056470871, 0.06633086502552032, 0.04100410267710686, -0.12022557109594345, 0.35866066813468933], [0.08584751933813095, 0.06082703918218613, -0.449665367603302, 0.004583714529871941, -0.04115145653486252, -0.127373605966568, 0.1389254927635193, -0.33887553215026855, -0.015366016887128353, 0.0644926056265831, 0.3611554801464081, 0.3444039225578308, -0.462032675743103, -0.03968845307826996, -0.0013744620373472571, -0.04933071881532669, -0.04032602533698082, 0.01649612933397293, -0.030495725572109222, 0.5435569882392883, -0.028247637674212456, -0.04703565686941147, -0.038138359785079956, 0.4875059127807617, -0.5201232433319092, 0.08234759420156479, -0.5681383609771729, -0.015985043719410896, -0.04026397317647934, 0.3157181441783905, 0.7190800309181213, 0.30843228101730347], [-0.026828179135918617, 0.010803863406181335, 0.041773758828639984, -0.04131743684411049, -0.0178753063082695, 0.06370712071657181, -0.026203801855444908, 0.04910208284854889, 0.012222958728671074, 0.025179604068398476, -0.006802348420023918, -0.06847555190324783, 0.006610158830881119, -0.06643526256084442, -0.00209603039547801, -0.032371342182159424, -0.037319015711545944, -0.03403302654623985, 0.01598142832517624, -0.07215339690446854, -0.012956185266375542, -0.0017566769383847713, 0.004314601421356201, -0.06879772990942001, 0.017111320048570633, -0.07062630355358124, 0.07623215019702911, 0.011729415506124496, 0.0002261460031149909, 0.0169537253677845, -0.0010235675144940615, -0.04890361428260803], [0.35969093441963196, 0.15476740896701813, -0.24299627542495728, 0.11930662393569946, 0.05556286871433258, -0.49449923634529114, 0.43145591020584106, -0.3394829332828522, 0.09326348453760147, -0.05313883349299431, 0.11107809096574783, 0.5604443550109863, 0.19177213311195374, 0.3506461977958679, -0.01063497643917799, 0.040013909339904785, -0.07864901423454285, -0.0219486765563488, 0.027590444311499596, 0.39149975776672363, -0.09239912778139114, -0.1945132613182068, 0.07069912552833557, 0.3765125274658203, -0.14424698054790497, 0.4961836338043213, -0.4320507049560547, -0.178486630320549, 0.187599778175354, -0.06748677790164948, -0.19118180871009827, 0.23606444895267487], [-0.058054786175489426, -0.013731974177062511, 0.09344800561666489, -0.0905325785279274, -0.009609758853912354, 0.155278742313385, -0.011142888106405735, 0.06586772948503494, -0.05857618525624275, 0.02035870961844921, 0.01131617184728384, -0.10660370439291, -0.005036807619035244, -0.031745392829179764, -0.0012943829642608762, 0.030311716720461845, -0.10444191098213196, 0.005908543709665537, 0.04442869499325752, -0.17367251217365265, 0.03491764888167381, 0.027230268344283104, 0.038562141358852386, -0.15217436850070953, 0.08060887455940247, -0.15981586277484894, 0.17284341156482697, -0.023720886558294296, 0.010809391736984253, 0.01894834265112877, -0.054023656994104385, -0.13506808876991272], [-0.0396297313272953, -0.02718687430024147, -0.007192190736532211, -0.03162684664130211, 0.0949540063738823, 0.03726392239332199, -0.045051317662000656, -0.054564476013183594, -0.11580359190702438, -0.02217203378677368, 0.07530760765075684, 0.0037907431833446026, -0.07982825487852097, 0.02990010939538479, 0.16504615545272827, 0.0514005571603775, -0.08775348961353302, 0.1163506731390953, -0.023193582892417908, -0.03696297109127045, 0.02805197425186634, 0.02568790130317211, -0.001804422470740974, -0.035348936915397644, -0.03626555949449539, -0.05904489383101463, 0.034833114594221115, -0.03142714872956276, -0.024008898064494133, 0.07810091972351074, 0.12841252982616425, -0.008716907352209091], [-0.15241125226020813, -0.05640348419547081, 0.33929094672203064, -0.012218207120895386, 0.052981115877628326, 0.313745379447937, -0.04525855556130409, 0.12326900660991669, -0.13727059960365295, 0.04912422224879265, -0.22777299582958221, -0.06734075397253036, 0.03633331134915352, 0.013693398796021938, 0.14522422850131989, 0.1889582872390747, -0.05044250562787056, 0.08460935950279236, 0.07553707808256149, -0.31438377499580383, 0.062115564942359924, 0.06018183380365372, 0.04705291986465454, -0.2978726923465729, 0.2869965434074402, -0.2492397576570511, 0.33264991641044617, -0.0019779629074037075, -0.02317947708070278, -0.20230281352996826, -0.49643436074256897, -0.2239757478237152], [-0.34108060598373413, -0.0988127663731575, -0.7089667916297913, -0.22523944079875946, -0.08495733141899109, -0.2853986918926239, 0.060638654977083206, 0.1398131102323532, -0.059228479862213135, -0.060448672622442245, 0.2629867494106293, 0.10410397499799728, -0.219796285033226, -0.08495276421308517, 0.15638001263141632, -0.10798139125108719, -0.010909944772720337, 0.020789550617337227, 0.11364765465259552, 0.5647602677345276, -0.039728276431560516, -0.07733477652072906, -0.08895871043205261, 0.09364352375268936, -0.5785304307937622, -0.09184823930263519, -0.4947018027305603, 0.10413018614053726, -0.051650527864694595, 0.09892946481704712, 0.46170854568481445, -0.0705355852842331], [-0.38546064496040344, 0.09704753756523132, 0.11198092997074127, 0.7576591372489929, -0.00684339040890336, 0.07029829174280167, -0.14137336611747742, -0.16935163736343384, -0.10836868733167648, 0.08610986173152924, -0.6904433965682983, 0.2599252164363861, -0.11595023423433304, -0.47376999258995056, 0.21386264264583588, -0.1033208966255188, 0.36566874384880066, 0.04987324774265289, 0.007627398706972599, -0.13551177084445953, 0.20461077988147736, 0.0054857744835317135, -0.05165107548236847, 0.10495106130838394, 0.45224592089653015, 0.547091543674469, 0.10738255828619003, 0.8468882441520691, -0.1367073953151703, -0.09576474130153656, -0.022221777588129044, -0.03911878168582916], [-0.024730470031499863, -0.009955734945833683, 0.318890780210495, -0.19557540118694305, 0.015842285007238388, 0.2717067301273346, -0.01699311099946499, 0.24311372637748718, 0.053335778415203094, -0.006777906324714422, 0.10422473400831223, -0.14988373219966888, -0.026146123185753822, 0.13431775569915771, -0.048570554703474045, -0.003908517304807901, -0.2332601249217987, -0.01867934688925743, 0.024227173998951912, -0.6707227230072021, -0.010826225392520428, 0.009185249917209148, 0.08157877624034882, -0.4354909062385559, 0.439097136259079, -0.3735799193382263, 0.6491351127624512, -0.151910662651062, -0.03662867471575737, 0.12853126227855682, -0.014329890720546246, -0.2199552059173584], [0.15497297048568726, 0.05934659019112587, 0.11996492743492126, 0.13146184384822845, 0.027273863554000854, -0.13276107609272003, 0.02735547162592411, 0.016690993681550026, 0.04705003648996353, 0.033782828599214554, -0.03472673147916794, 0.2809678018093109, 0.012722105719149113, 0.025299586355686188, -0.05068013817071915, -0.01070480141788721, -0.0062170205637812614, 0.03566254675388336, 0.008180294185876846, -0.22688408195972443, -0.0912822037935257, 0.022720998153090477, -0.006331920623779297, -0.002117208205163479, 0.10611368715763092, 0.17626726627349854, 0.21424025297164917, 0.11239519715309143, 0.1644679456949234, -0.04518511891365051, -0.27230677008628845, 0.04015030339360237], [-0.13505281507968903, 0.12291090935468674, 0.24139347672462463, -0.05459374561905861, -0.05352907255291939, 0.22077322006225586, 0.055411797016859055, 0.41350382566452026, 0.061734262853860855, 0.0016096668550744653, -0.24894563853740692, -0.20448249578475952, 0.23847158253192902, -0.01780499331653118, -0.057705920189619064, -0.039590999484062195, -0.04706214740872383, -0.19810695946216583, 0.032248225063085556, -0.3603661060333252, -0.008281847462058067, -0.05647604912519455, 0.10991542786359787, -0.3087645173072815, 0.2420545518398285, -0.21563109755516052, 0.3961232900619507, 0.18943990767002106, -0.08210593461990356, 0.12234552949666977, -0.08938273787498474, -0.41012686491012573], [-0.0602262057363987, -0.01821153610944748, 0.08363226056098938, -0.01056848093867302, -0.034428223967552185, 0.025946492329239845, 0.07396084815263748, 0.012301268987357616, -0.06920260936021805, -0.047404006123542786, -0.01179014053195715, -0.03655286878347397, 0.021156473085284233, -0.07056687772274017, -0.02124684862792492, 0.1285763680934906, -0.026813998818397522, 0.03157870098948479, 0.0323459766805172, -0.06811141967773438, 0.0191947054117918, 0.04557891562581062, 0.009408686310052872, -0.06015995517373085, 0.04351004958152771, -0.03716341033577919, 0.06072435528039932, 0.020472900941967964, 0.041731204837560654, -0.0922757163643837, -0.11571609973907471, -0.06495057791471481], [-0.7328380346298218, 0.005477799102663994, 0.6449453830718994, 0.35106971859931946, -0.09952844679355621, -0.3655657470226288, 0.08041909337043762, 0.44000735878944397, 0.0761343315243721, 0.002161253010854125, -0.4186583161354065, -0.18050096929073334, -0.21918253600597382, -0.5475422143936157, 0.4229290783405304, -0.1404370367527008, -0.0722857341170311, 0.01060681976377964, 0.02681991085410118, -0.7437164187431335, 0.17962752282619476, -0.09719333797693253, -0.02792830392718315, -0.3491367995738983, 0.6308649778366089, -0.16176307201385498, 0.723514974117279, -0.09198600798845291, -0.08967094123363495, 0.11963075399398804, 0.128988116979599, -0.24897047877311707], [-0.09902035444974899, 0.0025532797444611788, -0.008643066510558128, 0.04874817654490471, -0.03718606382608414, 0.028818724676966667, -0.005038238130509853, 0.11067722737789154, -0.05389026552438736, 0.08015730232000351, 0.039558038115501404, 0.1063283234834671, 0.014549204148352146, 0.11295927315950394, -0.03035951592028141, 0.07555533200502396, -0.05609230697154999, 0.11230304837226868, -0.022541001439094543, -0.2058153748512268, 0.011123147793114185, -0.0067771137692034245, 0.06800130009651184, -0.15204769372940063, 0.22078566253185272, -0.09576469659805298, 0.19808726012706757, -0.03308685123920441, 0.01682652160525322, -0.11143822222948074, 0.06644021719694138, -0.09699080139398575], [0.024144263938069344, -0.14931759238243103, 0.5020502805709839, 0.13100077211856842, -0.040094777941703796, -0.17237675189971924, -0.17928729951381683, 0.0363021120429039, -0.09685738384723663, 0.04625260457396507, -0.41990089416503906, -0.3089688718318939, 0.1366802304983139, 0.18539215624332428, 0.030359186232089996, -0.14796440303325653, 0.33044975996017456, 0.10465802252292633, 0.009790115058422089, -0.5239428877830505, 0.08230716735124588, -0.021813757717609406, -0.07727721333503723, -0.49613383412361145, 0.42007991671562195, -0.4603598117828369, 0.4542863368988037, 0.0006838907138444483, -0.02946123480796814, 0.1194203719496727, 0.27862784266471863, 0.15746189653873444], [-0.15297704935073853, -0.1057996153831482, 0.05795624107122421, 0.1935885101556778, -0.1342301070690155, 0.15941737592220306, -0.028547106310725212, 0.10322186350822449, 0.17248860001564026, -0.030358683317899704, -0.3138180077075958, 0.07367804646492004, 0.07916063815355301, -0.05984237790107727, -0.12173516303300858, -0.332000732421875, 0.036665644496679306, -0.1712672859430313, -0.002307769376784563, -0.08493441343307495, 0.08257889747619629, 0.11934629827737808, -0.026399431750178337, -0.08142723143100739, 0.006079898215830326, -0.03652335703372955, 0.08466767519712448, 0.23572522401809692, -0.01455745380371809, -0.26227301359176636, 0.11063183844089508, -0.1932150274515152], [-0.03701581433415413, -0.10288917273283005, 0.40863877534866333, -0.17021214962005615, 0.025404686108231544, 0.21907317638397217, -0.006091915536671877, 0.2847324013710022, 0.02621939592063427, 0.06064485013484955, 0.0406305156648159, -0.024094529449939728, 0.03002566657960415, 0.09835541993379593, -0.16931329667568207, 0.05341304838657379, -0.19380593299865723, 0.018433162942528725, 0.07596789300441742, -0.8087934851646423, 0.023477325215935707, 0.022787153720855713, 0.023641390725970268, -0.48607388138771057, 0.6247130036354065, -0.2682375907897949, 0.7863717675209045, -0.11101790517568588, 0.0031703985296189785, 0.030351895838975906, -0.06517018377780914, -0.3715212345123291], [-0.08400370925664902, -0.07522277534008026, 0.1241820678114891, 0.18365801870822906, -0.024499952793121338, 0.1092669889330864, 0.05614785477519035, 0.021280400454998016, -0.009254288859665394, 0.06697948276996613, -0.30232930183410645, 0.10757479071617126, 0.09807559847831726, -0.09508689492940903, 0.03162425756454468, 0.09469585865736008, 0.04958885535597801, -0.032901909202337265, 0.08472239971160889, -0.13171513378620148, 0.05599701777100563, 0.11822047829627991, 0.037800416350364685, -0.09774304926395416, 0.15575380623340607, 0.13459129631519318, 0.1766706109046936, 0.13310639560222626, -0.06588923186063766, 0.06385727226734161, -0.21616031229496002, -0.17941951751708984], [0.030932852998375893, 0.15309248864650726, 0.21965545415878296, 0.14287342131137848, 0.005616358015686274, -0.20471914112567902, -0.13013406097888947, 0.19246792793273926, 0.01716719940304756, -0.01855209842324257, 0.034392669796943665, 0.03559456020593643, -0.02186192385852337, -0.03873563930392265, -0.012236321344971657, 0.10350687801837921, 0.32754629850387573, -0.050458699464797974, -0.008371224626898766, -0.20824556052684784, -0.13087491691112518, 0.03256607800722122, -0.02196124941110611, -0.1827484518289566, 0.005095653235912323, -0.2317657321691513, 0.20585596561431885, -0.09003101289272308, 0.033479418605566025, -0.07350392639636993, 0.050878047943115234, 0.03979780524969101], [0.012243765406310558, -0.025152260437607765, 0.031154440715909004, 0.049889907240867615, 0.06794842332601547, -0.05845298618078232, 0.004680984653532505, 0.021947737783193588, -0.0003975736035499722, 0.0057716816663742065, -0.07613730430603027, 0.04919138550758362, 0.008167468011379242, 0.026468032971024513, -0.04886558651924133, 0.01646905206143856, 0.011903760954737663, 0.05594248324632645, 0.031760282814502716, -0.017441146075725555, 0.0027540521696209908, -0.01610453426837921, 0.0070176743902266026, -0.013492551632225513, 0.042328089475631714, 0.03677602857351303, 0.00592447817325592, -0.047491781413555145, 0.004323118831962347, -0.06837941706180573, -0.05728667601943016, 0.0025285319425165653], [0.03204810991883278, 0.05655195191502571, 0.0524129755795002, 0.026124795898795128, 0.03923488035798073, 0.03824277222156525, -0.11848574876785278, -0.15950284898281097, 0.01135564036667347, 0.014846966601908207, -0.1625223159790039, 0.11211636662483215, -0.03921206295490265, 0.2448834925889969, -0.00831819511950016, 0.002293449593707919, -0.055724289268255234, 0.04952514171600342, -0.005783151835203171, -0.06475353986024857, 0.03763867914676666, -0.1170429065823555, 0.06625938415527344, -0.03617238998413086, 0.10555212199687958, -0.007050111889839172, 0.0515831783413887, -0.12262554466724396, -0.013918913900852203, 0.038003772497177124, -0.21189448237419128, -0.008175640366971493], [-0.17630603909492493, 0.006844210904091597, 0.06906742602586746, 0.18795719742774963, -0.005044007673859596, 0.09615595638751984, 0.037851158529520035, 0.02271004021167755, -0.12051520496606827, 0.028197182342410088, -0.20214328169822693, 0.14484624564647675, 0.03614049404859543, -0.02095966413617134, 0.015154550783336163, 0.04433440417051315, -0.056603893637657166, -0.07406135648488998, 0.03430306538939476, -0.006152347195893526, 0.09906279295682907, -0.062342725694179535, -0.04617457836866379, -0.04963614046573639, 0.08862652629613876, 0.10735508054494858, 0.02644839696586132, 0.13606666028499603, -0.04026423394680023, -0.23176328837871552, 0.0320463627576828, -0.19328148663043976], [0.19852960109710693, -0.09077376872301102, 0.023511208593845367, -0.08598659932613373, -0.3434127867221832, 0.018690643832087517, -0.08884888142347336, 0.15135221183300018, 0.10657818615436554, -0.025565898045897484, 0.1385514885187149, -0.08485490083694458, 0.21771028637886047, -0.17840375006198883, -0.28631144762039185, -0.027444275096058846, 0.12090522795915604, 0.028304677456617355, -0.0418914258480072, -0.1043991893529892, 0.07403945922851562, -0.05545894801616669, -0.1126968190073967, -0.1716628223657608, -0.018222792074084282, -0.1303708702325821, -0.0021850501652806997, -0.015434907749295235, -0.0889175683259964, -0.20728141069412231, 0.163553848862648, 0.04309884086251259], [-0.2524861693382263, -0.033037107437849045, 0.05277973413467407, 0.0004248494515195489, 0.0960715264081955, 0.444487601518631, -0.2572452425956726, 0.17803052067756653, 0.08112351596355438, 0.07440059632062912, -0.2097109854221344, -0.13236849009990692, 0.04103994369506836, 0.14134663343429565, 0.00955828558653593, 0.01273465808480978, -0.1929100900888443, -0.0005878997035324574, 0.01614723913371563, -0.2832852900028229, 0.029563099145889282, 0.01759422942996025, 0.07482833415269852, -0.30326539278030396, 0.1810488998889923, -0.2061011791229248, 0.32132023572921753, 0.25719723105430603, -0.17578209936618805, -0.18303266167640686, -0.040317513048648834, -0.24345345795154572], [0.06959839910268784, 0.005609339568763971, 0.030210373923182487, -0.1655283272266388, 0.0941111370921135, 0.017076754942536354, 0.17975209653377533, 0.0734897330403328, 0.0902676209807396, -0.10032457113265991, 0.24944394826889038, -0.16929130256175995, -0.05776051804423332, 0.18788598477840424, -0.03461208939552307, -0.014334658160805702, -0.08967868983745575, -0.06141878664493561, -0.01650295965373516, -0.1906232088804245, -0.07363893836736679, 0.0442001037299633, -0.010579483583569527, -0.12691456079483032, 0.07820245623588562, -0.14324843883514404, 0.1800941377878189, -0.15951846539974213, 0.000871606229338795, 0.0850338488817215, -0.04694739356637001, 0.05033911019563675], [-0.05371754616498947, -0.14585784077644348, 0.23580746352672577, -0.09896460920572281, 0.04685734957456589, 0.18100522458553314, 0.014387109316885471, 0.17199262976646423, 0.04362565279006958, 0.025255955755710602, 0.14298269152641296, -0.01799781620502472, 0.0059213596396148205, 0.14139814674854279, -0.054734598845243454, 0.06436403095722198, -0.20861808955669403, 0.03488627076148987, 0.09640486538410187, -0.5177913308143616, 0.02257704921066761, -0.03643833100795746, 0.07497891038656235, -0.3865717053413391, 0.42553192377090454, -0.24877217411994934, 0.5359368920326233, -0.10837998986244202, -0.022956976667046547, -0.0322866216301918, 0.06885694712400436, -0.18951912224292755], [-0.04859105125069618, -0.0659899115562439, 0.2545793652534485, 0.01867072656750679, 0.07760953158140182, -0.09713054448366165, -0.1488577127456665, 0.1721813827753067, 0.017883319407701492, -0.03570646047592163, -0.06846227496862411, -0.12534888088703156, -0.019349338486790657, 0.062154050916433334, 0.11025086045265198, -0.05509871244430542, 0.022157983854413033, 0.015044629573822021, -0.0348145067691803, -0.25005173683166504, 0.03413515165448189, 0.11584651470184326, 0.01327718235552311, -0.20577004551887512, 0.15786044299602509, -0.23064611852169037, 0.2476154863834381, -0.05764434114098549, -0.03818802908062935, -0.09131592512130737, 0.03538604825735092, -0.05489187315106392], [0.03913869336247444, -0.039563290774822235, 0.5076107978820801, -0.13677290081977844, -0.033100929111242294, 0.13907624781131744, 0.02320799231529236, 0.3251747488975525, 0.03627431020140648, 0.05360478162765503, -0.042327288538217545, -0.2658136188983917, 0.05149918049573898, -0.13106068968772888, -0.05472298339009285, 0.09214619547128677, 0.0349489189684391, 0.11981403082609177, 0.06384851783514023, -0.5524330139160156, 0.005308684427291155, 0.04071802645921707, 0.03947073221206665, -0.37506103515625, 0.3007930517196655, -0.27444878220558167, 0.565350353717804, -0.17865033447742462, 0.0827598050236702, 0.07340272516012192, 0.07568655908107758, -0.09721683710813522], [-0.023773502558469772, -0.09234872460365295, 0.30459392070770264, -0.16180194914340973, -0.03907933831214905, 0.15745876729488373, 0.02653832733631134, 0.2947794795036316, -0.02179584465920925, -0.09022200852632523, 0.059821683913469315, -0.18541319668293, 0.014318082481622696, 0.15785570442676544, -0.13877151906490326, 0.0011249203234910965, -0.22874535620212555, -0.027492394670844078, 0.02261117286980152, -0.570178210735321, 0.0033326067496091127, 0.1504228264093399, 0.06599778681993484, -0.40042898058891296, 0.34746047854423523, -0.38792696595191956, 0.5394358038902283, -0.1622508466243744, -0.011431852355599403, -0.06424722820520401, -0.047092825174331665, -0.17860080301761627], [-0.0266185961663723, -0.006275871768593788, 0.21556611359119415, -0.14940477907657623, 0.04007438197731972, 0.1450599879026413, 0.001556152943521738, 0.16541224718093872, 0.0048221140168607235, 0.001010144711472094, 0.10236108303070068, -0.075274758040905, -0.0038292864337563515, 0.13231278955936432, -0.008629481308162212, 0.0016781057929620147, -0.19351834058761597, -0.015928378328680992, -0.004277925007045269, -0.4724818170070648, -0.07805020362138748, -0.003299144795164466, 0.09698101133108139, -0.31489211320877075, 0.3452807068824768, -0.30384737253189087, 0.510350227355957, -0.1403992474079132, -0.02479543350636959, 0.06453648209571838, 0.02094094455242157, -0.12910839915275574], [-0.010609113611280918, -0.012510987929999828, 0.1571708768606186, -0.09196127951145172, -0.015671076253056526, 0.15615200996398926, -0.0016920043854042888, 0.11384876072406769, -0.010732453316450119, 0.024927804246544838, -0.02816150151193142, -0.12175142019987106, 0.025232059881091118, -0.012886020354926586, -0.016564350575208664, -0.012446707114577293, -0.03354291617870331, -0.028106220066547394, 0.037595394998788834, -0.2459227740764618, -0.002722793957218528, 0.004623577930033207, 0.008629499934613705, -0.17579160630702972, 0.10572894662618637, -0.19370849430561066, 0.2345067858695984, -0.0089096175506711, -0.012099126353859901, 0.03185935690999031, 0.029574625194072723, -0.08708163350820541], [0.15746106207370758, 0.08693995326757431, 0.24509108066558838, 0.1836080104112625, -0.053117960691452026, 0.15586824715137482, 0.15044733881950378, -0.15813012421131134, 0.05136802792549133, 0.022021856158971786, -0.22190015017986298, 0.23218414187431335, 0.09464594721794128, -0.024691468104720116, 0.000530849676579237, 0.14146631956100464, -0.10792149603366852, -0.05004078894853592, -0.103299580514431, -0.23293644189834595, 0.2568577229976654, 0.1389164924621582, 0.17164120078086853, -0.06389989703893661, 0.5143935680389404, -0.1422099471092224, 0.3763677477836609, -0.1791486293077469, 0.03902025893330574, 0.10807771980762482, 0.040097691118717194, 0.08837214857339859], [0.01592615805566311, -0.0418851412832737, 0.5941468477249146, 0.07596484571695328, -0.17069709300994873, 0.23568640649318695, -0.15900908410549164, 0.4682498872280121, 0.07604052871465683, 0.1703016459941864, -0.18822184205055237, -0.10017335414886475, 0.07346085458993912, 0.25843775272369385, -0.1466989666223526, -0.15946699678897858, -0.14440467953681946, -0.023360347375273705, 0.005139529705047607, -0.7654107213020325, 0.209707111120224, 0.01694640703499317, -0.015989959239959717, -0.5203830599784851, 0.5466426610946655, -0.6355605125427246, 0.6800820827484131, -0.10363344848155975, 0.05958233028650284, -0.12780217826366425, 0.6431124210357666, -0.32307472825050354], [-0.08722848445177078, 0.009463047608733177, 0.12602879106998444, -0.07422363013029099, -0.028032638132572174, 0.15882748365402222, -0.07248556613922119, 0.12685590982437134, 0.019005099311470985, 0.03240973502397537, -0.0741053968667984, -0.18931187689304352, 0.019322317093610764, -0.11778298020362854, 0.0310783963650465, -0.04421232268214226, -0.06558627635240555, -0.04756612703204155, 0.019058646634221077, -0.1931922286748886, -0.004566632676869631, 0.009731079451739788, 0.012067644856870174, -0.17093269526958466, 0.07768932729959488, -0.16854648292064667, 0.20078271627426147, 0.03728819638490677, -0.00357127096503973, -0.00046233125613071024, 0.0004499835195019841, -0.11005566269159317], [-0.10165070742368698, -0.03497182950377464, 0.48946768045425415, 0.16096334159374237, -0.052350129932165146, 0.12915068864822388, -0.028513029217720032, 0.3938334584236145, -0.10764174908399582, 0.08817145973443985, -0.15776970982551575, 0.15926989912986755, 0.21448887884616852, 0.10611750930547714, -0.2532713711261749, 0.1800476759672165, -0.0911761075258255, 0.09145934134721756, 0.027401328086853027, -0.4889114797115326, 0.22728075087070465, 0.0916774645447731, 0.1868160367012024, -0.3378540873527527, 0.4768839180469513, -0.27040451765060425, 0.4707409143447876, 0.21028365194797516, 0.006177534814924002, -0.10664679110050201, -0.42605870962142944, -0.39429718255996704], [0.011891298927366734, 0.01233827043324709, -0.03207088261842728, -0.11598928272724152, 0.012285096570849419, -0.042507439851760864, 0.1445508450269699, -0.023989858105778694, 0.004125459585338831, 0.008668333292007446, 0.12202734500169754, -0.1210966557264328, -0.040479399263858795, 0.007919193245470524, 0.0963997095823288, 0.0013373700203374028, -0.08404023945331573, -0.02339734323322773, 0.016655052080750465, -0.025208620354533195, -0.0646151527762413, -0.008670848794281483, 0.018631882965564728, -0.011116821318864822, 0.0010556775378063321, -0.028760425746440887, 0.01686537079513073, -0.11057981848716736, 0.022787848487496376, 0.13849221169948578, -0.11884181946516037, 0.03267841413617134], [-0.11019015312194824, -0.026824137195944786, 0.1289743036031723, -0.025037162005901337, -0.009980155155062675, 0.0774165466427803, -0.10937900096178055, 0.17666150629520416, 0.06071082130074501, -0.04925999045372009, -0.04597922042012215, -0.08230873942375183, -0.006149122957140207, -0.05347273126244545, 0.032088104635477066, -0.20800699293613434, -0.09546002000570297, -0.06153701990842819, -0.021308090537786484, -0.16566336154937744, 0.10441175103187561, 0.08923254162073135, 0.03792582452297211, -0.1521233320236206, 0.05352018028497696, -0.1871766746044159, 0.15732918679714203, 0.02782251685857773, -0.06642863899469376, 0.03275945782661438, 0.22278238832950592, -0.13367988169193268], [0.13785652816295624, -0.06936939060688019, 0.10995794087648392, 0.28389543294906616, -0.03303304687142372, 0.14868275821208954, -0.2765340805053711, -0.14927072823047638, -0.10364435613155365, 0.0453273169696331, -0.19826272130012512, 0.06311102211475372, -0.046923138201236725, -0.013803082518279552, 0.019850747659802437, 0.007412965875118971, 0.03115922398865223, 0.17412230372428894, -0.1028158962726593, 0.010478554293513298, 0.08646053075790405, 0.19758613407611847, 0.044703226536512375, -0.06966346502304077, 0.024008046835660934, -0.09000498801469803, -0.01236503291875124, 0.35662102699279785, -0.03569333255290985, -0.0642227977514267, -0.2529186010360718, 0.003495156764984131], [-0.5203700065612793, -0.15465684235095978, 0.41125619411468506, 0.01235911063849926, -0.25435248017311096, 0.13886667788028717, -0.13454419374465942, 0.12546281516551971, -0.029612556099891663, 0.024631403386592865, -0.5145735740661621, -0.4721318185329437, 0.05960514396429062, -0.3296261131763458, 0.6923837661743164, -0.16063641011714935, 0.04086460545659065, 0.04619842395186424, -0.004463125951588154, -0.6473078727722168, 0.28196293115615845, -0.1395522952079773, -0.12874191999435425, -0.5427898168563843, 0.3888850212097168, -0.48252445459365845, 0.5607679486274719, -0.003954106941819191, 0.021899472922086716, 0.059029486030340195, 0.44185110926628113, 0.000525468320120126], [0.3112863302230835, -0.04490354657173157, -0.20699159801006317, -0.0027709081768989563, 0.01690289005637169, 1.7448198795318604, -0.015198671258985996, -0.3219214081764221, -0.0016451956471428275, -0.02505435049533844, 0.008878291584551334, 0.08944348990917206, -0.03576407954096794, 0.000421243894379586, 0.16995173692703247, -0.0270046666264534, -0.0767979547381401, 0.050406429916620255, -0.014661451801657677, 0.2590201795101166, 0.10892776399850845, 0.045884616672992706, 0.011621642857789993, 0.0940372422337532, -0.14016371965408325, 0.01999128982424736, -0.22469329833984375, 0.09021684527397156, -0.020229456946253777, -0.03440532460808754, 0.06492570787668228, -0.14956197142601013], [0.0402921661734581, 0.18491336703300476, -0.029828861355781555, -0.023298969492316246, 0.037041787058115005, 0.0183121208101511, 0.3043615520000458, 0.1109190508723259, 0.04708176478743553, 1.0949467420578003, -0.04734693467617035, 0.06590737402439117, 0.14246627688407898, 0.0028159194625914097, -0.04982276260852814, -0.03953234851360321, 0.011489970609545708, -0.16243818402290344, 0.42227521538734436, -0.13494162261486053, 0.050137102603912354, -0.21452806890010834, 0.22422248125076294, -0.008394611068069935, -0.1369348019361496, -0.08778490126132965, -0.1969454139471054, 0.052629485726356506, -0.04479192569851875, -0.00014472690236289054, -0.04015969857573509, 0.014759364537894726], [0.6103676557540894, -0.01945291832089424, 0.13861587643623352, 0.1739298552274704, 0.012830526567995548, -0.13820640742778778, 0.12012819200754166, 0.052101001143455505, -0.017991242930293083, -0.08244815468788147, 0.01491974201053381, 0.12458393722772598, 0.19762611389160156, 0.08012615889310837, -0.17328067123889923, 0.032079342752695084, -0.13657014071941376, 0.09077443927526474, 0.008504667319357395, -0.2310304492712021, -0.004319054074585438, -0.12575353682041168, 0.023589571937918663, -0.02268322743475437, 0.22473300993442535, -0.024610431864857674, 0.14683175086975098, 0.049170684069395065, 0.07467733323574066, -0.016937190666794777, -0.054994676262140274, 0.38662901520729065], [0.0351644828915596, -0.037595219910144806, 0.16105277836322784, 0.06062541529536247, -0.1629439741373062, 0.0028887055814266205, -0.4257982671260834, 0.004102130886167288, -0.19801439344882965, 0.04060804843902588, -0.15965378284454346, 0.057824186980724335, -0.09326285868883133, -0.10880425572395325, -0.11036524176597595, -0.1438119113445282, -0.09604041278362274, 0.02405991405248642, -0.05938265845179558, -0.07614961266517639, -0.10883934050798416, 0.03040691837668419, -0.10107804834842682, -0.005652915686368942, -0.3463653028011322, 0.537031888961792, 0.1973334550857544, 0.43451830744743347, 0.08394668251276016, 0.036963656544685364, -0.11606919020414352, 0.02081964910030365], [0.2474527657032013, -0.07156337797641754, 0.010865279473364353, 0.04370501637458801, 0.09399595856666565, 0.17980346083641052, 0.04916735365986824, -0.2686857581138611, 0.05043819174170494, -0.10379628092050552, -0.032562125474214554, 0.0689447671175003, -0.006583056878298521, 0.23165394365787506, -0.018326906487345695, 0.025677187368273735, -0.024224944412708282, -0.02420717477798462, 0.015404774807393551, -0.012889433652162552, -0.12154334038496017, -0.07503645867109299, -0.008819854818284512, 0.0207088403403759, 0.060468852519989014, -0.1079278364777565, -0.04801763966679573, -0.24631540477275848, 0.007921718060970306, -0.007160061504691839, -0.6627777814865112, 0.21627086400985718], [-0.7140917181968689, -0.003327467944473028, -0.01368948444724083, -0.10037542134523392, 0.024813292548060417, -0.08293198049068451, -0.014431722462177277, 0.2995965778827667, -0.0761537253856659, 0.1132006049156189, 0.04729631170630455, -0.31112536787986755, -0.028475826606154442, 0.0002643312618602067, 0.31839463114738464, -0.0543934628367424, 0.03207511082291603, 0.031369324773550034, 0.05629387125372887, 0.029158474877476692, 0.07381179928779602, -0.10951615869998932, 0.09714831411838531, -0.19928483664989471, -0.11233413219451904, -0.22011612355709076, 0.043469782918691635, 0.25614631175994873, -0.1307772845029831, -0.1704142987728119, 0.10355477780103683, -0.4308033883571625], [0.11589409410953522, -0.2576581835746765, -0.09415994584560394, 0.34677693247795105, -0.03890640288591385, 0.03126306086778641, -0.1240844577550888, -0.04419304430484772, 0.13414335250854492, 0.014881392940878868, 0.14736159145832062, -0.25084763765335083, 0.10466035455465317, 0.025787506252527237, 0.051462505012750626, 0.1877073347568512, -0.31935232877731323, -0.5014045834541321, 0.13505518436431885, -0.11090685427188873, 0.012070758268237114, -0.1341506391763687, -0.5010293126106262, -0.12510009109973907, 0.047466643154621124, 0.009353529661893845, -0.18926289677619934, -0.061014603823423386, -0.7087661027908325, 0.02820695750415325, 0.01165847573429346, -0.12139374017715454], [0.1184181347489357, -0.11847876757383347, 0.0968272015452385, 0.21084395051002502, 0.027597595006227493, -0.26804736256599426, -0.14868663251399994, 0.21379008889198303, -0.060195744037628174, -0.005419452209025621, -0.18357893824577332, 0.04212004318833351, 0.13486744463443756, -0.1408734917640686, 0.04491962864995003, -0.18471063673496246, 0.4906705915927887, -0.03655938431620598, 0.028048167005181313, -0.10024837404489517, -0.0847838968038559, 0.21976152062416077, 0.006247636862099171, -0.28852584958076477, 0.01807580329477787, -0.3640367090702057, 0.1697099208831787, 0.04829365015029907, -0.02993546985089779, 0.09900820255279541, 0.03577857092022896, 0.1332888901233673], [-0.06287633627653122, -0.06427089124917984, 0.056175243109464645, -0.0836295410990715, -0.007069910876452923, -0.20926427841186523, 0.009834282100200653, -0.033544864505529404, 0.437858909368515, 0.10582062602043152, -0.2422272115945816, -0.05968232825398445, -0.07043933123350143, 0.04406404122710228, 0.1744207888841629, -0.2069157063961029, 0.01770729199051857, -0.03772781789302826, 0.10593467205762863, -0.032976701855659485, 0.027140330523252487, -0.13972629606723785, -0.0945376381278038, -0.028012283146381378, 0.0009322412079200149, -0.10202451050281525, 0.016053268685936928, -0.3419855535030365, -0.06787747144699097, 0.0445752814412117, 1.2549097537994385, 0.23221856355667114], [-0.0002784548560157418, -0.7606537938117981, -0.027383169159293175, 0.016234038397669792, 0.019227266311645508, -0.055735379457473755, 0.2996874749660492, -0.17162498831748962, 0.2836821377277374, 0.2857436537742615, -0.10432268679141998, 0.06442871689796448, 0.049904465675354004, -0.017369167879223824, 0.021168850362300873, 0.3948359191417694, 0.12203705310821533, 0.35737061500549316, 0.14031462371349335, 0.056149326264858246, -0.012058747000992298, 0.317428857088089, -0.15623533725738525, 0.15867778658866882, -0.21856598556041718, -0.008013108745217323, 0.17853018641471863, -0.05434148386120796, 0.13711854815483093, 0.0005615002010017633, -0.030318932607769966, 0.04649008810520172], [0.5632479190826416, 0.01167646050453186, -0.40912264585494995, -0.22840061783790588, -0.04882192611694336, 0.1754380315542221, 0.009584282524883747, 0.4901687800884247, 0.134818434715271, -0.13215932250022888, -0.12631171941757202, 0.2731214463710785, 0.14750567078590393, 0.36694198846817017, -0.21703410148620605, 0.1292581558227539, -0.2874840199947357, -0.1919444352388382, -0.08114761114120483, 0.25165465474128723, 0.12065280973911285, 0.1318335235118866, 0.0389774814248085, -0.15033522248268127, -0.15163664519786835, -0.38471460342407227, -0.17918556928634644, -0.48477834463119507, 0.08626683056354523, 0.3141566216945648, -0.22174832224845886, -0.4005714952945709], [0.5156570672988892, -0.016836324706673622, -0.07898698002099991, 0.11728788167238235, -0.20175066590309143, 0.5386120080947876, 0.005187078844755888, -0.2913297712802887, 0.07833336293697357, 0.11896597594022751, -0.23044578731060028, -0.13346806168556213, 0.16226743161678314, -0.23459604382514954, -0.2238532453775406, 0.08207172155380249, 0.05661875009536743, -0.1181165874004364, -0.018552955240011215, 0.014319500885903835, 0.34903645515441895, 0.10149642080068588, -0.0062935734167695045, 0.3128880262374878, 0.30438703298568726, 0.40211981534957886, -0.04998641088604927, 0.3992966115474701, 0.04721929877996445, 0.17907387018203735, -0.14079825580120087, -0.15266671776771545], [0.1866573989391327, -0.017282426357269287, -0.13558372855186462, 0.04883382096886635, -0.12081476300954819, 0.13063748180866241, -0.11461607366800308, 0.35825300216674805, -0.003605244215577841, 0.022250371053814888, -0.17567189037799835, -0.1012461856007576, 0.049941498786211014, 0.02623596601188183, -0.16632257401943207, -0.00951245054602623, 0.038247641175985336, -0.0999748706817627, 0.03688774257898331, 0.08220021426677704, -0.11521781235933304, -0.03880959376692772, -0.084974505007267, -0.011967680417001247, 0.1347309798002243, -0.4743739068508148, -0.1112528070807457, -0.08678143471479416, -0.1811092346906662, -0.29107344150543213, 0.04519836604595184, -0.28385546803474426], [0.41741475462913513, -0.039275072515010834, -0.18155185878276825, 0.07552117109298706, 0.08472917228937149, 0.42734330892562866, 0.10374069213867188, -0.3092743754386902, -0.026806991547346115, -0.028354555368423462, -0.3460943102836609, 0.13196779787540436, -0.1330145001411438, 0.18551723659038544, -0.1496293842792511, -0.07159806787967682, -0.4305475652217865, 0.1462962031364441, -0.07750905305147171, 0.15365339815616608, -0.09718137979507446, -0.12462519854307175, 0.057969678193330765, 0.10470539331436157, -0.0200254675000906, -0.4299527406692505, -0.13790887594223022, -0.364279180765152, 0.09598524123430252, 0.09912385791540146, -0.05871116369962692, 0.08724323660135269], [-2.309338331222534, -0.045140769332647324, 0.28524935245513916, 0.3640602231025696, -0.13416002690792084, -0.7257627844810486, 0.02943897247314453, -0.41424790024757385, -0.014597393572330475, 0.20627163350582123, 0.0025520960334688425, -0.4893766939640045, 0.007598009891808033, -0.08215878903865814, -0.36102867126464844, 0.09525535255670547, 0.3133588135242462, -0.09895646572113037, 0.03183211386203766, -0.31562522053718567, -0.3229355812072754, -0.08451846241950989, -0.050890158861875534, 0.49923592805862427, 0.10443805903196335, -0.07809391617774963, 0.07239388674497604, -0.4476722776889801, 0.1687886267900467, 0.30187928676605225, -0.28539055585861206, 0.5769087076187134], [1.2396968603134155, 0.044543974101543427, -0.13767170906066895, 0.04669256508350372, -0.042102400213479996, 0.6503922939300537, -0.08962277323007584, 0.2481117993593216, -0.20071490108966827, -0.22291253507137299, 0.5244558453559875, 0.9397134184837341, 0.14608490467071533, -0.2637999355792999, -1.656883955001831, 1.4970959424972534, -0.05389436334371567, -0.46241357922554016, -0.1329222023487091, 0.11444556713104248, 0.2886154353618622, 0.4691784381866455, -0.006934358272701502, -0.24187156558036804, -0.09993192553520203, -0.034254178404808044, -0.2829139232635498, 0.28382331132888794, 0.05124864727258682, -0.01786339469254017, -3.300961494445801, -0.7388722896575928], [0.18564920127391815, -0.036630574613809586, 0.2867012023925781, -0.023543966934084892, -0.002558009931817651, 0.15572288632392883, 0.24068176746368408, -0.01109385583549738, 0.0951971635222435, -0.025704465806484222, 0.11753621697425842, 0.14726535975933075, 0.1877102553844452, 0.09686044603586197, -0.10238771140575409, 0.15295517444610596, 0.21608670055866241, -0.03244134038686752, -0.06017336994409561, -0.04986746236681938, 0.1986447125673294, 0.12541155517101288, 0.06482771784067154, 0.0012989790411666036, 0.3332274258136749, 0.32659828662872314, -0.10238437354564667, 0.3835747539997101, 0.020512662827968597, -0.07516907155513763, -0.04623696208000183, 0.05625196546316147], [-0.2083432972431183, 0.016945110633969307, 0.08559934049844742, -0.4609264135360718, 0.01576060801744461, 0.007467607501894236, 0.1159302368760109, -0.08626659959554672, 0.3469462990760803, -0.13252632319927216, -0.10529544204473495, 0.07138506323099136, 0.02605183608829975, -0.1385408490896225, -0.10803421586751938, 0.667315661907196, 0.14521735906600952, 0.039801012724637985, 0.0925728902220726, -0.10982921719551086, 0.26494845747947693, 0.2995997369289398, 0.1211213693022728, 0.1909022033214569, 0.21530018746852875, 0.015010062605142593, -0.26366814970970154, -0.05644630268216133, -0.4382491707801819, 0.0068724146112799644, -0.037462446838617325, 0.14482255280017853], [-0.020054172724485397, -0.6212607622146606, -0.009558860212564468, -0.03415928781032562, 0.0017804262461140752, 0.026834214106202126, -0.220675989985466, -0.05165189877152443, -0.006259200628846884, -0.02625403366982937, 0.035679373890161514, -0.03943321481347084, -0.034815967082977295, 0.0016862103948369622, -0.017974236980080605, 0.07038035243749619, -0.013776090927422047, -0.2302379161119461, 0.2630171477794647, 0.09101230651140213, 0.10125148296356201, -0.41635391116142273, 0.9058570861816406, 0.07309284806251526, 0.1215638741850853, 0.1033451184630394, -0.06724594533443451, 0.06254831701517105, -0.045045893639326096, -0.01562541536986828, -0.0018355875508859754, 0.04885760694742203], [-0.10137579590082169, 0.054608386009931564, -0.21270553767681122, -0.025313828140497208, -0.10456863790750504, 0.08459290862083435, 0.13157226145267487, -0.1333974450826645, 0.0008080854895524681, 0.10429617762565613, 0.022934826090931892, 0.0693618506193161, -0.038077596575021744, -0.1401909589767456, 0.05584040656685829, -0.018225237727165222, -0.08555331081151962, -0.030416036024689674, 0.08036066591739655, 0.14918719232082367, 0.016584167256951332, -0.19080550968647003, -0.034316547214984894, 0.1606345772743225, -0.10052405297756195, 0.20536747574806213, -0.16786688566207886, 0.09205829352140427, 0.0767853632569313, 0.12645189464092255, 0.08083032816648483, 0.04626575484871864], [-0.3469493091106415, 0.21079568564891815, 0.005296381656080484, 0.28986242413520813, -0.30943745374679565, -0.13521577417850494, -0.26486170291900635, -0.02296946942806244, -0.04264845699071884, -0.0988520160317421, 0.01921379193663597, -0.1240309402346611, -0.21553252637386322, -0.053383637219667435, 0.3014689087867737, 0.09820964932441711, -0.005971427541226149, 0.11649217456579208, -0.0704449713230133, -0.023961979895830154, 0.2152642160654068, 0.3110332190990448, 0.14046764373779297, -0.18205291032791138, -0.056428469717502594, 0.024568401277065277, 0.03058485873043537, -0.3323225677013397, 0.16324932873249054, -0.000591853226069361, 0.0854656994342804, -0.041381895542144775], [0.062118299305438995, 0.09400501102209091, 0.00028740279958583415, 0.24069896340370178, -0.1215762123465538, 0.25238755345344543, 0.38171979784965515, 0.19309155642986298, -0.03858508914709091, -0.12294319272041321, -0.03986020013689995, 0.014881646260619164, 0.13641257584095, 0.034877270460128784, 0.023142820224165916, -0.11561230570077896, -0.14318326115608215, -0.4389101266860962, 0.39297276735305786, -0.09230129420757294, -0.3508642017841339, 0.3280704617500305, 0.32984018325805664, 0.09701167792081833, -0.10582141578197479, 0.18441498279571533, 0.025758415460586548, -0.028563741594552994, -0.07705005258321762, 0.09478745609521866, 0.023256435990333557, -0.047106169164180756], [0.05880259349942207, -0.3531496822834015, -0.04184878244996071, 0.1586792767047882, -0.03148149698972702, 0.07340625673532486, 0.14004583656787872, 0.03433581441640854, 0.08565244823694229, 0.2879089117050171, 0.013281690888106823, -0.05070197209715843, 0.1357448548078537, 0.01388474926352501, 0.008816754445433617, 0.03714675456285477, -0.02388804778456688, -0.1482490599155426, -1.063788890838623, -0.1784193366765976, -0.2418924868106842, -0.2355445921421051, 0.20763394236564636, 0.022119957953691483, -0.059094566851854324, -0.09348437935113907, -0.056387580931186676, -0.036556266248226166, -0.15544021129608154, 0.04465891793370247, -0.006830746307969093, -0.05112466216087341], [0.001714431680738926, -0.009961140342056751, -0.029020436108112335, 0.09783383458852768, -0.029040221124887466, -0.15571005642414093, -0.010185209102928638, -0.09288876503705978, 0.052200838923454285, -0.012838670052587986, -0.04208619147539139, 0.07339271157979965, -0.07023055851459503, -0.04055875539779663, 0.09626850485801697, -0.04065762087702751, -0.007352531887590885, 0.023499909788370132, -0.013477866537868977, 0.14889849722385406, 0.03694331645965576, -0.011877566576004028, 0.0034466562792658806, 0.13774316012859344, -0.040189389139413834, 0.16626884043216705, -0.12422096729278564, 0.03261405602097511, -0.0017465437995269895, -0.0024809103924781084, 0.08884159475564957, 0.06893869489431381], [0.0774584636092186, 0.14288420975208282, 0.10563147813081741, 0.12019991874694824, 0.035128381103277206, -0.172239288687706, 0.19511058926582336, 0.03952910751104355, 0.00598534382879734, -0.10314031690359116, -0.10370094329118729, -0.005378006491810083, 0.0734638199210167, -0.015964355319738388, -0.023225881159305573, -0.009801547043025494, 0.025454439222812653, -0.12321174889802933, -0.07231282442808151, -0.19423021376132965, 0.03837563097476959, -0.09393434226512909, 0.02569202333688736, -0.16233642399311066, 0.22016391158103943, -0.025054533034563065, 0.18572939932346344, -0.09210626035928726, 0.07622247189283371, -0.11327912658452988, 0.006855757907032967, -0.001312992419116199], [-0.06298103928565979, -0.05381188169121742, -0.06557847559452057, -0.028672097250819206, 0.09852924197912216, -0.20172683894634247, 0.09918129444122314, -0.08098246157169342, -0.06251610815525055, -0.004316567908972502, 0.16271254420280457, -0.20673295855522156, 0.29416537284851074, -0.25101062655448914, -0.28026002645492554, 0.1414836198091507, 0.08933751285076141, -0.046435389667749405, 0.04859992861747742, 0.19446155428886414, 0.05868539586663246, 0.09063505381345749, 0.11567706614732742, 0.11893739551305771, 0.04729119688272476, 0.10602863132953644, 0.12138579040765762, 0.22054904699325562, -0.005137751344591379, -0.04269978031516075, -0.768475353717804, 0.11509106308221817], [0.004190380219370127, 0.010426605120301247, 0.037867773324251175, -0.08450468629598618, -0.029113581404089928, 0.1425447165966034, -0.033597446978092194, 0.10169952362775803, 0.015473307110369205, 0.03340946510434151, -0.03097202070057392, -0.14633727073669434, 0.025824544951319695, -0.10375583916902542, -0.02169666811823845, -0.03581366688013077, -0.0547746904194355, -0.07879537343978882, 0.023623181506991386, -0.10291700065135956, -0.006865550763905048, 0.0035620126873254776, 0.010934225283563137, -0.13579271733760834, 0.01838376186788082, -0.1342294067144394, 0.10744669288396835, 0.04377920925617218, -0.012184643186628819, 0.009045034646987915, -0.035725291818380356, -0.1079818531870842], [-0.42000260949134827, -0.005417091306298971, 0.04814004898071289, 0.027871526777744293, -0.012130370363593102, 0.05379529297351837, 0.2783662676811218, -0.025582609698176384, 0.04433464631438255, 0.07498397678136826, -0.12091752141714096, 0.10743387788534164, 0.1061934232711792, 0.1296648532152176, 0.36304932832717896, 0.007178994826972485, 0.19234955310821533, -0.15878096222877502, 0.059410542249679565, 0.016990775242447853, 0.25444495677948, -0.17234499752521515, -0.06081207096576691, 0.15603117644786835, 0.02058536186814308, 0.30733445286750793, -0.06961853802204132, 0.0999569371342659, -0.21993334591388702, -0.17075704038143158, -0.0339987576007843, -0.2703969180583954], [0.22907456755638123, 0.39642593264579773, -0.03125947713851929, 0.22213171422481537, 0.09005586057901382, 0.07016978412866592, 0.5740538835525513, 0.1199706494808197, 0.2074003517627716, -0.11156781017780304, -0.0635899156332016, -0.07213946431875229, 0.3569352626800537, 0.020720623433589935, 0.08327417820692062, -0.294645756483078, -0.010737652890384197, 1.0197563171386719, 0.10936340689659119, 0.06506992131471634, -0.04918138310313225, 0.00010579156514722854, 0.3179638683795929, -0.19977757334709167, -0.2554767429828644, 0.17876087129116058, -0.0008360191714018583, -0.145011305809021, -0.02654656581580639, 0.042998045682907104, 0.030627671629190445, -0.35027816891670227], [-0.05682752653956413, 0.07541976124048233, -0.09288045018911362, -0.2373940348625183, -0.0012565674260258675, -0.22421908378601074, -0.011959259398281574, 0.04395652934908867, 0.0213075689971447, 0.08027222752571106, 0.4996553361415863, -0.24496787786483765, 0.030542587861418724, -0.1820671558380127, 0.48238489031791687, -0.06656989455223083, 0.15365739166736603, 0.0352335162460804, 0.07335413992404938, 0.03243088349699974, -0.05603989213705063, 0.006479255855083466, 0.023846298456192017, -0.03224815055727959, -0.1764838844537735, -0.26221349835395813, 0.026265360414981842, -0.3471011817455292, -0.18316014111042023, 0.16089853644371033, 0.25239983201026917, 0.14734813570976257], [-2.451104164123535, 0.011298567987978458, 0.20220452547073364, -0.15502308309078217, -0.09366598725318909, -0.869479775428772, -0.21680642664432526, -0.058541446924209595, 0.10944133996963501, 0.016045060008764267, -0.14538034796714783, -0.5199949741363525, 0.05831627920269966, -0.2503468096256256, 2.028005838394165, -0.12757430970668793, -0.046270791441202164, 0.24580849707126617, -0.0327446348965168, 0.07525037229061127, -0.21051375567913055, 0.20309843122959137, -0.024164780974388123, 0.17804890871047974, -0.10119353979825974, -0.026155278086662292, 0.21173405647277832, -0.23549075424671173, -0.3810255229473114, 0.2706611156463623, 0.5246949791908264, 0.5811744928359985], [0.4182380139827728, 0.0071763815358281136, 0.1302499622106552, 0.10528678447008133, 0.1374978870153427, 0.046860240399837494, -0.1428762972354889, -0.37572386860847473, 0.05105425417423248, 0.06475411355495453, -0.037638191133737564, 0.17478437721729279, 0.08062631636857986, 0.14656752347946167, -0.35975152254104614, 0.010716277174651623, 0.14946764707565308, 0.07796720415353775, -0.025621484965085983, 0.03553276136517525, -0.17832757532596588, 0.04526278004050255, 0.067339226603508, 0.39916396141052246, 0.002963877748697996, 0.2645401954650879, 0.04933427274227142, -0.12800882756710052, 0.0698096975684166, -0.03334825113415718, -0.20371493697166443, 0.06824153661727905], [-0.2412930130958557, -0.014072095043957233, 0.2866598069667816, 0.1860809028148651, -0.05028913542628288, 0.411026269197464, -0.02414124459028244, 0.3254909813404083, -0.014027141034603119, 0.05852818861603737, -0.4407264292240143, -0.05757003277540207, 0.09793462604284286, -0.16660921275615692, 0.01201322115957737, -0.1378440260887146, 0.1526770293712616, -0.03827362507581711, 0.06684934347867966, -0.3849528431892395, 0.05847487971186638, -0.020626794546842575, 0.003594890935346484, -0.3327692747116089, 0.367186963558197, -0.148763507604599, 0.36309802532196045, 0.09342680871486664, -0.005350503604859114, -0.1732185035943985, 0.011720343492925167, -0.22120130062103271], [-0.041030071675777435, -0.10718637704849243, 0.1717156320810318, -0.07628291845321655, 0.032184477895498276, 0.12294811010360718, 0.010416449047625065, 0.12563754618167877, -0.021896736696362495, 0.0184963159263134, -0.054393667727708817, -0.1358203887939453, -0.00464152405038476, 0.011165647767484188, 0.046745676547288895, 0.04083406925201416, -0.018425557762384415, 0.0455322191119194, 0.050313834100961685, -0.22485528886318207, 0.03641558438539505, 0.02358585223555565, 0.028728123754262924, -0.16518352925777435, 0.1783212572336197, -0.19406630098819733, 0.21876752376556396, -0.05459340289235115, 0.03683137521147728, 0.015089396387338638, 0.014086314477026463, -0.05175717920064926], [-0.10257697850465775, 0.015543550252914429, 0.38455623388290405, 0.22302624583244324, -0.028160089626908302, -0.3978239595890045, 0.020557943731546402, -0.04568507894873619, 0.036032356321811676, 0.03292036056518555, -0.4733287990093231, -0.07521887868642807, 0.07868587225675583, -0.05034007504582405, 0.12992815673351288, -0.2678372859954834, 0.13729147613048553, 0.03135944530367851, 0.010819020681083202, -0.2973862290382385, -0.07378429174423218, -0.008461656048893929, 0.021325839683413506, 0.017555508762598038, 0.06793204694986343, 0.1123577207326889, 0.45525801181793213, 0.0838572159409523, 0.03345699608325958, -0.03195619955658913, -0.18026407063007355, 0.2337985783815384], [0.004902530927211046, 0.04428364336490631, 0.15461647510528564, -0.17324131727218628, 0.03473757579922676, 0.19945889711380005, -0.08418835699558258, 0.17312876880168915, -0.03975497558712959, 0.01411491446197033, 0.04433480650186539, -0.11854377388954163, 0.04449110105633736, 0.043400656431913376, -0.1017770916223526, 0.09716716408729553, -0.0883488729596138, 0.035296689718961716, 0.043045397847890854, -0.20018348097801208, -0.06685328483581543, 0.03616861253976822, 0.05386434495449066, -0.17931775748729706, 0.11939170956611633, -0.14643767476081848, 0.21769416332244873, -0.025460153818130493, -0.0034158567432314157, 0.026254648342728615, -0.2602597177028656, -0.1797817498445511], [0.006643288768827915, 0.0009157336899079382, -0.025088440626859665, 0.026631373912096024, -0.015162941068410873, -0.1129191592335701, 0.11436308175325394, -0.1753098964691162, -0.02630428783595562, -0.07422729581594467, -0.18956929445266724, 0.023535331711173058, 0.01710760034620762, 0.0052965362556278706, 0.05562587082386017, 0.05193711817264557, -0.02156241610646248, 0.010965454392135143, 0.05507984757423401, 0.17650918662548065, -0.04462174326181412, 0.013924488797783852, -0.009730559773743153, 0.11967907100915909, -0.06969857215881348, 0.2326505333185196, -0.17184117436408997, -0.06748149544000626, 0.0649142935872078, -0.08769003301858902, -0.19786949455738068, 0.045076120644807816], [-0.05668637529015541, -0.13415634632110596, 0.16802343726158142, -0.15446500480175018, -0.03729863837361336, 0.4202142357826233, 0.03583238273859024, 0.047641873359680176, -0.06402356922626495, 0.024883359670639038, -0.03863384947180748, 0.06861121207475662, 0.035734761506319046, 0.17570555210113525, -0.23038358986377716, -0.04751962423324585, -0.2579861283302307, -0.038151927292346954, 0.01974494382739067, -0.21603189408779144, 0.09253320097923279, 0.014735214412212372, 0.039786260575056076, -0.10900268703699112, 0.3476490080356598, -0.24865221977233887, 0.24900035560131073, -0.13276910781860352, -0.019221331924200058, -0.10688060522079468, -0.1949717402458191, -0.17153269052505493], [-0.015578064136207104, -0.008824449963867664, 0.04289977625012398, 0.0252374317497015, -0.12410532683134079, 0.05015265569090843, -0.1749056577682495, 0.16415469348430634, 0.11385881900787354, 0.04371783509850502, 0.017062705010175705, -0.0006956940051168203, 0.040784213691949844, -0.04462556540966034, -0.14729852974414825, -0.12518958747386932, -0.02302260883152485, 0.038154810667037964, 0.03466426581144333, -0.21577204763889313, 0.01156159769743681, 0.001816127565689385, 0.041466642171144485, -0.1561025083065033, 0.178116112947464, -0.16427727043628693, 0.1949860155582428, -0.07677175104618073, 0.12031181156635284, -0.012546048499643803, 0.03521321713924408, -0.11508043855428696], [-0.1424901783466339, 0.03536129742860794, 0.21545134484767914, 0.04304390400648117, -0.13507787883281708, 0.12084431946277618, -0.04762706905603409, 0.4099152386188507, 0.0034569266717880964, -0.007003404665738344, -0.24250687658786774, -0.06880518049001694, -0.010370910167694092, 0.17845205962657928, 0.2011222541332245, 0.017580578103661537, -0.019591374322772026, -0.09201803803443909, 0.006833852734416723, -0.18911437690258026, 0.0647626519203186, 0.06152036786079407, 0.03787099942564964, -0.3468940258026123, 0.207845076918602, -0.3840430974960327, 0.18792708218097687, 0.08220532536506653, -0.05495641753077507, -0.19405902922153473, 0.043308552354574203, -0.34034329652786255], [-0.17595456540584564, -0.059246424585580826, -0.019868571311235428, 0.2131446897983551, -0.08429590612649918, -0.015785373747348785, -0.003247508080676198, -0.0635581910610199, -0.07486367225646973, -0.04513528198003769, -0.2511078417301178, 0.06629971414804459, 0.13162699341773987, -0.14566542208194733, 0.02011570893228054, 0.00873191375285387, 0.13128483295440674, 0.044664740562438965, 0.021002694964408875, 0.17543856799602509, 0.05233459919691086, 0.08139713853597641, 0.012282551266252995, 0.10863559693098068, -0.12225087732076645, 0.11648941785097122, -0.1987786591053009, 0.1493176966905594, 0.041416943073272705, -0.17407932877540588, 0.2654212415218353, -0.0711766704916954], [-0.05478327348828316, 0.02526402845978737, 0.12684044241905212, -0.02949637547135353, -0.0363587848842144, 0.09070269018411636, -0.022302905097603798, 0.09422343224287033, -0.021919945254921913, 0.021507451310753822, -0.0270671509206295, -0.05790725350379944, 0.020076381042599678, 0.01194899994879961, 0.002584545873105526, -0.02768886648118496, -0.04116861894726753, 0.009686285629868507, -0.004426808096468449, -0.18348203599452972, 0.004240668378770351, -0.03388971462845802, -0.013897499069571495, -0.11292923241853714, 0.12134436517953873, -0.18780195713043213, 0.18881341814994812, -0.008760669268667698, 0.015091857872903347, 0.02669438160955906, 0.18660683929920197, -0.047112707048654556], [0.1920613944530487, -0.07202748954296112, 0.2537408769130707, 0.12813465297222137, 0.09372428059577942, 0.2321513146162033, 0.07633531093597412, -0.0382508859038353, -0.19535112380981445, 0.040952928364276886, -0.11125864088535309, 0.18526321649551392, 0.13849999010562897, 0.11505149304866791, -0.2983649671077728, 0.29263824224472046, 0.04199296981096268, 0.010040799155831337, 0.07259859889745712, -0.17728345096111298, 0.005145689006894827, 0.08122247457504272, 0.06013588607311249, -0.15310676395893097, 0.16877320408821106, 0.06643295288085938, 0.17979523539543152, 0.08062922954559326, -0.08956685662269592, -0.12117458134889603, -0.6313576698303223, -0.1689014434814453], [0.012226952239871025, -0.01540963351726532, 0.34490376710891724, 0.23117554187774658, -0.01148002129048109, -0.017960820347070694, -0.05447578802704811, 0.12807318568229675, 0.07624839246273041, 0.07433665543794632, -0.3576189875602722, -0.14568966627120972, 0.05512556433677673, -0.11419476568698883, 0.08650072664022446, 0.19134771823883057, 0.23813872039318085, 0.04031907394528389, 0.07255096733570099, -0.2661261260509491, -0.14807577431201935, -0.08443973958492279, -0.04520513117313385, -0.1840737760066986, 0.24079792201519012, -0.2206629067659378, 0.264912873506546, -0.08208798617124557, -0.008722659200429916, 0.07967143505811691, -0.34646835923194885, 0.09191668033599854], [0.023681899532675743, -0.030523616820573807, 0.046283967792987823, 0.05031092092394829, 0.08174613863229752, -0.0634533166885376, 0.06740546971559525, 0.014824047684669495, 0.0070804026909172535, 0.009329707361757755, -0.061108145862817764, 0.011846720241010189, 0.02808235213160515, 0.021265514194965363, -0.025394288823008537, 0.04301296919584274, 0.029615648090839386, 0.08769447356462479, 0.038504280149936676, -0.021823545917868614, -0.0023723363410681486, -0.03911436349153519, 0.002489739330485463, -0.012961258180439472, 0.04862792417407036, 0.005852822680026293, 0.012207998894155025, -0.058766331523656845, 0.0023422890808433294, -0.07062214612960815, -0.14720594882965088, 0.015675101429224014], [0.036855969578027725, 0.00327670038677752, 0.13332687318325043, -0.07000323385000229, 0.0627654492855072, 0.21099381148815155, -0.055338963866233826, -0.09172568470239639, -0.06595852971076965, 0.007936435751616955, -0.04946727305650711, -0.001272016204893589, -0.00717527512460947, 0.22713886201381683, -0.14014357328414917, 0.04568536579608917, -0.1089790090918541, 0.03391930088400841, 0.01891927234828472, -0.15516439080238342, 0.03815805912017822, -0.04995021969079971, 0.06647467613220215, -0.1318076103925705, 0.13540619611740112, -0.12376087158918381, 0.14501066505908966, -0.0858301967382431, -0.024432411417365074, -0.015928609296679497, -0.45044827461242676, -0.10333796590566635], [-0.13165409862995148, -0.03485798463225365, 0.25251784920692444, -0.0981171727180481, -0.00828394666314125, 0.31318122148513794, -0.039708830416202545, 0.23766306042671204, -0.008165937848389149, 0.04063047841191292, -0.1324359029531479, -0.18515442311763763, 0.03996825963258743, -0.08389056473970413, 0.02891356311738491, 0.0018477091798558831, -0.0795929953455925, -0.004382172599434853, 0.10734662413597107, -0.35908469557762146, 0.05858657881617546, 0.014621981419622898, 0.03347400948405266, -0.3100258708000183, 0.24681437015533447, -0.3184746205806732, 0.3595547676086426, -0.04038599878549576, -0.0006098372978158295, -0.061749160289764404, -0.038723528385162354, -0.21284078061580658], [0.049331843852996826, -0.15050943195819855, -0.21131695806980133, 0.027905719354748726, -0.19168689846992493, -0.004288745578378439, 0.035110052675008774, -0.07203720510005951, 0.011650697328150272, 0.3969673812389374, -0.2408936619758606, -0.052936162799596786, 0.16720908880233765, 0.038117166608572006, -0.12347377091646194, -0.03621445968747139, 0.1923951953649521, -0.14987416565418243, 0.09394221007823944, 0.056937575340270996, 0.36652901768684387, -0.04538017138838768, -0.019214684143662453, -0.07636085152626038, 0.023707939311861992, -0.055886901915073395, -0.17045864462852478, 0.11747010052204132, 0.06327971816062927, -0.09228864312171936, 0.029968412593007088, -0.02011042647063732], [-0.266641229391098, 0.03694645315408707, -0.17969058454036713, -0.2337324321269989, -0.08637800812721252, 0.3202023208141327, -0.07534722983837128, -0.01330767385661602, 0.04774881526827812, 0.03012414462864399, 0.09101751446723938, -0.13581107556819916, 0.0353466235101223, 0.16156865656375885, 0.018049590289592743, 0.0809800997376442, -0.404488205909729, -0.060730643570423126, 0.0030296894256025553, -0.017190249636769295, 0.07908985763788223, 0.04075290635228157, 0.05305514484643936, -0.1181148886680603, -0.043473199009895325, -0.03828758746385574, 0.08623255044221878, 0.0422455258667469, -0.08010357618331909, -0.0934801697731018, -0.15867531299591064, -0.22744619846343994], [-0.1365051418542862, 0.004621896427124739, -0.15979993343353271, 0.059705834835767746, -0.0003328000893816352, -0.03355279192328453, -0.00465755769982934, 0.001297219656407833, -0.03110704943537712, -0.03272254019975662, -0.1416783630847931, 0.11775634437799454, 0.012035222724080086, 0.09565560519695282, -0.0364135205745697, 0.07820423692464828, -0.048723701387643814, 0.1096850112080574, 0.030008163303136826, 0.06490979343652725, -0.002727526007220149, 0.05008470639586449, -0.027362221851944923, 0.05964166298508644, 0.05513417348265648, 0.1110629215836525, -0.020092252641916275, -0.07131938636302948, -0.043528955429792404, -0.20891627669334412, 0.10704350471496582, -0.022644151002168655], [0.0027157028671354055, -0.0866764634847641, 0.20607316493988037, -0.048546019941568375, -0.03678974136710167, 0.0985792726278305, 0.07403656840324402, 0.14509955048561096, 0.03685316815972328, 0.0665242150425911, -0.010929719544947147, -0.1250586360692978, 0.004517396446317434, 0.007731424644589424, -0.03950604051351547, -0.015927841886878014, 0.014979476109147072, -0.015025828965008259, 0.07404285669326782, -0.18283237516880035, -0.006206264719367027, -0.011034988798201084, -0.01673954166471958, -0.16686491668224335, 0.14287221431732178, -0.1845426708459854, 0.17954067885875702, -0.015272240154445171, 0.007402928080409765, 0.05694686248898506, 0.06977947801351547, -0.08880440145730972], [-0.037024788558483124, -0.030994702130556107, 0.3801589906215668, 0.019097384065389633, 0.027393808588385582, 0.10131577402353287, -0.0008084279834292829, 0.2305920124053955, -0.004393730778247118, 0.03951328247785568, -0.14482936263084412, -0.14107467234134674, 0.04443252831697464, 0.02740221470594406, 0.0006595661398023367, -0.0049420916475355625, 0.016106262803077698, -0.011995991691946983, 0.013008629903197289, -0.5199828743934631, -0.026050494983792305, -0.008347917348146439, 0.0038204302545636892, -0.3433666229248047, 0.2992933690547943, -0.2444879561662674, 0.4834684133529663, -0.02649836614727974, -0.015155183151364326, -0.03131766617298126, 0.011462136171758175, -0.11672260612249374], [0.06670129299163818, -0.043625231832265854, 0.185392826795578, 0.04998856410384178, 0.061593957245349884, 0.06845128536224365, -0.028001826256513596, 0.08922223746776581, 0.014126251451671124, 0.014001458883285522, -0.12862147390842438, -0.08452828973531723, 0.03616746887564659, 0.027815816923975945, 0.12255385518074036, -0.12622767686843872, 0.09669601917266846, -0.02966455928981304, 0.04737469553947449, -0.15650023519992828, 0.016066720709204674, -0.07777547836303711, 0.05303148925304413, -0.13524194061756134, 0.10793661326169968, -0.12649838626384735, 0.12269378453493118, -0.12047075480222702, 0.07184173911809921, -0.06501660495996475, -0.10518407821655273, 0.005495473742485046], [-0.03391962870955467, -0.09501712024211884, 0.06739791482686996, -0.09897607564926147, -0.04572270065546036, 0.08079969137907028, 0.07454627007246017, 0.09037793427705765, 0.010794461704790592, -0.0014630646910518408, 0.06596074998378754, -0.08781817555427551, -0.0060368552803993225, -0.07543458044528961, 0.039601899683475494, -0.05675842985510826, -0.058924198150634766, 0.034009575843811035, 0.01855960302054882, -0.06386999785900116, 0.004435835871845484, 0.07539375871419907, -0.006911648903042078, -0.06866317987442017, 0.02587740123271942, -0.11031346023082733, 0.09206816554069519, -0.0272632148116827, 0.07908009737730026, -0.044389765709638596, 0.04467156156897545, -0.07641652971506119], [-0.02324366569519043, -0.011540154926478863, 0.19279298186302185, -0.041397761553525925, -0.014826599508523941, 0.08139722049236298, -0.022026440128684044, 0.11665372550487518, 0.007929104380309582, 0.04144731163978577, -0.008798356167972088, -0.08432269841432571, 0.013956842012703419, -0.0031138439662754536, 0.0005870226304978132, -0.021483367308974266, -0.021306931972503662, 0.0007982366369105875, 0.0691022276878357, -0.11729054152965546, 0.008579190820455551, 0.008333646692335606, 0.06358053535223007, -0.14131154119968414, 0.13256485760211945, -0.1649666726589203, 0.17618471384048462, -0.03162354603409767, -0.010445395484566689, -0.008325633592903614, -0.021527905017137527, -0.08391057699918747], [-0.2246226966381073, 0.007144894916564226, 0.08248958736658096, -0.052450355142354965, -0.0857197567820549, 0.2001977413892746, -0.07639438658952713, 0.2824676036834717, -0.04392797872424126, -0.033848948776721954, -0.08778543025255203, -0.08558721840381622, -0.05343947187066078, 0.11848939210176468, 0.37268906831741333, 0.0651390329003334, -0.1481391042470932, -0.0038403826765716076, -0.02742682211101055, -0.09776651859283447, 0.08935637772083282, 0.06700529903173447, -0.01542850211262703, -0.38909462094306946, 0.01731514371931553, -0.2462799847126007, 0.2343529760837555, -0.0898556038737297, -0.09451711177825928, -0.1379275768995285, -0.23162341117858887, -0.330600380897522], [0.06061260774731636, -0.06471981108188629, 0.22757504880428314, 0.020958131179213524, 0.059756264090538025, 0.1861933022737503, -0.13131536543369293, 0.08649095147848129, -0.026048744097352028, 0.030068889260292053, -0.06594298034906387, 0.02043701335787773, 0.06175542250275612, 0.031855836510658264, -0.09804385900497437, 0.0455501489341259, -0.022232118993997574, 0.04243243485689163, -0.032038938254117966, -0.2451883852481842, 0.08341305702924728, 0.02567070908844471, 0.06241246312856674, -0.21914927661418915, 0.3275465667247772, -0.09273020923137665, 0.3842444121837616, 0.020292306318879128, -0.03260975703597069, -0.017254507169127464, -0.28334641456604004, -0.08553848415613174], [-0.13701774179935455, -0.13176830112934113, 0.3103344738483429, -0.09067027270793915, -0.02756180614233017, 0.04186994582414627, -0.09562809020280838, 0.19755785167217255, -0.05285490304231644, 0.06676119565963745, -0.17114584147930145, -0.268561452627182, -0.032509177923202515, 0.052067648619413376, 0.07576605677604675, -0.003014035290107131, -0.017505746334791183, 0.033254336565732956, -0.009197362698614597, -0.26188924908638, -0.010429079644382, 0.06514910608530045, 0.018564488738775253, -0.15085884928703308, 0.16169777512550354, -0.7707874178886414, 0.2502898573875427, -0.22191451489925385, -0.033491674810647964, 0.04122723639011383, -0.006086872424930334, -0.0037421141751110554], [-0.0839579626917839, 0.0038201494608074427, 0.3520033061504364, 0.01713549718260765, 0.012806183658540249, -0.009188905358314514, -0.049555957317352295, 0.16925708949565887, 0.048975370824337006, 0.04677790775895119, -0.2912215292453766, -0.18722401559352875, 0.04187910631299019, 0.013535885140299797, 0.027522128075361252, -0.03878454118967056, -0.057412419468164444, -0.023380814120173454, 0.015420972369611263, -0.45028239488601685, -0.015862246975302696, 0.010692424140870571, 0.033341504633426666, -0.23214825987815857, 0.32433778047561646, -0.12099047750234604, 0.5122166872024536, -0.0005613642279058695, -0.010562925599515438, 0.00598965073004365, -0.11581865698099136, -0.07017746567726135], [0.0491878017783165, -0.019104784354567528, 0.3335737884044647, -0.022543443366885185, 0.04092022031545639, 0.11497065424919128, 0.0048260982148349285, 0.19896014034748077, -0.015566426329314709, 0.03711448609828949, -0.043013643473386765, -0.09727824479341507, 0.03469953313469887, 0.008180863223969936, 0.03634481504559517, 0.10887975990772247, 0.027506811544299126, 0.057310499250888824, 0.05521222949028015, -0.3434235751628876, -0.04592515528202057, 0.012289837002754211, 0.03337828442454338, -0.25516441464424133, 0.31049638986587524, -0.24394634366035461, 0.327924519777298, -0.12635011970996857, 0.04830781742930412, 0.01851518638432026, -0.18777690827846527, -0.09614050388336182], [-0.06470937281847, -0.012180541642010212, 0.08950112015008926, -0.09589048475027084, -0.002599698957055807, 0.14798998832702637, -0.016622526571154594, 0.06689120829105377, -0.06348050385713577, 0.020539551973342896, -0.014675512909889221, -0.11825840920209885, -0.011744219809770584, -0.04822161793708801, 0.04085829108953476, 0.012854927219450474, -0.10293503105640411, 0.008147790096700191, 0.0429675467312336, -0.16837291419506073, 0.03269253671169281, 0.027432361617684364, 0.039940569549798965, -0.151072695851326, 0.07930579036474228, -0.1547657996416092, 0.16900023818016052, -0.025241076946258545, 0.015027808956801891, 0.014735525473952293, -0.07761317491531372, -0.13429518043994904], [0.24207746982574463, -0.015487308613955975, -0.08258336037397385, -0.06808304786682129, -0.0014488335000351071, -0.012104794383049011, -0.05215619504451752, -0.04869662970304489, 0.06774064898490906, 0.03836057335138321, 0.015263684093952179, -0.1296771913766861, -0.006952785886824131, 0.06416863948106766, 0.017388975247740746, 0.07766237109899521, -0.03698283061385155, 0.056393686681985855, 0.05792700871825218, 0.1086377426981926, -0.05855691805481911, -0.07267794758081436, 0.03930593654513359, 0.04823508486151695, -0.16163921356201172, -0.06473450362682343, -0.10493499785661697, -0.12432702630758286, 0.008248941972851753, 0.09318798780441284, 0.17787247896194458, 0.05723172798752785], [-0.2775479555130005, -0.020670035853981972, 0.36102616786956787, 0.43306905031204224, -0.20675282180309296, 0.20346136391162872, -0.1367717832326889, 0.3594050109386444, 0.036030881106853485, 0.007908137515187263, -0.7035602927207947, 0.2771557569503784, 0.2159147411584854, -0.3642246127128601, -0.07694029808044434, -0.2719075083732605, 0.17631132900714874, -0.14068691432476044, 0.0024041812866926193, -0.2071884721517563, 0.15508626401424408, 0.20655332505702972, 0.09689473360776901, -0.11308998614549637, 0.4397527575492859, 0.13861677050590515, 0.29216423630714417, 0.46978938579559326, -0.0574926882982254, -0.41080811619758606, 0.41320207715034485, -0.37834733724594116], [-0.3200967311859131, -0.00756034767255187, -0.18108461797237396, 0.08592190593481064, -0.17386291921138763, 0.6041113138198853, -0.13561320304870605, -0.016609949991106987, -0.14845265448093414, 0.01658913493156433, -0.056959204375743866, 0.15332938730716705, -0.0056163654662668705, 0.1036808043718338, -0.12884023785591125, 0.038032278418540955, -0.22487176954746246, -0.002549044555053115, 0.04650593549013138, 0.08066852390766144, 0.15104304254055023, 0.040207911282777786, -0.024624833837151527, -0.2381635308265686, -0.07579580694437027, -0.15652617812156677, -0.06370596587657928, -0.08528394252061844, -0.04552922025322914, -0.28827983140945435, -0.2662985920906067, -0.5714550614356995]], "rec.bias_ih_l0": [0.40816164016723633, -0.7027648091316223, 0.21277764439582825, -0.1903848946094513, 0.10995285958051682, -0.8988379240036011, 0.13302667438983917, -0.5419639348983765, 0.28928014636039734, -0.76765376329422, 0.15201810002326965, 0.16936203837394714, 0.03619183599948883, 0.15105196833610535, 0.3911619782447815, 0.24005788564682007, -0.19976688921451569, 0.07274317741394043, -0.37933066487312317, 0.048882801085710526, -0.4535967707633972, -0.6147878766059875, -0.40722382068634033, 0.0511782132089138, -0.025912396609783173, -0.5532310605049133, 0.06650378555059433, -0.42923784255981445, 0.1793414205312729, 0.05009950324892998, 0.38461852073669434, -0.6425033807754517, 0.094424307346344, 0.8617647290229797, 0.2371368557214737, 0.36262816190719604, 0.06800775974988937, 0.8740559816360474, 0.21786467730998993, 0.5639950633049011, 0.06967286020517349, 0.9363094568252563, 0.1327870935201645, 0.21838757395744324, 0.012156117707490921, 0.07333863526582718, -0.004067042842507362, 0.09871979057788849, 0.36726635694503784, 0.22115442156791687, 0.6609516143798828, 0.2740034759044647, 0.6007162928581238, 0.6383860111236572, 0.5908594727516174, 0.2404194325208664, 0.46957460045814514, 0.8330309987068176, 0.2277000993490219, 0.5573008060455322, 0.01845945231616497, 0.16957484185695648, 0.07831799238920212, 0.4812640845775604, -0.5127149820327759, -0.041614826768636703, 0.3197607398033142, 0.13233833014965057, -0.07374013215303421, -0.07167878746986389, -0.06203099340200424, 0.008490905165672302, 0.037222787737846375, 0.20597629249095917, -0.1539868265390396, -0.1387634426355362, -0.2737096846103668, -0.09555894881486893, 0.08241108059883118, -0.08148665726184845, -0.056273579597473145, -0.0040899282321333885, 0.051885075867176056, -0.0014838936040177941, -0.02974986471235752, -0.09185823798179626, 0.04049640893936157, -0.002992786467075348, 0.12414926290512085, -0.10815133899450302, 0.03458551689982414, 0.10691063851118088, -0.004532745573669672, -0.06250321120023727, -0.0396994985640049, 0.08028629422187805, 0.40484321117401123, 0.24499887228012085, 0.5334317088127136, 0.2158898115158081, -0.17973992228507996, 0.25571951270103455, 0.23507578670978546, 0.18902860581874847, -0.20714718103408813, 0.13920915126800537, 0.20893418788909912, 0.2697474956512451, 0.034203436225652695, 0.15637464821338654, 0.39350220561027527, -0.31304869055747986, 0.11833643913269043, -0.03774304687976837, 0.16613106429576874, 0.5215644836425781, 0.11598848551511765, 0.05280943214893341, 0.17796404659748077, -0.062388740479946136, 0.3699991703033447, 0.22651270031929016, 0.5826506018638611, 0.3602740466594696, 0.17503982782363892, -0.11801084131002426, 0.27988168597221375, -0.23914627730846405], "rec.bias_hh_l0": [0.40315425395965576, -0.67596435546875, 0.2177673578262329, -0.22170592844486237, 0.10990426689386368, -0.8975942134857178, 0.13320206105709076, -0.5016693472862244, 0.28928014636039734, -0.8571137189865112, 0.15759830176830292, 0.1685970425605774, 0.03618326038122177, 0.15106014907360077, 0.3911619782447815, 0.240058034658432, -0.20001907646656036, 0.0666545033454895, -0.3933262228965759, 0.049321286380290985, -0.5002928972244263, -0.6418501734733582, -0.46362149715423584, 0.05239223688840866, -0.06775153428316116, -0.5630717873573303, 0.06635390222072601, -0.4564276933670044, 0.1793438196182251, 0.05009937658905983, 0.38563090562820435, -0.5978015065193176, 0.06935743987560272, 0.8439971208572388, 0.2567269504070282, 0.34636491537094116, 0.06829879432916641, 0.8478889465332031, 0.21440723538398743, 0.5426965355873108, 0.06982798874378204, 0.8821327686309814, 0.13017794489860535, 0.21516738831996918, 0.012136760167777538, 0.07367131859064102, -0.009317596442997456, 0.157651886343956, 0.36756694316864014, 0.2356889247894287, 0.6360885500907898, 0.2724156081676483, 0.5581493973731995, 0.6222959756851196, 0.5925307869911194, 0.2497149258852005, 0.5179709196090698, 0.8366284966468811, 0.22616656124591827, 0.5574163198471069, 0.01863604225218296, 0.172398179769516, 0.096126027405262, 0.46528932452201843, -0.2517104744911194, -0.1290755420923233, 0.2974018156528473, 0.06199304014444351, 0.0019912293646484613, -0.013508675619959831, -0.10207636654376984, 0.14127083122730255, -0.047231659293174744, 0.0030555464327335358, -0.2614130973815918, -0.05113527178764343, -0.2811487019062042, -0.09131821990013123, 0.13109248876571655, -0.08045464754104614, -0.047358497977256775, -0.0032495062332600355, 0.010249968618154526, -0.01067981868982315, -0.01867072656750679, 0.04537184536457062, 0.11327575147151947, 0.05798323452472687, 0.1322026401758194, -0.17301838099956512, 0.03790649399161339, -0.03948219493031502, 0.027968931943178177, -0.04556716978549957, 0.20949961245059967, 0.14764824509620667, 0.40566107630729675, 0.24558918178081512, 0.5434268712997437, 0.21946929395198822, -0.18248651921749115, 0.2562238872051239, 0.2342991679906845, 0.17595906555652618, -0.20928680896759033, 0.15695109963417053, 0.19040897488594055, 0.2688283324241638, 0.0341690331697464, 0.15630769729614258, 0.39350202679634094, -0.23896542191505432, 0.11839335411787033, -0.02069767378270626, 0.16877296566963196, 0.4992481768131256, 0.07320152968168259, 0.05243423953652382, 0.1666254997253418, 0.1066993698477745, 0.4051726460456848, 0.23530170321464539, 0.5554365515708923, 0.3603458106517792, 0.17503733932971954, -0.10982616245746613, 0.27511653304100037, -0.1821838915348053], "lin.weight": [[0.0460418239235878, -1.1806565523147583, 0.08268619328737259, 0.03323711082339287, 0.004835743922740221, -0.10854597389698029, 1.0773475170135498, -0.029484674334526062, 0.41251179575920105, -0.35672807693481445, -0.19678831100463867, 0.1642313301563263, 0.2795172333717346, 0.015062944032251835, 0.014636646956205368, 0.5107744336128235, 0.2242797464132309, 0.4379449188709259, 0.5523847341537476, -0.30514001846313477, -0.09550022333860397, 0.33430057764053345, -0.23692190647125244, 0.055797550827264786, -0.42972227931022644, -0.09393636882305145, -0.23470820486545563, -0.06570656597614288, 0.1281045377254486, 0.0336400531232357, -0.054949089884757996, 0.008933505043387413]], "lin.bias": [0.14187060296535492]}}